svm_type c_svc
kernel_type rbf
gamma 0.125
nr_class 2
total_sv 1224
rho -116.386
label 1 0
probA -1.59179
probB 0.199363
nr_sv 573 651
SV
32768 1:-0.84 2:0.916033 3:0.672563 4:-0.298472 5:0.866659 6:-0.447751 7:-0.269005 8:-0.45 9:-0.865358 10:0.916479 11:0.174562 12:-0.144345 13:-0.626327 14:-0.691211 15:-0.987845 16:0.0343607 17:-0.484066 18:-0.956663 19:-0.211038 20:-0.888094 
32768 1:-0.96 2:0.900855 3:0.619907 4:-0.476852 5:0.83543 6:-0.597441 7:-0.445984 8:-0.0571429 9:-0.881066 10:0.873245 11:0.832692 12:0.168703 13:-0.372507 14:-0.615054 15:-0.98634 16:0.234072 17:-0.448886 18:-0.812929 19:0.0988517 20:-0.876966 
4128.463992598935 1:-0.94 2:0.903988 3:0.649246 4:-0.161882 5:0.780845 6:-0.409769 7:-0.165595 8:-0.266667 9:-0.806452 10:0.920214 11:-0.295649 12:-0.426575 13:-0.765714 14:-0.762157 15:-0.989101 16:-0.19671 17:-0.257778 18:-0.58014 19:-0.315496 20:-0.926257 
9719.088063448218 1:-1 2:0.908212 3:0.595611 4:-0.241877 5:0.87254 6:-0.292475 7:-0.210526 8:-0.674074 9:-0.835905 10:0.909991 11:0.575006 12:0.159633 13:-0.368823 14:-0.576453 15:-0.978227 16:-0.0751668 17:-0.291103 18:-0.609734 19:0.0204163 20:-0.69232 
476.5638773374997 1:-0.94 2:0.800411 3:0.655709 4:-0.45894 5:0.37446 6:0.65817 7:0.0638316 8:-0.733333 9:-0.453015 10:0.801254 11:0.77437 12:0.360385 13:-0.4675 14:-0.478118 15:-0.976613 16:-0.399972 17:-0.232341 18:-0.800559 19:0.742336 20:-0.39158 
23299.01617086872 1:-1 2:0.869803 3:0.468068 4:-0.0547953 5:0.822756 6:-0.561694 7:-0.0925579 8:-0.2 9:-0.841795 10:0.892499 11:0.851907 12:0.538439 13:-0.179533 14:-0.323552 15:-0.951593 16:-0.312457 17:0.427667 18:-0.981769 19:0.202743 20:-0.759343 
3197.157396341971 1:-1 2:0.902016 3:0.575153 4:-0.120247 5:0.594015 6:-0.150604 7:-0.147868 8:-0.741176 9:-0.655914 10:0.894788 11:0.660717 12:0.169989 13:-0.365502 14:-0.59006 15:-0.981927 16:-0.0154839 17:-0.368655 18:-0.543216 19:-0.286305 20:-0.727781 
2615.687111346679 1:-0.72 2:0.912204 3:0.726932 4:-0.421014 5:0.776644 6:-0.143902 7:-0.886816 8:-0.0666667 9:-0.776999 10:0.92344 11:-0.545228 12:-0.637492 13:-0.879754 14:-0.856053 15:-0.996682 16:-0.0851555 17:-0.17224 18:-0.834087 19:0.0762384 20:-0.999977 
31367.3376526197 1:-1 2:0.904267 3:0.520079 4:-0.0159726 5:0.719635 6:-0.472327 7:-0.222489 8:-1 9:-0.806452 10:0.907492 11:0.925203 12:0.430235 13:-0.253985 14:-0.472064 15:-0.978607 16:-0.109729 17:-0.063579 18:-0.892571 19:-0.322429 20:-0.878977 
32768 1:-0.479999 2:0.950126 3:0.769037 4:-0.681042 5:0.970635 6:-0.748621 7:-0.436089 8:0.0476191 9:-0.963534 10:0.907501 11:0.00565048 12:-0.46563 13:-0.740411 14:-0.830274 15:-0.9918 16:0.482649 17:-0.574832 18:-0.783538 19:-0.334887 20:-0.871463 
21479.1952659804 1:-0.94 2:0.910788 3:0.648792 4:-0.424383 5:0.865578 6:-0.697234 7:-0.561405 8:-0.528571 9:-0.917719 10:0.910569 11:-0.244788 12:-0.446723 13:-0.771995 14:-0.799654 15:-0.99186 16:-0.135915 17:-0.297177 18:-0.692541 19:-0.40698 20:-0.872345 
32768 1:-1 2:0.896631 3:0.528453 4:-0.259943 5:0.802048 6:0.0415355 7:-0.303405 8:-0.617391 9:-0.799907 10:0.897488 11:0.766382 12:0.302192 13:-0.223716 14:-0.523541 15:-0.982371 16:0.0243918 17:-0.278878 18:-0.86586 19:0.283045 20:-0.969396 
27738.33344541896 1:-1 2:0.849798 3:0.440436 4:0.0420759 5:0.782333 6:-0.458028 7:-0.262174 8:0.0476191 9:-0.771108 10:0.880154 11:0.49468 12:0.290886 13:-0.344473 14:-0.381143 15:-0.977436 16:-0.535705 17:0.16471 18:-0.928018 19:0.417364 20:-0.757534 
32768 1:-1 2:0.912807 3:0.533728 4:-0.261396 5:0.911486 6:-0.844318 7:-0.0909105 8:-0.633333 9:-0.924264 10:0.909438 11:0.446968 12:0.0319812 13:-0.44972 14:-0.634678 15:-0.977503 16:0.0155829 17:-0.10568 18:-0.705837 19:-0.256698 20:-0.680283 
7960.517630494497 1:-1 2:0.877485 3:0.454688 4:-0.105549 5:0.792727 6:-0.366203 7:-0.256968 8:-0.371429 9:-0.826087 10:0.870124 11:0.863544 12:0.335873 13:-0.122246 14:-0.524658 15:-0.982066 16:-0.00840509 17:-0.267712 18:-0.837073 19:0.624426 20:-0.923323 
32768 1:-0.98 2:0.900275 3:0.662961 4:-0.540125 5:0.895703 6:-0.408652 7:-0.229784 8:-0.580952 9:-0.894811 10:0.838552 11:0.674294 12:-0.0805599 13:-0.366403 14:-0.70732 15:-0.986626 16:0.377659 17:-0.418343 18:-0.736087 19:-0.252938 20:-0.747862 
26139.24461102067 1:-1 2:0.902224 3:0.525701 4:-0.242757 5:0.850312 6:-0.510755 7:-0.436089 8:-0.393103 9:-0.873212 10:0.907676 11:0.570574 12:0.184245 13:-0.42362 14:-0.555567 15:-0.982845 16:-0.0833106 17:-0.0413893 18:-0.90851 19:-0.02944 20:-0.900386 
32768 1:-0.82 2:0.917379 3:0.671095 4:-0.254302 5:0.81373 6:-0.0388951 7:-0.134821 8:-0.12 9:-0.773726 10:0.922835 11:0.452713 12:0.0871516 13:-0.537952 14:-0.595807 15:-0.986378 16:-0.00662747 17:-0.290206 18:-0.779253 19:-0.147541 20:-0.855893 
32768 1:-1 2:0.915523 3:0.592663 4:-0.246328 5:0.860618 6:-0.666701 7:-0.298247 8:-0.497143 9:-0.871903 10:0.915944 11:0.515093 12:0.101199 13:-0.484639 14:-0.603151 15:-0.984833 16:-0.142566 17:-0.269847 18:-0.803329 19:0.144424 20:-0.755554 
6159.915606589315 1:-1 2:0.839725 3:0.434904 4:0.0591535 5:0.694991 6:-0.0269794 7:0.161995 8:-0.853333 9:-0.708275 10:0.868765 11:0.97653 12:0.687007 13:0.0203398 14:-0.209805 15:-0.977218 16:-0.372354 17:-0.135496 18:-0.890205 19:-0.47749 20:-0.833637 
182.2169734854605 1:-1 2:0.835501 3:0.386712 4:-0.153305 5:0.846455 6:-0.65553 7:-0.0538158 8:-0.6 9:-0.884993 10:0.852808 11:0.955611 12:0.585713 13:-0.0761985 14:-0.334845 15:-0.972657 16:-0.344791 17:0.0192407 18:-0.944016 19:-0.134374 20:-0.722224 
14580.60098501058 1:-1 2:0.904035 3:0.545551 4:-0.161218 5:0.881061 6:-0.309231 7:-0.0627263 8:-0.661538 9:-0.845722 10:0.915409 11:0.513239 12:0.179849 13:-0.364632 14:-0.53714 15:-0.969334 16:-0.0812439 17:0.126131 18:-0.750958 19:-0.358693 20:-0.837626 
32768 1:-0.86 2:0.91789 3:0.663712 4:-0.22687 5:0.893583 6:-0.697979 7:-0.351116 8:-0.323077 9:-0.930809 10:0.93013 11:0.00892015 12:-0.20878 13:-0.688559 14:-0.688324 15:-0.989075 16:-0.119492 17:-0.255169 18:-0.814102 19:0.311113 20:-0.899544 
13572.39459730482 1:-1 2:0.889228 3:0.424191 4:0.078874 5:0.602816 6:-0.0895366 7:-0.0746105 8:-0.870588 9:-0.655914 10:0.909 11:0.428716 12:0.172312 13:-0.426334 14:-0.499338 15:-0.971315 16:-0.223663 17:-0.00632598 18:-0.864755 19:0.139808 20:-0.856146 
32768 1:-0.96 2:0.915894 3:0.640467 4:-0.455123 5:0.840326 6:-0.534884 7:-0.467021 8:-0.633333 9:-0.912482 10:0.898645 11:0.552505 12:0.0226255 13:-0.4923 14:-0.65778 15:-0.985956 16:0.226308 17:-0.408489 18:-0.937447 19:-0.388089 20:-0.879439 
32768 1:-1 2:0.888973 3:0.589953 4:-0.303881 5:0.81205 6:-0.265665 7:-0.298247 8:-0.56 9:-0.806452 10:0.885862 11:0.515261 12:0.101322 13:-0.41884 14:-0.603107 15:-0.98372 16:-0.159158 17:-0.368384 18:-0.922083 19:0.228841 20:-0.884179 
5557.795463035383 1:-1 2:0.891294 3:0.519507 4:-0.220549 5:0.889198 6:-0.559013 7:-0.229784 8:-0.674074 9:-0.88892 10:0.885897 11:0.882964 12:0.349284 13:-0.157496 14:-0.520044 15:-0.981277 16:0.00450145 17:-0.357085 18:-0.970668 19:0.642654 20:-0.760368 
7901.494644805189 1:-1 2:0.903663 3:0.621506 4:-0.223222 5:0.679629 6:0.0177042 7:-0.363795 8:-0.0666667 9:-0.669004 10:0.918285 11:0.516936 12:0.205107 13:-0.509128 14:-0.513435 15:-0.978117 16:-0.246131 17:-0.0773354 18:-0.873049 19:0.0292815 20:-0.965707 
6943.062965060453 1:-1 2:0.853023 3:0.549609 4:-0.158049 5:0.8741 6:-0.462273 7:-0.0187316 8:-0.790476 9:-0.894811 10:0.86119 11:0.431903 12:0.116178 13:-0.262255 14:-0.562479 15:-0.938554 16:-0.178384 17:0.411687 18:-0.982135 19:0.679605 20:-0.837928 
32768 1:-1 2:0.910463 3:0.578537 4:-0.267022 5:0.925988 6:-0.659253 7:-0.285253 8:-0.12 9:-0.937354 10:0.895147 11:0.644138 12:0.100976 13:-0.339187 14:-0.628029 15:-0.974106 16:-0.0439021 17:-0.306902 18:-0.793661 19:-0.514479 20:-0.830008 
9981.213595301275 1:-1 2:0.855414 3:0.465138 4:-0.129303 5:0.802448 6:-0.577333 7:-0.624058 8:-0.167568 9:-0.858813 10:0.877138 11:0.882676 12:0.556391 13:-0.321443 14:-0.322404 15:-0.984932 16:-0.363664 17:-0.305235 18:-0.999343 19:-0.052509 20:-0.882516 
32768 1:-0.92 2:0.916428 3:0.674837 4:-0.295489 5:0.806649 6:-0.284655 7:-0.730095 8:-0.323077 9:-0.845722 10:0.916952 11:0.53909 12:0.118501 13:-0.534107 14:-0.596945 15:-0.989195 16:-0.0626245 17:-0.480849 18:-0.885091 19:0.0760447 20:-0.940503 
2179.787262775607 1:-1 2:0.865208 3:0.498344 4:0.137448 5:0.805449 6:-0.422057 7:0.00618947 8:-0.674074 9:-0.835905 10:0.897286 11:0.978678 12:0.722566 13:-0.114734 14:-0.14977 15:-0.973856 16:-0.513253 17:-0.11982 18:-0.993065 19:0.548146 20:-0.793716 
32768 1:-1 2:0.903246 3:0.582481 4:-0.392577 5:0.863178 6:-0.591185 7:-0.284621 8:-0.175 9:-0.849649 10:0.887668 11:0.160498 12:-0.216181 13:-0.586598 14:-0.733805 15:-0.988975 16:0.140258 17:-0.228022 18:-0.964315 19:-0.190483 20:-0.664196 
32768 1:-1 2:0.851701 3:0.483943 4:-0.218308 5:0.834373 6:-0.282421 7:-0.226005 8:-0.6 9:-0.884993 10:0.835904 11:1 12:0.406295 13:0.00755257 14:-0.507927 15:-0.980021 16:-0.0883584 17:-0.132823 18:-0.998619 19:0.190322 20:-0.845809 
32768 1:-0.98 2:0.894148 3:0.554366 4:-0.111808 5:0.768483 6:-0.438814 7:-0.0333 8:-0.497143 9:-0.757363 10:0.905458 11:0.769972 12:0.381333 13:-0.306473 14:-0.456644 15:-0.981447 16:-0.147966 17:-0.257801 18:-0.934065 19:0.104113 20:-0.698487 
14868.0627789299 1:-1 2:0.870522 3:0.354263 4:-0.0564026 5:0.895023 6:-0.640635 7:-0.0775895 8:-0.371429 9:-0.871903 10:0.882688 11:0.828279 12:0.441822 13:-0.0526936 14:-0.423582 15:-0.980875 16:-0.13709 17:-0.381126 18:-0.989735 19:0.0138031 20:-0.707128 
5189.886024559115 1:-1 2:0.878692 3:0.55177 4:-0.114173 5:0.867883 6:-0.558119 7:-0.00276842 8:0.1 9:-0.818233 10:0.901144 11:0.91572 12:0.589059 13:-0.222103 14:-0.30314 15:-0.972738 16:-0.277225 17:-0.362094 18:-0.58821 19:0.471476 20:-0.659497 
32768 1:-1 2:0.896515 3:0.573153 4:-0.178743 5:0.865482 6:-0.430324 7:-0.451753 8:0.164706 9:-0.833941 10:0.906379 11:0.702939 12:0.318225 13:-0.383104 14:-0.487691 15:-0.985233 16:-0.0842845 17:-0.549186 18:-0.957984 19:0.199555 20:-0.839066 
32768 1:-1 2:0.857108 3:0.555595 4:-0.110124 5:0.882741 6:-0.312583 7:0.0396368 8:-0.12 9:-0.806452 10:0.874552 11:0.784282 12:0.446641 13:-0.200091 14:-0.393952 15:-0.970569 16:-0.212162 17:0.051471 18:-0.831675 19:0.131508 20:-0.795127 
32768 1:-1 2:0.865974 3:0.509092 4:-0.18678 5:0.843015 6:-0.309231 7:-0.160947 8:-0.45 9:-0.865358 10:0.869677 11:0.91332 12:0.451542 13:-0.0601294 14:-0.450536 15:-0.977862 16:-0.09284 17:-0.197836 18:-0.943867 19:-0.0852225 20:-0.846005 
32768 1:-0.98 2:0.903547 3:0.544495 4:-0.141466 5:0.81501 6:-0.168478 7:0.0678895 8:-0.45 9:-0.786816 10:0.910499 11:0.918078 12:0.455124 13:-0.121552 14:-0.449188 15:-0.969527 16:-0.0689629 17:-0.096534 18:-0.623328 19:-0.0686346 20:-0.753456 
717.2382799602655 1:-1 2:0.796814 3:0.359539 4:-0.120973 5:0.764442 6:0.0385566 7:-0.0712053 8:-0.12 9:-0.773726 10:0.810951 11:0.991038 12:0.599646 13:0.358588 14:-0.339898 15:-0.973039 16:-0.337712 17:0.206487 18:-0.992296 19:0.269942 20:-0.952418 
32768 1:-1 2:0.871265 3:0.57757 4:-0.245879 5:0.843015 6:-0.452219 7:0.0835895 8:-0.633333 9:-0.865358 10:0.87869 11:0.893698 12:0.458788 13:-0.107028 14:-0.436503 15:-0.957765 16:-0.258764 17:0.162085 18:-0.809197 19:0.332232 20:-0.72379 
32768 1:-0.84 2:0.915685 3:0.687782 4:-0.29076 5:0.838374 6:-0.631698 7:-0.463937 8:-0.266667 9:-0.865358 10:0.916111 11:0.17768 12:-0.142095 13:-0.667055 14:-0.690405 15:-0.990152 16:-0.00816755 17:-0.448623 18:-0.549606 19:-0.175574 20:-0.90293 
32768 1:-0.96 2:0.909605 3:0.65146 4:-0.352379 5:0.859177 6:-0.616059 7:-0.372284 8:-0.388889 9:-0.865358 10:0.907474 11:0.49231 12:0.0744273 13:-0.54621 14:-0.616328 15:-0.9848 16:0.0494923 17:-0.395802 18:-0.897685 19:-0.535756 20:-0.867954 
32768 1:-0.98 2:0.879063 3:0.499561 4:-0.186285 5:0.869611 6:-0.516117 7:-0.0789474 8:-0.528571 9:-0.881066 10:0.885222 11:0.809817 12:0.382761 13:-0.24073 14:-0.471913 15:-0.979396 16:-0.164305 17:-0.310932 18:-0.898589 19:-0.121069 20:-0.89428 
32768 1:-0.98 2:0.878761 3:0.494626 4:-0.268969 5:0.897881 6:-0.754472 7:-0.326805 8:-0.393103 9:-0.938289 10:0.876849 11:0.902597 12:0.397522 13:-0.256817 14:-0.490529 15:-0.982767 16:-0.207799 17:-0.185007 18:-0.904031 19:0.201976 20:-0.750134 
32768 1:-0.98 2:0.920791 3:0.63361 4:-0.522321 5:0.856361 6:-0.557226 7:-0.429295 8:-1 9:-0.912482 10:0.894945 11:0.548477 12:-0.0321312 13:-0.512038 14:-0.683771 15:-0.983237 16:0.133717 17:-0.45488 18:-0.525112 19:-0.23185 20:-0.94088 
32768 1:-0.98 2:0.91717 3:0.635012 4:-0.315998 5:0.804849 6:-0.406418 7:-0.318884 8:-0.371429 9:-0.826087 10:0.915637 11:0.610346 12:0.155442 13:-0.446765 14:-0.588637 15:-0.982286 16:-0.0489261 17:-0.0940315 18:-0.715378 19:-0.0334092 20:-0.785389 
18621.27106549848 1:-0.9 2:0.927382 3:0.685305 4:-0.457565 5:0.785086 6:0.0772824 7:-0.624058 8:-0.8 9:-0.812997 10:0.919144 11:0.455917 12:-0.00548249 13:-0.558746 14:-0.659656 15:-0.987846 16:0.11199 17:-0.460679 18:-0.815774 19:-0.383678 20:-0.927595 
7527.560100763932 1:-1 2:0.816378 3:0.554724 4:-0.404755 5:0.844695 6:-0.40195 7:0.184211 8:-0.648 9:-0.85554 10:0.78392 11:0.955639 12:0.326299 13:-0.054137 14:-0.548235 15:-0.96927 16:-0.0321713 17:0.0569194 18:-0.999597 19:0.0015212 20:-0.681491 
32768 1:-0.92 2:0.924179 3:0.638736 4:-0.077313 5:0.789246 6:-0.568843 7:-0.421632 8:-0.866667 9:-0.841795 10:0.939652 11:0.673716 12:0.32809 13:-0.496633 14:-0.464246 15:-0.96671 16:-0.275333 17:0.0625197 18:-0.964897 19:0.0188664 20:-0.95827 
32768 1:-1 2:0.860891 3:0.488031 4:-0.215155 5:0.826308 6:-0.5608 7:-0.0320632 8:-0.56 9:-0.865358 10:0.862163 11:0.359456 12:0.0253167 13:-0.38373 14:-0.615407 15:-0.984242 16:-0.122018 17:-0.183028 18:-0.824949 19:-0.418304 20:-0.852732 
32768 1:-0.9 2:0.912529 3:0.631187 4:-0.473051 5:0.845991 6:-0.483944 7:-0.521532 8:-0.371429 9:-0.881066 10:0.903669 11:0.166213 12:-0.191774 13:-0.656301 14:-0.720595 15:-0.988801 16:0.0118059 17:-0.563098 18:-0.807644 19:-0.200935 20:-0.910849 
32768 1:-1 2:0.855855 3:0.601173 4:-0.128144 5:0.790975 6:-0.547395 7:-0.0131579 8:-0.286486 9:-0.810379 10:0.882039 11:0.699108 12:0.436817 13:-0.430123 14:-0.343897 15:-0.977066 16:-0.461876 17:-0.0217247 18:-0.975655 19:0.283939 20:-0.812235 
32768 1:-0.98 2:0.904731 3:0.678137 4:-0.454304 5:0.932405 6:-0.571524 7:-0.179768 8:-0.0833333 9:-0.912482 10:0.890176 11:-0.539575 12:-0.68553 13:-0.839012 14:-0.892549 15:-0.995122 16:0.0928004 17:-0.323951 18:-0.938208 19:-0.229039 20:-0.770719 
32768 1:-0.98 2:0.897861 3:0.622073 4:-0.33884 5:0.835654 6:-0.622017 7:-0.301353 8:-0.189474 9:-0.852267 10:0.897681 11:0.394453 12:0.0239166 13:-0.55168 14:-0.627259 15:-0.983882 16:-0.0530277 17:-0.391249 18:-0.792101 19:0.258957 20:-0.770676 
1916.367694947006 1:-0.92 2:0.925293 3:0.646131 4:-0.487825 5:0.594015 6:0.0832402 7:-0.580811 8:-0.12 9:-0.642824 10:0.913936 11:-0.704788 12:-0.798657 13:-0.906274 14:-0.931326 15:-0.997402 16:0.193832 17:-0.241185 18:-0.675751 19:0.150837 20:-0.918082 
32768 1:-0.459999 2:0.926709 3:0.752117 4:-0.480562 5:0.808161 6:-0.556332 7:-0.421053 8:-0.432258 9:-0.857504 10:0.915856 11:0.280118 12:-0.137867 13:-0.669721 14:-0.707724 15:-0.985985 16:0.0801354 17:-0.303135 18:-0.799857 19:-0.234005 20:-0.905349 
23615.10082461781 1:-1 2:0.896585 3:0.56857 4:-0.0767103 5:0.845319 6:-0.50718 7:-0.293968 8:-0.290323 9:-0.857504 10:0.918548 11:0.778591 12:0.472994 13:-0.361044 14:-0.356891 15:-0.979682 16:-0.285053 17:-0.208638 18:-0.906972 19:0.287159 20:-0.957725 
32768 1:-0.92 2:0.934553 3:0.675034 4:-0.110124 5:0.90072 6:-0.545608 7:-0.466058 8:-0.472 9:-0.904628 10:0.95034 11:-0.0352141 12:-0.228719 13:-0.705134 14:-0.687397 15:-0.984669 16:-0.176523 17:-0.117931 18:-0.982098 19:0.150016 20:-0.886081 
21852.64285556554 1:-1 2:0.856481 3:0.561086 4:-0.272354 5:0.782717 6:-0.449091 7:-0.542332 8:-0.0666667 9:-0.841795 10:0.866643 11:0.756052 12:0.37701 13:-0.383771 14:-0.454498 15:-0.982544 16:-0.256227 17:0.00705065 18:-0.83119 19:0.335717 20:-0.921603 
4177.071531262417 1:-1 2:0.880038 3:0.595354 4:-0.182174 5:0.594095 6:0.521885 7:0.0212105 8:-0.816667 9:-0.629734 10:0.89114 11:0.895247 12:0.482864 13:-0.210589 14:-0.41418 15:-0.964574 16:-0.382655 17:-0.193558 18:-0.729167 19:0.204246 20:-0.917611 
11235.61277269875 1:-0.92 2:0.892988 3:0.655417 4:-0.368375 5:0.846615 6:-0.60042 7:-0.571605 8:-0.706667 9:-0.904628 10:0.899627 11:0.941463 12:0.477136 13:-0.40961 14:-0.438739 15:-0.976832 16:-0.149122 17:0.023289 18:-0.832407 19:-0.0392232 20:-0.968994 
32768 1:-1 2:0.89445 3:0.65155 4:-0.244767 5:0.809217 6:-0.589398 7:-0.239063 8:-0.56 9:-0.865358 10:0.908053 11:0.645167 12:0.301164 13:-0.467738 14:-0.477947 15:-0.979514 16:-0.255451 17:-0.198417 18:-0.982605 19:0.178527 20:-0.955862 
5946.229619684133 1:-1 2:0.860032 3:0.497693 4:-0.0495097 5:0.859434 6:-0.612633 7:0.395053 8:-0.333333 9:-0.841795 10:0.892622 11:0.72656 12:0.507953 13:-0.235482 14:-0.251651 15:-0.963819 16:-0.357559 17:0.132915 18:-0.868525 19:0.30198 20:-0.644368 
32768 1:-1 2:0.876997 3:0.499436 4:-0.185714 5:0.851848 6:-0.542033 7:0.101589 8:-0.706667 9:-0.865358 10:0.882267 11:0.76119 12:0.341105 13:-0.204369 14:-0.490136 15:-0.971454 16:-0.171705 17:-0.0893386 18:-0.974057 19:-0.379224 20:-0.661259 
2948.054533995383 1:-1 2:0.838913 3:0.435363 4:-0.169594 5:0.834494 6:-0.253377 7:-0.3135 8:-0.323077 9:-0.845722 10:0.860129 11:0.979596 12:0.631964 13:-0.109481 14:-0.293029 15:-0.959161 16:-0.412008 17:0.367179 18:-0.358631 19:0.406876 20:-0.914255 
16300.78846850855 1:-1 2:0.885283 3:0.479718 4:-0.263467 5:0.769243 6:-0.944112 7:-0.294211 8:-0.555056 9:-0.809724 10:0.886502 11:0.963368 12:0.458824 13:-0.396653 14:-0.461371 15:-0.967405 16:-0.111448 17:-0.0236831 18:-0.712369 19:-0.137705 20:-0.59168 
32768 1:-1 2:0.905009 3:0.609481 4:-0.179192 5:0.827412 6:-0.644359 7:-0.3135 8:-0.34 9:-0.839177 10:0.912121 11:0.657162 12:0.2588 13:-0.447602 14:-0.523089 15:-0.982294 16:-0.134755 17:-0.314208 18:-0.919283 19:-0.113527 20:-0.825317 
32768 1:-1 2:0.886025 3:0.617878 4:-0.268521 5:0.841255 6:-0.701703 7:-0.0342842 8:-0.189474 9:-0.852267 10:0.891947 11:0.301053 12:-0.00671901 13:-0.552274 14:-0.621852 15:-0.982573 16:-0.204078 17:0.0153833 18:-0.865927 19:-0.0216689 20:-0.571264 
5989.23307095376 1:-1 2:0.882474 3:0.437213 4:0.00439691 5:0.816803 6:-0.454453 7:-0.322563 8:0.21 9:-0.786816 10:0.913252 11:0.604492 12:0.397049 13:-0.389669 14:-0.314087 15:-0.977675 16:-0.432393 17:-0.105743 18:-0.890436 19:0.172961 20:-0.842574 
32768 1:-1 2:0.899648 3:0.566869 4:-0.325271 5:0.878181 6:-0.338276 7:-0.0672895 8:-0.472 9:-0.85554 10:0.88723 11:0.885557 12:0.296114 13:-0.193574 14:-0.55439 15:-0.976013 16:-0.0349981 17:-0.245984 18:-0.805457 19:0.00241719 20:-0.830803 
32768 1:-0.96 2:0.908885 3:0.633395 4:-0.157153 5:0.74976 6:-0.476795 7:-0.0333 8:-0.352941 9:-0.767181 10:0.915813 11:0.686114 12:0.277107 13:-0.436327 14:-0.517865 15:-0.980426 16:-0.215915 17:-0.153699 18:-0.818245 19:-0.119455 20:-0.704722 
32768 1:-1 2:0.85806 3:0.507899 4:-0.249496 5:0.841655 6:-0.692766 7:0.0204105 8:-0.733333 9:-0.884993 10:0.85329 11:0.952283 12:0.431544 13:-0.0794969 14:-0.479038 15:-0.981308 16:-0.00274363 17:-0.255025 18:-0.844807 19:0.168922 20:-0.823911 
32768 1:-1 2:0.920025 3:0.640282 4:-0.103988 5:0.865178 6:-0.703192 7:-0.0775895 8:-0.371429 9:-0.871903 10:0.934532 11:0.298879 12:0.028599 13:-0.583525 14:-0.587529 15:-0.98462 16:-0.124323 17:-0.0703597 18:-0.888727 19:0.0545497 20:-0.768599 
32768 1:-0.98 2:0.902712 3:0.599168 4:0.000857746 5:0.810946 6:-0.530415 7:-0.294626 8:-0.497143 9:-0.826087 10:0.916382 11:0.677358 12:0.324022 13:-0.440642 14:-0.47032 15:-0.981388 16:-0.202067 17:-0.544199 18:-0.905651 19:0.151528 20:-0.877327 
32768 1:-0.479999 2:0.960848 3:0.769669 4:-0.249048 5:0.866923 6:-0.684127 7:-0.401916 8:0.1 9:-0.881066 10:0.961089 11:-0.747485 12:-0.820755 13:-0.936548 14:-0.93725 15:-0.998458 16:0.211299 17:-0.540334 18:-0.808055 19:-0.362762 20:-0.837868 
32768 1:-0.94 2:0.923135 3:0.659941 4:-0.541871 5:0.888718 6:-0.607271 7:-0.422337 8:-0.426087 9:-0.920337 10:0.891833 11:-0.0506652 12:-0.426761 13:-0.702173 14:-0.814811 15:-0.992369 16:0.211517 17:-0.572845 18:-0.90527 19:-0.0202159 20:-0.867962 
32768 1:-1 2:0.889901 3:0.545969 4:-0.20089 5:0.902224 6:-0.719576 7:0.0233895 8:-1 9:-0.950444 10:0.877682 11:0.903398 12:0.320903 13:-0.145451 14:-0.542636 15:-0.97939 16:-0.0776214 17:-0.24068 18:-0.831698 19:-0.0277515 20:-0.702426 
32768 1:-0.88 2:0.905172 3:0.684428 4:-0.463329 5:0.851603 6:-0.88292 7:-0.382537 8:-0.2 9:-0.860994 10:0.88773 11:0.74784 12:0.165011 13:-0.505474 14:-0.607482 15:-0.986913 16:0.166736 17:-0.517452 18:-0.874983 19:-0.0427984 20:-0.703981 
32768 1:-0.86 2:0.925038 3:0.710747 4:-0.262122 5:0.818339 6:-0.950442 7:-0.229784 8:-0.12 9:-0.845722 10:0.917943 11:-0.0586355 12:-0.349038 13:-0.743387 14:-0.775398 15:-0.991364 16:0.0806422 17:-0.411507 18:-0.815535 19:-0.0782219 20:-0.608614 
32768 1:-1 2:0.91608 3:0.627934 4:-0.288458 5:0.889534 6:-0.8928 7:-0.466574 8:-0.472 9:-0.904628 10:0.918986 11:0.396903 12:0.0305628 13:-0.582456 14:-0.622965 15:-0.985795 16:-0.0653443 17:-0.375027 18:-0.939761 19:0.0577573 20:-0.881998 
25247.2096248325 1:-0.94 2:0.932325 3:0.636427 4:-0.524036 5:0.842343 6:-0.60459 7:-0.294626 8:-0.371429 9:-0.881066 10:0.909693 11:0.562051 12:-0.0254349 13:-0.489615 14:-0.6818 15:-0.971425 16:0.17815 17:-0.191102 18:-0.947271 19:-0.323028 20:-0.673985 
32768 1:-1 2:0.89937 3:0.578554 4:-0.284377 5:0.838534 6:-0.68085 7:-0.0468316 8:-0.685714 9:-0.826087 10:0.896024 11:0.730137 12:0.245957 13:-0.387271 14:-0.554814 15:-0.98267 16:-0.0258962 17:-0.357524 18:-0.930459 19:-0.119371 20:-0.686281 
7713.752015410861 1:-1 2:0.916521 3:0.604766 4:-0.435681 5:0.737878 6:-0.352798 7:-0.448621 8:-0.45 9:-0.786816 10:0.900092 11:0.265747 12:-0.162884 13:-0.593516 14:-0.719247 15:-0.987034 16:-0.0279985 17:-0.174527 18:-0.719372 19:-0.229541 20:-0.953282 
32768 1:-1 2:0.90805 3:0.553226 4:-0.122009 5:0.800384 6:-0.595653 7:-0.106258 8:-0.524324 9:-0.810379 10:0.916032 11:0.724026 12:0.314248 13:-0.382502 14:-0.499697 15:-0.977538 16:-0.105489 17:-0.0451133 18:-0.607076 19:0.018184 20:-0.877956 
32768 1:-0.84 2:0.9252 3:0.71302 4:-0.180923 5:0.857897 6:-0.724045 7:-0.373432 8:-0.00645161 9:-0.898083 10:0.943466 11:0.411375 12:0.143245 13:-0.595942 14:-0.523367 15:-0.987037 16:-0.134628 17:-0.283889 18:-0.912355 19:-0.0855153 20:-0.826146 
32768 1:-0.98 2:0.92281 3:0.593278 4:-0.289308 5:0.835238 6:-0.597441 7:-0.490663 8:-0.696552 9:-0.873212 10:0.912191 11:0.458222 12:-0.012347 13:-0.489772 14:-0.66393 15:-0.987317 16:0.0957302 17:-0.228724 18:-0.815841 19:-0.193455 20:-0.922927 
32768 1:-0.6 2:0.934205 3:0.773668 4:-0.344327 5:0.768027 6:-0.564375 7:-0.578947 8:-0.482353 9:-0.833941 10:0.940257 11:-0.338592 12:-0.503303 13:-0.836833 14:-0.815652 15:-0.991819 16:-0.056282 17:-0.225351 18:-0.685531 19:-0.066792 20:-0.993163 
32768 1:-0.98 2:0.880455 3:0.58238 4:-0.269834 5:0.806049 6:-0.585823 7:-0.186111 8:-0.466667 9:-0.841795 10:0.88068 11:0.499335 12:0.113732 13:-0.458721 14:-0.589353 15:-0.983864 16:-0.0530435 17:-0.184389 18:-0.971922 19:-0.277524 20:-0.672218 
32768 1:-0.92 2:0.910904 3:0.677344 4:-0.242062 5:0.808353 6:-0.492881 7:-0.603847 8:-0.12 9:-0.826087 10:0.932112 11:0.143826 12:-0.0506744 13:-0.671659 14:-0.58723 15:-0.987239 16:-0.364178 17:-0.335712 18:-0.750428 19:0.118863 20:-0.871705 
6354.43630038424 1:-1 2:0.873911 3:0.498075 4:-0.387709 5:0.7524 6:-0.205342 7:-0.516032 8:-0.241379 9:-0.816269 10:0.868783 11:0.520947 12:0.105422 13:-0.456632 14:-0.601637 15:-0.973326 16:-0.0831403 17:0.580726 18:-0.78097 19:0.1133 20:-0.833166 
972.9843912828802 1:-1 2:0.877694 3:0.586593 4:-0.100233 5:0.75276 6:-0.447304 7:-0.608063 8:-0.524324 9:-0.810379 10:0.90751 11:0.538378 12:0.331895 13:-0.534929 14:-0.356822 15:-0.977852 16:-0.532965 17:0.260749 18:-0.981575 19:0.155858 20:-0.958362 
20373.95753686414 1:-1 2:0.883472 3:0.514428 4:-0.227967 5:0.872108 6:-0.576886 7:-0.102868 8:-0.393103 9:-0.873212 10:0.877086 11:0.88648 12:0.352648 13:-0.152267 14:-0.518568 15:-0.97242 16:-0.176558 17:-0.198712 18:-0.96312 19:0.431044 20:-0.601242 
20228.28697826659 1:-1 2:0.843206 3:0.596757 4:-0.250469 5:0.822212 6:0.0430249 7:-0.232458 8:-0.266667 9:-0.865358 10:0.863347 11:0.803572 12:0.481059 13:-0.296967 14:-0.364219 15:-0.971489 16:-0.415139 17:-0.117461 18:-0.998686 19:0.421089 20:-0.860256 
32768 1:-0.96 2:0.917031 3:0.663426 4:-0.123276 5:0.861354 6:-0.66536 7:0.127821 8:-0.706667 9:-0.865358 10:0.929674 11:0.622011 12:0.267028 13:-0.427918 14:-0.501279 15:-0.97384 16:-0.164519 17:-0.366782 18:-0.946457 19:-0.189263 20:-0.689637 
32768 1:-1 2:0.891177 3:0.582762 4:-0.3553 5:0.806649 6:-0.343861 7:-0.376732 8:-0.633333 9:-0.865358 10:0.876656 11:0.783908 12:0.223655 13:-0.36722 14:-0.579953 15:-0.983794 16:0.0805471 17:-0.536659 18:-0.995394 19:-0.423629 20:-0.843699 
32768 1:-0.82 2:0.924295 3:0.67726 4:-0.267223 5:0.85108 6:-0.629613 7:-0.293968 8:-0.0896552 9:-0.873212 10:0.935768 11:-0.100643 12:-0.298618 13:-0.711941 14:-0.726295 15:-0.990985 16:-0.155761 17:-0.303379 18:-0.987174 19:0.0750122 20:-0.882547 
32768 1:-1 2:0.891317 3:0.512661 4:-0.0293256 5:0.793687 6:-0.405301 7:-0.0430632 8:-0.544828 9:-0.816269 10:0.91256 11:0.77404 12:0.463589 13:-0.260303 14:-0.366018 15:-0.974712 16:-0.327054 17:-0.0118996 18:-0.982165 19:0.278054 20:-0.779267 
28347.84070356749 1:-1 2:0.904406 3:0.611719 4:-0.226823 5:0.736678 6:0.555398 7:-0.282295 8:-0.234783 9:-0.649369 10:0.911788 11:0.691804 12:0.287585 13:-0.273075 14:-0.51093 15:-0.979713 16:-0.0769681 17:-0.498081 18:-0.893221 19:0.0964345 20:-0.963689 
6242.236303690845 1:-1 2:0.889251 3:0.467883 4:-0.521239 5:0.665915 6:-0.886991 7:-0.479263 8:-0.494253 9:-0.759327 10:0.8683 11:0.965467 12:0.310138 13:-0.406015 14:-0.558558 15:-0.980664 16:-0.039559 17:-0.32941 18:-0.760873 19:0.0135389 20:-0.43602 
32768 1:-0.9 2:0.92722 3:0.668618 4:-0.361559 5:0.821011 6:-0.996615 7:-0.333174 8:-0.617391 9:-0.875175 10:0.917785 11:-0.370238 12:-0.570552 13:-0.826864 14:-0.853336 15:-0.995319 16:0.151482 17:-0.571722 18:-0.709368 19:-0.250417 20:-0.634657 
3813.860656734452 1:-0.54 2:0.942374 3:0.753442 4:-0.570138 5:0.872108 6:-0.951335 7:-0.436089 8:-0.315556 9:-0.924264 10:0.909289 11:-0.0362353 12:-0.447037 13:-0.753353 14:-0.823332 15:-0.989617 16:0.19787 17:-0.413574 18:-0.514899 19:-0.0395204 20:-0.601776 
15608.06396515459 1:-0.499999 2:0.944231 3:0.71613 4:-0.276913 5:0.858437 6:-0.775058 7:-0.766084 8:-0.804444 9:-0.880084 10:0.948481 11:-0.175804 12:-0.396981 13:-0.784201 14:-0.781815 15:-0.99451 16:0.0693074 17:-0.912015 18:-0.699484 19:0.0464418 20:-0.989946 
29967.40987717662 1:0.86 2:0.969203 3:0.85737 4:-0.485399 5:0.910157 6:-0.809369 7:-0.267737 8:-0.371429 9:-0.904628 10:0.965201 11:-0.70188 12:-0.801371 13:-0.944699 14:-0.933164 15:-0.997637 16:0.249659 17:-0.556662 18:-0.502775 19:-0.395167 20:-0.821838 
1515.541983219401 1:-1 2:0.888648 3:0.442107 4:0.0364967 5:0.820355 6:-0.54382 7:-0.248121 8:-0.45 9:-0.849649 10:0.912069 11:0.817968 12:0.51765 13:-0.23788 14:-0.32588 15:-0.943246 16:-0.346988 17:0.711013 18:-0.531868 19:-0.062563 20:-0.833776 
24038.16667063855 1:-1 2:0.886605 3:0.46654 4:-0.354867 5:0.862578 6:-0.342744 7:-0.144737 8:0.184615 9:-0.845722 10:0.877682 11:0.636415 12:0.157474 13:-0.233924 14:-0.59309 15:-0.97084 16:-0.112315 17:0.142098 18:-0.968309 19:0.244792 20:-0.818627 
32768 1:-1 2:0.905891 3:0.568445 4:-0.215711 5:0.788166 6:-0.408652 7:-0.248121 8:-0.432258 9:-0.796634 10:0.909184 11:0.505019 12:0.119651 13:-0.40957 14:-0.586459 15:-0.985576 16:-0.0645723 17:-0.212613 18:-0.712937 19:0.175282 20:-0.910813 
2663.679917578147 1:-0.98 2:0.886466 3:0.617329 4:-0.297097 5:0.630181 6:0.208354 7:-1 8:-0.290323 9:-0.695185 10:0.903836 11:0.54071 12:0.246489 13:-0.536227 14:-0.480807 15:-0.993383 16:-0.301111 17:-0.999058 18:-0.983143 19:0.174117 20:-0.959163 
19269.9852581449 1:-1 2:0.854184 3:0.470998 4:-0.342132 5:0.843879 6:-0.575993 7:-0.132447 8:-0.266667 9:-0.865358 10:0.843593 11:0.860482 12:0.334964 13:-0.208566 14:-0.524558 15:-0.972563 16:-0.0734961 17:-0.141215 18:-0.711996 19:-0.453184 20:-0.775111 
5637.641656711799 1:-0.98 2:0.884494 3:0.600958 4:-0.548625 5:0.698032 6:-0.125283 7:-0.315789 8:-0.185185 9:-0.747546 10:0.829775 11:0.876742 12:0.0910885 13:-0.328838 14:-0.650409 15:-0.983617 16:0.140373 17:-0.391986 18:-0.464701 19:0.423121 20:-0.799992 
10192.93473558202 1:-1 2:0.89438 3:0.549377 4:-0.211477 5:0.899376 6:-0.553651 7:-0.307479 8:-0.661538 9:-0.896774 10:0.89726 11:0.752264 12:0.307501 13:-0.275718 14:-0.515105 15:-0.975475 16:-0.101958 17:-0.0577898 18:-0.722821 19:0.587023 20:-0.883125 
32768 1:-1 2:0.898372 3:0.576131 4:-0.0339003 5:0.819251 6:-0.39413 7:-0.210526 8:-0.241379 9:-0.816269 10:0.912726 11:0.535343 12:0.219191 13:-0.411997 14:-0.508033 15:-0.981691 16:-0.217752 17:-0.213772 18:-0.781955 19:0.142443 20:-0.81839 
32768 1:-0.88 2:0.964561 3:0.720874 4:-0.424198 5:0.903601 6:-0.617995 7:-0.438595 8:-0.56 9:-0.943899 10:0.939827 11:0.00902521 12:-0.423688 13:-0.693574 14:-0.815987 15:-0.992286 16:0.523356 17:-0.624215 18:-0.72577 19:-0.551204 20:-0.850769 
1316.710573383044 1:-1 2:0.800225 3:0.397275 4:-0.143398 5:0.68771 6:0.577739 7:0.270416 8:-0.426087 9:-0.649369 10:0.835176 11:0.931331 12:0.679693 13:0.26706 14:-0.173722 15:-0.964801 16:-0.369016 17:0.152615 18:-0.99991 19:0.427372 20:-0.752376 
4032.55575332079 1:-1 2:0.841791 3:0.36987 4:0.00492238 5:0.657785 6:-0.637656 7:-0.0885053 8:-0.288235 9:-0.655914 10:0.864951 11:0.947891 12:0.619862 13:-0.232094 14:-0.285614 15:-0.978008 16:-0.321191 17:-0.126319 18:-0.968376 19:0.0288126 20:-0.630983 
30181.72815094582 1:0.419999 2:0.97591 3:0.81628 4:-0.566769 5:0.914546 6:-0.753089 7:-0.571605 8:-0.234783 9:-0.950444 10:0.956337 11:-0.611559 12:-0.781009 13:-0.915762 14:-0.930383 15:-0.996244 16:0.436736 17:-0.400323 18:-0.555019 19:-0.356868 20:-0.890868 
32768 1:-0.791326 2:0.921487 3:0.754792 4:-0.471878 5:0.867425 6:-0.458835 7:-0.262453 8:-0.486966 9:-0.905258 10:0.911429 11:0.184186 12:-0.209803 13:-0.685301 14:-0.736528 15:-0.985526 16:0.0679059 17:-0.509809 18:-0.517997 19:-0.122718 20:-0.910906 
4371.513267028472 1:-0.561016 2:0.923785 3:0.752414 4:-0.513906 5:0.869219 6:-0.49772 7:-0.254832 8:-0.475726 9:-0.887811 10:0.909289 11:0.185478 12:-0.222141 13:-0.664859 14:-0.710086 15:-0.984168 16:0.0794386 17:-0.503267 18:-0.515952 19:-0.138064 20:-0.9122 
32768 1:-0.483819 2:0.924574 3:0.766227 4:-0.434399 5:0.867904 6:-0.479941 7:-0.251979 8:-0.503391 9:-0.918297 10:0.914699 11:0.195876 12:-0.240725 13:-0.688768 14:-0.730434 15:-0.986862 16:0.045644 17:-0.50726 18:-0.729629 19:-0.109923 20:-0.897016 
32768 1:-0.566932 2:0.921719 3:0.726582 4:-0.364528 5:0.869225 6:-0.479083 7:-0.251058 8:-0.480018 9:-0.895637 10:0.904607 11:0.190706 12:-0.185786 13:-0.656319 14:-0.734716 15:-0.985563 16:0.0742602 17:-0.514736 18:-0.889682 19:-0.194111 20:-0.91233 
4016.564937064911 1:-1 2:0.892199 3:0.493188 4:-0.0707775 5:0.869155 6:-0.616304 7:-0.278226 8:-0.445359 9:-0.879392 10:0.898847 11:0.423242 12:0.148859 13:-0.370208 14:-0.529089 15:-0.974944 16:-0.227215 17:0.169968 18:-0.783366 19:0.166265 20:-0.873156 
13947.52893159512 1:-1 2:0.866531 3:0.460276 4:-0.234933 5:0.869709 6:-0.638806 7:-0.260642 8:-0.504391 9:-0.904628 10:0.862189 11:0.793834 12:0.239734 13:-0.18339 14:-0.550853 15:-0.971445 16:-0.0810499 17:-0.0661328 18:-0.948048 19:0.116547 20:-0.901346 
32768 1:-1 2:0.866763 3:0.490327 4:-0.248595 5:0.873284 6:-0.627591 7:-0.00125263 8:-0.485857 9:-0.88049 10:0.864478 11:0.679513 12:0.245812 13:-0.1997 14:-0.549285 15:-0.951966 16:-0.176962 17:-0.0147633 18:-0.546837 19:0.194212 20:-0.856961 
32768 1:-0.909791 2:0.906866 3:0.630098 4:-0.35137 5:0.836609 6:-0.627645 7:-0.453511 8:-0.145097 9:-0.879816 10:0.886423 11:0.516566 12:0.0787915 13:-0.583657 14:-0.657748 15:-0.989993 16:0.133646 17:-0.448709 18:-0.682627 19:0.0957543 20:-0.884583 
1259.520968971754 1:-0.985238 2:0.88765 3:0.534157 4:-0.366339 5:0.825091 6:-0.539818 7:-0.429926 8:-0.0275146 9:-0.872042 10:0.871343 11:0.852432 12:0.193424 13:-0.316444 14:-0.564805 15:-0.982761 16:0.0776293 17:-0.364721 18:-0.813041 19:-0.0408347 20:-0.897465 
14347.16134031466 1:-0.964789 2:0.888044 3:0.593344 4:-0.589301 5:0.857616 6:-0.304809 7:-0.472053 8:-0.18823 9:-0.894811 10:0.826943 11:0.795171 12:0.160606 13:-0.331915 14:-0.64078 15:-0.987401 16:0.134561 17:-0.564318 18:-0.903583 19:-0.0411957 20:-0.896067 
32768 1:-1 2:0.888509 3:0.556295 4:-0.117676 5:0.760021 6:0.0315052 7:-0.120563 8:-0.43933 9:-0.758704 10:0.891307 11:0.786997 12:0.441763 13:-0.189022 14:-0.408864 15:-0.972593 16:-0.339248 17:-0.0853622 18:-0.960709 19:-0.446049 20:-0.830852 
27429.3886113079 1:-1 2:0.888694 3:0.572974 4:-0.103243 5:0.757216 6:0.0357848 7:-0.254405 8:-0.367631 9:-0.75564 10:0.906782 11:0.723354 12:0.402759 13:-0.317023 14:-0.408079 15:-0.966212 16:-0.395704 17:0.0159704 18:-0.977365 19:0.0136468 20:-0.845022 
11579.39387453731 1:-0.975138 2:0.904685 3:0.610234 4:-0.178008 5:0.782662 6:-0.408816 7:-0.174032 8:-0.332195 9:-0.8012 10:0.915164 11:0.2389 12:-0.202284 13:-0.623135 14:-0.720937 15:-0.987029 16:-0.0736227 17:-0.250039 18:-0.591144 19:0.112677 20:-0.912855 
32768 1:-0.952314 2:0.905659 3:0.573405 4:-0.176274 5:0.787977 6:-0.409629 7:-0.198168 8:-0.33969 9:-0.806267 10:0.916961 11:0.0272627 12:-0.225069 13:-0.609326 14:-0.698632 15:-0.989021 16:-0.150765 17:-0.251361 18:-0.700312 19:-0.115197 20:-0.914274 
32768 1:-1 2:0.890319 3:0.557786 4:-0.146501 5:0.867046 6:-0.444361 7:-0.449763 8:0.126671 9:-0.852109 10:0.899171 11:0.792672 12:0.349911 13:-0.288494 14:-0.437019 15:-0.984973 16:-0.220076 17:-0.251365 18:-0.975013 19:0.356085 20:-0.893037 
32768 1:-1 2:0.877067 3:0.51338 4:-0.30374 5:0.868647 6:-0.432451 7:-0.181595 8:0.0406362 9:-0.851444 10:0.884652 11:0.719634 12:0.343015 13:-0.263611 14:-0.556116 15:-0.971473 16:-0.212384 17:0.114057 18:-0.98212 19:0.289138 20:-0.880317 
123.6403580376009 1:-1 2:0.871636 3:0.486702 4:-0.151343 5:0.875188 6:-0.52138 7:-0.370758 8:-0.0279481 9:-0.882881 10:0.883109 11:0.789022 12:0.395189 13:-0.232185 14:-0.48314 15:-0.973138 16:-0.0491716 17:-0.164536 18:-0.880567 19:-0.0963068 20:-0.910546 
16306.75997886272 1:-1 2:0.870847 3:0.520076 4:-0.166935 5:0.877473 6:-0.511131 7:-0.408316 8:0.00774165 9:-0.884134 10:0.884556 11:0.812765 12:0.446487 13:-0.217472 14:-0.414302 15:-0.972425 16:-0.257482 17:-0.204522 18:-0.986211 19:0.298721 20:-0.896093 
32768 1:-1 2:0.871822 3:0.555029 4:-0.135149 5:0.87484 6:-0.400019 7:-0.0638105 8:-0.0529939 9:-0.828696 10:0.881864 11:0.791031 12:0.443441 13:-0.218171 14:-0.402855 15:-0.971264 16:-0.238237 17:-0.0823465 18:-0.964263 19:0.320113 20:-0.901799 
10017.43828772464 1:-1 2:0.906495 3:0.591287 4:-0.207642 5:0.876774 6:-0.294817 7:-0.196211 8:-0.674 9:-0.843718 10:0.911709 11:0.562047 12:0.17419 13:-0.367364 14:-0.549838 15:-0.972974 16:-0.0786389 17:-0.0973018 18:-0.619424 19:-0.18112 20:-0.83492 
21872.78631208267 1:-1 2:0.904824 3:0.567755 4:-0.217942 5:0.878348 6:-0.293019 7:-0.1217 8:-0.668615 9:-0.842075 10:0.914883 11:0.548767 12:0.170957 13:-0.368613 14:-0.559594 15:-0.974134 16:-0.0761724 17:0.0698875 18:-0.700514 19:-0.180642 20:-0.823954 
770.172739990842 1:-1 2:0.836963 3:0.404595 4:-0.430731 5:0.673884 6:0.791967 7:0.250279 8:-0.409217 9:-0.657702 10:0.851151 11:0.971416 12:0.464657 13:0.231568 14:-0.226615 15:-0.962606 16:-0.188535 17:0.204383 18:-0.89511 19:0.28555 20:-0.789945 
828.4611396212547 1:-1 2:0.772584 3:0.282408 4:-0.0112763 5:0.497246 6:0.849109 7:0.125811 8:-0.295124 9:-0.511921 10:0.795143 11:0.986688 12:0.7782 13:0.463621 14:-0.0348435 15:-0.963977 16:-0.625298 17:0.245808 18:-0.976282 19:0.701957 20:-0.828968 
32768 1:-1 2:0.869687 3:0.499876 4:-0.201845 5:0.852977 6:-0.5967 7:0.0621737 8:-0.616833 9:-0.873154 10:0.877901 11:0.759551 12:0.273797 13:-0.237628 14:-0.509979 15:-0.972395 16:-0.173728 17:-0.0270355 18:-0.955595 19:-0.0723947 20:-0.731165 
32768 1:-0.988407 2:0.869385 3:0.621879 4:-0.292134 5:0.820544 6:-0.635348 7:-0.0666842 8:-0.709448 9:-0.858288 10:0.876709 11:0.620678 12:0.191019 13:-0.353654 14:-0.556683 15:-0.981794 16:-0.199576 17:-0.217379 18:-0.897267 19:0.14235 20:-0.750975 
10932.89128062977 1:-1 2:0.863444 3:0.501871 4:-0.137534 5:0.827922 6:0.109649 7:0.00781579 8:-0.0378182 9:-0.770591 10:0.871036 11:0.918332 12:0.504344 13:0.151657 14:-0.407128 15:-0.964397 16:-0.164626 17:0.118859 18:-0.970564 19:0.320698 20:-0.847795 
10012.29814665036 1:-1 2:0.84569 3:0.511272 4:-0.177857 5:0.836866 6:0.0933302 7:0.0123526 8:-0.111645 9:-0.859494 10:0.874683 11:0.899363 12:0.509313 13:-0.280617 14:-0.359096 15:-0.96926 16:-0.350436 17:0.0597134 18:-0.937357 19:0.130594 20:-0.886048 
21038.2503399481 1:-1 2:0.861541 3:0.516506 4:-0.149461 5:0.825939 6:0.0739052 7:0.0220842 8:-0.146851 9:-0.815936 10:0.869984 11:0.891691 12:0.483214 13:-0.13108 14:-0.355732 15:-0.968574 16:-0.22244 17:-0.0878051 18:-0.91832 19:0.409261 20:-0.877253 
4439.441843809645 1:-1 2:0.848939 3:0.529768 4:-0.237548 5:0.827775 6:0.0461451 7:0.0375632 8:-0.0885763 9:-0.860605 10:0.869449 11:0.839763 12:0.508544 13:-0.278777 14:-0.353913 15:-0.965034 16:-0.303403 17:-0.0355201 18:-0.994035 19:0.338218 20:-0.885041 
434.6924170598747 1:-0.833037 2:0.874816 3:0.593401 4:-0.252378 5:0.826863 6:0.0343065 7:-0.0100789 8:-0.0352436 9:-0.768202 10:0.906668 11:0.769492 12:0.383229 13:-0.215528 14:-0.372515 15:-0.977738 16:-0.0130214 17:-0.0663853 18:-0.901612 19:-0.0129511 20:-0.865536 
32768 1:-1 2:0.864743 3:0.537232 4:-0.234777 5:0.879128 6:-0.494894 7:-0.155747 8:-0.184967 9:-0.891158 10:0.868765 11:0.862172 12:0.408241 13:-0.189026 14:-0.470738 15:-0.971271 16:-0.0981848 17:-0.142898 18:-0.849122 19:-0.525854 20:-0.729573 
7785.792321818097 1:-0.738372 2:0.907191 3:0.701616 4:-0.177735 5:0.779974 6:-0.156589 7:-0.267726 8:-0.264239 9:-0.783233 10:0.922222 11:-0.303707 12:-0.450774 13:-0.838202 14:-0.834181 15:-0.995229 16:-0.155884 17:-0.250934 18:-0.738058 19:-0.0544287 20:-0.967029 
7673.186490142037 1:-0.804153 2:0.91167 3:0.69323 4:-0.421108 5:0.779742 6:-0.181698 7:-0.7094 8:-0.101991 9:-0.778091 10:0.921249 11:-0.0197546 12:-0.472885 13:-0.799551 14:-0.819695 15:-0.992278 16:-0.0721143 17:-0.199018 18:-0.796304 19:0.0804542 20:-0.970666 
32768 1:-0.969724 2:0.911485 3:0.616606 4:-0.284411 5:0.861158 6:-0.65616 7:-0.364379 8:-0.552808 9:-0.886597 10:0.908527 11:0.584185 12:0.113373 13:-0.484394 14:-0.601447 15:-0.983817 16:-0.018766 17:-0.30387 18:-0.784098 19:0.0424726 20:-0.811756 
32768 1:-0.992663 2:0.884099 3:0.487686 4:-0.404203 5:0.867531 6:-0.636669 7:-0.204026 8:-0.560823 9:-0.89963 10:0.871527 11:0.889487 12:0.229337 13:-0.170858 14:-0.599841 15:-0.980778 16:0.0236316 17:-0.264007 18:-0.860895 19:0.074627 20:-0.868224 
3578.246921552263 1:-0.905264 2:0.93822 3:0.693964 4:-0.631357 5:0.951371 6:-0.606241 7:-0.251595 8:0.0122899 9:-0.960636 10:0.892438 11:-0.0667677 12:-0.592791 13:-0.755284 14:-0.858169 15:-0.992655 16:0.398856 17:-0.377967 18:-0.870862 19:-0.324817 20:-0.811449 
32768 1:-0.855406 2:0.913411 3:0.717642 4:-0.592335 5:0.937861 6:-0.714259 7:-0.382721 8:0.0297522 9:-0.925854 10:0.891824 11:-0.166488 12:-0.529624 13:-0.792818 14:-0.877329 15:-0.99489 16:0.106582 17:-0.431914 18:-0.794094 19:-0.283316 20:-0.812473 
6834.601580591468 1:-0.333154 2:0.946668 3:0.771466 4:-0.624707 5:0.930259 6:-0.541579 7:-0.418105 8:0.0447486 9:-0.950478 10:0.91284 11:0.0235454 12:-0.358539 13:-0.740408 14:-0.82378 15:-0.989799 16:0.325819 17:-0.877765 18:-0.796752 19:-0.324725 20:-0.929075 
88.14001067964274 1:-0.41281 2:0.95059 3:0.784362 4:-0.665149 5:0.923098 6:-0.750015 7:-0.537374 8:-0.0121447 9:-0.96154 10:0.910736 11:-0.508854 12:-0.780378 13:-0.745655 14:-0.849047 15:-0.992497 16:0.465483 17:-0.477039 18:-0.751503 19:-0.351296 20:-0.889404 
2757.50087365636 1:-0.646399 2:0.910649 3:0.761832 4:-0.567488 5:0.958412 6:-0.695123 7:-0.299432 8:-0.0617253 9:-0.91654 10:0.899321 11:-0.0250289 12:-0.468626 13:-0.819045 14:-0.862025 15:-0.993197 16:0.412483 17:-0.497182 18:-0.864091 19:-0.33234 20:-0.848712 
29314.38797992339 1:-0.858774 2:0.92469 3:0.700519 4:-0.487654 5:0.949146 6:-0.608766 7:-0.417479 8:-0.013638 9:-0.962395 10:0.895717 11:-0.129843 12:-0.510935 13:-0.831637 14:-0.887581 15:-0.991805 16:0.104108 17:-0.409604 18:-0.810443 19:-0.266147 20:-0.804393 
30623.63570705271 1:-0.417089 2:0.946041 3:0.773214 4:-0.615577 5:0.969453 6:-0.729741 7:-0.411442 8:-0.0413946 9:-0.955412 10:0.90829 11:0.0149678 12:-0.390521 13:-0.740238 14:-0.781297 15:-0.990016 16:0.368715 17:-0.675059 18:-0.78424 19:-0.200022 20:-0.874389 
32768 1:-0.705068 2:0.917472 3:0.724407 4:-0.470675 5:0.868292 6:-0.629077 7:-0.435126 8:-0.52583 9:-0.923109 10:0.906291 11:-0.130297 12:-0.388429 13:-0.701219 14:-0.762025 15:-0.987397 16:0.0425085 17:-0.318737 18:-0.60612 19:-0.361188 20:-0.882051 
32768 1:-0.888726 2:0.916915 3:0.726871 4:-0.503591 5:0.867546 6:-0.697055 7:-0.320058 8:-0.518242 9:-0.923749 10:0.906291 11:0.0394168 12:-0.283244 13:-0.731824 14:-0.769426 15:-0.990211 16:-0.0832274 17:-0.358704 18:-0.645135 19:-0.157923 20:-0.910778 
32768 1:-0.992991 2:0.914548 3:0.631077 4:-0.268494 5:0.803741 6:0.0251763 7:-0.305379 8:-0.617391 9:-0.799907 10:0.91135 11:0.720416 12:0.156901 13:-0.32194 14:-0.614761 15:-0.982245 16:0.0916444 17:-0.293024 18:-0.855251 19:0.250463 20:-0.879041 
14629.49218735984 1:-0.971108 2:0.936665 3:0.701548 4:-0.297511 5:0.90757 6:-0.812776 7:-0.102789 8:-0.604091 9:-0.929637 10:0.924633 11:0.0648113 12:-0.35283 13:-0.47195 14:-0.649587 15:-0.984202 16:0.448174 17:-0.562063 18:-0.708614 19:-0.393056 20:-0.847077 
32768 1:-1 2:0.91478 3:0.580688 4:-0.275193 5:0.909821 6:-0.848171 7:-0.271926 8:-0.515124 9:-0.923002 10:0.91889 11:0.414719 12:0.0311265 13:-0.516828 14:-0.625469 15:-0.980133 16:-0.0298197 17:-0.20964 18:-0.893393 19:-0.0750496 20:-0.804817 
28219.58163362317 1:-1 2:0.89944 3:0.530261 4:-0.229764 5:0.901243 6:-0.70723 7:-0.177821 8:-0.656866 9:-0.894202 10:0.907343 11:0.618869 12:0.0794416 13:-0.222632 14:-0.633879 15:-0.978434 16:0.0110854 17:-0.199468 18:-0.721096 19:-0.136574 20:-0.720934 
32768 1:-1 2:0.915917 3:0.534915 4:-0.277971 5:0.890933 6:-0.888621 7:-0.440616 8:-0.607205 9:-0.915616 10:0.912753 11:0.397395 12:0.0311766 13:-0.58061 14:-0.627341 15:-0.98514 16:-0.0196924 17:-0.267794 18:-0.806539 19:-0.16545 20:-0.876263 
32768 1:-1 2:0.904429 3:0.525699 4:-0.23833 5:0.906412 6:-0.65701 7:-0.211395 8:-0.64639 9:-0.922684 10:0.903476 11:0.591741 12:0.101362 13:-0.195077 14:-0.61003 15:-0.981035 16:0.00877724 17:-0.334733 18:-0.925659 19:0.587461 20:-0.713532 
32768 1:-0.997626 2:0.897513 3:0.634051 4:-0.451319 5:0.890652 6:-0.558315 7:-0.229784 8:-0.598067 9:-0.890946 10:0.846451 11:0.747431 12:0.195283 13:-0.328577 14:-0.646835 15:-0.982566 16:0.0943128 17:-0.386511 18:-0.739335 19:-0.07737 20:-0.755324 
32768 1:-0.990795 2:0.895123 3:0.603896 4:-0.404705 5:0.897212 6:-0.4243 7:-0.275668 8:-0.586166 9:-0.89628 10:0.873552 11:0.727518 12:0.0697858 13:-0.281331 14:-0.61728 15:-0.983899 16:0.260118 17:-0.278018 18:-0.725426 19:0.372146 20:-0.799697 
32768 1:-0.995635 2:0.900205 3:0.654128 4:-0.39144 5:0.887213 6:-0.386365 7:-0.149053 8:-0.492046 9:-0.892556 10:0.839376 11:0.683619 12:0.0151928 13:-0.338812 14:-0.681649 15:-0.984785 16:0.245169 17:-0.24931 18:-0.772175 19:-0.0763397 20:-0.821567 
32768 1:-0.880873 2:0.935551 3:0.674489 4:-0.500062 5:0.899579 6:-0.412583 7:-0.299884 8:-0.560492 9:-0.912405 10:0.860155 11:0.528279 12:-0.166539 13:-0.414206 14:-0.716798 15:-0.987481 16:0.480393 17:-0.491136 18:-0.732175 19:-0.327759 20:-0.75672 
7284.295376144598 1:-1 2:0.861216 3:0.527474 4:-0.268797 5:0.849194 6:-0.521724 7:0.0120789 8:-0.945396 9:-0.883552 10:0.854781 11:0.775259 12:0.300687 13:-0.207729 14:-0.529238 15:-0.965164 16:-0.201421 17:-0.0079416 18:-0.918626 19:0.356408 20:-0.878751 
32768 1:-1 2:0.878808 3:0.524059 4:-0.24169 5:0.848917 6:-0.500884 7:-0.162932 8:-0.342523 9:-0.853872 10:0.89242 11:0.590989 12:0.217649 13:-0.384531 14:-0.490998 15:-0.974317 16:-0.251729 17:-0.171163 18:-0.951803 19:-0.0370592 20:-0.889142 
32768 1:-1 2:0.901343 3:0.558301 4:-0.181409 5:0.846075 6:-0.510126 7:-0.303442 8:-0.386208 9:-0.872943 10:0.908228 11:0.776339 12:0.320412 13:-0.389624 14:-0.449472 15:-0.97996 16:-0.113989 17:-0.0726918 18:-0.908062 19:0.0600952 20:-0.952623 
32768 1:-1 2:0.897653 3:0.559099 4:-0.251948 5:0.857514 6:-0.510679 7:-0.442211 8:-0.3876 9:-0.884862 10:0.887168 11:0.599905 12:0.15701 13:-0.414511 14:-0.586086 15:-0.984392 16:-0.0746363 17:-0.240132 18:-0.888906 19:-0.0621734 20:-0.831746 
32768 1:-1 2:0.898511 3:0.515505 4:-0.240641 5:0.848035 6:-0.50489 7:-0.167716 8:-0.314975 9:-0.859743 10:0.90573 11:0.747567 12:0.229242 13:-0.290901 14:-0.537794 15:-0.974136 16:-0.129022 17:-0.128313 18:-0.950989 19:-0.0428931 20:-0.872339 
12385.46042948667 1:-0.997037 2:0.897606 3:0.605597 4:-0.251838 5:0.816695 6:-0.0194224 7:-0.227705 8:-0.16268 9:-0.849755 10:0.885485 11:0.685114 12:0.395712 13:-0.387857 14:-0.364975 15:-0.982608 16:-0.159408 17:-0.161518 18:-0.805934 19:-0.136021 20:-0.858103 
32768 1:-0.930197 2:0.886791 3:0.664149 4:-0.25088 5:0.814174 6:0.0266389 7:-0.186863 8:-0.156412 9:-0.830313 10:0.882969 11:0.783536 12:0.342692 13:-0.358533 14:-0.393013 15:-0.974325 16:-0.204197 17:-0.172347 18:-0.866995 19:-0.0599719 20:-0.859311 
14039.50544458026 1:-1 2:0.872588 3:0.460857 4:-0.196116 5:0.557891 6:0.601411 7:-0.102005 8:-0.307879 9:-0.593044 10:0.884573 11:0.68169 12:0.316212 13:-0.128755 14:-0.500843 15:-0.981561 16:-0.263456 17:-0.0567059 18:-0.989847 19:0.286052 20:-0.737238 
32768 1:-1 2:0.915546 3:0.615091 4:-0.216741 5:0.860669 6:-0.684816 7:-0.185626 8:-0.397413 9:-0.871903 10:0.927026 11:0.466657 12:0.0435372 13:-0.581206 14:-0.597838 15:-0.984669 16:-0.125344 17:-0.0811722 18:-0.868704 19:0.0656318 20:-0.766379 
32768 1:-1 2:0.917217 3:0.617013 4:-0.163879 5:0.86389 6:-0.669928 7:-0.173711 8:-0.469874 9:-0.871903 10:0.919618 11:0.46797 12:0.087538 13:-0.494473 14:-0.597685 15:-0.984707 16:-0.138809 17:-0.122682 18:-0.853982 19:0.0569933 20:-0.759107 
17999.37171010112 1:-1 2:0.906379 3:0.580858 4:-0.220864 5:0.858266 6:-0.61496 7:-0.193689 8:-0.498987 9:-0.870263 10:0.88879 11:0.449182 12:0.116973 13:-0.467183 14:-0.59508 15:-0.982278 16:-0.223564 17:-0.0789346 18:-0.67643 19:0.13802 20:-0.764268 
32768 1:-1 2:0.918261 3:0.594177 4:-0.122826 5:0.861255 6:-0.677327 7:-0.264142 8:-0.495065 9:-0.871903 10:0.932568 11:0.373547 12:0.0505426 13:-0.512834 14:-0.589787 15:-0.984662 16:-0.129252 17:-0.132057 18:-0.854042 19:0.0602229 20:-0.76478 
32768 1:-0.984359 2:0.912715 3:0.59596 4:-0.315866 5:0.861125 6:-0.640751 7:-0.304895 8:-0.533985 9:-0.888393 10:0.89299 11:0.569811 12:0.106836 13:-0.483905 14:-0.602057 15:-0.983026 16:-0.0912168 17:-0.271048 18:-0.777304 19:0.0250151 20:-0.806518 
32768 1:-1 2:0.876301 3:0.548913 4:-0.161109 5:0.878302 6:-0.324661 7:-0.0210263 8:-0.68622 9:-0.881761 10:0.897918 11:0.486422 12:0.164025 13:-0.290298 14:-0.54075 15:-0.93864 16:-0.129636 17:0.359975 18:-0.842866 19:-0.0757871 20:-0.837695 
7487.367274723925 1:-1 2:0.861332 3:0.510015 4:-0.239332 5:0.880931 6:-0.424982 7:-0.112768 8:-0.664001 9:-0.88714 10:0.865644 11:0.613605 12:0.18495 13:-0.0939807 14:-0.574478 15:-0.975712 16:-0.0404775 17:-0.177701 18:-0.969899 19:-0.348335 20:-0.850805 
32768 1:-1 2:0.857247 3:0.547294 4:-0.16018 5:0.874653 6:-0.403966 7:-0.0590053 8:-0.697408 9:-0.893621 10:0.873421 11:0.506185 12:0.157128 13:-0.3287 14:-0.558214 15:-0.969239 16:-0.150112 17:0.331811 18:-0.981262 19:-0.34157 20:-0.837822 
12851.83931457396 1:-1 2:0.865184 3:0.565456 4:-0.300341 5:0.767358 6:0.0246181 7:0.0560263 8:-0.338504 9:-0.757024 10:0.899356 11:0.851108 12:0.458943 13:-0.188143 14:-0.411506 15:-0.945639 16:-0.389524 17:0.195826 18:-0.869092 19:-0.293154 20:-0.758601 
32768 1:-0.875204 2:0.93388 3:0.666439 4:-0.194172 5:0.894169 6:-0.652643 7:-0.460558 8:-0.359414 9:-0.91438 10:0.948139 11:-0.0122508 12:-0.224646 13:-0.692058 14:-0.688284 15:-0.985562 16:-0.144363 17:-0.221762 18:-0.958678 19:0.22057 20:-0.895933 
32768 1:-0.918131 2:0.91847 3:0.673225 4:-0.195388 5:0.894598 6:-0.678053 7:-0.429342 8:-0.331081 9:-0.908466 10:0.94806 11:-0.0253631 12:-0.225064 13:-0.698603 14:-0.688287 15:-0.987114 16:-0.155651 17:-0.1872 18:-0.884949 19:0.246265 20:-0.888164 
32768 1:-0.915004 2:0.921557 3:0.66392 4:-0.15013 5:0.894832 6:-0.668009 7:-0.419053 8:-0.333101 9:-0.92258 10:0.944316 11:0.00888232 12:-0.221477 13:-0.70049 14:-0.687835 15:-0.988437 16:-0.160334 17:-0.252322 18:-0.970056 19:0.190023 20:-0.890439 
5953.633715613217 1:-0.944694 2:0.912297 3:0.651425 4:-0.245865 5:0.88087 6:-0.673218 7:-0.350121 8:-0.413293 9:-0.928778 10:0.900241 11:0.116889 12:-0.117096 13:-0.604034 14:-0.656963 15:-0.984264 16:-0.171233 17:0.104936 18:-0.80851 19:0.239749 20:-0.886427 
32768 1:-0.866963 2:0.90979 3:0.648002 4:-0.239179 5:0.878091 6:-0.684566 7:-0.35 8:-0.379575 9:-0.917584 10:0.919346 11:0.148236 12:-0.153464 13:-0.668459 14:-0.659894 15:-0.986031 16:-0.142115 17:0.0330525 18:-0.799335 19:0.183649 20:-0.867865 
32768 1:-0.989478 2:0.904244 3:0.657648 4:-0.235638 5:0.885105 6:-0.69332 7:-0.349716 8:-0.340307 9:-0.908746 10:0.917022 11:0.081395 12:-0.13333 13:-0.616609 14:-0.683394 15:-0.98886 16:-0.124382 17:-0.201999 18:-0.792825 19:0.172768 20:-0.88799 
32768 1:-0.897735 2:0.917031 3:0.647254 4:-0.288531 5:0.880988 6:-0.659804 7:-0.350321 8:-0.419488 9:-0.930463 10:0.905835 11:0.238173 12:-0.108827 13:-0.601893 14:-0.64687 15:-0.985508 16:-0.145575 17:0.0199654 18:-0.80689 19:0.188664 20:-0.811981 
32768 1:-1 2:0.89018 3:0.642322 4:-0.132504 5:0.866329 6:-0.6967 7:-0.262689 8:-0.376849 9:-0.876504 10:0.918706 11:0.273671 12:0.012897 13:-0.583273 14:-0.598573 15:-0.984542 16:-0.176828 17:0.237452 18:-0.799395 19:0.103624 20:-0.791772 
32768 1:-1 2:0.899927 3:0.644535 4:-0.195732 5:0.870607 6:-0.666687 7:-0.175595 8:-0.388019 9:-0.874244 10:0.93212 11:0.273902 12:-0.00670082 13:-0.582939 14:-0.597009 15:-0.984316 16:-0.159887 17:0.12448 18:-0.801268 19:0.115182 20:-0.78123 
2570.170877985446 1:-0.963783 2:0.892524 3:0.635882 4:-0.342759 5:0.874346 6:-0.651813 7:-0.363537 8:-0.522368 9:-0.898083 10:0.895235 11:0.592521 12:0.127379 13:-0.500328 14:-0.60441 15:-0.983631 16:-0.137977 17:-0.135646 18:-0.775087 19:0.0938258 20:-0.852503 
6733.494877622252 1:-0.952716 2:0.896724 3:0.647438 4:-0.386369 5:0.87002 6:-0.687257 7:-0.424789 8:-0.489789 9:-0.906077 10:0.898698 11:0.00419005 12:-0.228092 13:-0.632837 14:-0.717082 15:-0.988057 16:-0.143168 17:0.273101 18:-0.775505 19:-0.283826 20:-0.849567 
1066.877883660454 1:-1 2:0.824872 3:0.417809 4:0.00280382 5:0.520881 6:0.591003 7:0.170105 8:-0.233153 9:-0.487215 10:0.866249 11:0.853182 12:0.555177 13:-0.121687 14:-0.288722 15:-0.961482 16:-0.435742 17:-0.0871051 18:-0.844949 19:0.412153 20:-0.727289 
2224.11518172172 1:-0.972534 2:0.904638 3:0.648202 4:-0.335769 5:0.853177 6:-0.588235 7:-0.301474 8:-0.311227 9:-0.857977 10:0.905756 11:0.478086 12:0.0746319 13:-0.512947 14:-0.611464 15:-0.975437 16:-0.0144427 17:-0.0662457 18:-0.954759 19:-0.432814 20:-0.856592 
32768 1:-1 2:0.884006 3:0.573173 4:-0.42648 5:0.875406 6:-0.635995 7:-0.297016 8:-0.602708 9:-0.918405 10:0.866635 11:0.874431 12:0.261378 13:-0.181631 14:-0.585253 15:-0.979199 16:0.0669359 17:-0.412687 18:-0.882904 19:0.0301357 20:-0.914103 
32768 1:-0.978467 2:0.902433 3:0.612232 4:-0.239328 5:0.825988 6:-0.278909 7:-0.560763 8:-0.524806 9:-0.840172 10:0.908746 11:0.769604 12:0.319216 13:-0.387056 14:-0.468241 15:-0.983391 16:-0.0906863 17:-0.735884 18:-0.871855 19:-0.0431484 20:-0.938021 
32768 1:-0.966533 2:0.921185 3:0.614614 4:-0.312144 5:0.837145 6:-0.555868 7:-0.483242 8:-0.674975 9:-0.884222 10:0.908386 11:0.509493 12:-0.00288217 13:-0.491558 14:-0.662041 15:-0.986124 16:0.215187 17:-0.292991 18:-0.81655 19:-0.215592 20:-0.91242 
32768 1:-0.976053 2:0.921789 3:0.60163 4:-0.307101 5:0.840241 6:-0.542695 7:-0.480416 8:-0.654338 9:-0.898694 10:0.906449 11:0.459136 12:-0.0092966 13:-0.490591 14:-0.660707 15:-0.986604 16:0.19848 17:-0.350359 18:-0.906218 19:-0.299637 20:-0.893938 
32768 1:-0.974449 2:0.920002 3:0.59881 4:-0.426534 5:0.837163 6:-0.546021 7:-0.485258 8:-0.683549 9:-0.895058 10:0.900793 11:0.536203 12:0.000654626 13:-0.490145 14:-0.660364 15:-0.986819 16:0.119037 17:-0.246348 18:-0.924688 19:-0.250463 20:-0.916968 
2634.169531178052 1:-0.961555 2:0.919468 3:0.579092 4:-0.260448 5:0.843292 6:-0.552969 7:-0.514858 8:-0.611915 9:-0.906388 10:0.898847 11:0.56314 12:0.121497 13:-0.469901 14:-0.562941 15:-0.985218 16:0.110208 17:-0.387547 18:-0.871272 19:-0.218897 20:-0.890545 
217.674933743816 1:-0.820186 2:0.947271 3:0.715691 4:-0.492391 5:0.914409 6:-0.612465 7:-0.530542 8:-0.815388 9:-0.943899 10:0.92408 11:0.29812 12:-0.159229 13:-0.629905 14:-0.754702 15:-0.987061 16:0.0953342 17:-0.308127 18:-0.734609 19:-0.545863 20:-0.856762 
32768 1:-0.704846 2:0.937594 3:0.757161 4:-0.568873 5:0.919715 6:-0.587378 7:-0.421737 8:-0.64034 9:-0.939427 10:0.932734 11:0.285079 12:-0.233574 13:-0.667164 14:-0.731648 15:-0.988474 16:0.123135 17:-0.332392 18:-0.774325 19:-0.0749308 20:-0.940755 
32768 1:-0.789449 2:0.923437 3:0.715854 4:-0.503115 5:0.904594 6:-0.616611 7:-0.447879 8:-0.700477 9:-0.943899 10:0.903064 11:0.252662 12:-0.19391 13:-0.659154 14:-0.771733 15:-0.991438 16:0.148865 17:-0.280288 18:-0.746278 19:-0.457899 20:-0.853313 
32768 1:-0.797842 2:0.935203 3:0.720169 4:-0.424384 5:0.914719 6:-0.614141 7:-0.468495 8:-0.767802 9:-0.943899 10:0.924677 11:0.178613 12:-0.221877 13:-0.671897 14:-0.748489 15:-0.991314 16:0.365406 17:-0.218669 18:-0.75166 19:-0.29071 20:-0.852327 
32768 1:-0.661092 2:0.924876 3:0.724965 4:-0.554721 5:0.920272 6:-0.524295 7:-0.477337 8:-0.672016 9:-0.941267 10:0.910771 11:0.183499 12:-0.289972 13:-0.701107 14:-0.774509 15:-0.987364 16:0.218619 17:-0.427844 18:-0.75449 19:-0.0669219 20:-0.894978 
32768 1:-1 2:0.88881 3:0.58091 4:-0.298582 5:0.812008 6:-0.262183 7:-0.370111 8:-0.633254 9:-0.839248 10:0.881759 11:0.587288 12:0.12021 13:-0.400178 14:-0.587397 15:-0.985555 16:-0.127783 17:-0.392216 18:-0.91013 19:0.273997 20:-0.874826 
32768 1:-1 2:0.874885 3:0.517741 4:-0.165938 5:0.870946 6:-0.549114 7:0.00875789 8:-0.612125 9:-0.881435 10:0.881303 11:0.8616 12:0.361131 13:-0.136551 14:-0.50417 15:-0.979559 16:7.91813e-05 17:-0.374889 18:-0.926009 19:0.37767 20:-0.739017 
32768 1:-1 2:0.894287 3:0.543957 4:-0.215314 5:0.893761 6:-0.557683 7:-0.249037 8:-0.66795 9:-0.89611 10:0.894428 11:0.794318 12:0.323026 13:-0.249138 14:-0.518983 15:-0.979803 16:-0.0919611 17:-0.0950313 18:-0.834326 19:0.630443 20:-0.763794 
21392.31186099532 1:-1 2:0.887209 3:0.504141 4:-0.221076 5:0.842152 6:-0.685144 7:-0.0283632 8:-0.723138 9:-0.874967 10:0.865617 11:0.950726 12:0.401831 13:-0.108002 14:-0.50705 15:-0.979464 16:0.00631075 17:-0.451439 18:-0.859447 19:0.0484187 20:-0.830068 
10937.41694495608 1:-1 2:0.851608 3:0.481739 4:-0.18683 5:0.863298 6:-0.446611 7:-0.0213632 8:-0.809746 9:-0.896826 10:0.844785 11:0.691254 12:0.157156 13:-0.224479 14:-0.603458 15:-0.96022 16:-0.144731 17:0.239202 18:-0.9172 19:0.625879 20:-0.844442 
8787.701065947685 1:-1 2:0.85806 3:0.547128 4:-0.158805 5:0.874276 6:-0.378253 7:-0.0232684 8:-0.777245 9:-0.862538 10:0.909929 11:0.482678 12:0.130202 13:-0.29826 14:-0.546614 15:-0.951417 16:-0.0812519 17:0.378671 18:-0.833213 19:-0.111327 20:-0.837824 
32768 1:-1 2:0.879759 3:0.528451 4:-0.255067 5:0.889142 6:-0.498617 7:0.0496789 8:-0.756242 9:-0.889575 10:0.860103 11:0.876324 12:0.34311 13:-0.156852 14:-0.52215 15:-0.976241 16:-0.0600273 17:-0.226141 18:-0.872206 19:0.382751 20:-0.720593 
29017.38629287566 1:-1 2:0.88584 3:0.531467 4:-0.201346 5:0.884518 6:-0.31746 7:0.111947 8:-0.829259 9:-0.857639 10:0.911069 11:0.544018 12:0.259586 13:-0.24935 14:-0.526878 15:-0.967957 16:-0.189334 17:0.0684156 18:-0.79611 19:-0.105331 20:-0.822208 
32768 1:-0.934972 2:0.907075 3:0.617802 4:-0.3208 5:0.907689 6:-0.600014 7:-0.350837 8:-0.155951 9:-0.901159 10:0.896471 11:0.539592 12:0.104708 13:-0.436991 14:-0.601676 15:-0.980503 16:-0.061991 17:-0.29464 18:-0.805636 19:-0.303197 20:-0.878914 
9367.063120901363 1:-1 2:0.887441 3:0.543986 4:-0.234025 5:0.902557 6:-0.652032 7:-0.338005 8:-0.124997 9:-0.898117 10:0.892859 11:0.735062 12:0.276402 13:-0.287708 14:-0.57585 15:-0.974021 16:-0.0733298 17:-0.276878 18:-0.941142 19:-0.480902 20:-0.805026 
32768 1:-0.926032 2:0.907214 3:0.597386 4:-0.273168 5:0.910099 6:-0.523619 7:-0.396021 8:-0.120455 9:-0.885261 10:0.900644 11:0.520695 12:0.10579 13:-0.36875 14:-0.601549 15:-0.978391 16:-0.0588515 17:-0.259466 18:-0.885964 19:-0.125078 20:-0.853576 
32768 1:-0.910055 2:0.911763 3:0.605481 4:-0.258042 5:0.917246 6:-0.660916 7:-0.3482 8:-0.252313 9:-0.931923 10:0.927894 11:0.528451 12:0.0900383 13:-0.517517 14:-0.638886 15:-0.988146 16:-0.100077 17:-0.288649 18:-0.804292 19:0.262809 20:-0.892239 
32768 1:-0.97191 2:0.908862 3:0.596674 4:-0.280892 5:0.913134 6:-0.517582 7:-0.423779 8:-0.255531 9:-0.927832 10:0.898786 11:0.555062 12:0.102994 13:-0.423947 14:-0.604064 15:-0.98016 16:-0.0489974 17:-0.123343 18:-0.830914 19:-0.511245 20:-0.866333 
32768 1:-1 2:0.89814 3:0.495997 4:-0.303587 5:0.863053 6:-0.332558 7:-0.0858316 8:-0.470182 9:-0.864735 10:0.886835 11:0.868627 12:0.293159 13:-0.15088 14:-0.556283 15:-0.979919 16:-0.0455767 17:-0.241895 18:-0.773975 19:-0.00346068 20:-0.854583 
21263.82736375142 1:-0.857746 2:0.915407 3:0.68232 4:-0.339291 5:0.791687 6:-0.291289 7:-0.642084 8:-0.263524 9:-0.845668 10:0.914331 11:0.272601 12:-0.0104149 13:-0.605092 14:-0.613553 15:-0.989196 16:-0.0656927 17:-0.457937 18:-0.752944 19:0.0804014 20:-0.893921 
14968.00788677231 1:-0.982028 2:0.903176 3:0.548413 4:-0.315886 5:0.81426 6:-0.294944 7:-0.644284 8:-0.323645 9:-0.840226 10:0.91185 11:0.596011 12:0.147164 13:-0.472671 14:-0.596867 15:-0.979064 16:-0.0370489 17:-0.449107 18:-0.890892 19:0.0437714 20:-0.912684 
32768 1:-1 2:0.904406 3:0.573453 4:-0.330342 5:0.860031 6:-0.58118 7:-0.212089 8:-0.289256 9:-0.856076 10:0.901004 11:0.333939 12:-0.0572207 13:-0.467506 14:-0.675335 15:-0.982569 16:0.0975474 17:-0.0968543 18:-0.962045 19:-0.276793 20:-0.679853 
4235.267236064014 1:-1 2:0.903524 3:0.58018 4:-0.347569 5:0.862117 6:-0.57891 7:-0.264679 8:-0.181272 9:-0.855462 10:0.891912 11:0.287786 12:-0.119956 13:-0.551874 14:-0.671513 15:-0.985606 16:0.00287032 17:0.107704 18:-0.960104 19:-0.28096 20:-0.683651 
32768 1:-1 2:0.894311 3:0.599961 4:-0.278922 5:0.862806 6:-0.641571 7:-0.224184 8:-0.187518 9:-0.85071 10:0.890684 11:0.161502 12:-0.112232 13:-0.586527 14:-0.706563 15:-0.986512 16:-0.0566661 17:-0.108135 18:-0.876528 19:-0.175308 20:-0.626072 
26415.49763443197 1:-1 2:0.874584 3:0.5012 4:0.0237888 5:0.826744 6:-0.526499 7:-0.0457684 8:-0.716221 9:-0.84988 10:0.888834 11:0.8222 12:0.562419 13:-0.204701 14:-0.32065 15:-0.973465 16:-0.323768 17:0.00240701 18:-0.869585 19:0.020971 20:-0.848433 
32768 1:-1 2:0.872913 3:0.514541 4:-0.0243955 5:0.827732 6:-0.560802 7:-0.0582737 8:-0.716854 9:-0.851497 10:0.888352 11:0.842451 12:0.507685 13:-0.201496 14:-0.321012 15:-0.973198 16:-0.351866 17:0.00584355 18:-0.835699 19:0.0283811 20:-0.847047 
8101.459299967609 1:-1 2:0.855483 3:0.364228 4:-0.108883 5:0.761849 6:-0.38879 7:-0.500142 8:-0.780016 9:-0.835521 10:0.885731 11:0.926958 12:0.49907 13:-0.0457228 14:-0.407442 15:-0.980686 16:-0.303351 17:-0.0512042 18:-0.960985 19:0.301814 20:-0.922896 
17810.20476446379 1:-1 2:0.889576 3:0.528547 4:-0.218282 5:0.834463 6:-0.2537 7:-0.293626 8:-0.586084 9:-0.872504 10:0.867432 11:0.903963 12:0.402054 13:-0.142109 14:-0.496242 15:-0.979499 16:-0.0410555 17:-0.139538 18:-0.917536 19:0.130839 20:-0.86626 
32768 1:-1 2:0.853743 3:0.451456 4:-0.226112 5:0.829223 6:-0.287461 7:-0.0718263 8:-0.620818 9:-0.870775 10:0.837 11:0.961743 12:0.417151 13:0.0114945 14:-0.500311 15:-0.977551 16:-0.0731635 17:-0.253607 18:-0.997492 19:0.137175 20:-0.843443 
32768 1:-1 2:0.86667 3:0.379425 4:-0.096709 5:0.892795 6:-0.590248 7:-0.0977632 8:-0.256184 9:-0.894193 10:0.880786 11:0.927802 12:0.474836 13:-0.0857954 14:-0.422327 15:-0.977236 16:-0.138373 17:-0.312366 18:-0.979963 19:0.0276898 20:-0.708644 
32768 1:-0.978693 2:0.887673 3:0.618276 4:-0.18609 5:0.86787 6:-0.603764 7:-0.112947 8:0.0603358 9:-0.859317 10:0.90416 11:0.842886 12:0.410737 13:-0.4218 14:-0.434122 15:-0.970678 16:-0.209981 17:-0.329958 18:-0.588696 19:0.135011 20:-0.667828 
16981.31660615533 1:-1 2:0.896887 3:0.578622 4:-0.283319 5:0.867695 6:-0.588775 7:-0.216384 8:0.0801004 9:-0.82002 10:0.889764 11:0.18323 12:-0.0698813 13:-0.466959 14:-0.61614 15:-0.973872 16:-0.0814894 17:-0.313327 18:-0.874236 19:-0.0533676 20:-0.660703 
1266.565911744416 1:-1 2:0.905102 3:0.532057 4:-0.349437 5:0.782156 6:-0.413374 7:-0.288326 8:-0.850083 9:-0.825535 10:0.880601 11:0.859598 12:0.176513 13:-0.215474 14:-0.599077 15:-0.982863 16:0.14936 17:-0.495404 18:-0.619133 19:-0.0748603 20:-0.881938 
32768 1:-1 2:0.89185 3:0.499994 4:-0.343439 5:0.865189 6:-0.349213 7:-0.308063 8:0.168773 9:-0.843516 10:0.890632 11:0.680871 12:0.199279 13:-0.254413 14:-0.58025 15:-0.980601 16:-0.0860542 17:-0.383427 18:-0.966726 19:0.234813 20:-0.821196 
32768 1:-1 2:0.867273 3:0.544352 4:-0.174196 5:0.901308 6:-0.62101 7:-0.00295789 8:-0.688973 9:-0.898911 10:0.850344 11:0.759446 12:0.33 13:-0.12126 14:-0.518091 15:-0.973456 16:0.0351209 17:-0.0716201 18:-0.871959 19:0.292159 20:-0.822164 
646.9985045932153 1:-0.993314 2:0.862585 3:0.563066 4:-0.465288 5:0.876418 6:-0.299387 7:-0.123184 8:-0.121756 9:-0.875661 10:0.847898 11:0.784454 12:0.231551 13:-0.23737 14:-0.540653 15:-0.978663 16:-0.0998911 17:-0.393917 18:-0.872519 19:0.0577044 20:-0.805192 
32768 1:-1 2:0.871683 3:0.554937 4:-0.128656 5:0.880301 6:-0.412899 7:-0.0629211 8:-0.0598269 9:-0.831792 10:0.878453 11:0.793971 12:0.438254 13:-0.261266 14:-0.396681 15:-0.971432 16:-0.231874 17:0.0107274 18:-0.953848 19:0.227392 20:-0.861015 
32768 1:-0.975312 2:0.872495 3:0.586411 4:-0.505856 5:0.878306 6:-0.299294 7:-0.0612211 8:-0.146594 9:-0.886486 10:0.873307 11:0.786276 12:0.318275 13:-0.249516 14:-0.616764 15:-0.977881 16:-0.130206 17:-0.566005 18:-0.881097 19:0.0267476 20:-0.801849 
13623.88908734846 1:-1 2:0.866182 3:0.522144 4:-0.194258 5:0.841471 6:-0.241739 7:-0.162805 8:-0.445921 9:-0.860355 10:0.872991 11:0.842396 12:0.429516 13:-0.118997 14:-0.45693 15:-0.976734 16:-0.0897678 17:-0.208384 18:-0.899283 19:-0.0145296 20:-0.868659 
22104.50158265646 1:-1 2:0.889019 3:0.468187 4:-0.224651 5:0.847117 6:-0.324509 7:-0.169553 8:-0.45 9:-0.865358 10:0.874859 11:0.866114 12:0.321067 13:-0.127836 14:-0.476574 15:-0.977963 16:-0.0891898 17:-0.197879 18:-0.93947 19:-0.0781537 20:-0.847233 
14765.97101420447 1:-0.998194 2:0.886048 3:0.590096 4:-0.196639 5:0.816345 6:-0.229864 7:-0.00465263 8:-0.348931 9:-0.816565 10:0.886134 11:0.943199 12:0.452656 13:-0.152304 14:-0.453862 15:-0.967573 16:-0.0939011 17:-0.101371 18:-0.694892 19:0.0170722 20:-0.747441 
26878.28603163045 1:-1 2:0.862817 3:0.574873 4:-0.34242 5:0.84352 6:-0.416884 7:0.146968 8:-0.640284 9:-0.858553 10:0.833738 11:0.911561 12:0.4436 13:-0.0827197 14:-0.439408 15:-0.968468 16:-0.179825 17:0.0639649 18:-0.934109 19:0.253134 20:-0.685104 
26171.55018006648 1:-1 2:0.858268 3:0.566139 4:-0.323376 5:0.844124 6:-0.451381 7:0.179432 8:-0.633685 9:-0.860308 10:0.870457 11:0.894011 12:0.369404 13:-0.104895 14:-0.541125 15:-0.96722 16:-0.243031 17:0.117081 18:-0.97941 19:0.114165 20:-0.705675 
32768 1:-0.980822 2:0.894984 3:0.59667 4:-0.207451 5:0.813605 6:0.0368375 7:-0.1387 8:-0.105445 9:-0.77576 10:0.903275 11:0.644474 12:0.160215 13:-0.193874 14:-0.497228 15:-0.971478 16:-0.243704 17:-0.161732 18:-0.859148 19:0.184268 20:-0.839017 
3784.661368641813 1:-1 2:0.781844 3:0.246956 4:0.141005 5:0.702953 6:-0.609447 7:0.359405 8:-0.477808 9:-0.670026 10:0.803481 11:0.775862 12:0.521869 13:-0.0747747 14:-0.292983 15:-0.972122 16:-0.472783 17:-0.205653 18:-0.889369 19:0.231551 20:-0.464103 
32768 1:-0.82166 2:0.917867 3:0.686957 4:-0.286364 5:0.838973 6:-0.630783 7:-0.4566 8:-0.149934 9:-0.868711 10:0.932033 11:0.135891 12:-0.228001 13:-0.684948 14:-0.700435 15:-0.990739 16:-0.0861453 17:-0.427322 18:-0.677632 19:-0.0358484 20:-0.895542 
32768 1:-0.864757 2:0.912575 3:0.677673 4:-0.430887 5:0.840614 6:-0.605536 7:-0.485289 8:-0.308529 9:-0.876102 10:0.907483 11:0.170708 12:-0.166298 13:-0.661356 14:-0.693306 15:-0.990104 16:0.00604153 17:-0.481412 18:-0.589599 19:-0.198597 20:-0.906363 
32768 1:-0.841828 2:0.914664 3:0.679669 4:-0.296455 5:0.842656 6:-0.61429 7:-0.512521 8:-0.327677 9:-0.879005 10:0.905668 11:0.175524 12:-0.155542 13:-0.66346 14:-0.717108 15:-0.98976 16:-0.00572085 17:-0.53965 18:-0.648718 19:-0.183134 20:-0.908416 
32768 1:-0.820832 2:0.919329 3:0.677407 4:-0.281346 5:0.844841 6:-0.629917 7:-0.454037 8:-0.265486 9:-0.868174 10:0.921064 11:-0.0311123 12:-0.251563 13:-0.691218 14:-0.697201 15:-0.990369 16:-0.0159471 17:-0.307723 18:-0.860082 19:-0.134515 20:-0.887144 
32768 1:-0.874497 2:0.914293 3:0.647256 4:-0.440397 5:0.839031 6:-0.60977 7:-0.486405 8:-0.326192 9:-0.871726 10:0.916014 11:0.170147 12:-0.161152 13:-0.661908 14:-0.702484 15:-0.989422 16:-0.0052616 17:-0.528909 18:-0.741895 19:-0.194166 20:-0.909303 
32768 1:-0.865228 2:0.912645 3:0.674486 4:-0.352907 5:0.842856 6:-0.585685 7:-0.517095 8:-0.360217 9:-0.873774 10:0.911543 11:0.169191 12:-0.153664 13:-0.656366 14:-0.713748 15:-0.989043 16:0.00305244 17:-0.485129 18:-0.618841 19:-0.189459 20:-0.910081 
22504.86488367111 1:-1 2:0.836778 3:0.412698 4:-0.0719202 5:0.859613 6:-0.615379 7:0.193216 8:-0.351461 9:-0.843944 10:0.874981 11:0.912488 12:0.509403 13:0.0457269 14:-0.422451 15:-0.96575 16:-0.343821 17:-0.0882178 18:-0.845442 19:0.215474 20:-0.650789 
32768 1:-0.971607 2:0.901598 3:0.627958 4:-0.382202 5:0.857984 6:-0.619209 7:-0.404868 8:-0.415196 9:-0.888214 10:0.900758 11:0.571583 12:0.0264532 13:-0.52833 14:-0.629301 15:-0.98499 16:0.117798 17:-0.38912 18:-0.884942 19:-0.406632 20:-0.892144 
1501.639249672749 1:-0.968599 2:0.899463 3:0.628477 4:-0.442933 5:0.850798 6:-0.627926 7:-0.409511 8:-0.421241 9:-0.873886 10:0.894621 11:0.572837 12:0.0424461 13:-0.505389 14:-0.635531 15:-0.984922 16:0.208223 17:-0.391271 18:-0.889302 19:-0.491527 20:-0.909785 
32768 1:-0.974693 2:0.905868 3:0.638621 4:-0.48138 5:0.851139 6:-0.622937 7:-0.377089 8:-0.392248 9:-0.877712 10:0.866564 11:0.616497 12:0.0583935 13:-0.512061 14:-0.658742 15:-0.984825 16:0.193151 17:-0.393488 18:-0.892071 19:-0.0152627 20:-0.894789 
32768 1:-0.986448 2:0.908166 3:0.620558 4:-0.350763 5:0.858123 6:-0.578808 7:-0.210811 8:-0.378482 9:-0.858236 10:0.906624 11:0.476019 12:0.0772595 13:-0.483189 14:-0.606279 15:-0.98053 16:-0.122901 17:-0.0461438 18:-0.911892 19:-0.446124 20:-0.859712 
32768 1:-0.966238 2:0.917681 3:0.648379 4:-0.16513 5:0.860807 6:-0.658519 7:-0.232379 8:-0.382018 9:-0.869699 10:0.908342 11:0.407685 12:0.0394412 13:-0.581778 14:-0.608502 15:-0.984698 16:-0.043906 17:-0.185695 18:-0.889122 19:-0.128422 20:-0.823876 
3747.585376161945 1:-1 2:0.87405 3:0.401644 4:-0.0947098 5:0.732915 6:-0.458847 7:-0.554637 8:-0.543336 9:-0.804518 10:0.891395 11:0.580629 12:0.370805 13:-0.396498 14:-0.389134 15:-0.97816 16:-0.529687 17:-0.0563015 18:-0.92153 19:0.245759 20:-0.917532 
32768 1:-1 2:0.887 3:0.514722 4:-0.218011 5:0.841824 6:-0.276546 7:-0.232995 8:-0.533967 9:-0.880783 10:0.869703 11:0.908233 12:0.405068 13:-0.154464 14:-0.490417 15:-0.979662 16:-0.0211968 17:-0.148766 18:-0.915184 19:0.0164008 20:-0.854539 
3163.039608811269 1:-1 2:0.850076 3:0.477278 4:-0.108098 5:0.801067 6:0.0984637 7:-0.0550684 8:-0.645718 9:-0.789817 10:0.905756 11:0.879344 12:0.335214 13:0.253377 14:-0.511526 15:-0.9798 16:0.13964 17:-0.22454 18:-0.556086 19:0.136358 20:-0.811744 
12379.91344379358 1:-0.901216 2:0.917124 3:0.643074 4:-0.240166 5:0.814235 6:-0.410755 7:-0.331979 8:-0.381869 9:-0.825803 10:0.929411 11:0.599438 12:0.218568 13:-0.477739 14:-0.539297 15:-0.983627 16:-0.0782707 17:-0.168116 18:-0.669069 19:0.056749 20:-0.790564 
32768 1:-1 2:0.858733 3:0.488337 4:-0.0959749 5:0.727261 6:-0.0471212 7:-0.0283789 8:-0.495225 9:-0.755024 10:0.874017 11:0.859337 12:0.521259 13:-0.0516195 14:-0.350975 15:-0.976018 16:-0.276125 17:-0.262873 18:-0.956237 19:0.432871 20:-0.858034 
32768 1:-1 2:0.845968 3:0.594543 4:-0.225064 5:0.809252 6:0.00499454 7:-0.166658 8:-0.274777 9:-0.854986 10:0.875656 11:0.82162 12:0.521169 13:-0.273441 14:-0.364591 15:-0.971518 16:-0.414451 17:-0.111758 18:-0.99564 19:0.289861 20:-0.838781 
32768 1:-1 2:0.850099 3:0.567147 4:-0.16268 5:0.820198 6:-0.000864919 7:-0.0738842 8:-0.274316 9:-0.811851 10:0.875674 11:0.872687 12:0.49281 13:-0.12517 14:-0.366998 15:-0.971587 16:-0.362294 17:-0.0702796 18:-0.998507 19:0.301354 20:-0.824067 
18449.77812576176 1:-0.865634 2:0.915082 3:0.657668 4:-0.114761 5:0.757657 6:-0.473417 7:-0.596253 8:-0.738459 9:-0.84616 10:0.915453 11:0.440844 12:0.172698 13:-0.547609 14:-0.548469 15:-0.98939 16:-0.193099 17:-0.42399 18:-0.82966 19:0.224922 20:-0.929773 
13135.19259292444 1:-1 2:0.883333 3:0.551088 4:-0.145225 5:0.741165 6:-0.213468 7:0.0949895 8:-0.87938 9:-0.771294 10:0.881987 11:0.789808 12:0.335982 13:-0.240711 14:-0.511472 15:-0.980082 16:-0.0861611 17:-0.405806 18:-0.578035 19:0.157789 20:-0.751869 
23910.32425041753 1:-1 2:0.866925 3:0.574504 4:-0.280038 5:0.843521 6:-0.4324 7:0.136947 8:-0.636198 9:-0.861817 10:0.863557 11:0.91045 12:0.432562 13:-0.0739732 14:-0.514984 15:-0.963244 16:-0.0662866 17:0.159888 18:-0.982904 19:0.0466818 20:-0.705062 
2240.227576568412 1:-1 2:0.816703 3:0.511179 4:-0.311655 5:0.843842 6:-0.385775 7:0.0703105 8:-0.656995 9:-0.82872 10:0.789417 11:0.971241 12:0.437949 13:-0.0128314 14:-0.493833 15:-0.974426 16:-0.0300889 17:-0.0724906 18:-0.300259 19:-0.00256029 20:-0.683127 
23223.64737031355 1:-1 2:0.830419 3:0.547078 4:-0.325287 5:0.845106 6:-0.481607 7:0.146926 8:-0.681621 9:-0.856508 10:0.854132 11:0.781115 12:0.329027 13:-0.203972 14:-0.521861 15:-0.971029 16:-0.0660411 17:-0.0380862 18:-0.993117 19:-0.246052 20:-0.665626 
32768 1:-0.940515 2:0.912923 3:0.60393 4:-0.129277 5:0.80421 6:-0.571081 7:-0.115195 8:-0.863426 9:-0.843256 10:0.930297 11:0.655151 12:0.277934 13:-0.374116 14:-0.491513 15:-0.966584 16:-0.270349 17:0.0331223 18:-0.916722 19:-0.0081916 20:-0.909825 
19769.72465979205 1:-1 2:0.861726 3:0.50671 4:-0.110679 5:0.796995 6:-0.279097 7:-0.256179 8:-0.399248 9:-0.809932 10:0.889124 11:0.968135 12:0.670087 13:-0.170566 14:-0.230227 15:-0.975793 16:-0.468436 17:0.213957 18:-0.981717 19:0.216365 20:-0.91319 
32768 1:-1 2:0.855785 3:0.468435 4:-0.266748 5:0.836653 6:-0.531835 7:-0.0414053 8:-0.56 9:-0.865358 10:0.845285 11:0.587259 12:0.0455556 13:-0.244713 14:-0.58687 15:-0.982886 16:0.0253776 17:-0.398641 18:-0.827278 19:0.0676792 20:-0.798774 
123.2984848601561 1:-1 2:0.891665 3:0.5483 4:-0.363692 5:0.845209 6:-0.488298 7:-0.327537 8:-0.320457 9:-0.87304 10:0.880032 11:0.803303 12:0.376883 13:-0.300569 14:-0.484261 15:-0.983251 16:-0.250241 17:-0.222992 18:-0.950929 19:-0.057667 20:-0.881312 
32768 1:-1 2:0.880687 3:0.539528 4:-0.357615 5:0.843207 6:-0.492545 7:-0.180337 8:-0.370342 9:-0.869867 10:0.881434 11:0.72689 12:0.189746 13:-0.352013 14:-0.604071 15:-0.978123 16:-0.0554902 17:-0.225086 18:-0.952445 19:-0.109645 20:-0.87002 
32768 1:-1 2:0.900878 3:0.581916 4:-0.259268 5:0.840587 6:-0.489641 7:-0.436858 8:-0.393103 9:-0.873212 10:0.882951 11:0.613742 12:0.15436 13:-0.400801 14:-0.606357 15:-0.984051 16:0.0333353 17:-0.15375 18:-0.942934 19:-0.188526 20:-0.899301 
14446.48118048994 1:-0.924244 2:0.900577 3:0.590836 4:-0.451962 5:0.84408 6:-0.473189 7:-0.440889 8:-0.380188 9:-0.87866 10:0.887616 11:0.244631 12:-0.187896 13:-0.420491 14:-0.710584 15:-0.988518 16:0.0728586 17:-0.526594 18:-0.813609 19:-0.207806 20:-0.897578 
32768 1:-0.966179 2:0.908189 3:0.533417 4:-0.352737 5:0.849071 6:-0.503699 7:-0.461279 8:-0.390529 9:-0.880239 10:0.907474 11:0.245893 12:-0.174585 13:-0.537712 14:-0.66834 15:-0.983475 16:-0.00528139 17:-0.371931 18:-0.885614 19:-0.199348 20:-0.905827 
26256.21844160094 1:-0.945228 2:0.911902 3:0.610823 4:-0.31234 5:0.84917 6:-0.48941 7:-0.446479 8:-0.38292 9:-0.874427 10:0.903845 11:0.286071 12:-0.170057 13:-0.563877 14:-0.645274 15:-0.987956 16:-0.0348754 17:-0.557972 18:-0.822396 19:-0.0681525 20:-0.905092 
32768 1:-0.958053 2:0.907562 3:0.627907 4:-0.514799 5:0.846491 6:-0.563282 7:-0.519042 8:-0.391073 9:-0.886661 10:0.892184 11:0.414983 12:-0.0914658 13:-0.568871 14:-0.69704 15:-0.987101 16:0.207447 17:-0.418179 18:-0.81867 19:-0.0908649 20:-0.911727 
32768 1:-0.979061 2:0.903571 3:0.622152 4:-0.539317 5:0.846135 6:-0.548644 7:-0.521232 8:-0.409058 9:-0.885707 10:0.887212 11:0.445268 12:-0.119787 13:-0.508105 14:-0.691433 15:-0.988057 16:0.276232 17:-0.546973 18:-0.819581 19:-0.0825632 20:-0.912482 
32768 1:-0.96765 2:0.911693 3:0.619389 4:-0.49629 5:0.846279 6:-0.594771 7:-0.519474 8:-0.390647 9:-0.886942 10:0.876884 11:0.443898 12:-0.0810463 13:-0.532994 14:-0.691258 15:-0.988151 16:0.239207 17:-0.536796 18:-0.881881 19:-0.193666 20:-0.913505 
8747.042994000161 1:-1 2:0.870081 3:0.567358 4:-0.17515 5:0.799454 6:-0.537784 7:-0.0982684 8:-0.254086 9:-0.813179 10:0.882951 11:0.827348 12:0.525969 13:-0.271597 14:-0.379537 15:-0.973307 16:-0.448396 17:-0.0526494 18:-0.915102 19:0.107433 20:-0.953872 
1587.00445779642 1:-1 2:0.865556 3:0.598099 4:-0.161345 5:0.799308 6:-0.546629 7:-0.0267316 8:-0.260182 9:-0.813791 10:0.882346 11:0.918449 12:0.487783 13:-0.350747 14:-0.380586 15:-0.973672 16:-0.382394 17:-0.0508429 18:-0.946465 19:0.146053 20:-0.833992 
14490.67080146389 1:0.0802799 2:0.95855 3:0.713126 4:-0.505085 5:0.915693 6:-0.641106 7:-0.338979 8:-0.0947598 9:-0.932117 10:0.937855 11:-0.548407 12:-0.733031 13:-0.914398 14:-0.927655 15:-0.996065 16:0.230366 17:-0.36623 18:-0.925203 19:-0.352045 20:-0.781094 
8139.774249435603 1:0.71337 2:0.928496 3:0.758195 4:-0.46498 5:0.921516 6:-0.791743 7:-0.253474 8:-0.338413 9:-0.911216 10:0.923554 11:-0.682596 12:-0.719097 13:-0.90819 14:-0.911756 15:-0.995452 16:0.164958 17:-0.435532 18:-0.670264 19:-0.290501 20:-0.809823 
16301.71140111944 1:-0.640331 2:0.923506 3:0.739222 4:-0.463214 5:0.953717 6:-0.647533 7:-0.245579 8:0.0187049 9:-0.914448 10:0.895138 11:-0.16947 12:-0.59891 13:-0.765725 14:-0.835146 15:-0.992452 16:0.286826 17:-0.540525 18:-0.822859 19:-0.247042 20:-0.797429 
822.2845503437599 1:-1 2:0.736055 3:0.158713 4:-0.00699194 5:0.701691 6:0.191864 7:0.109474 8:-0.42784 9:-0.708275 10:0.824348 11:0.973189 12:0.717474 13:0.456066 14:-0.119188 15:-0.964853 16:-0.611588 17:0.10119 18:-0.947727 19:0.76787 20:-0.875441 
6681.800365363908 1:-1 2:0.846734 3:0.512586 4:-0.136115 5:0.801248 6:0.111312 7:-0.125132 8:-0.284547 9:-0.777821 10:0.870703 11:0.913463 12:0.550395 13:0.0075392 14:-0.355495 15:-0.9736 16:-0.261195 17:0.030663 18:-0.991124 19:0.237895 20:-0.900643 
23755.16236892914 1:-0.753734 2:0.921742 3:0.675315 4:-0.50552 5:0.867541 6:-0.47813 7:-0.266468 8:-0.493865 9:-0.870336 10:0.913682 11:0.180193 12:-0.206412 13:-0.647679 14:-0.705178 15:-0.986964 16:0.0406794 17:-0.525228 18:-0.513264 19:-0.176237 20:-0.890293 
32768 1:-0.991292 2:0.899347 3:0.600649 4:-0.324834 5:0.846098 6:-0.580558 7:-0.241763 8:-0.257177 9:-0.853824 10:0.902573 11:0.457928 12:0.0730499 13:-0.485588 14:-0.626565 15:-0.979334 16:-0.127981 17:-0.12043 18:-0.807532 19:0.242171 20:-0.793777 
32768 1:-0.97033 2:0.90313 3:0.660048 4:-0.320572 5:0.837026 6:-0.627968 7:-0.391742 8:-0.224059 9:-0.861286 10:0.909228 11:0.320234 12:-0.0429825 13:-0.664489 14:-0.666442 15:-0.987636 16:-0.0401924 17:-0.442405 18:-0.571309 19:-0.0279452 20:-0.852413 
32768 1:-0.857802 2:0.911183 3:0.632115 4:-0.292634 5:0.835683 6:-0.629028 7:-0.328547 8:-0.234662 9:-0.852475 10:0.91078 11:0.283776 12:-0.0338814 13:-0.608344 14:-0.647302 15:-0.985266 16:-0.0302314 17:-0.400708 18:-0.674176 19:0.25296 20:-0.866656 
32768 1:-0.864937 2:0.909999 3:0.661013 4:-0.308241 5:0.838115 6:-0.628572 7:-0.461074 8:-0.25559 9:-0.859898 10:0.902775 11:0.306426 12:-0.109623 13:-0.588396 14:-0.666319 15:-0.98951 16:-0.0428885 17:-0.395946 18:-0.686001 19:0.0867658 20:-0.901181 
11812.41353728577 1:-0.987157 2:0.898372 3:0.612944 4:-0.337488 5:0.844036 6:-0.600252 7:-0.240684 8:-0.277905 9:-0.854424 10:0.898707 11:0.395712 12:0.0462557 13:-0.536102 14:-0.609335 15:-0.970691 16:-0.147103 17:0.229198 18:-0.930018 19:-0.0236942 20:-0.789497 
32768 1:-1 2:0.85604 3:0.425531 4:-0.134466 5:0.804592 6:-0.575277 7:-0.509511 8:-0.207471 9:-0.851346 10:0.873605 11:0.773153 12:0.39273 13:-0.277722 14:-0.430156 15:-0.979688 16:-0.305612 17:-0.16378 18:-0.98209 19:-0.0468006 20:-0.88268 
32768 1:-0.836501 2:0.904104 3:0.719472 4:-0.408335 5:0.808934 6:-0.566383 7:-0.260995 8:-0.49317 9:-0.864214 10:0.913507 11:0.419476 12:-0.0609257 13:-0.566256 14:-0.652131 15:-0.982513 16:0.038783 17:-0.247454 18:-0.955633 19:-0.0925005 20:-0.906394 
32768 1:-0.948199 2:0.924388 3:0.675626 4:-0.37262 5:0.809123 6:-0.556486 7:-0.319942 8:-0.482062 9:-0.863025 10:0.914603 11:0.558443 12:0.0900247 13:-0.509515 14:-0.62003 15:-0.98081 16:-0.0950492 17:-0.296442 18:-0.927286 19:-0.0633137 20:-0.935525 
32768 1:-0.957 2:0.933857 3:0.664786 4:-0.479999 5:0.915931 6:-0.628332 7:-0.452595 8:-0.552761 9:-0.927287 10:0.887879 11:0.428711 12:-0.0681447 13:-0.55514 14:-0.672876 15:-0.980692 16:-0.0595522 17:0.0329827 18:-0.942239 19:-0.142071 20:-0.960192 
32768 1:-0.827934 2:0.906634 3:0.708908 4:-0.61443 5:0.916509 6:-0.665962 7:-0.411758 8:-0.604757 9:-0.937031 10:0.896532 11:0.380858 12:-0.0506335 13:-0.610479 14:-0.695108 15:-0.985462 16:0.026407 17:-0.165293 18:-0.770227 19:-0.103349 20:-0.990136 
32768 1:-0.968084 2:0.896005 3:0.603073 4:-0.298462 5:0.903419 6:-0.685609 7:-0.360916 8:-0.636982 9:-0.929844 10:0.893367 11:0.750765 12:0.29224 13:-0.378123 14:-0.580992 15:-0.977386 16:-0.00444207 17:0.0699224 18:-0.860074 19:0.532872 20:-0.97704 
32768 1:-1 2:0.893313 3:0.560037 4:-0.0773727 5:0.846858 6:-0.49828 7:-0.121816 8:-0.292879 9:-0.855667 10:0.910797 11:0.807171 12:0.505148 13:-0.323689 14:-0.388183 15:-0.977555 16:-0.285013 17:-0.204883 18:-0.944666 19:0.203112 20:-0.953887 
244.7101373913353 1:-1 2:0.895865 3:0.52641 4:-0.0850012 5:0.847138 6:-0.505103 7:-0.246447 8:-0.309603 9:-0.856963 10:0.896708 11:0.919076 12:0.508058 13:-0.259907 14:-0.385122 15:-0.977106 16:-0.285013 17:-0.20792 18:-0.926017 19:-0.0155488 20:-0.91503 
32768 1:-1 2:0.868016 3:0.495082 4:-0.129367 5:0.83973 6:-0.309827 7:-0.156953 8:-0.472952 9:-0.86138 10:0.885941 11:0.835581 12:0.464121 13:-0.0718698 14:-0.422705 15:-0.975265 16:-0.232405 17:-0.181542 18:-0.914132 19:-0.0144415 20:-0.859083 
32768 1:-1 2:0.861193 3:0.48025 4:-0.13501 5:0.835938 6:-0.296242 7:-0.0392842 8:-0.564407 9:-0.871988 10:0.881198 11:0.906739 12:0.411387 13:-0.0782891 14:-0.502153 15:-0.975374 16:-0.145282 17:-0.106064 18:-0.794109 19:0.137987 20:-0.855177 
9150.631298394235 1:-1 2:0.885956 3:0.513219 4:-0.398447 5:0.867048 6:-0.0328693 7:-0.172089 8:0.374274 9:-0.813395 10:0.872851 11:0.714776 12:0.18885 13:-0.24721 14:-0.594115 15:-0.976548 16:-0.0607518 17:-0.126902 18:-0.591674 19:0.0595008 20:-0.775066 
7351.26266261154 1:-1 2:0.884818 3:0.584918 4:-0.389469 5:0.865083 6:-0.294159 7:-0.252816 8:0.346738 9:-0.825865 10:0.867239 11:0.651957 12:0.184514 13:-0.254052 14:-0.593412 15:-0.972838 16:-0.106772 17:-0.0196041 18:-0.725494 19:0.0556967 20:-0.785064 
7587.918873533124 1:-1 2:0.890203 3:0.496453 4:-0.307802 5:0.891268 6:-0.538096 7:-0.151289 8:-0.647636 9:-0.92003 10:0.884985 11:0.906169 12:0.337946 13:-0.10665 14:-0.536658 15:-0.977332 16:0.0304848 17:-0.517011 18:-0.963374 19:0.296813 20:-0.761537 
32768 1:-0.896301 2:0.922067 3:0.666358 4:-0.211847 5:0.899936 6:-0.68273 7:-0.371063 8:-0.442756 9:-0.922639 10:0.943027 11:-0.00255312 12:-0.21649 13:-0.704498 14:-0.688089 15:-0.984746 16:-0.124798 17:-0.238056 18:-0.948891 19:0.178262 20:-0.887203 
32768 1:-0.876697 2:0.934136 3:0.673614 4:-0.215986 5:0.894047 6:-0.565216 7:-0.381468 8:-0.381253 9:-0.916408 10:0.933339 11:-0.0250437 12:-0.215158 13:-0.70095 14:-0.687662 15:-0.985935 16:-0.163533 17:-0.125706 18:-0.911601 19:0.196583 20:-0.888003 
32768 1:-0.893879 2:0.958272 3:0.705842 4:-0.165214 5:0.902381 6:-0.598461 7:-0.439658 8:-0.505299 9:-0.930596 10:0.947043 11:0.00859654 12:-0.368263 13:-0.701923 14:-0.775931 15:-0.989289 16:0.260506 17:-0.603236 18:-0.953602 19:0.104384 20:-0.866927 
32768 1:-0.915873 2:0.915407 3:0.641728 4:-0.168623 5:0.901082 6:-0.524087 7:-0.450979 8:-0.398266 9:-0.899271 10:0.914699 11:0.223088 12:-0.0239438 13:-0.624784 14:-0.641412 15:-0.984212 16:-0.118724 17:-0.11842 18:-0.927323 19:-0.0464132 20:-0.884216 
32768 1:-0.90869 2:0.93337 3:0.671511 4:-0.156574 5:0.896007 6:-0.697312 7:-0.454968 8:-0.336097 9:-0.910612 10:0.948718 11:0.00292715 12:-0.225682 13:-0.691759 14:-0.688142 15:-0.987505 16:-0.127585 17:-0.122836 18:-0.962381 19:0.224209 20:-0.886539 
32768 1:-0.918489 2:0.951217 3:0.708145 4:-0.330155 5:0.902962 6:-0.588208 7:-0.464895 8:-0.53028 9:-0.910402 10:0.949603 11:-0.0281032 12:-0.359621 13:-0.701941 14:-0.804365 15:-0.985276 16:0.208841 17:-0.153066 18:-0.761194 19:-0.13319 20:-0.871417 
32768 1:-0.883826 2:0.945948 3:0.719043 4:-0.20863 5:0.900978 6:-0.583337 7:-0.440484 8:-0.519208 9:-0.905396 10:0.947631 11:-0.0269895 12:-0.306533 13:-0.69929 14:-0.77085 15:-0.986827 16:0.0927529 17:-0.205551 18:-0.789197 19:-0.519494 20:-0.860267 
32768 1:-1 2:0.877113 3:0.503309 4:-0.353277 5:0.875482 6:-0.590772 7:-0.137021 8:-0.3242 9:-0.874925 10:0.863075 11:0.940022 12:0.332573 13:-0.103219 14:-0.525519 15:-0.975847 16:-0.0937189 17:-0.115043 18:-0.938216 19:0.42941 20:-0.595107 
32768 1:-0.94 2:0.927637 3:0.626444 4:-0.521026 5:0.850253 6:-0.680658 7:-0.184379 8:-0.373029 9:-0.881665 10:0.86517 11:0.485678 12:-0.0232938 13:-0.509558 14:-0.662072 15:-0.982341 16:0.132423 17:-0.213606 18:-0.903225 19:0.0860283 20:-0.659839 
24717.0852408305 1:-0.961349 2:0.880084 3:0.601329 4:-0.351265 5:0.847101 6:-0.705061 7:-0.0715947 8:-0.305443 9:-0.879513 10:0.880023 11:0.344603 12:-0.0165702 13:-0.534382 14:-0.636303 15:-0.983766 16:-0.00430746 17:-0.0949759 18:-0.863725 19:0.33558 20:-0.547968 
17557.8969046268 1:-1 2:0.888532 3:0.525981 4:-0.341312 5:0.802417 6:-0.324122 7:-0.379011 8:-0.651388 9:-0.851889 10:0.877068 11:0.817714 12:0.286581 13:-0.286063 14:-0.568787 15:-0.986149 16:-0.000570105 17:-0.520221 18:-0.980694 19:-0.145824 20:-0.860026 
7146.576371536571 1:-1 2:0.863931 3:0.561225 4:-0.185577 5:0.781839 6:-0.373671 7:-0.115632 8:-0.182229 9:-0.834049 10:0.871176 11:0.663094 12:0.33095 13:-0.382163 14:-0.467216 15:-0.97637 16:-0.264806 17:0.00653332 18:-0.82091 19:0.299054 20:-0.833335 
32485.37426632851 1:-1 2:0.84808 3:0.406625 4:-0.155134 5:0.847018 6:-0.179721 7:-0.207353 8:-0.611489 9:-0.884784 10:0.828618 11:0.897802 12:0.396103 13:0.0327834 14:-0.527104 15:-0.98132 16:-0.198697 17:-0.172626 18:-0.974326 19:0.33835 20:-0.855899 
32768 1:-0.98 2:0.90313 3:0.584893 4:-0.198775 5:0.770859 6:-0.333918 7:-0.0512895 8:-0.483509 9:-0.764736 10:0.907799 11:0.732225 12:0.252108 13:-0.392449 14:-0.561885 15:-0.980418 16:-0.139003 17:-0.230939 18:-0.918006 19:0.310986 20:-0.741614 
32768 1:-1 2:0.898117 3:0.592936 4:-0.13153 5:0.73835 6:-0.39523 7:0.0271105 8:-0.187704 9:-0.733543 10:0.902749 11:0.607083 12:0.354612 13:-0.313836 14:-0.520112 15:-0.982227 16:-0.166209 17:-0.13389 18:-0.870317 19:-0.037363 20:-0.687921 
5588.857708656225 1:-0.958996 2:0.927359 3:0.649662 4:-0.232938 5:0.896474 6:-0.667188 7:-0.501958 8:-0.600915 9:-0.940127 10:0.927938 11:0.328385 12:0.00266851 13:-0.683845 14:-0.6726 15:-0.990593 16:0.124295 17:-0.732722 18:-0.827987 19:-0.448303 20:-0.871014 
32768 1:-0.982921 2:0.902758 3:0.603411 4:-0.252088 5:0.880605 6:-0.658245 7:-0.576558 8:-0.663679 9:-0.926668 10:0.909044 11:0.703975 12:0.140422 13:-0.435574 14:-0.597727 15:-0.986928 16:0.0343845 17:-0.735083 18:-0.851399 19:0.157186 20:-0.925227 
17830.65472892959 1:-0.96 2:0.904569 3:0.616727 4:-0.232345 5:0.876086 6:-0.640316 7:-0.571258 8:-0.642692 9:-0.93065 10:0.891745 11:0.583684 12:0.129098 13:-0.492164 14:-0.597622 15:-0.984754 16:0.0422195 17:-0.403496 18:-0.80571 19:0.144087 20:-0.912069 
32768 1:-0.96 2:0.900066 3:0.619244 4:-0.257131 5:0.878454 6:-0.668889 7:-0.406053 8:-0.611155 9:-0.910989 10:0.890781 11:0.568679 12:0.126943 13:-0.488382 14:-0.600107 15:-0.987058 16:0.0367876 17:-0.423803 18:-0.841784 19:0.318719 20:-0.950378 
32768 1:-0.985331 2:0.903106 3:0.603822 4:-0.278888 5:0.88685 6:-0.654217 7:-0.588689 8:-0.67403 9:-0.925843 10:0.901451 11:0.659393 12:0.172362 13:-0.465376 14:-0.597475 15:-0.985425 16:0.00208247 17:-0.634795 18:-0.866233 19:0.0277008 20:-0.953675 
15723.75903298178 1:-1 2:0.889901 3:0.525505 4:-0.315075 5:0.870394 6:-0.237202 7:-0.0674053 8:-0.366765 9:-0.864103 10:0.877962 11:0.901103 12:0.41836 13:-0.102051 14:-0.535963 15:-0.970079 16:-0.185605 17:0.153485 18:-0.848279 19:0.186238 20:-0.816042 
32768 1:-0.990779 2:0.900368 3:0.618679 4:-0.0356451 5:0.810933 6:-0.533178 7:-0.278921 8:-0.538664 9:-0.86528 10:0.912244 11:0.677019 12:0.31868 13:-0.452028 14:-0.472059 15:-0.980216 16:-0.230041 17:-0.406487 18:-0.970347 19:0.174405 20:-0.946881 
32768 1:-1 2:0.906564 3:0.572967 4:-0.152659 5:0.808653 6:-0.59038 7:-0.236789 8:-0.552273 9:-0.856218 10:0.915646 11:0.649229 12:0.302142 13:-0.384497 14:-0.497797 15:-0.978171 16:-0.236265 17:-0.0722668 18:-0.82963 19:0.0346772 20:-0.913296 
5332.954854169247 1:-0.995314 2:0.901227 3:0.639361 4:-0.0622431 5:0.810289 6:-0.536947 7:-0.251368 8:-0.504802 9:-0.844842 10:0.914795 11:0.67364 12:0.312952 13:-0.442554 14:-0.470838 15:-0.980083 16:-0.248328 17:-0.258593 18:-0.948443 19:0.174965 20:-0.89373 
32768 1:-1 2:0.885677 3:0.576384 4:-0.206869 5:0.810646 6:-0.522776 7:-0.240147 8:-0.576099 9:-0.860135 10:0.905581 11:0.687194 12:0.312166 13:-0.410073 14:-0.480541 15:-0.980509 16:-0.216391 17:-0.20163 18:-0.976036 19:0.066726 20:-0.941491 
18223.66340997077 1:-0.979158 2:0.896283 3:0.693555 4:-0.345858 5:0.826235 6:-0.584423 7:-0.273047 8:-0.576396 9:-0.870373 10:0.910675 11:0.36696 12:0.0253895 13:-0.479191 14:-0.586137 15:-0.98734 16:-0.241503 17:-0.405149 18:-0.942269 19:0.138421 20:-0.965802 
4452.546785166224 1:0.326885 2:0.933787 3:0.743283 4:-0.256167 5:0.889731 6:-0.696261 7:-0.482863 8:-0.250909 9:-0.930526 10:0.93184 11:-0.0250247 12:-0.338446 13:-0.797405 14:-0.796702 15:-0.992692 16:-0.0923214 17:-0.257799 18:-0.714766 19:0.0407466 20:-0.919531 
14909.69273765346 1:0.732235 2:0.967973 3:0.846974 4:-0.574148 5:0.906316 6:-0.727695 7:-0.510979 8:-0.287119 9:-0.915088 10:0.953496 11:-0.393319 12:-0.592204 13:-0.909785 14:-0.859655 15:-0.996067 16:0.250565 17:-0.582321 18:-0.58073 19:-0.101331 20:-0.926446 
6782.346047663342 1:0.731366 2:0.95985 3:0.851104 4:-0.632808 5:0.904332 6:-0.699374 7:-0.565016 8:-0.230831 9:-0.905446 10:0.936837 11:-0.277214 12:-0.679133 13:-0.852314 14:-0.903246 15:-0.994069 16:0.24969 17:-0.587831 18:-0.616243 19:-0.21681 20:-0.828917 
11080.54913244501 1:-0.670253 2:0.945415 3:0.801222 4:-0.680993 5:0.887853 6:-0.637597 7:-0.602337 8:-0.225717 9:-0.921131 10:0.894945 11:-0.173036 12:-0.437267 13:-0.708681 14:-0.831515 15:-0.992885 16:0.251448 17:-0.591637 18:-0.817401 19:-0.0188444 20:-0.876975 
32768 1:-0.81393 2:0.931861 3:0.692634 4:-0.576443 5:0.887994 6:-0.631253 7:-0.589095 8:-0.209848 9:-0.924192 10:0.899969 11:-0.201612 12:-0.505617 13:-0.704379 14:-0.822954 15:-0.992579 16:0.214265 17:-0.582512 18:-0.792608 19:-0.0156479 20:-0.909511 
5132.330844567788 1:0.579981 2:0.973682 3:0.816998 4:-0.569615 5:0.907732 6:-0.71081 7:-0.591411 8:-0.199717 9:-0.929165 10:0.947218 11:-0.277872 12:-0.707987 13:-0.864422 14:-0.854777 15:-0.995929 16:0.424582 17:-0.423994 18:-0.675482 19:-0.0635713 20:-0.913147 
22985.42820908804 1:-0.434812 2:0.946946 3:0.780904 4:-0.672588 5:0.888375 6:-0.650722 7:-0.532784 8:-0.348266 9:-0.921441 10:0.923721 11:-0.166715 12:-0.434453 13:-0.733865 14:-0.839221 15:-0.992811 16:0.259422 17:-0.578415 18:-0.753444 19:-0.00347169 20:-0.948382 
32768 1:-1 2:0.860473 3:0.440152 4:-0.238756 5:0.863038 6:-0.613987 7:0.324326 8:-0.333333 9:-0.858224 10:0.868458 11:0.839557 12:0.387598 13:-0.224878 14:-0.446378 15:-0.961181 16:-0.286707 17:-0.122076 18:-0.927644 19:0.296181 20:-0.738593 
4040.882090136777 1:-1 2:0.860264 3:0.444955 4:-0.16118 5:0.86911 6:-0.613905 7:0.255521 8:-0.333333 9:-0.872362 10:0.873403 11:0.798232 12:0.418474 13:-0.229003 14:-0.391443 15:-0.959786 16:-0.274656 17:0.048909 18:-0.899738 19:0.295399 20:-0.737443 
30489.25737504307 1:-1 2:0.837613 3:0.456051 4:-0.0709666 5:0.860414 6:-0.614548 7:0.264295 8:-0.36226 9:-0.870506 10:0.832651 11:0.902713 12:0.50864 13:-0.0469806 14:-0.291785 15:-0.966894 16:-0.280512 17:-0.0872406 18:-0.834326 19:0.167563 20:-0.646172 
9911.772925279482 1:-1 2:0.879759 3:0.562973 4:-0.160278 5:0.739668 6:-0.236243 7:0.104368 8:-0.904287 9:-0.757915 10:0.879365 11:0.788175 12:0.331077 13:-0.189571 14:-0.508757 15:-0.982182 16:-0.0645723 17:-0.382136 18:-0.815124 19:0.153928 20:-0.741475 
32768 1:-1 2:0.875303 3:0.540506 4:-0.187655 5:0.850837 6:-0.51698 7:0.100584 8:-0.66082 9:-0.865358 10:0.879225 11:0.830149 12:0.409582 13:-0.107103 14:-0.453175 15:-0.969396 16:-0.229392 17:0.0782489 18:-0.813445 19:0.229001 20:-0.706329 
2600.074793848908 1:-1 2:0.865324 3:0.506983 4:-0.173944 5:0.836974 6:-0.240418 7:-0.228463 8:-0.357595 9:-0.832973 10:0.870343 11:0.91655 12:0.451087 13:-0.110913 14:-0.445696 15:-0.971959 16:-0.262688 17:0.356699 18:-0.626628 19:0.303694 20:-0.894144 
32768 1:-1 2:0.884076 3:0.467587 4:-0.0759301 5:0.771461 6:-0.931641 7:-0.0601368 8:-0.421272 9:-0.798625 10:0.883416 11:0.550156 12:0.215917 13:-0.471373 14:-0.493775 15:-0.968738 16:-0.246852 17:-0.0462998 18:-0.812459 19:0.086506 20:-0.55257 
32768 1:-0.988593 2:0.899254 3:0.616222 4:-0.227285 5:0.82858 6:-0.643596 7:-0.306379 8:-0.338101 9:-0.847378 10:0.900075 11:0.510407 12:0.159365 13:-0.467111 14:-0.5864 15:-0.983327 16:-0.110616 17:-0.341302 18:-0.850892 19:0.248764 20:-0.784297 
32768 1:-0.999481 2:0.901319 3:0.610175 4:-0.265788 5:0.830139 6:-0.641418 7:-0.304105 8:-0.217812 9:-0.839767 10:0.905519 11:0.64087 12:0.188355 13:-0.497668 14:-0.554828 15:-0.98347 16:-0.0855672 17:-0.372986 18:-0.861911 19:-0.038904 20:-0.798113 
32768 1:-1 2:0.89626 3:0.542253 4:-0.179265 5:0.845645 6:-0.500769 7:-0.126132 8:-0.296653 9:-0.855882 10:0.897383 11:0.864557 12:0.509335 13:-0.222554 14:-0.373368 15:-0.977994 16:-0.28495 17:-0.195208 18:-0.949376 19:0.236191 20:-0.94906 
32768 1:-1 2:0.887093 3:0.541502 4:-0.11318 5:0.847811 6:-0.504757 7:-0.192221 8:-0.30478 9:-0.853789 10:0.896866 11:0.785849 12:0.475581 13:-0.166153 14:-0.391337 15:-0.976012 16:-0.285053 17:-0.183632 18:-0.914035 19:-0.00640182 20:-0.925872 
9834.147608868228 1:-1 2:0.88273 3:0.533419 4:-0.12871 5:0.84545 6:-0.499419 7:-0.234426 8:-0.305146 9:-0.85043 10:0.916119 11:0.91793 12:0.503075 13:-0.180599 14:-0.368739 15:-0.976494 16:-0.285017 17:-0.207203 18:-0.939559 19:0.191718 20:-0.869742 
32768 1:-1 2:0.874816 3:0.564969 4:-0.11342 5:0.845782 6:-0.500798 7:-0.118305 8:-0.306388 9:-0.855499 10:0.901811 11:0.851663 12:0.515581 13:-0.208048 14:-0.37586 15:-0.978646 16:-0.285029 17:-0.20753 18:-0.941717 19:0.165146 20:-0.87833 
32768 1:-1 2:0.897119 3:0.524783 4:-0.234623 5:0.850239 6:-0.510214 7:-0.257384 8:-0.329347 9:-0.869907 10:0.895235 11:0.737191 12:0.300678 13:-0.348705 14:-0.499964 15:-0.981289 16:-0.107275 17:-0.0726938 18:-0.944464 19:-0.0380873 20:-0.868595 
32768 1:-0.961673 2:0.90306 3:0.6797 4:-0.294821 5:0.843166 6:-0.821886 7:-0.0808895 8:-0.192912 9:-0.858952 10:0.888659 11:0.477307 12:0.00820555 13:-0.520698 14:-0.613078 15:-0.98338 16:0.0338737 17:-0.308099 18:-0.870153 19:-0.0281125 20:-0.673122 
11972.83837312681 1:-0.947937 2:0.906448 3:0.622785 4:-0.50685 5:0.84227 6:-0.679217 7:-0.161711 8:-0.325479 9:-0.856008 10:0.893078 11:0.351128 12:-0.00706905 13:-0.515665 14:-0.658423 15:-0.982413 16:-0.17946 17:0.000715432 18:-0.903098 19:-0.231705 20:-0.622903 
32768 1:-0.998117 2:0.895541 3:0.620985 4:-0.305229 5:0.835768 6:-0.666121 7:-0.124347 8:-0.189474 9:-0.852267 10:0.897558 11:0.3654 12:0.0111923 13:-0.551974 14:-0.626207 15:-0.982923 16:-0.136497 17:-0.292297 18:-0.8377 19:0.25331 20:-0.733319 
32768 1:-0.988902 2:0.889924 3:0.620319 4:-0.316626 5:0.837351 6:-0.632982 7:-0.0979632 8:-0.189474 9:-0.852267 10:0.893814 11:0.315389 12:0.00958754 13:-0.551884 14:-0.622004 15:-0.983365 16:-0.0827128 17:-0.0431261 18:-0.795162 19:0.015474 20:-0.575283 
32768 1:-0.992554 2:0.899764 3:0.633802 4:-0.291831 5:0.842238 6:-0.658747 7:-0.276274 8:-0.279778 9:-0.852699 10:0.897278 11:0.40737 12:-0.0160292 13:-0.506402 14:-0.668862 15:-0.97846 16:0.0928202 17:-0.158385 18:-0.870451 19:-0.116371 20:-0.656503 
32768 1:-0.991944 2:0.917194 3:0.634331 4:-0.346557 5:0.841848 6:-0.692475 7:-0.148337 8:-0.361272 9:-0.874254 10:0.906466 11:0.497503 12:-0.018475 13:-0.517033 14:-0.66846 15:-0.973959 16:-0.0371241 17:-0.0813508 18:-0.900724 19:-0.167942 20:-0.592637 
12419.18011629292 1:-1 2:0.872565 3:0.439509 4:-0.242292 5:0.853018 6:-0.548085 7:0.0953474 8:-0.707089 9:-0.888704 10:0.878252 11:0.83762 12:0.346488 13:-0.0533999 14:-0.513672 15:-0.971607 16:-0.172124 17:0.00408833 18:-0.9714 19:-0.142174 20:-0.702599 
32768 1:-0.901483 2:0.905358 3:0.652688 4:-0.311116 5:0.787127 6:-0.335983 7:-0.444458 8:-0.262566 9:-0.806837 10:0.917996 11:-0.0462146 12:-0.352661 13:-0.698884 14:-0.742422 15:-0.98918 16:-0.0904884 17:-0.393511 18:-0.600118 19:-0.284379 20:-0.901671 
5766.606268099995 1:-0.919479 2:0.915267 3:0.677762 4:-0.311734 5:0.792872 6:-0.285998 7:-0.635958 8:-0.316154 9:-0.829474 10:0.909395 11:0.476443 12:0.0518836 13:-0.554097 14:-0.642124 15:-0.989206 16:-0.0700873 17:-0.433039 18:-0.621268 19:0.076868 20:-0.937062 
1627.470964455577 1:-0.478705 2:0.913318 3:0.732198 4:-0.478975 5:0.789047 6:-0.57553 7:-0.467026 8:-0.403772 9:-0.86992 10:0.894472 11:0.379872 12:-0.0530474 13:-0.617862 14:-0.676689 15:-0.985642 16:0.0685116 17:-0.212155 18:-0.867413 19:-0.215758 20:-0.893752 
32768 1:-0.946133 2:0.904244 3:0.647861 4:-0.161318 5:0.800359 6:-0.620869 7:-0.234474 8:-0.423375 9:-0.851129 10:0.899128 11:0.691756 12:0.227287 13:-0.413437 14:-0.561696 15:-0.984591 16:0.0553279 17:-0.0574675 18:-0.645038 19:0.00975242 20:-0.879813 
165.1319072591059 1:-1 2:0.841675 3:0.366888 4:-0.150381 5:0.817568 6:-0.4548 7:-0.366163 8:0.2021 9:-0.894372 10:0.838955 11:0.638912 12:0.359971 13:-0.292798 14:-0.346792 15:-0.950779 16:-0.380553 17:0.381446 18:-0.927756 19:0.043472 20:-0.883417 
32768 1:-0.983264 2:0.879527 3:0.54646 4:-0.217788 5:0.876456 6:-0.406215 7:-0.0740579 8:-0.504714 9:-0.880957 10:0.885301 11:0.86802 12:0.309233 13:-0.211182 14:-0.507049 15:-0.976766 16:-0.0863036 17:-0.246695 18:-0.817745 19:-0.0323041 20:-0.849684 
32768 1:-0.962295 2:0.899115 3:0.586797 4:-0.157148 5:0.768036 6:-0.473165 7:-0.0333 8:-0.483545 9:-0.758368 10:0.906677 11:0.707304 12:0.301819 13:-0.361178 14:-0.458483 15:-0.981441 16:-0.161985 17:-0.244605 18:-0.88686 19:0.0854889 20:-0.700964 
32768 1:-0.965333 2:0.899625 3:0.622664 4:-0.129177 5:0.764603 6:-0.459697 7:-0.0333 8:-0.359509 9:-0.758482 10:0.911876 11:0.739757 12:0.315389 13:-0.367917 14:-0.50794 15:-0.981062 16:-0.17756 17:-0.234745 18:-0.874908 19:-0.064333 20:-0.703417 
32768 1:-0.960333 2:0.900414 3:0.597885 4:-0.113351 5:0.754158 6:-0.461126 7:-0.0333 8:-0.479766 9:-0.759282 10:0.911972 11:0.716121 12:0.311361 13:-0.387218 14:-0.483877 15:-0.981009 16:-0.182319 17:-0.161333 18:-0.87941 19:0.0986844 20:-0.698945 
20176.67816066456 1:-0.961452 2:0.901203 3:0.620224 4:-0.122095 5:0.759465 6:-0.457138 7:-0.0333 8:-0.432169 9:-0.763826 10:0.907615 11:0.75199 12:0.359471 13:-0.350734 14:-0.493017 15:-0.981238 16:-0.164697 17:-0.176079 18:-0.863038 19:-0.0604452 20:-0.701959 
32768 1:-0.969306 2:0.908792 3:0.57595 4:-0.120928 5:0.762143 6:-0.468334 7:-0.0333 8:-0.386148 9:-0.766541 10:0.908193 11:0.765296 12:0.376978 13:-0.347545 14:-0.477919 15:-0.980801 16:-0.164202 17:-0.230742 18:-0.905502 19:0.0889188 20:-0.702063 
32768 1:-0.980703 2:0.90241 3:0.64206 4:-0.181172 5:0.742334 6:-0.514841 7:-0.148889 8:-0.355456 9:-0.848086 10:0.89683 11:0.62075 12:0.253845 13:-0.446333 14:-0.578285 15:-0.976158 16:-0.168371 17:0.0145375 18:-0.956693 19:-0.112716 20:-0.790193 
32768 1:-1 2:0.910324 3:0.54512 4:-0.206009 5:0.842431 6:-0.643818 7:-0.0628947 8:-0.665409 9:-0.884993 10:0.900969 11:0.69873 12:0.281671 13:-0.143272 14:-0.554667 15:-0.981451 16:-0.120237 17:-0.351979 18:-0.834251 19:0.142493 20:-0.834653 
32768 1:-1 2:0.912227 3:0.539657 4:-0.208794 5:0.845798 6:-0.670062 7:-0.170642 8:-0.631226 9:-0.884993 10:0.921924 11:0.715776 12:0.32269 13:-0.38084 14:-0.540994 15:-0.981339 16:-0.135531 17:-0.348085 18:-0.833863 19:0.07254 20:-0.864539 
32768 1:-1 2:0.911136 3:0.598623 4:-0.111952 5:0.854426 6:-0.679942 7:-0.131953 8:-0.351676 9:-0.866039 10:0.933532 11:0.376703 12:0.0507926 13:-0.457483 14:-0.598212 15:-0.983894 16:-0.130451 17:0.0384147 18:-0.942687 19:-0.0998534 20:-0.79474 
32768 1:-1 2:0.91601 3:0.591878 4:-0.18508 5:0.860348 6:-0.656042 7:-0.156211 8:-0.357676 9:-0.862186 10:0.919513 11:0.450368 12:0.0669082 13:-0.558833 14:-0.592496 15:-0.982101 16:-0.133515 17:0.193781 18:-0.909152 19:-0.261191 20:-0.781217 
32768 1:-0.985157 2:0.919074 3:0.645348 4:-0.130005 5:0.860191 6:-0.658639 7:-0.183026 8:-0.376962 9:-0.870378 10:0.908641 11:0.419522 12:0.0628623 13:-0.555419 14:-0.590934 15:-0.984712 16:-0.121246 17:-0.0858077 18:-0.894035 19:-0.123706 20:-0.825915 
32768 1:-0.995301 2:0.91912 3:0.643891 4:-0.201778 5:0.861275 6:-0.654967 7:-0.232432 8:-0.371817 9:-0.866869 10:0.915067 11:0.4517 12:0.0299491 13:-0.582445 14:-0.609224 15:-0.984735 16:-0.0741057 17:-0.330674 18:-0.891817 19:-0.214445 20:-0.865452 
32768 1:-1 2:0.919422 3:0.623387 4:-0.175699 5:0.862534 6:-0.676319 7:-0.255553 8:-0.420351 9:-0.871903 10:0.9201 11:0.397368 12:0.0945252 13:-0.496375 14:-0.601703 15:-0.984656 16:-0.138844 17:-0.227034 18:-0.831519 19:0.0606874 20:-0.763857 
32768 1:-1 2:0.917124 3:0.586461 4:-0.263692 5:0.859415 6:-0.654248 7:-0.191368 8:-0.292847 9:-0.867777 10:0.910841 11:0.373215 12:0.0674583 13:-0.459835 14:-0.593272 15:-0.983233 16:-0.141873 17:-0.0123368 18:-0.89349 19:0.0520709 20:-0.772963 
32768 1:-0.974485 2:0.915291 3:0.642803 4:-0.26817 5:0.863909 6:-0.622756 7:-0.1526 8:-0.383341 9:-0.866102 10:0.929622 11:0.32926 12:0.0409778 13:-0.554252 14:-0.594049 15:-0.984667 16:-0.0426154 17:-0.159005 18:-0.889346 19:0.0239011 20:-0.83736 
32768 1:-1 2:0.915639 3:0.621185 4:-0.215844 5:0.864718 6:-0.679776 7:-0.176263 8:-0.378892 9:-0.871903 10:0.931805 11:0.383285 12:0.0311084 13:-0.508052 14:-0.591109 15:-0.984801 16:-0.12899 17:-0.137251 18:-0.842306 19:0.111369 20:-0.758324 
32768 1:-1 2:0.919097 3:0.623878 4:-0.197775 5:0.862987 6:-0.670552 7:-0.126495 8:-0.411601 9:-0.871903 10:0.922958 11:0.395603 12:0.0347088 13:-0.504238 14:-0.597508 15:-0.984743 16:-0.124932 17:-0.215133 18:-0.824277 19:0.0931918 20:-0.75581 
32768 1:-1 2:0.917495 3:0.621392 4:-0.198561 5:0.861438 6:-0.700264 7:-0.217511 8:-0.448954 9:-0.871903 10:0.917926 11:0.494424 12:0.0500107 13:-0.542604 14:-0.602032 15:-0.984825 16:-0.138163 17:-0.108576 18:-0.84318 19:0.0878489 20:-0.768545 
7295.069805341955 1:-0.99652 2:0.919352 3:0.649786 4:-0.263243 5:0.859566 6:-0.694965 7:-0.339484 8:-0.372588 9:-0.869037 10:0.924624 11:0.484708 12:0.0682538 13:-0.54919 14:-0.58881 15:-0.984673 16:-0.0742245 17:-0.100816 18:-0.892706 19:-0.476141 20:-0.839525 
32768 1:-0.996814 2:0.907446 3:0.584303 4:-0.0615823 5:0.808537 6:-0.544331 7:-0.169747 8:-0.508274 9:-0.811143 10:0.916102 11:0.691781 12:0.32259 13:-0.401533 14:-0.493531 15:-0.981031 16:-0.149522 17:-0.365054 18:-0.692735 19:0.0867085 20:-0.877629 
