svm_type c_svc
kernel_type rbf
gamma 0.06
nr_class 2
total_sv 2425
rho 0.562074
label 1 0
probA -2.89466
probB -0.435739
nr_sv 1208 1217
SV
1 1:-1 2:0.462947 3:0.572586 4:-0.145294 5:0.802126 6:-0.654967 7:-0.16966 8:-0.366667 9:-0.827141 10:0.360816 11:0.654258 12:0.250298 13:-0.298886 14:-0.528587 15:-0.974808 16:-0.137421 17:-0.393483 18:-0.656172 
1 1:-1 2:0.604464 3:0.602368 4:-0.142287 5:0.912394 6:-0.820205 7:-0.1036 8:-0.563934 9:-0.878524 10:0.422815 11:0.429269 12:-0.0652915 13:-0.418862 14:-0.69072 15:-0.956019 16:0.179374 17:-0.0183897 18:-0.446775 
1 1:-1 2:0.439817 3:0.50226 4:-0.0353724 5:0.763274 6:-0.248639 7:-0.132738 8:-0.859259 9:-0.831338 10:0.296802 11:0.997748 12:0.465192 13:0.146089 14:-0.467277 15:-0.96278 16:-0.207497 17:-0.122788 18:-0.619986 
1 1:-1 2:0.468729 3:0.645408 4:-0.196297 5:0.923842 6:-0.772254 7:-0.295999 8:-0.4 9:-0.84766 10:0.337044 11:0.857584 12:0.361316 13:-0.313312 14:-0.505459 15:-0.944953 16:-0.0854863 17:-0.200779 18:-0.472957 
1 1:-1 2:0.429166 3:0.570552 4:0.138989 5:0.943084 6:-0.750296 7:-0.154664 8:-0.683333 9:-0.801959 10:0.432284 11:0.875957 12:0.5786 13:-0.253348 14:-0.279826 15:-0.957545 16:-0.36671 17:-0.151823 18:-0.942603 
1 1:-1 2:0.460512 3:0.713212 4:-0.448567 5:0.863405 6:-0.721465 7:-0.122686 8:-0.419444 9:-0.782372 10:0.224226 11:0.557204 12:0.047438 13:-0.463928 14:-0.647309 15:-0.970635 16:0.016437 17:-0.371901 18:-0.903638 
1 1:-1 2:0.415268 3:0.538095 4:-0.161845 5:0.795019 6:-0.407785 7:-0.111255 8:-1 9:-0.821545 10:0.253387 11:0.883037 12:0.373047 13:0.0127969 14:-0.503972 15:-0.96843 16:-0.0551356 17:-0.405103 18:-0.864673 
1 1:-1 2:0.580117 3:0.688356 4:-0.171954 5:0.900721 6:-0.810293 7:-0.0245297 8:-0.703125 9:-0.867841 10:0.456208 11:0.303084 12:-0.0827111 13:-0.554476 14:-0.679493 15:-0.976129 16:0.0195368 17:-0.419042 18:-0.397683 
1 1:-1 2:0.436165 3:0.684932 4:-0.0294361 5:0.777285 6:-0.663953 7:0.235264 8:-0.448387 9:-0.748795 10:0.400403 11:0.527482 12:0.241827 13:-0.41734 14:-0.475519 15:-0.960205 16:-0.183895 17:-0.134694 18:-0.682261 
1 1:-1 2:0.34669 3:0.705034 4:-0.0549607 5:0.764506 6:-0.530238 7:0.337841 8:-0.443902 9:-0.774538 10:0.278318 11:0.856533 12:0.499106 13:-0.265054 14:-0.37268 15:-0.954339 16:-0.228059 17:-0.0885238 18:-0.885931 
1 1:-0.92 2:0.599391 3:0.782838 4:-0.704074 5:0.966368 6:-0.856259 7:-0.228759 8:-0.443902 9:-0.866314 10:0.297809 11:0.256215 12:-0.266944 13:-0.627536 14:-0.7685 15:-0.97884 16:0.167958 17:-0.325957 18:-0.27784 
1 1:-0.98 2:0.614608 3:0.71583 4:-0.376611 5:0.775382 6:-0.764333 7:-0.163829 8:-0.563934 9:-0.83025 10:0.364493 11:0.533961 12:-0.0676736 13:-0.498242 14:-0.702213 15:-0.964894 16:0.256009 17:-0.228198 18:-0.0481579 
1 1:-0.86 2:0.670403 3:0.783487 4:-0.21498 5:0.638053 6:-0.648976 7:0.038396 8:-0.353191 9:-0.832737 10:0.580609 11:-0.385248 12:-0.569407 13:-0.799454 14:-0.849124 15:-0.988279 16:0.00917116 17:-0.3316 18:-0.704461 
1 1:-1 2:0.45473 3:0.663445 4:-0.0724015 5:0.753514 6:-0.514302 7:0.27007 8:-0.752174 9:-0.735365 10:0.324049 11:0.483791 12:0.0978288 13:-0.313674 14:-0.596779 15:-0.955332 16:-0.102545 17:-0.26011 18:-0.766134 
1 1:-0.279999 2:0.668983 3:0.893159 4:-0.62388 5:0.823151 6:-0.800619 7:-0.114383 8:-0.0913044 9:-0.870511 10:0.486678 11:-0.495138 12:-0.687137 13:-0.873722 14:-0.897724 15:-0.990631 16:0.132169 17:-0.346578 18:-0.465871 
1 1:-1 2:0.605072 3:0.702816 4:-0.286722 5:0.865261 6:-0.705215 7:-0.398226 8:-0.721951 9:-0.894995 10:0.467489 11:0.464109 12:0.00116036 13:-0.466082 14:-0.658675 15:-0.979102 16:0.0738293 17:-0.538894 18:-0.673755 
1 1:-1 2:0.54948 3:0.581429 4:-0.116333 5:0.883621 6:-0.410301 7:0.252945 8:-0.891429 9:-0.790207 10:0.456862 11:0.9905 12:0.461343 13:0.296146 14:-0.468069 15:-0.961658 16:0.223004 17:-0.361636 18:-0.542813 
1 1:-1 2:0.470555 3:0.672278 4:-0.359891 5:0.802758 6:-0.539044 7:-0.0953032 8:-0.782857 9:-0.867247 10:0.202216 11:0.820922 12:0.186007 13:-0.26569 14:-0.609193 15:-0.969803 16:0.00542767 17:-0.389342 18:-0.730056 
1 1:-1 2:0.399645 3:0.634551 4:-0.238925 5:0.637083 6:0.0669282 7:-0.109906 8:-0.62 9:-0.704026 10:0.204482 11:0.833294 12:0.308821 13:-0.15009 14:-0.537358 15:-0.966324 16:-0.0454925 17:0.0172807 18:-0.950908 
1 1:-1 2:0.395587 3:0.490439 4:-0.176095 5:0.722053 6:0.136821 7:0.0114876 8:-0.707692 9:-0.756257 10:0.163183 11:0.996581 12:0.385221 13:0.287887 14:-0.523027 15:-0.941493 16:-0.0671479 17:0.155782 18:-0.492455 
1 1:-0.96 2:0.558103 3:0.741741 4:-0.0699779 5:0.624922 6:0.488383 7:0.0620517 8:-0.05 9:-0.547334 10:0.615714 11:0.00459553 12:-0.118182 13:-0.595186 14:-0.566639 15:-0.966949 16:-0.315367 17:0.0114159 18:0.0971263 
1 1:-0.94 2:0.547958 3:0.775902 4:-0.578092 5:0.672185 6:-0.209848 7:-0.167438 8:-0.638095 9:-0.890098 10:0.0803324 11:0.63915 12:-0.133526 13:-0.368457 14:-0.730856 15:-0.977968 16:0.394245 17:-0.413611 18:-0.454262 
1 1:-1 2:0.341415 3:0.67964 4:-0.208062 5:0.609287 6:-0.228719 7:0.0829166 8:-0.819048 9:-0.890098 10:0.210375 11:0.271952 12:-0.0165328 13:-0.295853 14:-0.618098 15:-0.903081 16:-0.16036 17:0.42607 18:-0.963058 
1 1:-1 2:0.455136 3:0.62972 4:-0.178672 5:0.795872 6:-0.379269 7:-0.331891 8:-0.654545 9:-0.837214 10:0.274289 11:0.99565 12:0.408117 13:-0.0676216 14:-0.507896 15:-0.973294 16:0.0419465 17:-0.386196 18:-0.204434 
1 1:-1 2:0.568653 3:0.693973 4:-0.197785 5:0.795651 6:-0.557915 7:-0.266743 8:-0.43 9:-0.834603 10:0.502946 11:0.640355 12:0.229681 13:-0.407711 14:-0.541172 15:-0.970207 16:-0.116844 17:-0.308265 18:-0.833088 
1 1:-0.9 2:0.569363 3:0.800322 4:-0.443321 5:0.865564 6:-0.722863 7:-0.348636 8:-0.309091 9:-0.856366 10:0.362831 11:0.60512 12:0.0465795 13:-0.520511 14:-0.654621 15:-0.979851 16:0.183867 17:-0.513873 18:-0.74148 
1 1:-0.92 2:0.656201 3:0.820007 4:-0.247101 5:0.882437 6:-0.740336 7:-0.167438 8:-0.24 9:-0.841132 10:0.536389 11:-0.0783063 12:-0.375301 13:-0.730608 14:-0.787534 15:-0.985316 16:0.0979962 17:-0.406695 18:-0.61855 
1 1:-0.56 2:0.731981 3:0.846066 4:-0.590272 5:0.909728 6:-0.761723 7:-0.412161 8:-0.408889 9:-0.919478 10:0.486678 11:-0.150472 12:-0.535813 13:-0.765706 14:-0.854943 15:-0.983881 16:0.214921 17:-0.408787 18:0.00312613 
1 1:0.9 2:0.849252 3:0.971004 4:-0.48779 5:0.869339 6:-0.719069 7:-0.212458 8:-0.457143 9:-0.899891 10:0.807857 11:-0.729549 12:-0.826932 13:-0.953944 14:-0.941389 15:-0.995805 16:0.266576 17:-0.553539 18:0.028197 
1 1:-1 2:0.488207 3:0.670761 4:-0.377746 5:0.570553 6:-0.283236 7:-0.066553 8:0.0230769 9:-0.841132 10:0.305112 11:0.65869 12:0.152182 13:-0.167108 14:-0.602519 15:-0.949217 16:-0.094462 17:0.153346 18:-0.934467 
1 1:-1 2:0.404514 3:0.646134 4:-0.360504 5:0.64776 6:-0.447205 7:-0.37959 8:-0.113333 9:-0.860718 10:0.226895 11:0.87876 12:0.357924 13:-0.198942 14:-0.514022 15:-0.969089 16:-0.145911 17:-0.245097 18:-0.615308 
1 1:-1 2:0.347806 3:0.660264 4:-0.255952 5:0.741597 6:-0.2413 7:0.0480168 8:-0.539394 9:-0.772579 10:0.200403 11:0.973516 12:0.49096 13:-0.175017 14:-0.437885 15:-0.954865 16:-0.211549 17:-0.233592 18:-0.753738 
1 1:-1 2:0.248897 3:0.578061 4:-0.163256 5:0.780647 6:0.297575 7:-0.364643 8:-0.457143 9:-0.821545 10:0.0305716 11:0.898329 12:0.404329 13:0.318616 14:-0.484287 15:-0.96166 16:-0.160854 17:0.209908 18:-0.542519 
1 1:-1 2:0.333198 3:0.564965 4:-0.139772 5:0.781373 6:-0.342365 7:-0.151236 8:-0.441176 9:-0.82938 10:0.220599 11:0.939521 12:0.514266 13:-0.118566 14:-0.401461 15:-0.951692 16:-0.190683 17:0.00535803 18:-0.985442 
1 1:-0.92 2:0.679128 3:0.815862 4:-0.453338 5:0.903521 6:-0.6334 7:-0.226742 8:-0.155556 9:-0.919478 10:0.456812 11:-0.308979 12:-0.594322 13:-0.778947 14:-0.870816 15:-0.973333 16:0.323316 17:-0.274805 18:-0.857294 
1 1:-0.019999 2:0.758559 3:0.8922 4:-0.479445 5:0.92794 6:-0.816304 7:-0.306544 8:-0.470886 9:-0.857705 10:0.637421 11:-0.589685 12:-0.746419 13:-0.897176 14:-0.916754 15:-0.992838 16:0.215162 17:-0.465879 18:-0.0264834 
1 1:-0.0999991 2:0.807761 3:0.902185 4:-0.475242 5:0.860926 6:-0.761723 7:-0.0163386 8:-0.571831 9:-0.817628 10:0.651977 11:-0.334047 12:-0.626411 13:-0.835779 14:-0.882386 15:-0.981213 16:0.350342 17:-0.222689 18:-0.378015 
1 1:-0.019999 2:0.62739 3:0.887203 4:-0.569901 5:0.922169 6:-0.879024 7:0.0120932 8:-0.506494 9:-0.880305 10:0.428003 11:-0.509504 12:-0.691948 13:-0.875638 14:-0.898616 15:-0.990616 16:0.181123 17:-0.397757 18:-0.32159 
1 1:-0.8 2:0.610956 3:0.792128 4:-0.356884 5:0.737357 6:-0.801982 7:-0.212177 8:-0.396825 9:-0.848966 10:0.491463 11:0.361422 12:-0.0538483 13:-0.601031 14:-0.673092 15:-0.977662 16:-0.0128554 17:-0.272236 18:-0.706128 
1 1:-1 2:0.500786 3:0.663024 4:0.00789974 5:0.858915 6:-0.58787 7:0.016632 8:-0.262687 9:-0.720815 10:0.47036 11:0.682954 12:0.343217 13:-0.353973 14:-0.450312 15:-0.954295 16:-0.293756 17:0.0578086 18:-0.494153 
1 1:0.0599991 2:0.763226 3:0.903662 4:-0.469383 5:0.882989 6:-0.722863 7:-0.488366 8:-0.208333 9:-0.886834 10:0.665928 11:-0.751675 12:-0.841719 13:-0.941083 14:-0.946295 15:-0.997245 16:0.234495 17:-0.6025 18:-0.913703 
1 1:-1 2:0.411616 3:0.642998 4:-0.131596 5:0.919749 6:-0.674287 7:-0.033264 8:-0.604167 9:-0.860718 10:0.23168 11:0.967837 12:0.41514 13:-0.16606 14:-0.496227 15:-0.936311 16:0.00451944 17:-0.149796 18:-0.851073 
1 1:-1 2:0.456454 3:0.602495 4:-0.194947 5:0.831818 6:-0.510388 7:-0.481729 8:-0.27234 9:-0.788901 10:0.434752 11:0.925482 12:0.568685 13:-0.300744 14:-0.331891 15:-0.9636 16:-0.370884 17:-0.116475 18:-0.827298 
1 1:-0.66 2:0.73685 3:0.831372 4:-0.328737 5:0.795651 6:-0.557915 7:-0.451512 8:-0.05 9:-0.860718 10:0.618887 11:-0.804036 12:-0.876629 13:-0.936227 14:-0.957861 15:-0.996431 16:0.19924 17:-0.414585 18:-0.446836 
1 1:-1 2:0.424296 3:0.67416 4:-0.0936311 5:0.713524 6:-0.137509 7:-0.0288501 8:-0.7625 9:-0.782372 10:0.338303 11:0.822938 12:0.415669 13:-0.144314 14:-0.445275 15:-0.963318 16:-0.14419 17:-0.38658 18:-0.322208 
1 1:-0.98 2:0.423383 3:0.625271 4:-0.174592 5:0.769789 6:-0.337752 7:-0.0288501 8:-0.141935 9:-0.792165 10:0.297507 11:0.767645 12:0.325741 13:-0.210975 14:-0.504965 15:-0.948557 16:-0.116607 17:-0.045049 18:-0.691894 
1 1:-0.98 2:0.55648 3:0.727454 4:-0.348647 5:0.894992 6:-0.656465 7:0.00108008 8:-0.208333 9:-0.939064 10:0.391035 11:0.276824 12:-0.127097 13:-0.435729 14:-0.702156 15:-0.974172 16:-0.0743743 17:-0.425291 18:-0.924602 
1 1:-1 2:0.56774 3:0.657778 4:-0.467972 5:0.462959 6:-0.438398 7:-0.43925 8:-0.868966 9:-0.90642 10:0.198439 11:0.663625 12:-0.0605793 13:-0.276436 14:-0.706007 15:-0.976386 16:0.348806 17:-0.543215 18:-0.485709 
1 1:-1 2:0.502612 3:0.723009 4:-0.265155 5:0.777204 6:-0.421205 7:-0.189189 8:-0.776471 9:-0.82938 10:0.322337 11:0.93526 12:0.337434 13:-0.266084 14:-0.540911 15:-0.971263 16:0.0139611 17:-0.283567 18:-0.83051 
1 1:-1 2:0.472584 3:0.586356 4:-0.115536 5:0.771092 6:-0.562109 7:-0.103875 8:-0.81 9:-0.834603 10:0.365651 11:0.804674 12:0.350962 13:-0.178762 14:-0.496723 15:-0.962531 16:-0.144798 17:-0.125081 18:-0.673462 
1 1:-0.62 2:0.689982 3:0.852971 4:-0.655801 5:0.848796 6:-0.406946 7:-0.225843 8:-1 9:-0.909684 10:0.374817 11:-0.614226 12:-0.809281 13:-0.879403 14:-0.940626 15:-0.993226 16:0.457281 17:-0.322076 18:-0.939916 
1 1:-1 2:0.47999 3:0.708666 4:-0.371441 5:0.908417 6:-0.627109 7:-0.34263 8:-0.737931 9:-0.90642 10:0.238278 11:0.886453 12:0.250185 13:-0.247434 14:-0.583739 15:-0.971155 16:0.0724117 17:-0.144698 18:-0.433575 
1 1:-1 2:0.432209 3:0.578182 4:-0.0013652 5:0.748776 6:-0.428753 7:0.0858821 8:-0.81 9:-0.782372 10:0.395971 11:0.960837 12:0.586699 13:-0.0731598 14:-0.332791 15:-0.947394 16:-0.249355 17:-0.0373172 18:-0.88377 
1 1:-0.58 2:0.696779 3:0.866852 4:-0.50974 5:0.675699 6:-0.582378 7:-0.497599 8:-0.16875 9:-0.886834 10:0.541274 11:0.0708912 12:-0.324316 13:-0.708907 14:-0.78004 15:-0.983032 16:0.187974 17:-0.43843 18:-0.224379 
1 1:-0.96 2:0.536191 3:0.722593 4:-0.123665 5:0.854403 6:-0.662755 7:-0.0741074 8:-0.424242 9:-0.880305 10:0.47867 11:0.576482 12:0.209266 13:-0.390476 14:-0.534986 15:-0.969295 16:-0.0949477 17:-0.0880877 18:-0.455126 
1 1:-1 2:0.366878 3:0.59248 4:-0.0739815 5:0.826006 6:-0.288687 7:-0.131021 8:-0.769697 9:-0.837214 10:0.256006 11:0.923653 12:0.488422 13:-0.082253 14:-0.419751 15:-0.953843 16:-0.188563 17:-0.000419505 18:-0.703828 
1 1:-0.98 2:0.430789 3:0.709128 4:-0.47693 5:0.602772 6:-0.190977 7:0.0288313 8:0.0857143 9:-0.821545 10:0.156585 11:0.927047 12:0.273855 13:-0.249626 14:-0.576601 15:-0.949906 16:-0.0966654 17:-0.0414355 18:-0.951387 
1 1:-0.82 2:0.66807 3:0.814883 4:-0.354231 5:0.884885 6:-0.510388 7:-0.606913 8:-0.696 9:-0.932535 10:0.552959 11:-0.358128 12:-0.5647 13:-0.796313 14:-0.851157 15:-0.991797 16:0.192843 17:-0.688316 18:-0.474146 
1 1:-0.82 2:0.686837 3:0.794533 4:-0.522825 5:0.312345 6:-0.669345 7:-0.0686633 8:-0.0952381 9:-0.978237 10:0.468094 11:0.0767771 12:-0.362773 13:-0.601367 14:-0.79768 15:-0.975902 16:0.193033 17:-0.463501 18:-0.458183 
1 1:-0.92 2:0.606695 3:0.767176 4:-0.282964 5:0.963892 6:-0.97972 7:0.00654293 8:-0.68806 9:-0.87704 10:0.407706 11:0.510995 12:-0.0298864 13:-0.56006 14:-0.682447 15:-0.971438 16:0.197981 17:-0.29525 18:-0.204218 
1 1:0.74 2:0.673142 3:0.94799 4:-0.582894 5:0.979093 6:-0.923805 7:-0.308254 8:-0.222047 9:-0.847008 10:0.534122 11:-0.528871 12:-0.691452 13:-0.890608 14:-0.896125 15:-0.991729 16:0.0756774 17:-0.417978 18:-0.448658 
1 1:-0.259999 2:0.588638 3:0.87803 4:-0.611363 5:0.968354 6:-0.909943 7:0.110649 8:-0.318868 9:-0.865071 10:0.373306 11:-0.50096 12:-0.682839 13:-0.871883 14:-0.895063 15:-0.991164 16:0.129638 17:-0.3841 18:-0.36108 
1 1:-0.56 2:0.695359 3:0.853412 4:-0.688152 5:0.787266 6:-0.818299 7:-0.205228 8:-0.746667 9:-0.828668 10:0.426643 11:0.201298 12:-0.330085 13:-0.677748 14:-0.79046 15:-0.981607 16:0.300097 17:-0.531519 18:-0.101063 
1 1:-0.52 2:0.674461 3:0.869831 4:-0.507992 5:0.932542 6:-0.886063 7:-0.115631 8:-0.547619 9:-0.890098 10:0.465727 11:0.253539 12:-0.240964 13:-0.67099 14:-0.7575 15:-0.979963 16:0.191607 17:-0.39085 18:-0.40324 
1 1:-0.9 2:0.627289 3:0.810236 4:-0.277365 5:0.941936 6:-0.793724 7:-0.221685 8:-0.397561 9:-0.848665 10:0.539411 11:0.603304 12:0.141111 13:-0.546332 14:-0.597649 15:-0.963286 16:-0.0728461 17:-0.193109 18:-0.442143 
1 1:-0.92 2:0.668476 3:0.782488 4:-0.61052 5:0.882058 6:-0.809111 7:-0.167438 8:-0.561538 9:-0.892057 10:0.301788 11:0.371609 12:-0.287048 13:-0.551837 14:-0.77864 15:-0.98221 16:0.538062 17:-0.56601 18:-0.0881878 
1 1:-0.259999 2:0.69262 3:0.861789 4:-0.150341 5:0.921684 6:-0.839817 7:-0.152598 8:-0.298462 9:-0.81284 10:0.641048 11:-0.386208 12:-0.553733 13:-0.835719 14:-0.838542 15:-0.988797 16:0.00166838 17:-0.378881 18:-0.309703 
1 1:0.339999 2:0.728227 3:0.903083 4:-0.4557 5:0.805364 6:-0.439796 7:-0.0672211 8:-0.486486 9:-0.854189 10:0.646487 11:-0.833192 12:-0.884021 13:-0.962245 14:-0.957886 15:-0.995542 16:0.0398694 17:-0.349751 18:-0.361234 
1 1:-1 2:0.524423 3:0.727454 4:-0.452602 5:0.777725 6:-0.729328 7:-0.235221 8:-0.457143 9:-0.855822 10:0.326316 11:0.922884 12:0.293868 13:-0.34403 14:-0.564794 15:-0.963265 16:-0.0199594 17:-0.347583 18:-0.793613 
1 1:-1 2:0.55577 3:0.770737 4:-0.399221 5:0.678226 6:-0.546733 7:-0.294532 8:-0.443902 9:-0.828074 10:0.400302 11:0.781648 12:0.227629 13:-0.419454 14:-0.579447 15:-0.973345 16:0.0171715 17:-0.428896 18:-0.575556 
1 1:-0.68 2:0.59716 3:0.802727 4:-0.32346 5:0.76049 6:-0.673239 7:-0.0405374 8:0.310345 9:-0.811752 10:0.572904 11:0.0424356 12:-0.184238 13:-0.693972 14:-0.678328 15:-0.954848 16:-0.253568 17:0.236183 18:-0.695229 
1 1:-0.9 2:0.678519 3:0.764213 4:-0.240536 5:0.811898 6:-0.630255 7:-0.182434 8:-0.547619 9:-0.890098 10:0.574666 11:-0.456345 12:-0.627901 13:-0.816103 14:-0.871585 15:-0.991248 16:0.0754641 17:-0.459952 18:-0.670451 
1 1:-0.52 2:0.65894 3:0.831149 4:-0.398208 5:0.550416 6:-0.708884 7:-0.0805629 8:-0.457143 9:-0.855822 10:0.530849 11:0.128654 12:-0.244633 13:-0.676103 14:-0.745856 15:-0.972884 16:-0.0146126 17:-0.168624 18:-0.00795813 
1 1:-1 2:0.522293 3:0.67347 4:-0.368772 5:0.914471 6:-0.686053 7:-0.268603 8:-0.662222 9:-0.899891 10:0.290909 11:0.772837 12:0.159762 13:-0.348353 14:-0.616787 15:-0.972106 16:0.0977474 17:-0.318408 18:-0.52279 
1 1:-1 2:0.475526 3:0.666596 4:-0.0995828 5:0.739978 6:-0.529958 7:0.0352619 8:-0.627451 9:-0.762786 10:0.334223 11:0.0645186 12:-0.222917 13:-0.579799 14:-0.718606 15:-0.982428 16:0.000491629 17:-0.289132 18:-0.867992 
1 1:-1 2:0.434745 3:0.663186 4:-0.348187 5:0.857291 6:-0.564505 7:0.038396 8:-0.752174 9:-0.838334 10:0.19028 11:0.889485 12:0.276397 13:-0.23239 14:-0.569426 15:-0.956996 16:0.0680798 17:-0.214539 18:-0.711022 
1 1:0.359999 2:0.860918 3:0.907792 4:-0.495904 5:0.758407 6:-0.811055 7:0.0337822 8:-0.6 9:-0.960431 10:0.736691 11:-0.700649 12:-0.844719 13:-0.931321 14:-0.951116 15:-0.994404 16:0.477112 17:-0.621251 18:-0.787269 
1 1:-1 2:0.436368 3:0.670431 4:-0.14827 5:0.594441 6:-0.549528 7:-0.244929 8:-0.6 9:-0.84766 10:0.282297 11:0.719165 12:0.252822 13:-0.279519 14:-0.547638 15:-0.973242 16:-0.0167648 17:-0.216525 18:-0.944007 
1 1:-0.439999 2:0.718083 3:0.890983 4:-0.76106 5:-0.053096 6:0.163381 7:-0.504779 8:-0.654545 9:-0.664853 10:0.399446 11:-0.0526425 12:-0.51521 13:-0.760173 14:-0.849476 15:-0.989232 16:0.455511 17:-0.735421 18:-0.574923 
1 1:-1 2:0.675881 3:0.743299 4:-0.264327 5:0.84883 6:-0.704092 7:-0.366204 8:-0.441176 9:-0.905487 10:0.344447 11:0.734951 12:-0.0673387 13:-0.346001 14:-0.710013 15:-0.980197 16:0.471642 17:-0.616421 18:-0.311355 
1 1:-0.96 2:0.607304 3:0.76749 4:-0.404405 5:0.749439 6:-0.484108 7:-0.325848 8:-0.220513 9:-0.790207 10:0.450718 11:0.400785 12:-0.061867 13:-0.53256 14:-0.684814 15:-0.974257 16:-0.0899879 17:-0.263482 18:-0.468434 
1 1:0.379999 2:0.788587 3:0.938584 4:-0.404881 5:0.743577 6:-0.641787 7:-0.0487348 8:0.045 9:-0.87191 10:0.737749 11:-0.583899 12:-0.718372 13:-0.915888 14:-0.902974 15:-0.992537 16:0.118277 17:-0.354253 18:0.202736 
1 1:-0.98 2:0.596145 3:0.778419 4:-0.469429 5:0.778041 6:-0.550926 7:-0.387387 8:-0.589189 9:-0.854189 10:0.352153 11:0.8199 12:0.127692 13:-0.400678 14:-0.637502 15:-0.976277 16:0.267985 17:-0.46446 18:-0.542612 
1 1:-1 2:0.421659 3:0.647564 4:0.0420297 5:0.739584 6:-0.229768 7:-0.0953032 8:-0.638095 9:-0.68444 10:0.364442 11:0.977577 12:0.574765 13:-0.188802 14:-0.356784 15:-0.95467 16:-0.340691 17:-0.157217 18:-0.799094 
1 1:-1 2:0.367892 3:0.61801 4:-0.0577832 5:0.907785 6:-0.58128 7:-0.0842589 8:-0.222727 9:-0.849526 10:0.296701 11:0.852263 12:0.482521 13:-0.247092 14:-0.389511 15:-0.962987 16:-0.27351 17:-0.115596 18:-0.816508 
1 1:-1 2:0.499467 3:0.665099 4:-0.378789 5:0.840166 6:-0.620819 7:-0.287445 8:-0.691892 9:-0.888699 10:0.276555 11:0.813174 12:0.209473 13:-0.282501 14:-0.595468 15:-0.971559 16:0.0725894 17:-0.481843 18:-0.771584 
1 1:-1 2:0.489729 3:0.705237 4:-0.412612 5:0.775661 6:-0.690313 7:-0.314366 8:-0.891429 9:-0.899891 10:0.23314 11:0.777327 12:0.157606 13:-0.348178 14:-0.618492 15:-0.968206 16:-0.0609522 17:-0.0769252 18:-0.62224 
1 1:-0.8 2:0.718488 3:0.833539 4:-0.547843 5:0.81713 6:-0.618722 7:-0.244929 8:-0.64375 9:-0.886834 10:0.530899 11:0.106455 12:-0.339538 13:-0.671549 14:-0.789784 15:-0.98483 16:0.374699 17:-0.537502 18:0.0365487 
1 1:-0.199999 2:0.788486 3:0.887553 4:-0.52465 5:0.617341 6:-0.663953 7:-0.467907 8:-0.16875 9:-0.91668 10:0.652581 11:-0.2498 12:-0.555535 13:-0.80819 14:-0.858227 15:-0.991463 16:0.353841 17:-0.688117 18:-0.369401 
1 1:-1 2:0.648795 3:0.743796 4:-0.500721 5:0.861747 6:-0.611034 7:-0.244929 8:-0.141935 9:-0.893362 10:0.372047 11:0.363683 12:-0.213549 13:-0.50784 14:-0.75252 15:-0.982338 16:0.284531 17:-0.605555 18:-0.974728 
1 1:-0.98 2:0.536901 3:0.689478 4:-0.36753 5:0.651076 6:-0.591464 7:-0.393749 8:-0.565714 9:-0.821545 10:0.364694 11:0.963734 12:0.344472 13:-0.297744 14:-0.541968 15:-0.967342 16:-0.0876186 17:-0.199057 18:-0.780044 
1 1:-1 2:0.503728 3:0.567928 4:0.192554 5:0.763274 6:-0.248639 7:-0.0308167 8:-0.794595 9:-0.733406 10:0.403526 11:0.898054 12:0.410881 13:-0.0710615 14:-0.478905 15:-0.97202 16:-0.0293773 17:-0.378871 18:-0.916204 
1 1:-0.94 2:0.623332 3:0.817577 4:-0.296754 5:0.795256 6:-0.545335 7:-0.215679 8:-0.131429 9:-0.867247 10:0.577134 11:-0.109754 12:-0.327019 13:-0.722098 14:-0.746628 15:-0.973265 16:-0.11573 17:-0.237147 18:-0.562588 
1 1:-0.139999 2:0.80421 3:0.880084 4:-0.295435 5:0.821363 6:-0.615787 7:0.0705862 8:-0.424242 9:-0.837214 10:0.776077 11:-0.446914 12:-0.617911 13:-0.853672 14:-0.867298 15:-0.990866 16:0.228955 17:-0.370145 18:0.107964 
1 1:-1 2:0.389602 3:0.650898 4:-0.196911 5:0.745364 6:-0.445527 7:-0.387387 8:-0.348571 9:-0.821545 10:0.268547 11:0.849678 12:0.409244 13:-0.216092 14:-0.462738 15:-0.971733 16:-0.245896 17:-0.388021 18:-0.943158 
1 1:-1 2:0.337662 3:0.601496 4:-0.0372899 5:0.709734 6:-0.246542 7:0.0288313 8:-0.457143 9:-0.752992 10:0.320826 11:0.752466 12:0.484705 13:-0.182292 14:-0.313188 15:-0.958014 16:-0.325745 17:0.226045 18:-0.907219 
1 1:-0.96 2:0.481613 3:0.761042 4:-0.362928 5:0.914892 6:-0.644583 7:0.00108008 8:0.266667 9:-0.939064 10:0.274994 11:0.406208 12:-0.0392353 13:-0.379421 14:-0.672563 15:-0.96794 16:0.00228835 17:-0.343923 18:-0.999799 
1 1:-0.6 2:0.681765 3:0.833757 4:-0.604783 5:0.880683 6:-0.52856 7:-0.360704 8:-0.24 9:-0.939064 10:0.340619 11:-0.766727 12:-0.897294 13:-0.918775 14:-0.968074 15:-0.997464 16:0.552289 17:-0.721966 18:0.0272861 
1 1:-0.92 2:0.726807 3:0.834944 4:-0.484415 5:0.748776 6:-0.428753 7:-0.170609 8:-0.185714 9:-0.876387 10:0.566054 11:0.281312 12:-0.214374 13:-0.586259 14:-0.747868 15:-0.980781 16:0.20401 17:-0.396642 18:-0.552369 
1 1:-1 2:0.320416 3:0.603576 4:-0.169131 5:0.487676 6:0.0906918 7:-0.0405374 8:-0.475862 9:-0.717084 10:0.240091 11:0.895702 12:0.52604 13:0.0819281 14:-0.364822 15:-0.953647 16:-0.304552 17:0.169106 18:-0.985334 
1 1:-1 2:0.438701 3:0.661299 4:-0.269143 5:0.675699 6:-0.582378 7:-0.883926 8:-0.565714 9:-0.867247 10:0.387509 11:0.954376 12:0.556624 13:-0.328576 14:-0.364043 15:-0.979671 16:-0.313207 17:-0.771241 18:-0.994288 
1 1:-1 2:0.289272 3:0.662141 4:-0.243281 5:0.729476 6:0.145208 7:-0.113814 8:-0.841667 9:-0.782372 10:0.0616469 11:0.989982 12:0.441715 13:0.0649597 14:-0.482806 15:-0.971186 16:-0.0508274 17:-0.516215 18:-0.938095 
1 1:-1 2:0.412427 3:0.720391 4:-0.270693 5:0.743848 6:-0.120385 7:0.348099 8:-0.344828 9:-0.717084 10:0.285772 11:0.241285 12:-0.0598907 13:-0.462311 14:-0.644914 15:-0.954123 16:-0.137011 17:0.213013 18:-0.201856 
1 1:-1 2:0.439412 3:0.667834 4:-0.343048 5:0.747046 6:-0.290575 7:-0.148184 8:-1 9:-0.831338 10:0.16686 11:0.951884 12:0.286557 13:-0.0452449 14:-0.573187 15:-0.951842 16:-0.0191262 17:-0.192719 18:-0.479009 
1 1:-0.94 2:0.619173 3:0.776562 4:-0.258253 5:0.758062 6:-0.434205 7:-0.00465746 8:-0.366667 9:-0.801959 10:0.566356 11:-0.0294281 12:-0.27226 13:-0.647389 14:-0.728589 15:-0.9814 16:-0.0721392 17:-0.18067 18:-0.723804 
1 1:-0.9 2:0.656911 3:0.807399 4:-0.275187 5:0.653351 6:0.00682021 7:-0.263515 8:-0.0827586 9:-0.717084 10:0.621657 11:0.197708 12:-0.104862 13:-0.616009 14:-0.667362 15:-0.977676 16:-0.107734 17:-0.268763 18:-0.828132 
1 1:-1 2:0.340705 3:0.656511 4:-0.209905 5:0.735167 6:-0.276689 7:-0.00671774 8:-0.548363 9:-0.76188 10:0.195366 11:0.833232 12:0.409249 13:-0.164722 14:-0.462629 15:-0.959223 16:-0.203604 17:-0.42208 18:-0.776123 
1 1:-1 2:0.555262 3:0.675849 4:-0.160962 5:0.801791 6:-0.607135 7:-0.214293 8:-0.411704 9:-0.829126 10:0.406497 11:0.642093 12:0.23153 13:-0.377674 14:-0.536743 15:-0.971235 16:-0.136426 17:-0.380294 18:-0.804543 
1 1:-1 2:0.414253 3:0.575322 4:-0.138354 5:0.802094 6:-0.594103 7:-0.010651 8:-0.387584 9:-0.820193 10:0.358499 11:0.657279 12:0.387461 13:-0.297468 14:-0.421997 15:-0.944591 16:-0.178375 17:-0.141051 18:-0.697637 
1 1:-1 2:0.434542 3:0.599974 4:-0.128609 5:0.800392 6:-0.625664 7:-0.0161638 8:-0.401318 9:-0.820578 10:0.343843 11:0.750497 12:0.445192 13:-0.222149 14:-0.423948 15:-0.948183 16:-0.234981 17:-0.0530217 18:-0.668136 
1 1:-1 2:0.459194 3:0.583891 4:-0.100725 5:0.800186 6:-0.60326 7:-0.0560082 8:-0.402161 9:-0.803793 10:0.351196 11:0.808713 12:0.304373 13:-0.256777 14:-0.47505 15:-0.973282 16:-0.154322 17:-0.0542574 18:-0.658024 
1 1:-1 2:0.602739 3:0.690994 4:-0.290335 5:0.899209 6:-0.816482 7:-0.190538 8:-0.563934 9:-0.878524 10:0.379048 11:0.513396 12:0.00576407 13:-0.394338 14:-0.667498 15:-0.957335 16:0.197155 17:-0.0323164 18:0.012821 
1 1:-1 2:0.514076 3:0.556358 4:-0.118276 5:0.915562 6:-0.825533 7:-0.115051 8:-0.549149 9:-0.874985 10:0.341325 11:0.684027 12:0.245341 13:-0.325268 14:-0.632323 15:-0.944849 16:0.0943001 17:-0.0406857 18:-0.920403 
1 1:-1 2:0.546944 3:0.555169 4:-0.131494 5:0.91351 6:-0.832993 7:-0.122655 8:-0.507767 9:-0.878025 10:0.40413 11:0.564232 12:-0.0597397 13:-0.254737 14:-0.648722 15:-0.949075 16:-0.140651 17:-0.0490551 18:-0.884619 
1 1:-1 2:0.439919 3:0.596529 4:-0.15132 5:0.909182 6:-0.814005 7:-0.0893347 8:-0.587903 9:-0.87241 10:0.360866 11:0.932864 12:-0.0496172 13:-0.313164 14:-0.542664 15:-0.955849 16:0.0211401 17:-0.0420315 18:-0.765378 
1 1:-1 2:0.577073 3:0.669928 4:-0.295631 5:0.897673 6:-0.819677 7:-0.202437 8:-0.563934 9:-0.878524 10:0.348174 11:0.561032 12:-0.0245327 13:-0.404936 14:-0.678173 15:-0.956693 16:0.206494 17:-0.0785803 18:-0.313393 
1 1:-1 2:0.584174 3:0.631623 4:-0.34775 5:0.91059 6:-0.818048 7:-0.137539 8:-0.563934 9:-0.878524 10:0.365349 11:0.589172 12:-0.0606265 13:-0.408813 14:-0.656715 15:-0.956639 16:0.192721 17:-0.111476 18:0.0137936 
1 1:-0.829512 2:0.427948 3:0.788227 4:-0.295932 5:0.816816 6:-0.652174 7:-0.222665 8:-0.632798 9:-0.868536 10:0.260942 11:0.511891 12:0.198917 13:-0.668466 14:-0.767006 15:-0.981003 16:0.162496 17:-0.455466 18:-0.395166 
1 1:-0.959327 2:0.52635 3:0.803584 4:-0.50576 5:0.811677 6:-0.652087 7:-0.177677 8:-0.636222 9:-0.880754 10:0.516545 11:0.534428 12:0.0396174 13:-0.317947 14:-0.652563 15:-0.981992 16:0.201728 17:-0.536277 18:-0.0444683 
1 1:-1 2:0.407152 3:0.532434 4:-0.0426628 5:0.748126 6:-0.385056 7:0.0596792 8:-0.752407 9:-0.787491 10:0.370385 11:0.914106 12:0.305972 13:-0.066389 14:-0.509565 15:-0.968289 16:-0.17905 17:-0.301051 18:-0.831992 
1 1:-1 2:0.406239 3:0.61137 4:-0.0288203 5:0.763393 6:-0.279481 7:0.218589 8:-0.969477 9:-0.817046 10:0.264669 11:0.980395 12:0.574728 13:0.0488332 14:-0.404269 15:-0.937043 16:-0.298964 17:-0.18432 18:-0.539077 
1 1:-1 2:0.456353 3:0.512604 4:-0.021806 5:0.763274 6:-0.248639 7:-0.0900027 8:-0.823825 9:-0.753338 10:0.314329 11:0.977559 12:0.445989 13:0.0567034 14:-0.471018 15:-0.966934 16:-0.121006 17:-0.267765 18:-0.883476 
1 1:-1 2:0.434847 3:0.584474 4:-0.293565 5:0.751031 6:-0.269379 7:-0.110137 8:-0.834395 9:-0.822151 10:0.227902 11:0.811466 12:0.300208 13:-0.0336752 14:-0.53775 15:-0.970243 16:-0.137034 17:-0.140229 18:-0.606045 
1 1:-1 2:0.468425 3:0.537878 4:0.0189603 5:0.763274 6:-0.248639 7:-0.118135 8:-0.805511 9:-0.801094 10:0.364593 11:0.916596 12:0.456512 13:0.0330419 14:-0.475054 15:-0.965015 16:-0.0840726 17:-0.20477 18:-0.819209 
1 1:-1 2:0.386457 3:0.540328 4:-0.287528 5:0.752423 6:-0.360567 7:-0.0860694 8:-0.828732 9:-0.826574 10:0.236464 11:0.63318 12:0.369641 13:-0.0938397 14:-0.592705 15:-0.968314 16:-0.172214 17:-0.129467 18:-0.579801 
1 1:-1 2:0.418412 3:0.579538 4:-0.0237046 5:0.771579 6:-0.292179 7:-0.173856 8:-0.82027 9:-0.820776 10:0.31453 11:0.997339 12:0.539271 13:0.0698674 14:-0.375436 15:-0.96347 16:-0.238654 17:-0.233776 18:-0.748458 
1 1:-1 2:0.417905 3:0.644904 4:-0.17155 5:0.920973 6:-0.678773 7:-0.17448 8:-0.530939 9:-0.848298 10:0.298011 11:0.965303 12:0.388136 13:-0.252213 14:-0.501901 15:-0.938588 16:-0.0259695 17:-0.188607 18:-0.558559 
1 1:-1 2:0.428151 3:0.643552 4:-0.183621 5:0.921761 6:-0.681562 7:-0.0672773 8:-0.47398 9:-0.858611 10:0.297708 11:0.924364 12:0.40748 13:-0.24762 14:-0.502645 15:-0.943696 16:-0.0753022 17:-0.185988 18:-0.474578 
1 1:-0.988302 2:0.632868 3:0.798933 4:-0.189303 5:0.922653 6:-0.824441 7:-0.226649 8:-0.299917 9:-0.817095 10:0.493478 11:0.0105103 12:-0.297567 13:-0.681306 14:-0.656753 15:-0.979658 16:-0.0451055 17:-0.239328 18:-0.321081 
1 1:-1 2:0.509511 3:0.598208 4:-0.148602 5:0.921972 6:-0.705278 7:-0.249449 8:-0.665339 9:-0.81716 10:0.405087 11:0.777979 12:0.471852 13:-0.33419 14:-0.327847 15:-0.962818 16:-0.00399029 17:-0.266917 18:-0.902804 
1 1:-1 2:0.477048 3:0.643245 4:-0.333591 5:0.933848 6:-0.728557 7:-0.251634 8:-0.679204 9:-0.889267 10:0.336892 11:0.820842 12:0.473319 13:-0.286667 14:-0.437152 15:-0.967343 16:-0.109554 17:-0.244453 18:-0.536391 
1 1:-1 2:0.49541 3:0.613628 4:0.0516234 5:0.942178 6:-0.698914 7:-0.201058 8:-0.668121 9:-0.855044 10:0.365953 11:0.82801 12:0.285133 13:-0.280244 14:-0.314297 15:-0.971132 16:-0.0150154 17:-0.185371 18:-0.773961 
1 1:-1 2:0.462034 3:0.631283 4:-0.116203 5:0.938272 6:-0.724401 7:-0.211921 8:-0.677166 9:-0.829035 10:0.341425 11:0.818017 12:0.204591 13:-0.328322 14:-0.539824 15:-0.965164 16:-0.345477 17:-0.231405 18:-0.853743 
1 1:-1 2:0.496323 3:0.671707 4:-0.359459 5:0.929876 6:-0.724424 7:-0.233903 8:-0.677518 9:-0.889969 10:0.34349 11:0.773395 12:0.391325 13:-0.337949 14:-0.34426 15:-0.960394 16:-0.00775353 17:-0.239776 18:-0.587443 
1 1:-1 2:0.424398 3:0.637202 4:0.0919062 5:0.936327 6:-0.695544 7:-0.111336 8:-0.635616 9:-0.823705 10:0.343742 11:0.946205 12:0.469338 13:-0.205996 14:-0.484125 15:-0.954396 16:-0.338737 17:-0.150312 18:-0.870632 
1 1:-1 2:0.498554 3:0.663855 4:0.091828 5:0.930836 6:-0.739243 7:-0.224557 8:-0.674392 9:-0.848126 10:0.309141 11:0.828308 12:0.543983 13:-0.266599 14:-0.553369 15:-0.970896 16:-0.355152 17:-0.211721 18:-0.903669 
1 1:-1 2:0.472077 3:0.586476 4:-0.135679 5:0.771702 6:-0.502237 7:-0.0662097 8:-0.784233 9:-0.827207 10:0.361924 11:0.840391 12:0.41815 13:-0.177649 14:-0.475718 15:-0.957899 16:-0.214226 17:-0.0935621 18:-0.631857 
1 1:-0.690245 2:0.563175 3:0.77614 4:-0.47238 5:0.976611 6:-0.985597 7:-0.105836 8:-0.505904 9:-0.864372 10:0.372601 11:-0.283362 12:-0.437366 13:-0.84842 14:-0.777422 15:-0.981011 16:0.0987385 17:-0.309908 18:-0.280156 
1 1:-0.925963 2:0.558509 3:0.731626 4:-0.560787 5:0.975378 6:-0.983263 7:-0.115594 8:-0.389225 9:-0.855662 10:0.345807 11:0.237324 12:-0.570124 13:-0.764044 14:-0.723696 15:-0.975311 16:0.118625 17:-0.300708 18:-0.351076 
1 1:-0.938222 2:0.58032 3:0.709962 4:-0.457973 5:0.982603 6:-0.980627 7:0.0756182 8:-0.375495 9:-0.859064 10:0.346764 11:-0.00210605 12:-0.0793762 13:-0.846057 14:-0.72601 15:-0.979448 16:0.104638 17:-0.354355 18:-0.335345 
1 1:-0.998962 2:0.568755 3:0.756641 4:-0.521099 5:0.977361 6:-0.890386 7:-0.22791 8:-0.477236 9:-0.851981 10:0.288089 11:0.403966 12:-0.183639 13:-0.54229 14:-0.695055 15:-0.978136 16:0.146263 17:-0.29881 18:-0.269828 
1 1:-0.942828 2:0.580117 3:0.61936 4:-0.525236 5:0.982482 6:-0.867128 7:-0.227404 8:-0.455634 9:-0.865034 10:0.295593 11:0.28941 12:-0.125376 13:-0.588314 14:-0.703553 15:-0.976771 16:0.155523 17:-0.315248 18:-0.269303 
1 1:-1 2:0.524322 3:0.664931 4:-0.223012 5:0.742344 6:-0.602553 7:-0.122299 8:-0.6621 9:-0.782983 10:0.337094 11:0.196143 12:-0.0806545 13:-0.527127 14:-0.644848 15:-0.975029 16:-0.00791543 17:-0.357912 18:-0.7272 
1 1:-1 2:0.485366 3:0.663667 4:-0.157041 5:0.741402 6:-0.582525 7:-0.1503 8:-0.657292 9:-0.771397 10:0.33926 11:0.164044 12:-0.024311 13:-0.465747 14:-0.676069 15:-0.980559 16:-0.00253712 17:-0.34221 18:-0.606709 
1 1:-1 2:0.486077 3:0.664113 4:-0.15463 5:0.742184 6:-0.575008 7:-0.183901 8:-0.640187 9:-0.809536 10:0.351901 11:0.348337 12:-0.208907 13:-0.519457 14:-0.612591 15:-0.981961 16:-0.00534869 17:-0.330397 18:-0.725935 
1 1:-1 2:0.436875 3:0.66949 4:-0.446035 5:0.863702 6:-0.742497 7:0.0581684 8:-0.40337 9:-0.776336 10:0.370083 11:0.651791 12:0.126564 13:-0.427025 14:-0.50918 15:-0.962093 16:-0.0409395 17:-0.15737 18:-0.704013 
1 1:-1 2:0.436774 3:0.676966 4:-0.174091 5:0.864118 6:-0.711389 7:-0.00749814 8:-0.467239 9:-0.782372 10:0.23586 11:0.507852 12:0.124479 13:-0.44271 14:-0.581853 15:-0.969821 16:-0.239676 17:-0.235814 18:-0.900875 
1 1:-1 2:0.41121 3:0.711134 4:-0.351769 5:0.864326 6:-0.700609 7:-0.0623451 8:-0.48261 9:-0.777887 10:0.296147 11:0.636158 12:0.160385 13:-0.41741 14:-0.647128 15:-0.970531 16:-0.069762 17:-0.362986 18:-0.858483 
1 1:-1 2:0.484656 3:0.689079 4:-0.286019 5:0.860194 6:-0.696937 7:-0.0616583 8:-0.353655 9:-0.745809 10:0.415563 11:0.605011 12:0.206379 13:-0.388534 14:-0.621873 15:-0.957323 16:-0.0913977 17:-0.076813 18:-0.594652 
1 1:-1 2:0.485772 3:0.667401 4:-0.11385 5:0.861264 6:-0.623417 7:-0.0492905 8:-0.286897 9:-0.771615 10:0.40272 11:0.65446 12:0.0830366 13:-0.399138 14:-0.515191 15:-0.968669 16:-0.260779 17:-0.228047 18:-0.651988 
1 1:-1 2:0.483946 3:0.701962 4:-0.148595 5:0.863274 6:-0.683843 7:0.00927747 8:-0.291303 9:-0.722472 10:0.301335 11:0.569965 12:0.118465 13:-0.410742 14:-0.563956 15:-0.95931 16:-0.0211796 17:-0.0810891 18:-0.815504 
1 1:-1 2:0.450875 3:0.693183 4:-0.201543 5:0.864918 6:-0.712261 7:0.00739201 8:-0.442072 9:-0.782372 10:0.318962 11:0.502095 12:0.0495135 13:-0.454913 14:-0.601989 15:-0.966399 16:-0.254903 17:-0.222086 18:-0.80178 
1 1:-1 2:0.495511 3:0.694823 4:-0.0886057 5:0.861686 6:-0.602607 7:-0.0789334 8:-0.381248 9:-0.730841 10:0.233392 11:0.679302 12:0.302326 13:-0.435788 14:-0.548554 15:-0.959281 16:0.00552244 17:-0.218653 18:-0.818314 
1 1:-1 2:0.580015 3:0.678312 4:-0.0558277 5:0.778423 6:-0.66604 7:0.101578 8:-0.462258 9:-0.749244 10:0.398892 11:0.527235 12:0.0205705 13:-0.402168 14:-0.613613 15:-0.959854 16:-0.174434 17:0.0413378 18:-0.586764 
1 1:-1 2:0.415876 3:0.557065 4:-0.296027 5:0.799396 6:-0.467912 7:-0.107047 8:-0.927655 9:-0.853027 10:0.247243 11:0.85397 12:0.198068 13:-0.144907 14:-0.517539 15:-0.969537 16:-0.0115602 17:-0.399956 18:-0.831883 
1 1:-1 2:0.442252 3:0.670449 4:-0.236948 5:0.796598 6:-0.412695 7:-0.104075 8:-0.839937 9:-0.859978 10:0.228859 11:0.830384 12:0.220615 13:-0.251616 14:-0.608603 15:-0.968658 16:-0.0437155 17:-0.390769 18:-0.818545 
1 1:-1 2:0.391326 3:0.545241 4:-0.167377 5:0.800451 6:-0.464626 7:-0.151511 8:-0.845495 9:-0.858281 10:0.2276 11:0.903139 12:0.360235 13:-0.0299978 14:-0.540519 15:-0.968071 16:-0.00346905 17:-0.361121 18:-0.834014 
1 1:-1 2:0.555465 3:0.690303 4:-0.317378 5:0.895503 6:-0.812915 7:-0.0254038 8:-0.652312 9:-0.873331 10:0.367615 11:0.435111 12:0.0178677 13:-0.463939 14:-0.642065 15:-0.958586 16:0.151736 17:-0.383344 18:-0.288446 
1 1:-1 2:0.569465 3:0.69088 4:-0.223557 5:0.898384 6:-0.810337 7:-0.119689 8:-0.683101 9:-0.874317 10:0.316847 11:0.548422 12:-0.0530606 13:-0.442952 14:-0.672304 15:-0.970375 16:0.204934 17:-0.243329 18:-0.216213 
1 1:-1 2:0.554552 3:0.691336 4:-0.185757 5:0.897489 6:-0.813251 7:-0.160864 8:-0.696251 9:-0.877599 10:0.406094 11:0.511384 12:-0.0108065 13:-0.504483 14:-0.645915 15:-0.959224 16:0.160265 17:-0.219293 18:-0.00426852 
1 1:-1 2:0.489221 3:0.591704 4:-0.367328 5:0.898532 6:-0.770755 7:-0.0888477 8:-0.564456 9:-0.872017 10:0.279879 11:0.893057 12:0.255119 13:-0.36597 14:-0.60496 15:-0.953654 16:0.034341 17:-0.205323 18:-0.713445 
1 1:-1 2:0.576769 3:0.68999 4:-0.189572 5:0.895808 6:-0.811472 7:-0.0662159 8:-0.694677 9:-0.875037 10:0.395971 11:0.653576 12:0.0547775 13:-0.487319 14:-0.661489 15:-0.968623 16:0.160992 17:-0.203707 18:0.131012 
1 1:-1 2:0.53193 3:0.656492 4:-0.331621 5:0.89578 6:-0.679364 7:-0.196094 8:-0.544698 9:-0.850011 10:0.215966 11:0.643416 12:0.10998 13:-0.346445 14:-0.621856 15:-0.963365 16:0.16357 17:-0.163744 18:-0.34663 
1 1:-0.987989 2:0.545118 3:0.747815 4:-0.453489 5:0.884584 6:-0.813744 7:-0.19527 8:-0.562855 9:-0.889477 10:0.301536 11:0.55962 12:-0.213521 13:-0.452637 14:-0.778562 15:-0.967169 16:0.435463 17:-0.171322 18:-0.060014 
1 1:-1 2:0.511134 3:0.679707 4:-0.296403 5:0.898152 6:-0.635789 7:-0.192698 8:-0.522288 9:-0.85309 10:0.24684 11:0.638783 12:0.108654 13:-0.343809 14:-0.627971 15:-0.959994 16:-0.0112206 17:-0.153402 18:-0.406544 
1 1:-1 2:0.556987 3:0.689017 4:-0.177637 5:0.900492 6:-0.813459 7:-0.146698 8:-0.655004 9:-0.873541 10:0.436464 11:0.535619 12:-0.027127 13:-0.443991 14:-0.642595 15:-0.972076 16:0.150824 17:-0.181156 18:-0.143007 
1 1:-1 2:0.519757 3:0.581545 4:-0.271614 5:0.900156 6:-0.799158 7:-0.0287127 8:-0.709256 9:-0.852062 10:0.203878 11:0.400894 12:0.0870837 13:-0.207184 14:-0.615771 15:-0.969232 16:-0.0442684 17:-0.351219 18:-0.726969 
1 1:-1 2:0.443368 3:0.50661 4:-0.300841 5:0.898872 6:-0.754372 7:-0.0403626 8:-0.714466 9:-0.861534 10:0.447645 11:0.731123 12:0.0367872 13:-0.154261 14:-0.621452 15:-0.960884 16:-0.00985826 17:-0.389604 18:-0.431445 
1 1:-1 2:0.542075 3:0.650213 4:-0.342925 5:0.883613 6:-0.748284 7:-0.0925187 8:-0.708228 9:-0.827603 10:0.393301 11:0.590301 12:0.108843 13:-0.323299 14:-0.669774 15:-0.973366 16:0.113495 17:-0.347828 18:-0.426659 
1 1:-1 2:0.57261 3:0.690523 4:-0.195703 5:0.897061 6:-0.814767 7:-0.117036 8:-0.651124 9:-0.871347 10:0.443818 11:0.511369 12:-0.0515559 13:-0.412189 14:-0.671083 15:-0.963686 16:0.109941 17:-0.329021 18:-0.372072 
1 1:-1 2:0.574537 3:0.68956 4:-0.272234 5:0.897164 6:-0.811479 7:-0.187472 8:-0.661422 9:-0.868379 10:0.424477 11:0.418876 12:-0.0173205 13:-0.435018 14:-0.65588 15:-0.971455 16:0.111849 17:-0.220248 18:0.134084 
1 1:-1 2:0.545727 3:0.691194 4:-0.28069 5:0.899187 6:-0.812013 7:-0.102783 8:-0.580313 9:-0.874502 10:0.310098 11:0.621539 12:0.0691594 13:-0.439222 14:-0.672554 15:-0.968241 16:0.110289 17:-0.173602 18:-0.179054 
1 1:-0.890546 2:0.589855 3:0.689723 4:-0.248207 5:0.633282 6:-0.648344 7:-0.140261 8:-0.251947 9:-0.813255 10:0.565601 11:-0.196434 12:-0.519441 13:-0.746814 14:-0.648673 15:-0.982504 16:-0.0871527 17:-0.325656 18:-0.721627 
1 1:-0.988498 2:0.626477 3:0.691876 4:-0.278182 5:0.630318 6:-0.645749 7:-0.105655 8:-0.294217 9:-0.773431 10:0.379451 11:0.509579 12:-0.556874 13:-0.699251 14:-0.781834 15:-0.984843 16:-0.031407 17:-0.322392 18:-0.730658 
1 1:-0.392315 2:0.682881 3:0.753939 4:-0.295942 5:0.616276 6:-0.637957 7:-0.460109 8:-0.209652 9:-0.870739 10:0.545757 11:0.247269 12:-0.443881 13:-0.475508 14:-0.748169 15:-0.9857 16:-0.0705557 17:-0.42396 18:-0.575664 
1 1:-1 2:0.370327 3:0.576753 4:0.0116723 5:0.739731 6:-0.469593 7:0.157967 8:-0.796681 9:-0.777903 10:0.366406 11:0.963529 12:0.669618 13:0.0846184 14:-0.222541 15:-0.941066 16:-0.372215 17:-0.03723 18:-0.880821 
1 1:-1 2:0.384225 3:0.688183 4:-0.0505824 5:0.766933 6:-0.638439 7:0.274541 8:-0.447547 9:-0.770777 10:0.324352 11:0.538631 12:0.498804 13:-0.382481 14:-0.410567 15:-0.958643 16:-0.208271 17:-0.088852 18:-0.882735 
1 1:-1 2:0.416688 3:0.688054 4:-0.049859 5:0.766437 6:-0.580674 7:0.316708 8:-0.445074 9:-0.749304 10:0.345102 11:0.622664 12:0.389136 13:-0.278447 14:-0.405735 15:-0.958239 16:-0.209045 17:-0.125222 18:-0.831652 
1 1:-1 2:0.401572 3:0.679592 4:-0.0312181 5:0.795225 6:-0.607068 7:0.203212 8:-0.438254 9:-0.755273 10:0.36278 11:0.547015 12:0.282765 13:-0.385759 14:-0.466996 15:-0.950553 16:-0.20341 17:-0.10146 18:-0.732233 
1 1:-1 2:0.504438 3:0.638054 4:-0.0961975 5:0.781617 6:-0.682284 7:-0.0540915 8:-0.463876 9:-0.782109 10:0.397734 11:0.52603 12:0.151319 13:-0.400541 14:-0.628042 15:-0.9574 16:-0.0546025 17:-0.0800735 18:-0.596381 
1 1:-1 2:0.405427 3:0.688784 4:-0.0441326 5:0.771158 6:-0.548325 7:0.243893 8:-0.445592 9:-0.761223 10:0.360715 11:0.681351 12:0.493918 13:-0.414832 14:-0.398828 15:-0.95972 16:-0.189949 17:-0.113727 18:-0.754093 
1 1:-1 2:0.408065 3:0.637169 4:-0.235326 5:0.764268 6:-0.654388 7:0.213319 8:-0.517865 9:-0.750251 10:0.352103 11:0.615858 12:0.31683 13:-0.294114 14:-0.461093 15:-0.952331 16:-0.221215 17:-0.153327 18:-0.82966 
1 1:-0.998392 2:0.575957 3:0.665584 4:-0.362906 5:0.773471 6:-0.68345 7:-0.00265338 8:-0.53493 9:-0.796197 10:0.339058 11:0.724581 12:0.143083 13:-0.326697 14:-0.601642 15:-0.957013 16:-0.185479 17:-0.182304 18:-0.825662 
1 1:-1 2:0.403906 3:0.599459 4:-0.342178 5:0.806719 6:-0.569375 7:-0.228428 8:-0.650455 9:-0.848293 10:0.267993 11:0.914871 12:0.236836 13:-0.233899 14:-0.560425 15:-0.966355 16:-0.032797 17:-0.213293 18:-0.88167 
1 1:-1 2:0.47228 3:0.669299 4:-0.350853 5:0.805831 6:-0.540326 7:-0.105436 8:-0.754141 9:-0.841507 10:0.273936 11:0.797361 12:0.197346 13:-0.277105 14:-0.59206 15:-0.959279 16:-0.0323626 17:-0.219198 18:-0.28843 
1 1:-1 2:0.477454 3:0.670428 4:-0.348519 5:0.802901 6:-0.540815 7:-0.189264 8:-0.77344 9:-0.863906 10:0.250718 11:0.820644 12:0.188464 13:-0.300466 14:-0.593706 15:-0.962405 16:-0.0207412 17:-0.137818 18:-0.503045 
1 1:-0.991558 2:0.483236 3:0.708096 4:-0.113304 5:0.764352 6:-0.507106 7:0.286328 8:-0.415376 9:-0.782415 10:0.519516 11:0.188499 12:0.107852 13:-0.526992 14:-0.717109 15:-0.960128 16:-0.0826708 17:-0.145938 18:-0.815273 
1 1:-0.983505 2:0.434542 3:0.718248 4:-0.168114 5:0.763126 6:-0.488665 7:0.218539 8:-0.428505 9:-0.799755 10:0.456661 11:0.439154 12:0.413197 13:-0.274453 14:-0.448124 15:-0.975 16:-0.177581 17:-0.153557 18:-0.828117 
1 1:-1 2:0.381486 3:0.698263 4:-0.083875 5:0.763773 6:-0.55807 7:-0.13212 8:-0.401251 9:-0.786128 10:0.276605 11:0.856642 12:0.404183 13:-0.263231 14:-0.408501 15:-0.951149 16:-0.149359 17:-0.05341 18:-0.869443 
1 1:-1 2:0.382602 3:0.662716 4:-0.126716 5:0.764309 6:-0.610691 7:0.231543 8:-0.329566 9:-0.788383 10:0.275044 11:0.856815 12:0.439942 13:-0.23584 14:-0.408325 15:-0.93558 16:-0.220667 17:0.0524132 18:-0.814609 
1 1:-0.964202 2:0.495714 3:0.735489 4:-0.0552126 5:0.762211 6:-0.501145 7:0.290367 8:-0.389851 9:-0.788555 10:0.382725 11:0.463775 12:-0.194309 13:-0.494568 14:-0.456986 15:-0.970716 16:-0.206984 17:-0.104787 18:-0.737374 
1 1:-1 2:0.407558 3:0.704744 4:-0.128122 5:0.763101 6:-0.575759 7:-0.118472 8:-0.422936 9:-0.805849 10:0.269756 11:0.857408 12:0.455272 13:-0.208418 14:-0.420611 15:-0.937656 16:-0.0930996 17:0.0824036 18:-0.828472 
1 1:-0.958301 2:0.559219 3:0.731685 4:-0.0553227 5:0.764447 6:-0.475252 7:0.199397 8:-0.441041 9:-0.796678 10:0.334475 11:0.561901 12:0.225157 13:-0.55779 14:-0.408124 15:-0.979507 16:-0.0804515 17:-0.105931 18:-0.75576 
1 1:-1 2:0.412021 3:0.584429 4:-0.0759536 5:0.736541 6:-0.551878 7:0.0254163 8:-0.713384 9:-0.789372 10:0.315235 11:0.364903 12:-0.221487 13:-0.234504 14:-0.7054 15:-0.981406 16:-0.0914372 17:-0.279243 18:-0.676071 
1 1:-1 2:0.462338 3:0.646269 4:-0.0950591 5:0.487664 6:0.0374726 7:-0.127406 8:-0.483157 9:-0.612788 10:0.408864 11:0.913199 12:0.517507 13:0.000250319 14:-0.398302 15:-0.957248 16:-0.280065 17:-0.254774 18:-0.874414 
1 1:-1 2:0.437281 3:0.623027 4:-0.132517 5:0.487524 6:-0.0803898 7:-0.157218 8:-0.48247 9:-0.683609 10:0.383682 11:0.911117 12:0.511361 13:-0.0216735 14:-0.401108 15:-0.954079 16:-0.254267 17:-0.304222 18:-0.890747 
1 1:-0.999752 2:0.497743 3:0.552301 4:-0.24525 5:0.940932 6:-0.797191 7:0.0607094 8:-0.423346 9:-0.844769 10:0.36827 11:0.711847 12:0.308651 13:-0.391688 14:-0.538609 15:-0.962643 16:-0.154417 17:-0.111563 18:-0.670297 
1 1:-0.375008 2:0.599188 3:0.849525 4:-0.634091 5:0.967601 6:-0.891288 7:0.0947538 8:-0.393537 9:-0.865426 10:0.340519 11:-0.187688 12:-0.504224 13:-0.664483 14:-0.812036 15:-0.985573 16:0.141639 17:-0.348202 18:-0.289372 
1 1:-0.281381 2:0.59442 3:0.838976 4:-0.636704 5:0.96679 6:-0.856426 7:0.0483914 8:-0.412523 9:-0.86617 10:0.323193 11:0.0694798 12:-0.424985 13:-0.869607 14:-0.869007 15:-0.979358 16:0.152052 17:-0.361511 18:-0.290931 
1 1:-0.935532 2:0.489424 3:0.692114 4:-0.413296 5:0.998024 6:-0.879136 7:-0.128986 8:-0.437331 9:-0.868401 10:0.270964 11:0.103712 12:-0.313519 13:-0.680605 14:-0.769026 15:-0.973662 16:0.067215 17:-0.249425 18:-0.365233 
1 1:-0.427754 2:0.596551 3:0.787637 4:-0.615665 5:0.968203 6:-0.857939 7:0.0104887 8:-0.341437 9:-0.866214 10:0.347368 11:-0.0873173 12:-0.51545 13:-0.640981 14:-0.782271 15:-0.985744 16:0.155937 17:-0.330628 18:-0.33567 
1 1:-0.865727 2:0.58945 3:0.871809 4:-0.629928 5:0.967386 6:-0.870649 7:-0.18942 8:-0.350849 9:-0.865581 10:0.340619 11:-0.401512 12:-0.67599 13:-0.694248 14:-0.819532 15:-0.985424 16:0.141204 17:-0.331081 18:-0.302818 
1 1:-0.495661 2:0.640274 3:0.808447 4:-0.684391 5:0.972148 6:-0.900551 7:-0.283331 8:-0.373188 9:-0.851952 10:0.451624 11:0.029966 12:-0.404919 13:-0.810546 14:-0.830593 15:-0.989763 16:0.121906 17:-0.386493 18:-0.308376 
1 1:-0.955881 2:0.45686 3:0.725089 4:-0.566723 5:0.991256 6:-0.862215 7:-0.178351 8:-0.435698 9:-0.872272 10:0.258524 11:0.178474 12:-0.291892 13:-0.647235 14:-0.76954 15:-0.976838 16:0.082651 17:-0.310832 18:-0.52807 
1 1:-0.82993 2:0.603652 3:0.841977 4:-0.669255 5:0.972008 6:-0.919296 7:-0.300113 8:-0.276273 9:-0.849802 10:0.400151 11:-0.230791 12:-0.276435 13:-0.753237 14:-0.850279 15:-0.991621 16:0.0991413 17:-0.361582 18:-0.387015 
1 1:-0.954049 2:0.583667 3:0.75728 4:-0.604668 5:0.987388 6:-0.923201 7:-0.215692 8:-0.446775 9:-0.85795 10:0.290758 11:0.362642 12:-0.113248 13:-0.578115 14:-0.716661 15:-0.977595 16:0.159973 17:-0.311727 18:-0.275154 
1 1:-0.272449 2:0.598377 3:0.782901 4:-0.661992 5:0.968025 6:-0.868246 7:0.0166507 8:-0.427233 9:-0.8663 10:0.355225 11:0.0903914 12:-0.304241 13:-0.696763 14:-0.875086 15:-0.980495 16:0.16271 17:-0.383619 18:-0.294389 
1 1:-0.996174 2:0.464874 3:0.704527 4:-0.330677 5:0.776612 6:-0.752311 7:0.183333 8:-0.496371 9:-0.822707 10:0.385142 11:0.52968 12:0.140432 13:-0.473067 14:-0.598759 15:-0.9611 16:0.0961679 17:-0.22387 18:-0.316203 
1 1:-0.994154 2:0.594928 3:0.697058 4:-0.121962 5:0.77618 6:-0.676348 7:0.0562954 8:-0.455382 9:-0.809898 10:0.376681 11:0.531829 12:-0.0533436 13:-0.436999 14:-0.683406 15:-0.964516 16:-0.135925 17:-0.173033 18:-0.550856 
1 1:-0.96406 2:0.675881 3:0.719006 4:-0.574907 5:0.783709 6:-0.781053 7:-0.176135 8:-0.57843 9:-0.829533 10:0.417023 11:0.470275 12:-0.315052 13:-0.576444 14:-0.774558 15:-0.966059 16:0.266493 17:-0.526344 18:-0.0943166 
1 1:-0.980816 2:0.582348 3:0.677974 4:-0.244103 5:0.631648 6:-0.634903 7:0.0119621 8:-0.245717 9:-0.793249 10:0.535835 11:0.112543 12:-0.439734 13:-0.545829 14:-0.7745 15:-0.979583 16:-0.000278393 17:-0.324055 18:-0.713198 
1 1:-0.977693 2:0.584276 3:0.767605 4:-0.296002 5:0.650956 6:-0.611203 7:-0.23032 8:-0.366549 9:-0.832337 10:0.38066 11:0.0189278 12:-0.159168 13:-0.682947 14:-0.721786 15:-0.969434 16:-0.0220167 17:-0.290864 18:-0.733715 
1 1:-0.767682 2:0.680243 3:0.787651 4:-0.442417 5:0.621974 6:-0.657553 7:-0.0511572 8:-0.336459 9:-0.907881 10:0.593402 11:-0.280814 12:-0.569082 13:-0.805074 14:-0.857377 15:-0.990814 16:0.249375 17:-0.363715 18:-0.390674 
1 1:-0.791098 2:0.723561 3:0.791171 4:-0.386762 5:0.636838 6:-0.66362 7:-0.000599352 8:-0.229407 9:-0.884603 10:0.615462 11:-0.296687 12:-0.559129 13:-0.807191 14:-0.855193 15:-0.991093 16:0.220141 17:-0.568768 18:-0.513188 
1 1:-0.870013 2:0.605884 3:0.753488 4:-0.503569 5:0.610114 6:-0.670882 7:-0.458248 8:-0.36174 9:-0.836194 10:0.297054 11:0.236742 12:-0.13871 13:-0.727367 14:-0.750172 15:-0.981984 16:0.350058 17:-0.353985 18:-0.571789 
1 1:-0.932827 2:0.601522 3:0.730142 4:-0.353135 5:0.649079 6:-0.593933 7:-0.0391327 8:-0.507471 9:-0.826673 10:0.403374 11:0.318832 12:-0.167281 13:-0.31862 14:-0.588288 15:-0.978623 16:-0.0424401 17:-0.208224 18:-0.771939 
1 1:-0.791675 2:0.726503 3:0.810668 4:-0.376495 5:0.630988 6:-0.656989 7:-0.452136 8:-0.315801 9:-0.884514 10:0.599446 11:-0.331133 12:-0.566657 13:-0.80535 14:-0.85306 15:-0.988986 16:0.172811 17:-0.592252 18:-0.424359 
1 1:-0.967617 2:0.667766 3:0.691294 4:-0.512953 5:0.634304 6:-0.672443 7:-0.413153 8:-0.363239 9:-0.85865 10:0.295039 11:-0.0868217 12:-0.394726 13:-0.782461 14:-0.730184 15:-0.977689 16:0.043601 17:-0.347263 18:-0.407933 
1 1:-0.997366 2:0.633071 3:0.755924 4:-0.452708 5:0.615761 6:-0.660131 7:-0.105417 8:-0.44863 9:-0.839664 10:0.380962 11:0.631428 12:-0.307477 13:-0.624202 14:-0.73253 15:-0.984214 16:0.122313 17:-0.344384 18:-0.430087 
1 1:-0.944834 2:0.630535 3:0.732772 4:-0.288168 5:0.623924 6:-0.641297 7:-0.0744695 8:-0.28476 9:-0.804943 10:0.490305 11:0.442557 12:-0.419008 13:-0.511893 14:-0.722274 15:-0.985432 16:-0.0683997 17:-0.323158 18:-0.714866 
1 1:-1 2:0.443267 3:0.5909 4:-0.209501 5:0.807031 6:-0.664256 7:-0.11934 8:-0.444266 9:-0.849226 10:0.292773 11:0.726117 12:0.200313 13:-0.227258 14:-0.566039 15:-0.971864 16:-0.117934 17:-0.405121 18:-0.636195 
1 1:-1 2:0.390515 3:0.599172 4:-0.0252338 5:0.75927 6:-0.556875 7:0.265912 8:-0.770692 9:-0.797381 10:0.312868 11:0.690373 12:0.142635 13:-0.0956421 14:-0.473422 15:-0.954761 16:-0.139621 17:-0.0289604 18:-0.767987 
1 1:-1 2:0.426325 3:0.625819 4:-0.0701819 5:0.746786 6:-0.512459 7:0.220924 8:-0.766733 9:-0.786852 10:0.323445 11:0.496347 12:0.525724 13:-0.0903868 14:-0.486641 15:-0.948895 16:-0.187153 17:-0.0420709 18:-0.774193 
1 1:-1 2:0.437383 3:0.580885 4:-0.0301094 5:0.751984 6:-0.489254 7:0.205209 8:-0.804304 9:-0.776246 10:0.33926 11:0.673516 12:0.322708 13:-0.1353 14:-0.413295 15:-0.950733 16:-0.213614 17:-0.156725 18:-0.882921 
1 1:-1 2:0.407253 3:0.643189 4:-0.0700471 5:0.748921 6:-0.466226 7:0.184756 8:-0.771858 9:-0.765605 10:0.322186 11:0.574806 12:0.483691 13:-0.247859 14:-0.573167 15:-0.952869 16:-0.217926 17:-0.151387 18:-0.770241 
1 1:-1 2:0.450672 3:0.631556 4:-0.0722055 5:0.752245 6:-0.483405 7:0.132294 8:-0.786306 9:-0.775626 10:0.322035 11:0.899941 12:0.197544 13:-0.270416 14:-0.55422 15:-0.947107 16:-0.307099 17:-0.141766 18:-0.775505 
1 1:-1 2:0.387167 3:0.590722 4:-0.0638057 5:0.757496 6:-0.532294 7:0.262254 8:-0.825868 9:-0.802896 10:0.295996 11:0.734453 12:0.376617 13:-0.0564256 14:-0.484039 15:-0.953638 16:-0.143127 17:-0.110267 18:-0.76882 
1 1:-1 2:0.413644 3:0.640682 4:-0.166092 5:0.74953 6:-0.417297 7:0.0641182 8:-0.802871 9:-0.801078 10:0.359406 11:0.506325 12:0.00428768 13:-0.257562 14:-0.524312 15:-0.95218 16:-0.194762 17:-0.0976512 18:-0.780013 
1 1:-1 2:0.256505 3:0.519261 4:-0.127088 5:0.763156 6:-0.221404 7:-0.0837594 8:-0.931489 9:-0.833343 10:0.265374 11:0.815025 12:0.450715 13:0.147645 14:-0.500205 15:-0.970636 16:-0.158816 17:-0.388879 18:-0.8568 
1 1:-1 2:0.448339 3:0.567691 4:0.0415212 5:0.763229 6:-0.237081 7:0.044352 8:-0.8905 9:-0.816425 10:0.145857 11:0.820162 12:0.385839 13:-0.0676165 14:-0.488003 15:-0.972168 16:-0.0387045 17:-0.3855 18:-0.905151 
1 1:-1 2:0.357545 3:0.667745 4:-0.323135 5:0.748013 6:-0.252184 7:-0.0139412 8:-1 9:-0.840618 10:0.0222614 11:0.820549 12:0.28667 13:0.0398626 14:-0.551846 15:-0.959796 16:-0.0624093 17:-0.195903 18:-0.72277 
1 1:-0.972021 2:0.496525 3:0.695086 4:-0.615094 5:0.971649 6:-0.946426 7:-0.221273 8:-0.551346 9:-0.857856 10:0.271519 11:0.384372 12:-0.224247 13:-0.503481 14:-0.718892 15:-0.978037 16:0.164558 17:-0.311875 18:-0.3847 
1 1:-0.205071 2:0.773066 3:0.888852 4:-0.42776 5:0.822674 6:-0.758131 7:-0.0491781 8:-0.352884 9:-0.84422 10:0.614606 11:-0.495134 12:-0.639798 13:-0.860542 14:-0.88829 15:-0.99076 16:0.192997 17:-0.349034 18:0.0750195 
1 1:-0.176198 2:0.686432 3:0.881413 4:-0.309176 5:0.822631 6:-0.769343 7:-0.106173 8:-0.172235 9:-0.839807 10:0.715387 11:-0.456578 12:-0.683821 13:-0.865578 14:-0.871449 15:-0.99085 16:0.138298 17:-0.346636 18:0.05705 
1 1:-0.983602 2:0.652042 3:0.86118 4:-0.58599 5:0.849201 6:-0.686392 7:-0.131183 8:-0.117071 9:-0.88379 10:0.438781 11:-0.0101924 12:-0.643868 13:-0.851346 14:-0.854282 15:-0.989488 16:0.14569 17:-0.439793 18:-0.714588 
1 1:-0.830724 2:0.664317 3:0.884673 4:-0.610303 5:0.857072 6:-0.672667 7:-0.198385 8:-0.13588 9:-0.876143 10:0.383329 11:-0.333167 12:-0.230917 13:-0.508268 14:-0.778552 15:-0.985445 16:0.278323 17:-0.397012 18:-0.714758 
1 1:-0.143154 2:0.685924 3:0.883063 4:-0.585001 5:0.822122 6:-0.788979 7:0.0538293 8:-0.38578 9:-0.86278 10:0.685772 11:-0.493269 12:-0.685283 13:-0.865986 14:-0.892575 15:-0.990669 16:0.20465 17:-0.365572 18:0.0119719 
1 1:-0.678868 2:0.461222 3:0.787422 4:-0.487956 5:0.819539 6:-0.743456 7:-0.129285 8:-0.1474 9:-0.862813 10:0.195467 11:0.303651 12:-0.46738 13:-0.419521 14:-0.519813 15:-0.973328 16:-0.18756 17:-0.199082 18:-0.560952 
1 1:-0.237068 2:0.710068 3:0.89207 4:-0.569467 5:0.821535 6:-0.726805 7:-0.112822 8:-0.0979138 9:-0.856854 10:0.705162 11:-0.470515 12:-0.672689 13:-0.868652 14:-0.893697 15:-0.990695 16:0.177676 17:-0.349713 18:-0.15738 
1 1:-0.432772 2:0.662795 3:0.79488 4:-0.539686 5:0.857708 6:-0.729339 7:-0.189726 8:-0.136923 9:-0.886705 10:0.44417 11:0.21721 12:-0.59968 13:-0.714652 14:-0.768301 15:-0.982871 16:0.177064 17:-0.51455 18:-0.726861 
1 1:-0.250453 2:0.727416 3:0.888077 4:-0.610957 5:0.821617 6:-0.795574 7:0.0694936 8:-0.205845 9:-0.849036 10:0.535583 11:-0.489544 12:-0.635043 13:-0.856144 14:-0.896998 15:-0.990722 16:0.167049 17:-0.365094 18:-0.0799596 
1 1:-0.668924 2:0.661375 3:0.746281 4:-0.54576 5:0.825544 6:-0.773975 7:-0.189689 8:-0.128442 9:-0.881088 10:0.46764 11:0.363429 12:-0.50421 13:-0.856524 14:-0.83194 15:-0.982439 16:0.264001 17:-0.409719 18:-0.952421 
1 1:-1 2:0.491555 3:0.633097 4:-0.370482 5:0.873442 6:-0.733565 7:-0.306206 8:-0.750434 9:-0.840063 10:0.412239 11:0.623958 12:0.0433956 13:-0.35553 14:-0.642109 15:-0.974319 16:0.112654 17:-0.456779 18:-0.550393 
1 1:-1 2:0.533857 3:0.603245 4:-0.195648 5:0.874258 6:-0.662898 7:-0.022869 8:-0.712823 9:-0.888672 10:0.299421 11:0.870927 12:0.438532 13:-0.305697 14:-0.61914 15:-0.942199 16:0.00668735 17:-0.481536 18:-0.787269 
1 1:-1 2:0.411616 3:0.653909 4:-0.338037 5:0.863879 6:-0.706289 7:-0.216678 8:-0.663713 9:-0.866287 10:0.339763 11:0.668264 12:0.055452 13:-0.347925 14:-0.640034 15:-0.974231 16:0.0463731 17:-0.509412 18:-0.603807 
1 1:-1 2:0.517119 3:0.703525 4:-0.28306 5:0.861783 6:-0.701335 7:-0.232661 8:-0.737522 9:-0.875217 10:0.463158 11:0.855083 12:0.19536 13:-0.463497 14:-0.629266 15:-0.970129 16:0.00776933 17:-0.451759 18:-0.638063 
1 1:-1 2:0.486077 3:0.703339 4:-0.269974 5:0.862429 6:-0.704655 7:-0.38813 8:-0.881222 9:-0.841082 10:0.370285 11:0.797212 12:0.302349 13:-0.417723 14:-0.526151 15:-0.968973 16:-0.0682101 17:-0.516408 18:-0.661698 
1 1:-1 2:0.471468 3:0.700342 4:-0.283922 5:0.87754 6:-0.700731 7:0.00680514 8:-0.705477 9:-0.861616 10:0.376278 11:0.822985 12:0.269067 13:-0.412589 14:-0.478867 15:-0.971319 16:-0.0484304 17:0.00519397 18:-0.8568 
1 1:-1 2:0.537814 3:0.632575 4:-0.201867 5:0.869274 6:-0.660354 7:-0.300843 8:-0.721416 9:-0.877795 10:0.269454 11:0.77159 12:0.00405183 13:-0.277349 14:-0.649378 15:-0.950845 16:-0.154962 17:-0.0171416 18:-0.693129 
1 1:-1 2:0.421557 3:0.636905 4:-0.168479 5:0.869204 6:-0.693507 7:-0.243343 8:-0.707129 9:-0.852321 10:0.460086 11:0.78578 12:0.10297 13:-0.433009 14:-0.519988 15:-0.960732 16:-0.0155841 17:-0.0582115 18:-0.918751 
1 1:-1 2:0.513061 3:0.646264 4:-0.398787 5:0.868463 6:-0.711887 7:-0.32837 8:-0.722481 9:-0.831556 10:0.386452 11:0.701607 12:0.119428 13:-0.325697 14:-0.649347 15:-0.978324 16:0.13521 17:-0.346125 18:-0.525106 
1 1:-1 2:0.504844 3:0.642871 4:-0.225824 5:0.85903 6:-0.547947 7:0.0676893 8:-0.777028 9:-0.800135 10:0.399496 11:0.902766 12:0.374537 13:0.122568 14:-0.476423 15:-0.959314 16:0.219995 17:-0.300503 18:-0.705418 
1 1:-1 2:0.472483 3:0.582746 4:-0.358005 5:0.883508 6:-0.44582 7:-0.0586241 8:-0.790774 9:-0.808605 10:0.327021 11:0.821618 12:0.254624 13:-0.0118795 14:-0.490006 15:-0.97129 16:0.190367 17:-0.345597 18:-0.502165 
1 1:-1 2:0.511945 3:0.662664 4:-0.126558 5:0.862631 6:-0.538203 7:0.233941 8:-0.851295 9:-0.830584 10:0.438731 11:0.948337 12:0.360302 13:0.120493 14:-0.531014 15:-0.959797 16:0.0837211 17:-0.26694 18:-0.635485 
1 1:-1 2:0.542582 3:0.644035 4:-0.246987 5:0.880007 6:-0.552504 7:0.119683 8:-0.882514 9:-0.812952 10:0.196978 11:0.941664 12:0.425183 13:0.118073 14:-0.503717 15:-0.957146 16:0.214945 17:-0.354384 18:-0.613733 
1 1:-1 2:0.460817 3:0.595017 4:-0.127312 5:0.882799 6:-0.415723 7:0.190244 8:-0.676042 9:-0.828129 10:0.418887 11:0.962753 12:0.426249 13:-0.0224961 14:-0.482562 15:-0.953992 16:0.00933701 17:-0.276834 18:-0.0692921 
1 1:-1 2:0.366168 3:0.574297 4:0.0075678 5:0.887244 6:-0.418079 7:0.180161 8:-0.63949 9:-0.790949 10:0.421002 11:0.9334 12:0.503663 13:-0.0664378 14:-0.389811 15:-0.960321 16:0.18613 17:-0.310859 18:-0.732573 
1 1:-1 2:0.480903 3:0.58799 4:-0.314076 5:0.85813 6:-0.547117 7:0.230201 8:-0.840409 9:-0.818629 10:0.288693 11:0.938372 12:0.277543 13:0.0233999 14:-0.548346 15:-0.957717 16:0.104318 17:-0.291001 18:-0.671779 
1 1:-1 2:0.458991 3:0.583495 4:-0.145193 5:0.879066 6:-0.638694 7:0.236725 8:-0.848916 9:-0.814351 10:0.349282 11:0.974974 12:0.45764 13:-0.103839 14:-0.470263 15:-0.952988 16:-0.0319204 17:-0.357385 18:-0.539401 
1 1:-1 2:0.486482 3:0.584776 4:-0.132244 5:0.88281 6:-0.580157 7:0.0390016 8:-0.822312 9:-0.797845 10:0.422513 11:0.826548 12:0.392631 13:-0.165425 14:-0.634988 15:-0.965783 16:0.220872 17:-0.347414 18:-0.5189 
1 1:-1 2:0.522597 3:0.653726 4:-0.314852 5:0.877123 6:-0.557819 7:0.0407871 8:-0.788195 9:-0.816388 10:0.236213 11:0.967575 12:0.43331 13:0.255367 14:-0.509283 15:-0.958404 16:0.116966 17:-0.356025 18:-0.638295 
1 1:-1 2:0.490946 3:0.574147 4:-0.116071 5:0.865013 6:-0.396002 7:0.259263 8:-0.740517 9:-0.801156 10:0.303954 11:0.98741 12:0.468045 13:0.189327 14:-0.438618 15:-0.939734 16:0.0570073 17:-0.0450033 18:-0.683697 
1 1:-1 2:0.54177 3:0.591685 4:-0.12699 5:0.873379 6:-0.48481 7:0.206102 8:-0.712535 9:-0.829179 10:0.313976 11:0.930168 12:0.414673 13:-0.0908353 14:-0.474127 15:-0.954129 16:0.209333 17:-0.294694 18:-0.505947 
1 1:-1 2:0.480193 3:0.671247 4:-0.353938 5:0.811519 6:-0.53968 7:-0.24079 8:-0.722299 9:-0.829191 10:0.2138 11:0.76604 12:0.203134 13:-0.281958 14:-0.594854 15:-0.969142 16:-0.000621941 17:-0.186536 18:-0.642092 
1 1:-1 2:0.414253 3:0.660065 4:-0.350975 5:0.797103 6:-0.559995 7:-0.17837 8:-0.681433 9:-0.866344 10:0.0988668 11:0.860318 12:0.210521 13:-0.115234 14:-0.572384 15:-0.967933 16:0.0214797 17:-0.483733 18:-0.813343 
1 1:-1 2:0.394674 3:0.666702 4:-0.358119 5:0.802473 6:-0.557484 7:-0.102358 8:-0.722288 9:-0.867106 10:0.120927 11:0.882759 12:0.203214 13:-0.113279 14:-0.568729 15:-0.968986 16:0.0180165 17:-0.429743 18:-0.816986 
1 1:-1 2:0.47999 3:0.670661 4:-0.347197 5:0.804219 6:-0.540926 7:-0.107053 8:-0.751385 9:-0.814605 10:0.269151 11:0.789057 12:0.186776 13:-0.304567 14:-0.605268 15:-0.965234 16:-0.0279557 17:-0.275258 18:-0.691879 
1 1:-1 2:0.263911 3:0.702463 4:-0.116827 5:0.764246 6:-0.454415 7:0.310333 8:-0.494229 9:-0.77881 10:0.192949 11:0.873254 12:0.499087 13:-0.13707 14:-0.380236 15:-0.933575 16:-0.238239 17:0.312899 18:-0.880281 
1 1:-1 2:0.361704 3:0.574177 4:-0.159907 5:0.648291 6:0.127992 7:-0.110843 8:-0.624053 9:-0.707997 10:0.127373 11:0.868969 12:0.342358 13:0.0481653 14:-0.405261 15:-0.96579 16:-0.48125 17:-0.238462 18:-0.975084 
1 1:-1 2:0.326706 3:0.597805 4:-0.204191 5:0.640906 6:0.156385 7:-0.0618269 8:-0.614641 9:-0.650405 10:0.106119 11:0.879407 12:0.391777 13:0.10902 14:-0.472385 15:-0.958489 16:-0.2514 17:0.0399277 18:-0.950677 
1 1:-1 2:0.277099 3:0.581933 4:-0.238433 5:0.647198 6:0.136716 7:-0.110868 8:-0.629714 9:-0.706886 10:0.199043 11:0.938639 12:0.409848 13:0.0957867 14:-0.466665 15:-0.962494 16:-0.377234 17:-0.299811 18:-0.956975 
1 1:-1 2:0.303373 3:0.551378 4:-0.209441 5:0.724998 6:0.138518 7:-0.102396 8:-0.799137 9:-0.763951 10:0.134576 11:0.993772 12:0.406475 13:0.0858374 14:-0.52097 15:-0.963596 16:-0.0521502 17:-0.00828834 18:-0.767261 
1 1:-1 2:0.306011 3:0.584442 4:-0.187219 5:0.722666 6:0.144613 7:-0.047817 8:-0.790402 9:-0.775684 10:0.0862251 11:0.99094 12:0.429574 13:0.27142 14:-0.505679 15:-0.950648 16:-0.0517159 17:-0.28527 18:-0.622826 
0.3889280294039157 1:-1 2:0.266041 3:0.537788 4:-0.172429 5:0.723479 6:0.0145372 7:0.0640745 8:-0.721606 9:-0.751362 10:0.122035 11:0.963314 12:0.429937 13:0.176469 14:-0.501764 15:-0.943142 16:-0.148837 17:-0.0156837 18:-0.795188 
1 1:-1 2:0.366777 3:0.540415 4:-0.179792 5:0.722198 6:0.144669 7:0.00345876 8:-0.82516 9:-0.769821 10:0.0736338 11:0.991278 12:0.407315 13:0.0917986 14:-0.497694 15:-0.960088 16:-0.0649089 17:-0.00688237 18:-0.714156 
1 1:-1 2:0.381791 3:0.513575 4:-0.159012 5:0.722292 6:0.132266 7:0.0751188 8:-0.585154 9:-0.730013 10:0.139713 11:0.990164 12:0.554039 13:0.0651094 14:-0.457698 15:-0.938321 16:-0.145046 17:0.165013 18:-0.732449 
1 1:-1 2:0.37895 3:0.660544 4:-0.222616 5:0.726274 6:0.13865 7:-0.0199097 8:-0.841195 9:-0.781933 10:0.136691 11:0.995363 12:0.401306 13:0.274532 14:-0.49019 15:-0.948505 16:-0.0601308 17:-0.326749 18:-0.807075 
1 1:-1 2:0.345169 3:0.475008 4:-0.141136 5:0.724768 6:0.0285793 7:0.0393075 8:-0.68534 9:-0.757591 10:0.144347 11:0.964365 12:0.516318 13:0.299266 14:-0.411592 15:-0.942065 16:-0.390976 17:0.126751 18:-0.890084 
1 1:-1 2:0.263201 3:0.545775 4:-0.160619 5:0.722348 6:0.13666 7:0.112329 8:-0.705875 9:-0.682986 10:0.146512 11:0.974132 12:0.389254 13:0.248496 14:-0.383102 15:-0.934152 16:-0.310961 17:0.200341 18:-0.742484 
1 1:-1 2:0.348922 3:0.640136 4:-0.184291 5:0.725781 6:0.137324 7:-0.100535 8:-0.81402 9:-0.757036 10:0.132511 11:0.993061 12:0.399985 13:0.0743981 14:-0.495703 15:-0.941603 16:-0.0634478 17:0.0836808 18:-0.808912 
1 1:-1 2:0.418007 3:0.564931 4:-0.148104 5:0.717664 6:-0.0863996 7:0.00137351 8:-0.724612 9:-0.775256 10:0.21929 11:0.842354 12:0.40823 13:0.201682 14:-0.468314 15:-0.949422 16:-0.113689 17:-0.231156 18:-0.406945 
1 1:-0.992825 2:0.473802 3:0.604906 4:-0.074072 5:0.632161 6:0.306562 7:0.0650047 8:-0.337825 9:-0.556965 10:0.312365 11:0.0387325 12:0.320321 13:-0.467693 14:-0.514519 15:-0.956393 16:-0.278841 17:-0.0947022 18:-0.0487137 
1 1:-0.975196 2:0.433223 3:0.687706 4:-0.0833262 5:0.620772 6:0.179441 7:-0.0764611 8:-0.294051 9:-0.584541 10:0.593906 11:0.820253 12:0.436649 13:-0.250957 14:-0.421706 15:-0.963296 16:-0.297819 17:-0.028275 18:-0.04206 
1 1:-0.963804 2:0.346792 3:0.587946 4:-0.0812442 5:0.610498 6:0.38749 7:0.0301237 8:-0.165702 9:-0.597896 10:0.480534 11:0.710363 12:-0.113909 13:-0.148223 14:-0.413099 15:-0.961476 16:-0.182462 17:-0.0608116 18:0.0290769 
1 1:-0.975746 2:0.474613 3:0.648175 4:-0.0927131 5:0.635295 6:0.193038 7:0.0689567 8:-0.243393 9:-0.571613 10:0.300982 11:0.172466 12:0.349962 13:-0.469684 14:-0.404669 15:-0.956157 16:-0.290798 17:0.00753447 18:-0.208586 
1 1:-0.979937 2:0.497337 3:0.695295 4:-0.0995243 5:0.602816 6:0.428254 7:-0.066091 8:-0.267077 9:-0.599392 10:0.585646 11:0.723552 12:0.130946 13:-0.22663 14:-0.442215 15:-0.965436 16:-0.31515 17:-0.257059 18:-0.0960611 
1 1:-0.976635 2:0.432209 3:0.694415 4:-0.170998 5:0.61496 6:0.479569 7:0.0365542 8:-0.25535 9:-0.583963 10:0.43309 11:0.398131 12:-0.0929326 13:-0.158237 14:-0.49745 15:-0.963042 16:-0.204093 17:-0.104772 18:-0.0929581 
1 1:-0.990031 2:0.400761 3:0.623368 4:-0.144623 5:0.618975 6:0.308723 7:0.0366728 8:-0.32646 9:-0.601206 10:0.371644 11:0.766605 12:0.503271 13:-0.481545 14:-0.531762 15:-0.962761 16:-0.302376 17:-0.0991319 18:-0.107655 
1 1:-0.963525 2:0.392544 3:0.612183 4:-0.0899692 5:0.630662 6:0.267255 7:0.0621828 8:-0.168914 9:-0.555473 10:0.413447 11:0.19408 12:-0.0274524 13:-0.307712 14:-0.523256 15:-0.951897 16:-0.294707 17:-0.0774007 18:-0.235695 
1 1:-0.992633 2:0.436977 3:0.635716 4:-0.0972132 5:0.628991 6:0.438138 7:0.0704363 8:-0.290061 9:-0.569069 10:0.450718 11:0.826166 12:0.332797 13:-0.290599 14:-0.510817 15:-0.959544 16:-0.30837 17:-0.0379714 18:0.00395977 
1 1:-0.960515 2:0.51438 3:0.685481 4:-0.104825 5:0.623833 6:0.150416 7:-0.0885667 8:-0.0502774 9:-0.60902 10:0.228607 11:0.649115 12:0.241567 13:-0.510784 14:-0.506492 15:-0.963982 16:-0.279405 17:-0.0343184 18:0.0398061 
1 1:-0.944222 2:0.532133 3:0.739137 4:-0.480717 5:0.666172 6:-0.21606 7:-0.14937 8:-0.598253 9:-0.811532 10:0.111307 11:0.825948 12:0.0918761 13:-0.256199 14:-0.55749 15:-0.960125 16:0.237583 17:-0.349036 18:-0.510826 
1 1:-0.953974 2:0.470048 3:0.738296 4:-0.364849 5:0.669048 6:-0.201953 7:-0.25415 8:-0.548081 9:-0.852825 10:0.131755 11:0.782291 12:0.389919 13:-0.359513 14:-0.494621 15:-0.968632 16:0.174615 17:-0.362259 18:-0.662655 
1 1:-0.990124 2:0.393457 3:0.748004 4:-0.576755 5:0.672997 6:-0.234809 7:-0.278543 8:-0.538019 9:-0.837541 10:0.0923697 11:0.937058 12:0.178427 13:-0.276401 14:-0.684007 15:-0.959013 16:0.173308 17:-0.29145 18:-0.462043 
1 1:-0.988163 2:0.422166 3:0.750871 4:-0.316333 5:0.668713 6:-0.222811 7:-0.095247 8:-0.631055 9:-0.862345 10:0.0916646 11:0.781713 12:-0.0999986 13:-0.293973 14:-0.599692 15:-0.971471 16:0.26964 17:-0.302899 18:-0.533118 
1 1:-1 2:0.135278 3:0.676195 4:-0.214648 5:0.599365 6:-0.258938 7:0.0659412 8:-0.844478 9:-0.879768 10:0.129388 11:0.360975 12:0.181497 13:-0.26978 14:-0.549845 15:-0.909181 16:-0.216639 17:0.341942 18:-0.964972 
1 1:-1 2:0.180624 3:0.629047 4:-0.216186 5:0.606721 6:-0.275641 7:0.0243112 8:-0.831489 9:-0.886057 10:0.0585243 11:0.3152 12:0.0013113 13:0.0491411 14:-0.568257 15:-0.914193 16:-0.355519 17:0.354469 18:-0.964092 
1 1:-1 2:0.344357 3:0.615796 4:-0.108136 5:0.612075 6:-0.0410562 7:0.0848083 8:-0.847686 9:-0.818873 10:0.195719 11:0.678644 12:0.25368 13:-0.1729 14:-0.530424 15:-0.915612 16:-0.173304 17:0.32972 18:-0.765856 
1 1:-1 2:0.343444 3:0.596655 4:-0.123379 5:0.612765 6:-0.115173 7:0.0875616 8:-0.844212 9:-0.792523 10:0.196374 11:0.981307 12:0.446555 13:-0.0348352 14:-0.51695 15:-0.926942 16:-0.182134 17:0.100791 18:-0.947635 
1 1:-1 2:0.179508 3:0.629043 4:-0.216297 5:0.602825 6:-0.248803 7:0.026359 8:-0.831729 9:-0.879505 10:0.0341476 11:0.376459 12:0.228714 13:0.00127257 14:-0.571813 15:-0.913059 16:-0.291663 17:0.169993 18:-0.967612 
1 1:-1 2:0.233984 3:0.66854 4:-0.220012 5:0.59555 6:-0.237876 7:0.0458816 8:-0.830917 9:-0.866931 10:0.170738 11:0.70868 12:0.254478 13:0.00980894 14:-0.543528 15:-0.926635 16:-0.276302 17:0.284898 18:-0.971687 
1 1:-1 2:0.420238 3:0.545602 4:-0.158738 5:0.801479 6:-0.539775 7:-0.0693625 8:-0.375364 9:-0.85402 10:0.2621 11:0.750181 12:0.361226 13:-0.0360655 14:-0.513934 15:-0.962408 16:-0.137473 17:-0.103703 18:-0.654813 
1 1:-1 2:0.487801 3:0.71643 4:-0.188656 5:0.777464 6:-0.411456 7:-0.307748 8:-0.73906 9:-0.829967 10:0.274792 11:0.940335 12:0.39157 13:-0.255862 14:-0.539245 15:-0.972842 16:0.0208676 17:-0.363391 18:-0.723387 
1 1:-1 2:0.369921 3:0.621664 4:-0.150827 5:0.780578 6:-0.399485 7:-0.140504 8:-0.654545 9:-0.837214 10:0.250416 11:0.992434 12:0.525195 13:-0.0210163 14:-0.272697 15:-0.967997 16:-0.00446415 17:-0.3374 18:-0.782807 
1 1:-1 2:0.497236 3:0.643806 4:-0.259514 5:0.778226 6:-0.41483 7:-0.296317 8:-0.701642 9:-0.834111 10:0.281088 11:0.961082 12:0.366537 13:-0.253137 14:-0.512924 15:-0.973046 16:0.0277938 17:-0.370429 18:-0.234367 
1 1:-1 2:0.525336 3:0.546108 4:-0.0986044 5:0.918288 6:-0.822204 7:-0.11314 8:-0.560814 9:-0.877656 10:0.394762 11:0.738894 12:0.271081 13:-0.347819 14:-0.546899 15:-0.949999 16:0.171673 17:-0.0485151 18:-0.61889 
1 1:-1 2:0.351966 3:0.659619 4:-0.300757 5:0.741522 6:-0.20656 7:-0.128349 8:-0.550548 9:-0.805485 10:0.149534 11:0.964765 12:0.359179 13:-0.173216 14:-0.438231 15:-0.951187 16:-0.162619 17:-0.165468 18:-0.470363 
1 1:-1 2:0.419427 3:0.639296 4:-0.440439 5:0.736719 6:-0.186711 7:-0.294251 8:-0.745189 9:-0.821638 10:0.125308 11:0.823025 12:0.218129 13:-0.16489 14:-0.553327 15:-0.94882 16:-0.0946989 17:-0.360421 18:-0.250901 
1 1:-1 2:0.397312 3:0.638801 4:-0.173171 5:0.719101 6:-0.146056 7:-0.276482 8:-0.72729 9:-0.802049 10:0.323999 11:0.842263 12:0.234407 13:-0.146817 14:-0.504506 15:-0.944768 16:-0.129721 17:-0.372348 18:-0.265505 
1 1:-1 2:0.521177 3:0.667085 4:-0.133964 5:0.799194 6:-0.5684 7:0.0815368 8:-0.404683 9:-0.765322 10:0.475749 11:0.766709 12:0.328019 13:-0.287345 14:-0.493531 15:-0.950751 16:-0.132264 17:-0.229208 18:-0.824196 
1 1:-1 2:0.493482 3:0.664283 4:-0.278158 5:0.791915 6:-0.561407 7:-0.268173 8:-0.430469 9:-0.831059 10:0.367917 11:0.807421 12:0.267704 13:-0.251534 14:-0.543721 15:-0.967181 16:-0.0735529 17:-0.288844 18:-0.82946 
1 1:-1 2:0.390515 3:0.548586 4:-0.189056 5:0.798005 6:-0.546701 7:-0.00938985 8:-0.432612 9:-0.851822 10:0.306925 11:0.899839 12:0.240034 13:-0.191422 14:-0.46006 15:-0.967042 16:-0.179859 17:-0.245637 18:-0.793042 
1 1:-1 2:0.562769 3:0.626464 4:-0.125269 5:0.788951 6:-0.568498 7:-0.154914 8:-0.544762 9:-0.822237 10:0.485067 11:0.651418 12:0.244195 13:-0.405169 14:-0.534012 15:-0.967811 16:-0.119971 17:-0.307709 18:-0.644918 
1 1:-1 2:0.423282 3:0.69151 4:-0.188238 5:0.797989 6:-0.568998 7:0.0595668 8:-0.418341 9:-0.798419 10:0.414002 11:0.68864 12:0.501366 13:-0.278318 14:-0.473392 15:-0.950911 16:-0.124753 17:0.0577629 18:-0.778361 
1 1:-1 2:0.507685 3:0.662422 4:-0.139082 5:0.79545 6:-0.573245 7:-0.245884 8:-0.582196 9:-0.797958 10:0.489449 11:0.647497 12:0.253209 13:-0.386234 14:-0.536745 15:-0.96456 16:-0.120046 17:-0.307688 18:-0.751376 
1 1:-1 2:0.545524 3:0.632271 4:-0.178866 5:0.799563 6:-0.571044 7:-0.234696 8:-0.429779 9:-0.82808 10:0.42765 11:0.644809 12:0.232374 13:-0.392376 14:-0.538802 15:-0.972364 16:-0.123174 17:-0.369478 18:-0.685009 
1 1:-1 2:0.519148 3:0.596095 4:-0.184829 5:0.800953 6:-0.630916 7:-0.20963 8:-0.371872 9:-0.833195 10:0.443163 11:0.643409 12:0.235124 13:-0.307179 14:-0.540534 15:-0.973637 16:-0.13733 17:-0.376894 18:-0.81799 
1 1:-1 2:0.542379 3:0.666984 4:-0.0464282 5:0.798502 6:-0.569993 7:-0.126994 8:-0.418059 9:-0.780653 10:0.430018 11:0.650255 12:0.440376 13:-0.229901 14:-0.535291 15:-0.953937 16:-0.143739 17:0.0290538 18:-0.757103 
1 1:-1 2:0.539133 3:0.632669 4:-0.147975 5:0.800137 6:-0.640212 7:-0.202999 8:-0.36812 9:-0.82847 10:0.479627 11:0.648601 12:0.238148 13:-0.324242 14:-0.537326 15:-0.970846 16:-0.136438 17:-0.37023 18:-0.663829 
1 1:-1 2:0.530713 3:0.662484 4:-0.176926 5:0.794863 6:-0.557977 7:-0.167169 8:-0.444179 9:-0.824446 10:0.398942 11:0.65543 12:0.230737 13:-0.397486 14:-0.54016 15:-0.966366 16:-0.11943 17:-0.307632 18:-0.61696 
1 1:-0.710439 2:0.682983 3:0.916646 4:-0.480152 5:0.867888 6:-0.719807 7:-0.286347 8:-0.427583 9:-0.891 10:0.417426 11:0.520493 12:-0.257444 13:-0.807197 14:-0.736561 15:-0.99356 16:0.261912 17:-0.518253 18:-0.12581 
1 1:-0.956928 2:0.559117 3:0.762138 4:-0.169341 5:0.864575 6:-0.69182 7:-0.124671 8:-0.34814 9:-0.877827 10:0.434047 11:0.586624 12:0.0784517 13:-0.410657 14:-0.572713 15:-0.978871 16:-0.00338612 17:-0.351474 18:-0.636597 
1 1:-0.966846 2:0.584174 3:0.788489 4:-0.454247 5:0.865525 6:-0.691052 7:-0.333558 8:-0.240235 9:-0.871444 10:0.371594 11:0.472871 12:-0.166974 13:-0.508299 14:-0.690694 15:-0.982088 16:0.187508 17:-0.534119 18:-0.924386 
1 1:-0.931546 2:0.629521 3:0.795527 4:-0.445427 5:0.864564 6:-0.620557 7:-0.287714 8:-0.175869 9:-0.89132 10:0.368874 11:0.389873 12:-0.0152356 13:-0.517218 14:-0.70163 15:-0.980042 16:0.244897 17:-0.561586 18:-0.945366 
1 1:-0.920287 2:0.543901 3:0.798705 4:-0.424136 5:0.859749 6:-0.702618 7:-0.119945 8:-0.379436 9:-0.864992 10:0.400504 11:0.585637 12:0.133687 13:-0.408301 14:-0.609111 15:-0.976802 16:0.155582 17:-0.147969 18:-0.58028 
1 1:-0.907575 2:0.616536 3:0.805582 4:-0.258874 5:0.867087 6:-0.732269 7:-0.263796 8:-0.304194 9:-0.851807 10:0.517603 11:0.407455 12:-0.10973 13:-0.648816 14:-0.779174 15:-0.979902 16:0.102332 17:-0.468977 18:-0.663134 
1 1:-0.912966 2:0.621506 3:0.815115 4:-0.366731 5:0.865627 6:-0.739143 7:-0.299145 8:-0.308426 9:-0.843676 10:0.38207 11:0.302528 12:-0.283482 13:-0.728965 14:-0.710439 15:-0.982145 16:0.162931 17:-0.413875 18:-0.619924 
1 1:-0.907528 2:0.63368 3:0.780644 4:-0.457681 5:0.864675 6:-0.700843 7:-0.318368 8:-0.256346 9:-0.89013 10:0.365047 11:0.542161 12:-0.139974 13:-0.509395 14:-0.656341 15:-0.980303 16:0.200812 17:-0.549188 18:-0.763031 
1 1:-0.571136 2:0.756429 3:0.817153 4:-0.484591 5:0.866353 6:-0.719113 7:-0.244367 8:-0.439138 9:-0.884538 10:0.57376 11:0.355081 12:-0.371334 13:-0.910216 14:-0.784438 15:-0.993913 16:0.252538 17:-0.51959 18:-0.184565 
1 1:-0.909142 2:0.58529 3:0.816903 4:-0.283751 5:0.87716 6:-0.73029 7:-0.169261 8:-0.271942 9:-0.842283 10:0.426945 11:0.0980376 12:-0.154705 13:-0.67385 14:-0.666936 15:-0.985045 16:0.178367 17:-0.470404 18:-0.707147 
1 1:-0.957186 2:0.633173 3:0.787919 4:-0.4612 5:0.863906 6:-0.616716 7:-0.281858 8:-0.21198 9:-0.85988 10:0.36555 11:0.3692 12:0.00644331 13:-0.508133 14:-0.721346 15:-0.981703 16:0.267752 17:-0.519457 18:-0.840868 
1 1:-0.765026 2:0.579305 3:0.864718 4:-0.448933 5:0.878857 6:-0.722863 7:-0.401847 8:-0.235018 9:-0.875127 10:0.512465 11:0.294091 12:-0.273208 13:-0.845081 14:-0.773067 15:-0.990893 16:0.220493 17:-0.51879 18:-0.904441 
1 1:0.749397 2:0.629521 3:0.936284 4:-0.474649 5:0.866231 6:-0.721698 7:-0.273473 8:-0.38906 9:-0.871169 10:0.545857 11:-0.63033 12:-0.605388 13:-0.542726 14:-0.717353 15:-0.981959 16:0.209574 17:-0.520396 18:-0.0783849 
1 1:-0.917281 2:0.609434 3:0.802561 4:-0.404335 5:0.881557 6:-0.737731 7:-0.267754 8:-0.241984 9:-0.849761 10:0.407504 11:-0.0487171 12:-0.370014 13:-0.719324 14:-0.739335 15:-0.98408 16:0.125966 17:-0.44167 18:-0.724545 
1 1:0.0178053 2:0.65894 3:0.880799 4:-0.423858 5:0.882875 6:-0.736458 7:-0.404975 8:-0.233649 9:-0.849395 10:0.65651 11:-0.353065 12:-0.570534 13:-0.74269 14:-0.939048 15:-0.988794 16:0.125275 17:-0.586349 18:-0.667055 
1 1:-0.316266 2:0.743951 3:0.88462 4:-0.317135 5:0.882972 6:-0.73117 7:-0.274116 8:-0.238521 9:-0.883347 10:0.552606 11:-0.726364 12:-0.592836 13:-0.895986 14:-0.837174 15:-0.994981 16:0.160929 17:-0.597971 18:-0.716502 
1 1:-0.788595 2:0.756733 3:0.883165 4:-0.421629 5:0.882747 6:-0.736648 7:-0.229152 8:-0.235885 9:-0.846162 10:0.618283 11:-0.567369 12:-0.401032 13:-0.82366 14:-0.881698 15:-0.996166 16:0.161572 17:-0.46817 18:-0.76967 
1 1:-0.763927 2:0.671722 3:0.833419 4:-0.574005 5:0.881266 6:-0.643145 7:-0.34705 8:-0.24 9:-0.927086 10:0.454848 11:-0.442059 12:-0.707353 13:-0.862105 14:-0.812456 15:-0.989595 16:0.292073 17:-0.433442 18:-0.477388 
1 1:-0.622529 2:0.664722 3:0.831552 4:-0.446304 5:0.881433 6:-0.672919 7:-0.227641 8:-0.24 9:-0.854485 10:0.413246 11:-0.153235 12:-0.798739 13:-0.773944 14:-0.803626 15:-0.987722 16:0.269091 17:-0.612305 18:-0.50093 
1 1:-0.928779 2:0.651433 3:0.808026 4:-0.290611 5:0.894956 6:-0.726558 7:-0.156481 8:-0.225139 9:-0.874101 10:0.533367 11:0.173813 12:-0.176663 13:-0.479362 14:-0.742465 15:-0.981664 16:0.0802699 17:-0.419953 18:-0.776894 
1 1:-0.935932 2:0.55719 3:0.804099 4:-0.344632 5:0.883255 6:-0.725653 7:-0.0095709 8:-0.222239 9:-0.926322 10:0.436615 11:0.186416 12:-0.214978 13:-0.66611 14:-0.724555 15:-0.978084 16:-0.0256654 17:-0.42181 18:-0.727432 
1 1:-0.608985 2:0.661882 3:0.830552 4:-0.552591 5:0.881111 6:-0.631421 7:-0.292702 8:-0.24 9:-0.897126 10:0.456762 11:-0.214527 12:-0.8078 13:-0.823247 14:-0.956644 15:-0.996049 16:0.526752 17:-0.647211 18:-0.0845137 
1 1:-0.952645 2:0.571392 3:0.803759 4:-0.314495 5:0.884963 6:-0.707385 7:-0.024717 8:-0.23495 9:-0.885491 10:0.491614 11:0.196054 12:-0.288637 13:-0.665276 14:-0.770443 15:-0.979622 16:0.0303172 17:-0.418039 18:-0.670729 
1 1:-0.87598 2:0.734821 3:0.828189 4:-0.266686 5:0.88258 6:-0.738251 7:-0.187054 8:-0.231297 9:-0.848318 10:0.61798 11:-0.524936 12:-0.479427 13:-0.855892 14:-0.914989 15:-0.987236 16:0.102561 17:-0.584414 18:-0.669479 
1 1:-0.967524 2:0.588131 3:0.753099 4:-0.251514 5:0.888745 6:-0.729478 7:-0.0255786 8:-0.225785 9:-0.878226 10:0.424477 11:-0.0539161 12:-0.271062 13:-0.447429 14:-0.748585 15:-0.98363 16:-0.0144034 17:-0.418014 18:-0.704445 
1 1:-0.786625 2:0.678316 3:0.820397 4:-0.251229 5:0.881418 6:-0.735462 7:-0.272705 8:-0.24 9:-0.914193 10:0.42891 11:-0.189766 12:-0.615638 13:-0.917738 14:-0.87616 15:-0.990848 16:0.162358 17:-0.486424 18:-0.136647 
1 1:-1 2:0.440629 3:0.681885 4:-0.265449 5:0.867249 6:-0.708777 7:-0.0838468 8:-0.419693 9:-0.782372 10:0.286628 11:0.540104 12:0.0957581 13:-0.454069 14:-0.578077 15:-0.968518 16:-0.0553093 17:-0.342297 18:-0.663427 
1 1:-0.872532 2:0.545422 3:0.845742 4:-0.576564 5:0.907162 6:-0.768157 7:-0.300219 8:-0.543938 9:-0.898727 10:0.459481 11:0.632597 12:-0.445168 13:-0.607397 14:-0.808564 15:-0.978078 16:0.215569 17:-0.172184 18:0.137789 
1 1:-0.0227038 2:0.649201 3:0.849385 4:-0.578337 5:0.912102 6:-0.791181 7:-0.348036 8:-0.483395 9:-0.895024 10:0.459884 11:-0.407898 12:-0.567723 13:-0.854477 14:-0.893435 15:-0.987606 16:0.206226 17:-0.4058 18:-0.135427 
1 1:-0.440702 2:0.748212 3:0.891812 4:-0.496497 5:0.917014 6:-0.781906 7:-0.388642 8:-0.446387 9:-0.879519 10:0.576832 11:-0.28458 12:-0.577817 13:-0.79338 14:-0.872495 15:-0.984914 16:0.215122 17:-0.420543 18:-0.0173597 
1 1:-0.804003 2:0.653868 3:0.70889 4:-0.465087 5:0.906958 6:-0.804294 7:-0.321958 8:-0.542581 9:-0.885489 10:0.452984 11:0.513909 12:-0.39673 13:-0.447055 14:-0.742289 15:-0.973722 16:0.215225 17:-0.271193 18:0.119156 
1 1:-0.87499 2:0.666548 3:0.709617 4:-0.525481 5:0.906722 6:-0.779235 7:-0.212614 8:-0.474109 9:-0.893124 10:0.305162 11:0.472237 12:-0.435838 13:-0.740165 14:-0.688494 15:-0.967982 16:0.215407 17:-0.331546 18:0.10114 
1 1:-0.37638 2:0.711489 3:0.849535 4:-0.439285 5:0.914062 6:-0.832675 7:-0.22859 8:-0.352909 9:-0.824508 10:0.634047 11:-0.3164 12:-0.543252 13:-0.832994 14:-0.854593 15:-0.98641 16:0.104875 17:-0.403456 18:-0.294652 
1 1:-0.518054 2:0.728024 3:0.883134 4:-0.576471 5:0.910995 6:-0.775273 7:-0.233098 8:-0.471798 9:-0.895342 10:0.436817 11:-0.426409 12:-0.600364 13:-0.773354 14:-0.874382 15:-0.987436 16:0.207296 17:-0.405994 18:-0.0322108 
1 1:-0.224704 2:0.74669 3:0.881859 4:-0.520622 5:0.913114 6:-0.801228 7:-0.38936 8:-0.443159 9:-0.91368 10:0.489952 11:-0.511629 12:-0.584096 13:-0.772649 14:-0.865091 15:-0.989354 16:0.215063 17:-0.44009 18:-0.0184249 
1 1:-0.328764 2:0.695156 3:0.852579 4:-0.490478 5:0.916564 6:-0.821483 7:-0.39197 8:-0.368976 9:-0.900672 10:0.585998 11:-0.262917 12:-0.539992 13:-0.826061 14:-0.839743 15:-0.988468 16:0.030096 17:-0.405368 18:-0.268871 
1 1:-0.291505 2:0.701648 3:0.852513 4:-0.320605 5:0.912381 6:-0.785658 7:-0.366753 8:-0.390047 9:-0.902466 10:0.55996 11:-0.163186 12:-0.539035 13:-0.81739 14:-0.841657 15:-0.986818 16:0.0677758 17:-0.396683 18:-0.184349 
1 1:-0.366217 2:0.753386 3:0.865628 4:-0.520106 5:0.925307 6:-0.780617 7:-0.363176 8:-0.448073 9:-0.894825 10:0.595769 11:-0.191718 12:-0.727593 13:-0.816791 14:-0.909865 15:-0.98983 16:0.214937 17:-0.42618 18:-0.00823601 
1 1:-0.900957 2:0.672534 3:0.804872 4:-0.596444 5:0.88855 6:-0.802549 7:-0.202263 8:-0.479023 9:-0.892127 10:0.456963 11:-0.0466388 12:-0.389617 13:-0.64572 14:-0.797927 15:-0.983379 16:0.288164 17:-0.49351 18:-0.0771962 
1 1:-0.459048 2:0.734517 3:0.862199 4:-0.498264 5:0.921957 6:-0.784249 7:-0.382811 8:-0.429857 9:-0.905222 10:0.499924 11:-0.573517 12:-0.552002 13:-0.873399 14:-0.873566 15:-0.986315 16:0.215004 17:-0.438592 18:-0.00541091 
1 1:0.668665 2:0.787979 3:0.944974 4:-0.475064 5:0.882891 6:-0.719594 7:-0.448802 8:-0.41571 9:-0.897055 10:0.685268 11:-0.734193 12:-0.8367 13:-0.950347 14:-0.946113 15:-0.997053 16:0.250962 17:-0.58696 18:-0.598882 
1 1:0.573691 2:0.688156 3:0.839781 4:-0.590745 5:0.870716 6:-0.677321 7:-0.345389 8:-0.321891 9:-0.908842 10:0.738605 11:-0.760586 12:-0.838682 13:-0.934775 14:-0.950475 15:-0.996019 16:0.521643 17:-0.641074 18:0.0274868 
1 1:0.189206 2:0.783414 3:0.932245 4:-0.486124 5:0.874956 6:-0.72153 7:-0.356065 8:-0.253439 9:-0.89141 10:0.727071 11:-0.748129 12:-0.836799 13:-0.949191 14:-0.945423 15:-0.997041 16:0.250895 17:-0.578088 18:-0.837518 
1 1:-0.796222 2:0.664114 3:0.749042 4:-0.157843 5:0.857343 6:-0.677366 7:-0.186349 8:-0.451664 9:-0.896874 10:0.619693 11:0.141852 12:-0.175441 13:-0.765402 14:-0.764151 15:-0.97995 16:0.0720523 17:-0.145591 18:-0.334898 
1 1:-0.438733 2:0.795689 3:0.833062 4:-0.419487 5:0.867133 6:-0.691047 7:-0.126107 8:-0.427382 9:-0.893003 10:0.752657 11:-0.234165 12:-0.154686 13:-0.585973 14:-0.634667 15:-0.99505 16:0.102628 17:-0.351192 18:-0.0444374 
1 1:0.655012 2:0.8035 3:0.922854 4:-0.482842 5:0.879867 6:-0.721024 7:-0.372997 8:-0.401826 9:-0.888284 10:0.736641 11:-0.73415 12:-0.836979 13:-0.953066 14:-0.945186 15:-0.996201 16:0.236742 17:-0.557501 18:-0.648931 
1 1:-0.0702465 2:0.84002 3:0.81748 4:-0.302008 5:0.865101 6:-0.708046 7:-0.313124 8:-0.452787 9:-0.902805 10:0.676605 11:-0.253048 12:-0.279421 13:-0.784615 14:-0.747971 15:-0.981554 16:0.326961 17:-0.579149 18:-0.0634567 
1 1:-0.332354 2:0.74527 3:0.840322 4:-0.479503 5:0.869125 6:-0.720104 7:-0.304115 8:-0.331717 9:-0.867299 10:0.432788 11:0.54495 12:-0.18138 13:-0.57169 14:-0.931217 15:-0.984483 16:0.238338 17:-0.515343 18:-0.381921 
1 1:0.544601 2:0.840122 3:0.946212 4:-0.484302 5:0.874361 6:-0.719258 7:-0.306107 8:-0.402973 9:-0.88706 10:0.675346 11:-0.741901 12:-0.833705 13:-0.943395 14:-0.94386 15:-0.996907 16:0.23908 17:-0.590823 18:-0.196514 
1 1:-0.750702 2:0.665331 3:0.832016 4:-0.476897 5:0.869097 6:-0.71991 7:-0.30492 8:-0.352203 9:-0.891345 10:0.606195 11:-0.334789 12:-0.271633 13:-0.84474 14:-0.874341 15:-0.984537 16:0.23771 17:-0.521999 18:-0.67746 
1 1:0.412053 2:0.718387 3:0.932251 4:-0.424808 5:0.856494 6:-0.686784 7:-0.0764236 8:-0.436791 9:-0.882762 10:0.705314 11:0.203538 12:0.0562398 13:-0.550988 14:-0.896471 15:-0.974075 16:0.200405 17:-0.347149 18:-0.177634 
1 1:-0.846141 2:0.773066 3:0.950493 4:-0.437429 5:0.86672 6:-0.680072 7:-0.113028 8:-0.424475 9:-0.889758 10:0.760363 11:0.543816 12:-0.28118 13:-0.945686 14:-0.64944 15:-0.991207 16:0.234626 17:-0.303678 18:0.00666137 
1 1:0.644718 2:0.841136 3:0.960414 4:-0.48765 5:0.872589 6:-0.722614 7:-0.363451 8:-0.241876 9:-0.89815 10:0.763485 11:-0.73692 12:-0.841667 13:-0.95339 14:-0.941504 15:-0.996351 16:0.235862 17:-0.554066 18:-0.319676 
1 1:-1 2:0.447933 3:0.648492 4:-0.255827 5:0.574232 6:-0.267241 7:0.0296242 8:-0.224217 9:-0.75633 10:0.333417 11:0.704372 12:0.389579 13:-0.191672 14:-0.534865 15:-0.936253 16:-0.171602 17:0.18036 18:-0.372936 
1 1:-1 2:0.467309 3:0.667021 4:-0.36569 5:0.57986 6:-0.252667 7:0.0625261 8:0.0147407 9:-0.829963 10:0.3103 11:0.734586 12:0.383938 13:-0.178926 14:-0.493679 15:-0.948359 16:-0.142136 17:0.22458 18:-0.854407 
1 1:-1 2:0.386254 3:0.581525 4:-0.258552 5:0.570808 6:-0.230407 7:-0.107933 8:-0.071448 9:-0.8071 10:0.216318 11:0.821616 12:0.486286 13:-0.163656 14:-0.513835 15:-0.949878 16:-0.119656 17:0.0735276 18:-0.921824 
1 1:-1 2:0.447933 3:0.663631 4:-0.283966 5:0.573106 6:-0.408517 7:-0.171302 8:-0.0694691 9:-0.837619 10:0.255553 11:0.790813 12:0.291449 13:-0.174957 14:-0.600562 15:-0.961467 16:-0.0699358 17:-0.109844 18:-0.826465 
1 1:-1 2:0.456962 3:0.655089 4:-0.29181 5:0.576392 6:-0.263744 7:-0.03126 8:0.0015508 9:-0.711208 10:0.315789 11:0.833372 12:0.434749 13:-0.193523 14:-0.391796 15:-0.928462 16:-0.153434 17:0.249929 18:-0.490602 
1 1:-1 2:0.411108 3:0.525704 4:-0.300783 5:0.575677 6:-0.260589 7:-0.20466 8:-0.0912637 9:-0.805542 10:0.282599 11:0.814901 12:0.423112 13:-0.0850414 14:-0.545503 15:-0.952047 16:-0.109207 17:0.0704851 18:-0.887197 
1 1:-1 2:0.417398 3:0.597819 4:-0.231364 5:0.612399 6:-0.247644 7:-0.0869934 8:0.014476 9:-0.805397 10:0.264417 11:0.952009 12:0.341434 13:-0.104549 14:-0.601115 15:-0.941069 16:-0.107067 17:0.110614 18:-0.92786 
1 1:-0.985062 2:0.468222 3:0.692686 4:-0.437126 5:0.587076 6:-0.245806 7:0.0190419 8:0.0301645 9:-0.841007 10:0.247192 11:0.697868 12:0.206874 13:-0.238437 14:-0.576809 15:-0.949463 16:-0.095927 17:0.0615738 18:-0.940472 
1 1:-0.997839 2:0.481816 3:0.700667 4:-0.459171 5:0.598946 6:-0.217738 7:-0.0244486 8:0.068915 9:-0.834626 10:0.196676 11:0.738936 12:0.175587 13:-0.200007 14:-0.579295 15:-0.949276 16:-0.0952043 17:0.147246 18:-0.948886 
1 1:-0.994112 2:0.462237 3:0.698777 4:-0.471156 5:0.599829 6:-0.280535 7:0.0215767 8:0.0421248 9:-0.839463 10:0.166558 11:0.923404 12:0.166238 13:-0.241006 14:-0.584758 15:-0.949322 16:-0.0961955 17:-0.0270581 18:-0.947743 
1 1:-1 2:0.466295 3:0.65501 4:-0.361295 5:0.611899 6:-0.248256 7:-0.0769356 8:-0.0128697 9:-0.764861 10:0.243969 11:0.78216 12:0.562034 13:-0.0625376 14:-0.582804 15:-0.944919 16:-0.237469 17:0.130881 18:-0.906463 
1 1:-0.891534 2:0.504945 3:0.746248 4:-0.319149 5:0.644029 6:-0.589779 7:0.0128174 8:-0.331545 9:-0.84658 10:0.317955 11:0.279156 12:-0.27052 13:-0.349917 14:-0.722244 15:-0.983714 16:-0.00957789 17:-0.255217 18:-0.684392 
1 1:-0.945739 2:0.495714 3:0.811729 4:-0.371289 5:0.650023 6:-0.490234 7:-0.436565 8:-0.141714 9:-0.875736 10:0.375976 11:0.140081 12:-0.291038 13:-0.679219 14:-0.603143 15:-0.982313 16:0.0945646 17:-0.371864 18:-0.555842 
1 1:-0.258381 2:0.520061 3:0.701507 4:-0.503208 5:0.621045 6:-0.607983 7:-0.389185 8:-0.167632 9:-0.869486 10:0.573155 11:-0.174749 12:0.236398 13:-0.458969 14:-0.576685 15:-0.985334 16:0.165154 17:-0.540985 18:-0.393793 
1 1:-0.783151 2:0.494497 3:0.845289 4:-0.448691 5:0.666277 6:-0.510624 7:-0.415107 8:-0.120662 9:-0.873499 10:0.251876 11:0.640802 12:-0.247761 13:-0.215559 14:-0.523669 15:-0.976071 16:-0.134298 17:-0.294399 18:-0.50462 
1 1:-0.399735 2:0.629926 3:0.754496 4:-0.436356 5:0.641881 6:-0.488859 7:-0.462937 8:-0.154217 9:-0.87993 10:0.279627 11:0.62177 12:0.298557 13:-0.477634 14:-0.818039 15:-0.970492 16:0.23433 17:-0.485469 18:-0.549049 
1 1:-0.399959 2:0.612275 3:0.712999 4:-0.430651 5:0.623047 6:-0.521536 7:-0.403626 8:-0.153153 9:-0.903382 10:0.643868 11:0.364436 12:-0.550582 13:-0.663594 14:-0.755039 15:-0.971976 16:0.124414 17:-0.593332 18:-0.592074 
1 1:-0.974051 2:0.555567 3:0.77626 4:-0.414687 5:0.636279 6:-0.520003 7:-0.443995 8:-0.160212 9:-0.870791 10:0.508285 11:0.615698 12:-0.15763 13:-0.407988 14:-0.691026 15:-0.981834 16:0.3061 17:-0.580053 18:-0.40165 
1 1:-0.838091 2:0.452701 3:0.687274 4:-0.44361 5:0.642389 6:-0.568281 7:-0.390241 8:-0.165334 9:-0.909583 10:0.507378 11:0.858729 12:-0.219044 13:-0.642854 14:-0.639889 15:-0.979841 16:0.063357 17:-0.633214 18:-0.506349 
1 1:-1 2:0.403804 3:0.595664 4:-0.204 5:0.656435 6:-0.372366 7:-0.325529 8:-0.182919 9:-0.76267 10:0.39864 11:0.886053 12:0.415022 13:-0.219091 14:-0.427836 15:-0.941482 16:-0.172574 17:-0.141793 18:-0.650506 
1 1:-1 2:0.428151 3:0.594979 4:-0.288952 5:0.749973 6:-0.439039 7:0.0635875 8:-0.855208 9:-0.815863 10:0.356485 11:0.956965 12:0.500252 13:-0.0699111 14:-0.406097 15:-0.951388 16:-0.16887 17:-0.0361397 18:-0.712087 
1 1:-1 2:0.394167 3:0.664649 4:-0.34578 5:0.73396 6:-0.3172 7:-0.13556 8:-0.899617 9:-0.830086 10:0.157794 11:0.943293 12:0.319076 13:-0.119563 14:-0.549085 15:-0.957 16:-0.0446159 17:-0.170101 18:-0.728605 
1 1:-1 2:0.386761 3:0.664934 4:-0.385141 5:0.727486 6:-0.457021 7:-0.129473 8:-0.850835 9:-0.828908 10:0.192093 11:0.958297 12:0.283675 13:-0.205888 14:-0.548576 15:-0.962797 16:0.135376 17:-0.281594 18:-0.856306 
1 1:-1 2:0.33472 3:0.650513 4:-0.24868 5:0.749167 6:-0.175609 7:0.067939 8:-0.536784 9:-0.748108 10:0.158298 11:0.969093 12:0.500583 13:-0.104918 14:-0.389205 15:-0.952377 16:-0.254307 17:-0.216423 18:-0.760577 
1 1:-1 2:0.344256 3:0.643123 4:-0.21829 5:0.735232 6:-0.194562 7:0.0216453 8:-0.564584 9:-0.764311 10:0.18625 11:0.997775 12:0.445385 13:0.031646 14:-0.45441 15:-0.926975 16:-0.290766 17:0.0115779 18:-0.643451 
1 1:-1 2:0.463759 3:0.628783 4:-0.114206 5:0.722871 6:-0.469931 7:-0.0820613 8:-0.845259 9:-0.802746 10:0.334727 11:0.807626 12:0.366792 13:-0.200249 14:-0.482966 15:-0.958424 16:0.0343055 17:-0.287064 18:-0.607898 
1 1:-1 2:0.361096 3:0.580982 4:-0.0612807 5:0.670061 6:0.072398 7:-0.274378 8:-0.532724 9:-0.684861 10:0.27585 11:0.933938 12:0.479356 13:-0.119322 14:-0.435091 15:-0.961339 16:-0.190209 17:0.116203 18:-0.801564 
1 1:-1 2:0.373573 3:0.618019 4:-0.0782723 5:0.748759 6:-0.441799 7:-0.0124178 8:-0.797331 9:-0.803444 10:0.309947 11:0.622742 12:0.362905 13:-0.196103 14:-0.67191 15:-0.971014 16:-0.107544 17:0.086067 18:-0.547861 
1 1:-1 2:0.255897 3:0.575269 4:-0.161378 5:0.781209 6:0.114178 7:-0.269215 8:-0.448289 9:-0.824242 10:0.0396877 11:0.911195 12:0.405683 13:-0.070524 14:-0.466275 15:-0.957518 16:-0.175685 17:0.202579 18:-0.859363 
1 1:-1 2:0.304083 3:0.666057 4:-0.197452 5:0.749248 6:-0.0932144 7:-0.32443 8:-0.362624 9:-0.770435 10:0.0872324 11:0.76891 12:0.16929 13:0.0686722 14:-0.503434 15:-0.960786 16:-0.157272 17:0.210186 18:-0.218096 
1 1:-1 2:0.330358 3:0.575676 4:-0.156367 5:0.781081 6:-0.113338 7:-0.246896 8:-0.447933 9:-0.8264 10:0.210325 11:0.917205 12:0.474097 13:0.300608 14:-0.462103 15:-0.953015 16:-0.177861 17:0.202829 18:-0.859177 
1 1:-1 2:0.255694 3:0.544574 4:-0.0481869 5:0.77654 6:0.163508 7:-0.240328 8:-0.536797 9:-0.777326 10:0.12959 11:0.924611 12:0.572803 13:0.152067 14:-0.431441 15:-0.955292 16:-0.176531 17:0.204876 18:-0.441325 
1 1:-1 2:0.308141 3:0.573366 4:-0.155375 5:0.781049 6:0.0368306 7:-0.281758 8:-0.448388 9:-0.823803 10:0.0431126 11:0.902568 12:0.489158 13:-0.0387972 14:-0.466314 15:-0.959045 16:-0.176305 17:0.113869 18:-0.924294 
1 1:-1 2:0.298098 3:0.575871 4:-0.139905 5:0.780824 6:-0.043597 7:-0.180929 8:-0.44395 9:-0.829355 10:0.0348023 11:0.922906 12:0.496366 13:-0.103724 14:-0.462233 15:-0.95698 16:-0.174663 17:0.0349124 18:-0.907235 
1 1:-1 2:0.237332 3:0.538664 4:-0.157779 5:0.764708 6:0.204045 7:-0.337179 8:-0.469828 9:-0.717667 10:0.0911106 11:0.933318 12:0.43347 13:0.062897 14:-0.302191 15:-0.957087 16:-0.183042 17:-0.172707 18:-0.672767 
1 1:-1 2:0.284707 3:0.568572 4:-0.143718 5:0.781238 6:0.242371 7:-0.293901 8:-0.456202 9:-0.825197 10:0.0441702 11:0.90029 12:0.446267 13:0.317964 14:-0.432772 15:-0.954319 16:-0.180625 17:0.0415414 18:-0.963027 
1 1:-1 2:0.407456 3:0.643279 4:-0.104157 5:0.705507 6:-0.181103 7:-0.00155457 8:-0.724409 9:-0.76507 10:0.248955 11:0.8761 12:0.428291 13:-0.0299813 14:-0.42963 15:-0.960882 16:-0.16363 17:-0.244256 18:-0.591272 
1 1:-1 2:0.422876 3:0.627132 4:-0.121009 5:0.711274 6:-0.140522 7:0.0144968 8:-0.675409 9:-0.772056 10:0.317502 11:0.846128 12:0.461748 13:-0.140092 14:-0.443653 15:-0.957902 16:-0.182655 17:-0.375694 18:-0.694951 
1 1:-1 2:0.375805 3:0.630471 4:-0.100871 5:0.702738 6:-0.138318 7:0.0298115 8:-0.68811 9:-0.781706 10:0.293327 11:0.852334 12:0.430296 13:-0.0761495 14:-0.439072 15:-0.961171 16:-0.145663 17:-0.183326 18:-0.558358 
1 1:-1 2:0.369008 3:0.664051 4:-0.105643 5:0.710556 6:-0.301318 7:-0.0012986 8:-0.708899 9:-0.779281 10:0.289902 11:0.877644 12:0.480116 13:-0.136219 14:-0.444455 15:-0.961853 16:-0.253837 17:-0.135292 18:-0.653362 
1 1:-1 2:0.321025 3:0.582874 4:-0.252695 5:0.781049 6:-0.35435 7:-0.261773 8:-0.442021 9:-0.829024 10:0.121179 11:0.879912 12:0.300378 13:-0.151004 14:-0.511418 15:-0.956555 16:-0.0853757 17:-0.109794 18:-0.943097 
1 1:-1 2:0.310474 3:0.525156 4:-0.134538 5:0.783945 6:-0.362299 7:-0.0162012 8:-0.430603 9:-0.802989 10:0.217829 11:0.936127 12:0.534544 13:-0.120053 14:-0.3991 15:-0.951139 16:-0.191212 17:0.170936 18:-0.977878 
1 1:-0.92 2:0.677809 3:0.819976 4:-0.435436 5:0.898934 6:-0.65872 7:-0.172314 8:-0.164305 9:-0.846037 10:0.498262 11:-0.0945457 12:-0.438965 13:-0.777369 14:-0.830717 15:-0.974418 16:0.132035 17:-0.311366 18:-0.853157 
1 1:2.323e-05 2:0.717068 3:0.858134 4:-0.467606 5:0.887624 6:-0.670533 7:-0.413166 8:-0.185516 9:-0.900288 10:0.579098 11:-0.32518 12:-0.817771 13:-0.939157 14:-0.928366 15:-0.989903 16:0.277506 17:-0.460868 18:-0.862481 
1 1:-0.932544 2:0.647274 3:0.815508 4:-0.351471 5:0.899249 6:-0.653655 7:-0.181285 8:-0.194389 9:-0.921196 10:0.44281 11:-0.305091 12:-0.469026 13:-0.570892 14:-0.708695 15:-0.97389 16:-0.0595582 17:-0.35816 18:-0.892476 
1 1:-0.92 2:0.676794 3:0.81892 4:-0.329123 5:0.903493 6:-0.677081 7:-0.185499 8:-0.227533 9:-0.908867 10:0.46759 11:-0.254739 12:-0.576214 13:-0.765399 14:-0.801772 15:-0.975702 16:0.155369 17:-0.28792 18:-0.775397 
1 1:-0.973475 2:0.598275 3:0.777256 4:-0.407183 5:0.900868 6:-0.63902 7:-0.0130047 8:-0.159371 9:-0.920262 10:0.41793 11:-0.262946 12:-0.454451 13:-0.723394 14:-0.745617 15:-0.973843 16:0.052245 17:-0.402988 18:-0.917316 
1 1:-0.0681679 2:0.759371 3:0.900267 4:-0.455627 5:0.887508 6:-0.704569 7:-0.240983 8:-0.162833 9:-0.894469 10:0.54339 11:-0.557635 12:-0.642255 13:-0.921277 14:-0.934842 15:-0.978477 16:0.277084 17:-0.293919 18:-0.872222 
1 1:-0.678042 2:0.698808 3:0.842214 4:-0.455526 5:0.897135 6:-0.694562 7:-0.375931 8:-0.192688 9:-0.91352 10:0.626794 11:-0.653131 12:-0.737258 13:-0.802272 14:-0.936358 15:-0.979276 16:0.318795 17:-0.594414 18:-0.880697 
1 1:-0.92 2:0.676896 3:0.819171 4:-0.319522 5:0.894595 6:-0.735541 7:-0.182927 8:-0.194082 9:-0.919469 10:0.491765 11:-0.261527 12:-0.540761 13:-0.745284 14:-0.843334 15:-0.978429 16:0.165265 17:-0.312058 18:-0.684839 
1 1:-0.905367 2:0.680142 3:0.828303 4:-0.52293 5:0.884261 6:-0.583891 7:-0.344677 8:-0.19314 9:-0.936384 10:0.452833 11:-0.685092 12:-0.799508 13:-0.853311 14:-0.965706 15:-0.996205 16:0.520162 17:-0.564236 18:-0.454262 
1 1:-0.973631 2:0.673345 3:0.751548 4:-0.443741 5:0.895663 6:-0.653518 7:-0.0471553 8:-0.168355 9:-0.931972 10:0.431982 11:0.0261495 12:-0.256492 13:-0.698862 14:-0.726004 15:-0.973824 16:0.237106 17:-0.392632 18:-0.871342 
1 1:-0.935578 2:0.578494 3:0.807794 4:-0.358969 5:0.900768 6:-0.638492 7:-0.151642 8:-0.165032 9:-0.93666 10:0.439335 11:0.0567056 12:-0.549058 13:-0.706745 14:-0.830064 15:-0.97357 16:0.128169 17:-0.37077 18:-0.876545 
1 1:-0.94421 2:0.642404 3:0.734149 4:-0.428176 5:0.896362 6:-0.63631 7:-0.168955 8:-0.182717 9:-0.938331 10:0.398791 11:0.232427 12:-0.281298 13:-0.668112 14:-0.852196 15:-0.973651 16:0.141895 17:-0.339155 18:-0.867807 
1 1:-0.5477 2:0.75085 3:0.872784 4:-0.45339 5:0.89746 6:-0.709927 7:-0.262541 8:-0.186937 9:-0.915322 10:0.480836 11:-0.339437 12:-0.700698 13:-0.899643 14:-0.919932 15:-0.9824 16:0.237572 17:-0.360066 18:-0.909396 
1 1:-0.226914 2:0.75511 3:0.868395 4:-0.365091 5:0.925879 6:-0.818122 7:-0.186985 8:-0.450415 9:-0.836016 10:0.640242 11:-0.443415 12:-0.609373 13:-0.869577 14:-0.884452 15:-0.992811 16:0.134898 17:-0.382078 18:-0.255409 
1 1:-0.019999 2:0.664317 3:0.890202 4:-0.548177 5:0.924203 6:-0.876404 7:-0.303859 8:-0.483931 9:-0.85812 10:0.586301 11:-0.541285 12:-0.701254 13:-0.889632 14:-0.9052 15:-0.992757 16:0.194533 17:-0.456313 18:-0.217185 
1 1:-0.651483 2:0.674258 3:0.675771 4:-0.265592 5:0.924965 6:-0.786901 7:-0.302673 8:-0.414153 9:-0.856044 10:0.384437 11:-0.533759 12:-0.336208 13:-0.558987 14:-0.511698 15:-0.979602 16:-0.0792195 17:-0.44605 18:-0.41062 
1 1:-0.248176 2:0.732589 3:0.870042 4:-0.576599 5:0.926146 6:-0.79574 7:-0.394586 8:-0.421501 9:-0.904637 10:0.508285 11:-0.189421 12:-0.693471 13:-0.827344 14:-0.882627 15:-0.987388 16:0.215032 17:-0.433332 18:-0.0242295 
1 1:-0.019999 2:0.718083 3:0.890264 4:-0.54753 5:0.924588 6:-0.836843 7:-0.286253 8:-0.482038 9:-0.876779 10:0.460841 11:-0.582397 12:-0.714193 13:-0.894426 14:-0.914651 15:-0.991958 16:0.184819 17:-0.397892 18:-0.3133 
1 1:-0.881046 2:0.676896 3:0.844554 4:-0.365847 5:0.935505 6:-0.795417 7:-0.226355 8:-0.470338 9:-0.854575 10:0.5517 11:-0.226359 12:-0.0786876 13:-0.672895 14:-0.720097 15:-0.989106 16:0.167472 17:-0.418595 18:-0.0417204 
1 1:-0.244696 2:0.674765 3:0.820014 4:-0.292521 5:0.932832 6:-0.798633 7:-0.27318 8:-0.45584 9:-0.849805 10:0.560161 11:0.0445561 12:0.0195469 13:-0.591478 14:-0.639018 15:-0.976292 16:0.02531 17:-0.266342 18:-0.408474 
1 1:-0.019999 2:0.696881 3:0.887986 4:-0.558539 5:0.924809 6:-0.817901 7:-0.24747 8:-0.493362 9:-0.880153 10:0.536187 11:-0.512887 12:-0.72023 13:-0.885328 14:-0.906719 15:-0.991786 16:0.191674 17:-0.399182 18:-0.249435 
1 1:-0.20227 2:0.67091 3:0.824735 4:-0.454246 5:0.931496 6:-0.807167 7:-0.27278 8:-0.452993 9:-0.849958 10:0.62065 11:0.272277 12:-0.581761 13:-0.665629 14:-0.801847 15:-0.980116 16:0.171259 17:-0.213459 18:-0.225676 
1 1:-0.765969 2:0.639158 3:0.806218 4:-0.299752 5:0.92764 6:-0.777531 7:-0.304477 8:-0.461138 9:-0.850549 10:0.448099 11:-0.164098 12:-0.704424 13:-0.798558 14:-0.505475 15:-0.977093 16:0.20621 17:-0.422857 18:-0.336966 
1 1:-0.019999 2:0.725691 3:0.891564 4:-0.486628 5:0.923092 6:-0.844365 7:-0.272349 8:-0.499977 9:-0.868562 10:0.516092 11:-0.579354 12:-0.695603 13:-0.894051 14:-0.905044 15:-0.992121 16:0.21423 17:-0.425386 18:-0.303451 
1 1:-0.0407242 2:0.70104 3:0.870507 4:-0.175768 5:0.923781 6:-0.817178 7:-0.302298 8:-0.355085 9:-0.83386 10:0.640292 11:-0.412603 12:-0.581846 13:-0.862426 14:-0.914643 15:-0.989479 16:0.185155 17:-0.395356 18:-0.24681 
1 1:-0.268435 2:0.745067 3:0.888872 4:-0.532523 5:0.919808 6:-0.777155 7:-0.352094 8:-0.433399 9:-0.877215 10:0.548527 11:-0.181453 12:-0.734919 13:-0.890502 14:-0.912396 15:-0.987152 16:0.214921 17:-0.432424 18:-0.0156924 
1 1:-0.566936 2:0.744154 3:0.582562 4:-0.468027 5:0.855625 6:-0.770256 7:-0.0084159 8:-0.579271 9:-0.743392 10:0.650365 11:0.311433 12:0.217615 13:-0.238502 14:-0.60347 15:-0.971838 16:0.108101 17:-0.172547 18:-0.45315 
1 1:-0.844008 2:0.624956 3:0.571652 4:-0.358429 5:0.869357 6:-0.859535 7:0.0248232 8:-0.559099 9:-0.818662 10:0.6483 11:-0.283482 12:0.210478 13:-0.264437 14:-0.768819 15:-0.965464 16:0.130349 17:-0.16293 18:-0.386645 
1 1:-0.598794 2:0.800659 3:0.731413 4:-0.129229 5:0.861842 6:-0.732949 7:-0.0106385 8:-0.516911 9:-0.790173 10:0.334475 11:0.205625 12:-0.44488 13:-0.598647 14:-0.723324 15:-0.966411 16:0.0290338 17:-0.0863495 18:-0.547382 
1 1:-0.6354 2:0.65336 3:0.67823 4:-0.460847 5:0.865198 6:-0.725316 7:-0.0133356 8:-0.502133 9:-0.787728 10:0.608764 11:0.0990912 12:-0.312854 13:-0.727653 14:-0.775125 15:-0.967625 16:0.0322955 17:-0.116226 18:-0.558297 
1 1:-0.501161 2:0.595638 3:0.885978 4:-0.455226 5:0.882954 6:-0.757883 7:0.00590611 8:-0.480506 9:-0.810138 10:0.495593 11:0.597098 12:-0.443371 13:-0.758912 14:-0.517693 15:-0.962797 16:0.220836 17:-0.198596 18:-0.530432 
1 1:-0.78848 2:0.555567 3:0.801141 4:-0.235778 5:0.863807 6:-0.736394 7:-0.00197287 8:-0.486897 9:-0.792572 10:0.637371 11:0.187672 12:-0.249119 13:-0.729027 14:-0.684888 15:-0.96954 16:-0.0394626 17:-0.130867 18:-0.584108 
1 1:-0.279779 2:0.792037 3:0.864169 4:-0.0891482 5:0.861433 6:-0.71847 7:0.00880923 8:-0.563492 9:-0.794224 10:0.640342 11:-0.174983 12:-0.433093 13:-0.584846 14:-0.877823 15:-0.967703 16:-0.262003 17:-0.119447 18:-0.485477 
1 1:-0.835182 2:0.435861 3:0.785832 4:-0.336571 5:0.862096 6:-0.776862 7:0.112366 8:-0.573017 9:-0.715027 10:0.536389 11:0.594749 12:-0.479465 13:-0.227637 14:-0.798999 15:-0.980758 16:0.267673 17:-0.0177625 18:-0.649904 
1 1:-0.338616 2:0.72559 3:0.677218 4:-0.431137 5:0.856212 6:-0.76399 7:0.0141847 8:-0.572092 9:-0.761455 10:0.632637 11:0.127282 12:0.220582 13:-0.813312 14:-0.835694 15:-0.96659 16:0.263097 17:-0.174529 18:-0.380532 
1 1:-0.229546 2:0.630738 3:0.876958 4:-0.528814 5:0.924315 6:-0.880254 7:-0.076948 8:-0.537933 9:-0.886783 10:0.440141 11:0.0162227 12:-0.384292 13:-0.837886 14:-0.873451 15:-0.981724 16:0.187595 17:-0.396355 18:-0.3491 
1 1:-0.788694 2:0.62739 3:0.65211 4:-0.262511 5:0.921274 6:-0.826736 7:-0.0990117 8:-0.546471 9:-0.879792 10:0.4276 11:0.0209016 12:-0.576756 13:-0.787168 14:-0.797448 15:-0.972263 16:0.180558 17:-0.21076 18:-0.379343 
1 1:-0.0888608 2:0.665838 3:0.887178 4:-0.550436 5:0.926098 6:-0.88225 7:-0.0119184 8:-0.522463 9:-0.888212 10:0.449861 11:-0.342155 12:-0.600421 13:-0.768739 14:-0.85805 15:-0.989621 16:0.18688 17:-0.392831 18:-0.339282 
1 1:-0.0363247 2:0.67365 3:0.876294 4:-0.547827 5:0.932281 6:-0.885578 7:-0.0521311 8:-0.52176 9:-0.888799 10:0.452329 11:0.0930454 12:-0.253364 13:-0.778306 14:-0.800537 15:-0.982126 16:0.188093 17:-0.391521 18:-0.333724 
1 1:-0.019999 2:0.650317 3:0.891849 4:-0.503782 5:0.923625 6:-0.822304 7:-0.262541 8:-0.48061 9:-0.859339 10:0.50209 11:-0.54489 12:-0.697566 13:-0.895032 14:-0.906303 15:-0.990746 16:0.207955 17:-0.451225 18:-0.104768 
1 1:-0.019999 2:0.728532 3:0.890615 4:-0.525931 5:0.925717 6:-0.853505 7:-0.120701 8:-0.504541 9:-0.874493 10:0.534777 11:-0.544608 12:-0.717575 13:-0.893076 14:-0.902209 15:-0.991856 16:0.214889 17:-0.420792 18:-0.289094 
1 1:-0.526193 2:0.616536 3:0.800963 4:-0.373075 5:0.918476 6:-0.851686 7:-0.0369163 8:-0.535107 9:-0.879016 10:0.425233 11:0.170057 12:-0.382028 13:-0.779304 14:-0.874265 15:-0.978264 16:0.180673 17:-0.322861 18:-0.430519 
1 1:-0.019999 2:0.719503 3:0.890763 4:-0.534498 5:0.92582 6:-0.817959 7:-0.012218 8:-0.500006 9:-0.872453 10:0.559708 11:-0.537066 12:-0.730499 13:-0.893524 14:-0.911358 15:-0.991561 16:0.199971 17:-0.411713 18:-0.311155 
1 1:-0.823502 2:0.624347 3:0.622295 4:-0.171339 5:0.916759 6:-0.869379 7:-0.0369788 8:-0.545465 9:-0.87923 10:0.424175 11:-0.029228 12:-0.274364 13:-0.553506 14:-0.804377 15:-0.969482 16:0.180594 17:-0.297163 18:-0.373585 
