svm_type c_svc
kernel_type rbf
gamma 0.0019531
nr_class 2
total_sv 908
rho -4796.812363697747
label 1 -1
nr_sv 455 453
SV
268435456  1:0.098838856 2:0.290343005 3:0.876118873 4:-0.098348887 5:-0.525042589 6:-0.942848821 7:-0.240835353 8:0.28344555 9:-0.774861897 10:-1 11:-0.697338819 12:-0.770521542 13:-0.323975295 14:0.189811821 15:-0.315328467 16:-0.89 17:-0.872357114 18:-0.857142857 19:0.77581174 20:-0.249766454 21:-0.082457559 
268435456  1:-0.083545738 2:0.453414229 3:0.874031288 4:0.235702321 5:-0.188415673 6:-0.821186228 7:0.191721052 8:0.492354454 9:-0.663215641 10:0.153545315 11:-0.203511492 12:-0.828571429 13:-0.022727273 14:-0.225738397 15:-0.390909091 16:-0.761666667 17:-0.863221639 18:-0.80952381 19:0.786404268 20:0.094692144 21:-0.047696039 
70620093.01  1:-0.106768621 2:0.455936034 3:0.835807119 4:0.252213448 5:-0.802157865 6:-0.701301658 7:-0.75163155 8:0.627201316 9:-0.849411728 10:-0.120727767 11:-0.05454599 12:-0.688888889 13:-0.25862069 14:-0.121344391 15:-0.653448276 16:-0.744642857 17:-0.745602399 18:-0.846938776 19:0.735810769 20:-0.033060358 21:-0.843977365 
268435456  1:-0.011611442 2:0.310104664 3:0.776126068 4:0.006221584 5:-0.845315162 6:-0.701301658 7:-0.642476226 8:0.27170483 9:-0.569505661 10:0.029586805 11:-0.515165326 12:-0.79047619 13:-0.212454212 14:0.129395218 15:-1 16:-0.74537037 17:-0.693580945 18:-1 19:0.638957722 20:-0.306440198 21:-0.700080841 
90970410.25  1:-0.194845653 2:0.446724828 3:0.647576886 4:0.292175162 5:-0.810789324 6:-0.051462242 7:-0.724967369 8:0.648687601 9:-0.829083017 10:0.298758715 11:0.203416183 12:-0.447619048 13:-0.386201427 14:-0.247814172 15:-0.44742268 16:-0.541666667 17:-0.449333872 18:-0.470899471 19:0.537345947 20:-0.077455375 21:-0.751818917 
268435456  1:0.426791277 2:0.305766776 3:0.357771122 4:-0.30605408 5:-0.9479841 6:-0.051462242 7:-0.695021443 8:0.026525068 9:-0.727767695 10:-0.054922632 11:-0.469179245 12:-0.346031746 13:-0.563820795 14:0.456669912 15:-0.705494505 16:-0.733870968 17:-0.181449985 18:-0.769585253 19:0.145421284 20:-0.640024656 21:-0.490703314 
3898439.592  1:-0.592466723 2:0.129853312 3:0.632281215 4:0.260588658 5:-0.691084611 6:-0.051462242 7:-0.576244639 8:0.499937272 9:-0.835856555 10:0.398571671 11:0.014771203 12:-0.650793651 13:-0.41382668 14:-0.445388025 15:-0.491139241 16:-0.493421053 17:-0.503091601 18:-0.436090226 19:0.516660538 20:-0.350988937 21:-0.742926435 
268435456  1:0.005947324 2:0.612894173 3:0.928036905 4:0.395549174 5:-0.379670642 6:-0.89466977 7:-0.245385046 8:0.685387407 9:-0.829144439 10:0.17752083 11:0.058439986 12:-0.870899471 13:-0.465423465 14:-0.13548992 15:-0.052525253 16:-0.88172043 17:-0.864768776 18:-0.731182796 19:0.872136897 20:0.225395521 21:-0.524656427 
268435456  1:-0.562163693 2:0.387348712 3:0.832176866 4:0.455372099 5:-0.784667802 6:-0.486992623 7:-0.599477904 8:0.657151111 9:-0.791864719 10:0.5839143 11:-0.02051321 12:-0.777777778 13:-0.054945055 14:-0.463666198 15:0.063492063 16:-0.607142857 17:-0.804602342 18:-0.433106576 19:0.751322188 20:0.371752098 21:-0.81083266 
268435456  1:-0.083262532 2:0.610422346 3:0.879611493 4:0.432160804 5:-0.633617263 6:-0.701301658 7:-0.303225806 8:0.642952209 9:-0.802227581 10:0.320183642 11:-0.291087966 12:-0.879365079 13:-0.365648051 14:-0.028495463 15:-1 16:-0.759375 17:-0.681368591 18:-1 19:0.806898442 20:0.138853503 21:-0.660468876 
268435456  1:-0.5913339 2:0.429635472 3:0.89796068 4:0.508973439 5:-0.53003975 6:-0.701301658 7:-0.408092486 8:0.698625716 9:-0.832757645 10:0.332256419 11:0.185491662 12:-0.777777778 13:0.138130687 14:-0.626695703 15:-0.423655914 16:-0.607142857 17:-0.899763539 18:-0.744897959 19:0.836676313 20:0.35729451 21:-0.488278092 
268435456  1:0.291985273 2:0.229065774 3:0.345432043 4:-0.331658291 5:-0.556615559 6:-0.051462242 7:-0.251873951 8:0.127934832 9:-0.781878067 10:0.513688148 11:-0.519153401 12:-0.676190476 13:-0.50997151 14:0.258321613 15:-0.503703704 16:-0.694444444 17:-0.271699637 18:-0.603174603 19:0.128734282 20:-0.717386176 21:-0.724333064 
268435456  1:-0.148683093 2:0.407260712 3:0.870576646 4:0.217994736 5:-0.813515048 6:-0.821186228 7:-0.610852135 8:0.488754848 9:-0.724642065 10:0.171569461 11:-0.129054241 12:-0.838730159 13:-0.191452991 14:-0.102672293 15:-0.553333333 16:-0.79137931 17:-0.822978297 18:-0.852216749 19:0.780564325 20:0.000658906 21:-0.751818917 
268435456  1:-0.638912489 2:0.669826868 3:0.920180323 4:0.727686049 5:0.035093697 6:-0.486992623 7:0.219690472 8:0.808436765 9:-0.560466246 10:0.657881313 11:0.340225758 12:-0.777777778 13:0.211267606 14:-0.636536519 15:-0.622535211 16:-0.432539683 17:-0.84266682 18:-0.77324263 19:0.885212092 20:0.68193307 21:-0.236054972 
268435456  1:-0.223166242 2:0.518953135 3:0.869288475 4:0.390763341 5:-0.597047132 6:-0.701301658 7:-0.189035987 8:0.599613 9:-0.687345323 10:0.339908179 11:-0.473388601 12:-0.853968254 13:-0.298368298 14:0.094233474 15:-0.593939394 16:-0.78125 17:-0.716794509 18:-0.837662338 19:0.790145791 20:0.282377919 21:-0.645109135 
268435456  1:0.067686208 2:0.407846266 3:0.712775631 4:0.085666427 5:-0.494151051 6:-0.486992623 7:-0.155920194 8:0.391370899 9:-0.66107078 10:0.34534943 11:-0.059137067 12:-0.71005291 13:-0.421153846 14:-0.048523207 15:-0.33 16:-0.743333333 17:-0.623415422 18:-0.619047619 19:0.56966319 20:-0.234309979 21:-0.466451091 
30652145.07  1:0.067686208 2:0.416533546 3:0.063537168 4:0.097631012 5:-0.934128336 6:1 7:-0.768562372 8:0.432504916 9:-0.904378403 10:0.38921952 11:0.020562333 12:0.238095238 13:-0.421153846 14:0.195147679 15:-0.4975 16:-0.287037037 17:0.438837303 18:-0.206349206 19:0.078721933 20:-0.106078478 21:-0.936135812 
268435456  1:-0.127468776 2:0.386207935 3:0.818504807 4:0.180898553 5:-0.820341492 6:-0.701301658 7:-0.741328685 8:0.533296045 9:-0.825559562 10:-0.206543884 11:-0.212825532 12:-0.672314683 13:-0.188696383 14:-0.044685974 15:-0.698223962 16:-0.737671059 17:-0.743052904 18:-0.872641257 19:0.707731813 20:-0.056354813 21:-0.803530004 
268435456  1:-0.560658513 2:0.440316893 3:0.896343294 4:0.50230523 5:-0.539075768 6:-0.701301658 7:-0.397957425 8:0.691539537 9:-0.813471521 10:0.357086896 11:0.185921742 12:-0.781528939 13:0.136157633 14:-0.591617711 15:-0.424655059 16:-0.613332274 17:-0.8930169 18:-0.748917061 19:0.834051547 20:0.361658521 21:-0.501810476 
268435456  1:-0.3103946 2:0.525970558 3:0.876287264 4:0.445977468 5:-0.611438836 6:-0.674356268 7:-0.310951058 8:0.616570336 9:-0.636539548 10:0.522723853 11:0.14779401 12:-0.783409018 13:0.135110693 14:-0.282328459 15:-0.434052602 16:-0.650474642 17:-0.825926679 18:-0.777437844 19:0.80409757 20:0.409485034 21:-0.62855334 
268435456  1:-0.27811132 2:0.536418979 3:0.881393427 4:0.438366019 5:-0.624285562 6:-0.702852371 7:-0.309119099 8:0.624877603 9:-0.638030788 10:0.579084116 11:0.185734217 12:-0.816168674 13:0.114089178 14:-0.268287872 15:-0.435348951 16:-0.671570048 17:-0.831140514 18:-0.786574499 19:0.809639265 20:0.396427217 21:-0.627338617 
268435456  1:-0.245493774 2:0.526505237 3:0.874116033 4:0.41066634 5:-0.606806812 6:-0.701301658 7:-0.23481319 8:0.610275291 9:-0.667458489 10:0.436294666 11:-0.211941167 12:-0.838951394 13:-0.134202276 14:-0.049525275 15:-0.530814743 16:-0.737396075 17:-0.76191102 18:-0.817184801 19:0.797980167 20:0.329379735 21:-0.637461098 
268435456  1:-0.279639335 2:0.532189831 3:0.878226567 4:0.434678818 5:-0.621036867 6:-0.696590765 7:-0.305317494 8:0.62451795 9:-0.639755961 10:0.577879597 11:0.180327871 12:-0.813546902 13:0.118066575 14:-0.270170797 15:-0.442423436 16:-0.666776006 17:-0.828787506 18:-0.788331164 19:0.80534693 20:0.390644169 21:-0.629456875 
268435456  1:-0.127268582 2:0.594232086 3:0.880042202 4:0.434196729 5:-0.630972696 6:-0.701301658 7:-0.303659993 8:0.639304733 9:-0.765210087 10:0.379346681 11:-0.183404711 12:-0.865149319 13:-0.257339252 14:-0.082670487 15:-0.87322946 16:-0.739364097 17:-0.714926206 18:-0.95202181 19:0.807597416 20:0.197685018 21:-0.652685834 
268435456  1:-0.201469122 2:0.483283605 3:0.865067408 4:0.335452117 5:-0.565935661 6:-0.723703268 7:-0.161942532 8:0.565398119 9:-0.708603628 10:0.263270549 11:-0.450227863 12:-0.843527832 13:-0.27654935 14:0.080388393 15:-0.592374932 16:-0.784753622 17:-0.734107521 18:-0.843729215 19:0.780812937 20:0.211110786 21:-0.561271461 
268435456  1:0.102895068 2:0.354286815 3:0.777542114 4:-0.011296699 5:-0.717418791 6:-0.712211794 7:-0.450211216 8:0.349307399 9:-0.830129876 10:-0.293414377 11:-0.686311888 12:-0.728950613 13:-0.304562056 14:0.117351729 15:-0.565030129 16:-0.789891804 17:-0.722194678 18:-0.833698315 19:0.640107639 20:-0.252270102 21:-0.607345146 
268435456  1:0.180542479 2:0.310159898 3:0.861753662 4:-0.119926749 5:-0.510649533 6:-0.924317084 7:-0.227287526 8:0.296286326 9:-0.783311758 10:-0.887695501 11:-0.680660213 12:-0.776268973 13:-0.416769496 14:0.250235339 15:-0.33714954 16:-0.904137269 17:-0.840982633 18:-0.85170283 19:0.753678886 20:-0.310600968 21:-0.183306946 
268435456  1:0.246610015 2:0.461293578 3:0.703644151 4:0.057275874 5:-0.36995987 6:-0.486992623 7:-0.148877796 8:0.367098576 9:-0.623137842 10:-0.165728813 11:-0.241743005 12:-0.525913881 13:-0.51341284 14:0.241756784 15:-0.506242763 16:-0.79569787 17:-0.539114389 18:-0.734134512 19:0.555770407 20:-0.193437139 21:-0.198694545 
268435456  1:0.199759617 2:0.437108351 3:0.737125462 4:0.049367317 5:-0.492535406 6:-0.576365078 7:-0.286805495 8:0.501437802 9:-0.679536372 10:-0.050453914 11:-0.145912802 12:-0.613834199 13:-0.523831877 14:0.136185335 15:-0.378037621 16:-0.816506117 17:-0.615216117 18:-0.701640658 19:0.595749341 20:-0.244250579 21:-0.30486374 
268435456  1:0.141358101 2:0.384810056 3:0.754649071 4:0.009681678 5:-0.632403115 6:-0.644957788 7:-0.378267087 8:0.356208385 9:-0.777522805 10:-0.236743256 11:-0.569594695 12:-0.673567605 13:-0.359071204 14:0.148404645 15:-0.558810402 16:-0.788085073 17:-0.668572051 18:-0.80705038 19:0.613161166 20:-0.236766851 21:-0.517404122 
268435456  1:0.208823367 2:0.450619548 3:0.73869868 4:0.063920711 5:-0.415753646 6:-0.570182988 7:-0.175941353 8:0.370924261 9:-0.677994322 10:-0.091189336 11:-0.292680383 12:-0.609788691 13:-0.510259927 14:0.25747173 15:-0.546219151 16:-0.815409194 17:-0.588151627 18:-0.77394908 19:0.600753715 20:-0.184572588 21:-0.358836814 
268435456  1:0.067681382 2:0.383256914 3:0.795187151 4:0.048963419 5:-0.724456416 6:-0.726618574 7:-0.475425282 8:0.375196705 9:-0.827274883 10:-0.208784387 11:-0.593540364 12:-0.748437073 13:-0.3081454 14:0.077518538 15:-0.579577658 16:-0.791810539 17:-0.732868674 18:-0.837774446 19:0.667539404 20:-0.200076163 21:-0.672463924 
268435456  1:-0.091626708 2:0.410321041 3:0.864634937 4:0.187248721 5:-0.271657378 6:-0.821186228 7:0.110669783 8:0.46627997 9:-0.710621713 10:0.076616714 11:-0.253679594 12:-0.818094263 13:-0.07734551 14:-0.141209808 15:-0.457828978 16:-0.774844976 17:-0.844734856 18:-0.830359082 19:0.770520087 20:0.028098898 21:-0.098832568 
268435456  1:-0.075246205 2:0.468204303 3:0.879039736 4:0.250526422 5:-0.206152543 6:-0.828001048 7:0.151184096 8:0.510256214 9:-0.678603778 10:0.15576879 11:-0.179218269 12:-0.832496906 13:-0.063782651 14:-0.217368807 15:-0.359527578 16:-0.77280038 17:-0.86336512 18:-0.802258511 19:0.794355061 20:0.106813497 21:-0.091929058 
268435456  1:-0.124566235 2:0.472669556 3:0.87263785 4:0.281259241 5:-0.308471574 6:-0.785964148 7:0.079854653 8:0.523867009 9:-0.67030494 10:0.208298715 11:-0.282801372 12:-0.836033015 13:-0.103710592 14:-0.131730678 15:-0.450559383 16:-0.767420249 17:-0.820201356 18:-0.817790908 19:0.787503528 20:0.149834215 21:-0.223215975 
268435456  1:-0.274651228 2:0.535886371 3:0.881338034 4:0.435853632 5:-0.610419756 6:-0.704451268 7:-0.292110816 8:0.623132916 9:-0.637587261 10:0.573104351 11:0.179524733 12:-0.816206629 13:0.114393536 14:-0.269283313 15:-0.432675912 16:-0.672408269 17:-0.832087503 18:-0.78633981 19:0.809399839 20:0.39355014 21:-0.610521828 
268435456  1:-0.144572342 2:0.451766784 3:0.869277962 4:0.269457976 5:-0.237140951 6:-0.774785656 7:0.116342269 8:0.499858643 9:-0.659167916 10:0.145235016 11:-0.19534671 12:-0.790958828 13:0.015616907 14:-0.245055604 15:-0.397140435 16:-0.727377795 17:-0.85290656 18:-0.797078464 19:0.783142835 20:0.145998479 21:-0.131091866 
268435456  1:0.10042896 2:0.368216877 3:0.786110788 4:0.009775095 5:-0.695544923 6:-0.72336357 7:-0.422891718 8:0.358105897 9:-0.834965822 10:-0.184295258 11:-0.640571827 12:-0.753156754 13:-0.33933047 14:0.147224326 15:-0.592285111 16:-0.801335965 17:-0.719493797 18:-0.843174589 19:0.652692423 20:-0.235245959 21:-0.672490803 
268435456  1:-0.07193557 2:0.304072452 3:0.854284519 4:0.039853057 5:-0.524381703 6:-0.854352934 7:-0.342341421 8:0.477854128 9:-0.8386356 10:-0.719731205 11:-0.508740198 12:-0.687127601 13:-0.176620298 14:-0.035246117 15:-0.128014491 16:-0.825308914 17:-0.861011073 18:-0.762073933 19:0.749173396 20:-0.069436576 21:-0.233580168 
268435456  1:-0.101014186 2:0.45924102 3:0.841631264 4:0.253094508 5:-0.790511173 6:-0.717650139 7:-0.721764226 8:0.604436424 9:-0.843606925 10:-0.106652663 11:-0.08105716 12:-0.707937189 13:-0.267667386 14:-0.112770162 15:-0.644768098 16:-0.754464637 17:-0.752921422 18:-0.848330291 19:0.743743969 20:-0.029188931 21:-0.84111109 
268435456  1:-0.136120627 2:0.421849517 3:0.86015564 4:0.228250654 5:-0.810111111 6:-0.785254825 7:-0.653046071 8:0.530249561 9:-0.762037612 10:0.083963111 11:-0.106722877 12:-0.793820233 13:-0.21158427 14:-0.108268632 15:-0.58333945 16:-0.777371617 17:-0.799787451 18:-0.850634852 19:0.767150939 20:-0.009447319 21:-0.779440339 
268435456  1:-0.030256126 2:0.272156416 3:0.767726916 4:-0.028462859 5:-0.820119787 6:-0.701301658 7:-0.603647993 8:0.244058629 9:-0.606410378 10:0.042474498 11:-0.492866991 12:-0.779938474 13:-0.212454212 14:0.172190796 15:-0.955873313 16:-0.752413809 17:-0.692966741 18:-0.983534818 19:0.625327208 20:-0.307458173 21:-0.727362196 
268435456  1:0.020592914 2:0.31190784 3:0.7481766 4:-0.013620771 5:-0.82603955 6:-0.649340362 7:-0.609979488 8:0.379089704 9:-0.647785311 10:0.020929004 11:-0.467873603 12:-0.742240829 13:-0.232767838 14:0.179277319 15:-1 16:-0.737653194 17:-0.651857719 18:-1 19:0.603002657 20:-0.311738105 21:-0.713213256 
268435456  1:-0.279136335 2:0.50450794 3:0.863784618 4:0.40719696 5:-0.586280196 6:-0.661307342 7:-0.219296029 8:0.589682831 9:-0.677401686 10:0.293959273 11:-0.412049873 12:-0.798673489 13:-0.195389685 14:0.00855606 15:-0.564425483 16:-0.731507582 17:-0.730256186 18:-0.815683302 19:0.785063847 20:0.316313035 21:-0.645712594 
268435456  1:0.042361231 2:0.504898092 3:0.830553131 4:0.230812015 5:-0.611593164 6:-0.701301658 7:-0.406211858 8:0.401048734 9:-0.865621966 10:-0.020684017 11:-0.211836843 12:-0.789590872 13:-0.536923077 14:-0.16926497 15:-0.406663069 16:-0.82129097 17:-0.724701938 18:-0.710106787 19:0.727284365 20:-0.216125728 21:-0.830569933 
268435456  1:-0.059466141 2:0.405726832 3:0.843023669 4:0.160904971 5:-0.766486367 6:-0.782999531 7:-0.569086425 8:0.552737033 9:-0.735580856 10:0.154779128 11:-0.090823525 12:-0.807180632 13:-0.301495189 14:-0.075075417 15:-0.439512349 16:-0.808381985 17:-0.791115725 18:-0.789199357 19:0.739567996 20:-0.100186116 21:-0.658088512 
268435456  1:0.076915199 2:0.493851517 3:0.846603877 4:0.193730631 5:-0.541563233 6:-0.785289082 7:-0.377945557 8:0.687783099 9:-0.789457266 10:0.144337214 11:0.020274051 12:-0.796675246 13:-0.505867966 14:-0.067918295 15:-0.133683239 16:-0.860812283 17:-0.784546316 18:-0.687737295 19:0.747534467 20:-0.080815012 21:-0.486701847 
268435456  1:0.095554769 2:0.410497199 3:0.791863046 4:0.070895708 5:-0.686386887 6:-0.701301658 7:-0.520660732 8:0.680226313 9:-0.772595843 10:0.082792483 11:-0.015882796 12:-0.732036548 13:-0.495030093 14:-0.031886213 15:-0.264859896 16:-0.829687677 17:-0.726358088 18:-0.683364159 19:0.664496386 20:-0.273355676 21:-0.5157264 
41411677.76  1:0.156443863 2:0.353144591 3:0.764765499 4:-0.040687967 5:-0.706916976 6:-0.701301658 7:-0.464501476 8:0.404569773 9:-0.656225367 10:-0.037455811 11:-0.466212984 12:-0.762443156 13:-0.351541193 14:0.2220994 15:-0.879257714 16:-0.791394007 17:-0.669990936 18:-0.950723181 19:0.620521289 20:-0.361786471 21:-0.639403031 
268435456  1:0.051416268 2:0.494479752 3:0.825826907 4:0.211282957 5:-0.617112695 6:-0.701301658 7:-0.413688002 8:0.430393547 9:-0.854778015 10:-0.006494185 11:-0.191213752 12:-0.784515739 13:-0.536923077 14:-0.153683028 15:-0.385240936 16:-0.823677317 17:-0.724523571 18:-0.704439766 19:0.71961444 20:-0.226275471 21:-0.792638754 
268435456  1:0.037456305 2:0.484051852 3:0.792330206 4:0.20608071 5:-0.556774285 6:-0.617711078 7:-0.296381138 8:0.349366869 9:-0.803540763 10:0.098920506 11:-0.18594512 12:-0.766852773 13:-0.491767644 14:-0.147608411 15:-0.411733712 16:-0.786987988 17:-0.685486638 18:-0.683841169 19:0.678326295 20:-0.206648413 21:-0.750471277 
268435456  1:-0.255452768 2:0.464326063 3:0.673517152 4:0.346785832 5:-0.791417236 6:-0.051462242 7:-0.527362902 8:0.607090507 9:-0.810448592 10:0.555495883 11:0.076890608 12:-0.628117707 13:-0.196836212 14:-0.326310405 15:-0.542436586 16:-0.421020861 17:-0.519471118 18:-0.575354714 19:0.572426788 20:0.05364283 21:-0.810231099 
268435456  1:-0.410576011 2:0.274805353 3:0.639278179 4:0.275037821 5:-0.745843217 6:-0.051462242 7:-0.64427746 8:0.567982719 9:-0.832758018 10:0.352912497 11:0.101066353 12:-0.557851963 13:-0.401189581 14:-0.355008386 15:-0.471141215 16:-0.515490882 17:-0.478500269 18:-0.452013623 19:0.526123024 20:-0.225861729 21:-0.746994277 
268435456  1:-0.216144903 2:0.409949406 3:0.634670415 4:0.265505551 5:-0.803462183 6:-0.051462242 7:-0.683478293 8:0.608048473 9:-0.789585092 10:0.310684136 11:0.139671526 12:-0.438414057 13:-0.321602977 14:-0.229361547 15:-0.35329121 16:-0.530210024 17:-0.4720899 18:-0.432875981 19:0.519891621 20:-0.040531909 21:-0.745958828 
268435456  1:0.398219318 2:0.355445734 3:0.619285393 4:-0.203739851 5:-0.784454867 6:-0.486992623 7:-0.484686905 8:0.34042774 9:-0.932819065 10:0.086924664 11:-0.398668872 12:-0.649711462 13:-0.725416428 14:0.392063686 15:-0.290216426 16:-0.887205771 17:-0.495634731 18:-0.625959962 19:0.427425608 20:-0.519300664 21:-0.884441722 
268435456  1:-0.0895146 2:0.458549792 3:0.876161558 4:0.246610696 5:-0.745447203 6:-0.821186228 7:-0.555814539 8:0.468713554 9:-0.782467312 10:0.038559129 11:-0.213397641 12:-0.831584024 13:-0.28536871 14:-0.071577561 15:-0.578982852 16:-0.809167641 17:-0.806303083 18:-0.855682008 19:0.79000541 20:-0.003090342 21:-0.801862079 
268435456  1:-0.068980899 2:0.510902098 3:0.878774454 4:0.299605446 5:-0.697137685 6:-0.792901546 7:-0.478492574 8:0.503366681 9:-0.805755369 10:0.062159872 11:-0.258894994 12:-0.840555308 13:-0.334560215 14:-0.051397232 15:-0.686576447 16:-0.803149693 17:-0.771455743 18:-0.890847519 19:0.797032075 20:0.02919118 21:-0.784622102 
268435456  1:-0.061605505 2:0.46356037 3:0.870328703 4:0.235303243 5:-0.717711556 6:-0.813845253 7:-0.531312997 8:0.448632672 9:-0.806453647 10:-0.018721835 11:-0.254836197 12:-0.82001815 13:-0.315127339 14:-0.043724382 15:-0.589002708 16:-0.813459187 17:-0.794937973 18:-0.856518023 19:0.781380643 20:-0.020702738 21:-0.811177348 
268435456  1:-0.23035814 2:0.418424276 3:0.646210793 4:0.289354095 5:-0.80009821 6:-0.051462242 7:-0.711684587 8:0.635402354 9:-0.829687978 10:0.307673248 11:0.186567849 12:-0.465765057 13:-0.388668705 14:-0.265459965 15:-0.451327111 16:-0.537357736 17:-0.454135103 18:-0.467790574 19:0.535498484 20:-0.101885311 21:-0.751024708 
268435456  1:-0.312134665 2:0.42616303 3:0.674343121 4:0.348602362 5:-0.774233267 6:-0.051462242 7:-0.487559492 8:0.583873402 9:-0.809322805 10:0.595408008 11:0.039601784 12:-0.672981745 13:-0.180189432 14:-0.359619906 15:-0.558063662 16:-0.402095877 17:-0.533721453 18:-0.582064532 19:0.573543804 20:0.033024523 21:-0.815319129 
268435456  1:0.053787012 2:0.532647111 3:0.873142621 4:0.259502602 5:-0.488802993 6:-0.820935873 7:-0.334744541 8:0.687002351 9:-0.80239118 10:0.15515164 11:0.032712198 12:-0.820864666 13:-0.492687242 14:-0.089939656 15:-0.107234129 16:-0.867626176 17:-0.810690541 18:-0.701896034 19:0.788141972 20:0.018977951 21:-0.499071114 
268435456  1:-0.002075494 2:0.597794425 3:0.922402942 4:0.37997701 5:-0.418020155 6:-0.886309594 7:-0.278062712 8:0.659775346 9:-0.826607412 10:0.155331839 11:0.023467937 12:-0.866083837 13:-0.449443112 14:-0.126727295 15:-0.113650193 16:-0.874319305 17:-0.857317399 18:-0.745513191 19:0.863245661 20:0.19922101 21:-0.558594094 
268435456  1:-0.134746405 2:0.555206995 3:0.891960753 4:0.392610296 5:-0.513156885 6:-0.775926557 7:-0.210782297 8:0.632715182 9:-0.742068641 10:0.27723942 11:-0.268144548 12:-0.860502374 13:-0.362838469 14:0.005578291 15:-0.38499607 16:-0.820023693 17:-0.773900951 18:-0.7965696 19:0.821787916 20:0.26038719 21:-0.598623853 
268435456  1:-0.061892435 2:0.595140362 3:0.916997137 4:0.406399727 5:-0.437154867 6:-0.848763109 7:-0.259577142 8:0.671445535 9:-0.783503544 10:0.274121994 11:0.089639679 12:-0.857835886 13:-0.326893384 14:-0.167532135 15:-0.143042657 16:-0.831456828 17:-0.856810634 18:-0.744128873 19:0.857390068 20:0.267230666 21:-0.548646477 
268435456  1:-0.066648161 2:0.511804197 3:0.868635673 4:0.303232807 5:-0.651776463 6:-0.770129698 7:-0.571436612 8:0.647912252 9:-0.842197727 10:-0.014568244 11:-0.014329414 12:-0.753674295 13:-0.332230706 14:-0.126379394 15:-0.439553887 16:-0.79343467 17:-0.788018846 18:-0.805736236 19:0.78433511 20:0.058935222 21:-0.730317288 
268435456  1:-0.002691776 2:0.612654801 3:0.923347378 4:0.399094652 5:-0.404262883 6:-0.875943964 7:-0.250986356 8:0.681277974 9:-0.826537805 10:0.191336325 11:0.02459163 12:-0.871719282 13:-0.455761194 14:-0.125128556 15:-0.144278895 16:-0.869872474 17:-0.847008266 18:-0.757215107 19:0.865819192 20:0.217014775 21:-0.537808531 
268435456  1:-0.506080116 2:0.417294279 3:0.841980758 4:0.452567841 5:-0.752319012 6:-0.529560182 7:-0.541019422 8:0.651095038 9:-0.761083706 10:0.584015623 11:0.021272465 12:-0.78534452 13:-0.020574992 14:-0.425289873 15:-0.035284122 16:-0.619627982 17:-0.809894785 18:-0.503143984 19:0.762981213 20:0.377683396 21:-0.774061778 
268435456  1:-0.557757591 2:0.393459155 3:0.833035851 4:0.458015888 5:-0.757011278 6:-0.486992623 7:-0.571485564 8:0.644665431 9:-0.774074291 10:0.5286472 11:-0.034514528 12:-0.752963323 13:-0.020177963 14:-0.452527797 15:0.007203687 16:-0.596721628 17:-0.802835318 18:-0.46543795 19:0.752629063 20:0.382176679 21:-0.792513752 
268435456  1:-0.498908649 2:0.344783391 3:0.805519337 4:0.372819976 5:-0.834085536 6:-0.486992623 7:-0.668516291 8:0.607738037 9:-0.835602106 10:0.460867782 11:-0.082773879 12:-0.741003247 13:0.041012408 14:-0.466853504 15:-0.144023362 16:-0.565005374 17:-0.804602342 18:-0.542554584 19:0.710764987 20:0.252065705 21:-0.846535095 
268435456  1:-0.561821816 2:0.387444797 3:0.831998319 4:0.455261451 5:-0.784669673 6:-0.486480189 7:-0.599331134 8:0.657079176 9:-0.791880745 10:0.583961315 11:-0.020438255 12:-0.777658253 13:-0.055052661 14:-0.463529186 15:0.062749369 16:-0.606886065 17:-0.804288841 18:-0.433306674 19:0.751122697 20:0.371418899 21:-0.810850256 
268435456  1:-0.492857339 2:0.286051469 3:0.785731394 4:0.311587268 5:-0.733746355 6:-0.486992623 7:-0.531145012 8:0.604323294 9:-0.732672654 10:0.372361377 11:-0.070693053 12:-0.674192281 13:0.079820185 14:-0.450381582 15:-0.031414254 16:-0.57280704 17:-0.811256032 18:-0.502471864 19:0.680659285 20:0.229310258 21:-0.558240954 
61350107  1:-0.188765002 2:0.541444706 3:0.871826825 4:0.400942656 5:-0.606039444 6:-0.701301658 7:-0.21711438 8:0.610269776 9:-0.715593981 10:0.335058068 11:-0.428562285 12:-0.860213137 13:-0.314911869 14:0.064055378 15:-0.693786555 16:-0.775871107 17:-0.70808355 18:-0.877579913 19:0.794265138 20:0.247086376 21:-0.648885977 
268435456  1:-0.103364294 2:0.547996912 3:0.876835358 4:0.36635404 5:-0.688894419 6:-0.738138565 7:-0.397750086 8:0.595572017 9:-0.778387896 10:0.274518993 11:-0.241299896 12:-0.866879196 13:-0.31212317 14:-0.051287762 15:-0.862752825 16:-0.769208958 17:-0.724880976 18:-0.954590671 19:0.798806763 20:0.096390478 21:-0.688537985 
268435456  1:-0.09511501 2:0.532525694 3:0.857524008 4:0.341425927 5:-0.718600511 6:-0.701301658 7:-0.529325489 8:0.635010134 9:-0.826019249 10:0.097862828 11:-0.171816376 12:-0.783321247 13:-0.311681631 14:-0.075312689 15:-0.825258182 16:-0.75194661 17:-0.713757212 18:-0.92282192 19:0.771053896 20:0.052169356 21:-0.752999384 
268435456  1:-0.087704441 2:0.557700714 3:0.87346611 4:0.369161639 5:-0.59570094 6:-0.723686361 7:-0.254831412 8:0.600670905 9:-0.802019166 10:0.247286793 11:-0.301983664 12:-0.864190472 13:-0.331283174 14:-0.019414295 15:-0.922617568 16:-0.766960451 17:-0.705283222 18:-0.975750805 19:0.794444596 20:0.094438863 21:-0.573826521 
268435456  1:-0.036674638 2:0.415154303 3:0.812324757 4:0.155213015 5:-0.771264284 6:-0.701301658 7:-0.523808108 8:0.401565326 9:-0.650910637 10:0.13123614 11:-0.436784174 12:-0.821569084 13:-0.266040659 14:0.074165839 15:-1 16:-0.750269121 17:-0.689309124 18:-1 19:0.697702555 20:-0.150678665 21:-0.686224772 
268435456  1:-0.206688152 2:0.459801411 3:0.86007888 4:0.351902657 5:-0.661750679 6:-0.701301658 7:-0.359225279 8:0.589499251 9:-0.805033456 10:0.345574454 11:-0.240536909 12:-0.868340837 13:-0.234524619 14:-0.10577221 15:-0.946879763 16:-0.725206963 17:-0.718707006 18:-0.977532115 19:0.775200054 20:0.06370334 21:-0.67988607 
268435456  1:-0.384561792 2:0.269113619 3:0.757638678 4:0.224550301 5:-0.917669829 6:-0.486992623 7:-0.786049985 8:0.518249174 9:-0.908751398 10:0.242209115 11:-0.195689368 12:-0.676892172 13:0.203444323 14:-0.462618564 15:-0.523301178 16:-0.49285131 17:-0.800355117 18:-0.742618502 19:0.637918567 20:0.035110054 21:-0.906208522 
268435456  1:-0.361298735 2:0.509735599 3:0.885831876 4:0.458968451 5:-0.597800977 6:-0.701301658 7:-0.332089519 8:0.645486362 9:-0.688130725 10:0.518460516 11:0.188716843 12:-0.805907792 13:0.12333473 14:-0.363645338 15:-0.431148518 16:-0.653557381 17:-0.849170396 18:-0.77503726 19:0.816993154 20:0.390020288 21:-0.589757631 
268435456  1:-0.609581217 2:0.411065209 3:0.905028943 4:0.506224228 5:-0.530921386 6:-0.731323235 7:-0.406494474 8:0.694503106 9:-0.815931342 10:0.242629751 11:0.196101976 12:-0.772520429 13:0.159997525 14:-0.646221582 15:-0.416050035 16:-0.623275187 17:-0.91286775 18:-0.756378001 19:0.846352631 20:0.355724157 21:-0.420000555 
268435456  1:-0.572745822 2:0.402689157 3:0.85604138 4:0.474817155 5:-0.692295919 6:-0.564737903 7:-0.530048667 8:0.672196929 9:-0.806699521 10:0.492619912 11:0.054219553 12:-0.777777778 13:0.015097384 14:-0.522808709 15:-0.113231497 16:-0.607142857 17:-0.839124143 18:-0.546215705 19:0.78228626 20:0.366507292 21:-0.693818951 
268435456  1:-0.587201851 2:0.412426204 3:0.893611674 4:0.491031885 5:-0.540212154 6:-0.701301658 7:-0.412583269 8:0.686447662 9:-0.831702175 10:0.336089778 11:0.170197416 12:-0.780994327 13:0.135563702 14:-0.60991874 15:-0.443554525 16:-0.6088735 17:-0.895236059 18:-0.753888313 19:0.829618554 20:0.333072188 21:-0.500400607 
24534969.79  1:-0.60576628 2:0.320597802 3:0.879617282 4:0.433259917 5:-0.579456051 6:-0.701301658 7:-0.44662061 8:0.692808267 9:-0.825036366 10:0.26390829 11:0.097024733 12:-0.75698676 13:0.226230471 14:-0.603993148 15:-0.456792895 16:-0.597650864 17:-0.900737331 18:-0.766651954 19:0.806907835 20:0.298654239 21:-0.521533531 
240501271.4  1:0.294041739 2:0.231734549 3:0.351979997 4:-0.328868853 5:-0.562032574 6:-0.062039337 7:-0.256996422 8:0.135301863 9:-0.785914919 10:0.501997553 11:-0.515739084 12:-0.674956924 13:-0.516456674 14:0.258715632 15:-0.4901612 16:-0.699638854 17:-0.278170554 18:-0.599319754 19:0.135831878 20:-0.713036662 21:-0.730340645 
268435456  1:0.06981852 2:0.40614668 3:0.709283458 4:0.081699106 5:-0.494744873 6:-0.482852229 7:-0.156832384 8:0.388866529 9:-0.662219242 10:0.346949752 11:-0.063510239 12:-0.709730995 13:-0.421998196 14:-0.045606169 15:-0.331651324 16:-0.742868568 17:-0.620071816 18:-0.618896721 19:0.565471475 20:-0.23890237 21:-0.468902661 
268435456  1:-0.130889448 2:0.422684794 3:0.872256188 4:0.226600367 5:-0.793045115 6:-0.821186228 7:-0.594300768 8:0.482727862 9:-0.742031758 10:0.131569479 11:-0.154418696 12:-0.836581113 13:-0.219696114 14:-0.093321224 15:-0.561046872 16:-0.796728766 17:-0.817963587 18:-0.853258851 19:0.783403527 20:-0.000468599 21:-0.766868316 
268435456  1:-0.13911263 2:0.418374901 3:0.862637611 4:0.225808002 5:-0.810921827 6:-0.793812607 7:-0.642996741 8:0.520366765 9:-0.753131114 10:0.104828316 11:-0.112041538 12:-0.804516431 13:-0.206789603 14:-0.106935751 15:-0.576192893 16:-0.780707829 17:-0.805310815 18:-0.851011613 19:0.770345605 20:-0.007040319 21:-0.772861745 
268435456  1:-0.093411344 2:0.448852415 3:0.861506417 4:0.239561359 5:-0.741713363 6:-0.781462599 7:-0.536414462 8:0.43366864 9:-0.780972727 10:0.095282008 11:-0.174774062 12:-0.826948862 13:-0.305924149 14:-0.13855678 15:-0.523732825 16:-0.799174141 17:-0.790572714 18:-0.81015464 19:0.769712251 20:-0.062171011 21:-0.811552806 
268435456  1:0.375225653 2:0.415734514 3:0.655286477 4:-0.092277796 5:-0.571404266 6:-0.486992623 7:-0.268293465 8:0.278740694 9:-0.711094631 10:0.115004972 11:-0.611071873 12:-0.660936749 13:-0.502957155 14:0.568946375 15:-0.720830267 16:-0.811294587 17:-0.483219827 18:-0.860110849 19:0.482198248 20:-0.236413843 21:-0.570024198 
268435456  1:-0.630311555 2:0.626406697 3:0.916163606 4:0.688148667 5:-0.067067294 6:-0.525733957 7:0.106204128 8:0.788585868 9:-0.609689238 10:0.599017054 11:0.312253978 12:-0.777777778 13:0.19804641 14:-0.634757563 15:-0.586583161 16:-0.46410326 17:-0.852988378 18:-0.768118673 19:0.876438123 20:0.623247114 21:-0.281650156 
268435456  1:-0.435092324 2:0.595068136 3:0.898246185 4:0.565113434 5:-0.337748053 6:-0.608629733 7:-0.078205999 8:0.705265071 9:-0.603845977 10:0.616188789 11:0.2548811 12:-0.7993998 13:0.158383841 14:-0.428758486 15:-0.515414842 16:-0.567316953 17:-0.836185451 18:-0.780321269 19:0.842534867 20:0.522829877 21:-0.457213123 
268435456  1:-0.180829247 2:0.491323198 3:0.882115207 4:0.321883036 5:-0.149263571 6:-0.762645585 7:0.196620451 8:0.547722545 9:-0.645217045 10:0.241889775 11:-0.10826512 12:-0.819673913 13:0.018261574 14:-0.297697841 15:-0.431483003 16:-0.704013543 17:-0.859621055 18:-0.803168441 19:0.80371242 20:0.197559048 21:-0.080690844 
101376214.7  1:-0.66258219 2:0.548080221 3:0.928066686 4:0.647688239 5:-0.158052718 6:-0.624938872 7:0.010749503 8:0.762294877 9:-0.615929928 10:0.352363266 11:0.31099272 12:-0.766319702 13:0.234177628 14:-0.675762146 15:-0.538663608 16:-0.526779828 17:-0.890546551 18:-0.788671668 19:0.889877931 20:0.568662208 21:-0.172593256 
268435456  1:-0.643187267 2:0.65926695 3:0.918219359 4:0.721621581 5:-0.017435241 6:-0.486992623 7:0.175160921 8:0.755465575 9:-0.570372076 10:0.660268366 11:0.310561161 12:-0.78198459 13:0.224658622 14:-0.638988807 15:-0.613340434 16:-0.430944729 17:-0.845170325 18:-0.76992844 19:0.88222865 20:0.677687741 21:-0.26979959 
268435456  1:-0.591648797 2:0.65267494 3:0.914394734 4:0.689383331 5:-0.036770595 6:-0.51135613 7:0.173224817 8:0.784696846 9:-0.574890365 10:0.621732858 11:0.247730832 12:-0.786439415 13:0.153330163 14:-0.55345967 15:-0.619284325 16:-0.472182463 17:-0.828357154 18:-0.78056612 19:0.874404576 20:0.636510047 21:-0.282557881 
268435456  1:-0.304925738 2:0.487236092 3:0.702181774 4:0.394574415 5:-0.711726473 6:-0.090983276 7:-0.411720582 8:0.615287754 9:-0.783252002 10:0.626959439 11:0.070146128 12:-0.685408743 13:-0.113946219 14:-0.373470114 15:-0.572714004 16:-0.392849863 17:-0.56578346 18:-0.618606969 19:0.609305016 20:0.142402792 21:-0.772274441 
268435456  1:-0.107726574 2:0.594427726 3:0.877806375 4:0.424921902 5:-0.627222484 6:-0.701301658 7:-0.283258183 8:0.635373766 9:-0.782138875 10:0.323632742 11:-0.32296568 12:-0.874924103 13:-0.353883282 14:-0.00703466 15:-0.92899485 16:-0.763200138 17:-0.687563289 18:-0.97161308 19:0.803969016 20:0.163950675 21:-0.657783019 
268435456  1:-0.210284652 2:0.51472348 3:0.868275997 4:0.378129414 5:-0.595442496 6:-0.706254371 7:-0.191878474 8:0.590676772 9:-0.69385081 10:0.33211777 11:-0.472012254 12:-0.854597775 13:-0.306597611 14:0.102522568 15:-0.596699889 16:-0.785043586 17:-0.717712462 18:-0.839829069 19:0.787948441 20:0.264133826 21:-0.653625423 
268435456  1:-0.149130784 2:0.523196574 3:0.861284667 4:0.357723493 5:-0.596977438 6:-0.701301658 7:-0.249532369 8:0.514588409 9:-0.75095143 10:0.217614413 11:-0.41007315 12:-0.838383236 13:-0.371564073 14:0.000587734 15:-0.554070083 16:-0.791576011 17:-0.719367228 18:-0.803178441 19:0.777156859 20:0.137757386 21:-0.733164647 
268435456  1:-0.113257349 2:0.564017928 3:0.897470895 4:0.39305917 5:-0.492768674 6:-0.79406297 7:-0.216067397 8:0.640760149 9:-0.755368287 10:0.26200876 11:-0.218263196 12:-0.862090389 13:-0.378506933 14:-0.015967962 15:-0.334215669 16:-0.829447031 17:-0.787779777 18:-0.786582654 19:0.829478039 20:0.255042688 21:-0.587326333 
268435456  1:-0.235508022 2:0.458533803 3:0.664980662 4:0.328814411 5:-0.797792253 6:-0.051462242 7:-0.592391092 8:0.620779387 9:-0.816580857 10:0.471008151 11:0.118527971 12:-0.568718741 13:-0.259153007 14:-0.300478662 15:-0.511169164 16:-0.460723295 17:-0.496390172 18:-0.540980312 19:0.560882294 20:0.010500694 21:-0.791008667 
268435456  1:-0.389497346 2:0.344391026 3:0.66273538 4:0.324313394 5:-0.751286897 6:-0.051462242 7:-0.512033756 8:0.560709715 9:-0.816645271 10:0.541087475 11:0.032749338 12:-0.666858541 13:-0.244665839 14:-0.383289164 15:-0.539594662 16:-0.427298705 17:-0.525268594 18:-0.541780292 19:0.557845842 20:-0.072950909 21:-0.795341061 
268435456  1:0.186959661 2:0.443475094 3:0.706688441 4:0.066740833 5:-0.411363236 6:-0.486992623 7:-0.15122562 8:0.375190583 9:-0.635784081 10:0.004656552 11:-0.180865087 12:-0.587302907 13:-0.482655158 14:0.144982048 15:-0.447486226 16:-0.778240365 17:-0.567219014 18:-0.695766371 19:0.56040204 20:-0.207063494 21:-0.287960323 
268435456  1:0.050066081 2:0.452264276 3:0.759145668 4:0.155852395 5:-0.530652304 6:-0.563184591 7:-0.237790775 8:0.366887977 9:-0.744112371 10:0.20171321 11:-0.133049777 12:-0.743159891 13:-0.462312566 14:-0.106277077 15:-0.377640193 16:-0.768778356 17:-0.65959492 18:-0.656813886 19:0.632999739 20:-0.21818686 21:-0.63199816 
268435456  1:0.069271414 2:0.408506189 3:0.72276049 4:0.085612127 5:-0.498996136 6:-0.512271037 7:-0.163629468 8:0.390760727 9:-0.674969281 10:0.330674159 11:-0.08795107 12:-0.72209128 13:-0.426933643 14:-0.022548334 15:-0.355018657 16:-0.753147142 17:-0.632159325 18:-0.639550776 19:0.582317304 20:-0.228631356 21:-0.49555752 
268435456  1:0.062161982 2:0.407831316 3:0.716804522 4:0.089044963 5:-0.502304882 6:-0.495525077 7:-0.167535274 8:0.393857254 9:-0.662693849 10:0.340912573 11:-0.060922155 12:-0.713338229 13:-0.415289246 14:-0.049905712 15:-0.335702028 16:-0.744560018 17:-0.628510555 18:-0.625000769 19:0.575047806 20:-0.228310878 21:-0.473736951 
268435456  1:0.42131704 2:0.381975943 3:0.628582166 4:-0.17496383 5:-0.741270248 6:-0.486992623 7:-0.442899962 8:0.243380301 9:-0.85853291 10:0.170084786 11:-0.527607265 12:-0.687445786 13:-0.612593884 14:0.574855062 15:-0.708864531 16:-0.848399062 17:-0.454057285 18:-0.850599003 19:0.441569872 20:-0.416641744 21:-0.761061888 
268435456  1:0.419970304 2:0.374520266 3:0.628030271 4:-0.186591256 5:-0.781230957 6:-0.49400359 7:-0.499716615 8:0.252315833 9:-0.911259557 10:0.137614595 11:-0.420032269 12:-0.677852154 13:-0.66459325 14:0.51413134 15:-0.66701293 16:-0.86372029 17:-0.455576346 18:-0.825751724 19:0.439758673 20:-0.496437599 21:-0.781991628 
45345640.29  1:0.337821833 2:0.339819427 3:0.644305823 4:-0.177734662 5:-0.783729476 6:-0.522890733 7:-0.507446911 8:0.229803615 9:-0.880453745 10:0.134640351 11:-0.422907878 12:-0.68895286 13:-0.592717826 14:0.480521549 15:-0.694393364 16:-0.848558441 17:-0.489874855 18:-0.843205099 19:0.460438835 20:-0.467048356 21:-0.790967116 
268435456  1:0.539576593 2:0.321427486 3:0.336497826 4:-0.350015206 5:-0.728070949 6:-0.051462242 7:-0.410111043 8:0.122545717 9:-0.833181792 10:0.19422578 11:-0.545277249 12:-0.455630413 13:-0.804765881 14:0.565297268 15:-0.135548369 16:-0.882408717 17:-0.184924233 18:-0.373424537 19:0.116651914 20:-0.579780032 21:-0.758558766 
268435456  1:0.436255968 2:0.372256048 3:0.603954291 4:-0.201003071 5:-0.789929703 6:-0.457132764 7:-0.505916002 8:0.233187221 9:-0.911827937 10:0.141320854 11:-0.429798606 12:-0.655296073 13:-0.686238864 14:0.531179539 15:-0.619064959 16:-0.870365793 17:-0.428934782 18:-0.786753567 19:0.412330568 20:-0.500586282 21:-0.78819053 
268435456  1:-0.267629567 2:0.355503137 3:0.619526323 4:0.234266571 5:-0.860533788 6:-0.051462242 7:-0.635912735 8:0.510217367 9:-0.802267482 10:0.132120388 11:-0.418318291 12:-0.320634921 13:0.225071225 14:-0.223003594 15:-0.172839506 16:-0.35546875 17:-0.621417037 18:-0.441964286 19:0.499411203 20:0.25477707 21:-0.816491512 
268435456  1:-0.416029453 2:0.330721901 3:0.887966962 4:0.307729122 5:-0.85758092 6:-0.821186228 7:-0.68506433 8:0.563130501 9:-0.828846542 10:0.222581194 11:-0.517666045 12:-0.89968254 13:0.286324786 14:-0.373417722 15:-1 16:-0.665217391 17:-0.883379263 18:-1 19:0.809962005 20:0.119172898 21:-0.858528698 
268435456  1:-0.077032002 2:0.40331071 3:0.815536589 4:0.168939938 5:-0.587507098 6:-0.701301658 7:-0.381465598 8:0.450180686 9:-0.683055601 10:-0.204046931 11:-0.267821437 12:-0.676190476 13:-0.218181818 14:-0.004219409 15:-0.634545455 16:-0.751736111 17:-0.737989503 18:-0.851190476 19:0.702914857 20:-0.048832272 21:-0.427647534 
18044677.9  1:-0.231662419 2:0.206547677 3:0.784971791 4:0.04235463 5:-0.933446905 6:-0.701301658 7:-0.866268879 8:0.401877859 9:-0.952235605 10:-0.024655671 11:-0.030801375 12:-0.676190476 13:-0.097902098 14:-0.240506329 15:-0.390909091 16:-0.713541667 17:-0.804602342 18:-0.751984127 19:0.653312953 20:-0.226704411 21:-0.915925627 
268435456  1:-0.367884452 2:0.475832193 3:0.876970944 4:0.422589136 5:-0.511641113 6:-0.701301658 7:-0.200484803 8:0.629853914 9:-0.753241642 10:0.421016834 11:0.141905358 12:-0.828571429 13:-0.202965709 14:-0.324487825 15:-0.515662651 16:-0.713541667 17:-0.796275737 18:-0.776785714 19:0.802613241 20:0.181174805 21:-0.444624091 
268435456  1:0.30671198 2:0.528645226 3:0.568580927 4:0.128978224 5:-0.723566156 6:-0.051462242 7:-0.456498229 8:0.361975126 9:-0.728901996 10:0.529501785 11:-0.115050212 12:-0.6 13:-0.483173077 14:0.33728903 15:-0.790625 16:-0.672619048 17:-0.214602918 18:-0.829931973 19:0.430514171 20:-0.101405318 21:-0.848019402 
268435456  1:-0.107051827 2:0.580243666 3:0.872874107 4:0.405599426 5:-0.470073822 6:-0.701301658 7:-0.210702965 8:0.638261881 9:-0.752465059 10:0.282264921 11:0.178703191 12:-0.726984127 13:-0.181601903 14:-0.314802732 15:-0.032989691 16:-0.7421875 17:-0.827500505 18:-0.609375 19:0.795964713 20:0.292728238 21:-0.273241714 
268435456  1:-0.743415463 2:0.56005543 3:0.962410812 4:0.691792295 5:-0.311073254 6:-0.821186228 7:0.151370502 8:0.801843726 9:-0.689420994 10:0.472538684 11:0.404719819 12:-0.859047619 13:0.35153019 14:-0.906174856 15:-0.423655914 16:-0.612962963 17:-1 18:-0.788359788 19:0.935806555 20:0.61358811 21:-0.10105093 
268435456  1:-0.018408383 2:0.574727493 3:0.861007372 4:0.356544628 5:-0.666780239 6:-0.701301658 7:-0.353272422 8:0.586062357 9:-0.75628727 10:0.566230233 11:0.128549283 12:-0.866666667 13:-0.243956044 14:-0.164556962 15:-0.617142857 16:-0.738095238 17:-0.757021743 18:-0.829931973 19:0.776706852 20:0.119401476 21:-0.700080841 
171291086.8  1:-0.699801756 2:0.677158803 3:0.975097908 4:0.75735822 5:-0.33310619 6:-0.821186228 7:-0.143874697 8:0.84719524 9:-0.699970135 10:0.520319674 11:0.238752247 12:-0.93015873 13:-0.162609542 14:-0.692143353 15:-0.321518987 16:-0.725 17:-0.927169964 18:-0.714285714 19:0.957253617 20:0.63566879 21:-0.443007276 
268435456  1:-0.277212007 2:0.343877662 3:0.618071052 4:0.23125818 5:-0.859616111 6:-0.051462242 7:-0.636306248 8:0.508215882 9:-0.802366462 10:0.133896567 11:-0.416568417 12:-0.320634921 13:0.234798511 14:-0.231100647 15:-0.172282913 16:-0.350900413 17:-0.62540073 18:-0.441964286 19:0.497443138 20:0.252026016 21:-0.815889876 
268435456  1:-0.043226004 2:0.347321688 3:0.745841003 4:0.074592162 5:-0.576825862 6:-0.590557715 7:-0.263585583 8:0.391923525 9:-0.720172272 10:-0.012495758 11:-0.273100979 12:-0.658692103 13:-0.296614757 14:-0.055094821 15:-0.246357471 16:-0.749354067 17:-0.710689212 18:-0.631105538 19:0.608810859 20:-0.139326685 21:-0.423052355 
268435456  1:-0.07376474 2:0.480744985 3:0.805836071 4:0.259379914 5:-0.503822272 6:-0.626556325 7:-0.190698721 8:0.533344134 9:-0.753308337 10:0.241937418 11:0.019403825 12:-0.69745832 13:-0.247297409 14:-0.240817236 15:0.019206495 16:-0.743910071 17:-0.777855418 18:-0.54517009 19:0.699996984 20:0.112522801 21:-0.323992924 
268435456  1:-0.00211074 2:0.388710738 3:0.799513165 4:0.102660623 5:-0.647160899 6:-0.701301658 7:-0.32666789 8:0.390616336 9:-0.794041068 10:0.200561805 11:-0.239526204 12:-0.767644655 13:-0.25729594 14:0.030654841 15:-0.372929603 16:-0.777325623 17:-0.746782932 18:-0.758532144 19:0.676911336 20:-0.06512049 21:-0.551995414 
268435456  1:0.014102383 2:0.422382882 3:0.80782508 4:0.136979816 5:-0.646904832 6:-0.701301658 7:-0.320820505 8:0.447381897 9:-0.819420699 10:0.264425223 11:-0.165016921 12:-0.785115852 13:-0.281888935 14:0.009319182 15:-0.412246434 16:-0.777063654 17:-0.74358726 18:-0.768731199 19:0.69040028 20:-0.052324515 21:-0.586512513 
268435456  1:0.256707782 2:0.377446889 3:0.471767218 4:-0.07084877 5:-0.795417282 6:-0.051462242 7:-0.555377831 8:0.270138019 9:-0.791575326 10:0.394863766 11:-0.072589031 12:-0.498947921 13:-0.441110025 14:0.240885077 15:-0.667555249 16:-0.646791149 17:-0.270419577 18:-0.730762176 19:0.299586201 20:-0.378213772 21:-0.849627698 
268435456  1:0.209390375 2:0.300968892 3:0.73587158 4:-0.159904914 5:-0.823667736 6:-0.669613555 7:-0.466462288 8:0.24195222 9:-0.774022242 10:0.429943781 11:-0.468044918 12:-0.89811066 13:-0.456418892 14:0.090236169 15:-0.698693317 16:-0.813084862 17:-0.678475335 18:-0.869111704 19:0.573630961 20:-0.675956877 21:-0.847577047 
268435456  1:-0.145583699 2:0.40729011 3:0.826762619 4:0.215267543 5:-0.586890395 6:-0.701301658 7:-0.371815627 8:0.444245224 9:-0.704949259 10:-0.13018092 11:-0.255739339 12:-0.700058938 13:-0.177361323 14:-0.081326124 15:-0.615464246 16:-0.734452886 17:-0.756538873 18:-0.840830901 19:0.721132954 20:0.002406937 21:-0.488934683 
268435456  1:-0.111967487 2:0.383987005 3:0.802485725 4:0.167276586 5:-0.758869486 6:-0.667141856 7:-0.586910169 8:0.461160252 9:-0.771561177 10:0.029190763 11:-0.081751302 12:-0.66821488 13:-0.128878926 14:-0.037961467 15:-0.560313128 16:-0.719512446 17:-0.74365857 18:-0.823124437 19:0.686874368 20:0.002328372 21:-0.665891654 
268435456  1:0.280763742 2:0.348990122 3:0.757638396 4:-0.135427318 5:-0.865598457 6:-0.730976131 7:-0.534710106 8:0.266777264 9:-0.835754661 10:0.343547472 11:-0.427740723 12:-0.889423093 13:-0.490333477 14:0.146301762 15:-0.719292425 16:-0.831415054 17:-0.687205498 18:-0.883899112 19:0.604672019 20:-0.634052064 21:-0.891337217 
268435456  1:-0.392541373 2:0.453899643 3:0.870213077 4:0.418597212 5:-0.525049292 6:-0.680146881 7:-0.237009733 8:0.626839976 9:-0.750759642 10:0.37848409 11:0.126786598 12:-0.800159215 13:-0.168848722 14:-0.339522129 15:-0.515372895 16:-0.692697665 17:-0.796346188 18:-0.771959257 19:0.793995929 20:0.185248615 21:-0.452763604 
268435456  1:-0.109881673 2:0.548842234 3:0.865185742 4:0.373831386 5:-0.626173492 6:-0.701301658 7:-0.313281169 8:0.597524538 9:-0.755490095 10:0.528221486 11:0.132045157 12:-0.856695464 13:-0.233227067 14:-0.206417917 15:-0.590581015 16:-0.731668486 17:-0.767296243 18:-0.816021255 19:0.783487696 20:0.135570279 21:-0.633216551 
268435456  1:-0.36223869 2:0.478092196 3:0.876882267 4:0.422221391 5:-0.510741383 6:-0.701301658 7:-0.200705977 8:0.630035906 9:-0.753224832 10:0.418013527 11:0.142701853 12:-0.826372556 13:-0.202503286 14:-0.324278189 15:-0.50521512 16:-0.71416171 17:-0.796951602 18:-0.773162084 19:0.802469333 20:0.183589397 21:-0.440914493 
268435456  1:-0.340237732 2:0.507379983 3:0.887474259 4:0.442875271 5:-0.477437658 6:-0.724992345 7:-0.173807302 8:0.584768977 9:-0.709502398 10:0.427636398 11:0.175301167 12:-0.838608888 13:-0.22827252 14:-0.350388132 15:-0.432856412 16:-0.731022138 17:-0.81266433 18:-0.753142792 19:0.818147619 20:0.208155273 21:-0.372256706 
268435456  1:-0.622558859 2:0.630306619 3:0.952262066 4:0.679451664 5:-0.374654354 6:-0.793287015 7:-0.157048848 8:0.796616155 9:-0.712367336 10:0.497210185 11:0.216214301 12:-0.906517608 13:-0.17200112 14:-0.606583553 15:-0.366699575 16:-0.722333448 17:-0.896708613 18:-0.728830545 19:0.921266127 20:0.529900179 21:-0.443383536 
268435456  1:-0.147936425 2:0.424575676 3:0.830602647 4:0.231078071 5:-0.585176499 6:-0.701301658 7:-0.263857936 8:0.507721272 9:-0.799315596 10:0.290876321 11:-0.071880906 12:-0.792761514 13:-0.252735351 14:-0.112124161 15:-0.428942254 16:-0.75476841 17:-0.764697461 18:-0.763762173 19:0.727364721 20:0.025683247 21:-0.508912586 
268435456  1:-0.344159877 2:0.46991668 3:0.871959798 4:0.401899197 5:-0.517829434 6:-0.701301658 7:-0.215247245 8:0.615198129 9:-0.747516629 10:0.37003094 11:0.108484309 12:-0.81614185 13:-0.204206873 14:-0.298363816 15:-0.525359815 16:-0.716657153 17:-0.791521381 18:-0.782854844 19:0.794480933 20:0.162413333 21:-0.443239328 
268435456  1:-0.130639482 2:0.458611371 3:0.905744624 4:0.269066881 5:-0.889569415 6:-0.888137628 7:-0.730959466 8:0.481187123 9:-0.846904987 10:0.183117615 11:0.039822823 12:-0.869469593 13:-0.386063239 14:-0.19558563 15:-0.058828922 16:-0.861753708 17:-0.874912299 18:-0.732723302 19:0.83402682 20:0.048405977 21:-0.345424551 
3195457.088  1:-0.162466699 2:0.331629668 3:0.101733808 4:0.137003687 5:-0.591792482 6:1 7:-0.271058698 8:0.353630059 9:-0.845089731 10:0.310621228 11:-0.462216518 12:0.059462844 13:0.073625376 14:-0.211620716 15:-0.582797363 16:0.299972294 17:-0.024044918 18:-0.352309877 19:0.11746393 20:-0.02963927 21:-0.818940623 
268435456  1:0.083545594 2:0.467440293 3:0.586479621 4:0.166019789 5:-0.763018559 6:-0.051462242 7:-0.503271263 8:0.205130866 9:-0.842287251 10:0.150948983 11:-0.320616602 12:-0.44522265 13:-0.369246732 14:0.167459884 15:-0.657594563 16:-0.601822452 17:-0.312258412 18:-0.722943021 19:0.45471983 20:-0.04549053 21:-0.910588802 
268435456  1:0.121604955 2:0.399618488 3:0.738671978 4:0.040059681 5:-0.590261035 6:-0.522492728 7:-0.265114653 8:0.415552967 9:-0.729218756 10:0.210625808 11:-0.308467292 12:-0.737790092 13:-0.343313402 14:0.170475872 15:-0.567829001 16:-0.771396047 17:-0.64019211 18:-0.796228119 19:0.596696545 20:-0.171791353 21:-0.602311554 
268435456  1:-0.055817768 2:0.334728078 3:0.765622923 4:0.067150873 5:-0.807129703 6:-0.643557676 7:-0.648102028 8:0.322287491 9:-0.878688718 10:0.089830736 11:-0.213415921 12:-0.732004931 13:-0.238865035 14:-0.148605383 15:-0.461604336 16:-0.724605149 17:-0.740535479 18:-0.753694581 19:0.632168683 20:-0.249874299 21:-0.861091061 
268435456  1:-0.071297549 2:0.580754556 3:0.893733703 4:0.38939647 5:-0.433707114 6:-0.777730058 7:-0.172778374 8:0.566417165 9:-0.791431616 10:0.231636862 11:0.114980453 12:-0.784383114 13:-0.229119831 14:-0.237298245 15:-0.16765339 16:-0.783664163 17:-0.845120398 18:-0.69131285 19:0.824791212 20:0.252266585 21:-0.463549285 
268435456  1:-0.112366469 2:0.426161566 3:0.86098058 4:0.21861084 5:-0.831217844 6:-0.795928728 7:-0.681712844 8:0.472050674 9:-0.816316399 10:0.070953469 11:-0.000625686 12:-0.764989436 13:-0.272759607 14:-0.125825687 15:-0.28279053 16:-0.802048439 17:-0.819210308 18:-0.769872286 19:0.768923669 20:0.019336106 21:-0.501711218 
268435456  1:-0.216944322 2:0.630436124 3:0.924897359 4:0.514325951 5:-0.350560291 6:-0.810245119 7:-0.078738797 8:0.423294687 9:-0.552032472 10:0.438794401 11:0.298836877 12:-0.86545823 13:-0.317391296 14:-0.442708496 15:-0.090821235 16:-0.79654129 17:-0.874489637 18:-0.652783386 19:0.873442511 20:0.315427352 21:-0.096196081 
268435456  1:-0.342580348 2:0.485961443 3:0.876573498 4:0.420940917 5:-0.507608554 6:-0.701301658 7:-0.201476096 8:0.630669594 9:-0.753166303 10:0.407556122 11:0.145475219 12:-0.81871616 13:-0.200893146 14:-0.323548247 15:-0.468837195 16:-0.716320679 17:-0.799304939 18:-0.760544732 19:0.801968249 20:0.191996916 21:-0.427997806 
268435456  1:-0.067743961 2:0.577797585 3:0.867611946 4:0.383846667 5:-0.557300909 6:-0.701301658 7:-0.273923671 8:0.615114632 9:-0.754159972 10:0.408185913 11:0.156463046 12:-0.788924664 13:-0.209252095 14:-0.248178058 15:-0.292025365 16:-0.740372836 17:-0.796247548 18:-0.707178329 19:0.787425047 20:0.215868576 21:-0.462518375 
268435456  1:-0.024258693 2:0.455042306 3:0.822794059 4:0.198802196 5:-0.580309889 6:-0.701301658 7:-0.276187904 8:0.494044145 9:-0.805334889 10:0.223289197 11:-0.087897418 12:-0.751407064 13:-0.251871109 14:-0.079619485 15:-0.243857831 16:-0.770684764 17:-0.771587422 18:-0.701898586 19:0.7146926 20:0.044464867 21:-0.456191624 
268435456  1:-0.080635462 2:0.580621127 3:0.88828582 4:0.393628182 5:-0.443204975 6:-0.75776932 7:-0.182683106 8:0.585180786 9:-0.781254755 10:0.244859348 11:0.131622864 12:-0.769392271 13:-0.216709616 14:-0.257540023 15:-0.13248339 16:-0.772831739 17:-0.840518626 18:-0.669913214 19:0.817262621 20:0.262833919 21:-0.413846824 
268435456  1:-0.106442984 2:0.553786066 3:0.86488298 4:0.372606976 5:-0.51200416 6:-0.701301658 7:-0.268897497 8:0.613899221 9:-0.756965215 10:0.237716032 11:0.147936065 12:-0.717884338 13:-0.178225252 14:-0.27875567 15:-0.101746484 16:-0.741854616 17:-0.818284041 18:-0.637691752 19:0.782996361 20:0.250190025 21:-0.327928722 
268435456  1:-0.084567128 2:0.513034484 3:0.827591381 4:0.306831344 5:-0.492870161 6:-0.650812821 7:-0.197190536 8:0.567392239 9:-0.753034675 10:0.255024575 11:0.071099955 12:-0.70704009 13:-0.22597778 14:-0.264827148 15:0.002267691 16:-0.743351059 17:-0.793966335 18:-0.566005988 19:0.731140612 20:0.171003408 21:-0.307523046 
268435456  1:-0.21133383 2:0.513543453 3:0.859729313 4:0.400810203 5:-0.506303379 6:-0.657534148 7:-0.284183253 8:0.630309163 9:-0.747488602 10:0.222604909 11:0.139908629 12:-0.688948357 13:-0.115379685 14:-0.347885432 15:-0.130964652 16:-0.693212731 17:-0.821269348 18:-0.633579099 19:0.779494001 20:0.27837449 21:-0.325082467 
268435456  1:-0.006847403 2:0.30643929 3:0.68449268 4:-0.001844498 5:-0.631615793 6:-0.486992623 7:-0.279031589 8:0.241015063 9:-0.768407437 10:0.130384835 11:-0.246056997 12:-0.629080885 13:-0.396183961 14:-0.09365808 15:0.070193719 16:-0.753508723 17:-0.674723324 18:-0.439792552 19:0.526633045 20:-0.234860591 21:-0.299843878 
268435456  1:-0.286752738 2:0.475754286 3:0.877391923 4:0.377156278 5:-0.494816734 6:-0.728376603 7:-0.178971745 8:0.610301594 9:-0.743903174 10:0.386232654 11:0.115902888 12:-0.834498101 13:-0.225879091 14:-0.251487717 15:-0.543558499 16:-0.735019506 17:-0.798645089 18:-0.797285608 19:0.800647381 20:0.136503289 21:-0.462395124 
268435456  1:-0.084974311 2:0.576307173 3:0.875850869 4:0.389607643 5:-0.541620618 6:-0.734005626 7:-0.213176866 8:0.589097899 9:-0.768391298 10:0.471504043 11:0.086272072 12:-0.871200372 13:-0.209622861 14:-0.191109293 15:-0.606751127 16:-0.748809659 17:-0.78052135 18:-0.838365205 19:0.799562496 20:0.174564768 21:-0.712684139 
268435456  1:-0.172777034 2:0.610263092 3:0.903988506 4:0.470627282 5:-0.398594404 6:-0.766459261 7:-0.13177699 8:0.509692925 9:-0.632589054 10:0.375883075 11:0.250553515 12:-0.809803605 13:-0.262815693 14:-0.39130143 15:-0.067577951 16:-0.774695763 17:-0.855604066 18:-0.635336965 19:0.842303131 20:0.306304269 21:-0.167353128 
268435456  1:-0.321629944 2:0.52861341 3:0.894543577 4:0.456528974 5:-0.454416819 6:-0.740937503 7:-0.155851852 8:0.554424294 9:-0.680063441 10:0.432091736 11:0.197778414 12:-0.84536466 13:-0.245305418 14:-0.367820488 15:-0.377123183 16:-0.742787472 17:-0.823694769 18:-0.737229783 19:0.828603124 20:0.226314636 21:-0.323549408 
268435456  1:-0.565290237 2:0.665275707 3:0.962275724 4:0.691185108 5:-0.334660344 6:-0.821186228 7:-0.121526777 8:0.720190564 9:-0.652055903 10:0.501559278 11:0.259321377 12:-0.915677961 13:-0.210624133 14:-0.624694054 15:-0.25740513 16:-0.746951941 17:-0.913496686 18:-0.697994849 19:0.935578194 20:0.545021021 21:-0.339065762 
134445096.4  1:-0.592218308 2:0.5821795 3:0.952939245 4:0.642937542 5:-0.319135498 6:-0.821186228 7:0.087758089 8:0.684467598 9:-0.643214861 10:0.467251497 11:0.37719933 12:-0.865007524 13:0.151309035 14:-0.773990135 15:-0.327726198 16:-0.668414916 17:-0.964567195 18:-0.749868732 19:0.919795225 20:0.526794615 21:-0.094411079 
268435456  1:-0.057582822 2:0.55929881 3:0.861845939 4:0.36000971 5:-0.658453805 6:-0.701301658 7:-0.351448446 8:0.569424728 9:-0.759487011 10:0.524044586 11:0.094269825 12:-0.858951408 13:-0.221553806 14:-0.185706781 15:-0.609653357 16:-0.731096588 17:-0.764088353 18:-0.827061713 19:0.778067716 20:0.127209558 21:-0.702209242 
268435456  1:-0.002244903 2:0.304145492 3:0.682857327 4:-0.006850767 5:-0.580429735 6:-0.486992623 7:-0.173539851 8:0.344226058 9:-0.759053751 10:0.164230661 11:-0.280868989 12:-0.641453089 13:-0.37034641 14:-0.08752877 15:0.091547615 16:-0.747562028 17:-0.680315604 18:-0.438581372 19:0.524144992 20:-0.213383682 21:-0.380738864 
268435456  1:0.062785709 2:0.323237941 3:0.677037574 4:-0.024887827 5:-0.838591291 6:-0.486992623 7:-0.660865917 8:0.397063739 9:-0.7822742 10:0.088395238 11:-0.431889984 12:-0.639530034 13:-0.098724528 14:-0.043353221 15:-0.491493612 16:-0.642977241 17:-0.669671144 18:-0.741935709 19:0.515290724 20:-0.218750156 21:-0.613670224 
268435456  1:-0.711876549 2:0.644737826 3:0.971585387 4:0.739205785 5:-0.3270062 6:-0.821186228 7:-0.062133773 8:0.834639322 9:-0.697049523 10:0.507091136 11:0.284701657 12:-0.910471067 13:-0.020265969 14:-0.751399635 15:-0.349796388 16:-0.693981677 17:-0.947333524 18:-0.734793696 19:0.951315831 20:0.629555582 21:-0.348334009 
268435456  1:-0.456119012 2:0.495621238 3:0.897045848 4:0.485840962 5:-0.464515799 6:-0.72946967 7:-0.117813074 8:0.670264546 9:-0.738246377 10:0.433122379 11:0.203656099 12:-0.835732098 13:-0.072681658 14:-0.46116069 15:-0.494044798 16:-0.68990975 17:-0.844142678 18:-0.779505152 19:0.833908269 20:0.282774398 21:-0.36389833 
268435456  1:-0.728838173 2:0.560517885 3:0.960359779 4:0.685236426 5:-0.314715507 6:-0.818440012 7:0.143076423 8:0.798096529 9:-0.690865155 10:0.46818005 11:0.399542418 12:-0.856022418 13:0.339317643 14:-0.892628194 15:-0.414706856 16:-0.615923131 17:-0.996048525 18:-0.784259753 19:0.932603174 20:0.606238119 21:-0.104995333 
268435456  1:-0.739957378 2:0.556024521 3:0.960762852 4:0.686692479 5:-0.322213862 6:-0.818734217 7:0.131561163 8:0.797164385 9:-0.690610944 10:0.469958137 11:0.402061588 12:-0.855567346 13:0.350390274 14:-0.899559958 15:-0.415665579 16:-0.613245681 17:-0.998300195 18:-0.785383808 19:0.933243893 20:0.609717096 21:-0.104275145 
268435456  1:-0.667950626 2:0.561582621 3:0.951855889 4:0.656896897 5:-0.348098229 6:-0.808707633 7:0.09884302 8:0.779383386 9:-0.696380999 10:0.482290889 11:0.375973666 12:-0.859840674 13:0.289546973 14:-0.828981026 15:-0.443795663 16:-0.625987783 17:-0.974708779 18:-0.792686971 19:0.919246119 20:0.562149008 21:-0.163403003 
104095043.3  1:-0.570254689 2:0.514651282 3:0.922708733 4:0.555330572 5:-0.436793054 6:-0.781713365 7:-0.04652765 8:0.599944349 9:-0.60403872 10:0.413136893 11:0.185616703 12:-0.83646998 13:0.250449608 14:-0.660383166 15:-0.439261626 16:-0.639791331 17:-0.935663906 18:-0.792715043 19:0.873174763 20:0.476261665 21:-0.23014532 
268435456  1:-0.344049621 2:0.482577012 3:0.875882202 4:0.418084794 5:-0.522221851 6:-0.701301658 7:-0.210905165 8:0.626867259 9:-0.753449358 10:0.430920622 11:0.140994452 12:-0.831169585 13:-0.205761316 14:-0.313580282 15:-0.522583764 16:-0.71521626 17:-0.793598551 18:-0.780410375 19:0.800846384 20:0.176961765 21:-0.462046653 
268435456  1:-0.015964688 2:0.575442952 3:0.868812537 4:0.356328547 5:-0.63551218 6:-0.725536942 7:-0.326942115 8:0.568517913 9:-0.768259987 10:0.521684935 11:0.113375057 12:-0.870852919 13:-0.252767666 14:-0.155055144 15:-0.601234271 16:-0.751657991 17:-0.769680358 18:-0.833785028 19:0.787779883 20:0.123961661 21:-0.717600684 
268435456  1:-0.014847127 2:0.558039538 3:0.855181739 4:0.332493316 5:-0.66460307 6:-0.701301658 7:-0.349717612 8:0.570871185 9:-0.763202958 10:0.533170262 11:0.096391797 12:-0.857733523 13:-0.248111244 14:-0.145510425 15:-0.594698333 16:-0.742363871 17:-0.755550118 18:-0.823227989 19:0.767252758 20:0.100590468 21:-0.687640472 
268435456  1:-0.082230047 2:0.578699037 3:0.869551205 4:0.391863188 5:-0.525155204 6:-0.701301658 7:-0.250625011 8:0.623645063 9:-0.753535348 10:0.361780384 11:0.164659183 12:-0.766097784 13:-0.199062199 14:-0.272731178 15:-0.196563225 16:-0.741041592 17:-0.807765167 18:-0.671134972 19:0.790572161 20:0.244193585 21:-0.392764449 
268435456  1:-0.011750783 2:0.552671392 3:0.853035888 4:0.323656002 5:-0.638534493 6:-0.682083601 7:-0.317249135 8:0.560770018 9:-0.76886156 10:0.498503647 11:0.060006151 12:-0.853097845 13:-0.24337568 14:-0.131351179 15:-0.627135242 16:-0.741412508 17:-0.752025202 18:-0.836198362 19:0.763770375 20:0.089303382 21:-0.714117908 
268435456  1:-0.054081075 2:0.53466794 3:0.876707182 4:0.324678677 5:-0.747779995 6:-0.767668689 7:-0.489266085 8:0.548283573 9:-0.788512633 10:0.431885182 11:0.096872004 12:-0.868119433 13:-0.294926584 14:-0.173659737 15:-0.420038808 16:-0.782315273 17:-0.798427267 18:-0.796039675 19:0.796756929 20:0.093441527 21:-0.577166782 
160195710.4  1:-0.530994584 2:0.239981503 3:0.879982474 4:0.324765724 5:-0.847083493 6:-0.783750715 7:-0.757403604 8:0.573506106 9:-0.820982579 10:0.041467602 11:-0.336630203 12:-0.770415578 13:0.404699538 14:-0.442589901 15:-0.941477987 16:-0.618218219 17:-0.894263734 18:-0.978132844 19:0.800281957 20:0.178923503 21:-0.78885644 
120135132.5  1:-0.756591895 2:0.30187964 3:0.866963392 4:0.520074942 5:-0.696918274 6:-0.5318583 7:-0.471201778 8:0.697007528 9:-0.765866281 10:0.325481868 11:0.056261788 12:-0.632903451 13:0.763596917 14:-0.701574509 15:-0.871099527 16:-0.335052391 17:-0.916100735 18:-0.935584119 19:0.800724226 20:0.496434827 21:-0.590475313 
268435456  1:-0.687753601 2:0.669850916 3:0.97153603 4:0.745206549 5:-0.339586769 6:-0.816834578 7:-0.145929568 8:0.839306041 9:-0.701903819 10:0.516715113 11:0.235236834 12:-0.926471247 13:-0.164074417 14:-0.678797949 15:-0.328566143 16:-0.724584078 17:-0.922418678 18:-0.716554381 19:0.951640378 20:0.619171266 21:-0.443065964 
18109272.55  1:-0.333505225 2:0.64479922 3:0.940181036 4:0.577158177 5:-0.337338402 6:-0.821186228 7:-0.083017711 8:0.501341049 9:-0.569491964 10:0.469232096 11:0.2947653 12:-0.890725264 13:-0.293361006 14:-0.508468049 15:-0.146926628 16:-0.78477867 17:-0.889935426 18:-0.669923065 19:0.898227949 20:0.388820314 21:-0.159957791 
268435456  1:-0.453098614 2:0.636822621 3:0.932552255 4:0.610955841 5:-0.390112262 6:-0.771290144 7:-0.171688692 8:0.760236957 9:-0.721818577 10:0.421241036 11:0.213759767 12:-0.845597247 13:-0.170514183 14:-0.535093791 15:-0.201432791 16:-0.732153456 17:-0.88568743 18:-0.670621765 19:0.890125006 20:0.492936572 21:-0.372350671 
268435456  1:-0.240500324 2:0.608113741 3:0.898193804 4:0.487184978 5:-0.558023212 6:-0.740376586 7:-0.285021762 8:0.671175467 9:-0.73793138 10:0.551266241 11:0.164468608 12:-0.887361138 13:-0.217442134 14:-0.336517375 15:-0.520787827 16:-0.733827003 17:-0.812479501 18:-0.792238471 19:0.835553889 20:0.287672573 21:-0.616290817 
268435456  1:-0.696117462 2:0.658160153 3:0.967624873 4:0.74052653 5:-0.347208516 6:-0.806194484 7:-0.163012949 8:0.836075742 9:-0.701231921 10:0.496535998 11:0.227537028 12:-0.91268965 13:-0.148915435 14:-0.682482864 15:-0.330096488 16:-0.71501343 17:-0.921330136 18:-0.714896047 19:0.946400396 20:0.617131778 21:-0.446778807 
268435456  1:-0.655061717 2:0.653503792 3:0.962735452 4:0.712829728 5:-0.366482263 6:-0.810065257 7:-0.172241832 8:0.786105701 9:-0.674936197 10:0.499151628 11:0.192418577 12:-0.91720122 13:-0.143394042 14:-0.642749123 15:-0.335390325 16:-0.722165545 17:-0.915800102 18:-0.722384158 19:0.9376184 20:0.594930539 21:-0.447656724 
254162155.1  1:0.255595633 2:0.34271103 3:0.743309358 4:-0.129219166 5:-0.786027081 6:-0.701301658 7:-0.419851161 8:0.308138608 9:-0.821458461 10:0.494012109 11:-0.440949865 12:-0.921992072 13:-0.524903254 14:0.089497137 15:-0.714661457 16:-0.827823684 17:-0.665295933 18:-0.870085156 19:0.585701315 20:-0.699494825 21:-0.901129369 
268435456  1:0.352534398 2:0.381685067 3:0.692878091 4:-0.12718337 5:-0.847343253 6:-0.593382819 7:-0.529166651 8:0.293491771 9:-0.808037163 10:0.27392615 11:-0.377707024 12:-0.748890809 13:-0.539508221 14:0.223606975 15:-0.515561592 16:-0.827527904 17:-0.600342334 18:-0.764581984 19:0.524521394 20:-0.515033433 21:-0.813873683 
268435456  1:-0.032429849 2:0.328410404 3:0.732895549 4:0.045632323 5:-0.776144549 6:-0.558931976 7:-0.445145869 8:0.375704826 9:-0.743184742 10:0.410728999 11:-0.358508515 12:-0.776953001 13:-0.151529816 14:0.077071404 15:-0.789751229 16:-0.680821835 17:-0.650952568 18:-0.899202918 19:0.590219544 20:-0.214776047 21:-0.782676877 
268435456  1:-0.319739451 2:0.448740282 3:0.803700585 4:0.367073463 5:-0.651561613 6:-0.486992623 7:-0.377512586 8:0.583026309 9:-0.681756601 10:0.469818058 11:-0.044740009 12:-0.743915344 13:-0.161430119 14:-0.178938611 15:-0.433802817 16:-0.641304348 17:-0.688753927 18:-0.689440994 19:0.707997908 20:0.219975999 21:-0.68148747 
268435456  1:-0.354573775 2:0.537782925 3:0.921221199 4:0.478822685 5:-0.669733106 6:-0.821186228 7:-0.401939213 8:0.659224402 9:-0.690724213 10:0.406223431 11:-0.11978969 12:-0.89968254 13:-0.003161222 14:-0.206519854 15:-0.816438356 16:-0.736956522 17:-0.841673834 18:-0.937888199 19:0.866177052 20:0.354380135 21:-0.691188359 
14203630.59  1:-0.044463325 2:-0.395894393 3:-0.881654299 4:-0.877721943 5:-0.952072686 6:1 7:-0.766436696 8:-0.218814379 9:-0.926658877 10:0.023465397 11:-0.881830042 12:0.39047619 13:0.268703899 14:0.238541125 15:-1 16:0.283333333 17:0.207912798 18:-1 19:-0.879964605 20:-0.954140127 21:-0.96200485 
268435456  1:-0.14471821 2:0.492545126 3:0.851898159 4:0.318018665 5:-0.446905168 6:-0.701301658 7:-0.179936603 8:0.564936385 9:-0.790834846 10:0.371705492 11:-0.011255645 12:-0.841269841 13:-0.421153846 14:-0.210970464 15:-0.33 16:-0.79076087 17:-0.758262976 18:-0.689440994 19:0.761924018 20:0.008769501 21:-0.443815683 
268435456  1:-0.746530728 2:0.175447052 3:0.877017504 4:0.422828428 5:-0.702896082 6:-0.701301658 7:-0.728435577 8:0.636837309 9:-0.802631579 10:-0.022445162 11:0.127548995 12:-0.714285714 13:-0.117948718 14:-0.535864979 15:-0.441666667 16:-0.666666667 17:-0.853048042 18:-0.729437229 19:0.802688801 20:0.125136717 21:-0.603880356 
268435456  1:0.069668649 2:0.460618316 3:0.858786088 4:0.157214645 5:-0.790573538 6:-0.821186228 7:-0.569979489 8:0.468705211 9:-0.877228568 10:0.100833192 11:-0.365669028 12:-0.859047619 13:-0.377375566 14:0.037478282 15:-0.527058824 16:-0.837037037 17:-0.786838918 18:-0.841269841 19:0.760632826 20:-0.106078478 21:-0.792239289 
268435456  1:-0.702769877 2:0.186418007 3:0.870761236 4:0.396951248 5:-0.749050398 6:-0.701301658 7:-0.74996977 8:0.621832366 9:-0.819905229 10:0.021358466 11:0.104387646 12:-0.711370182 13:-0.010490529 14:-0.51759677 15:-0.475676871 16:-0.650347189 17:-0.85856867 18:-0.755381764 19:0.792535853 20:0.145582633 21:-0.661604713 
268435456  1:-0.289615808 2:0.41494677 3:0.786184864 4:0.312932677 5:-0.821299334 6:-0.486992623 7:-0.672593404 8:0.563645022 9:-0.806665294 10:0.521165266 11:0.239396213 12:-0.682867354 13:-0.022849053 14:-0.134596568 15:-0.642206668 16:-0.597395001 17:-0.686433325 18:-0.810403383 19:0.681349202 20:0.184078677 21:-0.813383607 
268435456  1:-0.240048904 2:0.468685472 3:0.82564587 4:0.344737867 5:-0.558377585 6:-0.584571661 7:-0.28755243 8:0.574789617 9:-0.73142203 10:0.425145514 11:-0.029493932 12:-0.788242725 13:-0.279687342 14:-0.193523331 15:-0.386539392 16:-0.709354785 17:-0.720402738 18:-0.689440994 19:0.732551506 20:0.123809606 21:-0.573270921 
268435456  1:-0.402581617 2:0.415889454 3:0.809490245 4:0.385099337 5:-0.697116237 6:-0.486992623 7:-0.536016495 8:0.600205393 9:-0.719113066 10:0.242665045 11:-0.018470297 12:-0.652813149 13:-0.012683708 14:-0.324636194 15:-0.531997417 16:-0.566189816 17:-0.737755102 18:-0.738588997 19:0.716806392 20:0.221909666 21:-0.672787836 
268435456  1:-0.147819741 2:0.478660524 3:0.837562623 4:0.303264303 5:-0.481015478 6:-0.669150883 7:-0.210824682 8:0.553443862 9:-0.779240225 10:0.337497423 11:-0.013908197 12:-0.796184279 13:-0.364753349 14:-0.186348784 15:-0.347615824 16:-0.767143493 17:-0.746941375 18:-0.695209311 19:0.74302447 20:0.028521395 21:-0.456671129 
268435456  1:0.394373657 2:0.257085791 3:0.56560797 4:-0.370325565 5:-0.839592733 6:-0.486992623 7:-0.590714878 8:-0.050643224 9:-0.908676072 10:-0.04317182 11:-0.473537412 12:-0.594765111 13:-0.511852403 14:0.449380458 15:-0.61634807 16:-0.807804803 17:-0.503763632 18:-0.807983538 19:0.345759896 20:-0.641876625 21:-0.84581186 
268435456  1:-0.256486194 2:0.446533783 3:0.792197724 4:0.331473044 5:-0.800824057 6:-0.486992623 7:-0.670912797 8:0.539538666 9:-0.800752175 10:0.537263671 11:0.324162576 12:-0.679493545 13:-0.045275098 14:-0.140716946 15:-0.701627142 16:-0.596413751 17:-0.677293821 18:-0.840174968 19:0.690497266 20:0.181042311 21:-0.809672544 
268435456  1:-0.311999653 2:0.440057569 3:0.799200195 4:0.353162837 5:-0.695173059 6:-0.486992623 7:-0.453328976 8:0.578046591 9:-0.713849931 10:0.483010918 11:0.028264338 12:-0.72823002 13:-0.125823887 14:-0.167545618 15:-0.487348919 16:-0.630022529 17:-0.688157685 18:-0.720520383 19:0.70115094 20:0.210752745 21:-0.715376114 
268435456  1:-0.300926541 2:0.401065325 3:0.787817387 4:0.307179764 5:-0.843333666 6:-0.498602144 7:-0.711224272 8:0.562064768 9:-0.823443683 10:0.507363664 11:0.2572653 12:-0.67756627 13:0.011688804 14:-0.147436774 15:-0.660926055 16:-0.592754872 17:-0.696521646 18:-0.824651795 19:0.682770181 20:0.181996293 21:-0.829298176 
268435456  1:-0.234496997 2:0.371202885 3:0.758826245 4:0.227789744 5:-0.840150371 6:-0.486992623 7:-0.678056175 8:0.508667026 9:-0.822598677 10:0.360258816 11:0.002706714 12:-0.676190476 13:-0.089837813 14:-0.14580181 15:-0.534263108 16:-0.621156551 17:-0.686179518 18:-0.749441058 19:0.63972535 20:0.05114336 21:-0.829849649 
268435456  1:0.075192897 2:0.443576469 3:0.845991414 4:0.129981307 5:-0.773034111 6:-0.805058761 7:-0.531094426 8:0.447773831 9:-0.857573855 10:0.125171664 11:-0.365928346 12:-0.851531304 13:-0.351416159 14:0.040577529 15:-0.516600348 16:-0.82694527 17:-0.781646082 18:-0.834904955 19:0.741546487 20:-0.121226684 21:-0.772120358 
268435456  1:0.312960662 2:0.352952961 3:0.733033432 4:-0.151828845 5:-0.824861626 6:-0.69054891 7:-0.580988021 8:0.361706755 9:-0.826219643 10:-0.351134356 11:-0.809235491 12:-0.715091024 13:-0.575992503 14:0.320680516 15:-0.445761862 16:-0.86666845 17:-0.65212533 18:-0.778554066 19:0.570973877 20:-0.448492141 21:-0.733758467 
268435456  1:-0.062615325 2:0.413831247 3:0.741230395 4:0.173826027 5:-0.615321963 6:-0.486992623 7:-0.384057602 8:0.438311821 9:-0.679211734 10:-0.050622483 11:-0.084290501 12:-0.432156646 13:-0.212732406 14:-0.078237544 15:0.216975455 16:-0.712760023 17:-0.713163545 18:-0.43113546 19:0.612954735 20:0.141824537 21:-0.396535356 
268435456  1:-0.112811648 2:0.466336502 3:0.81357715 4:0.267123155 5:-0.502118559 6:-0.628136507 7:-0.246141381 8:0.5253602 9:-0.751109965 10:0.220655779 11:-0.038714313 12:-0.698206893 13:-0.351859152 14:-0.16055271 15:-0.142850608 16:-0.765329616 17:-0.741595192 18:-0.601928368 19:0.710245814 20:0.053718661 21:-0.421736445 
268435456  1:0.195838361 2:0.387185487 3:0.687929445 4:-0.025627772 5:-0.7554486 6:-0.506944857 7:-0.53758826 8:0.476270881 9:-0.832418417 10:0.205233514 11:-0.189796173 12:-0.657302904 13:-0.487033618 14:0.132483843 15:-0.22692618 16:-0.79195005 17:-0.605304469 18:-0.602132476 19:0.528482596 20:-0.270798392 21:-0.865734458 
268435456  1:0.242818343 2:0.358887289 3:0.808548709 4:-0.096545202 5:-0.782252018 6:-0.81906332 7:-0.508848993 8:0.294751097 9:-0.834511948 10:-6.94631E-05 11:-0.310253515 12:-0.796836007 13:-0.370429484 14:0.402747759 15:-0.849980128 16:-0.850373527 17:-0.735399061 18:-0.95352387 19:0.676075187 20:-0.309087616 21:-0.722873716 
268435456  1:0.179639733 2:0.357555426 3:0.785642791 4:-0.057960899 5:-0.810385657 6:-0.759642828 7:-0.58313343 8:0.471970851 9:-0.802463943 10:-0.153744115 11:-0.577965587 12:-0.771477341 13:-0.427808492 14:0.184127673 15:-0.420535587 16:-0.847485113 17:-0.731471573 18:-0.795707665 19:0.647619674 20:-0.306353516 21:-0.713905413 
268435456  1:0.132070262 2:0.395103906 3:0.694356283 4:0.028617857 5:-0.760884727 6:-0.486992623 7:-0.518821647 8:0.338441037 9:-0.82908528 10:0.257243318 11:-0.156931029 12:-0.664240622 13:-0.435986076 14:0.103702007 15:-0.29957617 16:-0.767281114 17:-0.598899476 18:-0.629868676 19:0.541639692 20:-0.207018901 21:-0.839196785 
268435456  1:0.065014842 2:0.45135552 3:0.842072312 4:0.147423773 5:-0.787943211 6:-0.784329402 7:-0.556978796 8:0.419918765 9:-0.872167374 10:0.131250408 11:-0.339119516 12:-0.842615611 13:-0.377947788 14:0.045909169 15:-0.520104327 16:-0.826702844 17:-0.765289321 18:-0.827265289 19:0.738642161 20:-0.112428001 21:-0.792774224 
268435456  1:0.057522027 2:0.421400054 3:0.849836198 4:0.111030449 5:-0.792540698 6:-0.821186228 7:-0.57911491 8:0.516620073 9:-0.835383323 10:0.086597953 11:-0.338184833 12:-0.84228973 13:-0.331014125 14:0.039229745 15:-0.476492508 16:-0.831075204 17:-0.795582444 18:-0.830711695 19:0.745503371 20:-0.12359439 21:-0.752232706 
268435456  1:-0.137876555 2:0.552675996 3:0.835598893 4:0.387098999 5:-0.563373332 6:-0.571870336 7:-0.391853005 8:0.494810657 9:-0.748048082 10:0.497814495 11:0.325105759 12:-0.751796196 13:-0.287792829 14:-0.195876687 15:-0.645711691 16:-0.68290716 17:-0.687220256 18:-0.821695696 19:0.748844114 20:0.115030295 21:-0.619580403 
268435456  1:-0.404101059 2:0.431887054 3:0.817776412 4:0.410728609 5:-0.719615185 6:-0.486992623 7:-0.660753098 8:0.57768687 9:-0.749013164 10:0.142853836 11:0.13721216 12:-0.590037452 13:0.060699133 14:-0.407303556 15:-0.68668442 16:-0.517478493 17:-0.753493536 18:-0.818233486 19:0.729413101 20:0.214558537 21:-0.680701259 
268435456  1:0.444083974 2:0.409748157 3:0.769217195 4:-0.145362311 5:-0.674913518 6:-0.754364578 7:-0.395491709 8:0.316704168 9:-0.861587567 10:-0.068991319 11:-0.404066335 12:-0.741721874 13:-0.821259228 14:0.494244474 15:-0.05555486 16:-0.951939251 17:-0.676068199 18:-0.673698253 19:0.619683853 20:-0.357755395 21:-0.631693766 
268435456  1:0.4876713 2:0.397433691 3:0.727286062 4:-0.195385647 5:-0.611980169 6:-0.630799793 7:-0.30169805 8:0.278065743 9:-0.801253112 10:-0.1895726 11:-0.578061509 12:-0.695111079 13:-0.859335683 14:0.522948802 15:0.059305617 16:-0.960038243 17:-0.636752662 18:-0.611689574 19:0.559698004 20:-0.383580717 21:-0.565787159 
268435456  1:0.548313278 2:0.239429497 3:0.543218524 4:-0.506803012 5:-0.803044575 6:-0.499846732 7:-0.530879454 8:0.04260481 9:-0.914027451 10:-0.275741697 11:-0.688303808 12:-0.556256978 13:-0.592959542 14:0.577572349 15:-0.477467513 16:-0.850600612 17:-0.515436064 18:-0.770699166 19:0.305110689 20:-0.7266568 21:-0.811905095 
268435456  1:0.15683203 2:0.430896195 3:0.705427991 4:0.062914782 5:-0.712835264 6:-0.486992623 7:-0.471211079 8:0.337163337 9:-0.841652776 10:0.275651964 11:-0.172976771 12:-0.686329201 13:-0.445956823 14:0.035964909 15:-0.27263799 16:-0.76321906 17:-0.610824093 18:-0.604900858 19:0.55848437 20:-0.201598476 21:-0.878945545 
268435456  1:0.310563868 2:0.422420706 3:0.765304314 4:-0.038389484 5:-0.721942349 6:-0.701301658 7:-0.445264208 8:0.354021599 9:-0.772875278 10:-0.024451231 11:-0.393987308 12:-0.704229675 13:-0.709656183 14:0.402842785 15:0.050870448 16:-0.917036916 17:-0.671807354 18:-0.618967589 19:0.621395702 20:-0.167215483 21:-0.4005208 
268435456  1:0.134958233 2:0.39117522 3:0.737665333 4:0.021418235 5:-0.770469213 6:-0.598031936 7:-0.564490363 8:0.520007194 9:-0.810648651 10:0.155672681 11:-0.214362156 12:-0.700834007 13:-0.396222307 14:0.079844791 15:-0.281904745 16:-0.793303595 17:-0.670770804 18:-0.664640715 19:0.595954275 20:-0.201443418 21:-0.804810939 
268435456  1:0.211609827 2:0.391244637 3:0.675615047 4:-0.02937209 5:-0.764898895 6:-0.486992623 7:-0.542489504 8:0.498667179 9:-0.826144648 10:0.218924525 11:-0.208746023 12:-0.644930013 13:-0.470618709 14:0.147446336 15:-0.161587488 16:-0.787583525 17:-0.599894979 18:-0.574169942 19:0.513126469 20:-0.232985645 21:-0.836477834 
268435456  1:0.087180291 2:0.451790626 3:0.832216238 4:0.134218932 5:-0.785514467 6:-0.769134852 7:-0.566982356 8:0.471667121 9:-0.869562401 10:0.116299824 11:-0.335541249 12:-0.825293077 13:-0.390484119 14:0.047031247 15:-0.479378634 16:-0.827956467 17:-0.758122567 18:-0.802054738 19:0.725064294 20:-0.125030936 21:-0.802689919 
268435456  1:0.065841579 2:0.464743658 3:0.86207364 4:0.16489255 5:-0.773184861 6:-0.826077909 7:-0.55004745 8:0.464978001 9:-0.870105644 10:0.10291593 11:-0.369173805 12:-0.862090746 13:-0.375328795 14:0.036158945 15:-0.514491562 16:-0.838845067 17:-0.790977607 18:-0.840095796 19:0.765756198 20:-0.091107525 21:-0.789225683 
268435456  1:-0.032299747 2:0.453060385 3:0.877243528 4:0.206907709 5:-0.639592499 6:-0.845139212 7:-0.446638923 8:0.454002058 9:-0.808404692 10:0.025989218 11:-0.269979243 12:-0.826017372 13:-0.213092812 14:-0.229679137 15:-0.068887867 16:-0.813987472 17:-0.875070193 18:-0.715944023 19:0.789708733 20:0.03645728 21:-0.662509626 
122044341  1:-0.485182853 2:0.189794391 3:0.770877542 4:0.226011905 5:-0.886763707 6:-0.537178402 7:-0.815285265 8:0.586537407 9:-0.749247461 10:0.18655831 11:-0.003397688 12:-0.685111422 13:-0.21773806 14:-0.411458778 15:-0.169566658 16:-0.661939351 17:-0.770601514 18:-0.531442503 19:0.654113453 20:-0.080116936 21:-0.563019837 
268435456  1:-0.320371187 2:0.446860036 3:0.803218418 4:0.365587013 5:-0.653714166 6:-0.486992623 7:-0.380942262 8:0.582938636 9:-0.682134536 10:0.468197871 11:-0.044730397 12:-0.743415108 13:-0.162071409 14:-0.18037509 15:-0.431236529 16:-0.641446087 17:-0.689172265 18:-0.687826782 19:0.707264331 20:0.217295841 21:-0.680520146 
268435456  1:0.349275157 2:0.450832924 3:0.78444136 4:-0.017640809 5:-0.661107983 6:-0.734097489 7:-0.416641973 8:0.409576097 9:-0.776973507 10:-0.100808248 11:-0.381796573 12:-0.715735817 13:-0.803836422 14:0.432499423 15:0.070134537 16:-0.945934763 17:-0.680204378 18:-0.6228056 19:0.649590208 20:-0.176429982 21:-0.380865939 
268435456  1:-0.214628857 2:0.539440486 3:0.894540746 4:0.410121289 5:-0.589166289 6:-0.781849959 7:-0.324372957 8:0.566293505 9:-0.627626192 10:0.398858773 11:-0.134452131 12:-0.876349714 13:-0.062630425 14:-0.148106871 15:-0.756208501 16:-0.738672899 17:-0.81038526 18:-0.909441127 19:0.825584973 20:0.270379376 21:-0.408163489 
268435456  1:-0.338162897 2:0.495833842 3:0.865855794 4:0.426176253 5:-0.661172292 6:-0.663743514 7:-0.390431529 8:0.623326544 9:-0.686499461 10:0.436183642 11:-0.084432863 12:-0.826298699 13:-0.077723645 14:-0.193525991 15:-0.636174051 16:-0.691893607 17:-0.769631387 18:-0.820841667 19:0.791656913 20:0.291060695 21:-0.686618151 
268435456  1:-0.34838435 2:0.493897748 3:0.888020316 4:0.429521468 5:-0.670022282 6:-0.750275995 7:-0.387134269 8:0.624337455 9:-0.677404413 10:0.389951611 11:-0.123489919 12:-0.848668784 13:0.001276099 14:-0.184485157 15:-0.746031131 16:-0.709412257 17:-0.811597133 18:-0.896938933 19:0.820039612 20:0.314840114 21:-0.675236033 
268435456  1:-0.30050555 2:0.498402701 3:0.874098332 4:0.404756589 5:-0.671031463 6:-0.725673445 7:-0.397334853 8:0.610382681 9:-0.697247268 10:0.331189192 11:-0.093823894 12:-0.797096704 13:-0.015176571 14:-0.160885659 15:-0.710973399 16:-0.707340937 17:-0.796266432 18:-0.877870886 19:0.800376373 20:0.293233224 21:-0.644979668 
268435456  1:-0.262448439 2:0.56040999 3:0.881106697 4:0.459487197 5:-0.657244892 6:-0.681991142 7:-0.45562035 8:0.571590471 9:-0.702913561 10:0.478817052 11:0.157386499 12:-0.813647815 13:-0.085287437 14:-0.197964201 15:-0.831561386 16:-0.684985599 17:-0.757937951 18:-0.925616434 19:0.81373407 20:0.283712178 21:-0.709370701 
268435456  1:-0.18468765 2:0.501161192 3:0.86510154 4:0.348645666 5:-0.489345347 6:-0.724135072 7:-0.222219589 8:0.582894637 9:-0.771767608 10:0.378279836 11:-0.031927219 12:-0.852395221 13:-0.341542277 14:-0.210122794 15:-0.422647857 16:-0.780513204 17:-0.774149547 18:-0.736760661 19:0.781780224 20:0.074595076 21:-0.490930694 
268435456  1:-0.378338062 2:0.50065966 3:0.912788432 4:0.458912759 5:-0.697371462 6:-0.807037539 7:-0.451541194 8:0.648869374 9:-0.71281053 10:0.378148453 11:-0.10250448 12:-0.876303485 13:0.038527869 14:-0.235998602 15:-0.789690182 16:-0.720272341 17:-0.845853952 18:-0.926623116 19:0.853465343 20:0.337834713 21:-0.710556112 
268435456  1:-0.291335651 2:0.53516321 3:0.918971186 4:0.443256128 5:-0.645528611 6:-0.833856823 7:-0.379285376 8:0.61671928 9:-0.704432687 10:0.358960486 11:-0.171264277 12:-0.900558363 13:-0.062384511 14:-0.167865218 15:-0.733989184 16:-0.758896391 17:-0.842938947 18:-0.91818747 19:0.861249036 20:0.313762593 21:-0.700806393 
268435456  1:-0.159446192 2:0.38321923 3:0.85705255 4:0.196461829 5:-0.661413204 6:-0.791657274 7:-0.401307114 8:0.478206596 9:-0.752523361 10:0.168321106 11:-0.202495472 12:-0.824042677 13:-0.241183857 14:-0.065149453 15:-0.38106451 16:-0.801371175 17:-0.807440255 18:-0.784576984 19:0.76088838 20:0.013671058 21:-0.605886119 
268435456  1:-0.148575393 2:0.4752777 3:0.834069935 4:0.299669573 5:-0.489326064 6:-0.661317715 7:-0.218350209 8:0.55064384 9:-0.776415329 10:0.329163019 11:-0.014554462 12:-0.785199698 13:-0.351012015 14:-0.180349994 15:-0.351907717 16:-0.761389389 17:-0.744182996 18:-0.696614696 19:0.738419812 20:0.033333717 21:-0.45980321 
268435456  1:-0.209912288 2:0.411038079 3:0.838486917 4:0.263210456 5:-0.460568504 6:-0.701301658 7:-0.155864768 8:0.523377552 9:-0.755788696 10:0.073018436 11:-0.114301049 12:-0.731099806 13:-0.199402945 14:-0.193887136 15:-0.365229373 16:-0.744353791 17:-0.784051421 18:-0.733165514 19:0.740159662 20:0.057794355 21:-0.29419106 
268435456  1:-0.147382577 2:0.489687504 3:0.851446674 4:0.316190157 5:-0.453829227 6:-0.701301658 7:-0.189925695 8:0.548533501 9:-0.79742795 10:0.361639212 11:-0.013838238 12:-0.837618069 13:-0.419455245 14:-0.209302032 15:-0.323118691 16:-0.79088367 17:-0.758798401 18:-0.687527215 19:0.76119133 20:0.01018278 21:-0.464738834 
268435456  1:-0.120066745 2:0.49826724 3:0.850533829 4:0.312491496 5:-0.444320649 6:-0.701301658 7:-0.178298698 8:0.543438586 9:-0.75756303 10:0.373079174 11:-0.028689605 12:-0.839824972 13:-0.394215709 14:-0.190207833 15:-0.364462351 16:-0.785234025 17:-0.75690362 18:-0.707845405 19:0.759709924 20:0.01896481 21:-0.373816338 
268435456  1:0.000866303 2:0.470864464 3:0.856575571 4:0.208820857 5:-0.680281377 6:-0.782712137 7:-0.444804534 8:0.49958831 9:-0.849502565 10:0.187763192 11:-0.251928512 12:-0.853342266 13:-0.39142516 14:-0.042255413 15:-0.463817497 16:-0.822185806 17:-0.777668151 18:-0.792543996 19:0.761047203 20:-0.06922076 21:-0.680421048 
268435456  1:0.171920518 2:0.400202652 3:0.829672763 4:0.006910198 5:-0.78516922 6:-0.821186228 7:-0.532913215 8:0.364482604 9:-0.851892392 10:0.044699696 11:-0.327001161 12:-0.822792365 13:-0.370973326 14:0.255641946 15:-0.723577815 16:-0.844747573 17:-0.75706226 18:-0.909935096 19:0.711417837 20:-0.225256187 21:-0.750886097 
268435456  1:-0.076045553 2:0.419942879 3:0.859234556 4:0.189201603 5:-0.681844305 6:-0.804071758 7:-0.516273008 8:0.429956481 9:-0.844633967 10:-0.00363449 11:-0.180522903 12:-0.782860671 13:-0.181533733 14:-0.323747757 15:0.029424622 16:-0.790283212 17:-0.871058797 18:-0.660866431 19:0.763343601 20:0.003272276 21:-0.668982006 
268435456  1:-0.021065579 2:0.40066031 3:0.853509869 4:0.129912132 5:-0.728576634 6:-0.821186228 7:-0.552804807 8:0.512596634 9:-0.809069948 10:0.006581231 11:-0.233339408 12:-0.798549698 13:-0.189065375 14:-0.213122002 15:-0.100837174 16:-0.801154364 17:-0.859940983 18:-0.716730108 19:0.751713575 20:-0.0539301 21:-0.647284012 
268435456  1:-0.008740139 2:0.489889838 3:0.893626307 4:0.241679887 5:-0.581201893 6:-0.871375351 7:-0.353369308 8:0.432132209 9:-0.788182106 10:0.082206476 11:-0.348553846 12:-0.867728037 13:-0.283826229 14:-0.098665106 15:-0.21157936 16:-0.84058354 17:-0.861266689 18:-0.772986528 19:0.815074884 20:0.080083071 21:-0.70724714 
268435456  1:-0.070137498 2:0.405178234 3:0.858873357 4:0.170611618 5:-0.699182772 6:-0.815058564 7:-0.537222489 8:0.470554323 9:-0.824189775 10:-0.024379794 11:-0.212033292 12:-0.785470101 13:-0.142085466 14:-0.339202527 15:0.038267955 16:-0.785718435 17:-0.883206839 18:-0.669269202 19:0.761636381 20:-0.006423795 21:-0.629722751 
268435456  1:-0.004172224 2:0.435990873 3:0.860879327 4:0.167947047 5:-0.732164892 6:-0.821186228 7:-0.547142954 8:0.471852839 9:-0.847112139 10:0.025382926 11:-0.26554636 12:-0.816522502 13:-0.240514695 14:-0.193813938 15:-0.175163173 16:-0.808732559 17:-0.847138335 18:-0.735180396 19:0.76417137 20:-0.044659063 21:-0.690234442 
268435456  1:-0.13313795 2:0.48323227 3:0.853221447 4:0.299821113 5:-0.478240917 6:-0.716572897 7:-0.224756937 8:0.553348664 9:-0.795424781 10:0.321129234 11:-0.03507456 12:-0.834476089 13:-0.386424311 14:-0.228590243 15:-0.280144115 16:-0.790626482 17:-0.774747527 18:-0.68618312 19:0.762513293 20:0.007222875 21:-0.466470678 
268435456  1:-0.664729349 2:0.240947835 3:0.857481543 4:0.416821545 5:-0.716176536 6:-0.633203567 7:-0.71989176 8:0.630898058 9:-0.788489553 10:-0.013584073 11:0.089867865 12:-0.664520674 13:-0.035139446 14:-0.517094552 15:-0.502955157 16:-0.609813173 17:-0.832673714 18:-0.748654742 19:0.778322151 20:0.156528628 21:-0.622889233 
268435456  1:-0.730107466 2:0.176348648 3:0.870347603 4:0.410460356 5:-0.714450437 6:-0.690988051 7:-0.733893265 8:0.633676432 9:-0.799276888 10:-0.009311255 11:0.119320225 12:-0.712452384 13:-0.124219542 14:-0.528047216 15:-0.424567734 16:-0.666369599 17:-0.847867051 18:-0.716995119 19:0.793352235 20:0.112238451 21:-0.601312655 
268435456  1:-0.145641195 2:0.320304373 3:0.733529599 4:0.112371625 5:-0.836658253 6:-0.515729987 7:-0.636919967 8:0.448686577 9:-0.821430978 10:0.125373871 11:-0.360287256 12:-0.688420189 13:-0.208296373 14:-0.149885398 15:-0.358535945 16:-0.6744317 17:-0.696658358 18:-0.66174722 19:0.598242575 20:-0.128417735 21:-0.820842095 
53385771.14  1:-0.094873973 2:-0.023231111 3:0.572000208 4:-0.350083752 5:-0.922771153 6:-0.051462242 7:-0.795972404 8:0.129911822 9:-0.888264492 10:-0.029586805 11:-0.647123914 12:-0.557671958 13:-0.043558851 14:0.06695135 15:-0.031325301 16:-0.676470588 17:-0.694887079 18:-0.579831933 19:0.355485152 20:-0.367053828 21:-0.912691997 
268435456  1:0.19088077 2:0.422653191 3:0.834507843 4:0.031825796 5:-0.264735945 6:-0.821186228 7:0.092634719 8:0.366298736 9:-0.74224354 10:0.00765176 11:-0.553117421 12:-0.848888889 13:-0.448717949 14:0.206751055 15:-0.521428571 16:-0.8625 17:-0.762731415 18:-0.846938776 19:0.719591359 20:-0.214437367 21:-0.173807599 
268435456  1:-0.499858397 2:0.494013265 3:0.851212519 4:0.512802106 5:-0.27677456 6:-0.486992623 7:0.091254895 8:0.698280505 9:-0.811193724 10:0.45604489 11:-0.350222236 12:-0.828571429 13:-0.039702233 14:-0.452021233 15:-0.567741935 16:-0.541666667 17:-0.760193783 18:-0.735449735 19:0.780283344 20:0.331446096 21:-0.438156831 
268435456  1:0.129141886 2:0.418721052 3:0.536806955 4:0.0634123 5:-0.678818853 6:-0.051462242 7:-0.364236435 8:0.371609965 9:-0.625341594 10:0.082809046 11:-0.345136692 12:-0.295238095 13:-0.315649867 14:0.158737087 15:-0.075862069 16:-0.625 17:-0.417036738 18:-0.350649351 19:0.387543999 20:0.004696648 21:-0.576394503 
268435456  1:-0.209572359 2:0.494706644 3:0.897306206 4:0.355826753 5:-0.869619534 6:-0.821186228 7:-0.739287712 8:0.447587389 9:-0.860386419 10:-0.086039789 11:-0.3961605 12:-0.838730159 13:-0.173076923 14:-0.305731364 15:-0.441666667 16:-0.772413793 17:-0.856055016 18:-0.802955665 19:0.825749648 20:0.126290358 21:-0.9021827 
268435456  1:-0.235060889 2:0.437609147 3:0.945904725 4:0.305336205 5:-0.758091993 6:-0.976102366 7:-0.706805892 8:0.557655298 9:-0.799659534 10:-0.508757014 11:-0.301068162 12:-0.873015873 13:-0.230769231 14:-0.127857914 15:-0.480620155 16:-0.874237805 17:-0.917519226 18:-0.891114983 19:0.896939638 20:0.110040909 21:-0.609539208 
268435456  1:-0.080430473 2:0.626880315 3:0.830915477 4:0.451543431 5:-0.192049972 6:-0.486992623 7:0.281558829 8:0.638870223 9:-0.676772066 10:0.544975344 11:0.10910707 12:-0.760846561 13:-0.25460455 14:0.004100553 15:-0.811267606 16:-0.666666667 17:-0.598708115 18:-0.891774892 19:0.749403091 20:0.297432928 21:-0.246564268 
207285686.6  1:-0.416029453 2:0.199912357 3:0.86316966 4:0.179947356 5:-0.553435548 6:-0.821186228 7:-0.480216297 8:0.468042923 9:-0.760032265 10:-0.462166298 11:-0.031300627 12:-0.666031746 13:0.056623932 14:-0.373417722 15:-0.534722222 16:-0.725 17:-0.883379263 18:-0.844720497 19:0.768043091 20:-0.065632789 21:-0.248989491 
268435456  1:-0.090909091 2:0.555440127 3:0.899473468 4:0.367073463 5:-0.762634867 6:-0.821186228 7:-0.682677606 8:0.612010476 9:-0.895358153 10:-0.071926543 11:-0.075865648 12:-0.767619048 13:0.072765073 14:-0.249021173 15:-0.758558559 16:-0.725 17:-0.857892612 18:-0.920634921 19:0.829413323 20:0.221042699 21:-0.661277284 
268435456  1:-0.271594449 2:0.564170867 3:0.730913917 4:0.465661642 5:-0.760136286 6:-0.051462242 7:-0.455304867 8:0.66565809 9:-0.803582928 10:0.677605849 11:0.169149199 12:-0.726984127 13:-0.253101737 14:-0.347216551 15:-0.783870968 16:-0.3984375 17:-0.471538151 18:-0.776785714 19:0.65004846 20:0.126433121 21:-0.797089733 
268435456  1:0.814216936 2:0.492292832 3:0.618917259 4:-0.204833692 5:-0.673367405 6:-0.486992623 7:-0.32425881 8:0.167287632 9:-0.446847125 10:0.520319674 11:-0.849604473 12:-0.879365079 13:-1 14:0.611634797 15:-0.429787234 16:-1 17:-0.378280178 18:-0.682539683 19:0.426865523 20:-0.622929936 21:-0.81851253 
268435456  1:0.457094308 2:0.423830861 3:0.644180496 4:-0.126585307 5:-0.558205565 6:-0.486992623 7:-0.195599478 8:0.240077978 9:-0.596188748 10:0.231253188 11:-0.26641729 12:-0.71005291 13:-0.669230769 14:0.276371308 15:-0.4975 16:-0.853333333 17:-0.495518773 18:-0.714285714 19:0.465301426 20:-0.547855626 21:-0.504042037 
21861622.12  1:0.145636112 2:0.4407814 3:0.844627076 4:0.084060318 5:-0.271174178 6:-0.821186228 7:0.080842633 8:0.519591381 9:-0.783163401 10:-0.067835113 11:-0.548293126 12:-0.818972807 13:-0.375495295 14:0.162717077 15:-0.392482331 16:-0.851252254 17:-0.783048584 18:-0.815637071 19:0.736697546 20:-0.093645132 21:-0.30206513 
268435456  1:0.094276055 2:0.49594723 3:0.880216673 4:0.188472912 5:-0.390226248 6:-0.864329193 7:-0.052309232 8:0.469883812 9:-0.731524751 10:0.012144189 11:-0.370888033 12:-0.871752031 13:-0.286886186 14:-0.014654043 15:-0.638501217 16:-0.831879146 17:-0.822377612 18:-0.888599801 19:0.79315051 20:-0.065800689 21:-0.277275753 
268435456  1:0.18717729 2:0.435553605 3:0.8386133 4:0.052997932 5:-0.402193887 6:-0.821186228 7:-0.071005996 8:0.419710571 9:-0.751834531 10:-0.011887532 11:-0.481031143 12:-0.834756377 13:-0.434773829 14:0.20283778 15:-0.541603535 16:-0.859022077 17:-0.763597937 18:-0.853391323 19:0.726531481 20:-0.185115678 21:-0.214744186 
268435456  1:0.11426879 2:0.376525907 3:0.831272776 4:0.015120648 5:-0.490203864 6:-0.821186228 7:-0.168663623 8:0.355764769 9:-0.747124186 10:0.066819125 11:-0.422807646 12:-0.85442943 13:-0.455710218 14:0.189090275 15:-0.612479065 16:-0.859722515 17:-0.756503339 18:-0.872703939 19:0.7141226 20:-0.289146933 21:-0.422917782 
268435456  1:0.199665081 2:0.450993922 3:0.832685537 4:0.069438327 5:-0.351803833 6:-0.796061177 7:-0.018347705 8:0.420130832 9:-0.743825533 10:0.000524502 11:-0.501286131 12:-0.831324338 13:-0.463159955 14:0.156088536 15:-0.47545885 16:-0.856537895 17:-0.753694901 18:-0.814491946 19:0.719591359 20:-0.189304696 21:-0.162964487 
268435456  1:0.340419469 2:0.423314717 3:0.727596286 4:-0.057157621 5:-0.429585057 6:-0.633461452 7:-0.069273526 8:0.295397429 9:-0.660200967 10:0.133254188 11:-0.392070898 12:-0.770901301 13:-0.572585429 14:0.245858465 15:-0.507987304 16:-0.857350858 17:-0.612631494 18:-0.772424285 19:0.576750443 20:-0.401726613 21:-0.359308414 
268435456  1:-0.22886566 2:0.421404966 3:0.939700407 4:0.282340739 5:-0.767001051 6:-0.969851956 7:-0.713043092 8:0.54318949 9:-0.806760963 10:-0.489023208 11:-0.303344663 12:-0.867005379 13:-0.225187003 14:-0.12290205 15:-0.455033862 16:-0.871577879 17:-0.914732066 18:-0.883481764 19:0.886632693 20:0.092126492 21:-0.62629266 
268435456  1:-0.221491352 2:0.32667491 3:0.860895454 4:0.167984298 5:-0.827566527 6:-0.821186228 7:-0.643830971 8:0.41225975 9:-0.853777915 10:0.078208941 11:-0.164255733 12:-0.843194876 13:-0.165963868 14:-0.325043548 15:-0.436863976 16:-0.768547614 17:-0.860550211 18:-0.799608324 19:0.764198631 20:-0.163831399 21:-0.870182897 
268435456  1:0.163951178 2:0.465081853 3:0.845598428 4:0.110330979 5:-0.743532991 6:-0.810685215 7:-0.484298693 8:0.547254684 9:-0.771625598 10:-0.075532333 11:-0.278482006 12:-0.779631253 13:-0.373369018 14:0.181961016 15:-0.59005382 16:-0.84073147 17:-0.764491318 18:-0.866955263 19:0.739736006 20:-0.096580796 21:-0.325611252 
268435456  1:0.158169353 2:0.449040869 3:0.846107043 4:0.091637639 5:-0.746470774 6:-0.821186228 7:-0.478869467 8:0.526030872 9:-0.77282059 10:-0.035308405 11:-0.297107814 12:-0.807394754 13:-0.408203718 14:0.189891757 15:-0.608347009 16:-0.85113015 17:-0.76362837 18:-0.873799187 19:0.739199374 20:-0.146030294 21:-0.368176542 
14672481.22  1:-0.337900542 2:0.545318534 3:0.843375021 4:0.489147688 5:-0.244059016 6:-0.486992623 7:0.164738836 8:0.675339825 9:-0.759288159 10:0.490384487 11:-0.172856866 12:-0.802420155 13:-0.122684591 14:-0.275894415 15:-0.661776912 16:-0.589934154 17:-0.697837724 18:-0.795813115 19:0.768359246 20:0.318312255 21:-0.364175299 
268435456  1:-0.313981738 2:0.512904309 3:0.872813207 4:0.437148866 5:-0.348025479 6:-0.631002817 7:0.004534166 8:0.643333209 9:-0.780388216 10:0.300354903 11:-0.312252482 12:-0.849504506 13:-0.086816267 14:-0.352525141 15:-0.621820811 16:-0.636576068 17:-0.796977402 18:-0.799898866 19:0.803102354 20:0.22804506 21:-0.407030089 
268435456  1:0.130833701 2:0.418733026 3:0.539008615 4:0.062405573 5:-0.679815281 6:-0.05798297 7:-0.364958929 8:0.371319325 9:-0.628174135 10:0.089178669 11:-0.34609292 12:-0.302969628 13:-0.317207744 14:0.159090212 15:-0.082658761 16:-0.627002823 17:-0.419269977 18:-0.356619017 19:0.389612008 20:0.000676312 21:-0.5797532 
268435456  1:-0.269539888 2:0.491698136 3:0.692349379 4:0.385017525 5:-0.776764583 6:-0.051462242 7:-0.608408576 8:0.662773067 9:-0.847529065 10:0.415078598 11:0.161339468 12:-0.492490186 13:-0.154876942 14:-0.275216366 15:-0.65023956 16:-0.402215967 17:-0.497897419 18:-0.688457918 19:0.59789493 20:0.139478713 21:-0.854137446 
268435456  1:-0.275226874 2:0.444092637 3:0.669547043 4:0.337418902 5:-0.78405152 6:-0.051462242 7:-0.680066578 8:0.645317921 9:-0.869790599 10:0.279357198 11:0.142748442 12:-0.370353781 13:-0.089585299 14:-0.24033659 15:-0.563528552 16:-0.40122589 17:-0.517180323 18:-0.633593575 19:0.567057731 20:0.148358949 21:-0.88300773 
268435456  1:-0.34556091 2:0.332599723 3:0.858338239 4:0.26326296 5:-0.803288996 6:-0.756977002 7:-0.635204687 8:0.476016516 9:-0.730643717 10:0.171110439 11:-0.255099759 12:-0.82440468 13:0.041458109 14:-0.348304653 15:-0.551993812 16:-0.692260351 17:-0.852097113 18:-0.831652532 19:0.766985571 20:0.040959295 21:-0.766107418 
268435456  1:-0.215598657 2:0.481206983 3:0.908796439 4:0.343889184 5:-0.843250883 6:-0.857813321 7:-0.731607979 8:0.473610937 9:-0.846028655 10:-0.185983561 11:-0.373677652 12:-0.84683639 13:-0.186717216 14:-0.263676434 15:-0.450876508 16:-0.796488222 17:-0.870587107 18:-0.823799326 19:0.842581222 20:0.122448472 21:-0.832992488 
268435456  1:-0.203088559 2:0.498025142 3:0.897424626 4:0.356441277 5:-0.863773857 6:-0.821186228 7:-0.736194517 8:0.456571521 9:-0.862297286 10:-0.085268637 11:-0.378659483 12:-0.834844624 13:-0.159644035 14:-0.302632701 15:-0.458981745 16:-0.769823088 17:-0.856155423 18:-0.809385699 19:0.825949833 20:0.131467657 21:-0.889019548 
268435456  1:0.237665411 2:0.600727028 3:0.876156699 4:0.274081432 5:-0.367946446 6:-0.792636178 7:-0.140988894 8:0.369706228 9:-0.744643304 10:0.13267663 11:-0.085211077 12:-0.83317295 13:-0.629054219 14:0.05528787 15:-0.214767783 16:-0.891038859 17:-0.769307618 18:-0.726276349 19:0.793149557 20:0.015300116 21:-0.370957148 
268435456  1:0.235186386 2:0.469677362 3:0.843173588 4:0.076484482 5:-0.69377435 6:-0.766669488 7:-0.424921852 8:0.502775976 9:-0.783372928 10:-0.042873282 11:-0.34251111 12:-0.813541605 13:-0.467183469 14:0.245080579 15:-0.624810186 16:-0.865748053 17:-0.749271883 18:-0.878592774 19:0.734240479 20:-0.17467365 21:-0.456639765 
268435456  1:0.062378262 2:0.437397039 3:0.86790478 4:0.133170262 5:-0.639036525 6:-0.824802019 7:-0.346259998 8:0.593965825 9:-0.790457922 10:0.054357109 11:-0.138647363 12:-0.834742563 13:-0.331502594 14:0.054464568 15:-0.590164003 16:-0.841858138 17:-0.807352815 18:-0.875010107 19:0.772724313 20:-0.12006527 21:-0.465294919 
268435456  1:0.014704651 2:0.355003871 3:0.845839414 4:0.046483842 5:-0.626677902 6:-0.823417904 7:-0.324696323 8:0.42782178 9:-0.766778076 10:0.138568704 11:-0.212676478 12:-0.864702326 13:-0.402608404 14:0.094156571 15:-0.659759628 16:-0.850320616 17:-0.780975313 18:-0.890498444 19:0.736695794 20:-0.290761572 21:-0.633482723 
268435456  1:0.081132897 2:0.442545408 3:0.864869714 4:0.129059302 5:-0.658531152 6:-0.824213324 7:-0.370559107 8:0.588153486 9:-0.788220328 10:0.035319235 11:-0.163945907 12:-0.828775931 13:-0.342427097 14:0.076968761 15:-0.590778682 16:-0.843183733 17:-0.800594964 18:-0.874215545 19:0.768134724 20:-0.118272226 21:-0.441791812 
268435456  1:0.083854757 2:0.19160825 3:0.783044329 4:-0.224923396 5:-0.89374035 6:-0.817604854 7:-0.670473092 8:0.213449143 9:-0.873376796 10:0.15636761 11:-0.243207826 12:-0.826295351 13:-0.313003155 14:0.243706705 15:-0.670994506 16:-0.83513692 17:-0.766224574 18:-0.896937888 19:0.633170576 20:-0.489948332 21:-0.876989861 
268435456  1:0.100912252 2:0.314274052 3:0.760781023 4:-0.066250893 5:-0.864980866 6:-0.706250982 7:-0.574845206 8:0.36765102 9:-0.871507841 10:0.05728678 11:-0.317552016 12:-0.756784587 13:-0.48448209 14:0.047201366 15:-0.130681838 16:-0.840319184 17:-0.732153234 18:-0.653232771 19:0.613455993 20:-0.354163502 21:-0.887868785 
268435456  1:-0.506722462 2:0.490736378 3:0.853219557 4:0.514081455 5:-0.269399098 6:-0.494631169 7:0.102759176 8:0.690633098 9:-0.813550013 10:0.452566079 11:-0.32905857 12:-0.825403191 13:-0.031286943 14:-0.460922894 15:-0.547581933 16:-0.544565029 17:-0.766448552 18:-0.730506969 19:0.782846419 20:0.337186505 21:-0.448385729 
268435456  1:0.229438534 2:0.555749784 3:0.825519734 4:0.210086128 5:-0.678661909 6:-0.701301658 7:-0.435814606 8:0.620122907 9:-0.749295401 10:-0.029289761 11:-0.302787921 12:-0.762247218 13:-0.511142898 14:-0.033309587 15:-0.306026157 16:-0.83262009 17:-0.720103724 18:-0.694376721 19:0.719115946 20:-0.092479762 21:-0.126087646 
268435456  1:0.063898357 2:0.549381917 3:0.896616069 4:0.282746228 5:-0.515173552 6:-0.859490805 7:-0.20566884 8:0.557362893 9:-0.728681393 10:0.007724499 11:-0.254208099 12:-0.865498855 13:-0.235760254 14:-0.145730639 15:-0.64465122 16:-0.814657762 17:-0.83799736 18:-0.876822624 19:0.822087763 20:0.014488035 21:-0.30856626 
268435456  1:0.203745468 2:0.464158435 3:0.831839061 4:0.08690967 5:-0.392247614 6:-0.784390375 7:-0.069899994 8:0.445136302 9:-0.744560382 10:-0.002786171 11:-0.477210052 12:-0.823165454 13:-0.469868391 14:0.132555362 15:-0.454105519 16:-0.853768446 17:-0.749497362 18:-0.799420115 19:0.719591359 20:-0.177630354 21:-0.157927769 
268435456  1:0.198120461 2:0.492484109 3:0.807647403 4:0.136322204 5:-0.731734756 6:-0.701301658 7:-0.475959728 8:0.555092534 9:-0.783715232 10:-0.004673372 11:-0.308982999 12:-0.761684712 13:-0.509031409 14:-0.014478811 15:-0.249842805 16:-0.835530483 17:-0.722745219 18:-0.678949314 19:0.690111938 20:-0.163959199 21:-0.329751902 
268435456  1:0.319514958 2:0.501874902 3:0.828025495 4:0.077733897 5:-0.592873558 6:-0.662936828 7:-0.324823026 8:0.463358897 9:-0.781328763 10:-0.007901858 11:-0.401184027 12:-0.819220904 13:-0.586426444 14:0.223394148 15:-0.556203888 16:-0.877808356 17:-0.7142716 18:-0.825092925 19:0.713836478 20:-0.243307563 21:-0.538814537 
268435456  1:0.81291775 2:0.490870435 3:0.618941975 4:-0.206606244 5:-0.673840778 6:-0.487909719 7:-0.324932266 8:0.168321447 9:-0.447049105 10:0.518104704 11:-0.848622606 12:-0.878876015 13:-0.998964293 14:0.611403917 15:-0.429430143 16:-0.999695652 17:-0.37929852 18:-0.682844177 19:0.426721481 20:-0.624448296 21:-0.812159286 
268435456  1:0.071472176 2:0.32992344 3:0.819245527 4:-0.02718906 5:-0.682981607 6:-0.815699701 7:-0.390818291 8:0.349816706 9:-0.739424027 10:0.110946215 11:-0.328193635 12:-0.854747155 13:-0.475104845 14:0.191911885 15:-0.672719035 16:-0.860678325 17:-0.74513089 18:-0.887750573 19:0.695086056 20:-0.380083138 21:-0.571214887 
268435456  1:0.279883963 2:0.470188448 3:0.83844934 4:0.052097001 5:-0.643349358 6:-0.724376482 7:-0.370163879 8:0.459727786 9:-0.788538394 10:-0.027589551 11:-0.380120097 12:-0.825524589 13:-0.520388078 14:0.285726978 15:-0.648759135 16:-0.877965081 17:-0.736414181 18:-0.885158127 19:0.726254313 20:-0.225581387 21:-0.561914694 
268435456  1:0.254998161 2:0.424839304 3:0.698825478 4:-0.002966486 5:-0.724747981 6:-0.502940923 7:-0.397144436 8:0.354626653 9:-0.812892728 10:0.456153254 11:-0.413580114 12:-0.815474757 13:-0.440747296 14:0.20112632 15:-0.546875251 16:-0.773494407 17:-0.581140463 18:-0.764669513 19:0.544715899 20:-0.27010925 21:-0.797273892 
268435456  1:0.134626156 2:0.465766782 3:0.844607354 4:0.127964149 5:-0.65731602 6:-0.769444612 7:-0.384450085 8:0.576384908 9:-0.798700512 10:-0.076883949 11:-0.302124829 12:-0.784145773 13:-0.414793766 14:0.19723058 15:-0.622052787 16:-0.845708905 17:-0.744864234 18:-0.873712417 19:0.739551363 20:-0.096562495 21:-0.434798709 
268435456  1:0.137884771 2:0.414084006 3:0.840886916 4:0.064718603 5:-0.390908876 6:-0.821186228 7:-0.132102031 8:0.432793561 9:-0.781810297 10:0.168407499 11:-0.245472297 12:-0.862027428 13:-0.549345639 14:0.234716198 15:-0.637712112 16:-0.880618516 17:-0.73688312 18:-0.876869308 19:0.730374944 20:-0.258926408 21:-0.68983931 
268435456  1:0.184907003 2:0.425046705 3:0.835843911 4:0.038722452 5:-0.265586002 6:-0.821186228 7:0.09107778 8:0.386538353 9:-0.747646293 10:-0.002314964 11:-0.552480457 12:-0.844938993 13:-0.439050176 14:0.200937137 15:-0.504403472 16:-0.861014932 17:-0.765413942 18:-0.842805932 19:0.721849932 20:-0.198488862 21:-0.190741766 
268435456  1:-0.215450592 2:0.318396393 3:0.889506417 4:0.155315015 5:-0.800494712 6:-0.903622591 7:-0.709353281 8:0.458448909 9:-0.810544212 10:-0.345668694 11:-0.267181256 12:-0.8094457 13:-0.136337845 14:-0.120722975 15:-0.436033102 16:-0.827508037 17:-0.885786255 18:-0.856368941 19:0.806730068 20:-0.022566354 21:-0.682914899 
