svm_type c_svc
kernel_type rbf
gamma 0.06
nr_class 2
total_sv 3023
rho 5.75347
label 1 0
probA -2.28693
probB -0.0597786
nr_sv 1512 1511
SV
1 1:-1 2:-1 3:-0.702868 4:0.653923 5:0.467313 6:0.267688 7:0.65385 8:-1 9:0.141463 10:-0.905341 11:0.998618 12:1 13:1 14:1 15:-0.974605 16:-1 17:0.871212 18:-1 
1 1:-0.939394 2:0.532771 3:0.695249 4:-0.372273 5:0.776179 6:-0.36548 7:-0.146824 8:-0.333333 9:-0.853659 10:0.456625 11:0.12572 12:-0.241413 13:-0.609363 14:-0.902548 15:-0.998168 16:0.00997282 17:-0.484066 18:-0.908618 
1 1:-1 2:0.435664 3:0.482533 4:-0.143856 5:0.880452 6:-0.651645 7:-0.223315 8:-0.288889 9:-0.892683 10:0.342499 11:0.617007 12:0.123108 13:-0.305305 14:-0.850331 15:-0.99383 16:-0.197093 17:-0.0226875 18:-0.673055 
1 1:-1 2:0.461092 3:0.651697 4:-0.515851 5:0.7251 6:-0.497521 7:-0.353384 8:0.142857 9:-0.869268 10:0.156649 11:0.841032 12:0.0692733 13:-0.342252 14:-0.875767 15:-0.997923 16:0.167997 17:-0.448886 18:-0.605538 
1 1:-0.919192 2:0.475888 3:0.722505 4:-0.18337 5:0.749131 6:-0.189725 7:-0.0261287 8:-0.111111 9:-0.795122 10:0.48254 11:-0.30139 12:-0.460983 13:-0.754101 14:-0.91892 15:-0.998195 16:-0.172865 17:-0.257778 18:-0.114672 
1 1:-1 2:0.245616 3:0.416428 4:0.006735 5:0.652695 6:0.072405 7:-0.291206 8:0.655172 9:-0.710569 10:0.158535 11:0.812678 12:0.365365 13:-0.112461 14:-0.794245 15:-0.987775 16:-0.240079 17:0.301236 18:-0.962943 
1 1:-1 2:0.330009 3:0.603517 4:-0.157022 5:0.868079 6:-0.485804 7:-0.325784 8:0.244444 9:-0.853659 10:0.261224 11:0.79275 12:0.327098 13:-0.261894 14:-0.806075 15:-0.99598 16:-0.223608 17:-0.171988 18:-0.97974 
1 1:-1 2:0.495835 3:0.620171 4:-0.25854 5:0.86887 6:-0.312528 7:-0.0785703 8:-0.604938 9:-0.82439 10:0.411607 11:0.582411 12:0.0733419 13:-0.330668 14:-0.860736 15:-0.996604 16:-0.0766922 17:-0.291103 18:-0.177073 
1 1:-0.959596 2:0.407606 3:0.651007 4:0.0469477 5:0.615244 6:0.738621 7:-0.191728 8:-0.0804598 9:-0.521951 10:0.434055 11:0.618384 12:0.259142 13:-0.449524 14:-0.798552 15:-0.996564 16:-0.32734 17:-0.258679 18:-0.855347 
1 1:-1 2:0.341517 3:0.440802 4:0.352023 5:0.748541 6:0.100946 7:0.0117667 8:-0.372549 9:-0.645528 10:0.401387 11:0.858068 12:0.515419 13:-0.189684 14:-0.725318 15:-0.990366 16:-0.454059 17:0.388908 18:-0.784823 
1 1:-0.757576 2:0.514687 3:0.831418 4:-0.407087 5:0.811133 6:-0.302388 7:-0.867898 8:0.131313 9:-0.765854 10:0.504928 11:-0.290464 12:-0.474007 13:-0.811028 14:-0.925331 15:-0.999145 16:-0.0845959 17:-0.17224 18:-0.650151 
1 1:-0.959596 2:0.434349 3:0.672756 4:-0.4167 5:0.816161 6:-0.585549 7:-0.288724 8:-0.483871 9:-0.886179 10:0.262197 11:0.535527 12:0.00290113 13:-0.488315 14:-0.874507 15:-0.997369 16:-0.00173393 17:-0.309476 18:-0.518627 
1 1:-1 2:0.477203 3:0.559892 4:-0.153793 5:0.746218 6:-0.339567 7:-0.092533 8:-1 9:-0.795122 10:0.394269 11:0.859052 12:0.271229 13:-0.234032 14:-0.833361 15:-0.996835 16:-0.10404 17:-0.063579 18:-0.773473 
1 1:-0.393939 2:0.693775 3:0.849404 4:-0.782166 5:0.851185 6:-0.683942 7:-0.341835 8:0.269841 9:-0.95122 10:0.39433 11:-0.205682 12:-0.629536 13:-0.782272 14:-0.958819 15:-0.998973 16:0.364687 17:-0.574832 18:-0.543562 
1 1:-0.919192 2:0.508001 3:0.761645 4:-0.422081 5:0.910967 6:-0.68244 7:-0.488097 8:-0.428571 9:-0.905691 10:0.415622 11:-0.611943 12:-0.725397 13:-0.872088 14:-0.96375 15:-0.99925 16:-0.12476 17:-0.297177 18:-0.351683 
1 1:-1 2:0.517536 3:0.677926 4:-0.238559 5:0.89545 6:-0.830216 7:0.0610386 8:-0.555556 9:-0.912195 10:0.407775 11:0.33439 12:-0.123179 13:-0.467658 14:-0.889793 15:-0.996729 16:-0.00488538 17:-0.10568 18:-0.37972 
1 1:-1 2:0.467558 3:0.528906 4:-0.241734 5:0.849936 6:-0.511041 7:-0.341835 8:-0.264368 9:-0.861463 10:0.395547 11:0.601083 12:0.113754 13:-0.413248 14:-0.851325 15:-0.997303 16:-0.0831361 17:-0.0413893 18:-0.807082 
1 1:-0.858586 2:0.539128 3:0.777337 4:-0.250361 5:0.807076 6:0.168544 7:0.00978865 8:0.0666667 9:-0.762602 10:0.50073 11:0.409845 12:-0.0250001 13:-0.567162 14:-0.870948 15:-0.997958 16:-0.0224596 17:-0.290206 18:-0.534526 
1 1:-1 2:0.530359 3:0.653653 4:-0.0955007 5:0.859438 6:-0.641881 7:-0.180953 8:-0.390476 9:-0.860163 10:0.452914 11:0.501252 12:0.00497083 13:-0.473234 14:-0.871392 15:-0.997681 16:-0.130023 17:-0.269847 18:-0.585294 
1 1:-1 2:0.371 3:0.565968 4:-0.278861 5:0.784605 6:-0.531095 7:-0.414966 8:0.287356 9:-0.804878 10:0.239932 11:0.801838 12:0.250174 13:-0.310323 14:-0.833388 15:-0.997416 16:-0.1706 17:-0.396851 18:-0.685082 
1 1:-0.939394 2:0.412758 3:0.769988 4:-0.323074 5:0.813401 6:-0.482199 7:-0.242659 8:-0.384615 9:-0.884878 10:0.350651 11:0.898112 12:0.362035 13:-0.425711 14:-0.810129 15:-0.996029 16:-0.180032 17:-0.302519 18:-0.756629 
1 1:-1 2:0.484437 3:0.661029 4:-0.187011 5:0.785646 6:-0.398152 7:-0.20504 8:-0.816092 9:-0.804878 10:0.407045 11:0.776132 12:0.216775 13:-0.345437 14:-0.840237 15:-0.997405 16:-0.0300626 17:-0.329746 18:-0.600957 
1 1:-1 2:0.476107 3:0.620847 4:-0.178886 5:0.793968 6:-0.295629 7:0.0939336 8:-0.589744 9:-0.834146 10:0.449203 11:0.517747 12:0.0953303 13:-0.367639 14:-0.846712 15:-0.995177 16:-0.0815009 17:0.126131 18:-0.474864 
1 1:-0.919192 2:0.541539 3:0.732297 4:-0.163299 5:0.871644 6:-0.604326 7:-0.242659 8:-0.179487 9:-0.918699 10:0.551344 11:0.0422677 12:-0.238069 13:-0.667282 14:-0.892443 15:-0.998212 16:-0.111765 17:-0.255169 18:-0.60801 
1 1:-1 2:0.407826 3:0.649593 4:-0.259078 5:0.90209 6:-0.580291 7:-0.240767 8:-0.311828 9:-0.886179 10:0.312082 11:0.195352 12:-0.153149 13:-0.580102 14:-0.884942 15:-0.997654 16:-0.170306 17:0.348906 18:-0.553668 
1 1:-1 2:0.478189 3:0.613891 4:-0.284601 5:0.848854 6:-0.528166 7:-0.0652157 8:-0.139785 9:-0.845854 10:0.380277 11:0.491105 12:0.0109721 13:-0.437539 14:-0.868961 15:-0.995145 16:-0.134258 17:0.282682 18:-0.915544 
1 1:-1 2:0.417251 3:0.599126 4:-0.430816 5:0.862628 6:-0.68244 7:-0.500002 8:-0.604938 9:-0.912195 10:0.174778 11:0.718372 12:0.0727714 13:-0.374575 14:-0.870294 15:-0.997424 16:-0.0258523 17:-0.46092 18:-0.672929 
1 1:-1 2:0.42317 3:0.664703 4:-0.186239 5:0.741745 6:-0.285489 7:-0.222424 8:-0.428571 9:-0.814634 10:0.360263 11:0.763218 12:0.260328 13:-0.360647 14:-0.825492 15:-0.996936 16:-0.17736 17:-0.227718 18:-0.81064 
1 1:-0.959596 2:0.532113 3:0.727493 4:-0.526971 5:0.8268 6:-0.399279 7:-0.377937 8:-0.555556 9:-0.900488 10:0.332887 11:0.52568 12:-0.081917 13:-0.495365 14:-0.891474 15:-0.99788 16:0.161854 17:-0.408489 18:-0.868098 
1 1:-0.79798 2:0.533648 3:0.813289 4:-0.680522 5:0.960971 6:-0.64113 7:-0.462499 8:-0.777778 9:-0.931707 10:0.318409 11:0.280161 12:-0.240166 13:-0.656527 14:-0.910826 15:-0.998015 16:0.0533351 17:-0.216357 18:-0.479807 
1 1:-1 2:0.474353 3:0.706055 4:-0.180607 5:0.661433 6:0.132492 7:-0.257457 8:0.131313 9:-0.658537 10:0.469157 11:0.602325 12:0.177928 13:-0.485577 14:-0.830294 15:-0.996414 16:-0.21197 17:-0.0773354 18:-0.732308 
1 1:-1 2:0.462078 3:0.718026 4:-0.389437 5:0.808907 6:-0.426318 7:-0.31746 8:-0.448276 9:-0.861463 10:0.29152 11:0.827674 12:0.173816 13:-0.415753 14:-0.855053 15:-0.995965 16:-0.253662 17:-0.0784912 18:-0.938543 
1 1:-0.979798 2:0.506466 3:0.628311 4:-0.375716 5:0.882047 6:-0.602824 7:-0.165787 8:0.0666667 9:-0.925203 10:0.308614 11:0.542509 12:-0.0549489 13:-0.355371 14:-0.887124 15:-0.996207 16:-0.0519536 17:-0.306902 18:-0.564908 
1 1:-1 2:0.246493 3:0.550127 4:-0.0965769 5:0.859507 6:-0.619348 7:-0.561221 8:0.00900901 9:-0.847154 10:0.18366 11:0.886969 12:0.444098 13:-0.321598 14:-0.775323 15:-0.99771 16:-0.304969 17:-0.305235 18:-0.998615 
1 1:-0.979798 2:0.485094 3:0.736702 4:-0.280099 5:0.695417 6:0.0168244 7:-0.407914 8:-0.428571 9:-0.723577 10:0.393539 11:0.549013 12:0.0504469 13:-0.522636 14:-0.863767 15:-0.997291 16:-0.0940722 17:-0.248602 18:0.118923 
1 1:-0.939394 2:0.534634 3:0.739808 4:-0.279776 5:0.794904 6:-0.410545 7:-0.684982 8:-0.179487 9:-0.834146 10:0.45991 11:0.576988 12:0.0546615 13:-0.514422 14:-0.865108 15:-0.998318 16:-0.066768 17:-0.480849 18:-0.7577 
1 1:-1 2:0.566857 3:0.7001 4:-0.467549 5:0.748541 6:0.100946 7:-0.285714 8:-0.777778 9:-0.77561 10:0.279353 11:0.886131 12:0.0299444 13:-0.302359 14:-0.882875 15:-0.996963 16:0.199464 17:-0.39214 18:-0.388236 
1 1:-1 2:0.472381 3:0.668195 4:-0.381205 5:0.833624 6:-0.46868 7:-0.16505 9:-0.838049 10:0.256722 11:0.126464 12:-0.302009 13:-0.578128 14:-0.916087 15:-0.998324 16:0.0937652 17:-0.228022 18:-0.924753 
1 1:-1 2:0.388645 3:0.604796 4:-0.389993 5:0.753084 6:-0.357594 7:-0.428572 8:-0.209877 9:-0.82439 10:0.124103 11:0.728131 12:0.0788036 13:-0.282357 14:-0.869569 15:-0.996916 16:0.0296835 17:-0.407904 18:-0.836598 
1 1:-1 2:0.325734 3:0.491905 4:0.2316 5:0.844735 6:-0.422938 7:-0.0378615 8:0.204301 9:-0.785366 10:0.284706 11:0.846572 12:0.39718 13:-0.0991403 14:-0.787554 15:-0.986581 16:-0.255884 17:0.205216 18:-0.944085 
1 1:-0.959596 2:0.488053 3:0.568107 4:-0.391428 5:0.765256 6:-0.354214 7:-0.324961 8:-0.809524 9:-0.814634 10:0.271323 11:0.530793 12:-0.0652134 13:-0.38878 14:-0.888572 15:-0.997615 16:0.0794584 17:-0.267665 18:-0.161143 
1 1:-1 2:0.429855 3:0.658579 4:-0.0851875 5:0.764735 6:-0.224651 7:-0.232142 8:-0.390476 9:-0.746341 10:0.408322 11:0.768887 12:0.304751 13:-0.40613 14:-0.810532 15:-0.996383 16:-0.168799 17:-0.173466 18:-0.882156 
1 1:-1 2:0.440596 3:0.674711 4:-0.180984 5:0.814233 6:-0.418206 7:-0.360116 8:0.411765 9:-0.822439 10:0.386543 11:0.682873 12:0.203517 13:-0.391586 14:-0.833376 15:-0.997772 16:-0.0839067 17:-0.549186 18:-0.911404 
1 1:-0.89899 2:0.531127 3:0.774685 4:-0.352471 5:0.857218 6:-0.62085 7:-0.374337 8:-0.111111 9:-0.853659 10:0.45407 11:0.287575 12:-0.135221 13:-0.631416 14:-0.88912 15:-0.998333 16:-0.0236782 17:-0.448623 18:-0.0502877 
1 1:-0.979798 2:0.502411 3:0.749004 4:-0.437973 5:0.877886 6:-0.573532 7:-0.267365 8:-0.259259 9:-0.853659 10:0.394148 11:0.407616 12:-0.0662306 13:-0.571515 14:-0.881587 15:-0.997778 16:0.0219459 17:-0.395802 18:-0.784256 
1 1:-0.959596 2:0.555239 3:0.738455 4:-0.579452 5:0.775867 6:-0.599369 7:-0.333905 8:-1 9:-0.900488 10:0.307215 11:0.540007 12:-0.1247 13:-0.51021 14:-0.899186 15:-0.997424 16:0.0885901 17:-0.45488 18:0.00136168 
1 1:-1 2:0.301074 3:0.57712 4:-0.0400065 5:0.836412 6:-0.262956 7:-0.344759 8:-0.264368 9:-0.804878 10:0.297907 11:0.983526 12:0.555818 13:-0.220912 14:-0.744174 15:-0.996705 16:-0.385262 17:-0.284837 18:-0.959921 
1 1:-1 2:0.426896 3:0.635985 4:-0.121669 5:0.683384 6:-0.267463 7:-0.232142 8:-0.407407 9:-0.82439 10:0.298211 11:0.953529 12:0.319902 13:-0.26598 14:-0.82915 15:-0.996724 16:-0.0279418 17:-0.153584 18:-0.801289 
1 1:-0.959596 2:0.251644 3:0.657009 4:0.046858 5:0.661433 6:0.0258374 7:-0.455693 8:-0.166667 9:-0.671545 10:0.294683 11:0.887384 12:0.559931 13:-0.384078 14:-0.705402 15:-0.995398 16:-0.403617 17:-0.377548 18:-0.851569 
1 1:-0.919192 2:0.462297 3:0.738198 4:-0.613908 5:0.654221 6:0.097942 7:-0.638652 8:-0.407407 9:-0.736585 10:0.271262 11:0.596201 12:0.0103176 13:-0.52461 14:-0.876674 15:-0.997036 16:-0.101584 17:-0.511068 18:-0.798172 
1 1:-1 2:0.287045 3:0.490288 4:-0.281785 5:0.838951 6:-0.507436 7:-0.477205 8:-0.372549 9:-0.822439 10:0.17855 11:0.879087 12:0.371707 13:-0.335521 14:-0.803828 15:-0.994851 16:-0.224068 17:-0.308174 18:-0.981267 
1 1:-1 2:0.538141 3:0.651684 4:-0.313066 5:0.794904 6:-0.410545 7:-0.20504 8:-0.238095 9:-0.814634 10:0.450785 11:0.663285 12:0.0966217 13:-0.421517 14:-0.861571 15:-0.997183 16:-0.055929 17:-0.0940315 18:-0.399838 
1 1:-1 2:0.245178 3:0.563322 4:-0.107536 5:0.770561 6:-0.155926 7:-0.666148 8:0.037037 9:-0.736585 10:0.235491 11:0.971542 12:0.566786 13:-0.335555 14:-0.734178 15:-0.994344 16:-0.424884 17:0.334622 18:-0.944069 
1 1:-1 2:0.473148 3:0.668824 4:-0.170133 5:0.833791 6:-0.504732 7:0.0920662 8:-0.833333 9:-0.838049 10:0.44239 11:0.688793 12:0.212976 13:-0.323463 14:-0.831034 15:-0.994582 16:-0.177194 17:-0.0111482 18:-0.799369 
1 1:-0.979798 2:0.480381 3:0.703037 4:-0.191764 5:0.789807 6:-0.225777 7:-0.0444406 8:-0.191919 9:-0.765854 10:0.492213 11:0.577305 12:0.174788 13:-0.45317 14:-0.827166 15:-0.99559 16:-0.176004 17:-0.204937 18:-0.827673 
1 1:-0.959596 2:0.534963 3:0.715299 4:-0.20527 5:0.778613 6:-0.442542 7:-0.49279 8:-0.719298 9:-0.79122 10:0.515635 11:0.709738 12:0.200682 13:-0.493156 14:-0.837692 15:-0.997169 16:-0.156657 17:-0.456732 18:-0.477068 
1 1:-1 2:0.375712 3:0.500702 4:0.0619961 5:0.668646 6:-0.0492714 7:-0.400696 8:-0.311828 9:-0.684553 10:0.375228 11:0.909304 12:0.462398 13:-0.31588 14:-0.772001 15:-0.997093 16:-0.289246 17:-0.0860704 18:-0.787232 
1 1:-1 2:0.395002 3:0.557774 4:-0.201162 5:0.829962 6:-0.289995 7:-0.339476 8:-1 9:-0.77561 10:0.273817 11:0.756155 12:0.214794 13:-0.377131 14:-0.838732 15:-0.997342 16:-0.119397 17:-0.345605 18:-0.0117199 
1 1:-0.919192 2:0.586366 3:0.748856 4:-0.491476 5:0.677246 6:-0.0492714 7:-0.561221 8:-0.757576 9:-0.801626 10:0.475119 11:0.213686 12:-0.238317 13:-0.630883 14:-0.907646 15:-0.998435 16:0.071398 17:-0.460679 18:-0.611536 
1 1:-0.979798 2:0.430075 3:0.719027 4:-0.466921 5:0.84203 6:-0.401082 7:-0.612029 8:-0.333333 9:-0.838049 10:0.300584 11:0.340153 12:-0.0897934 13:-0.606688 14:-0.881934 15:-0.996037 16:-0.124055 17:0.277467 18:-0.951845 
1 1:-0.959596 2:0.571241 3:0.689625 4:-0.0270387 5:0.767877 6:-0.449752 7:-0.324961 8:-0.838384 9:-0.830244 10:0.617411 11:0.740036 12:0.276222 13:-0.449216 14:-0.816432 15:-0.994625 16:-0.235076 17:0.0625197 18:-0.925981 
1 1:-1 2:0.320035 3:0.548577 4:-0.356937 5:0.803747 6:-0.523659 7:-0.769643 8:-0.428571 9:-0.869268 10:0.179523 11:0.601948 12:0.131807 13:-0.453186 14:-0.845962 15:-0.998206 16:-0.164241 17:-0.485932 18:-0.70487 
1 1:-0.979798 2:0.5331 3:0.61875 4:-0.154206 5:0.752148 6:-0.327174 7:-0.431214 8:-0.567568 9:-0.726829 10:0.491483 11:0.866253 12:0.28313 13:-0.371772 14:-0.830751 15:-0.996851 16:-0.107671 17:-0.388338 18:-0.581185 
1 1:-1 2:0.446624 3:0.591499 4:-0.432466 5:0.862753 6:-0.451555 7:-0.346504 8:-0.264368 9:-0.861463 10:0.200389 11:0.727196 12:0.056855 13:-0.386963 14:-0.873853 15:-0.997805 16:0.0494255 17:-0.241142 18:-0.89053 
1 1:-0.858586 2:0.516221 3:0.740018 4:-0.446044 5:0.907694 6:-0.491212 7:-0.441558 8:-0.238095 9:-0.869268 10:0.367745 11:-0.0700516 12:-0.404831 13:-0.711731 14:-0.926899 15:-0.998583 16:-0.00787394 17:-0.563098 18:-0.594393 
1 1:-0.818182 2:0.550197 3:0.820861 4:-0.461612 5:0.814566 6:-0.149166 7:-0.549151 8:-0.407407 9:-0.736585 10:0.474328 11:0.335307 12:-0.113246 13:-0.642727 14:-0.88748 15:-0.998047 16:-0.0528589 17:-0.378277 18:-0.468992 
1 1:-0.959596 2:0.479395 3:0.761259 4:-0.474993 5:0.798587 6:-0.617395 7:-0.0426714 8:0.111111 9:-0.900488 10:0.274121 11:-0.569332 12:-0.726237 13:-0.835642 14:-0.96666 15:-0.999199 16:0.056214 17:-0.323951 18:-0.869704 
1 1:-0.979798 2:0.446953 3:0.683813 4:-0.343844 5:0.876291 6:-0.686946 7:-0.184578 8:-0.0175438 9:-0.84065 10:0.326195 11:0.387583 12:-0.0599552 13:-0.552607 14:-0.878338 15:-0.997502 16:-0.0591744 17:-0.391249 18:-0.561618 
1 1:-0.939394 2:0.576502 3:0.746399 4:-0.490041 5:0.815814 6:-0.0177257 7:-0.510745 8:0.0666667 9:-0.63252 10:0.438983 11:-0.780861 12:-0.857862 13:-0.918645 14:-0.982556 15:-0.999618 16:0.136156 17:-0.241185 18:-0.31628 
1 1:-0.454545 2:0.583187 3:0.824752 4:-0.534774 5:0.0822758 6:-0.51014 7:-0.324285 8:-0.311828 9:-0.845854 10:0.452306 11:0.390133 12:-0.143004 13:-0.632617 14:-0.897264 15:-0.997635 16:0.0461926 17:-0.303135 18:-0.577974 
1 1:-0.979798 2:0.466462 3:0.726566 4:-0.630929 5:0.948795 6:-0.797785 7:-0.296132 8:-0.466667 9:-0.920558 10:0.25508 11:0.502681 12:-0.0657132 13:-0.534875 14:-0.887373 15:-0.996845 16:-0.0105022 17:0.0814904 18:-0.775457 
1 1:-1 2:0.440925 3:0.680138 4:-0.115464 5:0.775534 6:-0.495719 7:-0.175959 8:-0.139785 9:-0.845854 10:0.470982 11:0.912602 12:0.464853 13:-0.330954 14:-0.771627 15:-0.996656 16:-0.242767 17:-0.208638 18:-0.803839 
1 1:-0.979798 2:0.620232 3:0.762552 4:-0.129848 5:0.858592 6:-0.476791 7:-0.376813 8:-0.36 9:-0.892683 10:0.691568 11:0.0884715 12:-0.189639 13:-0.656806 14:-0.882311 15:-0.997245 16:-0.156891 17:-0.117931 18:-0.962251 
1 1:-1 2:0.39566 3:0.494145 4:-0.203315 5:0.845567 6:-0.256196 7:-0.539285 8:-0.589744 9:-0.834146 10:0.190352 11:0.861359 12:0.206798 13:-0.246564 14:-0.84981 15:-0.997964 16:-0.0372238 17:-0.508809 18:-0.754551 
1 1:-1 2:0.50559 3:0.708424 4:-0.320222 5:0.809781 6:-0.149166 7:-0.201428 8:-0.353535 9:-0.765854 10:0.398406 11:0.709246 12:0.128733 13:-0.441309 14:-0.857285 15:-0.996267 16:-0.119384 17:-0.221682 18:-0.444466 
1 1:-0.979798 2:0.495945 3:0.691209 4:-0.266737 5:0.785958 6:-0.303515 7:-0.218179 8:-0.0175438 9:-0.717073 10:0.442085 11:0.576258 12:0.0979617 13:-0.487546 14:-0.853226 15:-0.997373 16:-0.120239 17:-0.146629 18:-0.77182 
1 1:-0.979798 2:0.506138 3:0.686012 4:-0.204086 5:0.882463 6:-0.695208 7:-0.527472 8:-0.589744 9:-0.918699 10:0.41252 11:0.553596 12:0.0393156 13:-0.498991 14:-0.867049 15:-0.99809 16:0.0254576 17:-0.759311 18:-0.722768 
1 1:-0.979798 2:0.344367 3:0.729164 4:-0.192194 5:0.798545 6:-0.282109 7:-0.385714 8:-0.264368 9:-0.804878 10:0.269741 11:0.87756 12:0.373967 13:-0.411631 14:-0.802745 15:-0.996546 16:-0.243948 17:-0.391193 18:-0.821927 
1 1:-0.979798 2:0.423937 3:0.707388 4:-0.386962 5:0.871089 6:-0.631365 7:-0.500002 8:-0.644444 9:-0.892683 10:0.339701 11:0.926718 12:0.350431 13:-0.418033 14:-0.817608 15:-0.996477 16:-0.13521 17:0.023289 18:-0.646609 
1 1:-0.939394 2:0.430842 3:0.729313 4:-0.165685 5:0.797755 6:-0.336187 7:-0.111877 8:-0.466667 9:-0.853659 10:0.398163 11:0.668697 12:0.220778 13:-0.469589 14:-0.825283 15:-0.996792 16:-0.219344 17:-0.198417 18:-0.963321 
1 1:0.818182 2:0.712297 3:0.963127 4:-0.762562 5:0.952371 6:-0.677182 7:-0.547369 8:-0.0123457 9:-0.912195 10:0.589549 11:-0.140348 12:-0.522906 13:-0.816576 14:-0.945506 15:-0.998865 16:0.198095 17:-0.596283 18:-0.372069 
1 1:-1 2:0.394454 3:0.558498 4:-0.0818514 5:0.814046 6:-0.246057 7:-0.249207 8:-0.833333 9:-0.77561 10:0.319808 11:0.842232 12:0.320384 13:-0.2659 14:-0.816338 15:-0.996508 16:-0.116101 17:-0.296062 18:-0.89456 
1 1:-1 2:0.48071 3:0.672465 4:-0.151031 5:0.879065 6:-0.694457 7:-0.198755 8:-0.2 9:-0.827642 10:0.42639 11:0.663817 12:0.16616 13:-0.437709 14:-0.842804 15:-0.997265 16:-0.123842 17:-0.314208 18:-0.829798 
1 1:-1 2:0.353025 3:0.476091 4:-0.0921108 5:0.867164 6:-0.457864 7:-0.536386 8:-0.726496 9:-0.783415 10:0.304173 11:0.895232 12:0.409342 13:-0.309244 14:-0.792161 15:-0.997105 16:-0.27701 17:-0.0402972 18:-0.896402 
1 1:-0.919192 2:0.487944 3:0.80657 4:-0.45372 5:0.824345 6:-0.394772 7:-0.500002 8:-0.0804598 9:-0.804878 10:0.397554 11:0.264307 12:-0.138887 13:-0.643336 14:-0.888047 15:-0.998322 16:-0.0733716 17:-0.418289 18:-0.165393 
1 1:-0.939394 2:0.469421 3:0.760704 4:-0.472051 5:0.562188 6:-0.667418 7:-0.49279 8:-0.238095 9:-0.860163 10:0.299306 11:0.572279 12:0.00788965 13:-0.538528 14:-0.87579 15:-0.997877 16:0.0298997 17:-0.188657 18:-0.736495 
1 1:-1 2:0.374288 3:0.536776 4:0.0985499 5:0.820558 6:-0.47589 7:-0.209333 8:0.466667 9:-0.77561 10:0.434238 11:0.527322 12:0.241024 13:-0.395619 14:-0.780498 15:-0.996691 16:-0.359352 17:-0.105743 18:-0.768971 
1 1:-0.959596 2:0.551622 3:0.757828 4:-0.0470015 5:0.80985 6:-0.582545 7:0.0765862 8:-0.238095 9:-0.860163 10:0.581883 11:0.183973 12:-0.125752 13:-0.62442 14:-0.874267 15:-0.99779 16:-0.115587 17:-0.0703597 18:-0.765366 
1 1:-1 2:0.46986 3:0.630788 4:-0.0117392 5:0.873905 6:-0.491212 7:-0.176727 8:-0.390476 9:-0.814634 10:0.455956 11:0.574548 12:0.15165 13:-0.451788 14:-0.835461 15:-0.997301 16:-0.177103 17:-0.544199 18:-0.801053 
1 1:-0.393939 2:0.74441 3:0.840073 4:-0.167084 5:0.867663 6:-0.458765 7:-0.301949 8:0.333333 9:-0.869268 10:0.766152 11:-0.838089 12:-0.885914 13:-0.947513 14:-0.985327 15:-0.999807 16:0.149978 17:-0.540334 18:-0.595259 
1 1:-0.959596 2:0.566309 3:0.774779 4:-0.566951 5:0.836953 6:-0.46868 7:-0.325784 8:-0.304348 9:-0.908293 10:0.285619 11:-0.231086 12:-0.581066 13:-0.749842 14:-0.952418 15:-0.999018 16:0.15015 17:-0.572845 18:-0.80025 
1 1:-0.89899 2:0.440267 3:0.746677 4:-0.442385 5:0.893296 6:-0.532672 7:-0.700351 8:-0.407407 9:-0.877073 10:0.285315 11:0.596498 12:0.05295 13:-0.536815 14:-0.867073 15:-0.998409 16:-0.00669606 17:-0.636107 18:-0.851002 
1 1:-1 2:0.443336 3:0.669947 4:-0.660237 5:0.688897 6:-0.0943368 7:-0.31746 8:-1 9:-0.879675 10:-0.396338 11:0.980446 12:-0.167686 13:-0.0524182 14:-0.90553 15:-0.99787 16:0.367547 17:-0.641812 18:-0.991515 
1 1:-0.939394 2:0.481477 3:0.768439 4:-0.403374 5:0.898854 6:-0.807871 7:-0.279331 8:-0.030303 9:-0.849322 10:0.257148 11:0.610588 12:-0.0183443 13:-0.536059 14:-0.88311 15:-0.998169 16:0.114716 17:-0.517452 18:-0.736385 
1 1:-0.838384 2:0.575296 3:0.783515 4:-0.346606 5:0.94785 6:-0.929698 7:-0.101047 8:0.0666667 9:-0.834146 10:0.466784 11:-0.10427 12:-0.428739 13:-0.746139 14:-0.930024 15:-0.998693 16:0.0465936 17:-0.411507 18:-0.611032 
1 1:-0.89899 2:0.490136 3:0.732933 4:-0.323504 5:0.795424 6:-0.557008 7:-0.333905 8:-0.238095 9:-0.869268 10:0.401509 11:0.607665 12:0.089391 13:-0.489303 14:-0.858781 15:-0.99692 16:-0.0998676 17:-0.120093 18:-0.803776 
1 1:-0.939394 2:0.53299 3:0.717451 4:-0.241501 5:0.982096 6:-0.883731 7:-0.377415 8:-0.36 9:-0.892683 10:0.474024 11:0.440639 12:-0.019848 13:-0.568701 14:-0.872537 15:-0.997733 16:-0.0689201 17:-0.375027 18:-0.872978 
1 1:-0.979798 2:0.609711 3:0.717958 4:-0.468177 5:0.844027 6:-0.598468 7:-0.176727 8:-0.238095 9:-0.869268 10:0.409539 11:0.642187 12:-0.0683888 13:-0.469103 14:-0.892776 15:-0.995326 16:0.123748 17:-0.191102 18:-0.888815 
1 1:-0.959596 2:0.535072 3:0.703118 4:-0.526989 5:0.845567 6:-0.256196 7:-0.356461 8:-0.333333 9:-0.77561 10:0.342925 11:0.17826 12:-0.28688 13:-0.62825 14:-0.915449 15:-0.998109 16:-0.0393697 17:-0.174527 18:-0.40826 
1 1:-0.757576 2:0.576063 3:0.789125 4:-0.130243 5:0.899177 6:-0.64113 7:-0.268704 8:0.204301 9:-0.886179 10:0.643874 11:0.392063 12:0.0484922 13:-0.593872 14:-0.843401 15:-0.998025 16:-0.123742 17:-0.283889 18:-0.815189 
1 1:-0.979798 2:0.415388 3:0.624562 4:-0.435946 5:0.84744 6:-0.581343 7:-0.357143 8:-0.209877 9:-0.877073 10:0.171371 11:0.631158 12:0.0188617 13:-0.398214 14:-0.876779 15:-0.997739 16:-0.00157729 17:-0.350706 18:-0.664177 
1 1:-0.959596 2:0.564774 3:0.712382 4:-0.265033 5:0.872157 6:-0.445246 7:-0.40553 8:-0.632184 9:-0.861463 10:0.426877 11:0.397567 12:-0.132643 13:-0.51093 14:-0.895578 15:-0.998128 16:0.0585322 17:-0.228724 18:-0.611677 
1 1:-1 2:0.535292 3:0.694227 4:-0.0974737 5:0.761823 6:-0.230284 7:-0.24162 8:-0.264368 9:-0.804878 10:0.547573 11:0.548182 12:0.123028 13:-0.481044 14:-0.841597 15:-0.997562 16:-0.185314 17:-0.303514 18:-0.25827 
1 1:-0.373737 2:0.618588 3:0.868791 4:-0.412234 5:0.830046 6:-0.564218 7:-0.508571 8:-0.372549 9:-0.822439 10:0.621608 11:-0.36852 12:-0.554106 13:-0.840423 14:-0.940503 15:-0.998691 16:-0.0617494 17:-0.225351 18:-0.336902 
1 1:-0.79798 2:0.50011 3:0.808478 4:-0.426296 5:0.86568 6:-0.683191 7:-0.201428 8:0.254902 9:-0.866667 10:0.428276 11:0.757413 12:0.19947 13:-0.520719 14:-0.843176 15:-0.994804 16:-0.0982669 17:-0.174562 18:-0.664444 
1 1:-1 2:0.308198 3:0.649424 4:-0.107392 5:0.883122 6:-0.349707 7:-0.542553 8:-0.555556 9:-0.736585 10:0.294744 11:0.738771 12:0.355048 13:-0.391728 14:-0.781715 15:-0.997332 16:-0.396766 17:-0.0463347 18:-0.801588 
1 1:-0.979798 2:0.459557 3:0.685633 4:-0.225358 5:0.81311 6:-0.330554 7:-0.232142 8:-0.666667 9:-0.77561 10:0.334834 11:0.591501 12:0.064183 13:-0.464292 14:-0.863904 15:-0.997151 16:-0.0406823 17:-0.21756 18:-0.566718 
1 1:-0.878788 2:0.508549 3:0.730362 4:-0.176536 5:0.85959 6:-0.557909 7:-0.537633 8:0.0666667 9:-0.814634 10:0.565093 11:0.062166 12:-0.17233 13:-0.68642 14:-0.870076 15:-0.998122 16:-0.305376 17:-0.335712 18:-0.473746 
1 1:-1 2:0.333845 3:0.622979 4:-0.329369 5:0.75454 6:-0.389139 7:-0.435139 8:-0.0804598 9:-0.804878 10:0.125684 11:0.554958 12:0.0402089 13:-0.449206 14:-0.866936 15:-0.995743 16:-0.0830014 17:0.580726 18:-0.538147 
1 1:-1 2:0.35171 3:0.662781 4:-0.193378 5:0.780943 6:-0.477693 7:-0.542553 8:-0.423423 9:-0.799024 10:0.394391 11:0.531081 12:0.235553 13:-0.534998 14:-0.785331 15:-0.996568 16:-0.438931 17:0.260749 18:-0.961149 
1 1:-0.959596 2:0.537484 3:0.770313 4:-0.189091 5:0.859174 6:-0.688598 7:0.31633 8:-0.644444 9:-0.853659 10:0.548181 11:0.734419 12:0.250766 13:-0.365354 14:-0.824673 15:-0.995671 16:-0.147393 17:-0.366782 18:-0.887099 
1 1:-1 2:0.234327 3:0.506461 4:-0.00578439 5:0.644372 6:-0.210005 7:-0.918097 9:-0.671545 10:0.344324 11:0.921519 12:0.679337 13:-0.347219 14:-0.607315 15:-0.998271 16:-0.622897 17:-0.999854 18:-0.968154 
1 1:-1 2:0.415388 3:0.604404 4:-0.415875 5:0.776699 6:-0.392519 7:-0.272556 8:-0.555556 9:-0.853659 10:0.180314 11:0.79814 12:0.129321 13:-0.358744 14:-0.862877 15:-0.997508 16:0.0465184 17:-0.536659 18:-0.990287 
1 1:-0.818182 2:0.571789 3:0.759574 4:-0.22091 5:0.856012 6:-0.566922 7:-0.175959 8:0.103448 9:-0.861463 10:0.590461 11:-0.185543 12:-0.403022 13:-0.739922 14:-0.916097 15:-0.998684 16:-0.140464 17:-0.303379 18:-0.972955 
1 1:-1 2:0.416046 3:0.613363 4:0.0121876 5:0.886555 6:-0.426318 7:0.116883 8:-0.448276 9:-0.804878 10:0.429432 11:0.766878 12:0.350873 13:-0.251386 14:-0.790737 15:-0.99611 16:-0.276001 17:-0.0118996 18:-0.962392 
1 1:-0.89899 2:0.566309 3:0.723385 4:-0.42565 5:0.730371 6:-0.0432627 7:-0.252893 8:-0.536232 9:-0.788618 10:0.425417 11:0.617085 12:-0.00157439 13:-0.459456 14:-0.88017 15:-0.997295 16:0.0616555 17:-0.301386 18:-0.636754 
1 1:-0.979798 2:0.477861 3:0.65979 4:-0.227385 5:0.751107 6:0.542587 7:-0.162334 8:-0.0724638 9:-0.639024 10:0.424078 11:0.648372 12:0.158195 13:-0.303829 14:-0.843412 15:-0.996948 16:-0.0781176 17:-0.498081 18:-0.774843 
1 1:-0.737373 2:0.585598 3:0.771795 4:-0.3364 5:0.969155 6:-0.939688 7:-0.221717 8:-0.536232 9:-0.863415 10:0.465689 11:-0.534709 12:-0.704293 13:-0.866988 14:-0.963978 15:-0.999429 16:0.102646 17:-0.571722 18:-0.387166 
1 1:-0.535353 2:0.657168 3:0.842346 4:-0.632256 5:0.854056 6:-0.836413 7:-0.341835 8:-0.17037 9:-0.912195 10:0.40674 11:-0.252011 12:-0.61729 13:-0.803403 14:-0.957139 15:-0.998684 16:0.139352 17:-0.413574 18:0.0228967 
1 1:-0.595959 2:0.665936 3:0.82141 4:-0.222434 5:0.900859 6:-0.81388 7:-0.726987 8:-0.762963 9:-0.868293 10:0.678671 11:-0.255588 12:-0.491591 13:-0.802814 14:-0.934184 15:-0.999221 16:0.0376248 17:-0.912015 18:-0.366323 
1 1:-0.979798 2:0.561377 3:0.703734 4:-0.406261 5:0.45365 6:-0.542737 7:-0.0108944 8:-0.215686 9:-0.866667 10:0.314211 11:-0.0708851 12:-0.47502 13:-0.668328 14:-0.939667 15:-0.997402 16:0.0183871 17:0.0587239 18:-0.4195 
1 1:0.959596 2:0.783867 3:0.950507 4:-0.511493 5:0.932804 6:-0.811305 7:-0.145343 8:-0.238095 9:-0.892683 10:0.794683 11:-0.706364 12:-0.818184 13:-0.940526 14:-0.978225 15:-0.999569 16:0.18033 17:-0.556662 18:0.0484616 
1 1:-1 2:0.380316 3:0.523452 4:-0.0866762 5:0.891687 6:-0.724501 7:-0.232142 8:-0.866667 9:-0.827642 10:0.303869 11:0.633257 12:0.179653 13:-0.398744 14:-0.834464 15:-0.995057 16:-0.200514 17:-0.0798317 18:-0.716881 
1 1:-1 2:0.442131 3:0.706394 4:-0.203781 5:0.747293 6:-0.729758 7:-0.380081 8:-0.567568 9:-0.847154 10:0.331366 11:0.552176 12:0.0599817 13:-0.51167 14:-0.861498 15:-0.997687 16:-0.11367 17:-0.223017 18:-0.477052 
1 1:-0.717171 2:0.522468 3:0.796677 4:-0.443856 5:0.822542 6:-0.623855 7:-0.718215 8:-0.703704 9:-0.853659 10:0.427789 11:-0.471945 12:-0.63812 13:-0.849719 14:-0.953271 15:-0.999475 16:-0.0284806 17:-0.583229 18:-0.20204 
1 1:-1 2:0.473148 3:0.647448 4:-0.186939 5:0.852267 6:-0.545291 7:-0.616071 8:-0.390476 9:-0.814634 10:0.473963 11:0.735846 12:0.281038 13:-0.444906 14:-0.813907 15:-0.995183 16:-0.2383 17:-0.162668 18:-0.682091 
1 1:-1 2:0.557869 3:0.636925 4:-0.24159 5:0.883642 6:-0.650894 7:-0.441558 8:-0.515152 9:-0.873171 10:0.498601 11:0.653449 12:0.10483 13:-0.444721 14:-0.858765 15:-0.997241 16:-0.154461 17:-0.367493 18:-0.647459 
1 1:-0.939394 2:0.445199 3:0.72461 4:-0.321818 5:0.791887 6:-0.345201 7:0.190966 8:-0.666667 9:-0.77561 10:0.28136 11:-0.580034 12:-0.713381 13:-0.835399 14:-0.96327 15:-0.998829 16:-0.161612 17:-0.192129 18:0.42279 
1 1:-1 2:0.403441 3:0.536735 4:0.177756 5:0.823637 6:-0.566021 7:-0.122449 8:-0.333333 9:-0.838049 10:0.426025 11:0.790497 12:0.386027 13:-0.261894 14:-0.779647 15:-0.991275 16:-0.291774 17:0.711013 18:-0.0128848 
1 1:-1 2:0.453748 3:0.689328 4:-0.561983 5:0.895432 6:-0.73126 7:-0.436435 8:-0.311828 9:-0.886179 10:0.0855335 11:0.620204 12:-0.0966836 13:-0.479902 14:-0.896652 15:-0.997756 16:0.226621 17:-0.385256 18:-0.752914 
1 1:-1 2:0.484875 3:0.564899 4:-0.109832 5:0.830691 6:-0.154799 7:-0.122449 8:-0.311828 9:-0.785366 10:0.40601 11:0.510239 12:0.0364587 13:-0.401039 14:-0.863875 15:-0.99777 16:-0.0683092 17:-0.212613 18:-0.39469 
1 1:-0.878788 2:0.467668 3:0.785978 4:-0.30008 5:0.857218 6:-0.62085 7:-0.80395 8:-0.515152 9:-0.873171 10:0.41763 11:0.353264 12:-0.0360651 13:-0.627522 14:-0.867802 15:-0.998694 16:-0.177721 17:-0.586423 18:-0.75219 
1 1:-1 2:0.393139 3:0.661543 4:-0.322966 5:0.738832 6:-0.053778 7:-1 8:-0.139785 9:-0.684553 10:0.368901 11:0.554958 12:0.166815 13:-0.522859 14:-0.826203 15:-0.999015 16:-0.255473 17:-0.999058 18:-0.964455 
1 1:-0.939394 2:0.472381 3:0.740444 4:-0.232748 5:0.712616 6:-0.191978 7:-0.488097 8:-0.36 9:-0.843902 10:0.410816 11:0.694966 12:0.185195 13:-0.458508 14:-0.840666 15:-0.997724 16:-0.0698912 17:-0.743884 18:-0.624838 
1 1:-0.89899 2:0.465147 3:0.747326 4:-0.328831 5:0.775201 6:-0.520054 7:-0.658727 8:-0.666667 9:-0.838049 10:0.43004 11:0.294104 12:-0.063303 13:-0.633345 14:-0.868837 15:-0.998548 16:-0.171242 17:-0.409407 18:-0.875229 
1 1:-1 2:0.347983 3:0.536505 4:-0.301317 5:0.811549 6:-0.451104 7:-0.79524 8:-0.5 9:-0.77561 10:0.247232 11:0.957339 12:0.400961 13:-0.341545 14:-0.805313 15:-0.997085 16:-0.24693 17:-0.303629 18:-0.737125 
1 1:-0.89899 2:0.491561 3:0.713912 4:-0.509663 5:0.872657 6:-0.565119 7:-0.049318 8:-0.573333 9:-0.892683 10:0.228738 11:-0.397282 12:-0.644245 13:-0.791527 14:-0.958369 15:-0.998811 16:-0.00813395 17:-0.163863 18:0.723367 
1 1:-1 2:0.430513 3:0.602414 4:-0.239169 5:0.77828 6:-0.586751 7:-0.191728 8:-0.589744 9:-0.884878 10:0.323275 11:0.764402 12:0.212463 13:-0.244978 14:-0.840261 15:-0.996188 16:-0.0978909 17:-0.0577898 18:-0.415533 
1 1:-0.939394 2:0.609601 3:0.678562 4:-0.459352 5:0.847162 6:-0.0898302 7:-0.255411 8:-0.703704 9:-0.853659 10:0.333009 11:0.601629 12:-0.149651 13:-0.372546 14:-0.903946 15:-0.997592 16:0.352874 17:-0.324156 18:-0.986147 
1 1:-1 2:0.449364 3:0.636113 4:-0.0858511 5:0.835788 6:-0.302388 7:-0.0785703 8:-0.0804598 9:-0.804878 10:0.430588 11:0.599823 12:0.175779 13:-0.370945 14:-0.830681 15:-0.997051 16:-0.189515 17:-0.213772 18:-0.540225 
1 1:-0.252524 2:0.671306 3:0.859764 4:-0.576242 5:0.882477 6:-0.538982 7:-0.297957 8:-0.492063 9:-0.923902 10:0.573184 11:0.110688 12:-0.34025 13:-0.71497 14:-0.922545 15:-0.998167 16:0.165713 17:-0.893685 18:-0.599666 
1 1:-0.757576 2:0.761947 3:0.805453 4:-0.430511 5:0.840116 6:-0.383055 7:-0.344759 8:-0.466667 9:-0.931707 10:0.618628 11:0.0293991 12:-0.471898 13:-0.698987 14:-0.940761 15:-0.998772 16:0.396897 17:-0.624215 18:-0.421751 
1 1:-1 2:0.0652126 3:0.407205 4:0.107356 5:0.728984 6:0.0183266 7:0.00852937 8:-0.047619 9:-0.723577 10:0.0910086 11:0.980551 12:0.69034 13:0.162583 14:-0.641219 15:-0.687556 16:-0.524945 17:1 18:-0.924769 
1 1:-0.991214 2:0.443117 3:0.678988 4:-0.194507 5:0.780164 6:-0.403285 7:-0.368434 8:-0.378369 9:-0.84332 10:0.451819 11:0.326891 12:0.0790867 13:-0.559975 14:-0.807137 15:-0.996828 16:-0.0323745 17:-0.0274707 18:-0.926076 
1 1:-0.990339 2:0.463941 3:0.654326 4:-0.275875 5:0.777186 6:-0.388419 7:-0.201557 8:-0.383145 9:-0.852131 10:0.416352 11:0.783272 12:-0.0553602 13:-0.573489 14:-0.878466 15:-0.99774 16:-0.174622 17:-0.42375 18:-0.609001 
1 1:-0.940971 2:0.450241 3:0.660635 4:-0.262089 5:0.777195 6:-0.456391 7:-0.177735 8:-0.335493 9:-0.846717 10:0.400475 11:0.42186 12:0.131488 13:-0.444314 14:-0.870141 15:-0.997389 16:-0.0125604 17:-0.0749109 18:-0.807728 
1 1:-0.9978 2:0.519399 3:0.663927 4:-0.243426 5:0.780914 6:-0.429044 7:-0.541712 8:-0.367579 9:-0.837697 10:0.408261 11:0.265397 12:0.178428 13:-0.545047 14:-0.788658 15:-0.997662 16:-0.120098 17:-0.135715 18:-0.915592 
1 1:-0.957976 2:0.462845 3:0.679533 4:-0.352833 5:0.774229 6:-0.319799 7:-0.185671 8:-0.333333 9:-0.825894 10:0.377479 11:0.348654 12:-0.0882146 13:-0.586166 14:-0.882048 15:-0.998087 16:-0.0634881 17:-0.334086 18:-0.686656 
1 1:-0.971991 2:0.444432 3:0.687944 4:-0.348003 5:0.776216 6:-0.417764 7:-0.361486 8:-0.37601 9:-0.803664 10:0.398102 11:0.146724 12:0.0416595 13:-0.544973 14:-0.86141 15:-0.997587 16:-0.431795 17:0.191529 18:-0.959307 
1 1:-0.962426 2:0.491232 3:0.678965 4:-0.354349 5:0.770047 6:-0.285289 7:-0.284393 8:-0.333333 9:-0.776484 10:0.299063 11:0.345219 12:-0.18167 13:-0.502837 14:-0.896876 15:-0.998156 16:-0.0521917 17:-0.407276 18:-0.811994 
1 1:-0.951218 2:0.33505 3:0.6567 4:-0.348457 5:0.775907 6:-0.309553 7:-0.291378 8:-0.332761 9:-0.850473 10:0.37535 11:0.133514 12:0.396083 13:-0.541254 14:-0.865296 15:-0.996794 16:-0.192124 17:-0.294129 18:-0.835497 
1 1:-0.987111 2:0.494191 3:0.693995 4:-0.32567 5:0.776723 6:-0.467016 7:-0.367598 8:-0.388572 9:-0.839583 10:0.397554 11:0.139968 12:0.0162171 13:-0.545566 14:-0.897844 15:-0.997409 16:-0.0461551 17:0.158591 18:-0.923179 
1 1:-0.979086 2:0.502082 3:0.649763 4:-0.290217 5:0.777568 6:-0.444917 7:-0.203639 8:-0.34506 9:-0.84381 10:0.347792 11:0.266578 12:-0.1479 13:-0.303924 14:-0.895664 15:-0.997851 16:-0.192823 17:-0.227143 18:-0.480043 
1 1:-0.96375 2:0.461092 3:0.672 4:-0.323201 5:0.775469 6:-0.271809 7:-0.257285 8:-0.333333 9:-0.806292 10:0.369571 11:0.240614 12:-0.0927432 13:-0.57817 14:-0.890471 15:-0.99788 16:-0.0405789 17:-0.451727 18:-0.858307 
1 1:-0.957396 2:0.50548 3:0.647211 4:-0.357194 5:0.776767 6:-0.400972 7:-0.192895 8:-0.366308 9:-0.844541 10:0.34986 11:0.145167 12:-0.0885949 13:-0.367674 14:-0.887276 15:-0.997583 16:-0.140642 17:-0.0740487 18:-0.606073 
1 1:-0.940551 2:0.510412 3:0.683653 4:-0.363774 5:0.775906 6:-0.350357 7:-0.259097 8:-0.258634 9:-0.84856 10:0.36586 11:0.934372 12:-0.103145 13:-0.606708 14:-0.823451 15:-0.996584 16:-0.0223938 17:-0.38709 18:-0.89105 
1 1:-1 2:0.447611 3:0.52958 4:-0.143908 5:0.879525 6:-0.67299 7:-0.222092 8:-0.259738 9:-0.87503 10:0.419151 11:0.634456 12:0.126049 13:-0.420227 14:-0.848376 15:-0.994454 16:-0.179162 17:-0.153664 18:-0.732402 
1 1:-1 2:0.473477 3:0.671077 4:-0.149174 5:0.879647 6:-0.652851 7:-0.200697 8:-0.279722 9:-0.872115 10:0.364095 11:0.633081 12:0.141952 13:-0.387067 14:-0.843473 15:-0.996507 16:-0.149611 17:-0.310572 18:-0.822824 
1 1:-1 2:0.417032 3:0.48296 4:-0.155728 5:0.880452 6:-0.651645 7:-0.283687 8:-0.31702 9:-0.892683 10:0.150505 11:0.753435 12:0.218425 13:-0.182378 14:-0.838118 15:-0.994308 16:-0.137591 17:-0.329052 18:-0.693189 
1 1:-1 2:0.468764 3:0.604604 4:-0.147829 5:0.880395 6:-0.661241 7:-0.211275 8:-0.225132 9:-0.858558 10:0.344628 11:0.628579 12:0.163834 13:-0.36632 14:-0.844657 15:-0.996045 16:-0.130702 17:-0.302264 18:-0.709498 
1 1:-1 2:0.352039 3:0.521203 4:-0.143519 5:0.879591 6:-0.665231 7:-0.122627 8:-0.359089 9:-0.854671 10:0.25946 11:0.368296 12:0.107275 13:-0.354126 14:-0.847641 15:-0.996803 16:-0.196423 17:0.155427 18:-0.665074 
1 1:-1 2:0.429307 3:0.637403 4:-0.409379 5:0.726324 6:-0.46446 7:-0.420771 8:0.041584 9:-0.869019 10:0.129578 11:0.637453 12:0.0542192 13:-0.351669 14:-0.86887 15:-0.997365 16:-0.0562046 17:0.206218 18:-0.593086 
1 1:-1 2:0.444323 3:0.628954 4:-0.431474 5:0.751929 6:-0.480822 7:-0.360258 8:-0.099717 9:-0.865014 10:0.132985 11:0.738142 12:0.077331 13:-0.341229 14:-0.872042 15:-0.997736 16:0.164858 17:-0.414003 18:-0.677132 
1 1:-1 2:0.358615 3:0.647797 4:-0.441412 5:0.751503 6:-0.409937 7:-0.375486 8:-0.0291423 9:-0.827581 10:0.137304 11:0.646813 12:0.0500135 13:-0.404527 14:-0.874328 15:-0.997411 16:-0.0291729 17:0.575808 18:-0.579233 
1 1:-1 2:0.428102 3:0.623256 4:-0.396914 5:0.737752 6:-0.490668 7:-0.36339 8:-0.0353042 9:-0.853613 10:0.127023 11:0.643254 12:0.0432206 13:-0.364026 14:-0.870103 15:-0.996143 16:0.0456162 17:0.217275 18:-0.599855 
1 1:-1 2:0.414402 3:0.646642 4:-0.443965 5:0.751308 6:-0.41049 7:-0.373201 8:0.0791907 9:-0.865852 10:0.141806 11:0.704456 12:0.0406689 13:-0.367955 14:-0.868833 15:-0.99771 16:0.107449 17:-0.409402 18:-0.56527 
1 1:-0.963542 2:0.393358 3:0.693905 4:-0.404691 5:0.750116 6:-0.220393 7:-0.297797 8:0.00429691 9:-0.814129 10:0.179888 11:0.0378172 12:-0.341435 13:-0.647423 14:-0.902473 15:-0.998158 16:0.160397 17:-0.544497 18:-0.531441 
1 1:-1 2:0.361135 3:0.633094 4:-0.379673 5:0.756535 6:-0.338566 7:-0.411587 8:-0.0423388 9:-0.873248 10:0.0880277 11:0.600353 12:-0.0898863 13:-0.36696 14:-0.867481 15:-0.996086 16:0.100187 17:0.312252 18:-0.711167 
1 1:-0.994395 2:0.432815 3:0.661814 4:-0.527229 5:0.756776 6:-0.256649 7:-0.179774 8:-0.109031 9:-0.839869 10:0.229651 11:0.0590005 12:-0.452187 13:-0.72647 14:-0.915825 15:-0.99816 16:-0.0922365 17:-0.53522 18:-0.679006 
1 1:-1 2:0.385028 3:0.632978 4:-0.409881 5:0.731506 6:0.0363653 7:-0.567376 8:-0.0997094 9:-0.695625 10:0.212982 11:0.873514 12:0.130564 13:-0.301649 14:-0.839753 15:-0.99798 16:-0.122933 17:-0.780559 18:-0.974057 
1 1:-1 2:0.382508 3:0.66131 4:-0.325043 5:0.731038 6:0.0289516 7:-0.913527 8:-0.132432 9:-0.6877 10:0.0700815 11:0.855152 12:0.131285 13:-0.30936 14:-0.836783 15:-0.99836 16:0.0442316 17:-0.757057 18:-0.976749 
1 1:-0.954964 2:0.420868 3:0.674433 4:-0.23624 5:0.748562 6:-0.180898 7:-0.514904 8:-0.121831 9:-0.710701 10:0.439226 11:0.247916 12:-0.125735 13:-0.697865 14:-0.835554 15:-0.998516 16:-0.181909 17:-0.415003 18:-0.718691 
1 1:-0.978445 2:0.43139 3:0.661164 4:-0.236808 5:0.752607 6:-0.305442 7:-0.425329 8:-0.119922 9:-0.82344 10:0.269072 11:0.645779 12:-0.249183 13:-0.528508 14:-0.911042 15:-0.998182 16:-0.143618 17:-0.267829 18:-0.580933 
1 1:-0.990516 2:0.484108 3:0.721573 4:-0.105677 5:0.753836 6:-0.211891 7:-0.089867 8:-0.210768 9:-0.80292 10:0.518859 11:0.464397 12:-0.417108 13:-0.525613 14:-0.907529 15:-0.997693 16:-0.179841 17:-0.290138 18:-0.201473 
1 1:-0.9516 2:0.533538 3:0.704459 4:-0.118609 5:0.758895 6:-0.214385 7:-0.193946 8:-0.129409 9:-0.799243 10:0.506935 11:-0.0824371 12:0.00549268 13:-0.622908 14:-0.872445 15:-0.99784 16:-0.180747 17:-0.269691 18:-0.194122 
1 1:-0.931963 2:0.40936 3:0.705698 4:-0.343926 5:0.749503 6:-0.260495 7:-0.204732 8:-0.202804 9:-0.80558 10:0.402056 11:0.048538 12:-0.0440609 13:-0.710744 14:-0.910806 15:-0.997211 16:-0.0345861 17:-0.337036 18:-0.825957 
1 1:-0.948959 2:0.451008 3:0.666075 4:-0.241136 5:0.741178 6:-0.125216 7:-0.466289 8:-0.124898 9:-0.716897 10:0.390193 11:0.0502926 12:-0.174161 13:-0.583705 14:-0.890751 15:-0.998593 16:-0.23658 17:-0.348241 18:-0.385308 
1 1:-0.953418 2:0.472271 3:0.69301 4:-0.193426 5:0.741295 6:-0.174861 7:-0.38032 8:-0.137367 9:-0.703387 10:0.383988 11:0.0843782 12:0.0764509 13:-0.58825 14:-0.887733 15:-0.998506 16:-0.181912 17:-0.388254 18:-0.286464 
1 1:-0.976509 2:0.388865 3:0.638016 4:-0.1837 5:0.750475 6:-0.202355 7:0.0454787 8:-0.0407787 9:-0.779987 10:0.424808 11:-0.08669 12:-0.188405 13:-0.381787 14:-0.847916 15:-0.996988 16:-0.167016 17:-0.160188 18:-0.178805 
1 1:-0.919608 2:0.477313 3:0.659974 4:-0.329289 5:0.745152 6:-0.189267 7:-0.123186 8:-0.179009 9:-0.762445 10:0.396581 11:0.580899 12:-0.442992 13:-0.381813 14:-0.911364 15:-0.998178 16:0.0970451 17:-0.290384 18:-0.298113 
1 1:-0.988239 2:0.493753 3:0.663503 4:-0.46692 5:0.74881 6:-0.178034 7:-0.376376 8:-0.149185 9:-0.765876 10:0.299367 11:-0.0314795 12:-0.107443 13:-0.408239 14:-0.895432 15:-0.997706 16:-0.037299 17:-0.25872 18:-0.22241 
1 1:-1 2:0.471833 3:0.615333 4:-0.0213151 5:0.661022 6:0.104338 7:-0.271217 8:0.505213 9:-0.665917 10:0.243095 11:0.626699 12:0.2994 13:-0.201922 14:-0.798971 15:-0.996241 16:-0.227295 17:0.260535 18:-0.900715 
1 1:-1 2:0.267865 3:0.487738 4:-0.034588 5:0.641014 6:0.114067 7:-0.289621 8:0.435224 9:-0.725692 10:0.175082 11:0.82363 12:0.370345 13:-0.11069 14:-0.793603 15:-0.990729 16:-0.232473 17:0.214969 18:-0.925131 
1 1:-1 2:0.297457 3:0.579167 4:-0.102876 5:0.860719 6:-0.573698 7:-0.484018 8:0.138604 9:-0.849303 10:0.257513 11:0.817627 12:0.34649 13:-0.281374 14:-0.79248 15:-0.996421 16:-0.303096 17:-0.269324 18:-0.985769 
1 1:-0.905238 2:0.460872 3:0.665635 4:-0.163325 5:0.867987 6:-0.467393 7:-0.314585 8:0.245648 9:-0.856663 10:0.664558 11:-0.419763 12:0.00682826 13:-0.38818 14:-0.878536 15:-0.996235 16:0.122492 17:-0.361773 18:-0.915056 
1 1:-1 2:0.328474 3:0.568189 4:-0.166835 5:0.868259 6:-0.549646 7:-0.307926 8:0.246953 9:-0.84119 10:0.230563 11:0.794363 12:0.329579 13:-0.228931 14:-0.796286 15:-0.995963 16:-0.223623 17:-0.111114 18:-0.897174 
1 1:-0.924215 2:0.379987 3:0.613496 4:-0.165852 5:0.86747 6:-0.563765 7:-0.220077 8:0.120754 9:-0.855341 10:0.357647 11:-0.087346 12:-0.245601 13:-0.302815 14:-0.84373 15:-0.998482 16:-0.170891 17:-0.276158 18:-0.976482 
1 1:-0.418109 2:0.569706 3:0.615608 4:-0.161842 5:0.867968 6:-0.470999 7:-0.321908 8:0.303543 9:-0.860132 10:0.369875 11:0.00798221 12:0.305512 13:-0.546626 14:-0.834025 15:-0.998666 16:0.128015 17:-0.37152 18:-0.613991 
1 1:-0.96261 2:0.459119 3:0.733229 4:-0.220712 5:0.866564 6:-0.506253 7:-0.215704 8:0.208223 9:-0.856144 10:0.389828 11:0.276935 12:0.0469266 13:-0.405904 14:-0.847089 15:-0.99627 16:-0.162568 17:-0.274292 18:-0.973664 
1 1:-1 2:0.293183 3:0.560869 4:-0.112769 5:0.862065 6:-0.531248 7:-0.416747 8:0.0376293 9:-0.849196 10:0.227704 11:0.881258 12:0.404415 13:-0.2898 14:-0.797682 15:-0.996297 16:-0.258747 17:-0.269317 18:-0.995151 
1 1:-1 2:0.260193 3:0.585845 4:-0.133062 5:0.861482 6:-0.614509 7:-0.339734 8:0.0865561 9:-0.847391 10:0.230016 11:0.793476 12:0.427005 13:-0.314496 14:-0.802958 15:-0.996649 16:-0.242147 17:-0.301745 18:-0.990287 
1 1:-1 2:0.322885 3:0.596396 4:-0.136864 5:0.867461 6:-0.535304 7:-0.337474 8:0.078147 9:-0.847254 10:0.196618 11:0.81866 12:0.439198 13:-0.285849 14:-0.779247 15:-0.996167 16:-0.228752 17:-0.285426 18:-0.98728 
1 1:-0.913652 2:0.4121 3:0.76611 4:-0.160201 5:0.867794 6:-0.468062 7:-0.309524 8:0.278325 9:-0.854628 10:0.303991 11:0.590254 12:0.0580004 13:-0.372336 14:-0.982814 15:-0.99917 16:0.00904242 17:-0.518466 18:-0.783705 
1 1:-1 2:0.274003 3:0.543254 4:-0.181689 5:0.869436 6:-0.53975 7:-0.260774 8:0.254462 9:-0.846298 10:0.23981 11:0.793137 12:0.347083 13:-0.255891 14:-0.804509 15:-0.995787 16:-0.26197 17:0.169299 18:-0.911751 
1 1:-1 2:0.311267 3:0.577017 4:-0.348224 5:0.86887 6:-0.312528 7:-0.274988 8:-0.626018 9:-0.80689 10:0.275946 11:0.718745 12:0.0857248 13:-0.161681 14:-0.848354 15:-0.996764 16:-0.0843453 17:-0.273019 18:-0.63729 
1 1:-1 2:0.434787 3:0.582361 4:-0.234141 5:0.848824 6:-0.528123 7:0.0521498 8:-0.0967047 9:-0.835051 10:0.356978 11:0.668346 12:0.296919 13:-0.214142 14:-0.85576 15:-0.992913 16:-0.25381 17:0.378909 18:-0.960692 
1 1:-0.944889 2:0.532661 3:0.693252 4:-0.293561 5:0.724267 6:-0.0413609 7:-0.197846 8:-0.645061 9:-0.721435 10:0.383745 11:0.616313 12:0.0224528 13:-0.434915 14:-0.87318 15:-0.997292 16:-0.0292888 17:-0.33309 18:-0.58309 
1 1:-0.985748 2:0.375932 3:0.636377 4:0.00921485 5:0.60515 6:0.755006 7:-0.269104 8:0.0518699 9:-0.487299 10:0.425538 11:0.676535 12:0.554575 13:-0.367443 14:-0.718324 15:-0.99633 16:-0.356348 17:-0.0806672 18:-0.744681 
1 1:-0.971989 2:0.383494 3:0.562605 4:0.042456 5:0.611211 6:0.753245 7:-0.324881 8:-0.0110933 9:-0.517151 10:0.37754 11:0.931791 12:0.303871 13:-0.440119 14:-0.7868 15:-0.996367 16:-0.328004 17:-0.237274 18:-0.758015 
1 1:-0.977258 2:0.367164 3:0.628415 4:0.0111012 5:0.60541 6:0.752845 7:-0.292324 8:-0.0509899 9:-0.515809 10:0.410877 11:0.724363 12:0.490065 13:-0.357301 14:-0.759558 15:-0.995575 16:-0.351577 17:-0.145834 18:-0.773993 
1 1:-0.971024 2:0.394564 3:0.355473 4:-0.0224111 5:0.6256 6:0.84892 7:-0.148083 8:-0.171816 9:-0.576687 10:0.385144 11:0.719619 12:0.314034 13:-0.102419 14:-0.79852 15:-0.993421 16:-0.313033 17:-0.0363372 18:-0.887004 
1 1:-1 2:0.396975 3:0.497125 4:-0.0722471 5:0.841258 6:-0.491379 7:-0.296722 8:-0.308049 9:-0.851819 10:0.36592 11:0.806228 12:0.32605 13:-0.37286 14:-0.822228 15:-0.997214 16:-0.381303 17:0.0552751 18:-0.954238 
1 1:-1 2:0.348312 3:0.498351 4:0.251638 5:0.749643 6:0.0743039 7:0.0117667 8:-0.407946 9:-0.689794 10:0.381251 11:0.805585 12:0.283143 13:-0.242038 14:-0.780054 15:-0.993313 16:-0.452082 17:0.261867 18:-0.859235 
1 1:-1 2:0.502521 3:0.636497 4:-0.0423966 5:0.742478 6:-0.00298639 7:-0.418277 8:-0.272832 9:-0.731764 10:0.275642 11:0.613902 12:0.254463 13:-0.398954 14:-0.830371 15:-0.997223 16:-0.151672 17:-0.192782 18:-0.609426 
1 1:-1 2:0.394016 3:0.657642 4:-0.103715 5:0.743095 6:-0.030124 7:-0.867824 8:-0.294099 9:-0.684204 10:0.438618 11:0.583451 12:0.243062 13:-0.491737 14:-0.785132 15:-0.995705 16:-0.310323 17:-0.513357 18:-0.938669 
1 1:-1 2:0.435555 3:0.612097 4:-0.0189681 5:0.746563 6:0.0137184 7:-0.0231371 8:-0.397216 9:-0.69423 10:0.446222 11:0.624675 12:0.284032 13:-0.385877 14:-0.810149 15:-0.995543 16:-0.294841 17:0.0660445 18:-0.917921 
0.07023094315764619 1:-1 2:0.401359 3:0.65021 4:-0.00385124 5:0.751462 6:0.0302743 7:-0.0244947 8:-0.454741 9:-0.683178 10:0.419942 11:0.675154 12:0.273117 13:-0.329938 14:-0.804496 15:-0.993578 16:-0.228369 17:0.014014 18:-0.923746 
1 1:-1 2:0.305349 3:0.553177 4:-0.143806 5:0.886103 6:-0.380337 7:-0.525648 8:-0.547568 9:-0.740217 10:0.214625 11:0.832589 12:0.339534 13:-0.235841 14:-0.786039 15:-0.996674 16:-0.383048 17:-0.0155003 18:-0.799447 
1 1:-0.896239 2:0.504932 3:0.810986 4:-0.408984 5:0.821793 6:-0.359497 7:-0.853493 8:0.0260689 9:-0.769325 10:0.439044 11:0.245137 12:-0.316285 13:-0.773314 14:-0.922201 15:-0.998945 16:-0.0790574 17:-0.397836 18:-0.447111 
1 1:-0.773236 2:0.529921 3:0.810044 4:-0.472244 5:0.815454 6:-0.0506198 7:-0.718675 8:0.0744636 9:-0.705952 10:0.446587 11:-0.483547 12:-0.559842 13:-0.904756 14:-0.959091 15:-0.999503 16:0.0533006 17:-0.220147 18:-0.431558 
1 1:-0.903956 2:0.506686 3:0.830398 4:-0.425493 5:0.814637 6:-0.394348 7:-0.857148 8:0.0565497 9:-0.766504 10:0.411303 11:-0.279236 12:-0.151739 13:-0.77971 14:-0.894292 15:-0.998641 16:-0.0843641 17:-0.283189 18:-0.261844 
1 1:-0.781465 2:0.510851 3:0.818664 4:-0.444092 5:0.815621 6:-0.359219 7:-0.772886 8:-0.0527232 9:-0.785927 10:0.423409 11:0.238222 12:-0.247432 13:-0.768896 14:-0.911699 15:-0.998482 16:-0.0770744 17:-0.244502 18:-0.348157 
1 1:-0.86213 2:0.509535 3:0.797421 4:-0.385377 5:0.812303 6:-0.376205 7:-0.739315 8:0.17766 9:-0.804838 10:0.487346 11:0.464511 12:0.0328898 13:-0.750711 14:-0.916863 15:-0.998572 16:-0.0844675 17:-0.470459 18:-0.902006 
1 1:-0.881334 2:0.576173 3:0.753464 4:-0.417719 5:0.812081 6:-0.0806184 7:-0.761761 8:0.0741068 9:-0.71294 10:0.499027 11:-0.647046 12:-0.725658 13:-0.82831 14:-0.964157 15:-0.999168 16:-0.0118806 17:-0.229863 18:-0.41177 
1 1:-0.922501 2:0.515563 3:0.747361 4:-0.335282 5:0.795763 6:-0.389983 7:-0.751908 8:0.0999552 9:-0.819241 10:0.467393 11:-0.180994 12:0.020246 13:-0.781486 14:-0.893446 15:-0.998604 16:-0.0785781 17:-0.44694 18:-0.70391 
1 1:-0.898543 2:0.496493 3:0.78379 4:-0.384568 5:0.813244 6:-0.351935 7:-0.805068 8:0.388702 9:-0.820136 10:0.392323 11:0.673684 12:0.0273263 13:-0.603063 14:-0.914574 15:-0.998965 16:-0.0844612 17:-0.520466 18:-0.755449 
1 1:-0.843399 2:0.392043 3:0.769889 4:-0.395294 5:0.806912 6:-0.164336 7:-0.22915 8:0.0093272 9:-0.760378 10:0.376262 11:-0.287555 12:-0.0454097 13:-0.68355 14:-0.902261 15:-0.998659 16:-0.0566714 17:-0.19505 18:-0.715968 
1 1:-0.830212 2:0.447611 3:0.623099 4:-0.391148 5:0.805612 6:-0.159245 7:-0.59435 8:-0.0131609 9:-0.760864 10:0.415866 11:0.522407 12:-0.440604 13:-0.614507 14:-0.90556 15:-0.998504 16:-0.00905182 17:-0.172351 18:-0.737078 
1 1:-0.806357 2:0.437418 3:0.670685 4:-0.343239 5:0.804358 6:-0.198001 7:-0.329052 8:0.065814 9:-0.750846 10:0.341587 11:0.206933 12:-0.408718 13:-0.25188 14:-0.915532 15:-0.9986 16:-0.0443318 17:-0.187307 18:-0.699376 
1 1:-0.819761 2:0.349299 3:0.698269 4:-0.383182 5:0.806023 6:-0.240965 7:-0.588041 8:-0.0576514 9:-0.760492 10:0.286045 11:0.357407 12:-0.378721 13:-0.344848 14:-0.912021 15:-0.996969 16:-0.0155082 17:-0.180918 18:-0.710316 
1 1:-0.778922 2:0.504384 3:0.826563 4:-0.446771 5:0.815 6:-0.363777 7:-0.801014 8:-0.0159027 9:-0.779264 10:0.462891 11:-0.149121 12:-0.393244 13:-0.742166 14:-0.902721 15:-0.999006 16:-0.083086 17:-0.320083 18:-0.601414 
1 1:-0.964728 2:0.455721 3:0.712352 4:-0.389579 5:0.814639 6:-0.549698 7:-0.305574 8:-0.466184 9:-0.873559 10:0.273087 11:0.690004 12:0.0954276 13:-0.475674 14:-0.869822 15:-0.996233 16:-0.0352189 17:-0.162682 18:-0.738369 
1 1:-0.965678 2:0.451556 3:0.6758 4:-0.391827 5:0.814458 6:-0.552021 7:-0.312951 8:-0.47139 9:-0.883287 10:0.266882 11:0.57205 12:0.0401249 13:-0.431805 14:-0.863075 15:-0.99628 16:-0.22003 17:-0.0876409 18:-0.798078 
1 1:-0.967558 2:0.415936 3:0.65783 4:-0.333955 5:0.821766 6:-0.531201 7:-0.282452 8:-0.447089 9:-0.881154 10:0.245346 11:0.625861 12:0.132572 13:-0.336966 14:-0.841221 15:-0.997148 16:-0.0801851 17:-0.309765 18:-0.728514 
1 1:-0.976072 2:0.44772 3:0.674123 4:-0.399565 5:0.815588 6:-0.537897 7:-0.299726 8:-0.471855 9:-0.881848 10:0.289512 11:0.588127 12:0.0560988 13:-0.453132 14:-0.867408 15:-0.996588 16:-0.106647 17:-0.255083 18:-0.819078 
1 1:-0.945391 2:0.41758 3:0.758098 4:-0.334368 5:0.815018 6:-0.527722 7:-0.266702 8:-0.415875 9:-0.885541 10:0.327777 11:0.566296 12:0.0483904 13:-0.468501 14:-0.819611 15:-0.996333 16:-0.125383 17:-0.304999 18:-0.703122 
1 1:-0.974979 2:0.484108 3:0.564148 4:-0.160341 5:0.763578 6:-0.340248 7:-0.263348 8:-0.92867 9:-0.804893 10:0.328203 11:0.671734 12:0.142182 13:-0.256754 14:-0.872573 15:-0.997157 16:0.0414843 17:-0.173092 18:-0.404025 
1 1:-0.963218 2:0.519728 3:0.655564 4:-0.0621873 5:0.752671 6:-0.449726 7:-0.297115 8:-0.964924 9:-0.825965 10:0.567831 11:0.823839 12:0.275501 13:-0.272881 14:-0.831571 15:-0.994925 16:-0.218345 17:-0.000976149 18:-0.849239 
1 1:-0.986486 2:0.510193 3:0.668502 4:-0.138875 5:0.7669 6:-0.379076 7:-0.222534 8:-0.948739 9:-0.806857 10:0.473476 11:0.852472 12:0.273559 13:-0.243511 14:-0.820352 15:-0.994807 16:-0.143568 17:0.0437276 18:-0.879275 
1 1:-0.992785 2:0.485094 3:0.561889 4:-0.390143 5:0.759717 6:-0.353542 7:-0.315335 8:-0.992591 9:-0.806428 10:0.289451 11:0.686555 12:0.179936 13:-0.254739 14:-0.853096 15:-0.997356 16:0.0746027 17:-0.13971 18:-0.491472 
1 1:-0.969965 2:0.478189 3:0.560176 4:-0.208012 5:0.762746 6:-0.342433 7:-0.233426 8:-0.908934 9:-0.798939 10:0.383745 11:0.844085 12:0.213392 13:-0.261644 14:-0.876102 15:-0.9976 16:0.0638327 17:-0.183741 18:-0.412841 
1 1:-0.96918 2:0.570473 3:0.676751 4:-0.11376 5:0.759372 6:-0.424704 7:-0.252383 8:-0.949007 9:-0.825944 10:0.536927 11:0.813039 12:0.271618 13:-0.333136 14:-0.82171 15:-0.995692 16:-0.23184 17:0.0409972 18:-0.812104 
1 1:-1 2:0.436541 3:0.544737 4:-0.154811 5:0.749126 6:-0.32206 7:-0.120059 8:-0.998241 9:-0.795556 10:0.269558 11:0.807892 12:0.269867 13:-0.240564 14:-0.83377 15:-0.997277 16:-0.131849 17:-0.0658002 18:-0.887414 
1 1:-0.780149 2:0.60445 3:0.814143 4:-0.622838 5:0.85544 6:-0.683246 7:-0.261339 8:0.269432 9:-0.938453 10:0.419698 11:0.0506049 12:-0.466369 13:-0.585463 14:-0.913497 15:-0.995712 16:0.210476 17:-0.44416 18:-0.567254 
1 1:-0.665272 2:0.624507 3:0.760902 4:-0.611583 5:0.851255 6:-0.632183 7:-0.293417 8:0.243828 9:-0.863442 10:0.56053 11:-0.198001 12:-0.436133 13:-0.758951 14:-0.917511 15:-0.998933 16:0.200921 17:-0.379089 18:-0.817252 
1 1:-0.587508 2:0.573323 3:0.814837 4:-0.492221 5:0.857657 6:-0.683826 7:-0.332762 8:0.261278 9:-0.936695 10:0.394634 11:-0.126839 12:-0.33229 13:-0.584618 14:-0.946106 15:-0.997636 16:0.266585 17:-0.563435 18:-0.626994 
1 1:-0.405037 2:0.622534 3:0.830015 4:-0.616835 5:0.858695 6:-0.683764 7:-0.269632 8:0.255855 9:-0.943932 10:0.40309 11:0.127852 12:-0.197162 13:-0.774295 14:-0.90283 15:-0.997287 16:0.209031 17:-0.369199 18:-0.565931 
1 1:-0.704811 2:0.619465 3:0.813501 4:-0.625107 5:0.860926 6:-0.683735 7:-0.217104 8:0.262862 9:-0.871409 10:0.424748 11:0.57947 12:0.19595 13:-0.628297 14:-0.846298 15:-0.998656 16:-0.0231927 17:-0.235042 18:-0.552629 
1 1:-0.634202 2:0.68687 3:0.761062 4:-0.734 5:0.859466 6:-0.566175 7:-0.382181 8:0.150677 9:-0.910324 10:0.482236 11:0.0178111 12:-0.526311 13:-0.778582 14:-0.873292 15:-0.99895 16:0.176154 17:-0.336896 18:-0.536258 
1 1:-0.739955 2:0.644235 3:0.836959 4:-0.571159 5:0.857189 6:-0.683744 7:-0.258347 8:0.264155 9:-0.907098 10:0.421949 11:0.376633 12:-0.176889 13:-0.762627 14:-0.884137 15:-0.995077 16:0.187751 17:-0.467035 18:-0.584601 
1 1:-0.736245 2:0.647304 3:0.82925 4:-0.433958 5:0.85242 6:-0.648107 7:-0.321895 8:0.251667 9:-0.930676 10:0.408505 11:-0.197562 12:-0.460695 13:-0.773125 14:-0.951404 15:-0.998879 16:0.0608034 17:-0.376413 18:-0.608938 
1 1:-0.548359 2:0.622753 3:0.823412 4:-0.457949 5:0.852225 6:-0.581868 7:-0.240871 8:0.125858 9:-0.862471 10:0.459241 11:-0.187275 12:-0.502877 13:-0.769751 14:-0.952789 15:-0.998857 16:0.245198 17:-0.314733 18:-0.772119 
1 1:-0.700679 2:0.623849 3:0.840702 4:-0.750383 5:0.858967 6:-0.628598 7:-0.369085 8:0.114685 9:-0.8427 10:0.461309 11:0.0205879 12:-0.397003 13:-0.754397 14:-0.882111 15:-0.998441 16:0.257168 17:-0.486072 18:-0.51754 
1 1:-0.867884 2:0.571789 3:0.789253 4:-0.731575 5:0.85243 6:-0.6018 7:-0.509148 8:0.184396 9:-0.91756 10:0.534615 11:-0.153253 12:-0.422087 13:-0.707018 14:-0.874258 15:-0.9987 16:-0.3046 17:-0.545234 18:-0.515006 
1 1:-0.675278 2:0.663854 3:0.750782 4:-0.291549 5:0.852789 6:-0.635687 7:-0.378514 8:0.0963463 9:-0.866132 10:0.40011 11:0.0618492 12:-0.524878 13:-0.721733 14:-0.935191 15:-0.998503 16:-0.300624 17:-0.339456 18:-0.530055 
1 1:-0.966754 2:0.354011 3:0.6983 4:-0.553875 5:0.653778 6:0.0427273 7:-0.56347 8:-0.408958 9:-0.736585 10:0.187736 11:0.802298 12:0.120759 13:-0.466607 14:-0.829777 15:-0.995859 16:-0.201729 17:-0.0268364 18:-0.870538 
1 1:-0.952438 2:0.465695 3:0.747131 4:-0.539452 5:0.899698 6:-0.72638 7:-0.43861 8:-0.381644 9:-0.898743 10:0.197408 11:-0.573937 12:-0.531163 13:-0.676065 14:-0.926537 15:-0.998211 16:0.0131462 17:-0.31632 18:-0.680375 
1 1:-0.975656 2:0.426238 3:0.704196 4:-0.363993 5:0.903557 6:-0.584385 7:-0.410488 8:-0.352254 9:-0.898438 10:0.376871 11:0.0577828 12:-0.244256 13:-0.762313 14:-0.952913 15:-0.99906 16:-0.139217 17:-0.100562 18:-0.361963 
1 1:-0.938129 2:0.45605 3:0.711037 4:-0.432423 5:0.905325 6:-0.688425 7:-0.445926 8:-0.347159 9:-0.887575 10:0.202579 11:-0.38342 12:-0.153716 13:-0.868332 14:-0.920852 15:-0.998487 16:0.0928004 17:-0.332228 18:-0.515132 
1 1:-0.904264 2:0.509097 3:0.744873 4:-0.445999 5:0.908705 6:-0.632712 7:-0.479312 8:-0.37685 9:-0.891482 10:0.377783 11:-0.212565 12:-0.447941 13:-0.814606 14:-0.949296 15:-0.999042 16:-0.120111 17:-0.489603 18:-0.507214 
1 1:-0.917178 2:0.486738 3:0.760437 4:-0.439169 5:0.898192 6:-0.668938 7:-0.48997 8:-0.413763 9:-0.901272 10:0.357404 11:0.164158 12:-0.571416 13:-0.686227 14:-0.916982 15:-0.998672 16:-0.0188132 17:-0.337184 18:-0.434659 
1 1:-0.912977 2:0.505042 3:0.75815 4:-0.438243 5:0.905164 6:-0.652481 7:-0.496555 8:-0.423207 9:-0.905676 10:0.331914 11:0.116833 12:-0.559179 13:-0.734895 14:-0.901832 15:-0.999232 16:-0.117508 17:-0.62358 18:-0.45303 
1 1:-0.993775 2:0.468873 3:0.720455 4:-0.450052 5:0.897883 6:-0.726752 7:-0.444439 8:-0.348359 9:-0.902753 10:0.0961187 11:0.320248 12:-0.626803 13:-0.680451 14:-0.904222 15:-0.999059 16:0.102352 17:-0.359437 18:-0.724343 
1 1:-0.978892 2:0.435993 3:0.736983 4:-0.272629 5:0.910841 6:-0.691305 7:-0.369853 8:-0.336065 9:-0.913361 10:0.262258 11:0.869773 12:-0.181378 13:-0.261205 14:-0.925118 15:-0.998786 16:-0.163498 17:-0.260474 18:-0.655046 
1 1:-0.977839 2:0.482354 3:0.651098 4:-0.337356 5:0.907773 6:-0.631661 7:-0.385376 8:-0.397969 9:-0.897241 10:0.396885 11:0.132716 12:-0.720059 13:-0.830677 14:-0.896957 15:-0.997827 16:-0.167126 17:-0.291969 18:-0.490228 
1 1:-0.959922 2:0.447391 3:0.686931 4:-0.376417 5:0.909778 6:-0.688016 7:-0.426699 8:-0.299446 9:-0.915928 10:0.382589 11:0.332386 12:0.0306078 13:-0.699626 14:-0.947774 15:-0.998771 16:-0.148681 17:-0.193278 18:-0.681981 
1 1:-0.900993 2:0.446405 3:0.751276 4:-0.425718 5:0.897211 6:-0.610244 7:-0.642289 8:-0.427725 9:-0.893639 10:0.333191 11:0.263581 12:0.0399701 13:-0.671927 14:-0.935331 15:-0.998459 16:-0.12466 17:-0.595969 18:-0.427827 
1 1:-0.967641 2:0.491232 3:0.585059 4:-0.255249 5:0.909797 6:-0.697319 7:-0.479171 8:-0.314864 9:-0.924588 10:0.3105 11:0.0438538 12:-0.0427651 13:-0.785778 14:-0.878932 15:-0.998467 16:-0.17424 17:-0.260182 18:-0.682485 
1 1:-0.905093 2:0.474025 3:0.757343 4:-0.4296 5:0.902467 6:-0.557259 7:-0.521016 8:-0.423374 9:-0.892095 10:0.299124 11:0.556292 12:-0.507711 13:-0.581124 14:-0.915913 15:-0.999137 16:-0.11555 17:-0.587263 18:-0.740352 
1 1:-0.963109 2:0.558637 3:0.702114 4:-0.42379 5:0.728469 6:-0.0473446 7:-0.244612 8:-0.536232 9:-0.788618 10:0.367745 11:0.64783 12:0.0823637 13:-0.40855 14:-0.863507 15:-0.997296 16:0.055033 17:-0.288058 18:-0.664444 
1 1:-0.945678 2:0.470517 3:0.68396 4:-0.405106 5:0.730019 6:-0.0476758 7:-0.216416 8:-0.536232 9:-0.788618 10:0.418664 11:0.628952 12:0.128906 13:-0.359875 14:-0.854151 15:-0.997297 16:0.039188 17:-0.290271 18:-0.662193 
1 1:-0.927147 2:0.464708 3:0.693729 4:-0.525507 5:0.822103 6:-0.388435 7:-0.481063 8:-0.157324 9:-0.815573 10:0.181591 11:0.660942 12:-0.117615 13:-0.451582 14:-0.886361 15:-0.998101 16:-0.0187255 17:-0.429638 18:-0.363915 
1 1:-0.969565 2:0.412977 3:0.737438 4:-0.455502 5:0.813462 6:-0.388608 7:-0.392643 8:-0.274368 9:-0.88347 10:0.312264 11:0.88782 12:0.208134 13:-0.364573 14:-0.829953 15:-0.996936 16:-0.0141957 17:-0.394412 18:-0.647396 
1 1:-0.969423 2:0.439171 3:0.787042 4:-0.469855 5:0.823545 6:-0.393641 7:-0.468802 8:-0.134241 9:-0.839463 10:0.375411 11:0.855667 12:-0.044795 13:-0.397891 14:-0.884247 15:-0.997881 16:-0.0216013 17:-0.440526 18:-0.295658 
1 1:-0.960375 2:0.474463 3:0.718437 4:-0.590799 5:0.815815 6:-0.386592 7:-0.481315 8:-0.184767 9:-0.813525 10:0.317131 11:0.462856 12:-0.0748942 13:-0.627221 14:-0.885847 15:-0.998274 16:-0.0207178 17:-0.481137 18:-0.307559 
1 1:-0.995652 2:0.434568 3:0.714772 4:-0.434001 5:0.813557 6:-0.414516 7:-0.323591 8:-0.290754 9:-0.86723 10:0.199416 11:0.853687 12:0.105891 13:-0.334353 14:-0.866825 15:-0.997246 16:0.0755457 17:-0.266714 18:-0.570701 
1 1:-0.976996 2:0.414292 3:0.767993 4:-0.469006 5:0.813922 6:-0.406349 7:-0.417239 8:-0.301789 9:-0.883664 10:0.188283 11:0.891473 12:0.149771 13:-0.421465 14:-0.829327 15:-0.997355 16:-0.116151 17:-0.44425 18:-0.628521 
1 1:-0.961141 2:0.459228 3:0.730735 4:-0.606284 5:0.820557 6:-0.389896 7:-0.466689 8:-0.126702 9:-0.840064 10:0.276676 11:0.290734 12:-0.0296304 13:-0.436109 14:-0.885527 15:-0.9983 16:0.0473925 17:-0.465533 18:-0.191682 
1 1:-1 2:0.550416 3:0.672322 4:-0.239805 5:0.892009 6:-0.705696 7:-0.0224307 8:-0.535197 9:-0.875093 10:0.416717 11:0.530045 12:-0.0623831 13:-0.465228 14:-0.863582 15:-0.997228 16:-0.0329509 17:-0.177114 18:-0.614086 
1 1:-1 2:0.49726 3:0.622096 4:-0.433718 5:0.893797 6:-0.785412 7:-0.208824 8:-0.593279 9:-0.908582 10:0.304599 11:0.61631 12:-0.0766676 13:-0.457643 14:-0.863691 15:-0.997288 16:-0.0459922 17:-0.199435 18:-0.398232 
1 1:-1 2:0.539347 3:0.648704 4:-0.240474 5:0.884552 6:-0.715503 7:-0.184375 8:-0.530693 9:-0.905848 10:0.438314 11:0.343864 12:-0.0660758 13:-0.445698 14:-0.871306 15:-0.996957 16:-0.0145935 17:-0.285568 18:-0.486497 
1 1:-1 2:0.533867 3:0.674328 4:-0.239559 5:0.885015 6:-0.780906 7:-0.403165 8:-0.530408 9:-0.893212 10:0.415196 11:0.605421 12:-0.00217142 13:-0.457368 14:-0.876275 15:-0.99705 16:-0.00768285 17:-0.356202 18:-0.544538 
1 1:-0.951387 2:0.404209 3:0.72632 4:-0.310714 5:0.815654 6:-0.437139 7:-0.233708 8:-0.396504 9:-0.866459 10:0.311778 11:0.779201 12:0.294655 13:-0.427967 14:-0.811775 15:-0.996576 16:-0.176612 17:-0.195957 18:-0.762312 
1 1:-0.959298 2:0.41221 3:0.732074 4:-0.311883 5:0.816416 6:-0.418592 7:-0.234445 8:-0.415183 9:-0.833762 10:0.338119 11:0.77114 12:0.224426 13:-0.429468 14:-0.833944 15:-0.996345 16:-0.172621 17:-0.251971 18:-0.764705 
1 1:-0.985448 2:0.455612 3:0.64817 4:-0.465123 5:0.904141 6:-0.363201 7:-0.100703 8:-0.438707 9:-0.873209 10:0.3105 11:0.667866 12:-0.194712 13:-0.295376 14:-0.910008 15:-0.996495 16:0.151422 17:-0.0783085 18:-0.410353 
1 1:-0.93059 2:0.447063 3:0.736122 4:-0.612268 5:0.898048 6:-0.531459 7:-0.296943 8:-0.418524 9:-0.878219 10:0.236221 11:0.583043 12:-0.0742927 13:-0.486744 14:-0.876626 15:-0.998107 16:0.0534635 17:-0.431173 18:-0.607285 
1 1:-0.909983 2:0.449364 3:0.70289 4:-0.464956 5:0.900033 6:-0.464914 7:-0.446534 8:-0.432133 9:-0.878797 10:0.266152 11:0.584404 12:0.0231383 13:-0.410909 14:-0.89397 15:-0.998407 16:0.187441 17:-0.438502 18:-0.637384 
1 1:-0.977584 2:0.452104 3:0.652708 4:-0.231367 5:0.900658 6:-0.424658 7:0.040417 8:-0.457596 9:-0.809821 10:0.380034 11:0.750909 12:-0.0796041 13:-0.300785 14:-0.831352 15:-0.99661 16:0.263678 17:-0.0955774 18:-0.509622 
1 1:-1 2:0.374397 3:0.519348 4:-0.275621 5:0.848989 6:-0.509719 7:-0.429979 8:-0.27511 9:-0.825693 10:0.274486 11:0.801622 12:0.151221 13:-0.341729 14:-0.839535 15:-0.995441 16:-0.190389 17:-0.229054 18:-0.893081 
1 1:-1 2:0.431609 3:0.519242 4:-0.253677 5:0.842623 6:-0.507654 7:-0.432455 8:-0.271337 9:-0.83754 10:0.186945 11:0.759914 12:0.370283 13:-0.356066 14:-0.807964 15:-0.997186 16:-0.139139 17:-0.296596 18:-0.957103 
1 1:-1 2:0.477093 3:0.553718 4:-0.275237 5:0.849587 6:-0.519773 7:-0.219205 8:-0.171783 9:-0.854864 10:0.390315 11:0.580264 12:0.113723 13:-0.416743 14:-0.853079 15:-0.996123 16:-0.0942508 17:0.233952 18:-0.875276 
1 1:-0.994273 2:0.433691 3:0.613277 4:-0.37165 5:0.848433 6:-0.546015 7:-0.349403 8:-0.237672 9:-0.863146 10:0.324857 11:0.612224 12:0.0987179 13:-0.4121 14:-0.86258 15:-0.997588 16:-0.0282707 17:-0.158 18:-0.778196 
1 1:-0.988086 2:0.447172 3:0.567979 4:-0.244234 5:0.847491 6:-0.576224 7:-0.341927 8:-0.231612 9:-0.865872 10:0.206412 11:0.629253 12:0.0369982 13:-0.400938 14:-0.874494 15:-0.997516 16:-0.0386899 17:-0.0443578 18:-0.704665 
1 1:-1 2:0.469421 3:0.59924 4:-0.191922 5:0.850113 6:-0.532636 7:-0.518037 8:-0.310629 9:-0.858078 10:0.467088 11:0.610869 12:0.247295 13:-0.43071 14:-0.822892 15:-0.995311 16:-0.153348 17:-0.138789 18:-0.744319 
1 1:-1 2:0.472381 3:0.608493 4:-0.263167 5:0.849399 6:-0.512857 7:-0.174221 8:-0.183698 9:-0.858072 10:0.3863 11:0.566494 12:0.106643 13:-0.416328 14:-0.867438 15:-0.995536 16:-0.113755 17:0.111976 18:-0.865154 
1 1:-1 2:0.449036 3:0.585693 4:-0.360555 5:0.861608 6:-0.476277 7:-0.343997 8:-0.264368 9:-0.861463 10:0.285132 11:0.682556 12:0.102782 13:-0.406713 14:-0.867832 15:-0.997309 16:0.0271743 17:-0.195951 18:-0.88521 
1 1:-1 2:0.475669 3:0.574085 4:-0.25961 5:0.849079 6:-0.51886 7:-0.26156 8:-0.226601 9:-0.855717 10:0.386239 11:0.585777 12:0.0323104 13:-0.418482 14:-0.865066 15:-0.997254 16:-0.091541 17:0.127701 18:-0.829861 
1 1:-1 2:0.472819 3:0.606696 4:-0.191337 5:0.850748 6:-0.542974 7:-0.361093 8:-0.326449 9:-0.857213 10:0.427607 11:0.675055 12:0.218164 13:-0.436495 14:-0.835416 15:-0.996292 16:-0.109663 17:-0.0637555 18:-0.702981 
1 1:-1 2:0.338996 3:0.490413 4:-0.247576 5:0.841926 6:-0.509774 7:-0.379638 8:-0.333091 9:-0.841727 10:0.392809 11:0.823911 12:0.216413 13:-0.352683 14:-0.822253 15:-0.995607 16:-0.175427 17:-0.303724 18:-0.94865 
1 1:-1 2:0.462078 3:0.570111 4:-0.38016 5:0.850148 6:-0.477675 7:-0.346424 8:-0.264368 9:-0.861463 10:0.22375 11:0.64316 12:0.0990098 13:-0.38812 14:-0.856827 15:-0.997417 16:-0.0307173 17:-0.155187 18:-0.877291 
1 1:-0.981834 2:0.453529 3:0.56785 4:-0.253855 5:0.848099 6:-0.548513 7:-0.354385 8:-0.225513 9:-0.869246 10:0.199051 11:0.609872 12:0.0747261 13:-0.412339 14:-0.859592 15:-0.997565 16:-0.00239805 17:-0.0616985 18:-0.695519 
1 1:-0.9089 2:0.183691 3:0.736176 4:-0.153168 5:0.807076 6:0.168544 7:-0.126159 8:-0.00232512 9:-0.763192 10:0.284463 11:0.469061 12:0.390374 13:-0.0784782 14:-0.795487 15:-0.99762 16:-0.184569 17:-0.275893 18:-0.855977 
1 1:-0.931234 2:0.554033 3:0.776473 4:-0.387336 5:0.811441 6:0.0643608 7:-0.046351 8:0.0666667 9:-0.683672 10:0.44604 11:0.0673781 12:-0.18933 13:-0.818278 14:-0.973308 15:-0.999206 16:0.133321 17:-0.279765 18:-0.417154 
1 1:-0.872785 2:0.562253 3:0.765976 4:-0.448337 5:0.815521 6:0.136635 7:-0.277003 8:0.0666667 9:-0.650104 10:0.454982 11:-0.404221 12:-0.451134 13:-0.797344 14:-0.92906 15:-0.99873 16:0.0806018 17:-0.279845 18:-0.339216 
1 1:-0.997611 2:0.58516 3:0.7054 4:-0.105651 5:0.859367 6:-0.498088 7:-0.216244 8:-0.372856 9:-0.888972 10:0.510159 11:0.326918 12:-0.133279 13:-0.596404 14:-0.874565 15:-0.997311 16:-0.147296 17:-0.12936 18:-0.837417 
1 1:-0.963446 2:0.533209 3:0.752531 4:-0.14862 5:0.859395 6:-0.671195 7:0.303018 8:-0.448827 9:-0.855116 10:0.49708 11:0.686189 12:0.0596633 13:-0.412975 14:-0.843506 15:-0.996592 16:-0.131094 17:-0.289386 18:-0.735016 
1 1:-0.982942 2:0.494849 3:0.648172 4:-0.384446 5:0.850617 6:-0.606543 7:-0.212141 8:-0.367177 9:-0.874909 10:0.438983 11:0.622677 12:0.0182913 13:-0.458997 14:-0.87249 15:-0.997698 16:-0.0206458 17:-0.301934 18:-0.614354 
1 1:-0.996246 2:0.525537 3:0.635819 4:-0.261172 5:0.858052 6:-0.593104 7:-0.238371 8:-0.356878 9:-0.870169 10:0.451332 11:0.602514 12:0.00989302 13:-0.414903 14:-0.874391 15:-0.997718 16:-0.113692 17:-0.345153 18:-0.652559 
1 1:-0.987327 2:0.532113 3:0.753828 4:-0.175667 5:0.859336 6:-0.651215 7:0.199142 8:-0.470816 9:-0.854654 10:0.500426 11:0.582921 12:0.18668 13:-0.454491 14:-0.835474 15:-0.996043 16:-0.131802 17:-0.363079 18:-0.664193 
1 1:-0.97275 2:0.533757 3:0.667675 4:-0.171812 5:0.85939 6:-0.649613 7:0.0947383 8:-0.57951 9:-0.854093 10:0.469035 11:0.512915 12:0.144561 13:-0.465449 14:-0.832621 15:-0.997392 16:-0.130577 17:-0.352819 18:-0.809727 
0.594128479772398 1:-0.996335 2:0.531346 3:0.696406 4:-0.15693 5:0.859248 6:-0.673757 7:0.226951 8:-0.423559 9:-0.859011 10:0.512045 11:0.731303 12:0.15613 13:-0.376681 14:-0.831727 15:-0.996332 16:-0.143123 17:-0.27181 18:-0.62542 
1 1:-0.986782 2:0.550197 3:0.693352 4:-0.117255 5:0.859365 6:-0.54361 7:-0.370412 8:-0.375363 9:-0.866535 10:0.680071 11:0.255687 12:-0.139427 13:-0.573117 14:-0.87864 15:-0.997566 16:-0.138553 17:-0.193198 18:-0.917182 
1 1:-0.997886 2:0.484656 3:0.635308 4:-0.138185 5:0.851485 6:-0.585205 7:-0.243813 8:-0.332781 9:-0.870877 10:0.240114 11:0.613385 12:0.0187689 13:-0.420874 14:-0.872389 15:-0.997719 16:-0.109864 17:-0.343121 18:-0.588206 
1 1:-1 2:0.443775 3:0.588331 4:-0.0974947 5:0.87238 6:-0.64389 7:-0.167832 8:-0.402054 9:-0.857157 10:0.318226 11:0.367202 12:-0.0192775 13:-0.473202 14:-0.852049 15:-0.996906 16:-0.171812 17:0.110448 18:-0.41188 
1 1:-0.999996 2:0.372644 3:0.76087 4:-0.287099 5:0.788275 6:-0.558536 7:-0.256425 8:0.252993 9:-0.840734 10:0.254654 11:0.418624 12:-0.5759 13:-0.475564 14:-0.842939 15:-0.997784 16:0.0149569 17:-0.391858 18:-0.868256 
1 1:-1 2:0.376808 3:0.589056 4:-0.186424 5:0.794897 6:-0.429505 7:-0.376149 8:0.362086 9:-0.818358 10:0.267003 11:0.789403 12:0.237888 13:-0.374757 14:-0.833379 15:-0.997544 16:-0.13303 17:-0.415842 18:-0.762139 
1 1:-1 2:0.323981 3:0.539189 4:-0.0585305 5:0.785705 6:-0.532344 7:-0.414843 8:0.274816 9:-0.771077 10:0.21505 11:0.60106 12:0.179733 13:-0.315047 14:-0.79895 15:-0.996927 16:-0.434552 17:-0.254658 18:-0.696826 
1 1:-1 2:0.384152 3:0.564749 4:-0.325007 5:0.788192 6:-0.320334 7:-0.330489 8:0.29612 9:-0.814887 10:0.237255 11:0.798618 12:0.240033 13:-0.241985 14:-0.852535 15:-0.997079 16:-0.163686 17:0.107761 18:-0.762407 
1 1:-1 2:0.424266 3:0.666932 4:-0.202718 5:0.795452 6:-0.44495 7:-0.363446 8:0.332222 9:-0.807894 10:0.366711 11:0.767676 12:0.240891 13:-0.357152 14:-0.833382 15:-0.997607 16:-0.0852225 17:-0.401049 18:-0.870396 
1 1:-1 2:0.398071 3:0.617663 4:-0.222248 5:0.79403 6:-0.442236 7:-0.386131 8:0.385188 9:-0.820067 10:0.296386 11:0.771553 12:0.242558 13:-0.375362 14:-0.833382 15:-0.997674 16:-0.126169 17:-0.484181 18:-0.77637 
1 1:-0.95124 2:0.449693 3:0.757885 4:-0.384822 5:0.812988 6:-0.45401 7:-0.299885 8:-0.416544 9:-0.88056 10:0.338241 11:0.876906 12:0.23056 13:-0.41797 14:-0.841806 15:-0.995993 16:-0.232912 17:-0.285435 18:-0.884958 
1 1:-0.973818 2:0.421964 3:0.763406 4:-0.372532 5:0.811109 6:-0.479092 7:-0.261517 8:-0.388533 9:-0.862282 10:0.342742 11:0.885032 12:0.263237 13:-0.420833 14:-0.833075 15:-0.995967 16:-0.236546 17:-0.183671 18:-0.820447 
1 1:-0.95505 2:0.427992 3:0.724529 4:-0.328195 5:0.814013 6:-0.579243 7:-0.266216 8:-0.433531 9:-0.885777 10:0.309223 11:0.664988 12:0.0196489 13:-0.443656 14:-0.8439 15:-0.996149 16:-0.0834776 17:-0.309386 18:-0.664712 
1 1:-0.945291 2:0.407606 3:0.756524 4:-0.3187 5:0.816218 6:-0.421531 7:-0.203363 8:-0.395774 9:-0.875203 10:0.305877 11:0.786235 12:0.232776 13:-0.427276 14:-0.820046 15:-0.996579 16:-0.173867 17:-0.121156 18:-0.78846 
1 1:-0.984013 2:0.485971 3:0.667322 4:-0.200028 5:0.785259 6:-0.411122 7:-0.474269 8:-0.803711 9:-0.792355 10:0.50438 11:0.74337 12:0.209761 13:-0.362927 14:-0.838021 15:-0.997271 16:-0.0346018 17:-0.43152 18:-0.489347 
1 1:-0.978945 2:0.495506 3:0.701899 4:-0.195578 5:0.780216 6:-0.406767 7:-0.336657 8:-0.771386 9:-0.801424 10:0.463073 11:0.732146 12:0.202553 13:-0.363434 14:-0.840026 15:-0.997226 16:-0.050215 17:-0.44633 18:-0.519697 
1 1:-0.96949 2:0.517865 3:0.697032 4:-0.188791 5:0.781825 6:-0.429852 7:-0.336392 8:-0.749643 9:-0.802328 10:0.454313 11:0.774532 12:0.205794 13:-0.478531 14:-0.839058 15:-0.997211 16:-0.148931 17:-0.386574 18:-0.552314 
1 1:-0.980279 2:0.475559 3:0.705724 4:-0.220001 5:0.786438 6:-0.355392 7:-0.119488 8:-0.748151 9:-0.800885 10:0.293284 11:-0.500909 12:-0.105153 13:-0.712872 14:-0.95484 15:-0.997836 16:-0.0903381 17:-0.253982 18:-0.176145 
1 1:-0.969994 2:0.477641 3:0.717258 4:-0.253506 5:0.78976 6:-0.383425 7:-0.123082 8:-0.767849 9:-0.79913 10:0.322545 11:0.42669 12:-0.14514 13:-0.424612 14:-0.892317 15:-0.998751 16:-0.0515213 17:-0.276944 18:0.265669 
1 1:-1 2:0.396098 3:0.6124 4:-0.358165 5:0.791652 6:-0.384963 7:-0.284694 8:-0.802762 9:-0.830985 10:0.244069 11:0.816634 12:0.198656 13:-0.272475 14:-0.84276 15:-0.997331 16:-0.091328 17:-0.307058 18:-0.661941 
1 1:-1 2:0.466024 3:0.560999 4:-0.233286 5:0.79155 6:-0.380321 7:-0.128395 8:-0.797107 9:-0.83018 10:0.331731 11:0.857641 12:0.252314 13:-0.171114 14:-0.843583 15:-0.997349 16:-0.0546978 17:-0.37073 18:-0.795748 
1 1:-0.971791 2:0.516659 3:0.662276 4:-0.20491 5:0.78065 6:-0.442028 7:-0.45116 8:-0.770629 9:-0.803308 10:0.434177 11:0.743224 12:0.216651 13:-0.364035 14:-0.838263 15:-0.997223 16:-0.0915818 17:-0.330966 18:-0.595841 
1 1:-1 2:0.429307 3:0.640757 4:-0.18322 5:0.787978 6:-0.36191 7:-0.188829 8:-0.68567 9:-0.804878 10:0.397798 11:0.831331 12:0.263047 13:-0.336044 14:-0.830837 15:-0.994908 16:-0.184913 17:-0.118902 18:-0.689553 
1 1:-1 2:0.468654 3:0.632162 4:-0.375506 5:0.787935 6:-0.38852 7:-0.234531 8:-0.801704 9:-0.827007 10:0.3717 11:0.87299 12:0.206984 13:-0.290311 14:-0.855607 15:-0.997252 16:-0.0827226 17:-0.18986 18:-0.656432 
1 1:-1 2:0.427335 3:0.644712 4:-0.130551 5:0.791818 6:-0.39002 7:-0.173717 8:-0.811825 9:-0.804878 10:0.396885 11:0.839545 12:0.224386 13:-0.328739 14:-0.830917 15:-0.996761 16:-0.0990312 17:-0.289035 18:-0.696133 
1 1:-1 2:0.475121 3:0.594693 4:-0.189325 5:0.790367 6:-0.235111 7:-0.0397167 8:-0.566511 9:-0.82425 10:0.31707 11:0.505941 12:0.0122856 13:-0.349136 14:-0.851163 15:-0.996716 16:-0.0857018 17:0.0116491 18:-0.672426 
1 1:-0.959531 2:0.460763 3:0.686679 4:-0.189641 5:0.875141 6:-0.66712 7:-0.192754 8:-0.043521 9:-0.862509 10:0.538326 11:0.111755 12:-0.150699 13:-0.644253 14:-0.89216 15:-0.997689 16:-0.0901658 17:-0.358589 18:-0.566892 
1 1:-0.952859 2:0.516221 3:0.703942 4:-0.18475 5:0.875174 6:-0.618171 7:-0.241995 8:-0.127357 9:-0.880432 10:0.49051 11:0.0429866 12:-0.178004 13:-0.616263 14:-0.881389 15:-0.997713 16:-0.101967 17:-0.33581 18:-0.588505 
1 1:-0.913007 2:0.539347 3:0.755649 4:-0.323398 5:0.864284 6:-0.613883 7:-0.371462 8:-0.148102 9:-0.915663 10:0.51673 11:0.197383 12:-0.16984 13:-0.666357 14:-0.891917 15:-0.998267 16:-0.0340536 17:-0.289793 18:-0.600406 
1 1:-0.929398 2:0.448707 3:0.695847 4:-0.343052 5:0.875881 6:-0.685783 7:-0.185149 8:-0.13085 9:-0.855003 10:0.344263 11:0.0504993 12:-0.146578 13:-0.602519 14:-0.892404 15:-0.997524 16:-0.0843516 17:-0.351258 18:-0.569017 
1 1:-0.938231 2:0.54132 3:0.737106 4:-0.205103 5:0.874898 6:-0.603816 7:-0.260927 8:-0.22571 9:-0.907865 10:0.522205 11:0.258295 12:-0.198197 13:-0.641965 14:-0.89165 15:-0.997823 16:-0.0435831 17:-0.366025 18:-0.758912 
1 1:-0.968749 2:0.461201 3:0.612098 4:-0.306719 5:0.867823 6:-0.511435 7:-0.260891 8:-0.217119 9:-0.904599 10:0.342864 11:0.107983 12:-0.0379667 13:-0.490415 14:-0.883894 15:-0.99812 16:0.0136913 17:-0.244001 18:-0.837543 
1 1:-0.926435 2:0.53836 3:0.730238 4:-0.156933 5:0.873393 6:-0.615572 7:-0.234931 8:-0.190508 9:-0.89748 10:0.486921 11:0.536738 12:0.139427 13:-0.509042 14:-0.871346 15:-0.997439 16:-0.1131 17:-0.294346 18:-0.82421 
1 1:-0.957664 2:0.478957 3:0.716269 4:-0.299029 5:0.87529 6:-0.616306 7:-0.205414 8:-0.1774 9:-0.845996 10:0.440686 11:0.232641 12:-0.0938798 13:-0.651389 14:-0.887748 15:-0.998161 16:-0.0755707 17:-0.290752 18:-0.563838 
1 1:-0.947521 2:0.472929 3:0.643629 4:-0.173604 5:0.866975 6:-0.489132 7:-0.29233 8:-0.193047 9:-0.886978 10:0.476518 11:0.158202 12:0.00470991 13:-0.569243 14:-0.885033 15:-0.997855 16:0.0412994 17:-0.245988 18:-0.72705 
1 1:-0.922242 2:0.52751 3:0.64512 4:-0.310175 5:0.86747 6:-0.499707 7:-0.266536 8:-0.233034 9:-0.894612 10:0.534189 11:0.399863 12:-0.0443041 13:-0.565489 14:-0.890469 15:-0.99798 16:-0.0490058 17:-0.241164 18:-0.882203 
1 1:-0.98251 2:0.530359 3:0.703387 4:-0.152421 5:0.877281 6:-0.666356 7:-0.213578 8:-0.189239 9:-0.918203 10:0.533337 11:0.550698 12:0.101146 13:-0.519479 14:-0.844397 15:-0.998102 16:-0.116988 17:-0.263079 18:-0.627246 
1 1:-0.957419 2:0.534963 3:0.672492 4:-0.152962 5:0.878569 6:-0.6187 7:-0.232517 8:-0.187833 9:-0.918659 10:0.504137 11:0.585305 12:-0.20246 13:-0.455133 14:-0.874922 15:-0.99803 16:-0.114478 17:-0.262767 18:-0.733205 
1 1:-0.902561 2:0.539128 3:0.735455 4:-0.241621 5:0.866628 6:-0.613125 7:-0.252278 8:-0.177754 9:-0.854205 10:0.504441 11:0.0645945 12:-0.16681 13:-0.638705 14:-0.890309 15:-0.998256 16:-0.0715421 17:-0.373465 18:-0.429086 
1 1:-1 2:0.44235 3:0.621425 4:-0.148844 5:0.901224 6:-0.557083 7:-0.227123 8:-0.41367 9:-0.813596 10:0.353753 11:0.302302 12:0.0800463 13:-0.397179 14:-0.873986 15:-0.996565 16:-0.122119 17:0.342347 18:-0.346347 
1 1:-0.996627 2:0.414402 3:0.721129 4:-0.340534 5:0.89831 6:-0.569146 7:-0.32289 8:-0.385515 9:-0.886013 10:0.303078 11:0.583991 12:-0.150116 13:-0.545813 14:-0.877364 15:-0.998219 16:-0.13204 17:-0.202055 18:-0.833985 
1 1:-1 2:0.412977 3:0.591834 4:-0.242837 5:0.901902 6:-0.546968 7:-0.153157 8:-0.312432 9:-0.824539 10:0.324005 11:0.48614 12:-0.0128649 13:-0.376921 14:-0.857935 15:-0.996511 16:-0.103683 17:0.146768 18:-0.541453 
1 1:-0.870055 2:0.435445 3:0.667205 4:-0.281733 5:0.903921 6:-0.527724 7:-0.303074 8:-0.25058 9:-0.872067 10:0.352354 11:0.151008 12:-0.262508 13:-0.670056 14:-0.915478 15:-0.997792 16:-0.0517531 17:-0.0212094 18:-0.577628 
1 1:-0.965448 2:0.430513 3:0.670159 4:-0.329977 5:0.895156 6:-0.553874 7:-0.50534 8:-0.4058 9:-0.881431 10:0.28641 11:0.470571 12:-0.083633 13:-0.575599 14:-0.876153 15:-0.998314 16:-0.152271 17:0.218798 18:-0.63167 
1 1:-1 2:0.440377 3:0.618233 4:-0.159488 5:0.900506 6:-0.561695 7:-0.181648 8:-0.36843 9:-0.843461 10:0.339518 11:0.706501 12:0.169681 13:-0.470453 14:-0.860549 15:-0.996957 16:-0.164375 17:0.251788 18:-0.486749 
1 1:-1 2:0.416046 3:0.644559 4:-0.208571 5:0.900291 6:-0.544674 7:-0.218929 8:-0.394826 9:-0.852344 10:0.328872 11:0.572789 12:0.0346985 13:-0.515606 14:-0.863841 15:-0.997428 16:-0.101343 17:0.15443 18:-0.315587 
1 1:-0.963718 2:0.435335 3:0.667434 4:-0.270758 5:0.897098 6:-0.562539 7:-0.283036 8:-0.377418 9:-0.882275 10:0.307945 11:0.459039 12:-0.0598888 13:-0.571444 14:-0.884029 15:-0.997795 16:-0.0860808 17:-0.383579 18:-0.815898 
1 1:-1 2:0.41747 3:0.587225 4:-0.150679 5:0.901907 6:-0.569587 7:-0.191452 8:-0.316685 9:-0.806143 10:0.353145 11:0.687231 12:0.204698 13:-0.344797 14:-0.851054 15:-0.997335 16:-0.0783776 17:0.245611 18:-0.52634 
1 1:-0.938851 2:0.41484 3:0.658804 4:-0.311373 5:0.893733 6:-0.575672 7:-0.304572 8:-0.348173 9:-0.884302 10:0.287687 11:0.523981 12:0.00639044 13:-0.540478 14:-0.875212 15:-0.997837 16:-0.0979912 17:0.24109 18:-0.745988 
1 1:-1 2:0.439719 3:0.61918 4:-0.237373 5:0.900837 6:-0.56284 7:-0.238383 8:-0.391341 9:-0.81036 10:0.35205 11:0.625398 12:0.184567 13:-0.365319 14:-0.84338 15:-0.996829 16:-0.126154 17:0.246736 18:-0.507717 
1 1:-0.973401 2:0.490136 3:0.621699 4:-0.403515 5:0.859114 6:-0.239789 7:-0.219107 8:-0.266412 9:-0.799526 10:0.302774 11:0.63331 12:0.0872505 13:-0.441996 14:-0.880059 15:-0.99616 16:-0.0424742 17:-0.174197 18:-0.867185 
1 1:-0.96322 2:0.488492 3:0.690068 4:-0.456416 5:0.859173 6:-0.213865 7:-0.253568 8:-0.286088 9:-0.80009 10:0.326317 11:0.595111 12:0.0911777 13:-0.359331 14:-0.905922 15:-0.997099 16:-0.13163 17:-0.163811 18:-0.540681 
1 1:-1 2:0.431719 3:0.618558 4:-0.085273 5:0.841051 6:-0.317201 7:-0.078515 8:-0.0724225 9:-0.8221 10:0.359472 11:0.709754 12:0.198369 13:-0.26677 14:-0.82153 15:-0.997254 16:-0.176373 17:-0.228522 18:-0.7611 
1 1:-0.957547 2:0.44224 3:0.602696 4:-0.24279 5:0.730375 6:-0.0693072 7:-0.272863 8:-0.522949 9:-0.758118 10:0.372491 11:0.615322 12:0.0583763 13:-0.440859 14:-0.877964 15:-0.996731 16:-0.12497 17:0.0275569 18:-0.875702 
1 1:-0.995099 2:0.460544 3:0.570851 4:-0.0787882 5:0.748119 6:-0.394556 7:-0.305684 8:-0.570596 9:-0.811685 10:0.314758 11:0.897202 12:0.295919 13:-0.338163 14:-0.829699 15:-0.996776 16:-0.138919 17:-0.249411 18:-0.568371 
1 1:-1 2:0.469969 3:0.547116 4:-0.283887 5:0.85248 6:-0.463202 7:-0.0716104 8:-0.141498 9:-0.843968 10:0.37973 11:0.729699 12:0.0759733 13:-0.226591 14:-0.851619 15:-0.995113 16:-0.168542 17:0.146009 18:-0.810467 
1 1:-0.998537 2:0.455392 3:0.615287 4:-0.32432 5:0.848081 6:-0.537385 7:-0.243678 8:-0.186549 9:-0.866877 10:0.186823 11:0.604579 12:0.0133823 13:-0.40473 14:-0.875949 15:-0.995596 16:-0.0132778 17:-0.0879591 18:-0.703107 
1 1:-1 2:0.475559 3:0.55854 4:-0.258667 5:0.849327 6:-0.511043 7:-0.33509 8:-0.206872 9:-0.857888 10:0.393235 11:0.496159 12:0.0604107 13:-0.415139 14:-0.858343 15:-0.995471 16:-0.0930541 17:0.253683 18:-0.897976 
1 1:-1 2:0.475669 3:0.568309 4:-0.269615 5:0.849011 6:-0.525447 7:-0.233518 8:-0.20902 9:-0.860728 10:0.38411 11:0.569329 12:0.0658635 13:-0.423191 14:-0.868282 15:-0.995824 16:-0.122172 17:0.237459 18:-0.857771 
1 1:-1 2:0.468216 3:0.537677 4:-0.25948 5:0.849794 6:-0.52651 7:-0.246344 8:-0.227478 9:-0.845959 10:0.388064 11:0.588886 12:0.0934021 13:-0.417972 14:-0.868783 15:-0.995935 16:-0.126599 17:0.197698 18:-0.902179 
1 1:-0.93999 2:0.44235 3:0.652551 4:-0.302268 5:0.860158 6:-0.67675 7:-0.662929 8:-0.534578 9:-0.874979 10:0.202519 11:0.426973 12:0.0321556 13:-0.436679 14:-0.868603 15:-0.998609 16:-0.163899 17:-0.478191 18:-0.738746 
0.429657790037214 1:-1 2:0.25263 3:0.523374 4:-0.397187 5:0.874327 6:-0.671551 7:-0.415801 8:-0.581226 9:-0.899037 10:-0.0153912 11:0.856747 12:0.127857 13:-0.138741 14:-0.84863 15:-0.997152 16:-0.0754611 17:-0.450124 18:-0.837653 
1 1:-0.943095 2:0.42021 3:0.603224 4:-0.303898 5:0.862066 6:-0.656011 7:-0.685012 8:-0.536905 9:-0.89401 10:0.205682 11:0.483855 12:-0.0163896 13:-0.561489 14:-0.868703 15:-0.997772 16:-0.0496542 17:-0.465097 18:-0.698006 
1 1:-1 2:0.341407 3:0.596849 4:-0.392662 5:0.862692 6:-0.674492 7:-0.497127 8:-0.590083 9:-0.905639 10:-0.07653 11:0.731705 12:0.129746 13:-0.225114 14:-0.865302 15:-0.997087 16:-0.0108155 17:-0.322239 18:-0.883384 
1 1:-1 2:0.349079 3:0.516656 4:-0.379968 5:0.874923 6:-0.676603 7:-0.335545 8:-0.474918 9:-0.902687 10:0.120392 11:0.727383 12:0.0815809 13:-0.234524 14:-0.841183 15:-0.99733 16:-0.0645688 17:-0.445457 18:-0.857551 
1 1:-0.998829 2:0.455392 3:0.604943 4:-0.40991 5:0.866833 6:-0.684726 7:-0.515531 8:-0.603055 9:-0.916639 10:0.344507 11:0.714656 12:0.0586594 13:-0.409149 14:-0.869468 15:-0.997679 16:0.02261 17:-0.742389 18:-0.714598 
1 1:-0.98301 2:0.41769 3:0.692998 4:-0.390609 5:0.864469 6:-0.64078 7:-0.500002 8:-0.606094 9:-0.898462 10:0.280204 11:0.780135 12:0.172484 13:-0.386278 14:-0.864705 15:-0.996835 16:-0.107637 17:-0.421939 18:-0.650056 
1 1:-0.999382 2:0.441583 3:0.640744 4:-0.343397 5:0.862444 6:-0.634817 7:-0.636594 8:-0.583064 9:-0.90267 10:0.221621 11:0.53346 12:0.0464225 13:-0.391234 14:-0.868441 15:-0.997824 16:-0.101641 17:-0.468427 18:-0.750931 
1 1:-0.989853 2:0.418566 3:0.68137 4:-0.40477 5:0.869536 6:-0.651474 7:-0.500002 8:-0.612178 9:-0.898594 10:0.239263 11:0.837795 12:0.205312 13:-0.4134 14:-0.868871 15:-0.997397 16:-0.0900656 17:-0.216068 18:-0.651158 
1 1:-0.983056 2:0.419114 3:0.608737 4:-0.42429 5:0.869976 6:-0.666878 7:-0.500002 8:-0.622359 9:-0.911745 10:0.20483 11:0.877393 12:0.145888 13:-0.410743 14:-0.825266 15:-0.996965 16:-0.0695592 17:-0.140659 18:-0.67252 
1 1:-0.983436 2:0.422183 3:0.676577 4:-0.393802 5:0.869644 6:-0.65707 7:-0.500002 8:-0.609791 9:-0.896179 10:0.271323 11:0.879903 12:0.186977 13:-0.416874 14:-0.846692 15:-0.996712 16:-0.0984767 17:0.0229913 18:-0.649789 
1 1:-1 2:0.512933 3:0.665195 4:-0.204966 5:0.767908 6:-0.244626 7:-0.252917 8:-0.330296 9:-0.777486 10:0.44026 11:0.566478 12:0.0728068 13:-0.482418 14:-0.854431 15:-0.997734 16:-0.125095 17:-0.308468 18:-0.369031 
1 1:-0.950755 2:0.519947 3:0.665704 4:-0.365308 5:0.774365 6:-0.311778 7:-0.219512 8:-0.333333 9:-0.785708 10:0.433386 11:0.309835 12:-0.239378 13:-0.580833 14:-0.881132 15:-0.997953 16:-0.107402 17:-0.428098 18:-0.753953 
1 1:-0.95082 2:0.488053 3:0.686714 4:-0.316611 5:0.770618 6:-0.316073 7:-0.204173 8:-0.333333 9:-0.820422 10:0.403577 11:0.261483 12:-0.163171 13:-0.567576 14:-0.898243 15:-0.998123 16:-0.0775694 17:-0.42288 18:-0.67093 
1 1:-0.951316 2:0.475121 3:0.671517 4:-0.321111 5:0.771596 6:-0.36204 7:-0.230551 8:-0.333333 9:-0.825937 10:0.432534 11:0.54569 12:-0.124815 13:-0.518829 14:-0.884685 15:-0.99792 16:-0.0411303 17:-0.468554 18:-0.62553 
1 1:-1 2:0.436541 3:0.662077 4:-0.188039 5:0.766463 6:-0.266196 7:-0.288073 8:-0.333384 9:-0.75033 10:0.337206 11:0.671635 12:0.133682 13:-0.461657 14:-0.83989 15:-0.997276 16:-0.13235 17:-0.319092 18:-0.833104 
1 1:-0.979751 2:0.516331 3:0.683271 4:-0.36571 5:0.773727 6:-0.301773 7:-0.236976 8:-0.333333 9:-0.831631 10:0.376201 11:0.196558 12:-0.170702 13:-0.573477 14:-0.88884 15:-0.99792 16:0.00743224 17:-0.400942 18:-0.765807 
1 1:-1 2:0.523674 3:0.666387 4:-0.143582 5:0.768852 6:-0.248607 7:-0.24339 8:-0.328629 9:-0.795874 10:0.529261 11:0.571664 12:0.105489 13:-0.486182 14:-0.853755 15:-0.997628 16:-0.156628 17:-0.312958 18:-0.492511 
1 1:-1 2:0.515015 3:0.69197 4:-0.233891 5:0.767143 6:-0.236463 7:-0.265264 8:-0.276596 9:-0.786573 10:0.484487 11:0.556939 12:0.0967278 13:-0.484267 14:-0.85288 15:-0.997588 16:-0.169031 17:-0.322621 18:-0.369582 
1 1:-1 2:0.443884 3:0.595523 4:-0.257466 5:0.901975 6:-0.550923 7:-0.093823 8:-0.342145 9:-0.8298 10:0.343047 11:0.634885 12:-0.12516 13:-0.527739 14:-0.883253 15:-0.997557 16:-0.0800692 17:0.28775 18:-0.535659 
1 1:-1 2:0.410566 3:0.588829 4:-0.248852 5:0.901065 6:-0.56359 7:-0.138082 8:-0.395199 9:-0.835894 10:0.326865 11:0.313112 12:-0.124129 13:-0.337305 14:-0.853373 15:-0.997228 16:-0.170039 17:0.192952 18:-0.540634 
1 1:-0.98748 2:0.48893 3:0.660758 4:-0.169918 5:0.745434 6:-0.308598 7:-0.284498 8:-0.489001 9:-0.756257 10:0.410816 11:0.812538 12:0.266187 13:-0.360879 14:-0.827573 15:-0.996919 16:-0.135771 17:-0.242289 18:-0.658085 
1 1:-1 2:0.387988 3:0.621712 4:-0.125036 5:0.738915 6:-0.295106 7:-0.172642 8:-0.393754 9:-0.805129 10:0.334469 11:0.777296 12:0.262711 13:-0.126197 14:-0.828273 15:-0.99638 16:-0.204323 17:-0.15825 18:-0.787326 
1 1:-1 2:0.348422 3:0.581577 4:-0.191623 5:0.737183 6:-0.332492 7:-0.301704 8:-0.433023 9:-0.811142 10:0.281664 11:0.790371 12:0.323064 13:-0.332547 14:-0.809944 15:-0.997449 16:-0.20255 17:-0.507448 18:-0.922534 
1 1:-0.992665 2:0.529263 3:0.660836 4:-0.180522 5:0.749021 6:-0.325429 7:-0.277421 8:-0.478991 9:-0.736955 10:0.43004 11:0.793963 12:0.278725 13:-0.369556 14:-0.828685 15:-0.996875 16:-0.113695 17:-0.314255 18:-0.704492 
1 1:-1 2:0.394783 3:0.65738 4:-0.177713 5:0.741037 6:-0.196621 7:-0.250749 8:-0.423219 9:-0.785901 10:0.262258 11:0.726183 12:0.14235 13:-0.383896 14:-0.835205 15:-0.996553 16:-0.159767 17:-0.100983 18:-0.871829 
1 1:-0.995601 2:0.52477 3:0.629388 4:-0.171633 5:0.745871 6:-0.286654 7:-0.360909 8:-0.467508 9:-0.810983 10:0.386665 11:0.789789 12:0.281763 13:-0.365639 14:-0.829739 15:-0.996885 16:-0.117119 17:-0.347596 18:-0.758597 
1 1:-0.960486 2:0.466681 3:0.721596 4:-0.461182 5:0.821102 6:-0.380237 7:-0.255939 8:-0.476294 9:-0.865381 10:0.307823 11:0.610128 12:0.00558113 13:-0.44458 14:-0.850221 15:-0.997716 16:-0.164523 17:-0.299934 18:-0.863076 
1 1:-0.973277 2:0.531456 3:0.713162 4:-0.502879 5:0.826726 6:-0.447543 7:-0.155246 8:-0.45124 9:-0.885819 10:0.278866 11:0.64471 12:-0.0175217 13:-0.290257 14:-0.878236 15:-0.996941 16:0.0871115 17:-0.375944 18:-0.854497 
1 1:-0.989584 2:0.420539 3:0.72416 4:-0.42284 5:0.826527 6:-0.485467 7:-0.276033 8:-0.455974 9:-0.892805 10:0.252646 11:0.742365 12:0.262791 13:-0.35274 14:-0.874454 15:-0.997717 16:0.0251694 17:-0.369956 18:-0.841258 
1 1:-0.954124 2:0.487834 3:0.752009 4:-0.657729 5:0.949972 6:-0.74671 7:-0.328456 8:-0.759008 9:-0.928794 10:0.256601 11:0.29001 12:-0.068716 13:-0.608503 14:-0.904386 15:-0.997106 16:0.0519317 17:-0.124096 18:-0.758566 
1 1:-0.8203 2:0.511727 3:0.80898 4:-0.384559 5:0.958342 6:-0.641767 7:-0.452419 8:-0.695579 9:-0.918813 10:0.139737 11:0.761507 12:0.055661 13:-0.117585 14:-0.872507 15:-0.997918 16:-0.0936994 17:-0.0703556 18:-0.550488 
1 1:-0.810426 2:0.513152 3:0.53691 4:-0.550845 5:0.961902 6:-0.702917 7:-0.397717 8:-0.542691 9:-0.908913 10:0.101594 11:0.837447 12:0.280202 13:-0.314499 14:-0.884625 15:-0.997092 16:0.00890772 17:-0.308359 18:-0.8065 
1 1:-0.830304 2:0.513043 3:0.776352 4:-0.463543 5:0.961759 6:-0.756002 7:-0.323603 8:-0.751772 9:-0.860823 10:0.191325 11:0.411891 12:0.0540954 13:-0.636481 14:-0.870518 15:-0.997311 16:0.00811516 17:-0.293041 18:-0.694008 
1 1:-0.788314 2:0.550307 3:0.783178 4:-0.346668 5:0.968129 6:-0.645089 7:-0.446061 8:-0.538875 9:-0.899099 10:0.425721 11:0.275994 12:-0.328539 13:-0.776962 14:-0.955525 15:-0.998033 16:0.081316 17:-0.431348 18:-0.399397 
1 1:-0.91345 2:0.495178 3:0.613975 4:-0.568305 5:0.959608 6:-0.800793 7:-0.444507 8:-0.593819 9:-0.842233 10:0.159326 11:0.754991 12:-0.166346 13:-0.561307 14:-0.871879 15:-0.996929 16:-0.013779 17:-0.1262 18:-0.823092 
1 1:-0.947427 2:0.349189 3:0.409091 4:-0.472288 5:0.95982 6:-0.740369 7:-0.445993 8:-0.642053 9:-0.913344 10:0.220891 11:0.502832 12:-0.0188794 13:-0.429722 14:-0.902165 15:-0.997048 16:-0.0957137 17:-0.189119 18:-0.704823 
1 1:-0.936213 2:0.301622 3:0.397252 4:-0.453661 5:0.959319 6:-0.657549 7:-0.372998 8:-0.724042 9:-0.903793 10:0.265422 11:0.3732 12:-0.238883 13:-0.423908 14:-0.871088 15:-0.996906 16:-0.140937 17:-0.123638 18:-0.594031 
1 1:-0.802118 2:0.441911 3:0.673499 4:-0.622505 5:0.962162 6:-0.845259 7:-0.260577 8:-0.656712 9:-0.916875 10:0.294926 11:0.898267 12:0.14112 13:-0.237896 14:-0.910727 15:-0.996883 16:-0.0306828 17:-0.235691 18:-0.488622 
1 1:-1 2:0.267865 3:0.505594 4:-0.137058 5:0.875463 6:-0.350311 7:-0.496015 8:-0.551425 9:-0.800765 10:0.21645 11:0.947402 12:0.378995 13:-0.13122 14:-0.781533 15:-0.994786 16:-0.248541 17:-0.0401781 18:-0.808137 
1 1:-1 2:0.443007 3:0.612035 4:-0.102963 5:0.873719 6:-0.417545 7:-0.166303 8:-0.45735 9:-0.825158 10:0.338484 11:0.73922 12:0.270287 13:-0.110146 14:-0.828485 15:-0.995394 16:-0.202174 17:-0.0553202 18:-0.83153 
1 1:-1 2:0.470737 3:0.600169 4:-0.198908 5:0.788603 6:-0.231223 7:-0.176199 8:-0.499424 9:-0.810988 10:0.419577 11:0.500356 12:0.0441316 13:-0.352081 14:-0.867372 15:-0.99733 16:-0.117642 17:-0.240368 18:-0.683083 
1 1:-1 2:0.381302 3:0.526311 4:-0.156889 5:0.861486 6:-0.476538 7:-0.174669 8:-0.695578 9:-0.837138 10:0.283368 11:0.786765 12:0.219486 13:-0.205195 14:-0.796302 15:-0.996996 16:-0.168999 17:-0.0620229 18:-0.868885 
1 1:-1 2:0.409579 3:0.551703 4:-0.28709 5:0.857592 6:-0.488142 7:-0.0913905 8:-0.64392 9:-0.870226 10:0.24346 11:0.799944 12:0.203778 13:-0.13031 14:-0.846377 15:-0.997039 16:-0.0118869 17:-0.377546 18:-0.919559 
1 1:-1 2:0.392153 3:0.536609 4:-0.243874 5:0.86105 6:-0.465197 7:-0.30531 8:-0.679924 9:-0.786175 10:0.262076 11:0.84622 12:0.205679 13:-0.264853 14:-0.843477 15:-0.996873 16:-0.202597 17:-0.487404 18:-0.86092 
1 1:-1 2:0.38196 3:0.518385 4:-0.209336 5:0.859074 6:-0.474175 7:-0.376137 8:-0.683245 9:-0.793481 10:0.264144 11:0.862445 12:0.204034 13:-0.211299 14:-0.83944 15:-0.996677 16:-0.144123 17:-0.136093 18:-0.785122 
1 1:-0.969231 2:0.311377 3:0.683893 4:-0.179573 5:0.661433 6:0.122332 7:-0.45409 8:-0.00834197 9:-0.669176 10:0.380338 11:0.649589 12:0.209288 13:-0.441811 14:-0.795224 15:-0.995599 16:-0.361965 17:-0.19141 18:-0.746066 
1 1:-0.981498 2:0.313678 3:0.59614 4:-0.107629 5:0.869226 6:-0.466919 7:-0.507232 8:-0.745522 9:-0.854422 10:0.259886 11:0.457084 12:0.393793 13:-0.308924 14:-0.842922 15:-0.992179 16:-0.258001 17:-0.0383285 18:-0.925131 
1 1:-0.994799 2:0.328255 3:0.520675 4:-0.126986 5:0.86888 6:-0.478107 7:-0.446737 8:-0.729835 9:-0.794339 10:0.138764 11:0.7339 12:0.314697 13:-0.299494 14:-0.792412 15:-0.996898 16:-0.257425 17:0.078444 18:-0.929382 
1 1:-0.961824 2:0.461968 3:0.728812 4:-0.276429 5:0.803179 6:-0.340873 7:-0.283171 8:-0.453841 9:-0.857341 10:0.347427 11:0.80756 12:0.203481 13:-0.452119 14:-0.829687 15:-0.996676 16:-0.23456 17:-0.17376 18:-0.952727 
1 1:-0.953397 2:0.414402 3:0.748962 4:-0.368008 5:0.810223 6:-0.445995 7:-0.25003 8:-0.392912 9:-0.866423 10:0.315002 11:0.860074 12:0.313406 13:-0.422675 14:-0.829026 15:-0.996013 16:-0.219495 17:-0.300905 18:-0.766043 
1 1:-0.963289 2:0.4589 3:0.76212 4:-0.37817 5:0.809487 6:-0.452746 7:-0.285493 8:-0.447926 9:-0.876101 10:0.310865 11:0.841324 12:0.328323 13:-0.421849 14:-0.833981 15:-0.996025 16:-0.236279 17:-0.183361 18:-0.924958 
1 1:-0.974438 2:0.436103 3:0.713155 4:-0.404923 5:0.809983 6:-0.496146 7:-0.305604 8:-0.483651 9:-0.883105 10:0.270349 11:0.536311 12:0.0486293 13:-0.459129 14:-0.861193 15:-0.996894 16:-0.0765763 17:-0.0985438 18:-0.791561 
1 1:-0.949751 2:0.420978 3:0.737148 4:-0.375332 5:0.810231 6:-0.448591 7:-0.305273 8:-0.430668 9:-0.867164 10:0.324796 11:0.898069 12:0.197493 13:-0.416805 14:-0.844099 15:-0.996017 16:-0.247704 17:-0.237095 18:-0.758534 
1 1:-0.998045 2:0.452104 3:0.714794 4:-0.393406 5:0.812206 6:-0.518303 7:-0.296949 8:-0.471141 9:-0.878355 10:0.264144 11:0.76635 12:0.145746 13:-0.427302 14:-0.862461 15:-0.996958 16:-0.171762 17:-0.269537 18:-0.808688 
1 1:-1 2:0.354888 3:0.694906 4:-0.280861 5:0.812471 6:-0.432331 7:-0.304278 8:-0.527915 9:-0.845234 10:0.241392 11:0.81501 12:0.232409 13:-0.408087 14:-0.834524 15:-0.996481 16:-0.192569 17:-0.180563 18:-0.89582 
1 1:-0.983601 2:0.449912 3:0.678037 4:-0.408354 5:0.813696 6:-0.42748 7:-0.303454 8:-0.478326 9:-0.867153 10:0.280326 11:0.731067 12:0.111972 13:-0.474056 14:-0.867021 15:-0.997078 16:-0.10597 17:-0.279711 18:-0.748113 
1 1:-0.948631 2:0.569706 3:0.631874 4:-0.208064 5:0.895343 6:-0.639553 7:-0.210243 8:0.128504 9:-0.908417 10:0.626475 11:0.439091 12:-0.0168938 13:-0.561236 14:-0.854584 15:-0.997917 16:-0.0634285 17:-0.291127 18:-0.808483 
1 1:-0.920226 2:0.54121 3:0.679253 4:-0.253131 5:0.879075 6:-0.603818 7:-0.230078 8:-0.0714689 9:-0.92501 10:0.463073 11:0.201869 12:-0.0985808 13:-0.616761 14:-0.888816 15:-0.997236 16:-0.060653 17:-0.260118 18:-0.598013 
1 1:-0.979798 2:0.490794 3:0.674127 4:-0.363643 5:0.877259 6:-0.618691 7:-0.174964 8:0.00059136 9:-0.862598 10:0.320781 11:0.504007 12:-0.0570496 13:-0.38234 14:-0.883413 15:-0.996592 16:-0.0532819 17:-0.31312 18:-0.564577 
1 1:-0.997519 2:0.386673 3:0.602615 4:-0.324408 5:0.883715 6:-0.62703 7:-0.134219 8:0.0646218 9:-0.920863 10:0.207689 11:0.550914 12:0.0170972 13:-0.326793 14:-0.854294 15:-0.996375 16:-0.0955853 17:-0.29519 18:-0.827877 
1 1:-0.981575 2:0.498356 3:0.618425 4:-0.265924 5:0.882376 6:-0.694426 7:-0.204487 8:0.0325062 9:-0.905796 10:0.299124 11:0.647523 12:0.28098 13:-0.283097 14:-0.862252 15:-0.995866 16:-0.0938498 17:-0.241776 18:-0.718581 
1 1:-0.853487 2:0.552937 3:0.724632 4:-0.215418 5:0.898756 6:-0.623641 7:-0.226644 8:0.151845 9:-0.896105 10:0.563025 11:0.456379 12:-0.0476342 13:-0.546578 14:-0.854458 15:-0.997865 16:-0.0638608 17:-0.287572 18:-0.578068 
1 1:-0.979798 2:0.483889 3:0.634345 4:-0.370917 5:0.878566 6:-0.623768 7:-0.178036 8:0.011906 9:-0.894579 10:0.317253 11:0.508352 12:-0.0557538 13:-0.359038 14:-0.885271 15:-0.996669 16:-0.0540869 17:-0.353369 18:-0.563727 
1 1:-0.999853 2:0.390618 3:0.595292 4:-0.257658 5:0.882115 6:-0.628284 7:-0.181691 8:0.0602398 9:-0.923651 10:0.260372 11:0.74077 12:0.282312 13:-0.289677 14:-0.820698 15:-0.996002 16:-0.104889 17:-0.273988 18:-0.752867 
1 1:-0.818339 2:0.543731 3:0.725837 4:-0.303006 5:0.886148 6:-0.627598 7:-0.183564 8:0.19468 9:-0.921716 10:0.566492 11:0.531494 12:0.0104989 13:-0.504523 14:-0.853547 15:-0.99738 16:-0.0765293 17:-0.296512 18:-0.79833 
1 1:-0.979798 2:0.501973 3:0.631483 4:-0.352978 5:0.879512 6:-0.669932 7:-0.171672 8:-0.000589387 9:-0.861641 10:0.310135 11:0.465001 12:-0.0573194 13:-0.483667 14:-0.882681 15:-0.99622 16:-0.0552022 17:-0.384259 18:-0.563129 
1 1:-0.993403 2:0.353463 3:0.590718 4:-0.285662 5:0.882334 6:-0.624839 7:-0.214321 8:0.0369847 9:-0.91276 10:0.267247 11:0.635328 12:0.0385549 13:-0.337118 14:-0.841405 15:-0.99584 16:-0.113911 17:-0.251098 18:-0.60727 
1 1:-0.923993 2:0.441583 3:0.661986 4:-0.313384 5:0.646974 6:0.0962465 7:-0.51292 8:-0.447882 9:-0.722208 10:0.314089 11:0.734028 12:0.108664 13:-0.323918 14:-0.853717 15:-0.997106 16:-0.139862 17:-0.507982 18:-0.271084 
1 1:-0.950514 2:0.405085 3:0.693048 4:-0.453607 5:0.649503 6:0.00823529 7:-0.554956 8:-0.411911 9:-0.719453 10:0.273878 11:0.652649 12:0.176969 13:-0.457368 14:-0.845318 15:-0.997123 16:-0.101835 17:-0.485482 18:-0.325378 
1 1:-0.959584 2:0.250548 3:0.702057 4:-0.304365 5:0.858846 6:-0.620202 7:-0.434175 8:-0.0385535 9:-0.851896 10:0.399562 11:0.820849 12:0.0334956 13:-0.424255 14:-0.788989 15:-0.998121 16:-0.218567 17:-0.335665 18:-0.574227 
1 1:-0.993899 2:0.455831 3:0.577642 4:-0.122206 5:0.859525 6:-0.605163 7:-0.549851 8:0.0495211 9:-0.838565 10:0.392323 11:0.422572 12:0.380844 13:-0.600222 14:-0.805829 15:-0.998058 16:-0.305192 17:-0.325365 18:-0.704035 
1 1:-0.943485 2:0.466681 3:0.638145 4:-0.205176 5:0.858984 6:-0.568737 7:-0.221963 8:0.0463077 9:-0.858558 10:0.464533 11:0.374227 12:0.105842 13:-0.590952 14:-0.784296 15:-0.998534 16:-0.209981 17:-0.304239 18:-0.976135 
1 1:-0.949059 2:0.496164 3:0.690672 4:-0.153592 5:0.858914 6:-0.619606 7:-0.458279 8:-0.0926189 9:-0.852308 10:0.437705 11:0.581331 12:0.214825 13:-0.534911 14:-0.823336 15:-0.998192 16:-0.259091 17:-0.310209 18:-0.144944 
1 1:-0.973546 2:0.454187 3:0.715697 4:-0.338153 5:0.858354 6:-0.61957 7:-0.411919 8:-0.0638406 9:-0.850042 10:0.444884 11:0.829855 12:0.154746 13:-0.542619 14:-0.805299 15:-0.997998 16:-0.220428 17:-0.369201 18:-0.224362 
1 1:-0.94092 2:0.27751 3:0.703297 4:-0.116506 5:0.859559 6:-0.562692 7:-0.541417 8:0.0110051 9:-0.846211 10:0.469948 11:0.602826 12:0.213799 13:-0.328498 14:-0.861664 15:-0.998011 16:-0.305154 17:-0.311755 18:-0.969067 
1 1:-0.85276 2:0.464818 3:0.578432 4:-0.193714 5:0.858406 6:-0.575044 7:-0.334869 8:0.0565679 9:-0.85554 10:0.519589 11:0.235672 12:0.107306 13:-0.606831 14:-0.778139 15:-0.998394 16:-0.242432 17:-0.303999 18:-0.977568 
1 1:-0.92807 2:0.280798 3:0.666306 4:-0.114203 5:0.859529 6:-0.576115 7:-0.559864 8:0.0374662 9:-0.828168 10:0.301557 11:0.214971 12:-0.0611536 13:-0.648206 14:-0.862726 15:-0.997825 16:-0.305085 17:-0.320126 18:-0.684012 
1 1:-1 2:0.368369 3:0.559172 4:-0.178437 5:0.853745 6:-0.560476 7:-0.500118 8:-0.0142058 9:-0.848154 10:0.181348 11:0.887496 12:0.319991 13:-0.220916 14:-0.819754 15:-0.997664 16:-0.279538 17:-0.283197 18:-0.824398 
1 1:-1 2:0.263591 3:0.506413 4:-0.181612 5:0.818408 6:-0.317569 7:-0.202109 8:-0.799412 9:-0.841357 10:0.267855 11:0.864199 12:0.352 13:-0.0670699 14:-0.815901 15:-0.996304 16:-0.143117 17:-0.297341 18:-0.924171 
1 1:-0.976009 2:0.514796 3:0.728697 4:-0.231023 5:0.791788 6:-0.349547 7:-0.353242 8:-0.185563 9:-0.816391 10:0.48035 11:0.577206 12:0.117938 13:-0.48035 14:-0.858996 15:-0.995747 16:-0.0963622 17:-0.423935 18:-0.81966 
1 1:-0.96878 2:0.488053 3:0.727657 4:-0.193114 5:0.793003 6:-0.359948 7:-0.221662 8:-0.183857 9:-0.784839 10:0.478465 11:0.577201 12:0.149841 13:-0.504876 14:-0.848827 15:-0.996447 16:-0.101255 17:-0.465177 18:-0.790475 
1 1:-0.919343 2:0.524879 3:0.736722 4:-0.30962 5:0.795368 6:-0.528704 7:-0.392864 8:-0.183054 9:-0.845962 10:0.44531 11:0.581441 12:0.0787063 13:-0.501325 14:-0.861319 15:-0.997729 16:-0.0834368 17:-0.171181 18:-0.766468 
1 1:-0.9389 2:0.493095 3:0.739435 4:-0.319059 5:0.795198 6:-0.548429 7:-0.66549 8:-0.194329 9:-0.840617 10:0.425356 11:0.600207 12:0.0736471 13:-0.504036 14:-0.864123 15:-0.998264 16:-0.0903538 17:-0.24311 18:-0.799825 
1 1:-0.985154 2:0.401469 3:0.720898 4:-0.265295 5:0.794849 6:-0.334827 7:-0.596715 8:-0.182298 9:-0.832011 10:0.248875 11:0.72448 12:0.169477 13:-0.411875 14:-0.858933 15:-0.996615 16:-0.0748001 17:-0.344942 18:-0.697251 
1 1:-0.943185 2:0.537593 3:0.668148 4:-0.292839 5:0.794904 6:-0.410545 7:-0.520384 8:-0.180999 9:-0.824023 10:0.452853 11:0.60341 12:0.0766941 13:-0.494906 14:-0.863832 15:-0.997801 16:-0.0599388 17:-0.155197 18:-0.419594 
1 1:-0.958923 2:0.451666 3:0.731193 4:-0.232118 5:0.795678 6:-0.340357 7:-0.568083 8:-0.232307 9:-0.807382 10:0.369875 11:0.702782 12:0.134849 13:-0.506337 14:-0.853238 15:-0.997458 16:-0.119679 17:-0.419837 18:-0.773457 
1 1:-0.98819 2:0.442021 3:0.696138 4:-0.202745 5:0.794623 6:-0.373645 7:-0.401138 8:-0.224964 9:-0.818464 10:0.317131 11:0.604439 12:0.148413 13:-0.45514 14:-0.85799 15:-0.996932 16:-0.0744304 17:-0.419716 18:-0.751151 
1 1:-0.943642 2:0.448597 3:0.732973 4:-0.208128 5:0.795902 6:-0.405407 7:-0.50448 8:-0.219673 9:-0.828088 10:0.349495 11:0.784152 12:0.356118 13:-0.471147 14:-0.857558 15:-0.997964 16:-0.163573 17:-0.427688 18:-0.809995 
1 1:-0.954932 2:0.528825 3:0.714067 4:-0.216452 5:0.79433 6:-0.286274 7:-0.32512 8:-0.18785 9:-0.778965 10:0.470921 11:0.577231 12:0.162317 13:-0.491555 14:-0.852496 15:-0.996694 16:-0.0709281 17:-0.246557 18:-0.79844 
1 1:-0.998878 2:0.534963 3:0.718872 4:-0.301926 5:0.794904 6:-0.410545 7:-0.274847 8:-0.1922 9:-0.831928 10:0.451515 11:0.593193 12:0.0605876 13:-0.508416 14:-0.86325 15:-0.997432 16:-0.0646158 17:-0.234445 18:-0.418886 
1 1:-0.949627 2:0.528935 3:0.73078 4:-0.24084 5:0.797257 6:-0.340058 7:-0.470633 8:-0.243886 9:-0.810339 10:0.305816 11:0.846893 12:0.186844 13:-0.478728 14:-0.834904 15:-0.996882 16:-0.238475 17:-0.450723 18:-0.772812 
1 1:-0.901008 2:0.515563 3:0.734296 4:-0.316466 5:0.795339 6:-0.414372 7:-0.336988 8:-0.199137 9:-0.84033 10:0.413736 11:0.591986 12:0.057682 13:-0.506375 14:-0.864504 15:-0.997871 16:-0.0997016 17:-0.231197 18:-0.77711 
1 1:-1 2:0.378343 3:0.590673 4:-0.253405 5:0.737911 6:-0.291579 7:-0.441921 8:-0.428977 9:-0.80836 10:0.296569 11:0.86579 12:0.291815 13:-0.345536 14:-0.815474 15:-0.997678 16:-0.193804 17:-0.292874 18:-0.912805 
1 1:-0.912518 2:0.566747 3:0.707114 4:-0.436819 5:0.732142 6:0.083245 7:-0.275922 8:-0.747954 9:-0.780555 10:0.287322 11:0.840461 12:0.00650985 13:-0.325057 14:-0.881069 15:-0.997027 16:0.124415 17:-0.330052 18:-0.635259 
1 1:-0.985744 2:0.487067 3:0.70758 4:-0.310986 5:0.74576 6:0.0434781 7:-0.259656 8:-0.589777 9:-0.737524 10:0.328325 11:0.872417 12:0.0349993 13:-0.34245 14:-0.829103 15:-0.995982 16:0.0013862 17:-0.331571 18:-0.65788 
