svm_type c_svc
kernel_type rbf
gamma 0.0019531
nr_class 2
total_sv 4560
rho 87.3568
label 1 0
probA -1.73602
probB -0.0504365
nr_sv 2279 2281
SV
100 1:-1 2:0.667509 3:0.623565 4:-0.172583 5:0.842262 6:-0.60488 7:-0.491666 8:-0.534418 9:-0.809892 10:0.630856 11:-0.818978 12:-0.821581 13:-0.928038 14:-0.95328 15:-0.99988 16:-0.185046 17:-0.472645 18:-0.852426 19:-0.0972062 20:-0.740088 
100 1:-0.74 2:0.735771 3:0.718013 4:-0.566986 5:0.64998 6:0.0308149 7:-0.322221 8:-0.817647 9:-0.811734 10:0.541943 11:-0.359731 12:-0.64154 13:-0.785496 14:-0.935739 15:-0.999554 16:0.335469 17:-0.454114 18:-0.220919 19:-0.456416 20:-0.906453 
100 1:-1 2:0.673149 3:0.624481 4:-0.171454 5:0.587654 6:0.164711 7:-0.171603 8:-0.270588 9:-0.74726 10:0.60124 11:0.739068 12:0.245349 13:-0.3217 14:-0.735716 15:-0.997975 16:0.00519577 17:0.0918981 18:-0.697053 19:0.362386 20:-0.914913 
100 1:-1 2:0.626151 3:0.641639 4:-0.548721 5:0.756481 6:-0.098076 7:-0.465412 8:-0.131653 9:-0.866538 10:0.403434 11:0.852863 12:0.108886 13:-0.369596 14:-0.795873 15:-0.999163 16:0.199465 17:-0.433048 18:-0.929163 19:-0.12226 20:-0.816349 
100 1:-0.9 2:0.649877 3:0.669583 4:-0.473435 5:0.450239 6:-0.0943219 7:-0.548149 8:-0.336898 9:-0.785945 10:0.470215 11:0.884899 12:0.16961 13:-0.381513 14:-0.78071 15:-0.999163 16:0.11952 17:-0.223097 18:-0.989893 19:-0.31939 20:-0.916667 
100 1:-0.94 2:0.671529 3:0.682758 4:-0.262293 5:0.61314 6:-0.19099 7:-0.140376 8:-0.392157 9:-0.779497 10:0.633908 11:-0.290429 12:-0.435199 13:-0.757014 14:-0.866291 15:-0.999278 16:-0.167362 17:-0.275528 18:-0.278674 19:-0.377353 20:-0.926257 
100 1:-1 2:0.688059 3:0.625876 4:-0.331716 5:0.702924 6:-0.398405 7:-0.465412 8:-0.207161 9:-0.891683 10:0.574772 11:0.660365 12:0.101842 13:-0.381415 14:-0.783794 15:-0.999021 16:0.0772456 17:-0.381342 18:-0.963793 19:0.237271 20:-0.914866 
100 1:-0.98 2:0.622196 3:0.662475 4:-0.311238 5:0.673435 6:-0.25481 7:-0.233817 8:-0.294118 9:-0.769826 10:0.505453 11:0.877551 12:0.298386 13:-0.347157 14:-0.734855 15:-0.998509 16:-0.0247663 17:-0.249491 18:-0.821939 19:-0.0643812 20:-0.826937 
100 1:-0.98 2:0.630624 3:0.620017 4:-0.168346 5:0.678035 6:-0.347724 7:-0.184269 8:-0.555237 9:-0.673114 10:0.572684 11:0.359269 12:0.0311591 13:-0.55125 14:-0.764519 15:-0.99876 16:-0.267904 17:-0.107431 18:-0.883657 19:0.108328 20:-0.874486 
100 1:-1 2:0.530598 3:0.564062 4:-0.0642705 5:0.661625 6:-0.171281 7:-0.0962934 8:-0.719457 9:-0.818182 10:0.431958 11:0.685029 12:0.261391 13:-0.198683 14:-0.715526 15:-0.998748 16:-0.132164 17:-0.0483876 18:-0.975362 19:0.476875 20:-0.837119 
100 1:-0.74 2:0.694477 3:0.740544 4:-0.417087 5:0.686489 6:-0.0999531 7:-0.883395 8:-0.226381 9:-0.750484 10:0.645729 11:-0.62305 12:-0.692787 13:-0.896888 14:-0.9293 15:-0.999818 16:-0.0719245 17:-0.192036 18:-0.714958 19:-0.0212149 20:-0.999977 
100 1:-1 2:0.64696 3:0.655763 4:-0.441714 5:0.791705 6:-0.486 7:-0.372166 8:-0.647059 9:-0.869761 10:0.517563 11:0.472087 12:-0.0121045 13:-0.524714 14:-0.804587 15:-0.998996 16:0.017667 17:-0.325989 18:-0.607798 19:-0.0702293 20:-0.866443 
100 1:-0.299999 2:0.800402 3:0.77463 4:-0.698415 5:0.813006 6:-0.452839 7:-0.419046 8:-0.131653 9:-0.934236 10:0.587331 11:-0.0529232 12:-0.536946 13:-0.738125 14:-0.91825 15:-0.999522 16:0.413846 17:-0.585 18:-0.628114 19:-0.394981 20:-0.871463 
100 1:-0.92 2:0.690522 3:0.680967 4:-0.421177 5:0.77861 6:-0.564837 7:-0.548149 8:-0.609244 9:-0.889104 10:0.598574 11:-0.344271 12:-0.533233 13:-0.795968 14:-0.904308 15:-0.99954 16:-0.11535 17:-0.313985 18:-0.47178 19:-0.460523 20:-0.872345 
100 1:-0.94 2:0.716712 3:0.718369 4:-0.270604 5:0.560677 6:-0.636321 7:-0.342761 8:-0.762148 9:-0.847195 10:0.665612 11:-0.0402106 12:-0.293618 13:-0.721207 14:-0.84766 15:-0.999246 16:-0.107177 17:-0.31977 18:-0.69209 19:0.0346283 20:-0.848727 
100 1:-1 2:0.520161 3:0.428732 4:-0.0889848 5:0.692382 6:-0.363867 7:-0.239874 8:-0.131653 9:-0.744681 10:0.487143 11:0.455142 12:0.201771 13:-0.337725 14:-0.673006 15:-0.998634 16:-0.45738 17:0.136857 18:-0.876333 19:0.288913 20:-0.757534 
100 1:-1 2:0.696162 3:0.572864 4:-0.250156 5:0.833746 6:-0.628813 7:-0.0634347 8:-0.696078 9:-0.895551 10:0.59443 11:0.279653 12:-0.134864 13:-0.504118 14:-0.828102 15:-0.99875 16:0.0142596 17:-0.127067 18:-0.494623 19:-0.323897 20:-0.680283 
100 1:-0.86 2:0.708933 3:0.694482 4:-0.242475 5:0.724904 6:-0.0117316 7:-0.108672 8:-0.270588 9:-0.74726 10:0.643512 11:0.469208 12:0.0415215 13:-0.549825 14:-0.78243 15:-0.999158 16:-0.0047419 17:-0.30718 18:-0.620752 19:-0.22466 20:-0.855893 
100 1:-0.98 2:0.703747 3:0.604768 4:-0.175104 5:0.778196 6:-0.569842 7:-0.277038 8:-0.583193 9:-0.843972 10:0.618264 11:0.482245 12:0.0187044 13:-0.480795 14:-0.79402 15:-0.999091 16:-0.121041 17:-0.287308 18:-0.662116 19:0.0407746 20:-0.755554 
100 1:-0.96 2:0.678141 3:0.653865 4:-0.275706 5:0.770902 6:-0.478492 7:-0.507071 8:-0.3454 9:-0.818182 10:0.622312 11:0.497277 12:0.102574 13:-0.539726 14:-0.75822 15:-0.998976 16:-0.22793 17:-0.206651 18:-0.61389 19:0.0407926 20:-0.905379 
100 1:-0.96 2:0.634189 3:0.691114 4:-0.242152 5:0.779505 6:-0.381136 7:-0.331504 8:-0.579186 9:-0.868472 10:0.564268 11:0.866808 12:0.372216 13:-0.419855 14:-0.697917 15:-0.998445 16:-0.175112 17:-0.319199 18:-0.801712 19:-0.0458022 20:-0.930476 
100 1:-1 2:0.671658 3:0.579644 4:-0.118126 5:0.491555 6:-0.296105 7:-0.0343986 8:-0.719457 9:-0.818182 10:0.616305 11:0.548137 12:0.144786 13:-0.349204 14:-0.747211 15:-0.998047 16:-0.0685781 17:0.0991999 18:-0.572142 19:-0.416624 20:-0.837626 
100 1:-0.92 2:0.710359 3:0.694063 4:-0.251783 5:0.807618 6:-0.565462 7:-0.331504 8:-0.438914 9:-0.901999 10:0.670238 11:0.00540952 12:-0.242538 13:-0.678919 14:-0.831164 15:-0.999316 16:-0.101301 17:-0.272981 18:-0.680623 19:0.192317 20:-0.899544 
100 1:-1 2:0.604758 3:0.565892 4:-0.289866 5:0.698672 6:-0.256687 7:-0.368283 8:-0.594771 9:-0.72147 10:0.508729 11:0.665607 12:0.203028 13:-0.392294 14:-0.742169 15:-0.998429 16:-0.149997 17:0.136124 18:-0.907833 19:-0.12276 20:-0.833143 
100 1:-1 2:0.630299 3:0.525671 4:-0.00749786 5:0.523008 6:0.0958861 7:-0.046642 8:-0.892734 9:-0.631206 10:0.592824 11:0.431157 12:0.119594 13:-0.422288 14:-0.729702 15:-0.998201 16:-0.190421 17:-0.030089 18:-0.767647 19:0.0365777 20:-0.856146 
100 1:-1 2:0.67289 3:0.62174 4:-0.382772 5:0.791042 6:-0.280526 7:-0.174878 8:-0.411765 9:-0.829787 10:0.579911 11:0.358954 12:-0.0517717 13:-0.502988 14:-0.805626 15:-0.998224 16:-0.12562 17:0.252007 18:-0.931189 19:-0.391657 20:-0.796361 
100 1:-1 2:0.636847 3:0.618091 4:-0.410564 5:0.8353 6:-0.565462 7:-0.558658 8:-0.729848 9:-0.895551 10:0.471404 11:0.754835 12:0.123563 13:-0.397192 14:-0.785279 15:-0.998956 16:-0.00841011 17:-0.473811 18:-0.733517 19:-0.0714842 20:-0.911491 
100 1:-0.98 2:0.649034 3:0.67582 4:-0.396991 5:0.753498 6:-0.300798 7:-0.385108 8:-0.544118 9:-0.760155 10:0.52903 11:0.60076 12:0.0853014 13:-0.499502 14:-0.783118 15:-0.999104 16:-0.10355 17:-0.347103 18:-0.644288 19:0.00317423 20:-0.960111 
100 1:-1 2:0.640347 3:0.593384 4:-0.206224 5:0.568882 6:-0.271703 7:-0.313643 8:-0.609244 9:-0.798839 10:0.569343 11:0.872034 12:0.368324 13:-0.298243 14:-0.701149 15:-0.998711 16:-0.172223 17:-0.246186 18:-0.845718 19:-0.17321 20:-0.957682 
100 1:-0.86 2:0.705692 3:0.751878 4:-0.657679 5:0.830659 6:-0.493509 7:-0.525555 8:-0.848039 9:-0.914894 10:0.547243 11:0.249147 12:-0.236374 13:-0.660067 14:-0.858229 15:-0.999232 16:0.0772084 17:-0.235097 18:-0.57617 19:-0.141321 20:-0.857224 
100 1:-1 2:0.629586 3:0.579695 4:-0.329972 5:0.441453 6:-0.265134 7:-0.277038 8:-0.635294 9:-0.779497 10:0.508055 11:0.532213 12:0.0520725 13:-0.405824 14:-0.787352 15:-0.99899 16:-0.135236 17:-0.383488 18:-0.866137 19:0.11752 20:-0.884179 
100 1:-1 2:0.629327 3:0.566203 4:-0.255213 5:0.757526 6:-0.435946 7:-0.183748 8:-0.764706 9:-0.829787 10:0.507573 11:0.818512 12:0.243256 13:-0.215532 14:-0.74915 15:-0.998608 16:0.0141647 17:-0.521434 18:-0.760259 19:-0.0561494 20:-0.836884 
100 1:-1 2:0.670621 3:0.654357 4:-0.248206 5:0.572901 6:0.148444 7:-0.344566 8:-0.226381 9:-0.644101 10:0.626841 11:0.610806 12:0.213256 13:-0.498697 14:-0.724175 15:-0.998567 16:-0.209643 17:-0.0994003 18:-0.781896 19:-0.0639049 20:-0.965707 
100 1:-1 2:0.529172 3:0.536005 4:-0.19718 5:0.763692 6:-0.281089 7:0.0109258 8:-0.826331 9:-0.866538 10:0.417664 11:0.254606 12:-0.0655957 13:-0.331326 14:-0.793098 15:-0.996537 16:-0.151683 17:0.377928 18:-0.969308 19:0.527324 20:-0.837928 
100 1:-0.94 2:0.663361 3:0.6746 4:-0.450172 5:0.745889 6:-0.355608 7:-0.397531 8:-0.622718 9:-0.845261 10:0.533045 11:0.775146 12:0.169462 13:-0.438437 14:-0.771731 15:-0.998438 16:-0.254722 17:-0.100528 18:-0.949928 19:-0.0332073 20:-0.880721 
100 1:-1 2:0.689615 3:0.645532 4:-0.396653 5:0.794772 6:-0.501642 7:-0.26365 8:-0.270588 9:-0.908446 10:0.542072 11:0.589362 12:-0.000341223 13:-0.378193 14:-0.811243 15:-0.99845 16:-0.0366312 17:-0.323477 18:-0.645506 19:-0.558254 20:-0.830008 
100 1:-1 2:0.677039 3:0.518016 4:-0.272803 5:0.78408 6:-0.511653 7:-0.503308 8:-0.739496 9:-0.798839 10:0.550327 11:0.365844 12:-0.0999111 13:-0.509718 14:-0.82473 15:-0.999175 16:-0.0664612 17:-0.277796 18:-0.621547 19:-0.0364136 20:-0.820252 
100 1:-1 2:0.535849 3:0.540666 4:-0.198865 5:0.855275 6:-0.511028 7:-0.612696 8:-0.310016 9:-0.831077 10:0.476093 11:0.880253 12:0.472756 13:-0.330688 14:-0.638471 15:-0.999094 16:-0.310195 17:-0.32185 18:-0.998871 19:-0.138263 20:-0.882516 
100 1:-0.98 2:0.676974 3:0.635136 4:-0.275295 5:0.553673 6:-0.0330049 7:-0.477373 8:-0.609244 9:-0.708575 10:0.586914 11:0.607151 12:0.116923 13:-0.489189 14:-0.77129 15:-0.998886 16:-0.0821704 17:-0.266571 18:-0.0883509 19:-0.392824 20:-0.957723 
100 1:-0.92 2:0.706275 3:0.710883 4:-0.355214 5:0.773389 6:-0.238855 7:-0.721937 8:-0.438914 9:-0.818182 10:0.621958 11:0.556244 12:0.068119 13:-0.539445 14:-0.784146 15:-0.999343 16:-0.0526487 17:-0.493264 18:-0.802584 19:-0.021391 20:-0.940503 
100 1:-1 2:0.669454 3:0.625317 4:-0.371338 5:0.74201 6:-0.355608 7:-0.263 8:-0.316176 9:-0.82205 10:0.514672 11:0.106057 12:-0.293501 13:-0.585931 14:-0.865675 15:-0.999348 16:0.120922 17:-0.246483 18:-0.938692 19:-0.263699 20:-0.664196 
100 1:-0.98 2:0.644043 3:0.635678 4:-0.153937 5:0.720926 6:-0.28672 7:-0.00408294 8:-0.583193 9:-0.731141 10:0.579847 11:0.771142 12:0.307568 13:-0.349869 14:-0.710755 15:-0.998869 16:-0.12566 17:-0.27555 18:-0.886722 19:0.0041269 20:-0.698487 
100 1:-1 2:0.644302 3:0.627159 4:-0.211325 5:0.681889 6:-0.220084 7:-0.322221 8:-0.583193 9:-0.731141 10:0.594719 11:0.801896 12:0.360269 13:-0.406276 14:-0.688354 15:-0.998536 16:-0.162966 17:-0.193232 18:-0.903986 19:0.0608627 20:-0.835036 
100 1:-1 2:0.650655 3:0.554118 4:-0.275486 5:0.670103 6:-0.292539 7:-0.435183 8:-0.0346021 9:-0.806576 10:0.58322 11:0.755153 12:0.284531 13:-0.341341 14:-0.719424 15:-0.999079 16:-0.0711794 17:-0.559967 18:-0.927816 19:0.0908958 20:-0.839066 
100 1:-0.9 2:0.697264 3:0.714866 4:-0.431042 5:0.675341 6:-0.0330049 7:-0.236306 8:-0.682864 9:-0.77305 10:0.588937 11:0.694548 12:0.124026 13:-0.477077 14:-0.779476 15:-0.998434 16:-0.0596261 17:-0.203267 18:-0.757194 19:0.0894808 20:-0.807158 
100 1:-0.9 2:0.704201 3:0.695787 4:-0.370327 5:0.847732 6:-0.509776 7:-0.447735 8:-0.392157 9:-0.837524 10:0.618875 11:0.163399 12:-0.194219 13:-0.668107 14:-0.836566 15:-0.999402 16:-0.00605948 17:-0.461809 18:-0.226216 19:-0.250146 20:-0.90293 
100 1:-0.92 2:0.687216 3:0.699476 4:-0.427041 5:0.676999 6:-0.459096 7:-0.353312 8:-0.493464 9:-0.837524 10:0.587235 11:0.216744 12:-0.167357 13:-0.639063 14:-0.832886 15:-0.999233 16:0.0432699 17:-0.410251 18:-0.824222 19:-0.577597 20:-0.867954 
100 1:-1 2:0.713665 3:0.584881 4:-0.224327 5:0.707872 6:-0.17222 7:-0.312673 8:-0.524297 9:-0.847195 10:0.614057 11:0.785829 12:0.183264 13:-0.350199 14:-0.767946 15:-0.998828 16:0.143317 17:-0.397677 18:-0.467073 19:-0.122752 20:-0.97893 
100 1:-1 2:0.601906 3:0.569711 4:-0.270604 5:0.687508 6:-0.362365 7:-0.0511099 8:-0.609244 9:-0.852998 10:0.50571 11:0.673226 12:0.210283 13:-0.303109 14:-0.7401 15:-0.998834 16:-0.139639 17:-0.32741 18:-0.825774 19:-0.200593 20:-0.89428 
100 1:-1 2:0.568067 3:0.578406 4:-0.233709 5:0.632658 6:-0.295167 7:-0.346719 8:-0.513726 9:-0.779497 10:0.484124 11:0.816025 12:0.357405 13:-0.32956 14:-0.693835 15:-0.998642 16:-0.170841 17:-0.0571923 18:-0.81509 19:-0.169017 20:-0.850306 
100 1:-1 2:0.601063 3:0.552694 4:-0.280118 5:0.811644 6:-0.523363 7:-0.306459 8:-0.496957 9:-0.909367 10:0.475033 11:0.834174 12:0.26993 13:-0.286008 14:-0.740427 15:-0.998995 16:-0.176849 17:-0.204497 18:-0.835124 19:0.0930974 20:-0.750134 
100 1:-0.98 2:0.718462 3:0.687289 4:-0.524505 5:0.757526 6:-0.435946 7:-0.412046 8:-1 9:-0.883946 10:0.541333 11:0.493838 12:-0.126832 13:-0.530616 14:-0.840899 15:-0.999007 16:0.115327 17:-0.467916 18:-0.184134 19:-0.301308 20:-0.94088 
100 1:-1 2:0.568132 3:0.562186 4:-0.146153 5:0.763567 6:-0.262318 7:-0.421627 8:-0.496957 9:-0.789168 10:0.536418 11:0.982371 12:0.59055 13:-0.244861 14:-0.587461 15:-0.99869 16:-0.397009 17:-0.30194 18:-0.967345 19:0.0591055 20:-0.89595 
100 1:-0.98 2:0.613704 3:0.606503 4:-0.221308 5:0.519858 6:0.1547 7:-0.292752 8:-0.438914 9:-0.734365 10:0.576892 11:0.595664 12:0.254508 13:-0.367756 14:-0.692357 15:-0.996965 16:-0.340984 17:0.0873815 18:-0.707865 19:-0.347174 20:-0.884546 
100 1:-1 2:0.642552 3:0.603412 4:-0.288063 5:0.761454 6:-0.301736 7:-0.322221 8:-0.594771 9:-0.808511 10:0.536579 11:0.924791 12:0.332455 13:-0.321562 14:-0.727499 15:-0.998716 16:-0.0106693 17:-0.173825 18:-0.838099 19:-0.0900752 20:-0.875318 
100 1:-1 2:0.538895 3:0.640068 4:-0.0818754 5:0.624453 6:-0.130612 7:-0.519547 8:-0.430147 9:-0.656995 10:0.534716 11:0.914335 12:0.617291 13:-0.384661 14:-0.518778 15:-0.998144 16:-0.416854 17:-0.392433 18:-0.879065 19:0.359094 20:-0.916521 
100 1:-0.92 2:0.66349 3:0.691934 4:-0.676529 5:0.527483 6:0.0958861 7:-0.681043 8:-0.594771 9:-0.72147 10:0.522349 11:0.514373 12:-0.0150542 13:-0.565308 14:-0.809893 15:-0.99888 16:-0.0902926 17:-0.52276 18:-0.83556 19:-0.260759 20:-0.976234 
100 1:-1 2:0.559834 3:0.547417 4:-0.344088 5:0.807453 6:-0.282027 7:-0.538536 8:-0.570934 9:-0.806576 10:0.473395 11:0.901551 12:0.420621 13:-0.346772 14:-0.679363 15:-0.997927 16:-0.222724 17:-0.324719 18:-0.984737 19:0.0443992 20:-0.898936 
100 1:-0.96 2:0.70835 3:0.651278 4:-0.363232 5:0.703272 6:-0.228531 7:-0.298299 8:-0.478992 9:-0.798839 10:0.61714 11:0.605492 12:0.0865765 13:-0.436706 14:-0.783207 15:-0.998918 16:-0.0409294 17:-0.115697 18:-0.511014 19:-0.120899 20:-0.785389 
100 1:-1 2:0.535071 3:0.521592 4:-0.193339 5:0.603319 6:-0.158142 7:-0.705313 8:-0.29085 9:-0.72147 10:0.503461 11:0.964643 12:0.597141 13:-0.347027 14:-0.572618 15:-0.997755 16:-0.439849 17:0.302705 18:-0.95443 19:0.34996 20:-0.999047 
100 1:-1 2:0.669908 3:0.599169 4:-0.188942 5:0.72381 6:-0.455467 7:-0.036047 8:-0.886029 9:-0.82205 10:0.612707 11:0.744589 12:0.282605 13:-0.304543 14:-0.718099 15:-0.997778 16:-0.172043 17:-0.0347959 18:-0.836534 19:-0.12871 20:-0.836946 
100 1:-1 2:0.571114 3:0.567485 4:-0.154816 5:0.770032 6:-0.0764899 7:-0.165812 8:-0.270588 9:-0.731141 10:0.536322 11:0.780589 12:0.425708 13:-0.327378 14:-0.634299 15:-0.998837 16:-0.220516 17:-0.235282 18:-0.862494 19:0.081213 20:-0.787237 
100 1:-1 2:0.674186 3:0.651193 4:-0.144145 5:0.715207 6:-0.0886908 7:-0.15654 8:-0.447415 9:-0.750484 10:0.639015 11:0.604939 12:0.224157 13:-0.460786 14:-0.715934 15:-0.998217 16:-0.170756 17:-0.22395 18:-0.859595 19:-0.149849 20:-0.911264 
100 1:-0.92 2:0.70647 3:0.680583 4:-0.253498 5:0.736739 6:-0.426936 7:-0.552292 8:-0.80805 9:-0.775629 10:0.651382 11:0.699048 12:0.222949 13:-0.51219 14:-0.738931 15:-0.998882 16:-0.149837 17:-0.469724 18:-0.573938 19:0.170844 20:-0.86849 
100 1:-1 2:0.612278 3:0.631334 4:-0.135628 5:0.751591 6:0.0295636 7:-0.471002 8:-0.529412 9:-0.66989 10:0.577245 11:0.920601 12:0.505015 13:-0.349753 14:-0.629851 15:-0.998838 16:-0.293195 17:-0.107926 18:-0.826646 19:-0.0285701 20:-0.944508 
100 1:-0.88 2:0.736873 3:0.703352 4:-0.501653 5:0.554005 6:0.213515 7:-0.612696 8:-0.834225 9:-0.785945 10:0.629989 11:0.528376 12:-0.0178424 13:-0.543683 14:-0.81202 15:-0.999225 16:0.0967382 17:-0.473577 18:-0.683496 19:-0.439338 20:-0.927595 
100 1:-0.96 2:0.644431 3:0.699787 4:-0.517997 5:0.743005 6:-0.397654 7:-0.657543 8:-0.544118 9:-0.82205 10:0.537831 11:0.380607 12:-0.0377995 13:-0.606459 14:-0.802942 15:-0.998382 16:-0.114588 17:0.246918 18:-0.960766 19:-0.164489 20:-0.816259 
100 1:-0.98 2:0.727927 3:0.647407 4:-0.120765 5:0.805961 6:-0.331581 7:-0.404151 8:-0.889483 9:-0.814313 10:0.705122 11:0.593192 12:0.20046 13:-0.511945 14:-0.727027 15:-0.998027 16:-0.234626 17:0.0371103 18:-0.939693 19:-0.0733735 20:-0.95827 
100 1:-1 2:0.579347 3:0.583147 4:-0.400538 5:0.817995 6:-0.498264 7:-0.796666 8:-0.609244 9:-0.852998 10:0.473909 11:0.636574 12:0.184579 13:-0.46963 14:-0.745535 15:-0.999274 16:-0.158038 17:-0.498226 18:-0.759541 19:0.304097 20:-0.995927 
100 1:-1 2:0.705368 3:0.590876 4:-0.259669 5:0.726893 6:-0.177851 7:-0.49794 8:-0.704293 9:-0.711799 10:0.63863 11:0.825963 12:0.286744 13:-0.411648 14:-0.73186 15:-0.998774 16:-0.0968737 17:-0.402965 18:-0.658768 19:-0.140056 20:-0.958173 
100 1:-1 2:0.551147 3:0.577271 4:-0.282185 5:0.732463 6:-0.410418 7:-0.00280871 8:-0.635294 9:-0.837524 10:0.421229 11:0.329535 12:-0.0470933 13:-0.410655 14:-0.79887 15:-0.999045 16:-0.103462 17:-0.202566 18:-0.699259 19:-0.470819 20:-0.852732 
100 1:-1 2:0.65422 3:0.619164 4:-0.42449 5:0.687707 6:-0.368372 7:-0.423167 8:-0.496957 9:-0.845261 10:0.484927 11:0.814859 12:0.138671 13:-0.361003 14:-0.785162 15:-0.999086 16:0.0729813 17:-0.259289 18:-0.910809 19:-0.284009 20:-0.894083 
100 1:-0.92 2:0.695384 3:0.694792 4:-0.437976 5:0.675275 6:-0.438949 7:-0.507071 8:-0.478992 9:-0.852998 10:0.573294 11:-0.0512852 12:-0.373572 13:-0.709515 14:-0.878397 15:-0.99943 16:0.0110283 17:-0.573546 18:-0.669529 19:-0.273202 20:-0.910849 
100 1:-0.6 2:0.71548 3:0.759567 4:-0.463775 5:0.598097 6:-0.198498 7:-0.602041 8:-0.594771 9:-0.72147 10:0.629571 11:0.338936 12:-0.0864956 13:-0.649105 14:-0.81687 15:-0.999224 16:-0.0376101 17:-0.393145 18:-0.567358 19:-0.291232 20:-0.770376 
30.85291791437268 1:-1 2:0.53708 3:0.618034 4:-0.233504 5:0.743303 6:-0.414923 7:0.0166679 8:-0.408585 9:-0.783366 10:0.494049 11:0.78616 12:0.43325 13:-0.403486 14:-0.630497 15:-0.998523 16:-0.394218 17:-0.0451195 18:-0.958175 19:0.167612 20:-0.812235 
100 1:-0.94 2:0.673603 3:0.70286 4:-0.496214 5:0.752851 6:-0.402159 7:-0.154978 8:-0.240196 9:-0.883946 10:0.523858 11:-0.479888 12:-0.656734 13:-0.809997 14:-0.934053 15:-0.999632 16:0.0803211 17:-0.340118 18:-0.89384 19:-0.298752 20:-0.770719 
100 1:-0.319999 2:0.7359 3:0.807658 4:-0.592389 5:0.755487 6:-0.266072 7:-0.212904 8:-0.594771 9:-0.895551 10:0.574033 11:0.175568 12:-0.308125 13:-0.720045 14:-0.873699 15:-0.999018 16:0.0850528 17:-0.541005 18:-0.142515 19:-0.162386 20:-0.918024 
100 1:-1 2:0.616168 3:0.525598 4:-0.169402 5:0.79386 6:-0.610511 7:-0.260603 8:-0.620098 9:-0.760155 10:0.554567 11:0.193799 12:-0.0868189 13:-0.589844 14:-0.789982 15:-0.998265 16:-0.229979 17:0.0980938 18:-0.623895 19:-0.0834846 20:-0.928458 
100 1:-1 2:0.654415 3:0.624232 4:-0.402092 5:0.61028 6:-0.484749 7:-0.280237 8:-0.328173 9:-0.824629 10:0.551355 11:0.356173 12:-0.0558888 13:-0.558836 14:-0.806937 15:-0.99903 16:-0.0444384 17:-0.405807 18:-0.642826 19:0.1449 20:-0.770676 
100 1:-1 2:0.57267 3:0.417461 4:-0.129164 5:0.718141 6:-0.451713 7:-0.210355 8:-0.392157 9:-0.791103 10:0.463116 11:0.665842 12:0.203194 13:-0.280564 14:-0.742134 15:-0.998595 16:-0.0893409 17:-0.155927 18:-0.883631 19:-0.11126 20:-0.883297 
100 1:-0.92 2:0.731039 3:0.707905 4:-0.479167 5:0.40797 6:0.00328484 7:-0.568141 8:-0.270588 9:-0.618311 10:0.610909 11:-0.738985 12:-0.820552 13:-0.914343 14:-0.965283 15:-0.999832 16:0.166756 17:-0.259331 18:-0.442935 19:0.0466047 20:-0.918082 
100 1:-0.399999 2:0.734993 3:0.771364 4:-0.507296 5:0.746884 6:-0.366119 7:-0.403555 8:-0.529412 9:-0.829787 10:0.617943 11:0.503227 12:-0.0487051 13:-0.615201 14:-0.819761 15:-0.99899 16:0.0694858 17:-0.3198 18:-0.656152 19:-0.303267 20:-0.905349 
100 1:-0.96 2:0.665954 3:0.687849 4:-0.65781 5:0.832743 6:-0.560367 7:-0.378705 8:-0.635294 9:-0.903841 10:0.513804 11:0.445634 12:-0.07603 13:-0.566646 14:-0.82387 15:-0.998791 16:0.00818656 17:0.0556274 18:-0.817052 19:-0.263587 20:-0.997233 
100 1:-1 2:0.650849 3:0.575672 4:-0.0958157 5:0.61401 6:-0.378883 7:-0.27263 8:-0.411765 9:-0.829787 10:0.627805 11:0.765799 12:0.387773 13:-0.362087 14:-0.658075 15:-0.998768 16:-0.242941 17:-0.227563 18:-0.840177 19:0.17054 20:-0.957725 
100 1:-1 2:0.737586 3:0.653922 4:-0.554453 5:0.564448 6:-0.0117316 7:-0.389045 8:-0.424149 9:-0.824629 10:0.516984 11:0.79085 12:-0.0426619 13:-0.333822 14:-0.829484 15:-0.999168 16:0.151799 17:-0.586926 18:-0.642377 19:-0.310414 20:-0.929365 
100 1:-0.96 2:0.756904 3:0.740443 4:-0.209082 5:0.814613 6:-0.327076 7:-0.44992 8:-0.562353 9:-0.876209 10:0.744278 11:-0.0532213 12:-0.269867 13:-0.725582 14:-0.832095 15:-0.999035 16:-0.150091 17:-0.139025 18:-0.969244 19:0.0458582 20:-0.886081 
100 1:-1 2:0.537729 3:0.559242 4:-0.377172 5:0.795731 6:-0.561976 7:-0.146503 8:-0.493464 9:-0.870683 10:0.371441 11:0.290093 12:-0.109614 13:-0.535381 14:-0.81966 15:-0.999227 16:0.0121528 17:-0.234358 18:-0.758079 19:0.218493 20:-0.545476 
100 1:-1 2:0.538831 3:0.533683 4:-0.262997 5:0.81531 6:-0.317316 7:-0.528499 8:-0.226381 9:-0.814313 10:0.437644 11:0.716925 12:0.275053 13:-0.380015 14:-0.715743 15:-0.998961 16:-0.21828 17:-0.0170323 18:-0.709982 19:0.214685 20:-0.921603 
100 1:-0.94 2:0.683392 3:0.645441 4:-0.264888 5:0.710234 6:-0.257626 7:-0.309897 8:-0.328173 9:-0.702128 10:0.612547 11:0.478826 12:0.058457 13:-0.529556 14:-0.776356 15:-0.999019 16:-0.110463 17:-0.167036 18:-0.814089 19:-0.239212 20:-0.692243 
100 1:-0.96 2:0.68942 3:0.666221 4:-0.205169 5:0.866629 6:-0.449711 7:-0.582906 8:-0.719457 9:-0.901999 10:0.596936 11:0.501764 12:0.0317383 13:-0.524498 14:-0.791415 15:-0.999268 16:0.0470668 17:-0.765067 18:-0.774124 19:0.215763 20:-0.954164 
100 1:-1 2:0.593738 3:0.626605 4:-0.283988 5:0.738455 6:-0.239794 7:-0.457777 8:-0.496957 9:-0.789168 10:0.521546 11:0.883193 12:0.410721 13:-0.389319 14:-0.680328 15:-0.998622 16:-0.244218 17:-0.405752 18:-0.854914 19:0.105484 20:-0.92062 
100 1:-1 2:0.640801 3:0.677945 4:-0.373112 5:0.768002 6:-0.497263 7:-0.558658 8:-0.756863 9:-0.876209 10:0.558486 11:0.922102 12:0.379607 13:-0.420687 14:-0.705739 15:-0.998602 16:-0.12665 17:-0.00118224 18:-0.712072 19:-0.126185 20:-0.968994 
100 1:-0.98 2:0.644885 3:0.653775 4:-0.261751 5:0.752453 6:-0.41267 7:-0.216065 8:-0.635294 9:-0.837524 10:0.589355 11:0.491117 12:0.12214 13:-0.516568 14:-0.745979 15:-0.998853 16:-0.217616 17:-0.217586 18:-0.970116 19:0.0717784 20:-0.955862 
100 1:0.8 2:0.811357 3:0.862642 4:-0.664407 5:0.795849 6:-0.539809 7:-0.600468 8:-0.324619 9:-0.895551 10:0.69041 11:-0.37725 12:-0.64022 13:-0.872107 14:-0.934929 15:-0.999672 16:0.233725 17:-0.605938 18:-0.488389 19:-0.0841431 20:-0.953876 
100 1:-0.98 2:0.548749 3:0.592474 4:-0.000300501 5:0.650113 6:-0.42168 7:0.437216 8:-0.447415 9:-0.814313 10:0.53282 11:0.683155 12:0.40074 13:-0.273096 14:-0.605997 15:-0.99781 16:-0.304972 17:0.105822 18:-0.774124 19:0.184013 20:-0.644368 
100 1:-1 2:0.623363 3:0.575672 4:-0.10209 5:0.701656 6:-0.380573 7:-0.337284 8:-0.886029 9:-0.760155 10:0.547982 11:0.81267 12:0.331108 13:-0.319223 14:-0.707611 15:-0.998633 16:-0.105988 17:-0.312897 18:-0.914092 19:0.191172 20:-0.918681 
100 1:-1 2:0.596136 3:0.598672 4:-0.27421 5:0.783782 6:-0.345847 7:0.134883 8:-0.756863 9:-0.837524 10:0.494885 11:0.704728 12:0.227695 13:-0.281917 14:-0.737718 15:-0.998294 16:-0.145969 17:-0.111116 18:-0.95543 19:-0.43529 20:-0.661259 
100 1:-0.94 2:0.671075 3:0.708165 4:-0.707869 5:0.643598 6:-0.282027 7:-0.397531 8:-0.616099 9:-0.88588 10:0.381077 11:0.76275 12:-0.0725818 13:-0.433231 14:-0.835179 15:-0.999071 16:0.172182 17:-0.600914 18:-0.491686 19:-0.332135 20:-0.938192 
100 1:-0.98 2:0.674381 3:0.603695 4:-0.261765 5:0.753 6:-0.535429 7:-0.292752 8:-0.452941 9:-0.811734 10:0.604259 11:0.642062 12:0.18013 13:-0.436317 14:-0.748757 15:-0.998928 16:-0.114358 17:-0.330608 18:-0.861327 19:-0.193736 20:-0.825317 
100 1:-1 2:0.598859 3:0.488196 4:-0.170472 5:0.811829 6:-0.368372 7:-0.590774 8:-0.812971 9:-0.767892 10:0.539727 11:0.91591 12:0.457819 13:-0.309616 14:-0.660772 15:-0.998837 16:-0.279965 17:-0.0632478 18:-0.915593 19:0.282995 20:-0.920243 
100 1:-0.98 2:0.621354 3:0.669402 4:-0.282727 5:0.817398 6:-0.529173 7:-0.0050969 8:-0.328173 9:-0.824629 10:0.530347 11:0.350792 12:-0.0202848 13:-0.528544 14:-0.790097 15:-0.998876 16:-0.173665 17:-0.00889885 18:-0.76966 19:-0.110225 20:-0.571264 
100 1:-0.8 2:0.678659 3:0.721872 4:-0.417879 5:0.767421 6:-0.278273 7:-0.558658 8:-0.371197 9:-0.789168 10:0.589034 11:0.317519 12:-0.0791234 13:-0.630661 14:-0.811019 15:-0.999309 16:-0.0597886 17:-0.432201 18:-0.319999 19:-0.0132033 20:-0.891249 
100 1:-1 2:0.61889 3:0.564502 4:-0.160328 5:0.790959 6:-0.418426 7:-0.176982 8:-0.726471 9:-0.811734 10:0.545091 11:0.502317 12:0.11523 13:-0.450816 14:-0.752601 15:-0.998922 16:-0.185595 17:-0.324465 18:-0.694655 19:0.0429662 20:-0.758555 
100 1:-1 2:0.585959 3:0.589576 4:-0.00540168 5:0.517537 6:-0.139371 7:-0.202612 8:-0.478992 9:-0.708575 10:0.603681 11:0.761311 12:0.519966 13:-0.312563 14:-0.518996 15:-0.998332 16:-0.483549 17:-0.0329985 18:-0.887812 19:0.308232 20:-0.875158 
100 1:-0.96 2:0.667704 3:0.725081 4:-0.528082 5:0.481319 6:-0.49914 7:-0.552292 8:-0.478992 9:-0.843972 10:0.537157 11:0.614523 12:0.0616851 13:-0.545453 14:-0.793253 15:-0.999136 16:0.0518697 17:-0.20806 18:-0.785308 19:-0.0843432 20:-0.88277 
100 1:-0.94 2:0.716323 3:0.665137 4:-0.16219 5:0.603899 6:-0.521664 7:-0.049711 8:-0.478992 9:-0.843972 10:0.686363 11:0.315924 12:-0.00658651 13:-0.579159 14:-0.775173 15:-0.999034 16:-0.105433 17:-0.0925914 18:-0.808831 19:-0.0409327 20:-0.768599 
100 1:-0.98 2:0.667963 3:0.665103 4:-0.132697 5:0.689398 6:-0.346598 7:-0.273307 8:-0.583193 9:-0.798839 10:0.619871 11:0.569094 12:0.176426 13:-0.486861 14:-0.734717 15:-0.998932 16:-0.171945 17:-0.555099 18:-0.837907 19:0.0472332 20:-0.877327 
100 1:-1 2:0.560029 3:0.561141 4:-0.131377 5:0.801734 6:-0.476615 7:-0.143857 8:-0.594771 9:-0.837524 10:0.510624 11:0.278431 12:0.0214073 13:-0.481723 14:-0.744877 15:-0.998727 16:-0.192643 17:0.150441 18:-0.357373 19:0.00439308 20:-0.856796 
100 1:-0.379999 2:0.830351 3:0.78594 4:-0.329591 5:0.146267 6:-0.379634 7:-0.38384 8:-0.0882353 9:-0.852998 10:0.78366 11:-0.791171 12:-0.845278 13:-0.942347 14:-0.968925 15:-0.99991 16:0.1817 17:-0.551326 18:-0.670234 19:-0.420323 20:-0.837868 
100 1:-0.76 2:0.72501 3:0.696736 4:-0.522101 5:0.779505 6:-0.381136 7:-0.404878 8:-0.524297 9:-0.891683 10:0.529929 11:-0.0163451 12:-0.443792 13:-0.678819 14:-0.899856 15:-0.99951 16:0.181886 17:-0.58306 18:-0.837253 19:-0.108904 20:-0.867962 
100 1:-0.96 2:0.65046 3:0.654447 4:-0.439178 5:0.660257 6:-0.432191 7:-0.735504 8:-0.594771 9:-0.860735 10:0.529769 11:0.415599 12:-0.0390791 13:-0.58277 14:-0.808093 15:-0.999442 16:0.0123019 17:-0.644809 18:-0.878603 19:-0.197473 20:-0.912612 
100 1:-1 2:0.632179 3:0.62087 4:-0.298397 5:0.816569 6:-0.583607 7:0.0543199 8:-1 9:-0.921341 10:0.478085 11:0.846561 12:0.203854 13:-0.202568 14:-0.766845 15:-0.998783 16:-0.0654789 17:-0.258838 18:-0.710854 19:-0.115755 20:-0.702426 
100 1:-0.92 2:0.674835 3:0.69303 4:-0.481395 5:0.712693 6:-0.682465 7:-0.363875 8:-0.336898 9:-0.833226 10:0.514896 11:0.581562 12:-0.00991344 13:-0.553113 14:-0.813579 15:-0.999287 16:0.143575 17:-0.528992 18:-0.785218 19:-0.129435 20:-0.703981 
100 1:-0.76 2:0.730325 3:0.723454 4:-0.3204 5:0.870408 6:-0.6458 7:-0.206506 8:-0.270588 9:-0.818182 10:0.625588 11:-0.0918566 12:-0.40197 13:-0.753397 14:-0.884207 15:-0.999478 16:0.0699194 17:-0.42558 18:-0.683086 19:-0.161639 20:-0.608614 
100 1:-0.76 2:0.726436 3:0.740251 4:-0.552489 5:0.514678 6:-0.219146 7:-0.47284 8:-0.826331 9:-0.866538 10:0.561312 11:0.651216 12:-0.0261664 13:-0.513632 14:-0.821896 15:-0.998926 16:0.217254 17:-0.346937 18:-0.815115 19:-0.311327 20:-0.924515 
100 1:-1 2:0.705303 3:0.660826 4:-0.358937 5:0.929734 6:-0.718254 7:-0.450452 8:-0.562353 9:-0.876209 10:0.629411 11:0.54115 12:0.0741038 13:-0.541038 14:-0.779563 15:-0.999041 16:-0.0549756 17:-0.389973 18:-0.896508 19:-0.0380167 20:-0.881998 
100 1:-0.9 2:0.750681 3:0.671786 4:-0.507707 5:0.781693 6:-0.375129 7:-0.273307 8:-0.478992 9:-0.852998 10:0.595362 11:0.672336 12:-0.0253224 13:-0.449948 14:-0.822541 15:-0.998109 16:0.15334 17:-0.210447 18:-0.909411 19:-0.3842 20:-0.673985 
100 1:-1 2:0.658628 3:0.64921 4:-0.219637 5:0.767421 6:-0.444079 7:-0.0180235 8:-0.739496 9:-0.798839 10:0.545284 11:0.765147 12:0.197173 13:-0.39017 14:-0.760381 15:-0.998925 16:-0.0212268 17:-0.372888 18:-0.880527 19:-0.19905 20:-0.686281 
100 1:-1 2:0.706534 3:0.619944 4:-0.438079 5:0.735968 6:-0.096199 7:-0.431956 8:-0.544118 9:-0.760155 10:0.560188 11:0.196724 12:-0.254054 13:-0.612411 14:-0.860127 15:-0.99924 16:-0.0230253 17:-0.194268 18:-0.517876 19:-0.299208 20:-0.953282 
100 1:-1 2:0.682873 3:0.622627 4:-0.202164 5:0.800093 6:-0.474988 7:-0.0792459 8:-0.605723 9:-0.783366 10:0.618586 11:0.728744 12:0.245663 13:-0.396255 14:-0.733609 15:-0.998618 16:-0.0893206 17:-0.0679487 18:-0.324949 19:-0.0739939 20:-0.877956 
100 1:-0.84 2:0.730779 3:0.711499 4:-0.186362 5:0.778362 6:-0.440951 7:-0.354494 8:-0.176471 9:-0.869761 10:0.719095 11:0.170868 12:-0.0882511 13:-0.659258 14:-0.784232 15:-0.999337 16:-0.114249 17:-0.301014 18:-0.849424 19:-0.16827 20:-0.826146 
100 1:-1 2:0.635745 3:0.630961 4:-0.471779 5:0.761404 6:-0.441952 7:-0.432558 8:-0.459695 9:-0.860735 10:0.469605 11:0.663014 12:0.0657977 13:-0.419162 14:-0.79626 15:-0.999086 16:0.0178363 17:-0.366234 18:-0.726386 19:-0.276148 20:-0.815833 
100 1:-1 2:0.724102 3:0.657837 4:-0.31565 5:0.71645 6:-0.314313 7:-0.475269 8:-0.748479 9:-0.845261 10:0.604516 11:0.267081 12:-0.18994 13:-0.558268 14:-0.845718 15:-0.999326 16:0.0828275 17:-0.247168 18:-0.683612 19:-0.266401 20:-0.922927 
100 1:-0.98 2:0.706664 3:0.680046 4:-0.244703 5:0.756481 6:-0.098076 7:-0.330588 8:-0.496957 9:-0.789168 10:0.668246 11:0.585295 12:0.177894 13:-0.494697 14:-0.737882 15:-0.99901 16:-0.180822 17:-0.32017 18:-0.395671 19:-0.0365757 20:-0.792068 
100 1:-0.499999 2:0.755932 3:0.800037 4:-0.400816 5:0.780102 6:-0.324824 7:-0.566222 8:-0.570934 9:-0.806576 10:0.707338 11:-0.310447 12:-0.498159 13:-0.832318 14:-0.894596 15:-0.999444 16:-0.0472226 17:-0.243876 18:-0.459736 19:-0.151248 20:-0.993163 
100 1:-1 2:0.554907 3:0.597441 4:-0.274269 5:0.815011 6:-0.402159 7:-0.129765 8:-0.371197 9:-0.845261 10:0.45833 11:0.814772 12:0.342489 13:-0.27396 14:-0.701936 15:-0.99844 16:-0.173527 17:-0.144538 18:-0.773713 19:-0.12258 20:-0.71627 
100 1:-0.84 2:0.685855 3:0.741499 4:-0.400963 5:0.77629 6:-0.52229 7:-0.29511 8:-0.141869 9:-0.850419 10:0.605255 11:0.716551 12:0.201448 13:-0.525479 14:-0.751817 15:-0.997976 16:-0.0867057 17:-0.194302 18:-0.726604 19:-0.361506 20:-0.756639 
100 1:-1 2:0.529042 3:0.400879 4:-0.0224496 5:0.736466 6:-0.277335 7:-0.189783 8:-0.356401 9:-0.740812 10:0.494852 11:0.619317 12:0.324544 13:-0.259382 14:-0.645027 15:-0.998154 16:-0.383224 17:-0.0363989 18:-0.949364 19:-0.0646134 20:-0.832596 
100 1:-1 2:0.572345 3:0.572327 4:-0.162805 5:0.589519 6:-0.242609 7:-0.596217 8:-0.696078 9:-0.72147 10:0.534748 11:0.739435 12:0.387648 13:-0.410736 14:-0.647452 15:-0.99894 16:-0.409447 17:-0.069141 18:-0.838343 19:0.212593 20:-0.942726 
100 1:-0.98 2:0.605795 3:0.614102 4:-0.343897 5:0.824062 6:-0.409667 7:-0.161512 8:-0.557932 9:-0.814313 10:0.489071 11:0.322129 12:-0.0666104 13:-0.527247 14:-0.80638 15:-0.999121 16:-0.044452 17:-0.203894 18:-0.951762 19:-0.342831 20:-0.672218 
100 1:-1 2:0.66187 3:0.679464 4:-0.229502 5:0.754368 6:-0.279212 7:-0.322221 8:-0.772059 9:-0.760155 10:0.555916 11:0.412175 12:-0.0280881 13:-0.534334 14:-0.80337 15:-0.998989 16:-0.0244445 17:-0.236271 18:-0.646981 19:-0.107856 20:-0.900402 
100 1:-0.92 2:0.690847 3:0.694323 4:-0.177801 5:0.813619 6:-0.444205 7:-0.591874 8:-0.270588 9:-0.798839 10:0.677497 11:-0.00317535 12:-0.198821 13:-0.709857 14:-0.801382 15:-0.999299 16:-0.310635 17:-0.351598 18:-0.571232 19:0.0175363 20:-0.871705 
100 1:-1 2:0.587515 3:0.568 4:-0.39658 5:0.822744 6:-0.283904 7:-0.501404 8:-0.371197 9:-0.789168 10:0.445481 11:0.519541 12:0.0436092 13:-0.462874 14:-0.789043 15:-0.998342 16:-0.0702005 17:0.542924 18:-0.623702 19:0.0124788 20:-0.833166 
100 1:-1 2:0.598081 3:0.624464 4:-0.192885 5:0.820979 6:-0.39465 7:-0.596217 8:-0.605723 9:-0.783366 10:0.587363 11:0.567317 12:0.293973 13:-0.518153 14:-0.645927 15:-0.998606 16:-0.455037 17:0.230599 18:-0.968346 19:0.0511699 20:-0.958362 
100 1:-1 2:0.50175 3:0.598249 4:-0.229575 5:0.733689 6:0.0570937 7:-0.20926 8:-0.392157 9:-0.837524 10:0.425566 11:0.830472 12:0.424302 13:-0.285571 14:-0.655348 15:-0.998222 16:-0.354234 17:-0.138566 18:-0.997743 19:0.292299 20:-0.860256 
100 1:-0.96 2:0.707961 3:0.686702 4:-0.237608 5:0.807254 6:-0.399155 7:0.161908 8:-0.756863 9:-0.837524 10:0.668567 11:0.724957 12:0.274523 13:-0.37477 14:-0.717944 15:-0.998287 16:-0.139822 17:-0.381925 18:-0.908013 19:-0.26259 20:-0.689637 
100 1:-1 2:0.528653 3:0.589537 4:-0.0681403 5:0.643681 6:-0.0242453 7:-0.927705 8:-0.316176 9:-0.656995 10:0.560927 11:0.924108 12:0.718917 13:-0.359997 14:-0.366949 15:-0.999314 16:-0.653943 17:-0.999858 18:-0.974053 19:0.364934 20:-1 
100 1:-1 2:0.635745 3:0.618916 4:-0.41052 5:0.683878 6:-0.232285 7:-0.357894 8:-0.696078 9:-0.837524 10:0.474327 11:0.805678 12:0.16293 13:-0.368634 14:-0.776807 15:-0.999007 16:0.0698381 17:-0.547739 18:-0.992086 19:-0.47566 20:-0.843699 
100 1:-0.86 2:0.728251 3:0.719996 4:-0.298822 5:0.763592 6:-0.508024 7:-0.27263 8:-0.245436 9:-0.845261 10:0.690892 11:-0.217959 12:-0.407075 13:-0.760232 14:-0.86842 15:-0.999501 16:-0.13233 17:-0.320038 18:-0.977965 19:-0.0223297 20:-0.882547 
100 1:-1 2:0.636134 3:0.624119 4:-0.220252 5:0.643598 6:-0.282027 7:-0.0141412 8:-0.622718 9:-0.789168 10:0.605865 11:0.765725 12:0.382089 13:-0.272706 14:-0.66224 15:-0.998454 16:-0.278875 17:-0.0355293 18:-0.969359 19:0.162262 20:-0.779267 
100 1:-0.94 2:0.72501 3:0.695097 4:-0.445466 5:0.58666 6:-0.113092 7:-0.340538 8:-0.682864 9:-0.77305 10:0.603745 11:0.640139 12:0.039344 13:-0.472576 14:-0.8028 15:-0.998911 16:0.0862044 17:-0.318092 18:-0.704043 19:-0.189447 20:-0.806941 
100 1:-0.98 2:0.672695 3:0.618803 4:-0.265049 5:0.513808 6:0.679024 7:-0.260603 8:-0.365729 9:-0.624758 10:0.603039 11:0.569136 12:0.131851 13:-0.303648 14:-0.758193 15:-0.998843 16:-0.0649201 17:-0.510084 18:-0.816552 19:-0.002854 20:-0.963689 
100 1:-1 2:0.569234 3:0.487326 4:-0.0897324 5:0.754442 6:-0.669826 7:-0.0141412 8:-0.498529 9:-0.760155 10:0.490645 11:0.44711 12:0.0977156 13:-0.487224 14:-0.748673 15:-0.998789 16:-0.249377 17:-0.0957634 18:-0.702671 19:-0.0111038 20:-0.280303 
100 1:-0.84 2:0.736419 3:0.746013 4:-0.356826 5:0.921372 6:-0.733771 7:-0.31302 8:-0.682864 9:-0.847195 10:0.62501 11:-0.35853 12:-0.580057 13:-0.826053 14:-0.919439 15:-0.999698 16:0.130524 17:-0.581964 18:-0.500689 19:-0.318187 20:-0.634657 
100 1:-0.54 2:0.77875 3:0.770759 4:-0.573157 5:0.884233 6:-0.734397 7:-0.419046 8:-0.43268 9:-0.895551 10:0.593884 11:-0.0439059 12:-0.489498 13:-0.757265 14:-0.909234 15:-0.999351 16:0.170211 17:-0.427598 18:-0.166589 19:-0.126455 20:-0.601776 
100 1:-0.7 2:0.783936 3:0.758562 4:-0.306943 5:0.707313 6:-0.572032 7:-0.759014 8:-0.837909 9:-0.852031 10:0.737468 11:-0.276141 12:-0.487738 13:-0.81329 14:-0.895217 15:-0.999704 16:0.0602222 17:-0.914119 18:-0.483708 19:-0.0483039 20:-0.989946 
100 1:-1 2:0.63017 3:0.603695 4:-0.46055 5:0.826909 6:-0.590802 7:-0.254959 8:-0.733142 9:-0.871373 10:0.458266 11:0.218422 12:-0.216829 13:-0.594388 14:-0.850362 15:-0.999209 16:0.0736723 17:-0.182189 18:-0.742572 19:-0.226287 20:-0.880351 
100 1:-0.96 2:0.722093 3:0.675894 4:-0.404657 5:0.803557 6:-0.515407 7:-0.126929 8:-0.463668 9:-0.850419 10:0.545027 11:-0.0791686 12:-0.46141 13:-0.673069 14:-0.902 15:-0.998978 16:0.0394222 17:0.0334053 18:-0.527034 19:-0.101906 20:-0.436562 
100 1:0.88 2:0.853689 3:0.890258 4:-0.497109 5:0.801911 6:-0.613461 7:-0.245605 8:-0.478992 9:-0.876209 10:0.798725 11:-0.680038 12:-0.790044 13:-0.94233 14:-0.960202 15:-0.999822 16:0.214517 17:-0.567264 18:-0.145759 19:-0.449784 20:-0.821838 
100 1:-1 2:0.615001 3:0.484044 4:-0.00840669 5:0.788307 6:-0.578602 7:-0.322221 8:-0.908824 9:-0.811734 10:0.539566 11:0.619653 12:0.199185 13:-0.406197 14:-0.734336 15:-0.998048 16:-0.197256 17:-0.101837 18:-0.769327 19:0.404746 20:-0.793248 
100 1:-1 2:0.575327 3:0.507044 4:-0.193706 5:0.746884 6:-0.366119 7:-0.225397 8:-0.532428 9:-0.767892 10:0.464048 11:0.576791 12:0.136103 13:-0.334728 14:-0.757597 15:-0.998754 16:-0.102832 17:-0.348522 18:-0.971988 19:0.112097 20:-0.675228 
100 1:-1 2:0.651562 3:0.623978 4:-0.267658 5:0.80737 6:-0.397153 7:-0.452805 8:-0.704293 9:-0.831077 10:0.554085 11:0.485873 12:0.0422309 13:-0.52576 14:-0.784784 15:-0.99912 16:-0.10336 17:-0.241598 18:-0.573925 19:0.0496589 20:-0.769845 
100 1:-0.7 2:0.699079 3:0.735488 4:-0.456153 5:0.696559 6:-0.524793 7:-0.751272 8:-0.797386 9:-0.837524 10:0.604998 11:-0.500986 12:-0.642335 13:-0.863537 14:-0.926965 15:-0.999808 16:-0.0112519 17:-0.593196 18:-0.349857 19:0.0120184 20:-0.919635 
100 1:-1 2:0.669908 3:0.59922 4:-0.162131 5:0.73843 6:-0.471985 7:-0.661111 8:-0.583193 9:-0.798839 10:0.629379 11:0.744538 12:0.31837 13:-0.455444 14:-0.697777 15:-0.998074 16:-0.238111 17:-0.182692 18:-0.740982 19:-0.123092 20:-0.955723 
100 1:-0.98 2:0.720018 3:0.631136 4:-0.238121 5:0.625696 6:-0.509151 7:-0.507071 8:-0.668449 9:-0.856867 10:0.642388 11:0.607843 12:0.102574 13:-0.47213 14:-0.777261 15:-0.998933 16:-0.147463 17:-0.382619 18:-0.712765 19:-0.0760654 20:-0.890763 
100 1:-0.94 2:0.653377 3:0.675188 4:-0.322628 5:0.69631 6:-0.376818 7:0.0512509 8:-0.772059 9:-0.760155 10:0.527681 11:-0.559269 12:-0.686097 13:-0.8301 14:-0.936561 15:-0.999523 16:-0.155196 17:-0.211448 18:0.159227 19:-0.124766 20:-0.796355 
100 1:-1 2:0.628679 3:0.567073 4:0.116836 5:0.731766 6:-0.435946 7:-0.225397 8:-0.544118 9:-0.82205 10:0.604067 11:0.740542 12:0.380558 13:-0.256415 14:-0.653573 15:-0.996612 16:-0.295929 17:0.670095 18:-0.195742 19:-0.147403 20:-0.833776 
100 1:-0.96 2:0.658434 3:0.668057 4:-0.561987 5:0.866878 6:-0.498514 7:-0.502548 8:-0.529412 9:-0.869761 10:0.424281 11:0.599942 12:-0.0830565 13:-0.504855 14:-0.834027 15:-0.99912 16:0.264568 17:-0.399958 18:-0.798685 19:-0.0763416 20:-0.916872 
100 1:-0.94 2:0.737651 3:0.675108 4:-0.511327 5:0.739325 6:-0.0192398 7:-0.257231 8:-0.817647 9:-0.811734 10:0.534812 11:0.888347 12:0.036915 13:-0.317626 14:-0.814381 15:-0.999004 16:0.189768 17:-0.346735 18:-0.64466 19:-0.11917 20:-0.914693 
100 1:-0.88 2:0.666667 3:0.719245 4:-0.343223 5:0.798833 6:-0.516659 7:-0.82695 8:-0.668449 9:-0.856867 10:0.599634 11:0.276477 12:-0.06459 13:-0.649912 14:-0.797273 15:-0.999514 16:-0.172612 17:-0.596313 18:-0.798095 19:-0.128134 20:-0.986383 
100 1:-0.96 2:0.622585 3:0.625385 4:-0.321836 5:0.60191 6:-0.0943219 7:-1 8:-0.411765 9:-0.66989 10:0.573904 11:0.595039 12:0.225342 13:-0.525706 14:-0.712207 15:-0.999601 16:-0.256679 17:-0.99908 18:-0.971039 19:0.0677696 20:-0.959163 
100 1:-1 2:0.563399 3:0.407963 4:-0.241962 5:0.857181 6:-0.456593 7:-0.322221 8:-0.294118 9:-0.869761 10:0.456628 11:0.860964 12:0.351617 13:-0.219996 14:-0.707406 15:-0.998339 16:-0.122643 17:-0.239145 18:-0.963536 19:0.0147704 20:-0.797558 
100 1:-0.96 2:0.669454 3:0.651334 4:-0.277157 5:0.670452 6:-0.258564 7:-0.548149 8:-0.562353 9:-0.827853 10:0.596036 11:0.669862 12:0.197205 13:-0.473529 14:-0.745791 15:-0.99911 16:-0.0560256 17:-0.750009 18:-0.694334 19:-0.0588493 20:-0.903127 
100 1:-0.82 2:0.665176 3:0.688176 4:-0.321719 5:0.763692 6:-0.363116 7:-0.698763 8:-0.772059 9:-0.82205 10:0.606187 11:0.268143 12:-0.0568496 13:-0.645311 14:-0.791492 15:-0.999438 16:-0.165608 17:-0.42353 18:-0.898342 19:0.0774244 20:-0.963515 
100 1:-0.62 2:0.727992 3:0.790178 4:-0.551096 5:0.719334 6:-0.393149 7:-0.140376 8:-0.854118 9:-0.876209 10:0.595426 11:-0.169923 12:-0.477749 13:-0.789997 14:-0.901846 15:-0.999305 16:0.0605643 17:-0.215055 18:-0.686382 19:0.0518544 20:-0.720081 
100 1:-1 2:0.644691 3:0.613232 4:-0.293486 5:0.82615 6:-0.343595 7:-0.286549 8:-0.719457 9:-0.868472 10:0.549813 11:0.748195 12:0.231372 13:-0.2916 14:-0.74374 15:-0.998497 16:-0.0862993 17:-0.0803221 18:-0.523802 19:0.443155 20:-0.883125 
100 1:-0.98 2:0.750616 3:0.665707 4:-0.478463 5:0.759879 6:-0.0392617 7:-0.342761 8:-0.797386 9:-0.837524 10:0.554952 11:0.661064 12:-0.0928128 13:-0.40956 14:-0.837822 15:-0.99901 16:0.401074 17:-0.340319 18:-0.988713 19:-0.150782 20:-0.920039 
100 1:-1 2:0.655841 3:0.614661 4:-0.174957 5:0.71558 6:-0.170343 7:-0.186666 8:-0.371197 9:-0.789168 10:0.606476 11:0.643137 12:0.236369 13:-0.361704 14:-0.719163 15:-0.998799 16:-0.185364 17:-0.232574 18:-0.625395 19:0.0389734 20:-0.81839 
100 1:-0.199999 2:0.787113 3:0.796884 4:-0.546347 5:0.844749 6:-0.372877 7:-0.380315 8:-0.652661 9:-0.907157 10:0.681769 11:0.0557199 12:-0.352632 13:-0.741395 14:-0.879741 15:-0.999308 16:0.198713 17:-0.896227 18:-0.673826 19:-0.202788 20:-0.942356 
100 1:-0.86 2:0.840723 3:0.716386 4:-0.433828 5:0.790744 6:-0.42168 7:-0.421627 8:-0.635294 9:-0.914894 10:0.705764 11:-0.0756303 12:-0.50933 13:-0.713182 14:-0.912849 15:-0.999564 16:0.448672 17:-0.633201 18:-0.528868 19:-0.591641 20:-0.850769 
100 1:-0.82 2:0.731298 3:0.722324 4:-0.596611 5:0.80737 6:-0.397153 7:-0.201376 8:-0.802862 9:-0.831077 10:0.557522 11:0.271523 12:-0.262922 13:-0.638855 14:-0.866155 15:-0.99905 16:0.176172 17:-0.173284 18:-0.528419 19:0.00619635 20:-0.661562 
100 1:-1 2:0.626864 3:0.485089 4:0.116294 5:0.881423 6:-0.593618 7:-0.05522 8:-0.635294 9:-0.827853 10:0.597835 11:0.939225 12:0.522611 13:-0.237529 14:-0.623831 15:-0.998123 16:-0.277107 17:0.0736335 18:-0.520634 19:-0.0385331 20:-0.711717 
100 1:-0.92 2:0.645534 3:0.688917 4:-0.260387 5:0.73843 6:-0.471985 7:-0.11731 8:-0.764706 9:-0.829787 10:0.588488 11:0.881963 12:0.401319 13:-0.39887 14:-0.685451 15:-0.998543 16:-0.131676 17:-0.365142 18:-0.681778 19:-0.266975 20:-0.875266 
100 1:-0.96 2:0.723454 3:0.648328 4:-0.438298 5:0.807328 6:-0.270765 7:-0.182951 8:-0.668449 9:-0.856867 10:0.57975 11:0.908818 12:0.166167 13:-0.30367 14:-0.783175 15:-0.998831 16:0.103722 17:-0.304611 18:-0.549453 19:-0.16584 20:-0.9157 
100 1:-1 2:0.639051 3:0.604769 4:-0.447214 5:0.588999 6:-0.085403 7:-0.589315 8:-0.933846 9:-0.819057 10:0.4768 11:0.887001 12:0.106098 13:-0.156641 14:-0.763506 15:-0.998949 16:0.202784 17:-0.521019 18:-0.555635 19:-0.131899 20:-0.940659 
100 1:-1 2:0.642552 3:0.594431 4:-0.365783 5:0.59705 6:-0.0697943 7:-0.480583 8:-0.75166 9:-0.824292 10:0.440856 11:0.885022 12:0.20649 13:-0.246491 14:-0.786258 15:-0.99896 16:0.0963284 17:-0.532264 18:-0.723167 19:-0.173614 20:-0.940051 
100 1:-0.981028 2:0.637365 3:0.6221 4:-0.176719 5:0.83118 6:-0.5278 7:-0.373505 8:-0.557507 9:-0.810745 10:0.61592 11:-0.273611 12:-0.32207 13:-0.776479 14:-0.820932 15:-0.999335 16:-0.107645 17:-0.252228 18:-0.862122 19:-0.225076 20:-0.706515 
100 1:-1 2:0.551731 3:0.603762 4:-0.16541 5:0.847375 6:-0.567371 7:-0.398865 8:-0.561078 9:-0.802882 10:0.499831 11:0.410122 12:-0.226303 13:-0.33405 14:-0.944113 15:-0.999313 16:-0.193402 17:-0.403793 18:-0.74247 19:0.106739 20:-0.689545 
100 1:-1 2:0.646247 3:0.57915 4:-0.187888 5:0.839701 6:-0.517765 7:-0.420342 8:-0.535878 9:-0.83511 10:0.51782 11:0.580861 12:-0.523535 13:-0.387661 14:-0.863284 15:-0.999615 16:-0.118263 17:-0.312203 18:-0.850527 19:-0.0651637 20:-0.868172 
100 1:-1 2:0.688254 3:0.615641 4:-0.188334 5:0.840594 6:-0.624721 7:-0.408229 8:-0.687727 9:-0.877471 10:0.602493 11:-0.429643 12:-0.486966 13:-0.66443 14:-0.895855 15:-0.999232 16:-0.0464605 17:-0.287887 18:-0.846962 19:-0.23975 20:-0.715204 
100 1:-0.996107 2:0.633087 3:0.620672 4:-0.214227 5:0.824576 6:-0.480494 7:-0.37299 8:-0.556036 9:-0.812002 10:0.525946 11:-0.496921 12:-0.152316 13:-0.832413 14:-0.907996 15:-0.999628 16:-0.132973 17:-0.230945 18:-0.860365 19:-0.263169 20:-0.706041 
100 1:-1 2:0.562946 3:0.512255 4:-0.13955 5:0.842725 6:-0.551372 7:-0.305456 8:-0.538396 9:-0.800982 10:0.560285 11:-0.250575 12:0.295926 13:-0.313791 14:-0.952096 15:-0.999305 16:-0.190428 17:-0.203289 18:-0.71238 19:0.0127389 20:-0.727549 
100 1:-0.999994 2:0.641255 3:0.620478 4:-0.243251 5:0.831325 6:-0.553167 7:-0.36195 8:-0.555162 9:-0.811397 10:0.529448 11:-0.796504 12:-0.134438 13:-0.574629 14:-0.846509 15:-0.999838 16:-0.10297 17:-0.396287 18:-0.949261 19:-0.279134 20:-0.693629 
100 1:-0.982361 2:0.658693 3:0.614549 4:-0.205068 5:0.83272 6:-0.486511 7:-0.464408 8:-0.541544 9:-0.811533 10:0.507412 11:0.27942 12:-0.485592 13:-0.764082 14:-0.863191 15:-0.999126 16:-0.156378 17:-0.308488 18:-0.938231 19:-0.295976 20:-0.738686 
100 1:-1 2:0.650201 3:0.596801 4:-0.118688 5:0.844951 6:-0.544194 7:-0.213804 8:-0.559613 9:-0.805881 10:0.420298 11:-0.114364 12:-0.437035 13:-0.182951 14:-0.88761 15:-0.999439 16:-0.200406 17:-0.432852 18:-0.823606 19:0.0886943 20:-0.715505 
100 1:-1 2:0.689615 3:0.606087 4:-0.199677 5:0.840896 6:-0.612071 7:-0.164624 8:-0.69255 9:-0.815695 10:0.613253 11:-0.636305 12:-0.683942 13:-0.623663 14:-0.85919 15:-0.999081 16:-0.0348428 17:-0.393191 18:-0.683278 19:-0.321181 20:-0.700612 
100 1:-0.986902 2:0.653248 3:0.616406 4:-0.279303 5:0.833312 6:-0.588217 7:-0.194577 8:-0.546371 9:-0.811923 10:0.510946 11:0.050279 12:-0.393471 13:-0.871241 14:-0.894258 15:-0.999703 16:-0.136398 17:-0.351568 18:-0.854221 19:-0.324746 20:-0.718364 
100 1:-0.912667 2:0.698755 3:0.645123 4:-0.182813 5:0.844958 6:-0.561155 7:-0.460429 8:-0.496571 9:-0.818774 10:0.620384 11:0.0752807 12:-0.367376 13:-0.759573 14:-0.862637 15:-0.999857 16:-0.157343 17:-0.463558 18:-0.495649 19:-0.241445 20:-0.810399 
100 1:-1 2:0.663814 3:0.617268 4:-0.173309 5:0.838935 6:-0.548591 7:-0.324195 8:-0.546269 9:-0.813474 10:0.628576 11:-0.0800448 12:-0.801888 13:-0.59482 14:-0.732566 15:-0.999536 16:-0.134897 17:-0.383597 18:-0.750948 19:-0.0668769 20:-0.743697 
100 1:-1 2:0.594451 3:0.566897 4:-0.307319 5:0.698609 6:-0.259988 7:-0.329655 8:-0.493872 9:-0.72147 10:0.462988 11:0.645795 12:0.0964315 13:-0.403042 14:-0.776926 15:-0.998449 16:-0.140682 17:0.0312712 18:-0.909655 19:-0.127157 20:-0.842013 
100 1:-1 2:0.594321 3:0.592489 4:-0.215107 5:0.681937 6:-0.24515 7:-0.315004 8:-0.526018 9:-0.725853 10:0.526364 11:0.671375 12:0.228189 13:-0.404783 14:-0.780438 15:-0.998494 16:-0.151362 17:-0.278193 18:-0.906718 19:-0.042768 20:-0.836639 
100 1:-1 2:0.591599 3:0.604341 4:-0.29237 5:0.681993 6:-0.233452 7:-0.253158 8:-0.496635 9:-0.723192 10:0.588038 11:0.783247 12:0.170297 13:-0.405926 14:-0.738252 15:-0.998501 16:-0.13927 17:-0.216023 18:-0.906974 19:-0.051272 20:-0.841686 
100 1:-0.784664 2:0.586672 3:0.717903 4:-0.555265 5:0.649578 6:0.0353475 7:-0.307267 8:-0.754375 9:-0.78713 10:0.507187 11:0.663868 12:-0.155005 13:-0.450879 14:-0.750911 15:-0.999154 16:-0.0201395 17:-0.28802 18:-0.497957 19:0.0110918 20:-0.889588 
100 1:-0.816709 2:0.703423 3:0.71506 4:-0.433705 5:0.657436 6:-0.00657246 7:-0.247042 8:-0.718949 9:-0.777833 10:0.578787 11:0.410989 12:-0.278833 13:-0.652424 14:-0.88757 15:-0.999385 16:0.0720431 17:-0.377188 18:-0.521198 19:-0.173472 20:-0.820946 
100 1:-0.773101 2:0.728964 3:0.634923 4:-0.529108 5:0.650096 6:0.0284792 7:-0.362275 8:-0.820774 9:-0.791736 10:0.539984 11:0.875745 12:-0.514933 13:-0.365529 14:-0.855516 15:-0.999198 16:0.2521 17:-0.419406 18:-0.337827 19:-0.262814 20:-0.882482 
100 1:-0.892324 2:0.729548 3:0.675838 4:-0.515885 5:0.641543 6:0.0550249 7:-0.304491 8:-0.812084 9:-0.804732 10:0.494306 11:-0.168892 12:-0.62839 13:-0.711948 14:-0.857 15:-0.999225 16:0.243785 17:-0.347588 18:-0.565588 19:-0.421648 20:-0.914765 
100 1:-0.913397 2:0.707377 3:0.653862 4:-0.450056 5:0.638174 6:0.122844 7:-0.306979 8:-0.681564 9:-0.802862 10:0.525754 11:0.146364 12:-0.452682 13:-0.753035 14:-0.879246 15:-0.999461 16:0.261983 17:-0.202856 18:-0.337609 19:-0.25288 20:-0.913837 
100 1:-0.868696 2:0.728121 3:0.648297 4:-0.556303 5:0.641936 6:0.106957 7:-0.240281 8:-0.727523 9:-0.799777 10:0.480783 11:0.300545 12:-0.574216 13:-0.572557 14:-0.894481 15:-0.998837 16:0.147768 17:-0.145608 18:-0.538397 19:-0.429031 20:-0.929425 
100 1:-0.805646 2:0.730196 3:0.717656 4:-0.495488 5:0.658779 6:-0.0217061 7:-0.236968 8:-0.769093 9:-0.784052 10:0.557683 11:0.335462 12:-0.378776 13:-0.778625 14:-0.92446 15:-0.999286 16:-0.00410175 17:-0.40334 18:-0.278161 19:-0.0606246 20:-0.890018 
100 1:-0.928106 2:0.701089 3:0.680479 4:-0.447646 5:0.639444 6:0.0641212 7:-0.27411 8:-0.735172 9:-0.809294 10:0.536354 11:0.239446 12:-0.139381 13:-0.455538 14:-0.822357 15:-0.998942 16:0.31199 17:-0.262956 18:-0.366595 19:-0.144033 20:-0.920816 
100 1:-0.95855 2:0.727149 3:0.642257 4:-0.490171 5:0.664651 6:0.0270993 7:-0.352559 8:-0.847168 9:-0.807696 10:0.53841 11:0.875442 12:-0.317854 13:-0.736901 14:-0.871173 15:-0.999351 16:0.257882 17:-0.449018 18:-0.361426 19:-0.363972 20:-0.890307 
100 1:-0.746765 2:0.725464 3:0.653936 4:-0.479186 5:0.664781 6:0.0160892 7:-0.33935 8:-0.818927 9:-0.793384 10:0.536996 11:0.196549 12:0.00721957 13:-0.561918 14:-0.848852 15:-0.999184 16:0.325999 17:-0.419553 18:-0.268234 19:-0.403363 20:-0.893064 
100 1:-0.952019 2:0.730585 3:0.645713 4:-0.480487 5:0.637461 6:0.0868146 7:-0.236491 8:-0.754931 9:-0.807967 10:0.485858 11:0.0562868 12:0.016271 13:-0.355801 14:-0.800398 15:-0.999323 16:0.263345 17:-0.308274 18:-0.279084 19:-0.114488 20:-0.926843 
100 1:-0.819713 2:0.660443 3:0.641948 4:-0.497963 5:0.655069 6:0.00107176 7:-0.306096 8:-0.818017 9:-0.807147 10:0.472817 11:0.168291 12:-0.29937 13:-0.673666 14:-0.866499 15:-0.999455 16:0.253628 17:-0.243631 18:-0.404367 19:-0.349557 20:-0.935762 
100 1:-0.858327 2:0.701608 3:0.701152 4:-0.550693 5:0.649882 6:0.0768763 7:-0.275617 8:-0.739491 9:-0.799934 10:0.474102 11:-0.297174 12:-0.198022 13:-0.35531 14:-0.886853 15:-0.999288 16:0.0905162 17:-0.171268 18:-0.64398 19:-0.196362 20:-0.906777 
100 1:-1 2:0.630948 3:0.571393 4:-0.153091 5:0.603451 6:0.136435 7:-0.0280221 8:-0.258255 9:-0.744343 10:0.59867 11:0.742732 12:0.269656 13:-0.241552 14:-0.717111 15:-0.997798 16:-0.0428533 17:0.090275 18:-0.910065 19:0.347738 20:-0.906453 
100 1:-1 2:0.672306 3:0.640091 4:-0.21482 5:0.58743 6:0.157279 7:-0.174623 8:-0.245903 9:-0.673495 10:0.605127 11:0.629206 12:0.216672 13:-0.390146 14:-0.735327 15:-0.998526 16:-0.156551 17:0.00349662 18:-0.713393 19:0.218802 20:-0.936614 
100 1:-1 2:0.671399 3:0.640614 4:-0.208932 5:0.579853 6:0.151572 7:-0.260587 8:-0.23504 9:-0.687516 10:0.620449 11:0.638104 12:0.245335 13:-0.338381 14:-0.735031 15:-0.998414 16:-0.00929752 17:-0.0988552 18:-0.772944 19:0.0545543 20:-0.953737 
100 1:-0.98 2:0.638921 3:0.621617 4:-0.356481 5:0.54949 6:0.0713973 7:-0.378298 8:-0.565319 9:-0.729776 10:0.500827 11:0.627886 12:0.155441 13:-0.467177 14:-0.769889 15:-0.998744 16:-0.0483471 17:-0.103069 18:-0.777497 19:-0.380817 20:-0.946612 
100 1:-0.976194 2:0.653896 3:0.667947 4:-0.570196 5:0.543828 6:0.0804108 7:-0.522275 8:-0.560789 9:-0.769168 10:0.487143 11:0.715991 12:0.0491272 13:-0.311197 14:-0.784836 15:-0.998725 16:-0.0770322 17:-0.30538 18:-0.859467 19:-0.244568 20:-0.961002 
100 1:-0.967696 2:0.637236 3:0.666415 4:-0.591899 5:0.53649 6:0.0831048 7:-0.257876 8:-0.581434 9:-0.736869 10:0.5042 11:0.613416 12:0.0581965 13:-0.529491 14:-0.791308 15:-0.998871 16:-0.0398489 17:-0.221345 18:-0.917273 19:-0.228628 20:-0.960606 
100 1:-0.98 2:0.638856 3:0.617411 4:-0.347129 5:0.549593 6:0.035116 7:-0.299719 8:-0.547043 9:-0.732742 10:0.577662 11:0.744829 12:0.165951 13:-0.436574 14:-0.769668 15:-0.998795 16:-0.0198008 17:-0.0276323 18:-0.750999 19:-0.267728 20:-0.956975 
100 1:-0.998469 2:0.679697 3:0.648851 4:-0.482299 5:0.554087 6:0.00285808 7:-0.360996 8:-0.512227 9:-0.80516 10:0.504007 11:0.795281 12:0.158229 13:-0.32974 14:-0.808747 15:-0.999136 16:0.145797 17:-0.0540904 18:-0.741072 19:-0.299184 20:-0.908509 
100 1:-0.98 2:0.67652 3:0.630495 4:-0.31839 5:0.55086 6:-0.01797 7:-0.387044 8:-0.559266 9:-0.751011 10:0.54583 11:0.767991 12:0.152648 13:-0.333202 14:-0.769751 15:-0.998738 16:-0.0137956 17:-0.0672594 18:-0.632142 19:-0.190702 20:-0.909617 
100 1:-1 2:0.580319 3:0.60249 4:-0.170551 5:0.693666 6:-0.263959 7:-0.187116 8:-0.306502 9:-0.819517 10:0.471307 11:0.798201 12:0.28947 13:-0.213583 14:-0.711718 15:-0.998921 16:-0.172155 17:-0.0894234 18:-0.702966 19:0.128178 20:-0.934857 
100 1:-1 2:0.686244 3:0.598779 4:-0.263085 5:0.707671 6:-0.194334 7:-0.281327 8:-0.357917 9:-0.852563 10:0.606219 11:0.853669 12:0.181823 13:-0.199579 14:-0.771543 15:-0.998889 16:0.0977442 17:-0.429059 18:-0.556392 19:0.225446 20:-0.973311 
100 1:-1 2:0.667834 3:0.62004 4:-0.366154 5:0.702318 6:-0.285709 7:-0.415115 8:-0.299643 9:-0.887478 10:0.552479 11:0.662866 12:0.136983 13:-0.313452 14:-0.78407 15:-0.998973 16:0.0593246 17:-0.382933 18:-0.872485 19:0.237457 20:-0.940365 
100 1:-1 2:0.657008 3:0.617831 4:-0.451471 5:0.694283 6:-0.233292 7:-0.348286 8:-0.460004 9:-0.849365 10:0.482839 11:0.90863 12:0.15954 13:-0.348425 14:-0.785108 15:-0.998998 16:0.0516563 17:-0.337235 18:-0.680995 19:-0.221377 20:-0.923019 
100 1:-1 2:0.70433 3:0.584957 4:-0.322655 5:0.704446 6:-0.223081 7:-0.29973 8:-0.389841 9:-0.850974 10:0.602236 11:0.901241 12:0.181603 13:-0.295493 14:-0.782694 15:-0.99887 16:0.066512 17:-0.425845 18:-0.578337 19:-0.106479 20:-0.97314 
100 1:-1 2:0.694801 3:0.610068 4:-0.253261 5:0.696966 6:-0.190358 7:-0.268943 8:-0.41761 9:-0.85293 10:0.586432 11:0.787536 12:0.168775 13:-0.276668 14:-0.77987 15:-0.998883 16:0.106551 17:-0.41821 18:-0.485465 19:0.0817274 20:-0.975583 
100 1:-1 2:0.655646 3:0.61662 4:-0.431249 5:0.691431 6:-0.311046 7:-0.323805 8:-0.488574 9:-0.848115 10:0.48422 11:0.901945 12:0.149011 13:-0.331452 14:-0.785049 15:-0.999039 16:0.0494445 17:-0.34449 18:-0.789566 19:0.000230162 20:-0.940161 
100 1:-1 2:0.671982 3:0.619776 4:-0.431825 5:0.700268 6:-0.243806 7:-0.442318 8:-0.221182 9:-0.868773 10:0.486629 11:0.897365 12:0.141442 13:-0.351964 14:-0.784541 15:-0.998993 16:0.0750508 17:-0.42234 18:-0.930497 19:0.239278 20:-0.9428 
100 1:-1 2:0.67289 3:0.623649 4:-0.399134 5:0.695283 6:-0.35226 7:-0.276658 8:-0.30016 9:-0.864663 10:0.545316 11:0.848948 12:0.13574 13:-0.325055 14:-0.7847 15:-0.998979 16:0.0712878 17:-0.427836 18:-0.887748 19:0.23957 20:-0.956267 
100 1:-1 2:0.597952 3:0.604159 4:-0.489152 5:0.747406 6:-0.193035 7:-0.452133 8:-0.136604 9:-0.86192 10:0.386666 11:0.915975 12:0.318999 13:-0.317375 14:-0.75139 15:-0.999088 16:0.137966 17:-0.415912 18:-0.949338 19:-0.128584 20:-0.838101 
100 1:-0.950579 2:0.636523 3:0.646194 4:-0.504193 5:0.754592 6:-0.395813 7:-0.464349 8:-0.168847 9:-0.880371 10:0.484477 11:0.484056 12:-0.298 13:-0.777972 14:-0.888255 15:-0.999497 16:0.180616 17:-0.427508 18:-0.90228 19:-0.285869 20:-0.78235 
100 1:-1 2:0.598989 3:0.577982 4:-0.422877 5:0.753087 6:-0.138681 7:-0.420358 8:-0.144129 9:-0.836595 10:0.370766 11:0.875527 12:0.255922 13:-0.173937 14:-0.770597 15:-0.999108 16:0.13191 17:-0.0738038 18:-0.959727 19:-0.306549 20:-0.840972 
100 1:-0.943169 2:0.638014 3:0.68658 4:-0.52974 5:0.756104 6:-0.294938 7:-0.216764 8:-0.225127 9:-0.877319 10:0.445128 11:0.622512 12:-0.10568 13:-0.491001 14:-0.813469 15:-0.999252 16:0.193036 17:-0.345488 18:-0.897598 19:-0.192199 20:-0.798906 
100 1:-0.96382 2:0.639181 3:0.644784 4:-0.245002 5:0.744164 6:-0.0618704 7:-0.269929 8:-0.242311 9:-0.846951 10:0.452034 11:0.717212 12:0.0811573 13:-0.427579 14:-0.78983 15:-0.99916 16:0.0838572 17:-0.321084 18:-0.717498 19:-0.123112 20:-0.820989 
100 1:-0.937279 2:0.671075 3:0.654236 4:-0.522788 5:0.733925 6:-0.0857049 7:-0.168902 8:-0.174559 9:-0.790774 10:0.598863 11:0.791554 12:0.0738165 13:-0.490146 14:-0.792621 15:-0.999159 16:0.134091 17:-0.348396 18:-0.816295 19:-0.158625 20:-0.851031 
100 1:-1 2:0.609815 3:0.632779 4:-0.365291 5:0.757912 6:-0.112805 7:-0.236941 8:-0.144575 9:-0.83541 10:0.437419 11:0.848876 12:0.144571 13:-0.316211 14:-0.748644 15:-0.998101 16:-0.014578 17:-0.133417 18:-0.728361 19:-0.360109 20:-0.814917 
100 1:-0.950989 2:0.607675 3:0.634291 4:-0.355701 5:0.452358 6:-0.0846576 7:-0.532495 8:-0.341148 9:-0.734943 10:0.506513 11:0.689224 12:0.266383 13:-0.398177 14:-0.72549 15:-0.998975 16:0.0677923 17:-0.191573 18:-0.932946 19:-0.281994 20:-0.919649 
100 1:-1 2:0.575781 3:0.617728 4:-0.34765 5:0.706384 6:-0.261671 7:-0.329666 8:-0.235624 9:-0.874149 10:0.347189 11:0.769656 12:0.167559 13:-0.343573 14:-0.775427 15:-0.998911 16:0.0466908 17:-0.0838087 18:-0.898945 19:-0.141557 20:-0.868984 
100 1:-1 2:0.609944 3:0.608667 4:-0.341871 5:0.703706 6:-0.31529 7:-0.187956 8:-0.238807 9:-0.884341 10:0.455824 11:0.830707 12:0.144396 13:-0.28101 14:-0.767807 15:-0.99886 16:-0.00221176 17:-0.198805 18:-0.870151 19:-0.0550587 20:-0.877389 
100 1:-1 2:0.559575 3:0.622074 4:-0.335798 5:0.709499 6:-0.254696 7:-0.339366 8:-0.238001 9:-0.854456 10:0.460225 11:0.871083 12:0.142434 13:-0.349645 14:-0.749919 15:-0.99888 16:0.045126 17:-0.103165 18:-0.865803 19:0.0419655 20:-0.905029 
100 1:-1 2:0.63179 3:0.597847 4:-0.341688 5:0.706735 6:-0.283714 7:-0.283892 8:-0.222225 9:-0.885196 10:0.467645 11:0.6624 12:0.222927 13:-0.114703 14:-0.765051 15:-0.998937 16:0.0156517 17:-0.362745 18:-0.765826 19:0.170336 20:-0.914064 
100 1:-0.999824 2:0.652664 3:0.642083 4:-0.15724 5:0.613553 6:-0.3145 7:-0.215311 8:-0.411711 9:-0.806567 10:0.632173 11:0.0407216 12:-0.177944 13:-0.743389 14:-0.809632 15:-0.99895 16:-0.225437 17:-0.244515 18:-0.664322 19:-0.342158 20:-0.95478 
100 1:-0.966668 2:0.656554 3:0.582227 4:-0.253237 5:0.613893 6:-0.360383 7:-0.244646 8:-0.403626 9:-0.798772 10:0.632591 11:0.578275 12:0.343432 13:-0.459042 14:-0.843282 15:-0.998983 16:-0.228831 17:-0.231148 18:-0.444679 19:-0.356674 20:-0.929841 
100 1:-0.965963 2:0.619474 3:0.663914 4:-0.218122 5:0.618852 6:-0.152363 7:-0.285849 8:-0.411641 9:-0.739123 10:0.542618 11:0.159565 12:0.417419 13:-0.5869 14:-0.652523 15:-0.998204 16:-0.209657 17:-0.307144 18:-0.347164 19:0.133055 20:-0.917182 
100 1:-0.967569 2:0.64132 3:0.667244 4:-0.136363 5:0.616813 6:-0.160271 7:-0.247189 8:-0.425504 9:-0.73505 10:0.53478 11:0.719413 12:-0.0328832 13:-0.40539 14:-0.712144 15:-0.998322 16:-0.252852 17:-0.303938 18:-0.781576 19:0.113598 20:-0.920012 
100 1:-0.949203 2:0.651757 3:0.558895 4:-0.287863 5:0.613668 6:-0.210259 7:-0.151741 8:-0.282947 9:-0.786749 10:0.57429 11:0.416596 12:-0.400875 13:-0.423259 14:-0.829767 15:-0.999001 16:-0.136089 17:-0.192392 18:-0.445615 19:-0.339586 20:-0.827966 
100 1:-0.988203 2:0.61539 3:0.643893 4:-0.130979 5:0.61405 6:-0.137168 7:-0.480865 8:-0.413362 9:-0.698725 10:0.539438 11:-0.0798611 12:-0.369338 13:-0.559204 14:-0.590177 15:-0.998824 16:-0.31725 17:-0.351612 18:-0.742085 19:0.0409307 20:-0.919015 
100 1:-0.974681 2:0.666926 3:0.653371 4:-0.122544 5:0.616782 6:-0.154216 7:-0.193612 8:-0.402478 9:-0.732083 10:0.553025 11:0.529367 12:0.612267 13:-0.584145 14:-0.527116 15:-0.998969 16:-0.377733 17:-0.332179 18:-0.671004 19:0.199388 20:-0.925235 
100 1:-0.955477 2:0.661221 3:0.523197 4:-0.280926 5:0.613536 6:-0.213035 7:-0.181341 8:-0.260728 9:-0.812979 10:0.55492 11:0.303283 12:-0.423669 13:-0.288046 14:-0.837902 15:-0.998745 16:-0.141553 17:-0.15824 18:-0.601975 19:-0.349467 20:-0.856259 
100 1:-0.94584 2:0.660962 3:0.600622 4:-0.274585 5:0.614017 6:-0.201419 7:-0.174981 8:-0.281916 9:-0.793682 10:0.577855 11:0.44333 12:-0.377586 13:-0.364836 14:-0.835319 15:-0.998717 16:-0.158031 17:-0.225399 18:-0.935948 19:-0.373846 20:-0.892194 
100 1:-0.947092 2:0.55024 3:0.578503 4:-0.203577 5:0.611091 6:-0.174414 7:-0.541068 8:-0.36646 9:-0.763773 10:0.549909 11:0.500403 12:0.304466 13:-0.638687 14:-0.673131 15:-0.997794 16:-0.25757 17:0.271061 18:-0.467483 19:-0.13906 20:-0.957723 
100 1:-0.99213 2:0.632115 3:0.546002 4:-0.19693 5:0.612475 6:-0.162934 7:-0.676103 8:-0.357317 9:-0.749038 10:0.522766 11:0.224578 12:0.200752 13:-0.702772 14:-0.75593 15:-0.997964 16:-0.170275 17:-0.0370542 18:-0.513772 19:-0.361534 20:-0.927324 
100 1:-0.963943 2:0.658304 3:0.659789 4:-0.279963 5:0.613236 6:-0.210205 7:-0.180978 8:-0.32535 9:-0.789946 10:0.546247 11:0.551673 12:0.135502 13:-0.437447 14:-0.838221 15:-0.998568 16:-0.11662 17:-0.0188737 18:-0.830275 19:-0.36466 20:-0.835734 
100 1:-0.948854 2:0.638986 3:0.637515 4:-0.284844 5:0.61252 6:-0.184713 7:-0.571812 8:-0.399488 9:-0.695811 10:0.611037 11:0.277555 12:-0.0824638 13:-0.700762 14:-0.727748 15:-0.999404 16:-0.177141 17:-0.428993 18:-0.770802 19:-0.216082 20:-0.938419 
100 1:-1 2:0.643459 3:0.591247 4:-0.288946 5:0.701366 6:-0.384446 7:0.0694696 8:-0.213801 9:-0.872267 10:0.535551 11:0.733804 12:0.139286 13:-0.256747 14:-0.742633 15:-0.99896 16:-0.0803414 17:0.0140125 18:-0.914336 19:0.12888 20:-0.838563 
100 1:-1 2:0.634448 3:0.551047 4:-0.226685 5:0.715501 6:-0.366669 7:-0.403739 8:-0.213163 9:-0.816617 10:0.57127 11:0.730801 12:0.455282 13:-0.326863 14:-0.663037 15:-0.998673 16:-0.0515784 17:-0.243878 18:-0.771815 19:0.256324 20:-0.738026 
100 1:-1 2:0.552898 3:0.604323 4:-0.29394 5:0.698978 6:-0.284859 7:-0.0419952 8:-0.210978 9:-0.857522 10:0.537574 11:0.763086 12:0.364561 13:-0.34553 14:-0.772277 15:-0.998794 16:-0.0930904 17:-0.362577 18:-0.837804 19:0.108612 20:-0.804391 
100 1:-1 2:0.615325 3:0.614741 4:-0.332235 5:0.709665 6:-0.337261 7:-0.253701 8:-0.225068 9:-0.866286 10:0.463951 11:0.841291 12:0.160793 13:-0.350715 14:-0.739006 15:-0.998879 16:0.0565066 17:-0.248222 18:-0.886709 19:0.206877 20:-0.883108 
100 1:-1 2:0.667056 3:0.613636 4:-0.392195 5:0.69966 6:-0.279616 7:-0.410831 8:-0.323754 9:-0.869818 10:0.475965 11:0.784672 12:0.159077 13:-0.345345 14:-0.783991 15:-0.998947 16:0.0618615 17:-0.424123 18:-0.959714 19:0.23953 20:-0.948297 
100 1:-1 2:0.581356 3:0.613472 4:-0.230997 5:0.69422 6:-0.347914 7:0.036638 8:-0.214353 9:-0.890863 10:0.478984 11:0.739774 12:0.266864 13:-0.329618 14:-0.76579 15:-0.998995 16:-0.0319537 17:0.00140466 18:-0.729977 19:0.137398 20:-0.800316 
100 1:-1 2:0.552379 3:0.619765 4:-0.283913 5:0.694846 6:-0.354188 7:-0.142057 8:-0.230635 9:-0.842169 10:0.49209 11:0.739115 12:0.245362 13:-0.22791 14:-0.768018 15:-0.998959 16:-0.115072 17:-0.0607851 18:-0.893456 19:0.158605 20:-0.873637 
100 1:-1 2:0.468754 3:0.609134 4:-0.285934 5:0.706038 6:-0.368466 7:-0.342365 8:-0.277517 9:-0.81755 10:0.465493 11:0.686129 12:0.15831 13:-0.157146 14:-0.657869 15:-0.999012 16:-0.0455223 17:-0.367137 18:-0.930676 19:0.315335 20:-0.868105 
100 1:-1 2:0.641514 3:0.612182 4:-0.345203 5:0.711136 6:-0.273977 7:-0.319532 8:-0.216275 9:-0.847941 10:0.525722 11:0.668919 12:0.13574 13:-0.187576 14:-0.774213 15:-0.998976 16:0.0571298 17:-0.252969 18:-0.73698 19:-0.0603464 20:-0.863811 
100 1:-1 2:0.593738 3:0.543665 4:-0.235913 5:0.718466 6:-0.366284 7:-0.270152 8:-0.274252 9:-0.834692 10:0.563529 11:0.742662 12:0.16895 13:-0.291278 14:-0.723081 15:-0.998931 16:-0.25632 17:-0.269472 18:-0.934716 19:0.259532 20:-0.893949 
100 1:-1 2:0.640996 3:0.591777 4:-0.242472 5:0.706534 6:-0.376677 7:-0.37312 8:-0.207421 9:-0.864504 10:0.487625 11:0.870366 12:0.204415 13:-0.359559 14:-0.728896 15:-0.998949 16:-0.363132 17:-0.284693 18:-0.924456 19:0.264688 20:-0.910506 
100 1:-1 2:0.684299 3:0.601594 4:-0.335116 5:0.703885 6:-0.301709 7:-0.446038 8:-0.215086 9:-0.870053 10:0.480012 11:0.877365 12:0.117825 13:-0.154816 14:-0.747717 15:-0.999009 16:0.0772118 17:-0.333141 18:-0.712162 19:-0.0500752 20:-0.882038 
100 1:-1 2:0.605601 3:0.541471 4:-0.359707 5:0.785788 6:-0.278182 7:-0.165991 8:-0.372552 9:-0.833262 10:0.5369 11:0.910035 12:0.288729 13:-0.24514 14:-0.758304 15:-0.997892 16:0.0338403 17:0.121592 18:-0.956803 19:-0.135603 20:-0.799976 
100 1:-0.920903 2:0.619538 3:0.642186 4:-0.388732 5:0.772248 6:-0.258844 7:-0.427364 8:-0.370127 9:-0.807705 10:0.54265 11:0.879895 12:0.0256681 13:-0.453191 14:-0.771456 15:-0.998443 16:0.017816 17:-0.0343491 18:-0.40456 19:-0.0137497 20:-0.880175 
100 1:-0.844876 2:0.612278 3:0.610253 4:-0.34865 5:0.776577 6:-0.25946 7:-0.460521 8:-0.367732 9:-0.791055 10:0.586881 11:0.907146 12:0.0392317 13:-0.630308 14:-0.773085 15:-0.999168 16:0.0948483 17:-0.223293 18:-0.873742 19:-0.0224277 20:-0.82535 
100 1:-0.906474 2:0.663944 3:0.57083 4:-0.374248 5:0.769753 6:-0.277594 7:-0.372518 8:-0.366898 9:-0.839602 10:0.485537 11:0.565488 12:0.243413 13:-0.106392 14:-0.80488 15:-0.998899 16:0.0754471 17:-0.0818871 18:-0.875666 19:-0.0210408 20:-0.883187 
100 1:-1 2:0.617658 3:0.616473 4:-0.325329 5:0.785874 6:-0.264352 7:-0.174232 8:-0.379834 9:-0.845234 10:0.548592 11:0.952713 12:0.277688 13:-0.158463 14:-0.805138 15:-0.997773 16:-0.0247019 17:0.122306 18:-0.932549 19:-0.207532 20:-0.797905 
100 1:-0.809284 2:0.651173 3:0.571434 4:-0.367359 5:0.76855 6:-0.269758 7:-0.512298 8:-0.370548 9:-0.841291 10:0.539534 11:0.807489 12:0.119554 13:-0.543962 14:-0.758889 15:-0.998795 16:0.0817606 17:-0.00130848 18:-0.696143 19:-0.0151326 20:-0.84098 
100 1:-1 2:0.610009 3:0.507772 4:-0.36705 5:0.777907 6:-0.268197 7:-0.173896 8:-0.371372 9:-0.837625 10:0.437194 11:0.722308 12:0.195018 13:-0.386864 14:-0.774067 15:-0.998222 16:0.0312627 17:0.161199 18:-0.959573 19:-0.246217 20:-0.796538 
100 1:-0.925856 2:0.707636 3:0.566281 4:-0.54903 5:0.664844 6:0.0109318 7:-0.304149 8:-0.819741 9:-0.810309 10:0.510142 11:-0.266662 12:-0.633149 13:-0.530331 14:-0.878422 15:-0.999422 16:0.240821 17:-0.336936 18:-0.370097 19:-0.0497849 20:-0.94022 
100 1:-0.918121 2:0.662647 3:0.701923 4:-0.547375 5:0.652216 6:0.0268201 7:-0.279191 8:-0.825329 9:-0.802959 10:0.466553 11:-0.16776 12:-0.431688 13:-0.769168 14:-0.888737 15:-0.999434 16:0.213203 17:-0.289757 18:-0.465367 19:-0.270704 20:-0.910905 
100 1:-0.786155 2:0.685855 3:0.606303 4:-0.479752 5:0.651639 6:-0.00557293 7:-0.286559 8:-0.821519 9:-0.80915 10:0.51223 11:0.073219 12:-0.555229 13:-0.506978 14:-0.926521 15:-0.99941 16:0.296491 17:-0.379437 18:-0.454888 19:-0.159526 20:-0.924979 
100 1:-0.985999 2:0.589913 3:0.652025 4:-0.333417 5:0.674201 6:-0.258733 7:-0.18717 8:-0.313339 9:-0.760651 10:0.447633 11:0.748542 12:0.22778 13:-0.355915 14:-0.779881 15:-0.998487 16:-0.0260906 17:-0.27769 18:-0.900099 19:-0.121872 20:-0.833147 
100 1:-0.870171 2:0.696227 3:0.644706 4:-0.519871 5:0.648316 6:0.123982 7:-0.321441 8:-0.777009 9:-0.806896 10:0.485344 11:0.0568202 12:0.0310289 13:-0.546394 14:-0.8107 15:-0.999059 16:0.173953 17:-0.183696 18:-0.569372 19:-0.236414 20:-0.924853 
100 1:-0.876661 2:0.702256 3:0.684585 4:-0.555458 5:0.644273 6:0.105959 7:-0.250718 8:-0.734132 9:-0.801562 10:0.490805 11:0.17641 12:-0.0380554 13:-0.571027 14:-0.915512 15:-0.999163 16:0.206713 17:-0.194605 18:-0.314599 19:-0.205911 20:-0.909735 
100 1:-0.872312 2:0.702126 3:0.661261 4:-0.472293 5:0.647807 6:0.0849468 7:-0.280964 8:-0.782018 9:-0.802986 10:0.520518 11:0.220585 12:0.0960993 13:-0.303462 14:-0.79832 15:-0.999194 16:0.328546 17:-0.32081 18:-0.51685 19:-0.294347 20:-0.931097 
100 1:-1 2:0.630299 3:0.57054 4:-0.398864 5:0.766567 6:-0.257118 7:-0.180213 8:-0.830282 9:-0.859624 10:0.436519 11:0.78543 12:0.0356713 13:-0.317143 14:-0.787569 15:-0.997296 16:-0.0961489 17:0.143317 18:-0.966704 19:0.103152 20:-0.795033 
100 1:-1 2:0.632244 3:0.573038 4:-0.285542 5:0.764361 6:-0.256536 7:-0.0794519 8:-0.832785 9:-0.859236 10:0.420394 11:0.519278 12:-0.00104163 13:-0.292271 14:-0.784804 15:-0.997411 16:-0.0855101 17:0.339471 18:-0.831314 19:0.254735 20:-0.793175 
100 1:-1 2:0.58369 3:0.502788 4:-0.279244 5:0.612227 6:-0.17472 7:-0.403929 8:-0.264218 9:-0.784706 10:0.502112 11:0.858976 12:0.48275 13:-0.271792 14:-0.595735 15:-0.998535 16:-0.255054 17:0.156084 18:-0.95239 19:-0.0956171 20:-0.997798 
100 1:-0.976861 2:0.668482 3:0.638696 4:-0.312856 5:0.614211 6:-0.199435 7:-0.174482 8:-0.368025 9:-0.827148 10:0.533913 11:0.226696 12:0.0336734 13:-0.383226 14:-0.776028 15:-0.998834 16:-0.159609 17:-0.0947495 18:-0.837843 19:-0.343701 20:-0.87601 
100 1:-1 2:0.629911 3:0.50296 4:-0.247414 5:0.613202 6:-0.167012 7:-0.570158 8:-0.263317 9:-0.821469 10:0.503301 11:0.917398 12:0.343015 13:-0.203887 14:-0.733861 15:-0.997949 16:-0.334812 17:0.270244 18:-0.951852 19:-0.0625199 20:-0.908529 
100 1:-0.954273 2:0.633995 3:0.560884 4:-0.265323 5:0.614492 6:-0.202628 7:-0.159511 8:-0.307111 9:-0.806621 10:0.534427 11:-0.186707 12:-0.361683 13:-0.50441 14:-0.847383 15:-0.998862 16:-0.129237 17:0.0397974 18:-0.806586 19:-0.369593 20:-0.873476 
100 1:-1 2:0.565992 3:0.48976 4:-0.0584139 5:0.618785 6:-0.241969 7:-0.233812 8:-0.235875 9:-0.803569 10:0.498161 11:0.855624 12:0.370407 13:-0.101137 14:-0.730823 15:-0.99815 16:-0.119374 17:0.0875839 18:-0.857056 19:-0.289053 20:-0.853738 
100 1:-0.954211 2:0.642487 3:0.618665 4:-0.307593 5:0.613922 6:-0.215081 7:-0.179514 8:-0.379249 9:-0.837245 10:0.588937 11:-0.147711 12:-0.165861 13:-0.373632 14:-0.828582 15:-0.998706 16:-0.132309 17:-0.210104 18:-0.934101 19:-0.352808 20:-0.910881 
100 1:-0.995804 2:0.625438 3:0.640984 4:-0.206772 5:0.80304 6:-0.355582 7:-0.333928 8:-0.885584 9:-0.839412 10:0.510849 11:0.62115 12:0.26993 13:-0.484916 14:-0.720683 15:-0.997965 16:-0.245004 17:-0.192569 18:-0.873909 19:0.0497669 20:-0.955819 
100 1:-1 2:0.57254 3:0.522295 4:-0.223375 5:0.808404 6:-0.371548 7:-0.522182 8:-0.841358 9:-0.841074 10:0.461446 11:0.858218 12:0.336451 13:-0.291525 14:-0.685807 15:-0.997764 16:-0.261584 17:-0.16797 18:-0.8888 19:0.279941 20:-0.93473 
100 1:-0.987312 2:0.672825 3:0.568154 4:-0.188258 5:0.802712 6:-0.334235 7:-0.109632 8:-0.877865 9:-0.814511 10:0.569471 11:0.677179 12:0.215703 13:-0.37792 14:-0.723524 15:-0.997848 16:-0.243734 17:-0.0540223 18:-0.89334 19:0.0108016 20:-0.948839 
100 1:-1 2:0.633022 3:0.563817 4:-0.154007 5:0.842901 6:-0.645356 7:-0.358746 8:-0.492371 9:-0.769062 10:0.508601 11:0.14201 12:-0.806275 13:-0.663368 14:-0.916159 15:-0.998887 16:-0.230826 17:-0.219363 18:-0.76217 19:0.167051 20:-0.692635 
100 1:-1 2:0.524763 3:0.596064 4:-0.172524 5:0.84281 6:-0.622725 7:-0.394142 8:-0.507172 9:-0.760413 10:0.452098 11:0.783104 12:-0.154318 13:-0.627861 14:-0.673754 15:-0.99961 16:-0.224279 17:-0.37583 18:-0.811126 19:-0.0225218 20:-0.725453 
100 1:-1 2:0.518346 3:0.532383 4:-0.148133 5:0.843228 6:-0.619092 7:-0.415429 8:-0.513392 9:-0.793533 10:0.398037 11:-0.389309 12:0.152226 13:-0.708811 14:-0.876571 15:-0.998639 16:-0.214818 17:-0.240269 18:-0.802495 19:0.0637948 20:-0.713159 
100 1:-0.939986 2:0.647219 3:0.600068 4:-0.593575 5:0.523622 6:0.101431 7:-0.514326 8:-0.781232 9:-0.781571 10:0.518494 11:0.599142 12:-0.011 13:-0.205705 14:-0.805247 15:-0.998912 16:0.175915 17:-0.444127 18:-0.863302 19:-0.243293 20:-0.906236 
100 1:-0.994635 2:0.645598 3:0.607348 4:-0.506669 5:0.519851 6:0.101946 7:-0.673316 8:-0.789092 9:-0.785775 10:0.418563 11:0.725517 12:0.0553455 13:-0.382531 14:-0.807817 15:-0.99894 16:-0.0294777 17:-0.303337 18:-0.864854 19:-0.25885 20:-0.861154 
100 1:-0.923943 2:0.657656 3:0.5999 4:-0.57918 5:0.517441 6:0.106849 7:-0.444211 8:-0.596596 9:-0.789666 10:0.511331 11:0.572657 12:0.0117632 13:-0.476587 14:-0.805307 15:-0.998918 16:0.156984 17:-0.386592 18:-0.901177 19:-0.214695 20:-0.929558 
100 1:-1 2:0.594905 3:0.532908 4:-0.181624 5:0.783926 6:-0.413865 7:-0.0666338 8:-0.755333 9:-0.823527 10:0.445128 11:0.604018 12:0.175874 13:-0.357464 14:-0.749027 15:-0.998701 16:-0.207526 17:-0.292213 18:-0.780922 19:0.00973483 20:-0.752954 
100 1:-1 2:0.612797 3:0.553322 4:-0.266069 5:0.78905 6:-0.384084 7:-0.147647 8:-0.758024 9:-0.816696 10:0.513708 11:0.702169 12:0.155405 13:-0.398159 14:-0.749268 15:-0.998893 16:-0.223181 17:-0.287717 18:-0.732812 19:0.0283559 20:-0.754027 
100 1:-1 2:0.600739 3:0.671331 4:-0.243949 5:0.560974 6:-0.0114424 7:-0.085026 8:-0.3999 9:-0.760842 10:0.502497 11:0.848811 12:0.0199975 13:-0.211341 14:-0.709882 15:-0.997903 16:-0.0273269 17:-0.175468 18:-0.807394 19:-0.295259 20:-0.919494 
100 1:-1 2:0.631661 3:0.673729 4:-0.241149 5:0.56195 6:-0.00120969 7:-0.086349 8:-0.207212 9:-0.711666 10:0.617333 11:0.771765 12:0.440811 13:-0.352336 14:-0.70581 15:-0.998179 16:-0.175569 17:0.000991879 18:-0.835483 19:-0.0536997 20:-0.904644 
100 1:-1 2:0.538442 3:0.428529 4:-0.246128 5:0.741696 6:-0.24165 7:-0.335088 8:-0.341508 9:-0.773212 10:0.415801 11:0.624562 12:0.324445 13:-0.167222 14:-0.661056 15:-0.998161 16:-0.0814761 17:-0.034846 18:-0.951839 19:-0.320177 20:-0.886706 
100 1:-0.98 2:0.647997 3:0.627618 4:-0.149869 5:0.685137 6:-0.346986 7:-0.19834 8:-0.556356 9:-0.696782 10:0.582288 11:0.521098 12:0.171577 13:-0.53541 14:-0.737206 15:-0.998785 16:-0.260456 17:-0.460496 18:-0.871228 19:0.0600762 20:-0.8768 
100 1:-0.996857 2:0.61727 3:0.585446 4:-0.347408 5:0.681714 6:-0.278484 7:-0.170497 8:-0.521576 9:-0.705308 10:0.486822 11:0.451001 12:0.0756663 13:-0.461258 14:-0.769045 15:-0.998523 16:-0.133715 17:-0.213414 18:-0.911309 19:0.0104353 20:-0.869988 
100 1:-0.969647 2:0.639764 3:0.620635 4:-0.213027 5:0.674613 6:-0.263343 7:-0.219877 8:-0.556904 9:-0.803032 10:0.574129 11:0.42069 12:0.0852744 13:-0.540913 14:-0.753431 15:-0.998886 16:-0.139951 17:-0.565754 18:-0.716702 19:0.0252037 20:-0.889667 
100 1:-0.987823 2:0.635615 3:0.623101 4:-0.209767 5:0.678245 6:-0.260693 7:-0.267316 8:-0.563468 9:-0.707215 10:0.58065 11:0.547783 12:0.252618 13:-0.53951 14:-0.694889 15:-0.998561 16:-0.225142 17:-0.146381 18:-0.884875 19:0.0903554 20:-0.847589 
100 1:-0.970217 2:0.668936 3:0.631893 4:-0.190541 5:0.677751 6:-0.307584 7:-0.452496 8:-0.561221 9:-0.747312 10:0.592471 11:0.612397 12:0.188813 13:-0.473966 14:-0.761408 15:-0.998826 16:-0.0751931 17:-0.32759 18:-0.869766 19:-0.017126 20:-0.89949 
100 1:-0.979638 2:0.653572 3:0.627123 4:-0.19627 5:0.674465 6:-0.27727 7:-0.527209 8:-0.558138 9:-0.758617 10:0.590865 11:0.379413 12:0.0608096 13:-0.516439 14:-0.757078 15:-0.998976 16:-0.0595041 17:-0.318241 18:-0.748139 19:0.0601062 20:-0.877691 
100 1:-0.968389 2:0.661934 3:0.648309 4:-0.208219 5:0.673917 6:-0.279056 7:-0.390053 8:-0.561188 9:-0.762558 10:0.585661 11:0.360238 12:0.19672 13:-0.518928 14:-0.763663 15:-0.998962 16:-0.14203 17:-0.144822 18:-0.874679 19:-0.0164115 20:-0.893165 
100 1:-0.994461 2:0.636134 3:0.608507 4:-0.194591 5:0.677425 6:-0.354709 7:-0.315492 8:-0.57322 9:-0.730221 10:0.529351 11:0.645631 12:0.14102 13:-0.54505 14:-0.764905 15:-0.998694 16:-0.258728 17:0.0147259 18:-0.697066 19:0.0346303 20:-0.854612 
100 1:-0.98083 2:0.622391 3:0.594715 4:-0.206326 5:0.681121 6:-0.293745 7:-0.182637 8:-0.502165 9:-0.687493 10:0.446027 11:0.421703 12:0.0575904 13:-0.512158 14:-0.772387 15:-0.998494 16:-0.229857 17:-0.148928 18:-0.916029 19:0.0985832 20:-0.851606 
100 1:-0.98 2:0.663231 3:0.652789 4:-0.164946 5:0.684029 6:-0.347335 7:-0.272006 8:-0.568937 9:-0.789521 10:0.604677 11:0.362897 12:0.0438697 13:-0.524975 14:-0.751801 15:-0.998901 16:-0.232401 17:-0.365414 18:-0.853875 19:0.106557 20:-0.875662 
100 1:-1 2:0.601841 3:0.630783 4:-0.506503 5:0.66948 6:-0.182832 7:-0.394272 8:-0.725776 9:-0.807202 10:0.441273 11:0.666089 12:0.246857 13:-0.371692 14:-0.791803 15:-0.998774 16:0.133708 17:-0.0901087 18:-0.830147 19:0.0447114 20:-0.847588 
100 1:-1 2:0.53157 3:0.548974 4:-0.120456 5:0.664186 6:-0.192458 7:-0.166853 8:-0.745328 9:-0.796028 10:0.40883 11:0.724146 12:0.274101 13:-0.318492 14:-0.719587 15:-0.998719 16:-0.147355 17:-0.0835643 18:-0.962112 19:0.135249 20:-0.813814 
100 1:-1 2:0.601906 3:0.560516 4:-0.0797709 5:0.656797 6:-0.185451 7:-0.215799 8:-0.726212 9:-0.792174 10:0.462506 11:0.806122 12:0.247863 13:-0.302635 14:-0.74593 15:-0.99868 16:-0.0838978 17:-0.0915454 18:-0.901254 19:0.352191 20:-0.838062 
100 1:-0.923375 2:0.675937 3:0.67344 4:-0.39434 5:0.677395 6:-0.114092 7:-0.378737 8:-0.284095 9:-0.759916 10:0.549074 11:0.694089 12:-0.107279 13:-0.452472 14:-0.77002 15:-0.99963 16:-0.0404214 17:-0.238442 18:-0.715805 19:-0.0467328 20:-0.857087 
100 1:-0.900784 2:0.647089 3:0.676352 4:-0.391652 5:0.677654 6:-0.17243 7:-0.729019 8:-0.26936 9:-0.766857 10:0.578883 11:0.398003 12:-0.376302 13:-0.816028 14:-0.803902 15:-0.998985 16:-0.0392596 17:-0.21867 18:-0.750191 19:-0.0303613 20:-0.850875 
100 1:-0.875934 2:0.583106 3:0.703353 4:-0.380219 5:0.686691 6:-0.154043 7:-0.416118 8:-0.264637 9:-0.77392 10:0.541525 11:-0.0296762 12:-0.167859 13:-0.883701 14:-0.751389 15:-0.999644 16:-0.145502 17:-0.113433 18:-0.712149 19:0.0248274 20:-0.927308 
100 1:-0.791439 2:0.627642 3:0.690508 4:-0.390673 5:0.684442 6:-0.103255 7:-0.828305 8:-0.258662 9:-0.752814 10:0.624817 11:-0.362095 12:-0.248325 13:-0.572272 14:-0.798544 15:-0.998731 16:-0.0656584 17:-0.241788 18:-0.791131 19:-0.0538158 20:-0.861459 
100 1:-0.862945 2:0.649164 3:0.694326 4:-0.258595 5:0.684131 6:-0.102852 7:-0.511441 8:-0.249659 9:-0.750484 10:0.530411 11:-0.585351 12:0.0134289 13:-0.395285 14:-0.899356 15:-0.998863 16:-0.110598 17:-0.0615766 18:-0.632603 19:0.00254979 20:-0.84507 
100 1:-0.886209 2:0.676196 3:0.717705 4:-0.374564 5:0.685695 6:-0.140389 7:-0.760668 8:-0.243372 9:-0.750484 10:0.642099 11:-0.375601 12:-0.109102 13:-0.511886 14:-0.848253 15:-0.999434 16:-0.225572 17:-0.0480109 18:-0.712675 19:0.0529672 20:-0.879309 
100 1:-0.867856 2:0.662712 3:0.718061 4:-0.323126 5:0.677419 6:-0.175828 7:-0.664852 8:-0.287254 9:-0.758989 10:0.600533 11:0.436403 12:-0.558461 13:-0.445433 14:-0.885122 15:-0.999526 16:-0.0278079 17:-0.192645 18:-0.719486 19:-0.0590935 20:-0.881929 
100 1:-0.93857 2:0.628809 3:0.735441 4:-0.384436 5:0.688849 6:-0.130709 7:-0.414594 8:-0.227908 9:-0.804115 10:0.469316 11:-0.1648 12:-0.407421 13:-0.61447 14:-0.854433 15:-0.999615 16:-0.0676975 17:-0.10111 18:-0.673608 19:-0.106143 20:-0.865339 
100 1:-0.804987 2:0.632115 3:0.605648 4:-0.410486 5:0.694905 6:-0.221876 7:-0.794861 8:-0.239025 9:-0.808291 10:0.49951 11:-0.613188 12:-0.0577565 13:-0.749611 14:-0.859203 15:-0.999769 16:-0.032482 17:-0.121791 18:-0.681431 19:-0.185422 20:-0.972716 
100 1:-0.925906 2:0.668093 3:0.565862 4:-0.266852 5:0.686281 6:-0.211096 7:-0.303 8:-0.326403 9:-0.750484 10:0.54069 11:-0.0354644 12:-0.214207 13:-0.448794 14:-0.790401 15:-0.999228 16:-0.228553 17:-0.154439 18:-0.649867 19:0.0953029 20:-0.773334 
100 1:-0.964434 2:0.642616 3:0.736555 4:-0.228101 5:0.683821 6:-0.198136 7:-0.446 8:-0.271233 9:-0.750484 10:0.562662 11:0.485929 12:-0.385196 13:-0.529918 14:-0.772923 15:-0.999202 16:-0.123185 17:-0.059649 18:-0.707032 19:0.0154889 20:-0.89317 
100 1:-0.951247 2:0.670038 3:0.683586 4:-0.398889 5:0.674255 6:-0.232863 7:-0.391143 8:-0.280811 9:-0.762774 10:0.533238 11:-0.297963 12:-0.0157681 13:-0.511951 14:-0.770213 15:-0.999559 16:-0.0412681 17:-0.217081 18:-0.812512 19:-0.0635606 20:-0.868549 
100 1:-0.935598 2:0.66537 3:0.677738 4:-0.396337 5:0.700403 6:-0.149779 7:-0.606856 8:-0.235476 9:-0.802684 10:0.524437 11:0.295541 12:0.300955 13:-0.463089 14:-0.877108 15:-0.999649 16:-0.0634196 17:-0.116455 18:-0.714201 19:-0.198001 20:-0.902102 
100 1:-0.746474 2:0.671723 3:0.716582 4:-0.221008 5:0.689406 6:-0.206291 7:-0.219085 8:-0.232417 9:-0.774315 10:0.581581 11:0.486785 12:0.0203028 13:-0.348906 14:-0.767118 15:-0.999233 16:-0.0979474 17:-0.176598 18:-0.713393 19:-0.00734716 20:-0.914388 
100 1:-0.972057 2:0.658369 3:0.664353 4:-0.4263 5:0.77996 6:-0.48666 7:-0.510454 8:-0.646302 9:-0.872904 10:0.570274 11:-0.275877 12:-0.274676 13:-0.686282 14:-0.856435 15:-0.999484 16:-0.10777 17:-0.315409 18:-0.595024 19:-0.164816 20:-0.872082 
100 1:-0.975126 2:0.680345 3:0.66034 4:-0.438952 5:0.779747 6:-0.505653 7:-0.526493 8:-0.638808 9:-0.88041 10:0.577373 11:-0.125782 12:-0.228647 13:-0.766586 14:-0.859043 15:-0.999114 16:-0.0840435 17:-0.320563 18:-0.477051 19:-0.163571 20:-0.868976 
100 1:-1 2:0.648191 3:0.646349 4:-0.421517 5:0.791886 6:-0.481311 7:-0.108651 8:-0.611481 9:-0.789169 10:0.57551 11:0.483429 12:0.0374897 13:-0.493479 14:-0.74884 15:-0.998974 16:-0.0498069 17:-0.0936474 18:-0.455055 19:-0.072661 20:-0.876855 
100 1:-0.952213 2:0.781278 3:0.686287 4:-0.438176 5:0.790756 6:-0.469903 7:-0.37332 8:-0.636827 9:-0.871801 10:0.617204 11:-0.0327328 12:-0.116038 13:-0.687061 14:-0.857236 15:-0.999228 16:0.0226561 17:-0.618333 18:-0.572463 19:-0.121043 20:-0.863651 
100 1:-0.986286 2:0.686633 3:0.68095 4:-0.432406 5:0.786482 6:-0.548954 7:-0.53133 8:-0.621186 9:-0.884441 10:0.566195 11:0.249582 12:-0.33408 13:-0.625055 14:-0.855889 15:-0.99918 16:-0.0360249 17:-0.324485 18:-0.475884 19:-0.445385 20:-0.869016 
100 1:-0.973861 2:0.653442 3:0.675807 4:-0.427367 5:0.788608 6:-0.547158 7:-0.377571 8:-0.638868 9:-0.882612 10:0.563722 11:-0.11578 12:-0.336419 13:-0.710803 14:-0.82507 15:-0.999253 16:-0.0864788 17:-0.317652 18:-0.605015 19:-0.143062 20:-0.87036 
100 1:-0.913649 2:0.665629 3:0.670077 4:-0.39019 5:0.792532 6:-0.494118 7:-0.587179 8:-0.647306 9:-0.869707 10:0.529191 11:0.380934 12:-0.0241371 13:-0.611723 14:-0.800244 15:-0.999039 16:-0.00674367 17:-0.534913 18:-0.622727 19:-0.0760794 20:-0.894113 
100 1:-0.90409 2:0.657786 3:0.718054 4:-0.397821 5:0.796283 6:-0.503178 7:-0.579859 8:-0.657909 9:-0.865996 10:0.532788 11:0.396359 12:-0.0313028 13:-0.642722 14:-0.801528 15:-0.999153 16:-0.106977 17:-0.556027 18:-0.72754 19:-0.071224 20:-0.964385 
100 1:-0.879883 2:0.717684 3:0.705612 4:-0.441393 5:0.79093 6:-0.44624 7:-0.374101 8:-0.641212 9:-0.873776 10:0.633073 11:-0.0567059 12:-0.246125 13:-0.567101 14:-0.813677 15:-0.999135 16:0.230318 17:-0.607665 18:-0.574746 19:-0.344496 20:-0.851475 
100 1:-1 2:0.655841 3:0.647433 4:-0.253556 5:0.799446 6:-0.476261 7:-0.24978 8:-0.610709 9:-0.830947 10:0.606958 11:0.573141 12:0.0455354 13:-0.412834 14:-0.762714 15:-0.99871 16:-0.0491634 17:-0.146692 18:-0.422618 19:-0.0733535 20:-0.869906 
100 1:-0.873197 2:0.705238 3:0.65825 4:-0.438601 5:0.79145 6:-0.421976 7:-0.373608 8:-0.642905 9:-0.870514 10:0.681609 11:0.461002 12:-0.490262 13:-0.559912 14:-0.894716 15:-0.999344 16:0.0265174 17:-0.464516 18:-0.544567 19:-0.430692 20:-0.851351 
100 1:-0.979305 2:0.674835 3:0.686879 4:-0.435456 5:0.791379 6:-0.446433 7:-0.384935 8:-0.636835 9:-0.892977 10:0.660408 11:-0.0498756 12:-0.348286 13:-0.572065 14:-0.844172 15:-0.999454 16:0.306446 17:-0.416212 18:-0.558624 19:-0.512214 20:-0.863368 
100 1:-1 2:0.640931 3:0.635235 4:-0.411917 5:0.795491 6:-0.480019 7:-0.314354 8:-0.638418 9:-0.847551 10:0.516535 11:0.321878 12:0.0129665 13:-0.518532 14:-0.799088 15:-0.998884 16:-0.0215486 17:0.0509365 18:-0.36639 19:-0.0503493 20:-0.864825 
100 1:-1 2:0.682679 3:0.625381 4:-0.411009 5:0.793403 6:-0.477421 7:-0.285117 8:-0.610481 9:-0.835475 10:0.526589 11:0.658711 12:0.156886 13:-0.504085 14:-0.75643 15:-0.998978 16:-0.0175755 17:-0.110325 18:-0.405842 19:-0.0718384 20:-0.876744 
100 1:-0.992651 2:0.677168 3:0.673108 4:-0.250154 5:-0.0488234 6:-0.145969 7:-0.157912 8:-0.996782 9:-0.773953 10:0.606476 11:0.636831 12:0.243975 13:-0.376974 14:-0.757051 15:-0.998822 16:-0.111753 17:-0.131231 18:-0.756758 19:-0.342839 20:-0.763866 
100 1:-0.881988 2:0.760275 3:0.601707 4:-0.313471 5:0.814331 6:-0.390305 7:-0.511148 8:-0.145071 9:-0.895609 10:0.532435 11:0.61773 12:-0.176058 13:-0.632071 14:-0.8845 15:-0.999517 16:-0.0516461 17:-0.376976 18:-0.674044 19:0.0435586 20:-0.91826 
100 1:-0.952195 2:0.800272 3:0.676437 4:-0.512548 5:0.813238 6:-0.346629 7:-0.526661 8:-0.224956 9:-0.854541 10:0.551933 11:0.537708 12:-0.200065 13:-0.580486 14:-0.834974 15:-0.999325 16:0.108224 17:-0.527615 18:-0.644262 19:-0.0666668 20:-0.896457 
100 1:-0.691081 2:0.755737 3:0.589138 4:-0.450545 5:0.802467 6:-0.398934 7:-0.396408 8:-0.145116 9:-0.916654 10:0.577341 11:-0.0301916 12:0.155939 13:-0.514462 14:-0.816225 15:-0.999134 16:-0.138216 17:-0.298329 18:-0.67607 19:-0.358057 20:-0.90506 
100 1:0.0755571 2:0.802347 3:0.84051 4:-0.680528 5:0.810612 6:-0.490167 7:-0.543709 8:-0.134592 9:-0.931403 10:0.661147 11:-0.168782 12:-0.59015 13:-0.805325 14:-0.927444 15:-0.999541 16:0.399343 17:-0.587637 18:-0.565819 19:-0.27049 20:-0.916226 
100 1:0.330174 2:0.800985 3:0.80906 4:-0.681608 5:0.800362 6:-0.453153 7:-0.451677 8:-0.222234 9:-0.897966 10:0.593563 11:-0.303973 12:-0.561326 13:-0.773414 14:-0.918406 15:-0.999545 16:0.275837 17:-0.59665 18:-0.527649 19:-0.247101 20:-0.898942 
100 1:-0.567375 2:0.756515 3:0.754058 4:-0.532845 5:0.813542 6:-0.450287 7:-0.498395 8:-0.269315 9:-0.811911 10:0.640557 11:-0.0521031 12:-0.346903 13:-0.715924 14:-0.877862 15:-0.999437 16:0.109745 17:-0.568877 18:-0.597486 19:-0.392478 20:-0.871663 
100 1:0.377763 2:0.804616 3:0.824845 4:-0.668665 5:0.796573 6:-0.481859 7:-0.454773 8:-0.268635 9:-0.89764 10:0.669531 11:-0.353533 12:-0.626051 13:-0.763038 14:-0.928932 15:-0.999561 16:0.303387 17:-0.592669 18:-0.626024 19:-0.152263 20:-0.932552 
100 1:-0.853453 2:0.75658 3:0.750987 4:-0.457906 5:0.7987 6:-0.475423 7:-0.336341 8:-0.147889 9:-0.927091 10:0.5855 11:0.577582 12:-0.140467 13:-0.476552 14:-0.834135 15:-0.998783 16:0.233241 17:-0.57643 18:-0.630141 19:-0.449335 20:-0.845768 
100 1:0.446104 2:0.805653 3:0.77599 4:-0.666489 5:0.810739 6:-0.536963 7:-0.473339 8:-0.265947 9:-0.907354 10:0.626134 11:-0.323153 12:-0.552674 13:-0.814358 14:-0.929935 15:-0.999538 16:0.361668 17:-0.594013 18:-0.607747 19:-0.151969 20:-0.941746 
100 1:0.489063 2:0.80468 3:0.813262 4:-0.677383 5:0.810984 6:-0.52954 7:-0.484905 8:-0.203367 9:-0.897125 10:0.627965 11:-0.118638 12:-0.629867 13:-0.839332 14:-0.928681 15:-0.999583 16:0.283881 17:-0.603541 18:-0.591586 19:-0.332149 20:-0.890134 
100 1:-0.897166 2:0.79178 3:0.5654 4:-0.622934 5:0.813707 6:-0.370729 7:-0.498053 8:-0.137086 9:-0.865783 10:0.484188 11:0.460242 12:0.0279175 13:-0.512596 14:-0.829499 15:-0.999519 16:0.167792 17:-0.159161 18:-0.70026 19:-0.0532254 20:-0.898208 
100 1:-0.861493 2:0.768897 3:0.759179 4:-0.216338 5:0.813525 6:-0.447496 7:-0.437205 8:-0.173643 9:-0.859943 10:0.661276 11:-0.0469176 12:-0.398886 13:-0.717764 14:-0.886032 15:-0.999303 16:0.307997 17:-0.504245 18:-0.57726 19:-0.383411 20:-0.871539 
100 1:-0.801527 2:0.721574 3:0.704554 4:-0.474514 5:0.814257 6:-0.351676 7:-0.501773 8:-0.213095 9:-0.920766 10:0.461896 11:0.00791036 12:-0.0811752 13:-0.574844 14:-0.82465 15:-0.998992 16:-0.212949 17:-0.411586 18:-0.640684 19:-0.161337 20:-0.879687 
100 1:-0.984567 2:0.619214 3:0.565664 4:-0.203346 5:0.522247 6:0.12261 7:-0.461681 8:-0.458735 9:-0.698322 10:0.472592 11:0.760869 12:-0.000992242 13:-0.342961 14:-0.622418 15:-0.998599 16:0.140347 17:-0.297189 18:-0.652932 19:0.0130872 20:-0.95511 
100 1:-0.916663 2:0.710878 3:0.686617 4:-0.492169 5:0.779042 6:-0.53133 7:-0.422207 8:-0.567315 9:-0.890165 10:0.550969 11:-0.339045 12:-0.491658 13:-0.69032 14:-0.899887 15:-0.99952 16:-0.0699329 17:-0.450531 18:-0.830096 19:-0.154256 20:-0.869296 
100 1:-0.974839 2:0.647089 3:0.674348 4:-0.441469 5:0.783643 6:-0.533804 7:-0.403717 8:-0.626645 9:-0.883731 10:0.518623 11:-0.00350476 12:-0.215469 13:-0.529702 14:-0.882452 15:-0.99943 16:-0.0835761 17:-0.324068 18:-0.521275 19:-0.400491 20:-0.870869 
100 1:-0.968991 2:0.695644 3:0.665452 4:-0.334531 5:0.778447 6:-0.567599 7:-0.29999 8:-0.593355 9:-0.883058 10:0.607472 11:0.151308 12:-0.147377 13:-0.556601 14:-0.808751 15:-0.999395 16:-0.120871 17:-0.288623 18:-0.527547 19:-0.31312 20:-0.816485 
100 1:-0.970987 2:0.703617 3:0.625034 4:-0.24506 5:0.778389 6:-0.568077 7:-0.280373 8:-0.590858 9:-0.86773 10:0.61698 11:0.116753 12:-0.259056 13:-0.741203 14:-0.895518 15:-0.999315 16:-0.119449 17:-0.309885 18:-0.660192 19:-0.0323987 20:-0.784101 
100 1:-0.883971 2:0.816608 3:0.69986 4:-0.432269 5:0.783725 6:-0.502054 7:-0.444677 8:-0.634599 9:-0.903525 10:0.675506 11:-0.243444 12:-0.516926 13:-0.717527 14:-0.907532 15:-0.999553 16:0.331036 17:-0.419166 18:-0.501151 19:-0.570024 20:-0.87212 
100 1:-0.844387 2:0.708803 3:0.6919 4:-0.42248 5:0.778776 6:-0.467769 7:-0.500862 8:-0.543309 9:-0.889746 10:0.571495 11:-0.213528 12:-0.516029 13:-0.777169 14:-0.90134 15:-0.99952 16:-0.0835219 17:-0.51224 18:-0.537064 19:-0.431287 20:-0.869151 
100 1:-0.763715 2:0.721574 3:0.691795 4:-0.474947 5:0.778917 6:-0.561716 7:-0.505932 8:-0.595562 9:-0.889932 10:0.577662 11:-0.212607 12:-0.454209 13:-0.688163 14:-0.90175 15:-0.999529 16:0.124306 17:-0.548212 18:-0.68415 19:-0.44466 20:-0.870844 
100 1:-0.956764 2:0.6878 3:0.662279 4:-0.426567 5:0.780494 6:-0.541062 7:-0.46199 8:-0.646394 9:-0.882617 10:0.54962 11:0.0883204 12:-0.0366456 13:-0.544782 14:-0.815225 15:-0.999434 16:-0.031134 17:-0.322946 18:-0.552493 19:-0.330856 20:-0.870758 
100 1:-0.970563 2:0.692467 3:0.662675 4:-0.19707 5:0.778408 6:-0.568001 7:-0.50469 8:-0.593967 9:-0.858384 10:0.602204 11:0.376255 12:-0.0947928 13:-0.717252 14:-0.877853 15:-0.999338 16:-0.116031 17:-0.291576 18:-0.642428 19:-0.43322 20:-0.848675 
100 1:-0.969645 2:0.694347 3:0.670531 4:-0.329494 5:0.77849 6:-0.569287 7:-0.424653 8:-0.589219 9:-0.86533 10:0.614827 11:-0.228231 12:-0.128785 13:-0.782219 14:-0.79803 15:-0.999104 16:-0.117955 17:-0.290506 18:-0.621996 19:-0.218635 20:-0.869127 
100 1:-0.879008 2:0.712369 3:0.681485 4:-0.511518 5:0.779017 6:-0.402105 7:-0.526563 8:-0.533284 9:-0.889776 10:0.582706 11:-0.313333 12:-0.481547 13:-0.733627 14:-0.90424 15:-0.999515 16:-0.0796064 17:-0.438166 18:-0.628884 19:-0.293774 20:-0.869586 
100 1:-0.949744 2:0.701024 3:0.628223 4:-0.373155 5:0.778356 6:-0.565101 7:-0.31861 8:-0.585346 9:-0.871578 10:0.610844 11:0.0832157 12:-0.375732 13:-0.75682 14:-0.811668 15:-0.999504 16:-0.119066 17:-0.309248 18:-0.617943 19:-0.295239 20:-0.785092 
100 1:-0.956618 2:0.637884 3:0.609919 4:-0.349721 5:0.78109 6:-0.560249 7:-0.330675 8:-0.651987 9:-0.865799 10:0.53176 11:0.452298 12:0.0928846 13:-0.759221 14:-0.778013 15:-0.999343 16:-0.198296 17:-0.204141 18:-0.726283 19:-0.124277 20:-0.844338 
100 1:-0.874207 2:0.720213 3:0.690418 4:-0.488106 5:0.778659 6:-0.481632 7:-0.524698 8:-0.538302 9:-0.890428 10:0.540722 11:-0.101983 12:-0.525197 13:-0.752471 14:-0.900748 15:-0.999528 16:-0.112847 17:-0.43829 18:-0.79072 19:-0.373398 20:-0.869644 
100 1:-0.999923 2:0.62466 3:0.691495 4:-0.220244 5:0.562355 6:-0.548818 7:0.0080249 8:-0.72305 9:-0.815337 10:0.555659 11:0.753862 12:-0.0349934 13:-0.429302 14:-0.817397 15:-0.99912 16:-0.238023 17:0.00197374 18:-0.671107 19:0.0129031 20:-0.80481 
100 1:-0.958699 2:0.63017 3:0.703655 4:-0.287774 5:0.564869 6:-0.443619 7:-0.216754 8:-0.800702 9:-0.830056 10:0.640268 11:0.306633 12:0.0174069 13:-0.687762 14:-0.72271 15:-0.997514 16:-0.177144 17:-0.046466 18:-0.720127 19:0.0587032 20:-0.820271 
100 1:-0.987375 2:0.695125 3:0.670721 4:-0.249973 5:0.565835 6:-0.306409 7:-0.34005 8:-0.615872 9:-0.807264 10:0.587909 11:0.590245 12:-0.0354199 13:-0.517844 14:-0.836548 15:-0.998848 16:-0.12918 17:-0.308298 18:-0.788604 19:-0.135271 20:-0.852827 
100 1:-0.98905 2:0.713211 3:0.619586 4:-0.216717 5:0.561252 6:-0.285972 7:-0.331775 8:-0.761296 9:-0.820902 10:0.59186 11:0.716901 12:-0.150336 13:-0.37141 14:-0.78691 15:-0.998849 16:-0.145265 17:-0.297425 18:-0.702466 19:-0.0905816 20:-0.878322 
100 1:-0.94 2:0.716323 3:0.672249 4:-0.211216 5:0.595598 6:-0.538027 7:-0.158546 8:-0.499732 9:-0.845225 10:0.670109 11:0.0401479 12:-0.0272395 13:-0.594706 14:-0.804275 15:-0.999206 16:-0.107164 17:-0.306675 18:-0.748382 19:-0.0239848 20:-0.796459 
100 1:-0.94527 2:0.532024 3:0.48292 4:-0.23753 5:0.560744 6:-0.543162 7:-0.0629629 8:-0.661788 9:-0.808474 10:0.489392 11:0.304489 12:-0.021753 13:-0.523262 14:-0.807935 15:-0.998004 16:-0.224072 17:-0.287304 18:-0.680752 19:0.0281798 20:-0.843116 
100 1:-0.968139 2:0.623104 3:0.563917 4:-0.15036 5:0.524302 6:-0.621729 7:-0.308378 8:-0.679801 9:-0.742406 10:0.580907 11:0.304269 12:-0.155984 13:-0.271768 14:-0.746283 15:-0.998717 16:-0.108671 17:-0.31023 18:-0.591035 19:0.408595 20:-0.767587 
100 1:-0.94 2:0.716388 3:0.700426 4:-0.246512 5:0.577605 6:-0.542104 7:-0.186254 8:-0.737633 9:-0.84472 10:0.665901 11:0.118931 12:-0.0989144 13:-0.599455 14:-0.789829 15:-0.999148 16:-0.105623 17:-0.259277 18:-0.701401 19:0.032723 20:-0.84678 
100 1:-0.981925 2:0.507779 3:0.656628 4:-0.167798 5:0.56091 6:-0.619073 7:-0.239684 8:-0.728268 9:-0.796763 10:0.571656 11:0.36009 12:0.106965 13:-0.245448 14:-0.80405 15:-0.998348 16:-0.21703 17:-0.186627 18:-0.691718 19:0.0180447 20:-0.657526 
100 1:-0.975043 2:0.666991 3:0.716169 4:-0.295631 5:0.563621 6:-0.620409 7:-0.245172 8:-0.790324 9:-0.821241 10:0.5908 11:0.590299 12:0.000139183 13:-0.464253 14:-0.780234 15:-0.998634 16:-0.168172 17:-0.297866 18:-0.737737 19:0.0513961 20:-0.83539 
100 1:-0.94 2:0.716388 3:0.667897 4:-0.253135 5:0.574822 6:-0.616303 7:-0.231703 8:-0.576529 9:-0.844855 10:0.682219 11:0.27185 12:-0.200648 13:-0.669451 14:-0.820043 15:-0.999215 16:-0.106432 17:-0.206621 18:-0.762157 19:-0.0359052 20:-0.832307 
100 1:-0.974225 2:0.647478 3:0.656078 4:-0.221951 5:0.56255 6:-0.455635 7:-0.334454 8:-0.732034 9:-0.808553 10:0.607182 11:0.786227 12:0.0800483 13:-0.443852 14:-0.72358 15:-0.998783 16:-0.119147 17:-0.253723 18:-0.784923 19:-0.0190434 20:-0.881871 
100 1:-0.962842 2:0.683003 3:0.682475 4:-0.164852 5:0.534124 6:-0.55939 7:-0.310748 8:-0.714456 9:-0.771567 10:0.528902 11:0.380372 12:0.101554 13:-0.492977 14:-0.800679 15:-0.998397 16:-0.107282 17:-0.282697 18:-0.668221 19:0.242458 20:-0.682876 
100 1:-0.94 2:0.716647 3:0.687345 4:-0.24965 5:0.594175 6:-0.539161 7:-0.231491 8:-0.644779 9:-0.846101 10:0.669338 11:0.00990924 12:-0.0832765 13:-0.604577 14:-0.789268 15:-0.999141 16:-0.106117 17:-0.198989 18:-0.698567 19:-0.0371141 20:-0.780007 
100 1:-1 2:0.58557 3:0.464771 4:-0.158053 5:0.681665 6:-0.304248 7:-0.270168 8:-0.107821 9:-0.774086 10:0.573037 11:0.745172 12:0.22492 13:-0.340864 14:-0.695974 15:-0.998694 16:-0.427252 17:-0.459542 18:-0.916414 19:0.0944223 20:-0.777844 
100 1:-1 2:0.646441 3:0.497431 4:-0.15043 5:0.688277 6:-0.363589 7:-0.379236 8:-0.081067 9:-0.772359 10:0.516085 11:0.56071 12:0.246709 13:-0.338299 14:-0.714166 15:-0.998732 16:-0.308752 17:-0.0465622 18:-0.92511 19:0.206749 20:-0.802771 
100 1:-1 2:0.614417 3:0.485518 4:-0.194333 5:0.689387 6:-0.300066 7:-0.308975 8:-0.113934 9:-0.79521 10:0.517177 11:0.564316 12:0.268677 13:-0.338437 14:-0.697288 15:-0.998637 16:-0.152699 17:-0.323112 18:-0.907179 19:0.224672 20:-0.795806 
100 1:-0.998388 2:0.644237 3:0.630392 4:-0.271722 5:0.750158 6:-0.395287 7:-0.220381 8:-0.703285 9:-0.846763 10:0.502851 11:0.735117 12:0.317145 13:-0.317187 14:-0.739034 15:-0.998576 16:-0.199604 17:-0.0780318 18:-0.969808 19:0.0249655 20:-0.935223 
100 1:-0.985064 2:0.569234 3:0.614214 4:-0.290596 5:0.750853 6:-0.404651 7:-0.216683 8:-0.695713 9:-0.84774 10:0.506995 11:0.815919 12:0.151193 13:-0.405294 14:-0.73905 15:-0.998696 16:-0.161763 17:-0.111058 18:-0.885106 19:-0.093994 20:-0.953842 
100 1:-1 2:0.648321 3:0.522477 4:-0.189255 5:0.839477 6:-0.584086 7:0.0349788 8:-0.737427 9:-0.882801 10:0.448726 11:0.685387 12:0.128471 13:-0.370552 14:-0.824604 15:-0.997053 16:0.0434596 17:-0.15001 18:-0.511386 19:-0.322114 20:-0.690116 
100 1:-1 2:0.684299 3:0.437518 4:-0.245743 5:0.83409 6:-0.610344 7:-0.13214 8:-0.839904 9:-0.880919 10:0.410597 11:0.354366 12:-0.0339248 13:-0.335798 14:-0.798154 15:-0.998457 16:-0.181815 17:-0.0310989 18:-0.495213 19:-0.210632 20:-0.663818 
100 1:-1 2:0.636782 3:0.581335 4:-0.291679 5:0.833424 6:-0.624057 7:-0.143624 8:-0.730781 9:-0.889379 10:0.461703 11:0.24772 12:-0.196594 13:-0.567559 14:-0.845449 15:-0.999177 16:0.0175078 17:-0.167227 18:-0.659538 19:-0.290398 20:-0.874407 
100 1:-1 2:0.633217 3:0.585316 4:-0.394131 5:0.828186 6:-0.624831 7:-0.0727175 8:-0.7075 9:-0.876806 10:0.593691 11:0.258346 12:-0.168385 13:-0.578755 14:-0.84131 15:-0.99909 16:0.0391614 17:-0.161201 18:-0.689922 19:-0.273126 20:-0.69464 
100 1:-1 2:0.536626 3:0.559208 4:-0.204077 5:0.835897 6:-0.572365 7:-0.0268129 8:-0.708638 9:-0.886365 10:0.585051 11:0.540388 12:0.138061 13:-0.349565 14:-0.801101 15:-0.997674 16:0.0326141 17:-0.144259 18:-0.900997 19:-0.128762 20:-0.70048 
100 1:-1 2:0.694671 3:0.590564 4:-0.260235 5:0.835082 6:-0.604847 7:-0.551804 8:-0.718649 9:-0.895551 10:0.567384 11:0.672238 12:-0.112074 13:-0.428565 14:-0.812325 15:-0.998914 16:0.00314998 17:-0.461524 18:-0.710277 19:-0.271779 20:-0.834485 
100 1:-1 2:0.636588 3:0.552013 4:-0.239882 5:0.834405 6:-0.615491 7:0.0433778 8:-0.710059 9:-0.876395 10:0.497165 11:0.66359 12:0.105416 13:-0.455956 14:-0.816304 15:-0.997976 16:0.0167288 17:-0.140157 18:-0.650636 19:-0.103805 20:-0.702192 
100 1:-1 2:0.681771 3:0.613706 4:-0.221058 5:0.835674 6:-0.627168 7:-0.136825 8:-0.547451 9:-0.840526 10:0.607311 11:0.135709 12:-0.441592 13:-0.548395 14:-0.837371 15:-0.998795 16:-0.0360994 17:-0.332249 18:-0.635258 19:-0.172381 20:-0.730589 
100 1:-1 2:0.672566 3:0.611499 4:-0.244849 5:0.838088 6:-0.610872 7:-0.199576 8:-0.642646 9:-0.820491 10:0.615181 11:-0.605356 12:-0.27372 13:-0.727232 14:-0.938795 15:-0.999194 16:-0.15297 17:-0.384614 18:-0.520121 19:-0.17046 20:-0.693689 
100 1:-1 2:0.682938 3:0.586013 4:-0.278324 5:0.829239 6:-0.600786 7:-0.141846 8:-0.696561 9:-0.88246 10:0.48512 11:0.237354 12:-0.214719 13:-0.575143 14:-0.849009 15:-0.999156 16:0.06786 17:-0.138156 18:-0.725565 19:-0.258968 20:-0.82804 
100 1:-1 2:0.689615 3:0.57391 4:-0.331565 5:0.835154 6:-0.619418 7:-0.43791 8:-0.704337 9:-0.895551 10:0.483353 11:0.698039 12:0.0693177 13:-0.480402 14:-0.785568 15:-0.998897 16:0.00670302 17:-0.164718 18:-0.636361 19:-0.0766098 20:-0.742368 
100 1:-1 2:0.651692 3:0.616774 4:-0.401666 5:0.83429 6:-0.573248 7:-0.403305 8:-0.720243 9:-0.895551 10:0.577534 11:0.729374 12:-0.0417684 13:-0.472648 14:-0.821418 15:-0.998868 16:0.0106286 17:-0.420252 18:-0.6133 19:-0.245006 20:-0.798757 
100 1:-0.915877 2:0.65046 3:0.709191 4:-0.357715 5:0.68136 6:-0.17209 7:-0.268021 8:-0.553973 9:-0.733205 10:0.543806 11:0.801441 12:0.21115 13:-0.442237 14:-0.702326 15:-0.99854 16:-0.100132 17:-0.215083 18:-0.875269 19:0.0608067 20:-0.85301 
100 1:-0.859715 2:0.681901 3:0.718487 4:-0.441356 5:0.679325 6:-0.0459315 7:-0.241452 8:-0.559203 9:-0.77305 10:0.588841 11:0.71851 12:0.125696 13:-0.459067 14:-0.779454 15:-0.998519 16:-0.0839419 17:-0.212855 18:-0.705403 19:0.0610789 20:-0.848428 
100 1:-0.945971 2:0.659536 3:0.654456 4:-0.302873 5:0.681832 6:-0.163501 7:-0.288961 8:-0.560539 9:-0.766233 10:0.557233 11:0.800755 12:0.207854 13:-0.407989 14:-0.724725 15:-0.998619 16:-0.0906381 17:-0.202636 18:-0.765454 19:0.0606146 20:-0.855743 
100 1:-0.838119 2:0.596136 3:0.689368 4:-0.451637 5:0.681438 6:-0.212936 7:-0.219741 8:-0.518026 9:-0.767221 10:0.528966 11:0.707942 12:0.132444 13:-0.433813 14:-0.781222 15:-0.998623 16:-0.0925417 17:-0.270084 18:-0.820938 19:-0.122442 20:-0.849671 
100 1:-0.879636 2:0.664074 3:0.71384 4:-0.377923 5:0.681802 6:-0.106222 7:-0.317255 8:-0.560955 9:-0.752663 10:0.542875 11:0.801719 12:0.264843 13:-0.428454 14:-0.739135 15:-0.998592 16:-0.0870648 17:-0.194528 18:-0.815397 19:0.0602523 20:-0.852919 
100 1:-0.989839 2:0.713082 3:0.620023 4:-0.314394 5:0.757592 6:-0.385593 7:-0.231063 8:-1 9:-0.85937 10:0.508825 11:0.592607 12:0.144481 13:-0.321959 14:-0.730842 15:-0.998974 16:-0.0804464 17:-0.464694 18:-0.620662 19:0.154939 20:-0.934824 
100 1:-0.98602 2:0.704849 3:0.572533 4:-0.228603 5:0.757647 6:-0.418 7:-0.325008 8:-1 9:-0.863856 10:0.50587 11:0.693062 12:0.268713 13:-0.390055 14:-0.784075 15:-0.99886 16:0.0583966 17:-0.345124 18:-0.737416 19:0.309101 20:-0.938566 
100 1:-0.990106 2:0.597498 3:0.639857 4:-0.380626 5:0.757532 6:-0.389465 7:-0.0367464 8:-1 9:-0.864019 10:0.503204 11:0.566145 12:-0.0484672 13:-0.367153 14:-0.780465 15:-0.998121 16:-0.146335 17:-0.366731 18:-0.648931 19:0.196632 20:-0.919706 
100 1:-0.984802 2:0.60223 3:0.571299 4:-0.264247 5:0.757716 6:-0.369196 7:0.0287107 8:-1 9:-0.856583 10:0.532853 11:0.607818 12:0.264861 13:-0.508578 14:-0.716928 15:-0.99878 16:-0.0738552 17:-0.420549 18:-0.759464 19:-0.0133234 20:-0.921094 
