svm_type c_svc
kernel_type rbf
gamma 0.0019531
nr_class 2
total_sv 3505
rho 34.8313
label 1 0
probA -1.7547
probB -0.0384794
nr_sv 1753 1752
SV
100 1:-0.88 2:0.448709 3:0.484615 4:-0.103352 5:0.611366 6:-0.318031 7:-0.161428 8:-0.458194 9:-0.633929 10:0.313304 11:0.158107 12:-0.196747 13:-0.618626 14:-0.778552 15:-0.988139 16:-0.0525839 17:-0.497144 18:-0.912416 19:-0.180042 20:-0.760815 
100 1:-0.68 2:0.538124 3:0.546433 4:0.181631 5:0.655955 6:-0.624013 7:0.118091 8:-0.501538 9:-0.714286 10:0.530355 11:0.133814 12:-0.133936 13:-0.662263 14:-0.735833 15:-0.986166 16:-0.0238568 17:-0.448173 18:-0.650039 19:-0.203865 20:-0.890798 
100 1:-0.88 2:0.453812 3:0.469902 4:0.172801 5:0.696288 6:-0.643124 7:-0.184404 8:-0.360947 9:-0.785714 10:0.420143 11:0.0756429 12:-0.164812 13:-0.648168 14:-0.740301 15:-0.988249 16:-0.170109 17:-0.274084 18:-0.62821 19:0.268775 20:-0.785206 
100 1:-0.9 2:0.422578 3:0.492906 4:-0.168926 5:0.788161 6:-0.687439 7:-0.448721 8:-0.554945 9:-0.75 10:0.304379 11:-0.240487 12:-0.441496 13:-0.761972 14:-0.840364 15:-0.991496 16:-0.185202 17:-0.315025 18:-0.385093 19:-0.426472 20:-0.727049 
100 1:-0.98 2:0.498928 3:0.472543 4:0.257498 5:0.699814 6:-0.600748 7:-0.338462 8:-0.52071 9:-0.692857 10:0.522779 11:-0.0418815 12:-0.213297 13:-0.689211 14:-0.735106 15:-0.984321 16:-0.290471 17:-0.126826 18:-0.963718 19:0.155855 20:-0.756459 
100 1:-0.94 2:0.423599 3:0.466913 4:-0.14602 5:0.777432 6:-0.714939 7:-0.218182 8:-0.144796 9:-0.729592 10:0.218971 11:0.56665 12:0.0191971 13:-0.50804 14:-0.730033 15:-0.986233 16:0.0286198 17:-0.310906 18:-0.677108 19:0.0633626 20:-0.720594 
100 1:-0.94 2:0.390834 3:0.430666 4:-0.183185 5:0.739 6:-0.717906 7:-0.278322 8:-0.622378 9:-0.660714 10:0.127231 11:0.221643 12:-0.225845 13:-0.620097 14:-0.798502 15:-0.989253 16:-0.130254 17:-0.452051 18:-0.372089 19:-0.117456 20:-0.893406 
100 1:-1 2:0.386853 3:0.324977 4:-0.0594956 5:0.713057 6:-0.720676 7:-0.278322 8:-0.653846 9:-0.607143 10:0.228155 11:0.70332 12:0.177639 13:-0.43864 14:-0.673272 15:-0.98267 16:-0.0981434 17:-0.389861 18:-0.841331 19:0.100413 20:-0.87314 
100 1:-0.68 2:0.461876 3:0.508409 4:-0.157208 5:0.6477 6:-0.305567 7:-0.514471 8:-0.538462 9:-0.285714 10:0.354452 11:0.337848 12:-0.0571893 13:-0.622045 14:-0.735409 15:-0.987494 16:-0.101687 17:-0.394065 18:-0.496357 19:-0.246184 20:-0.509019 
100 1:-1 2:0.338063 3:0.386231 4:-0.126093 5:0.812957 6:-0.630661 7:-0.461542 8:-0.692308 9:-0.767857 10:0.0989518 11:0.728327 12:0.140994 13:-0.396427 14:-0.694506 15:-0.983435 16:-0.0703187 17:-0.474609 18:-0.689784 19:-0.0121618 20:-0.810751 
100 1:-0.96 2:0.510667 3:0.431847 4:-0.223385 5:0.540777 6:0.00775517 7:-0.0979009 8:-0.870192 9:-0.107143 10:0.29644 11:0.311731 12:-0.199378 13:-0.587171 14:-0.794884 15:-0.984193 16:0.0867653 17:-0.232526 18:-0.176003 19:-0.107323 20:-0.771315 
100 1:-0.0999991 2:0.494029 3:0.669989 4:-0.303858 5:0.50688 6:-0.25779 7:-0.0397055 8:-0.538462 9:-0.767857 10:0.264736 11:0.263135 12:-0.230107 13:-0.68503 14:-0.802922 15:-0.983131 16:0.0300861 17:-0.541701 18:-0.00179169 19:-0.108968 20:-0.82472 
100 1:-0.98 2:0.403287 3:0.44921 4:-0.119092 5:0.762763 6:-0.599086 7:-0.218182 8:-0.653846 9:-0.478571 10:0.253736 11:0.559209 12:0.0812399 13:-0.511716 14:-0.699791 15:-0.984962 16:-0.113815 17:-0.311468 18:-0.805557 19:-0.124012 20:-0.577668 
100 1:-1 2:0.395631 3:0.390022 4:0.0112337 5:0.696546 6:-0.677192 7:-0.158041 8:-0.550936 9:-0.457143 10:0.273557 11:0.544037 12:0.104176 13:-0.490802 14:-0.684372 15:-0.981888 16:-0.222752 17:-0.321369 18:-0.712106 19:0.473425 20:-0.558661 
100 1:-0.82 2:0.431254 3:0.516577 4:-0.215981 5:0.761093 6:-0.77607 7:-0.398603 8:-0.406593 9:-0.714286 10:0.265463 11:0.554004 12:0.044481 13:-0.554353 14:-0.717229 15:-0.985769 16:0.0152114 17:-0.143962 18:-0.631375 19:-0.141029 20:-0.80643 
100 1:-0.98 2:0.510462 3:0.421923 4:0.342614 5:0.855443 6:-0.741053 7:-0.398603 8:-0.893491 9:-0.653061 10:0.496731 11:0.479923 12:0.12354 13:-0.554344 14:-0.655383 15:-0.97924 16:-0.224208 17:-0.200324 18:-0.858636 19:0.101097 20:-0.910773 
100 1:-1 2:0.375727 3:0.332693 4:-0.118562 5:0.693851 6:-0.672899 7:-0.218182 8:-0.643956 9:-0.625 10:0.176629 11:0.592785 12:0.069701 13:-0.443072 14:-0.71045 15:-0.98328 16:-0.00778852 17:-0.179408 18:-0.418284 19:-0.182722 20:-0.821212 
100 1:0.54 2:0.632336 3:0.777054 4:-0.334278 5:0.549233 6:-0.352306 7:-0.442079 8:-0.480769 9:-0.607143 10:0.503269 11:-0.317612 12:-0.576728 13:-0.847191 14:-0.89166 15:-0.994988 16:0.166321 17:-0.763997 18:0.352007 19:-0.231305 20:-0.751021 
100 1:-0.339999 2:0.453404 3:0.615002 4:-0.154447 5:0.529884 6:-0.761529 7:-0.0227304 8:-0.446154 9:-0.714286 10:0.375 11:-0.00658911 12:-0.263088 13:-0.734489 14:-0.784585 15:-0.981658 16:-0.192755 17:-0.137716 18:-0.606561 19:-0.230418 20:-0.707239 
100 1:-0.88 2:0.475758 3:0.406491 4:-0.196146 5:0.718561 6:-0.63897 7:-0.202966 8:-0.480769 9:-0.735714 10:0.228103 11:0.015724 12:-0.379709 13:-0.64134 14:-0.841406 15:-0.991746 16:0.174209 17:-0.531917 18:-0.889946 19:0.0142655 20:-0.7461 
100 1:-1 2:0.350005 3:0.44133 4:-0.234134 5:0.809546 6:-0.558371 7:-0.582186 8:-0.480769 9:-0.564286 10:0.206258 11:0.286271 12:-0.0717978 13:-0.617918 14:-0.733721 15:-0.975648 16:-0.184383 17:0.245027 18:-0.954327 19:-0.111208 20:-0.607126 
100 1:-0.96 2:0.528631 3:0.4642 4:-0.0995494 5:0.410062 6:-0.136269 7:-0.483174 8:-0.802198 9:-0.5 10:0.451017 11:0.548653 12:0.0770921 13:-0.500962 14:-0.700207 15:-0.985548 16:-0.040147 17:-0.330077 18:-0.558215 19:-0.238351 20:-0.839613 
100 1:-0.9 2:0.512402 3:0.505224 4:-0.00234911 5:0.751469 6:-0.619582 7:0.428319 8:-1 9:-0.75 10:0.395185 11:-0.100403 12:-0.381093 13:-0.663438 14:-0.831625 15:-0.990073 16:0.0244062 17:-0.543317 18:-0.62818 19:0.295631 20:-0.274515 
100 1:-1 2:0.454221 3:0.317477 4:-0.033957 5:0.163824 6:-0.284448 7:-0.104166 8:-0.584615 9:-0.178571 10:0.28186 11:0.816558 12:0.191324 13:-0.30691 14:-0.682235 15:-0.984691 16:0.108481 17:-0.502812 18:-0.246357 19:0.0667067 20:-0.670789 
100 1:-0.94 2:0.486271 3:0.454686 4:-0.201832 5:0.477712 6:-0.150118 7:-0.477736 8:-0.169231 9:5.35714e-08 10:0.314705 11:-0.776073 12:-0.831002 13:-0.914211 14:-0.954395 15:-0.997511 16:0.128239 17:-0.260174 18:-0.356352 19:0.115921 20:-0.82602 
100 1:-1 2:0.370624 3:0.344868 4:-0.0540113 5:0.665931 6:-0.655588 7:-0.146405 8:-0.480769 9:-0.564286 10:0.26235 11:0.260491 12:-0.0672298 13:-0.576225 14:-0.725104 15:-0.984253 16:-0.122664 17:-0.304747 18:-0.807797 19:-0.494916 20:-0.723285 
100 1:-0.56 2:0.535878 3:0.580163 4:-0.101341 5:0.791658 6:-0.565019 7:-0.25577 8:-0.201183 9:-0.692857 10:0.452885 11:-0.773281 12:-0.812264 13:-0.922526 14:-0.946114 15:-0.997075 16:-0.129836 17:-0.28576 18:-0.52056 19:-0.321436 20:-0.8176 
100 1:-0.98 2:0.416556 3:0.310727 4:0.0419824 5:0.742439 6:-0.616812 7:-0.497569 8:-0.680473 9:-0.785714 10:0.280666 11:0.420031 12:-0.00577169 13:-0.518764 14:-0.722195 15:-0.989494 16:0.0186535 17:-0.765888 18:-0.735637 19:0.228617 20:-0.901993 
100 1:-1 2:0.455956 3:0.262696 4:-0.0331344 5:0.775147 6:-0.640631 7:-0.258621 8:-0.643956 9:-0.5 10:0.244085 11:0.445896 12:-0.0825098 13:-0.467808 14:-0.760578 15:-0.989132 16:-0.0206802 17:-0.560058 18:-0.847946 19:0.241491 20:-0.646602 
100 1:-0.96 2:0.59212 3:0.3862 4:-0.00633438 5:0.679518 6:-0.452015 7:-0.20034 8:-0.840237 9:-0.553571 10:0.420714 11:-0.430208 12:-0.649035 13:-0.765236 14:-0.910617 15:-0.993731 16:0.200651 17:-0.511741 18:-0.22205 19:0.0344564 20:-0.78483 
100 1:-0.74 2:0.485965 3:0.510464 4:0.247022 5:0.790168 6:-0.840465 7:-0.212453 8:-0.0620347 9:-0.696429 10:0.499066 11:0.390326 12:0.106793 13:-0.578245 14:-0.635655 15:-0.987389 16:-0.184019 17:-0.302074 18:-0.824713 19:-0.115235 20:-0.628266 
100 1:-0.98 2:0.353884 3:0.364799 4:-0.364697 5:0.757489 6:-0.681208 7:-0.181605 8:-0.406593 9:-0.75 10:0.0115712 11:0.949073 12:0.169718 13:-0.336301 14:-0.701473 15:-0.983011 16:0.0500769 17:-0.211134 18:-0.673092 19:0.161972 20:-0.447845 
100 1:-1 2:0.349801 3:0.305117 4:-0.13794 5:0.739716 6:-0.59327 7:-0.310896 8:-0.427056 9:-0.628571 10:0.0671959 11:0.784204 12:0.127742 13:-0.337207 14:-0.705706 15:-0.986058 16:0.0261273 17:-0.283541 18:-0.878091 19:-0.274777 20:-0.764293 
100 1:-0.88 2:0.422987 3:0.503991 4:-0.17962 5:0.667307 6:-0.622351 7:-0.379809 8:-0.169231 9:-0.607143 10:0.231061 11:0.146138 12:-0.236854 13:-0.649217 14:-0.795868 15:-0.988923 16:0.0996389 17:-0.210632 18:-0.672047 19:0.213269 20:-0.818605 
100 1:-0.86 2:0.494641 3:0.583184 4:-0.177664 5:0.700874 6:-0.654895 7:-0.173078 8:-0.427056 9:-0.732143 10:0.310866 11:0.200382 12:-0.23272 13:-0.65129 14:-0.79946 15:-0.989891 16:0.136993 17:-0.484239 18:-0.882286 19:-0.233479 20:-0.643406 
100 1:-0.6 2:0.515056 3:0.607964 4:-0.39689 5:0.769528 6:-0.662512 7:-0.59498 8:-0.201183 9:-0.785714 10:0.19671 11:0.556073 12:-0.147828 13:-0.593357 14:-0.787442 15:-0.991607 16:0.2636 17:-0.803648 18:-0.886706 19:-0.522413 20:-0.802789 
100 1:-1 2:0.376442 3:0.370244 4:-0.0318181 5:0.800201 6:-0.577344 7:-0.859245 8:-0.350962 9:-0.678571 10:0.258717 11:0.713705 12:0.236758 13:-0.48554 14:-0.641926 15:-0.991269 16:-0.126365 17:-0.831068 18:-0.85244 19:-0.0997201 20:-0.910019 
100 1:0.94 2:0.635092 3:0.813743 4:-0.23269 5:0.7993 6:-0.748768 7:-0.718496 8:-0.140584 9:-0.806122 10:0.565276 11:-0.59549 12:-0.715737 13:-0.915922 14:-0.923834 15:-0.997777 16:0.0866089 17:-0.78726 18:-0.824833 19:-0.418208 20:-0.773906 
100 1:-0.96 2:0.420027 3:0.411104 4:0.00887544 5:0.838899 6:-0.579421 7:0.240383 8:-0.19603 9:-0.696429 10:0.264269 11:0.564272 12:0.0684403 13:-0.431427 14:-0.707087 15:-0.982476 16:-0.141007 17:-0.125916 18:-0.211016 19:-0.321223 20:-0.592009 
100 1:-0.96 2:0.476472 3:0.5287 4:-0.0394231 5:0.653203 6:-0.668882 7:-0.24199 8:-0.19603 9:-0.585714 10:0.353311 11:0.272458 12:-0.124134 13:-0.620766 14:-0.759452 15:-0.986534 16:0.103157 17:-0.128815 18:-0.750538 19:-0.159336 20:-0.731012 
100 1:-0.86 2:0.35715 3:0.468484 4:-0.102785 5:0.472954 6:-0.672206 7:-0.930367 8:-0.144796 9:-0.521429 10:0.287567 11:0.385604 12:0.0664669 13:-0.60714 14:-0.667514 15:-0.992961 16:-0.303763 17:-0.698436 18:-0.739325 19:-0.060353 20:-0.9989 
100 1:-0.96 2:0.471573 3:0.462597 4:0.00202005 5:0.623375 6:-0.790907 7:-0.131315 8:0.0995475 9:-0.729592 10:0.409506 11:0.273345 12:-0.0603458 13:-0.587982 14:-0.723858 15:-0.981414 16:-0.138798 17:-0.191538 18:-0.834941 19:-0.0110641 20:-0.586567 
100 1:-0.94 2:0.428192 3:0.488221 4:-0.0217819 5:0.516124 6:-0.159812 7:-0.296237 8:-0.598015 9:-0.142857 10:0.300903 11:0.970912 12:0.367906 13:-0.396644 14:-0.618067 15:-0.981048 16:-0.199461 17:-0.32293 18:-0.767514 19:0.347953 20:-0.822644 
100 1:-0.479999 2:0.561703 3:0.616646 4:-0.507418 5:0.610033 6:-0.586622 7:-0.234012 8:-0.480769 9:-0.735714 10:0.229504 11:-0.335249 12:-0.654466 13:-0.812774 14:-0.914389 15:-0.991709 16:0.141538 17:-0.371382 18:-0.797719 19:-0.390408 20:-0.605517 
100 1:-0.86 2:0.402368 3:0.462392 4:-0.291756 5:0.773083 6:-0.616535 7:-0.536924 8:-0.19603 9:-0.585714 10:0.187682 11:0.16515 12:-0.231866 13:-0.65732 14:-0.795769 15:-0.988886 16:0.106763 17:-0.48637 18:-0.7133 19:-0.170628 20:-0.78565 
100 1:-0.66 2:0.506073 3:0.56092 4:-0.162546 5:0.779131 6:-0.705442 7:-0.24199 8:-0.446154 9:-0.714286 10:0.366075 11:0.369748 12:-0.0940394 13:-0.622811 14:-0.757967 15:-0.987959 16:0.0206257 17:-0.443103 18:-0.700579 19:-0.347957 20:-0.729822 
100 1:-0.98 2:0.485353 3:0.478563 4:0.0706471 5:0.816827 6:-0.602964 7:-0.570431 8:-0.840237 9:-0.785714 10:0.412983 11:0.444897 12:0.0404795 13:-0.556339 14:-0.701017 15:-0.984621 16:-0.120074 17:-0.0414857 18:-0.814292 19:0.116823 20:-0.983726 
100 1:-0.88 2:0.398898 3:0.483926 4:-0.389121 5:0.782469 6:-0.716126 7:-0.249803 8:-0.584615 9:-0.790816 10:0.178861 11:0.476611 12:-0.0369849 13:-0.549226 14:-0.744723 15:-0.97799 16:-0.0877114 17:-0.00839117 18:-0.493595 19:-0.209969 20:-0.994423 
100 1:-0.94 2:0.404512 3:0.469358 4:-0.306875 5:0.679518 6:-0.390735 7:-0.189954 8:-0.861538 9:-0.446429 10:0.175592 11:0.452013 12:-0.0635662 13:-0.560206 14:-0.753462 15:-0.983461 16:0.00029655 17:-0.427754 18:-0.635213 19:-0.308696 20:-0.59455 
100 1:-0.259999 2:0.525161 3:0.652903 4:-0.259033 5:0.538828 6:-0.534275 7:-0.330087 8:-0.307692 9:-0.735714 10:0.367891 11:-0.209479 12:-0.482211 13:-0.793403 14:-0.863852 15:-0.993888 16:0.102593 17:-0.580365 18:-0.780712 19:-0.501994 20:-0.879692 
100 1:0.119999 2:0.604267 3:0.682574 4:-0.107337 5:0.549233 6:-0.352306 7:-0.225862 8:-0.584615 9:-0.446429 10:0.544313 11:-0.272194 12:-0.491041 13:-0.818589 14:-0.860818 15:-0.993504 16:0.120943 17:-0.248676 18:-0.552407 19:-0.341633 20:-0.621597 
100 1:0.159999 2:0.532714 3:0.719766 4:-0.595313 5:0.896574 6:-0.526797 7:-0.536924 8:-0.360947 9:-0.692857 10:0.206621 11:-0.541992 12:-0.750714 13:-0.888482 14:-0.938201 15:-0.996916 16:0.100337 17:-0.792027 18:-0.560664 19:-0.440049 20:-0.885104 
100 1:-0.94 2:0.497295 3:0.488118 4:-0.120499 5:0.586642 6:-0.464479 7:-0.40758 8:-0.376923 9:-0.714286 10:0.301993 11:-0.529896 12:-0.688795 13:-0.836181 14:-0.918757 15:-0.996966 16:0.14466 17:-0.663631 18:-0.668135 19:-0.280057 20:-0.906968 
100 1:-0.88 2:0.349699 3:0.482991 4:0.0202097 5:0.819837 6:-0.557956 7:-0.536924 8:-0.406593 9:-0.625 10:0.251297 11:0.501856 12:0.123457 13:-0.573419 14:-0.661974 15:-0.9887 16:-0.173096 17:-0.599603 18:-0.792896 19:0.105298 20:-0.99219 
100 1:-0.94 2:0.443707 3:0.375299 4:-0.033372 5:0.787588 6:-0.742141 7:-0.0947388 8:-0.330025 9:-0.696429 10:0.313149 11:0.212307 12:-0.153771 13:-0.568813 14:-0.765162 15:-0.987039 16:0.0670148 17:-0.447495 18:-0.451595 19:0.116507 20:-0.572332 
100 1:-0.6 2:0.581811 3:0.588968 4:-0.137812 5:0.746703 6:-0.704404 7:-0.331781 8:-0.46402 9:-0.834821 10:0.491386 11:-0.0493378 12:-0.360245 13:-0.735171 14:-0.828355 15:-0.991907 16:0.122551 17:-0.538049 18:0.21866 19:0.00371292 20:-0.746567 
100 1:-0.82 2:0.461162 3:0.550379 4:-0.0655284 5:0.557188 6:-0.42501 7:-0.310896 8:-0.118881 9:-0.366071 10:0.394977 11:0.419378 12:0.0434943 13:-0.601521 14:-0.693362 15:-0.985275 16:-0.128715 17:-0.488697 18:-0.960643 19:-0.382091 20:-0.867386 
100 1:-0.86 2:0.425743 3:0.530981 4:-0.212087 5:0.23384 6:-0.459285 7:-0.310896 8:-0.307692 9:-0.446429 10:0.235575 11:0.542768 12:0.0164654 13:-0.555804 14:-0.728641 15:-0.989227 16:0.0463982 17:-0.566688 18:-0.898695 19:-0.160936 20:-0.673669 
100 1:-0.96 2:0.457997 3:0.46195 4:-0.131998 5:0.719691 6:-0.758265 7:-0.392464 8:-0.0620347 9:-0.77551 10:0.301629 11:0.486731 12:-0.00595441 13:-0.554148 14:-0.732102 15:-0.986307 16:0.0372543 17:-0.171583 18:-0.916716 19:0.290343 20:-0.552514 
100 1:-0.84 2:0.402062 3:0.542992 4:-0.00130709 5:0.721141 6:-0.507686 7:0.196397 8:-0.0620347 9:-0.585714 10:0.260533 11:0.358802 12:-0.0446729 13:-0.576746 14:-0.732362 15:-0.982354 16:-0.00834523 17:-0.052782 18:-0.555468 19:-0.113986 20:-0.271212 
100 1:-0.94 2:0.436052 3:0.549793 4:0.269545 5:0.661889 6:-0.362692 7:-0.436992 8:0.010395 9:-0.258929 10:0.491802 11:-0.0118081 12:-0.134969 13:-0.719667 14:-0.664598 15:-0.988289 16:-0.393205 17:-0.326589 18:-0.476589 19:0.0616148 20:-0.642008 
100 1:-0.039999 2:0.580178 3:0.668807 4:0.138104 5:0.616569 6:-0.555048 7:-0.181605 8:-0.0913462 9:-0.564286 10:0.535648 11:0.0125591 12:-0.277797 13:-0.745539 14:-0.796877 15:-0.991678 16:0.132645 17:-0.573349 18:-0.274397 19:-0.065251 20:-0.852681 
100 1:-0.159999 2:0.420435 3:0.650971 4:-0.41168 5:0.91214 6:-0.668052 7:-0.933178 8:-0.480769 9:-0.678571 10:0.266137 11:0.234054 12:-0.148577 13:-0.689866 14:-0.765896 15:-0.994033 16:-0.0771921 17:-0.904932 18:-0.528174 19:-0.117219 20:-0.999948 
100 1:-0.019999 2:0.566602 3:0.692119 4:-0.122748 5:0.766867 6:-0.695353 7:-0.532247 8:-0.480769 9:-0.760204 10:0.49616 11:-0.281137 12:-0.48888 13:-0.82308 14:-0.858503 15:-0.99269 16:0.037902 17:-0.622659 18:-0.596169 19:-0.113943 20:-0.97444 
100 1:-0.499999 2:0.458712 3:0.610358 4:-0.279928 5:0.656443 6:-0.661127 7:-0.867692 8:-0.740385 9:-0.678571 10:0.315484 11:0.0372191 12:-0.286915 13:-0.732893 14:-0.805343 15:-0.99459 16:-0.0274554 17:-0.797379 18:-0.867236 19:-0.419753 20:-0.936341 
100 1:0.9 2:0.560784 3:0.843044 4:-0.347221 5:0.782543 6:-0.546739 7:-0.932497 8:0.168269 9:-0.564286 10:0.49642 11:-0.700546 12:-0.762313 13:-0.93325 14:-0.932066 15:-0.998347 16:-0.0702677 17:-0.790101 18:-0.594004 19:-0.372568 20:-0.909088 
100 1:-0.96 2:0.438093 3:0.453073 4:-0.162948 5:0.90397 6:-0.725028 7:-0.104166 8:-0.856764 9:-0.806122 10:0.215494 11:0.428451 12:-0.0919062 13:-0.54282 14:-0.762835 15:-0.986331 16:-0.0209677 17:-0.308841 18:-0.757839 19:-0.191829 20:-0.8227 
100 1:0.359999 2:0.527202 3:0.730636 4:-0.0572836 5:0.765372 6:-0.717906 7:-0.296237 8:-0.370629 9:-0.660714 10:0.511831 11:-0.343277 12:-0.479073 13:-0.845613 14:-0.839635 15:-0.993718 16:-0.127424 17:-0.619396 18:-0.709851 19:0.0203869 20:-0.702447 
100 1:-0.0599991 2:0.468 3:0.667677 4:-0.217681 5:0.64598 6:-0.506855 7:-0.586539 8:-0.221154 9:-0.564286 10:0.373599 11:-0.23749 12:-0.439454 13:-0.806877 14:-0.839792 15:-0.994384 16:-0.0722144 17:-0.534262 18:-0.443039 19:-0.406319 20:-0.937158 
100 1:-0.86 2:0.475248 3:0.542704 4:0.0537919 5:0.817482 6:-0.750549 7:-0.366611 8:-0.73201 9:-0.77551 10:0.373495 11:-0.0354399 12:-0.310403 13:-0.724504 14:-0.805976 15:-0.993286 16:0.0811873 17:-0.678536 18:-0.724946 19:-0.455674 20:-0.860077 
100 1:0.199999 2:0.557824 3:0.697204 4:-0.301116 5:0.752444 6:-0.531782 7:-0.517627 8:-0.28382 9:-0.628571 10:0.417134 11:0.131903 12:-0.275001 13:-0.725324 14:-0.810457 15:-0.989499 16:0.0341505 17:-0.602744 18:-0.753613 19:0.119512 20:-0.909324 
100 1:-0.98 2:0.350618 3:0.407806 4:-0.2881 5:0.730113 6:-0.757374 7:-0.459967 8:-0.598015 9:-0.696429 10:0.129047 11:0.893899 12:0.257255 13:-0.428799 14:-0.661662 15:-0.976192 16:-0.195226 17:0.115061 18:-0.948295 19:0.206868 20:-0.644031 
100 1:0.419999 2:0.5468 3:0.757626 4:-0.307258 5:0.805934 6:-0.693671 7:-0.603077 8:-0.622378 9:-0.660714 10:0.484381 11:-0.638473 12:-0.716623 13:-0.91555 14:-0.918445 15:-0.997081 16:-0.0705661 17:-0.636603 18:-0.370207 19:-0.184844 20:-0.979521 
100 1:-1 2:0.446667 3:0.362241 4:-0.2696 5:0.490612 6:0.0229885 7:-0.386199 8:-0.384615 9:-0.285714 10:0.128944 11:0.692201 12:-0.0224175 13:-0.393848 14:-0.753581 15:-0.984191 16:0.180027 17:-0.320891 18:-0.469735 19:-0.0576291 20:-0.824425 
100 1:-1 2:0.338981 3:0.363628 4:-0.194099 5:0.713917 6:-0.595347 7:-0.777009 8:-0.0307692 9:-0.446429 10:0.190432 11:0.411155 12:0.0151727 13:-0.564579 14:-0.708812 15:-0.987081 16:-0.128159 17:-0.393115 18:-0.990713 19:-0.476728 20:-0.911013 
100 1:-0.64 2:0.436154 3:0.523995 4:-0.00613329 5:0.760699 6:-0.506024 7:-0.791093 8:-0.0505494 9:-0.5 10:0.428653 11:-0.607868 12:-0.646755 13:-0.884814 14:-0.878509 15:-0.995845 16:-0.240866 17:-0.241599 18:-0.787207 19:0.117321 20:-0.910332 
100 1:-0.66 2:0.428805 3:0.562574 4:-0.124594 5:0.458507 6:-0.206897 7:-0.857736 8:-0.118881 9:-0.366071 10:0.380552 11:-0.443243 12:-0.544816 13:-0.84267 14:-0.856665 15:-0.995663 16:-0.138551 17:-0.193261 18:-0.66818 19:0.0413728 20:-0.999951 
100 1:-0.0999991 2:0.548944 3:0.616964 4:-0.145289 5:0.841837 6:-0.860719 7:-0.0715254 8:-0.287912 9:-0.78125 10:0.418535 11:-0.525063 12:-0.673515 13:-0.869651 14:-0.913063 15:-0.99528 16:0.0249084 17:-0.570828 18:-0.561276 19:-0.534784 20:-0.476359 
100 1:-1 2:0.314178 3:0.381762 4:-0.23971 5:0.691558 6:-0.766574 7:-0.404021 8:-0.881319 9:-0.714286 10:0.0663138 11:0.791793 12:0.187108 13:-0.414039 14:-0.681225 15:-0.984556 16:-0.0573069 17:-0.567681 18:-0.900143 19:-0.226737 20:-0.926806 
100 1:-0.96 2:0.447382 3:0.395858 4:-0.0471376 5:0.706392 6:-0.391774 7:-0.66075 8:-0.360947 9:-0.553571 10:0.342154 11:0.654146 12:0.167909 13:-0.486824 14:-0.669808 15:-0.988703 16:-0.117843 17:-0.494033 18:-0.770186 19:0.0411852 20:-0.872783 
100 1:-0.86 2:0.403899 3:0.529954 4:-0.134247 5:0.526444 6:-0.233901 7:-0.461542 8:-0.28382 9:-0.473214 10:0.288968 11:0.291271 12:-0.0671064 13:-0.632437 14:-0.732017 15:-0.989051 16:-0.125513 17:-0.433062 18:-0.208403 19:0.0499048 20:-0.76747 
100 1:-0.259999 2:0.607737 3:0.641673 4:-0.477327 5:0.730257 6:-0.756682 7:-0.726639 8:-0.584615 9:-0.714286 10:0.301629 11:-0.404115 12:-0.697999 13:-0.841968 14:-0.925225 15:-0.996078 16:0.498766 17:-0.685977 18:0.0953327 19:-0.260433 20:-0.871851 
100 1:-0.9 2:0.432786 3:0.538163 4:-0.137958 5:0.538914 6:-0.300374 7:-0.291209 8:-0.307692 9:-0.767857 10:0.279369 11:-0.547104 12:-0.667092 13:-0.840942 14:-0.907558 15:-0.996638 16:0.028889 17:-0.378939 18:-0.74458 19:-0.102457 20:-0.920595 
100 1:-0.56 2:0.522609 3:0.606392 4:-0.0640476 5:0.784435 6:-0.807526 7:-0.346632 8:-0.384615 9:-0.836735 10:0.456829 11:0.275381 12:-0.0900972 13:-0.649763 14:-0.742017 15:-0.989048 16:-0.053479 17:-0.466074 18:-0.88581 19:-0.0369757 20:-0.761277 
100 1:-0.84 2:0.619679 3:0.572745 4:0.277661 5:0.857962 6:-0.537183 7:-0.278322 8:0.246154 9:-0.714286 10:0.672478 11:0.026305 12:-0.181649 13:-0.658063 14:-0.736081 15:-0.993262 16:-0.0525621 17:-0.65587 18:-0.944293 19:-0.00739386 20:-0.873908 
100 1:-0.8 2:0.604675 3:0.527848 4:0.0172116 5:0.360757 6:-0.018557 7:0.123364 8:-0.511312 9:-0.642857 10:0.549502 11:0.0317699 12:-0.288408 13:-0.637233 14:-0.805307 15:-0.988581 16:0.0614294 17:-0.45587 18:-0.576087 19:-0.14951 20:-0.725844 
100 1:-0.96 2:0.442074 3:0.472306 4:-0.0172299 5:0.388276 6:-0.152887 7:-0.398603 8:-0.538462 9:-0.285714 10:0.38735 11:0.233095 12:-0.0669922 13:-0.612184 14:-0.717667 15:-0.987783 16:-0.273683 17:-0.655104 18:-0.902129 19:0.00341452 20:-0.816404 
100 1:-0.78 2:0.480147 3:0.52832 4:-0.0704094 5:0.700588 6:-0.70475 7:-0.32496 8:-0.584615 9:-0.714286 10:0.301214 11:0.547763 12:-0.00366583 13:-0.548449 14:-0.737769 15:-0.987909 16:-0.0741429 17:-0.24303 18:-0.61316 19:-0.0507084 20:-0.79546 
100 1:-0.379999 2:0.527917 3:0.596273 4:-0.0983063 5:0.636004 6:-0.549231 7:-0.538465 8:-0.554945 9:-0.65 10:0.442403 11:0.175608 12:-0.180261 13:-0.686946 14:-0.772912 15:-0.987289 16:0.00447735 17:-0.0531941 18:-0.265349 19:-0.0349317 20:-0.9115 
100 1:-0.86 2:0.385016 3:0.476786 4:-0.0048719 5:0.730257 6:-0.717906 7:-0.78887 8:-0.622378 9:-0.660714 10:0.306092 11:0.196549 12:-0.0917143 13:-0.65683 14:-0.724418 15:-0.992608 16:-0.246717 17:-0.596926 18:-0.764961 19:-0.0724914 20:-0.970885 
20.0980887620554 1:-0.88 2:0.449015 3:0.471217 4:0.181339 5:0.855443 6:-0.741053 7:-0.507366 8:-0.511312 9:-0.729592 10:0.428549 11:0.687797 12:0.302441 13:-0.504877 14:-0.588113 15:-0.979448 16:-0.286036 17:0.142738 18:-0.202938 19:-0.0187543 20:-0.912039 
100 1:-0.88 2:0.385016 3:0.476693 4:-0.154429 5:0.706005 6:-0.540922 7:-0.533034 8:-0.713528 9:-0.628571 10:0.273921 11:0.8632 12:0.344193 13:-0.458122 14:-0.610052 15:-0.957234 16:-0.254831 17:0.329637 18:-0.835225 19:0.0727898 20:-0.947038 
100 1:-0.86 2:0.382668 3:0.512324 4:-0.00181896 5:0.510965 6:-0.579144 7:-0.632476 8:-0.740385 9:-0.564286 10:0.316677 11:0.235237 12:-0.0504332 13:-0.653621 14:-0.706381 15:-0.991122 16:-0.239192 17:-0.424404 18:-0.881659 19:0.146419 20:-0.921989 
100 1:0.179999 2:0.471165 3:0.685903 4:-0.310677 5:0.779131 6:-0.705442 7:-0.624128 8:-0.703297 9:-0.75 10:0.329182 11:0.0173311 12:-0.304529 13:-0.749961 14:-0.811045 15:-0.992222 16:-0.069802 17:-0.452349 18:-0.594885 19:-0.036332 20:-0.912731 
100 1:-0.399999 2:0.517403 3:0.581231 4:-0.209729 5:0.536149 6:-0.759452 7:-0.424747 8:-0.570292 9:-0.806122 10:0.393421 11:-0.30887 12:-0.522346 13:-0.805369 14:-0.870696 15:-0.994969 16:0.138976 17:-0.633207 18:-0.140125 19:-0.0949607 20:-0.674188 
100 1:-0.86 2:0.359498 3:0.503334 4:-0.179401 5:0.623104 6:-0.557541 7:-0.677302 8:-0.538462 9:-0.671429 10:0.193234 11:0.588858 12:0.108525 13:-0.54033 14:-0.690403 15:-0.989854 16:-0.0480683 17:-0.645348 18:-0.858681 19:-0.146334 20:-0.813148 
100 1:-0.9 2:0.363887 3:0.466265 4:-0.00739468 5:0.735932 6:-0.594931 7:-0.684982 8:-0.140584 9:-0.628571 10:0.256071 11:-0.280319 12:-0.445411 13:-0.782061 14:-0.833964 15:-0.993488 16:-0.111337 17:-0.0440306 18:-0.855456 19:-0.32511 20:-0.864571 
100 1:-0.76 2:0.452383 3:0.571122 4:-0.171613 5:0.770159 6:-0.564188 7:-0.481149 8:-0.740385 9:-0.564286 10:0.283313 11:-0.584164 12:-0.701681 13:-0.872491 14:-0.91894 15:-0.996381 16:-0.0422683 17:-0.521269 18:-0.835374 19:-0.21556 20:-0.648271 
100 1:-0.64 2:0.397264 3:0.531218 4:0.171376 5:0.538828 6:-0.534275 7:-0.675714 8:-0.34413 9:-0.435714 10:0.386675 11:-0.487914 12:-0.550178 13:-0.852213 14:-0.843738 15:-0.996103 16:-0.316604 17:-0.796641 18:-0.837613 19:-0.148551 20:-0.99864 
100 1:0.8 2:0.597122 3:0.814996 4:-0.328373 5:0.80622 6:-0.699903 7:-0.760887 8:-0.52071 9:-0.785714 10:0.516501 11:-0.838017 12:-0.864755 13:-0.964237 14:-0.962389 15:-0.998627 16:0.136022 17:-0.474539 18:-0.188769 19:-0.265158 20:-0.93122 
100 1:-0.9 2:0.421966 3:0.460101 4:-0.176842 5:0.574602 6:-0.450976 7:-0.0811971 8:-0.622378 9:-0.660714 10:0.20247 11:0.670321 12:0.0710577 13:-0.435546 14:-0.718485 15:-0.981508 16:0.0973538 17:-0.378865 18:-0.785849 19:-0.0790881 20:-0.895603 
100 1:-0.379999 2:0.587935 3:0.594485 4:0.0799521 5:0.84597 6:-0.86747 7:0.0445347 8:-0.538462 9:-0.821429 10:0.508665 11:-0.672543 12:-0.755926 13:-0.898479 14:-0.932922 15:-0.99662 16:0.117355 17:-0.573945 18:-0.203013 19:-0.39611 20:-0.626815 
100 1:0.68 2:0.54435 3:0.761664 4:-0.520397 5:0.967285 6:-0.815538 7:-0.884952 8:-0.266968 9:-0.794643 10:0.37225 11:-0.670797 12:-0.777985 13:-0.920669 14:-0.942199 15:-0.997774 16:-0.0542213 17:-0.446513 18:-0.466018 19:-0.183075 20:-0.997823 
100 1:-0.88 2:0.488007 3:0.48781 4:-0.558751 5:0.561187 6:-0.541753 7:-0.338462 8:-0.554945 9:-0.65 10:0.091428 11:0.457261 12:-0.238759 13:-0.559702 14:-0.810903 15:-0.988273 16:0.20767 17:-0.546282 18:-0.826281 19:-0.403926 20:-0.566405 
100 1:-0.94 2:0.408492 3:0.481163 4:-0.18143 5:0.495485 6:-0.442667 7:-0.345733 8:0.107692 9:-0.446429 10:0.27034 11:0.371467 12:-0.0364687 13:-0.587633 14:-0.730173 15:-0.985595 16:-0.285035 17:-0.180866 18:-0.372417 19:-0.0626166 20:-0.842986 
100 1:-0.82 2:0.439522 3:0.54592 4:0.0730419 5:0.754766 6:-0.651433 7:-0.673313 8:-0.570292 9:-0.732143 10:0.40494 11:0.591174 12:0.217207 13:-0.551666 14:-0.621252 15:-0.989986 16:-0.228949 17:-0.784963 18:-0.422734 19:0.129965 20:-0.999915 
100 1:-0.139999 2:0.471879 3:0.638396 4:0.0825663 5:0.819837 6:-0.746296 7:-0.249803 8:-0.307692 9:-0.607143 10:0.484848 11:-0.387383 12:-0.476072 13:-0.836951 14:-0.820975 15:-0.989756 16:-0.193338 17:-0.137546 18:-0.253598 19:-0.00473599 20:-0.63589 
100 1:-0.88 2:0.635399 3:0.551519 4:-0.138707 5:0.860972 6:-0.761529 7:-0.331027 8:-0.00307692 9:-0.803571 10:0.482254 11:-0.611909 12:-0.761244 13:-0.867748 14:-0.939588 15:-0.997389 16:0.304054 17:-0.763957 18:-0.873208 19:-0.423204 20:-0.836031 
100 1:0.54 2:0.612841 3:0.753403 4:-0.247406 5:0.832716 6:-0.844917 7:-0.465425 8:-0.0620347 9:-0.77551 10:0.541667 11:-0.780188 12:-0.827914 13:-0.947024 14:-0.952628 15:-0.997923 16:0.0608109 17:-0.564623 18:-0.537013 19:-0.284473 20:-0.798211 
100 1:-0.499999 2:0.573849 3:0.547748 4:-0.185159 5:0.721657 6:-0.756959 7:-0.0660678 8:-0.833846 9:-0.714286 10:0.417756 11:-0.233084 12:-0.516736 13:-0.766676 14:-0.875322 15:-0.992633 16:0.0782509 17:-0.440078 18:-0.618744 19:-0.207893 20:-0.588549 
100 1:0.56 2:0.491783 3:0.769451 4:-0.628182 5:0.682442 6:-0.56585 7:-0.601483 8:-0.819398 9:-0.757143 10:0.205998 11:-0.517453 12:-0.712594 13:-0.888152 14:-0.927661 15:-0.99714 16:0.0595555 17:-0.662887 18:-0.355978 19:-0.409297 20:-0.93743 
100 1:-0.66 2:0.472594 3:0.537187 4:0.068234 5:0.567508 6:-0.35646 7:-0.377374 8:-0.446154 9:-0.446429 10:0.438097 11:0.0710989 12:-0.176931 13:-0.694801 14:-0.747782 15:-0.989465 16:-0.203962 17:-0.645322 18:0.0117206 19:-0.15831 20:-0.73578 
100 1:-0.86 2:0.454017 3:0.408114 4:-0.250807 5:0.812642 6:-0.574159 7:-0.40758 8:-0.376923 9:-0.821429 10:0.228518 11:-0.116798 12:-0.436782 13:-0.691626 14:-0.853604 15:-0.991866 16:0.0913537 17:-0.669957 18:-0.931513 19:-0.542246 20:-0.690109 
100 1:-0.96 2:0.411248 3:0.428077 4:-0.165672 5:0.405833 6:-0.319069 7:-0.474971 8:-0.125506 9:-0.741071 10:0.168431 11:0.432887 12:-0.0908738 13:-0.471316 14:-0.762798 15:-0.981291 16:0.078582 17:-0.68864 18:-0.874194 19:-0.0435745 20:-0.785451 
100 1:-0.56 2:0.460753 3:0.567156 4:0.0505379 5:0.797477 6:-0.612658 7:-0.619808 8:0.33995 9:-0.696429 10:0.430262 11:-0.186665 12:-0.355554 13:-0.773024 14:-0.798111 15:-0.993847 16:-0.158996 17:-0.61263 18:-0.673958 19:-0.163654 20:-0.760384 
100 1:-0.499999 2:0.542819 3:0.552043 4:-0.084632 5:0.631188 6:-0.56585 7:-0.184404 8:-0.653846 9:-0.735714 10:0.474834 11:-0.296365 12:-0.488195 13:-0.794714 14:-0.855721 15:-0.991637 16:-0.0260218 17:-0.336807 18:-0.399546 19:-0.00117228 20:-0.625508 
100 1:-0.68 2:0.560069 3:0.561742 4:-0.103224 5:0.780278 6:-0.673591 7:0.351528 8:-0.384615 9:-0.767857 10:0.380552 11:-0.715714 12:-0.810861 13:-0.896184 14:-0.951267 15:-0.996304 16:0.19221 17:-0.30093 18:0.124462 19:-0.427147 20:-0.273615 
100 1:-0.56 2:0.519036 3:0.56881 4:-0.197993 5:0.613158 6:-0.715829 7:0.089592 8:-0.335385 9:-0.803571 10:0.323163 11:0.35711 12:-0.161984 13:-0.583768 14:-0.784226 15:-0.986508 16:0.250741 17:-0.206238 18:-0.541373 19:-0.320404 20:-0.595659 
100 1:-0.74 2:0.537716 3:0.616184 4:-0.0568632 5:0.80751 6:-0.742141 7:-0.00316215 8:-0.819398 9:-0.839286 10:0.426007 11:-0.129203 12:-0.40683 13:-0.753216 14:-0.839901 15:-0.992773 16:0.0239878 17:-0.405111 18:-0.908952 19:0.144267 20:-0.616623 
100 1:-0.72 2:0.567317 3:0.573444 4:0.147958 5:0.800405 6:-0.801591 7:-0.756786 8:-0.729097 9:-0.545918 10:0.538086 11:-0.258781 12:-0.444182 13:-0.798334 14:-0.838215 15:-0.995089 16:-0.000871456 17:-0.863895 18:-0.335463 19:-0.0402005 20:-0.931479 
100 1:-0.139999 2:0.574666 3:0.674448 4:-0.287168 5:0.660255 6:-0.609888 7:-0.243955 8:-0.604396 9:-0.8 10:0.438771 11:0.0640046 12:-0.3225 13:-0.735714 14:-0.823551 15:-0.988754 16:0.152188 17:-0.896385 18:-0.620297 19:-0.151995 20:-0.876746 
100 1:-0.8 2:0.543534 3:0.565964 4:0.265943 5:0.855566 6:-0.713752 7:-0.378042 8:-0.893491 9:-0.653061 10:0.488792 11:-0.330571 12:-0.502863 13:-0.808467 14:-0.857538 15:-0.989289 16:0.0145273 17:-0.127398 18:-0.297584 19:-0.0769332 20:-0.981815 
100 1:-1 2:0.488211 3:0.352152 4:-0.123534 5:0.889719 6:-0.803371 7:-0.106031 8:-0.480769 9:-0.760204 10:0.24642 11:0.675355 12:0.00665331 13:-0.354541 14:-0.743185 15:-0.979622 16:0.233323 17:-0.362821 18:-0.723722 19:-0.142981 20:-0.368261 
100 1:-0.88 2:0.610391 3:0.491108 4:0.0214894 5:0.727677 6:-0.410469 7:-0.365652 8:-1 9:-0.821429 10:0.4121 11:0.0206435 12:-0.41581 13:-0.658767 14:-0.853397 15:-0.993619 16:0.324416 17:-0.740722 18:-0.36425 19:0.290763 20:-0.797711 
100 1:-0.96 2:0.429621 3:0.468197 4:-0.0736451 5:0.777555 6:-0.498546 7:0.138129 8:-0.406593 9:-0.65 10:0.197022 11:-0.17454 12:-0.466369 13:-0.706023 14:-0.860524 15:-0.992198 16:0.0960366 17:-0.511245 18:-0.630823 19:-0.233441 20:-0.502969 
100 1:-0.98 2:0.437583 3:0.395282 4:-0.0671554 5:0.736563 6:-0.894705 7:-0.230771 8:-0.493433 9:-0.761905 10:0.274284 11:0.214014 12:-0.177803 13:-0.616836 14:-0.777218 15:-0.990447 16:-0.0244608 17:-0.474503 18:-0.780578 19:-0.0748914 20:-0.422428 
100 1:-0.84 2:0.626825 3:0.484697 4:-0.0127327 5:0.487315 6:-0.514333 7:-0.254606 8:-0.811189 9:-0.660714 10:0.55521 11:-0.347868 12:-0.557076 13:-0.781906 14:-0.881656 15:-0.991322 16:0.194073 17:-0.514458 18:0.0730859 19:-0.264924 20:-0.794431 
100 1:-0.82 2:0.492498 3:0.525515 4:-0.268155 5:0.696546 6:-0.677192 7:-0.421155 8:-0.277592 9:-0.757143 10:0.25109 11:-0.0923392 12:-0.447549 13:-0.726098 14:-0.859076 15:-0.991998 16:0.123199 17:-0.232662 18:-0.335105 19:-0.122562 20:-0.653257 
100 1:-0.98 2:0.449015 3:0.406111 4:0.108507 5:0.912914 6:-0.681346 7:-0.282668 8:-0.851648 9:-0.65 10:0.357565 11:0.203639 12:-0.127208 13:-0.596067 14:-0.748951 15:-0.989665 16:-0.0821661 17:-0.474471 18:-0.945831 19:-0.340167 20:-0.592174 
100 1:-0.98 2:0.464224 3:0.324638 4:-0.174538 5:0.0715207 6:-0.0351752 7:0.173693 8:-1 9:-0.714286 10:-0.0272935 11:0.513356 12:-0.254605 13:-0.0728407 14:-0.814691 15:-0.987697 16:0.483054 17:-0.37664 18:-0.417448 19:-0.259228 20:-0.433082 
100 1:-0.9 2:0.419414 3:0.533724 4:-0.0596053 5:0.71879 6:-0.667359 7:-0.148515 8:-0.0226244 9:-0.642857 10:0.31045 11:0.757466 12:0.251727 13:-0.489384 14:-0.642439 15:-0.966493 16:-0.13354 17:-0.153246 18:-0.736174 19:-0.325415 20:-0.473804 
100 1:-0.96 2:0.447178 3:0.386611 4:0.0599161 5:0.505633 6:-0.52015 7:-0.0979009 8:-0.713528 9:-0.628571 10:0.32939 11:0.0633319 12:-0.244624 13:-0.641528 14:-0.78796 15:-0.990491 16:-0.147349 17:-0.443798 18:-0.848991 19:0.205091 20:-0.809069 
100 1:-0.98 2:0.383893 3:0.472656 4:-0.162857 5:0.45478 6:-0.147348 7:-0.40631 8:-0.335385 9:-0.357143 10:0.198474 11:0.284454 12:-0.123672 13:-0.587382 14:-0.760945 15:-0.988067 16:-0.155408 17:-0.284269 18:-0.85562 19:-0.313592 20:-0.6617 
100 1:-0.92 2:0.407268 3:0.373583 4:-0.140609 5:0.699154 6:-0.695749 7:-0.191456 8:-0.570292 9:-0.732143 10:0.24175 11:0.48313 12:0.0124364 13:-0.500009 14:-0.722861 15:-0.985693 16:-0.188662 17:-0.568133 18:-0.841675 19:-0.125159 20:-0.725649 
100 1:-0.94 2:0.555374 3:0.433882 4:0.095235 5:0.614591 6:-0.692286 7:0.0727625 8:-0.769231 9:-0.607143 10:0.481683 11:0.665176 12:0.140469 13:-0.462575 14:-0.686262 15:-0.978341 16:-0.100272 17:-0.260018 18:-0.827625 19:-0.222711 20:-0.424012 
100 1:-0.96 2:0.500766 3:0.452262 4:0.1994 5:0.665931 6:-0.533444 7:-0.0979009 8:-0.584615 9:-0.607143 10:0.445569 11:0.390595 12:0.0136332 13:-0.523901 14:-0.705247 15:-0.989672 16:-0.0867071 17:-0.549096 18:-0.823892 19:-0.0360166 20:-0.64632 
100 1:-0.9 2:0.460549 3:0.523194 4:-0.204227 5:0.476136 6:-0.674283 7:-0.377374 8:-0.538462 9:-0.767857 10:0.310191 11:0.269416 12:-0.142438 13:-0.618194 14:-0.767843 15:-0.989104 16:0.0454521 17:-0.385768 18:-0.878957 19:-0.499082 20:-0.660599 
100 1:-0.98 2:0.454221 3:0.434971 4:-0.0399532 5:0.788046 6:-0.932696 7:-0.334024 8:-0.501538 9:-0.714286 10:0.359848 11:0.445632 12:0.0337736 13:-0.557313 14:-0.705077 15:-0.985462 16:-0.104009 17:-0.413462 18:-0.879494 19:0.0234604 20:-0.747679 
100 1:-0.76 2:0.674288 3:0.597454 4:-0.112108 5:0.824853 6:-0.324609 7:-0.142449 8:-0.446154 9:-0.714286 10:0.542808 11:0.168751 12:-0.32197 13:-0.646862 14:-0.829194 15:-0.988733 16:0.308512 17:-0.688534 18:-0.72511 19:-0.0653938 20:-0.752308 
100 1:-0.019999 2:0.677146 3:0.634584 4:-0.250642 5:0.604415 6:-0.530951 7:-0.162613 8:-0.169231 9:-0.892857 10:0.463678 11:-0.258435 12:-0.61361 13:-0.79026 14:-0.904217 15:-0.995322 16:0.469915 17:-0.681466 18:-0.44928 19:-0.12094 20:-0.67999 
100 1:-0.159999 2:0.669797 3:0.674139 4:-0.140188 5:0.683173 6:-0.512256 7:0.211269 8:-0.604396 9:-0.6875 10:0.58847 11:-0.583313 12:-0.724978 13:-0.8912 14:-0.928541 15:-0.996061 16:0.244344 17:-0.634172 18:-0.127493 19:-0.287041 20:-0.789739 
100 1:-0.76 2:0.547412 3:0.600187 4:-0.164374 5:0.763058 6:-0.737492 7:-0.173078 8:-0.713528 9:-0.806122 10:0.399491 11:0.441468 12:-0.083871 13:-0.612645 14:-0.760745 15:-0.98306 16:0.0751435 17:-0.176675 18:-0.380465 19:-0.145539 20:-0.745716 
100 1:-1 2:0.340002 3:0.41769 4:-0.409303 5:0.762763 6:-0.463648 7:-0.500724 8:-0.723077 9:-0.928571 10:-0.0414072 11:0.80629 12:0.0616887 13:-0.385615 14:-0.731013 15:-0.983337 16:0.00550345 17:-0.178531 18:-0.857098 19:0.0529911 20:-0.909552 
100 1:-0.98 2:0.489129 3:0.40982 4:-0.00450627 5:0.54072 6:-0.354799 7:-0.221721 8:-0.703297 9:-0.65 10:0.393939 11:0.266452 12:-0.10815 13:-0.55104 14:-0.750263 15:-0.984891 16:-0.0243989 17:-0.284722 18:-0.100603 19:-0.145535 20:-0.776946 
100 1:-0.7 2:0.518934 3:0.56394 4:0.157025 5:0.777211 6:-0.604071 7:-0.298367 8:-0.622378 9:-0.778571 10:0.451276 11:0.160436 12:-0.168398 13:-0.652219 14:-0.763931 15:-0.99264 16:0.0334956 17:-0.701117 18:-0.76408 19:-0.0272543 20:-0.743578 
100 1:-0.88 2:0.564152 3:0.500159 4:-0.204976 5:0.710191 6:-0.162581 7:-0.253104 8:-0.740385 9:-0.678571 10:0.25934 11:0.673839 12:-0.11206 13:-0.422873 14:-0.779189 15:-0.988382 16:0.345109 17:-0.588851 18:-0.0583343 19:-0.448751 20:-0.838792 
100 1:-0.98 2:0.469021 3:0.350642 4:-0.0494411 5:0.45306 6:-0.0877995 7:-0.146405 8:-0.538462 9:-0.607143 10:0.221254 11:0.640456 12:-0.00624219 13:-0.374498 14:-0.745738 15:-0.987141 16:0.126045 17:-0.559175 18:-0.53237 19:-0.231015 20:-0.821259 
100 1:-0.78 2:0.492294 3:0.525505 4:-0.282031 5:0.450767 6:-0.634815 7:-1 8:-0.446154 9:-0.848214 10:0.365919 11:-0.689939 12:-0.763477 13:-0.891847 14:-0.934207 15:-0.995569 16:-0.293178 17:0.0510633 18:-0.950191 19:0.0247457 20:-0.999999 
100 1:-0.6 2:0.429723 3:0.569868 4:-0.146934 5:0.620525 6:-0.470295 7:-0.834616 8:-0.406593 9:-0.65 10:0.367476 11:0.842954 12:0.367449 13:-0.504459 14:-0.589706 15:-0.988717 16:-0.216232 17:-0.768488 18:-0.809111 19:0.135044 20:-0.908645 
100 1:-0.78 2:0.423803 3:0.520358 4:-0.339195 5:0.418303 6:-0.362692 7:-0.669231 8:-0.501538 9:-0.580357 10:0.232202 11:0.0854662 12:-0.275604 13:-0.6885 14:-0.806151 15:-0.992033 16:-0.0326769 17:-0.318566 18:-0.490862 19:-0.0322802 20:-0.9941 
100 1:-0.86 2:0.407778 3:0.492289 4:-0.232855 5:0.557188 6:-0.467595 7:-0.421155 8:-0.335385 9:-0.580357 10:0.20631 11:0.640402 12:0.0788188 13:-0.496893 14:-0.712093 15:-0.98695 16:0.0247664 17:-0.255465 18:-0.32655 19:-0.0852159 20:-0.704351 
100 1:-0.96 2:0.388078 3:0.383652 4:0.0277049 5:0.830013 6:-0.693671 7:-0.421155 8:-0.692308 9:-0.767857 10:0.265982 11:0.476425 12:0.0615426 13:-0.494577 14:-0.695256 15:-0.985811 16:-0.0877077 17:-0.0911084 18:-0.813112 19:0.0750214 20:-0.821775 
100 1:-0.986543 2:0.413596 3:0.489624 4:-0.025751 5:0.633506 6:-0.641859 7:0.00635738 8:-0.19603 9:-0.448332 10:0.29478 11:0.708895 12:0.36907 13:-0.357599 14:-0.548458 15:-0.985853 16:0.0979069 17:-0.139577 18:-0.751135 19:-0.072517 20:-0.699277 
100 1:-0.963341 2:0.352047 3:0.385261 4:-0.0237866 5:0.620053 6:-0.654371 7:-0.19049 8:-0.19603 9:-0.490874 10:0.300903 11:0.746033 12:0.181777 13:-0.339726 14:-0.622805 15:-0.981751 16:-0.0455722 17:-0.136217 18:-0.750836 19:0.0155316 20:-0.656928 
100 1:-0.978845 2:0.411657 3:0.460873 4:0.0186265 5:0.620091 6:-0.216334 7:-0.160992 8:-0.454068 9:-0.48493 10:0.170091 11:0.353894 12:0.0822722 13:-0.179565 14:-0.672651 15:-0.984062 16:-0.0658759 17:-0.471084 18:-0.815755 19:0.369972 20:-0.850268 
100 1:-0.897059 2:0.387159 3:0.418942 4:-0.0797183 5:0.62021 6:-0.349339 7:-0.34775 8:-0.504236 9:-0.607463 10:0.257005 11:0.772727 12:0.0775306 13:-0.544762 14:-0.7349 15:-0.986965 16:-0.107669 17:-0.450886 18:-0.938142 19:0.142856 20:-0.819722 
100 1:-0.94827 2:0.425743 3:0.403041 4:-0.0313366 5:0.622899 6:-0.35378 7:-0.463758 8:-0.432264 9:-0.347544 10:0.36016 11:0.167153 12:0.133292 13:-0.54781 14:-0.736264 15:-0.983043 16:-0.18617 17:-0.406598 18:-0.73283 19:-0.178384 20:-0.775546 
100 1:-0.984329 2:0.420537 3:0.391135 4:0.0454329 5:0.614183 6:-0.330986 7:-0.222799 8:-0.513547 9:-0.539973 10:0.278383 11:0.382115 12:-0.167639 13:-0.392852 14:-0.733855 15:-0.98527 16:-0.232351 17:-0.421263 18:-0.917523 19:0.134867 20:-0.802619 
100 1:-0.613041 2:0.436766 3:0.49977 4:-0.133908 5:0.615949 6:-0.395113 7:-0.514431 8:-0.45458 9:-0.638631 10:0.339923 11:0.569645 12:-0.0765531 13:-0.52742 14:-0.620399 15:-0.988541 16:-0.172568 17:-0.698396 18:-0.874925 19:0.0983518 20:-0.774703 
100 1:-0.645591 2:0.528937 3:0.593941 4:0.0318362 5:0.654525 6:-0.577203 7:-0.00349953 8:-0.539787 9:-0.66535 10:0.466791 11:0.153977 12:-0.144881 13:-0.675283 14:-0.759339 15:-0.986268 16:-0.00839981 17:-0.0992855 18:-0.451774 19:-0.186036 20:-0.901966 
100 1:-0.522621 2:0.531387 3:0.557101 4:0.176284 5:0.637317 6:-0.606838 7:-0.163016 8:-0.543745 9:-0.659725 10:0.487547 11:0.173505 12:-0.174108 13:-0.678948 14:-0.736685 15:-0.986583 16:0.00371324 17:-0.311042 18:-0.523083 19:-0.0660929 20:-0.907949 
100 1:-0.912708 2:0.523834 3:0.458112 4:0.19722 5:0.662575 6:-0.555835 7:-0.0649498 8:-0.50178 9:-0.696091 10:0.502179 11:0.242724 12:-0.125367 13:-0.552661 14:-0.729121 15:-0.987651 16:-0.0389281 17:-0.51941 18:-0.680169 19:-0.085088 20:-0.747289 
100 1:-0.436374 2:0.545983 3:0.623061 4:-0.0512205 5:0.659719 6:-0.613852 7:0.0356172 8:-0.510915 9:-0.781446 10:0.479244 11:0.0866553 12:-0.260005 13:-0.717705 14:-0.751665 15:-0.986301 16:-0.0049431 17:-0.484773 18:-0.637288 19:-0.190759 20:-0.878355 
100 1:-0.707397 2:0.511789 3:0.466711 4:0.188427 5:0.657365 6:-0.58804 7:-0.0102737 8:-0.512021 9:-0.62364 10:0.493151 11:0.136297 12:-0.0580435 13:-0.61573 14:-0.715078 15:-0.98816 16:-0.0718651 17:-0.469998 18:-0.755181 19:-0.154397 20:-0.742546 
100 1:-0.852542 2:0.533837 3:0.502845 4:0.0467576 5:0.661032 6:-0.635655 7:-0.0635473 8:-0.488118 9:-0.588837 10:0.435606 11:0.219571 12:-0.120982 13:-0.619496 14:-0.733404 15:-0.986055 16:-0.0463545 17:-0.317682 18:-0.719377 19:-0.333623 20:-0.766089 
100 1:-0.822357 2:0.519649 3:0.471228 4:0.1898 5:0.660715 6:-0.610512 7:-0.01763 8:-0.553169 9:-0.617556 10:0.483966 11:0.335298 12:-0.0408769 13:-0.647217 14:-0.70702 15:-0.989012 16:-0.060014 17:-0.530184 18:-0.654876 19:-0.156718 20:-0.749087 
100 1:-0.936519 2:0.459733 3:0.402303 4:-0.00383847 5:0.663629 6:-0.62955 7:0.110411 8:-0.490511 9:-0.570725 10:0.301889 11:0.176433 12:-0.0993931 13:-0.633555 14:-0.727728 15:-0.985642 16:-0.0300316 17:-0.403893 18:-0.798719 19:-0.433162 20:-0.887015 
100 1:-0.432705 2:0.566398 3:0.613555 4:-0.0137534 5:0.656756 6:-0.614845 7:-0.0446075 8:-0.544838 9:-0.767955 10:0.504359 11:0.0833026 12:-0.259826 13:-0.722849 14:-0.805506 15:-0.98702 16:0.0374835 17:-0.454134 18:-0.636153 19:-0.185708 20:-0.887303 
100 1:-0.856099 2:0.495458 3:0.416968 4:-0.0136568 5:0.657963 6:-0.637871 7:-0.0375026 8:-0.488988 9:-0.695684 10:0.29312 11:0.230076 12:-0.129012 13:-0.630575 14:-0.725287 15:-0.984524 16:-0.0588205 17:-0.33821 18:-0.718571 19:-0.24942 20:-0.821272 
100 1:-0.642547 2:0.559763 3:0.5654 4:0.079415 5:0.656097 6:-0.618538 7:-0.0858411 8:-0.602711 9:-0.756318 10:0.472603 11:0.0880701 12:-0.3179 13:-0.73105 14:-0.810027 15:-0.986394 16:0.114172 17:-0.498092 18:-0.643305 19:-0.17225 20:-0.880037 
100 1:-0.910649 2:0.372155 3:0.425419 4:0.0787896 5:0.660089 6:-0.630541 7:-0.0160555 8:-0.486476 9:-0.596585 10:0.427615 11:0.148988 12:-0.0910474 13:-0.633318 14:-0.735787 15:-0.984297 16:-0.0297914 17:-0.349356 18:-0.782459 19:-0.456667 20:-0.839694 
100 1:-0.920103 2:0.497601 3:0.471587 4:0.236658 5:0.699 6:-0.617359 7:-0.30438 8:-0.380022 9:-0.746493 10:0.458697 11:0.0453549 12:-0.203539 13:-0.667887 14:-0.737178 15:-0.98605 16:-0.246324 17:-0.235729 18:-0.813829 19:0.250451 20:-0.774805 
100 1:-0.870516 2:0.483311 3:0.477843 4:-0.169842 5:0.696312 6:-0.657486 7:-0.289476 8:-0.283561 9:-0.775505 10:0.382213 11:0.018547 12:-0.383195 13:-0.655331 14:-0.759829 15:-0.991135 16:0.0301298 17:-0.252215 18:-0.33942 19:0.0437067 20:-0.681576 
100 1:-0.872633 2:0.466061 3:0.574762 4:0.0277757 5:0.699829 6:-0.64871 7:-0.179283 8:-0.392734 9:-0.747814 10:0.331362 11:0.126872 12:-0.195838 13:-0.650468 14:-0.758275 15:-0.989046 16:0.0667601 17:-0.299729 18:-0.70912 19:0.206274 20:-0.675343 
100 1:-0.871528 2:0.455548 3:0.52471 4:0.147554 5:0.699777 6:-0.644411 7:-0.180289 8:-0.421482 9:-0.741268 10:0.325394 11:0.131836 12:-0.222944 13:-0.650407 14:-0.7602 15:-0.988872 16:-0.136473 17:-0.311074 18:-0.679572 19:-0.0641235 20:-0.768914 
100 1:-0.880618 2:0.448301 3:0.312847 4:0.169825 5:0.698704 6:-0.642954 7:-0.193506 8:-0.29034 9:-0.709955 10:0.32446 11:0.78865 12:-0.143205 13:-0.227011 14:-0.708232 15:-0.98809 16:-0.156678 17:-0.263776 18:-0.61964 19:-0.164016 20:-0.730751 
100 1:-0.898358 2:0.47882 3:0.470911 4:0.200801 5:0.69775 6:-0.634729 7:-0.184847 8:-0.435714 9:-0.731736 10:0.452677 11:0.0406902 12:-0.177442 13:-0.661749 14:-0.735333 15:-0.986219 16:-0.180668 17:-0.188483 18:-0.715824 19:0.208797 20:-0.766822 
100 1:-0.964022 2:0.473206 3:0.470034 4:0.215661 5:0.697118 6:-0.617815 7:-0.230605 8:-0.458742 9:-0.739376 10:0.501972 11:0.0554218 12:-0.184381 13:-0.685612 14:-0.737624 15:-0.985039 16:-0.180901 17:-0.202739 18:-0.798704 19:0.23223 20:-0.783369 
100 1:-0.832318 2:0.424926 3:0.542091 4:-0.168343 5:0.784896 6:-0.690775 7:-0.352758 8:-0.513809 9:-0.718194 10:0.363844 11:0.222841 12:-0.396401 13:-0.734738 14:-0.760071 15:-0.990521 16:0.00595464 17:-0.329479 18:-0.564426 19:-0.351553 20:-0.727468 
100 1:-0.908959 2:0.429213 3:0.487964 4:-0.166854 5:0.783965 6:-0.668477 7:-0.279685 8:-0.562576 9:-0.615682 10:0.291563 11:-0.0874174 12:-0.148897 13:-0.534714 14:-0.840284 15:-0.990775 16:-0.0727638 17:-0.406146 18:-0.76941 19:-0.158654 20:-0.682863 
100 1:-0.702711 2:0.447586 3:0.502327 4:0.144657 5:0.778595 6:-0.617148 7:-0.405212 8:-0.578623 9:-0.751299 10:0.312422 11:0.151791 12:-0.248091 13:-0.692688 14:-0.809056 15:-0.992016 16:-0.000292911 17:-0.635028 18:-0.410147 19:-0.259113 20:-0.741312 
100 1:-0.925252 2:0.434419 3:0.359977 4:-0.106149 5:0.781186 6:-0.668535 7:-0.278117 8:-0.567984 9:-0.660718 10:0.264685 11:0.274449 12:-0.125157 13:-0.627901 14:-0.834925 15:-0.99061 16:-0.164938 17:-0.432397 18:-0.694204 19:0.104262 20:-0.669147 
100 1:-0.720507 2:0.449627 3:0.550435 4:-0.16791 5:0.782949 6:-0.705306 7:-0.260057 8:-0.51444 9:-0.746957 10:0.311229 11:-0.204133 12:-0.114801 13:-0.653243 14:-0.787705 15:-0.989334 16:-0.0906077 17:-0.404631 18:-0.404757 19:-0.394477 20:-0.728376 
100 1:-0.945008 2:0.339492 3:0.424347 4:-0.101695 5:0.781856 6:-0.732625 7:-0.330206 8:-0.587309 9:-0.745516 10:0.217466 11:0.21574 12:-0.166936 13:-0.486459 14:-0.741255 15:-0.988779 16:-0.151599 17:-0.328492 18:-0.694413 19:-0.0780799 20:-0.741868 
100 1:-0.728779 2:0.434623 3:0.507517 4:-0.0866954 5:0.78062 6:-0.679872 7:-0.413481 8:-0.621708 9:-0.751702 10:0.434257 11:0.136364 12:-0.370907 13:-0.697918 14:-0.830843 15:-0.992584 16:-0.155245 17:-0.612502 18:-0.64326 19:-0.349464 20:-0.731859 
100 1:-0.902426 2:0.455037 3:0.395491 4:-0.157755 5:0.78467 6:-0.646128 7:-0.427327 8:-0.634451 9:-0.694314 10:0.297997 11:0.16199 12:-0.202374 13:-0.646012 14:-0.769483 15:-0.98964 16:-0.0573687 17:-0.387302 18:-0.709433 19:0.123829 20:-0.655811 
100 1:-0.978206 2:0.435133 3:0.317893 4:-0.0757875 5:0.783813 6:-0.64621 7:-0.386232 8:-0.610143 9:-0.509721 10:0.267123 11:0.381192 12:-0.29268 13:-0.538954 14:-0.819698 15:-0.98968 16:-0.0918194 17:-0.416119 18:-0.724722 19:-0.420872 20:-0.679422 
100 1:-0.952861 2:0.429723 3:0.305692 4:-0.0516713 5:0.780914 6:-0.67911 7:-0.43248 8:-0.563261 9:-0.595601 10:0.266916 11:0.336454 12:-0.406309 13:-0.686625 14:-0.796941 15:-0.989399 16:-0.0680154 17:-0.459834 18:-0.399053 19:-0.187543 20:-0.691397 
100 1:-0.882745 2:0.41625 3:0.48782 4:-0.331394 5:0.784172 6:-0.711304 7:-0.279175 8:-0.559551 9:-0.757842 10:0.185139 11:-0.0577218 12:-0.0972873 13:-0.731653 14:-0.805726 15:-0.980948 16:-0.117847 17:-0.285962 18:-0.405623 19:-0.313383 20:-0.992674 
100 1:-0.79721 2:0.49066 3:0.559019 4:-0.0637092 5:0.784456 6:-0.616487 7:-0.419309 8:-0.615062 9:-0.769279 10:0.382887 11:-0.139706 12:-0.345719 13:-0.710729 14:-0.788932 15:-0.99213 16:-0.0635944 17:-0.688614 18:-0.628733 19:-0.127149 20:-0.73306 
100 1:-0.893974 2:0.415433 3:0.484052 4:-0.225968 5:0.78737 6:-0.690672 7:-0.250392 8:-0.558051 9:-0.757064 10:0.258873 11:0.206518 12:-0.384245 13:-0.598853 14:-0.80336 15:-0.990491 16:-0.125615 17:-0.0176527 18:-0.40631 19:-0.31378 20:-0.897432 
100 1:-0.63335 2:0.379198 3:0.359936 4:-0.205908 5:0.919447 6:-0.732003 7:-0.926358 8:-0.476644 9:-0.685271 10:0.247665 11:0.139247 12:-0.256793 13:-0.676666 14:-0.778349 15:-0.989785 16:-0.180675 17:0.145097 18:-0.584284 19:-0.00400279 20:-0.761584 
100 1:-0.99354 2:0.428499 3:0.352655 4:-0.0110662 5:0.927952 6:-0.768787 7:-0.145049 8:-0.472296 9:-0.69703 10:0.243825 11:0.571668 12:-0.257118 13:-0.478961 14:-0.774025 15:-0.984288 16:0.192799 17:0.215457 18:-0.631107 19:0.0326681 20:-0.543172 
100 1:-0.992797 2:0.473206 3:0.352376 4:0.0507988 5:0.898001 6:-0.756906 7:-0.110212 8:-0.477334 9:-0.70836 10:0.243254 11:0.0205563 12:-0.11143 13:-0.393889 14:-0.752483 15:-0.98308 16:-0.126983 17:-0.306012 18:-0.713315 19:-0.0515119 20:-0.560723 
100 1:-0.964931 2:0.382974 3:0.353383 4:-0.0148632 5:0.922899 6:-0.763037 7:-0.179363 8:-0.471007 9:-0.758106 10:0.243981 11:0.602454 12:-0.141761 13:-0.60155 14:-0.770128 15:-0.985048 16:-0.196147 17:-0.119765 18:-0.609905 19:-0.0393607 20:-0.540075 
100 1:0.627165 2:0.411044 3:0.601868 4:0.0343433 5:0.967358 6:-0.789612 7:-0.28636 8:-0.436411 9:-0.697152 10:0.315432 11:-0.315633 12:-0.499738 13:-0.784111 14:-0.916056 15:-0.991468 16:-0.0965751 17:0.0486904 18:-0.469556 19:0.059737 20:-0.666404 
100 1:-0.656947 2:0.385526 3:0.518262 4:-0.36133 5:0.937202 6:-0.719631 7:-0.308303 8:-0.472291 9:-0.692658 10:0.249481 11:0.112028 12:-0.245679 13:-0.678026 14:-0.767911 15:-0.990672 16:-0.159687 17:0.102737 18:-0.543254 19:0.011695 20:-0.957427 
100 1:-0.994532 2:0.435746 3:0.353314 4:0.000928311 5:0.916087 6:-0.778173 7:-0.176002 8:-0.474266 9:-0.727227 10:0.243047 11:0.598999 12:-0.192517 13:-0.608652 14:-0.770139 15:-0.987373 16:0.00518689 17:0.280148 18:-0.684738 19:-0.105533 20:-0.515478 
100 1:0.433618 2:0.449525 3:0.651753 4:-0.0969178 5:0.967333 6:-0.747358 7:-0.78459 8:-0.285921 9:-0.760667 10:0.308998 11:-0.535014 12:-0.478602 13:-0.763579 14:-0.896465 15:-0.988772 16:-0.152687 17:-0.26367 18:-0.590122 19:-0.0139437 20:-0.669886 
100 1:-0.992726 2:0.475554 3:0.353134 4:0.0545669 5:0.914556 6:-0.765428 7:-0.153867 8:-0.476565 9:-0.75372 10:0.243981 11:0.102317 12:-0.0290183 13:-0.617325 14:-0.769843 15:-0.986881 16:0.215664 17:0.14735 18:-0.633048 19:-0.0138009 20:-0.45062 
100 1:-0.875057 2:0.554149 3:0.304463 4:-0.0627396 5:0.488829 6:-0.479693 7:-0.202609 8:-0.811189 9:-0.660714 10:0.546544 11:0.693307 12:0.00398102 13:-0.438035 14:-0.726781 15:-0.985128 16:0.109667 17:-0.319015 18:-0.564769 19:-0.217065 20:-0.779743 
100 1:-0.939499 2:0.604062 3:0.335173 4:-0.0798408 5:0.489007 6:-0.45644 7:-0.0710028 8:-0.811189 9:-0.660714 10:0.545558 11:-0.339998 12:-0.383181 13:-0.726266 14:-0.768109 15:-0.989069 16:0.141527 17:-0.49813 18:-0.431125 19:-0.256965 20:-0.568072 
100 1:-0.932043 2:0.382464 3:0.375313 4:0.132287 5:0.532106 6:-0.506002 7:-0.653129 8:-0.401693 9:-0.426973 10:0.382109 11:0.522705 12:-0.50982 13:-0.752888 14:-0.747177 15:-0.98857 16:-0.326498 17:-0.709742 18:-0.835837 19:-0.0204189 20:-0.999052 
100 1:-0.948484 2:0.32265 3:0.314903 4:-0.193062 5:0.481002 6:-0.132341 7:-0.19307 8:-0.154058 9:-0.178828 10:0.298568 11:-0.343192 12:-0.424672 13:-0.402811 14:-0.803465 15:-0.992122 16:0.0435455 17:-0.00156059 18:-0.930811 19:-0.121032 20:-0.783392 
100 1:-0.958851 2:0.377258 3:0.432428 4:-0.147473 5:0.479063 6:-0.11132 7:-0.286009 8:-0.167563 9:-0.210717 10:0.22966 11:-0.296841 12:-0.755954 13:-0.516363 14:-0.754426 15:-0.99492 16:-0.237798 17:-0.204977 18:-0.981053 19:-0.119169 20:-0.746722 
100 1:-0.959281 2:0.458712 3:0.431979 4:0.0572244 5:0.482226 6:-0.111689 7:-0.0655319 8:-0.142524 9:-0.0788241 10:0.234226 11:0.602944 12:-0.713448 13:-0.694171 14:-0.883323 15:-0.983798 16:0.0862523 17:-0.129953 18:-0.415746 19:-0.423944 20:-0.759102 
100 1:-0.991607 2:0.427988 3:0.412971 4:-0.172865 5:0.477902 6:-0.117367 7:-0.311207 8:-0.156014 9:-0.0246911 10:0.235367 11:-0.398183 12:-0.0907505 13:-0.482733 14:-0.85745 15:-0.987839 16:0.0844693 17:-0.108179 18:-0.747312 19:-0.0181895 20:-0.812951 
100 1:-0.969884 2:0.409615 3:0.439707 4:0.116345 5:0.694049 6:-0.586985 7:-0.333924 8:-0.52071 9:-0.692857 10:0.473848 11:0.840753 12:0.248155 13:-0.445563 14:-0.697336 15:-0.98233 16:-0.259441 17:-0.238324 18:-0.802452 19:0.135372 20:-0.833588 
100 1:-0.973522 2:0.450444 3:0.47026 4:0.10605 5:0.689571 6:-0.592993 7:-0.23511 8:-0.52071 9:-0.692857 10:0.468555 11:0.329165 12:-0.00715579 13:-0.427748 14:-0.692667 15:-0.977768 16:-0.271398 17:-0.269698 18:-0.801362 19:0.0751088 20:-0.828834 
100 1:-0.978196 2:0.485251 3:0.457556 4:0.141079 5:0.708639 6:-0.630951 7:-0.210766 8:-0.504424 9:-0.716538 10:0.293379 11:-0.0381444 12:-0.243016 13:-0.667769 14:-0.777341 15:-0.988903 16:0.166583 17:-0.259724 18:-0.910908 19:0.115013 20:-0.7553 
100 1:-0.921943 2:0.480351 3:0.412871 4:0.0912629 5:0.709994 6:-0.630185 7:-0.261837 8:-0.48731 9:-0.71763 10:0.35907 11:-0.0417027 12:-0.379225 13:-0.669302 14:-0.739967 15:-0.988603 16:-0.0144145 17:-0.150399 18:-0.960225 19:0.0502075 20:-0.749703 
100 1:-0.977511 2:0.485353 3:0.471465 4:0.244437 5:0.721697 6:-0.573513 7:-0.295985 8:-0.535961 9:-0.686485 10:0.400114 11:-0.0492395 12:-0.240326 13:-0.686855 14:-0.750422 15:-0.98548 16:-0.278453 17:-0.129707 18:-0.738473 19:0.159811 20:-0.751834 
100 1:-0.940883 2:0.491885 3:0.410846 4:0.0397066 5:0.699257 6:-0.68527 7:-0.253203 8:-0.526603 9:-0.729689 10:0.359797 11:0.471763 12:-0.153145 13:-0.68897 14:-0.733181 15:-0.984587 16:-0.215199 17:-0.478513 18:-0.900323 19:0.14342 20:-0.731094 
100 1:-0.969815 2:0.481066 3:0.452481 4:0.100491 5:0.704155 6:-0.623537 7:-0.221357 8:-0.512614 9:-0.734564 10:0.490245 11:-0.0126194 12:-0.273677 13:-0.654878 14:-0.742225 15:-0.984359 16:-0.118913 17:-0.326203 18:-0.937007 19:0.118423 20:-0.755915 
100 1:-0.988171 2:0.435541 3:0.237004 4:-0.0806195 5:0.893933 6:-0.675139 7:-0.217811 8:-0.789297 9:-0.785895 10:0.105334 11:0.612968 12:-0.0159264 13:-0.49295 14:-0.737372 15:-0.97848 16:-0.119648 17:-0.0120466 18:-0.858591 19:0.297643 20:-0.800173 
100 1:-0.983119 2:0.272839 3:0.400333 4:0.10471 5:0.899241 6:-0.679182 7:-0.28499 8:-0.776011 9:-0.682094 10:0.282327 11:0.742553 12:-0.117798 13:-0.369812 14:-0.723033 15:-0.988215 16:-0.278777 17:-0.162341 18:-0.944816 19:0.341674 20:-0.744484 
100 1:-0.909532 2:0.364295 3:0.456459 4:-0.010361 5:0.732502 6:-0.693924 7:-0.385154 8:-0.622378 9:-0.660714 10:0.246368 11:0.211079 12:-0.045148 13:-0.571943 14:-0.69086 15:-0.989833 16:-0.225114 17:-0.44978 18:-0.759123 19:-0.0731543 20:-0.97067 
100 1:-0.959115 2:0.363887 3:0.428825 4:-0.0568913 5:0.735149 6:-0.707225 7:-0.222872 8:-0.622378 9:-0.660714 10:0.162879 11:0.401549 12:-0.17688 13:-0.546689 14:-0.688607 15:-0.983654 16:-0.194979 17:-0.366683 18:-0.552885 19:-0.111505 20:-0.749681 
100 1:-0.961363 2:0.366745 3:0.412876 4:-0.0166716 5:0.731436 6:-0.702598 7:-0.746142 8:-0.622378 9:-0.660714 10:0.283831 11:0.49326 12:0.0905495 13:-0.586919 14:-0.697451 15:-0.985869 16:-0.206029 17:-0.447049 18:-0.651562 19:-0.0895682 20:-0.957798 
100 1:-1 2:0.288354 3:0.342888 4:-0.00562964 5:0.710138 6:-0.53486 7:-0.720838 8:-0.0307692 9:-0.455443 10:0.188616 11:0.470138 12:0.0165979 13:-0.437562 14:-0.704908 15:-0.976068 16:-0.156027 17:-0.362881 18:-0.981531 19:-0.316054 20:-0.831571 
100 1:-0.996776 2:0.589262 3:0.34321 4:0.0158721 5:0.675296 6:-0.539383 7:-0.0602462 8:-0.944481 9:-0.521588 10:0.236353 11:0.293542 12:0.353041 13:-0.481086 14:-0.731141 15:-0.980645 16:0.143208 17:-0.35545 18:-0.222094 19:-0.0369608 20:-0.847964 
100 1:-0.866436 2:0.498622 3:0.437396 4:0.108153 5:0.670707 6:-0.579273 7:-0.0808465 8:-0.507111 9:-0.706196 10:0.429016 11:0.262505 12:-0.0430787 13:-0.462933 14:-0.64066 15:-0.981705 16:-0.0526348 17:-0.396206 18:-0.690755 19:0.00997287 20:-0.865582 
100 1:-0.919115 2:0.442074 3:0.452621 4:0.0775644 5:0.674338 6:-0.595627 7:-0.0107169 8:-0.514797 9:-0.711543 10:0.347551 11:0.705549 12:-0.125298 13:-0.626844 14:-0.680927 15:-0.97717 16:-0.167078 17:-0.433744 18:-0.696503 19:-0.164541 20:-0.861934 
100 1:-0.90228 2:0.526181 3:0.285572 4:0.155258 5:0.654916 6:-0.599688 7:-0.227443 8:-0.429066 9:-0.643041 10:0.433064 11:0.39236 12:0.0356282 13:-0.65779 14:-0.662045 15:-0.985815 16:-0.0355987 17:-0.247279 18:-0.722318 19:-0.0875988 20:-0.875428 
100 1:-0.828019 2:0.497397 3:0.381412 4:0.168305 5:0.644988 6:-0.604251 7:0.0426162 8:-0.427592 9:-0.713509 10:0.338937 11:0.55195 12:0.0351714 13:-0.416834 14:-0.708631 15:-0.985991 16:-0.11129 17:-0.236391 18:-0.690695 19:-0.1813 20:-0.843158 
100 1:-0.987537 2:0.304277 3:0.365187 4:-0.222674 5:0.802431 6:-0.489909 7:-0.44151 8:-0.590356 9:-0.305853 10:0.198267 11:0.622266 12:-0.019325 13:-0.538848 14:-0.71524 15:-0.975894 16:-0.196754 17:0.155679 18:-0.820816 19:-0.162786 20:-0.618976 
100 1:-0.998085 2:0.360927 3:0.26215 4:-0.0706202 5:0.788582 6:-0.401455 7:-0.231062 8:-0.647442 9:-0.332265 10:0.192715 11:0.584835 12:0.169631 13:-0.444909 14:-0.751611 15:-0.987427 16:-0.0953962 17:-0.37502 18:-0.772799 19:0.218048 20:-0.642229 
100 1:-0.994306 2:0.414821 3:0.258668 4:-0.0768418 5:0.780693 6:-0.495235 7:-0.20898 8:-0.650848 9:-0.364602 10:0.19313 11:0.620369 12:-0.0262775 13:-0.447235 14:-0.737651 15:-0.979929 16:-0.176352 17:-0.392064 18:-0.720153 19:0.226752 20:-0.644985 
100 1:-0.980254 2:0.345922 3:0.376965 4:-0.224018 5:0.804531 6:-0.545838 7:-0.21631 8:-0.568643 9:-0.311 10:0.152138 11:0.449707 12:0.0259851 13:-0.571067 14:-0.689484 15:-0.977777 16:-0.203118 17:-0.125083 18:-0.909505 19:-0.146914 20:-0.611409 
100 1:-0.989276 2:0.394713 3:0.442767 4:-0.109044 5:0.769977 6:-0.604034 7:-0.165636 8:-0.627098 9:-0.508352 10:0.204597 11:0.68957 12:0.275467 13:-0.482468 14:-0.682959 15:-0.983629 16:-0.0658395 17:-0.326647 18:-0.584254 19:-0.122104 20:-0.434779 
100 1:-0.990367 2:0.351638 3:0.43978 4:-0.113582 5:0.767616 6:-0.608421 7:0.0688991 8:-0.634174 9:-0.5236 10:0.14176 11:0.908964 12:0.192919 13:-0.439409 14:-0.675521 15:-0.984685 16:0.018981 17:-0.352379 18:-0.744729 19:-0.12253 20:-0.503896 
100 1:-0.935641 2:0.417883 3:0.465764 4:-0.184206 5:0.774302 6:-0.650336 7:-0.245596 8:-0.181367 9:-0.696868 10:0.188616 11:0.560919 12:-0.168621 13:-0.564708 14:-0.731388 15:-0.988061 16:0.053177 17:-0.387256 18:-0.686589 19:-0.100266 20:-0.744995 
100 1:-0.944767 2:0.413596 3:0.447629 4:-0.102745 5:0.776833 6:-0.595773 7:-0.248566 8:-0.141448 9:-0.562191 10:0.217103 11:0.721092 12:0.0350024 13:-0.394266 14:-0.660332 15:-0.985417 16:-0.188313 17:-0.156813 18:-0.664447 19:0.22438 20:-0.792564 
100 1:-0.196157 2:0.426355 3:0.577481 4:-0.18157 5:0.79071 6:-0.745225 7:-0.461442 8:-0.144001 9:-0.748999 10:0.442196 11:-0.0371721 12:-0.627022 13:-0.744178 14:-0.764269 15:-0.993833 16:0.0325713 17:-0.421183 18:-0.757988 19:-0.0378411 20:-0.756718 
100 1:-0.811912 2:0.438808 3:0.469138 4:0.193523 5:0.786833 6:-0.732099 7:-0.214874 8:-0.0996054 9:-0.729196 10:0.252076 11:0.539598 12:0.0972051 13:-0.524124 14:-0.706645 15:-0.987164 16:-0.0905241 17:-0.309039 18:-0.734248 19:-0.00182449 20:-0.689629 
100 1:-0.9455 2:0.361743 3:0.304778 4:-0.0732104 5:0.772474 6:-0.566004 7:-0.360161 8:-0.133618 9:-0.628897 10:0.162308 11:0.665777 12:0.225374 13:-0.44964 14:-0.703159 15:-0.985012 16:-0.00778488 17:-0.0800743 18:-0.66479 19:0.10877 20:-0.78652 
100 1:-0.869278 2:0.426253 3:0.47003 4:0.0954901 5:0.777929 6:-0.725941 7:-0.213868 8:-0.0801102 9:-0.729121 10:0.387142 11:0.407188 12:0.104733 13:-0.557061 14:-0.68792 15:-0.986823 16:-0.0939335 17:-0.30243 18:-0.780683 19:-0.109768 20:-0.647191 
100 1:-0.966514 2:0.337246 3:0.397075 4:-0.113802 5:0.777266 6:-0.579038 7:-0.315421 8:-0.125434 9:-0.664895 10:0.194479 11:0.67662 12:0.153821 13:-0.420229 14:-0.672258 15:-0.98379 16:-0.165025 17:-0.0733497 18:-0.662894 19:0.147498 20:-0.780134 
100 1:-0.641935 2:0.464734 3:0.565244 4:-0.304143 5:0.770457 6:-0.698157 7:-0.43125 8:-0.180346 9:-0.769761 10:0.20356 11:0.560164 12:-0.0279905 13:-0.541333 14:-0.734153 15:-0.989547 16:0.0592936 17:-0.346711 18:-0.766304 19:-0.0204168 20:-0.745982 
100 1:-0.936089 2:0.467286 3:0.499788 4:0.0980507 5:0.785742 6:-0.834587 7:-0.215873 8:-0.0856932 9:-0.710834 10:0.383147 11:0.466052 12:0.0324398 13:-0.532189 14:-0.67847 15:-0.987027 16:-0.0527331 17:-0.309683 18:-0.820428 19:-0.0310376 20:-0.665669 
100 1:-0.92366 2:0.386751 3:0.448019 4:-0.0386154 5:0.733597 6:-0.717906 7:-0.39937 8:-0.622378 9:-0.660714 10:0.220631 11:0.207126 12:-0.190813 13:-0.641341 14:-0.733098 15:-0.991304 16:-0.170542 17:-0.560632 18:-0.424525 19:-0.0854972 20:-0.910393 
100 1:-0.846571 2:0.395121 3:0.433604 4:-0.40666 5:0.736669 6:-0.744266 7:-0.398127 8:-0.617845 9:-0.670516 10:0.131434 11:-0.115115 12:-0.620677 13:-0.757438 14:-0.897085 15:-0.989678 16:0.356338 17:-0.633241 18:-0.158699 19:-0.192562 20:-0.882151 
100 1:-0.949757 2:0.400837 3:0.348969 4:-0.0476821 5:0.739941 6:-0.708071 7:-0.440121 8:-0.664664 9:-0.753492 10:0.268628 11:0.255949 12:-0.017717 13:-0.539884 14:-0.741654 15:-0.989361 16:-0.0316762 17:-0.727621 18:-0.720706 19:0.18837 20:-0.895038 
100 1:-0.970823 2:0.407574 3:0.326311 4:-0.0987406 5:0.741458 6:-0.662174 7:-0.356046 8:-0.672117 9:-0.693512 10:0.220527 11:0.415098 12:-0.195924 13:-0.533332 14:-0.795671 15:-0.989413 16:-0.119244 17:-0.763257 18:-0.619043 19:0.010154 20:-0.901231 
100 1:-0.88165 2:0.390732 3:0.434285 4:-0.0337108 5:0.73466 6:-0.717906 7:-0.673002 8:-0.622378 9:-0.660714 10:0.165421 11:0.215838 12:-0.212666 13:-0.632056 14:-0.775327 15:-0.98985 16:-0.138369 17:-0.595059 18:-0.433812 19:-0.0835854 20:-0.902319 
100 1:-0.880822 2:0.388792 3:0.46623 4:-0.0773505 5:0.737886 6:-0.717906 7:-0.713204 8:-0.622378 9:-0.660714 10:0.226754 11:0.209841 12:-0.171161 13:-0.656006 14:-0.735768 15:-0.991508 16:-0.189222 17:-0.483423 18:-0.715032 19:-0.0861409 20:-0.895554 
100 1:-0.963977 2:0.390221 3:0.384871 4:-0.101306 5:0.719682 6:-0.720566 7:-0.278322 8:-0.631052 9:-0.610243 10:0.171544 11:0.668037 12:0.145206 13:-0.470999 14:-0.741644 15:-0.984747 16:-0.116315 17:-0.432075 18:-0.772202 19:-0.0527673 20:-0.890867 
100 1:-0.88766 2:0.389609 3:0.460823 4:-0.0243842 5:0.735211 6:-0.717906 7:-0.356119 8:-0.622378 9:-0.660714 10:0.269043 11:0.221321 12:-0.123119 13:-0.630781 14:-0.793474 15:-0.990769 16:-0.166168 17:-0.467129 18:-0.749224 19:-0.0734164 20:-0.944495 
100 1:-0.968652 2:0.390119 3:0.408503 4:-0.151158 5:0.724764 6:-0.718899 7:-0.278322 8:-0.632959 9:-0.611174 10:0.199512 11:0.488928 12:-0.0445907 13:-0.532601 14:-0.734886 15:-0.984994 16:-0.11944 17:-0.423064 18:-0.422868 19:-0.0400748 20:-0.873254 
100 1:-0.949361 2:0.390221 3:0.344897 4:-0.0621478 5:0.728056 6:-0.718619 7:-0.278322 8:-0.633153 9:-0.607779 10:0.187059 11:0.487657 12:-0.112138 13:-0.503653 14:-0.72297 15:-0.984035 16:-0.109354 17:-0.437457 18:-0.769037 19:-0.0832657 20:-0.888048 
100 1:-0.957832 2:0.355313 3:0.398874 4:-0.162804 5:0.733363 6:-0.699316 7:-0.248765 8:-0.622378 9:-0.660714 10:0.164695 11:0.503419 12:-0.108456 13:-0.605966 14:-0.69078 15:-0.982883 16:-0.139951 17:-0.262165 18:-0.523919 19:-0.113191 20:-0.825782 
100 1:-0.619141 2:0.411759 3:0.604213 4:-0.228347 5:0.890886 6:-0.81353 7:-0.445188 8:-0.431592 9:-0.676157 10:0.237028 11:0.839763 12:0.0997677 13:-0.628703 14:-0.599855 15:-0.989948 16:-0.153407 17:-0.835098 18:-0.619759 19:-0.0870596 20:-0.913051 
100 1:-0.688302 2:0.384505 3:0.339454 4:-0.0121657 5:0.899059 6:-0.790656 7:-0.733764 8:-0.470472 9:-0.617376 10:0.262142 11:0.381323 12:0.094478 13:-0.53931 14:-0.617947 15:-0.988962 16:-0.0928164 17:-0.71882 18:-0.574295 19:-0.0948499 20:-0.95536 
100 1:-0.440896 2:0.401347 3:0.630978 4:0.0697102 5:0.905941 6:-0.709924 7:-0.84737 8:-0.470775 9:-0.651066 10:0.21923 11:0.77589 12:0.173176 13:-0.435668 14:-0.52929 15:-0.991285 16:-0.216709 17:-0.775027 18:-0.547405 19:-0.112711 20:-0.891249 
34.91873076556944 1:-0.533382 2:0.3251 3:0.510579 4:0.0849787 5:0.906119 6:-0.813303 7:-0.330934 8:-0.438518 9:-0.628511 10:0.229815 11:0.910976 12:0.269981 13:-0.513304 14:-0.713664 15:-0.990927 16:-0.269833 17:-0.684423 18:-0.626314 19:-0.108033 20:-0.953552 
100 1:-0.858533 2:0.417883 3:0.567035 4:-0.409207 5:0.909933 6:-0.670508 7:-0.927165 8:-0.437175 9:-0.660511 10:0.262142 11:0.896219 12:0.158553 13:-0.551426 14:-0.525107 15:-0.993705 16:-0.190536 17:-0.745866 18:-0.555184 19:-0.110801 20:-0.9483 
100 1:-0.949217 2:0.400327 3:0.341045 4:-0.120475 5:0.702147 6:-0.717061 7:-0.222621 8:-0.652769 9:-0.723582 10:0.234848 11:0.581929 12:0.0439009 13:-0.447146 14:-0.689778 15:-0.982886 16:-0.160441 17:-0.436477 18:-0.84166 19:-0.0694392 20:-0.746909 
100 1:-0.922874 2:0.454323 3:0.453034 4:-0.0599135 5:0.706509 6:-0.708667 7:-0.300629 8:-0.642786 9:-0.666523 10:0.243721 11:0.676991 12:0.0283879 13:-0.477045 14:-0.69898 15:-0.987267 16:-0.0753545 17:-0.293755 18:-0.745192 19:0.00515375 20:-0.815425 
100 1:-0.991694 2:0.400633 3:0.450881 4:-0.0654509 5:0.707203 6:-0.70977 7:-0.289046 8:-0.610172 9:-0.652234 10:0.231683 11:0.622105 12:0.0585185 13:-0.478515 14:-0.68012 15:-0.985663 16:-0.0887993 17:-0.243266 18:-0.619879 19:0.00534984 20:-0.807556 
100 1:-0.984329 2:0.376033 3:0.329827 4:-0.0419402 5:0.728299 6:-0.699232 7:-0.214259 8:-0.638885 9:-0.607435 10:0.22198 11:0.541985 12:0.105446 13:-0.467629 14:-0.683366 15:-0.982402 16:-0.14029 17:-0.369908 18:-0.819428 19:0.0441863 20:-0.861082 
100 1:-0.884745 2:0.386445 3:0.336286 4:-0.03688 5:0.719037 6:-0.719201 7:-0.3156 8:-0.653048 9:-0.660264 10:0.265722 11:0.657196 12:-0.008983 13:-0.612486 14:-0.706116 15:-0.986269 16:-0.165986 17:-0.516479 18:-0.81683 19:0.0747826 20:-0.937386 
100 1:-0.997328 2:0.390936 3:0.360793 4:-0.0955398 5:0.707081 6:-0.714842 7:-0.262802 8:-0.58943 9:-0.609421 10:0.232721 11:0.489995 12:0.175204 13:-0.487253 14:-0.694302 15:-0.984934 16:-0.119313 17:-0.489577 18:-0.84166 19:-0.0156488 20:-0.752376 
100 1:-0.797842 2:0.410636 3:0.364582 4:-0.0608181 5:0.708982 6:-0.711278 7:-0.292797 8:-0.596338 9:-0.696553 10:0.280978 11:0.67733 12:0.0988587 13:-0.513683 14:-0.720213 15:-0.983451 16:-0.0806269 17:-0.330273 18:-0.707059 19:0.0540952 20:-0.831426 
100 1:-0.972635 2:0.401143 3:0.335274 4:-0.0908684 5:0.702095 6:-0.706847 7:-0.228316 8:-0.571697 9:-0.672318 10:0.241179 11:0.552254 12:0.121918 13:-0.445024 14:-0.697664 15:-0.985313 16:-0.108121 17:-0.413408 18:-0.841421 19:0.01502 20:-0.835335 
100 1:-0.921626 2:0.386139 3:0.462452 4:-0.016435 5:0.721667 6:-0.718293 7:-0.31124 8:-0.625595 9:-0.607584 10:0.257731 11:0.226312 12:0.023322 13:-0.555145 14:-0.707957 15:-0.991859 16:-0.155368 17:-0.582932 18:-0.829357 19:-0.0651402 20:-0.897947 
100 1:-0.923125 2:0.459426 3:0.368884 4:-0.0681689 5:0.654694 6:-0.343862 7:-0.483015 8:-0.512321 9:-0.557599 10:0.315587 11:0.626102 12:0.0155061 13:-0.413997 14:-0.732822 15:-0.987185 16:-0.0328588 17:-0.323256 18:-0.713285 19:-0.188299 20:-0.421637 
100 1:-0.957802 2:0.423905 3:0.487776 4:-0.147945 5:0.653794 6:-0.317312 7:-0.427333 8:-0.510846 9:-0.339868 10:0.355282 11:0.526936 12:0.056769 13:-0.601803 14:-0.707261 15:-0.985699 16:-0.257414 17:-0.370248 18:-0.698534 19:-0.088462 20:-0.517228 
100 1:-0.898036 2:0.233439 3:0.437933 4:-0.105065 5:0.656747 6:-0.325319 7:-0.501895 8:-0.514109 9:-0.285714 10:0.342829 11:0.712122 12:0.0173333 13:-0.340889 14:-0.668023 15:-0.968585 16:-0.117916 17:-0.360558 18:-0.809992 19:-0.214965 20:-0.517322 
100 1:-0.909464 2:0.442687 3:0.463348 4:-0.0733099 5:0.631789 6:-0.311659 7:-0.497747 8:-0.538462 9:-0.32694 10:0.329753 11:0.639564 12:0.206572 13:-0.5867 14:-0.635188 15:-0.986652 16:-0.295434 17:-0.393147 18:-0.581417 19:0.0337722 20:-0.744789 
100 1:-0.862969 2:0.428294 3:0.499259 4:-0.0517812 5:0.651897 6:-0.317588 7:-0.271224 8:-0.457312 9:-0.301935 10:0.374948 11:0.587975 12:0.176693 13:-0.554704 14:-0.723929 15:-0.973081 16:-0.228589 17:-0.362715 18:-0.731516 19:-0.137241 20:-0.623779 
100 1:-0.867945 2:0.446463 3:0.486814 4:-0.113079 5:0.623007 6:-0.311335 7:-0.49823 8:-0.538462 9:-0.46708 10:0.224834 11:0.531827 12:-0.0491313 13:-0.502891 14:-0.681781 15:-0.98704 16:-0.306016 17:-0.384151 18:-0.799689 19:-0.106304 20:-0.702234 
100 1:-0.975827 2:0.357558 3:0.384891 4:-0.0911553 5:0.828998 6:-0.65642 7:-0.443012 8:-0.692308 9:-0.767857 10:0.129878 11:0.661106 12:0.0998773 13:-0.412361 14:-0.694882 15:-0.983831 16:-0.0772357 17:-0.30122 18:-0.799779 19:0.0109235 20:-0.821647 
100 1:-0.934548 2:0.390017 3:0.47438 4:-0.136682 5:0.799515 6:-0.632653 7:-0.457427 8:-0.61339 9:-0.76062 10:0.188979 11:0.656975 12:-0.265235 13:-0.461987 14:-0.791369 15:-0.989583 16:-0.172081 17:-0.342746 18:-0.441173 19:-0.152061 20:-0.736085 
100 1:-0.964012 2:0.373175 3:0.384004 4:-0.0465382 5:0.82995 6:-0.654549 7:-0.437237 8:-0.692308 9:-0.767857 10:0.150841 11:0.559768 12:0.0624653 13:-0.445003 14:-0.694646 15:-0.98346 16:-0.0806742 17:-0.341149 18:-0.801735 19:0.0226931 20:-0.820388 
100 1:-0.981675 2:0.404614 3:0.388304 4:0.0675455 5:0.815547 6:-0.629254 7:-0.560269 8:-0.817667 9:-0.776637 10:0.201432 11:0.480616 12:0.0783437 13:-0.416749 14:-0.695111 15:-0.984452 16:-0.116857 17:-0.300644 18:-0.692606 19:0.075437 20:-0.937048 
100 1:-0.916897 2:0.371338 3:0.404665 4:0.039032 5:0.816313 6:-0.693359 7:-0.439625 8:-0.705664 9:-0.771862 10:0.294521 11:0.22196 12:0.0782204 13:-0.456995 14:-0.791911 15:-0.99067 16:-0.043691 17:-0.553741 18:-0.711374 19:-0.242243 20:-0.855201 
100 1:-0.989536 2:0.370624 3:0.384499 4:-0.0693891 5:0.816986 6:-0.669011 7:-0.448046 8:-0.692308 9:-0.767857 10:0.210824 11:0.678993 12:0.135974 13:-0.431587 14:-0.694622 15:-0.985505 16:-0.0721089 17:-0.114625 18:-0.709314 19:0.0461642 20:-0.812457 
100 1:-0.972059 2:0.379402 3:0.383821 4:-0.00224765 5:0.814619 6:-0.650144 7:-0.443581 8:-0.692308 9:-0.767857 10:0.249118 11:0.620266 12:0.120813 13:-0.429949 14:-0.695161 15:-0.983553 16:-0.0819369 17:-0.186032 18:-0.77147 19:0.0403902 20:-0.819215 
100 1:-0.952399 2:0.392059 3:0.422646 4:-0.145498 5:0.79052 6:-0.674064 7:-0.454192 8:-0.612753 9:-0.765526 10:0.246731 11:0.617005 12:-0.284644 13:-0.544018 14:-0.704185 15:-0.986925 16:-0.110977 17:-0.45416 18:-0.496163 19:-0.167184 20:-0.810445 
100 1:-0.960594 2:0.418189 3:0.479147 4:-0.160376 5:0.808962 6:-0.685695 7:-0.460913 8:-0.585903 9:-0.751995 10:0.100976 11:0.0808932 12:-0.415742 13:-0.400471 14:-0.695959 15:-0.983781 16:-0.0850879 17:-0.471948 18:-0.43959 19:-0.273509 20:-0.802387 
100 1:-0.988056 2:0.458916 3:0.457372 4:0.00512783 5:0.814858 6:-0.606081 7:-0.520729 8:-0.781602 9:-0.768055 10:0.333281 11:0.457766 12:0.136161 13:-0.53869 14:-0.698372 15:-0.984243 16:-0.0943774 17:-0.135285 18:-0.812739 19:0.0323143 20:-0.973087 
100 1:-0.941874 2:0.468511 3:0.451445 4:-0.0530523 5:0.523944 6:-0.141079 7:-0.123913 8:-0.707457 9:-0.139595 10:0.300228 11:0.864765 12:0.102769 13:-0.42227 14:-0.707231 15:-0.983495 16:-0.160492 17:-0.282647 18:-0.695383 19:0.294241 20:-0.786663 
100 1:-0.954417 2:0.486271 3:0.472968 4:-0.0340689 5:0.530181 6:-0.0635452 7:-0.291718 8:-0.845697 9:-0.110771 10:0.299191 11:0.443779 12:0.250512 13:-0.519524 14:-0.641883 15:-0.982384 16:-0.0248501 17:-0.276863 18:-0.706119 19:-0.0338873 20:-0.790873 
100 1:-0.998271 2:0.441053 3:0.360879 4:-0.187174 5:0.521077 6:-0.0215194 7:0.136647 8:-0.928433 9:-0.12772 10:0.281081 11:0.882337 12:0.366572 13:-0.570431 14:-0.701828 15:-0.973892 16:0.0109869 17:-0.197763 18:-0.493789 19:-0.111965 20:-0.704935 
100 1:-0.95471 2:0.471165 3:0.475979 4:-0.123611 5:0.526861 6:-0.0650276 7:-0.117436 8:-0.816171 9:-0.119044 10:0.300592 11:0.337725 12:0.328767 13:-0.429047 14:-0.767056 15:-0.983118 16:-0.0576198 17:-0.283125 18:-0.741952 19:0.250773 20:-0.82146 
100 1:0.262989 2:0.556803 3:0.741583 4:-0.319484 5:0.548022 6:-0.30367 7:-0.431098 8:-0.51869 9:-0.614084 10:0.407794 11:0.184026 12:-0.473376 13:-0.763723 14:-0.847084 15:-0.989798 16:0.0767299 17:-0.723517 18:0.0390886 19:-0.230128 20:-0.770906 
100 1:-0.00480861 2:0.602225 3:0.68185 4:-0.180177 5:0.54745 6:-0.311442 7:-0.155309 8:-0.583676 9:-0.645427 10:0.528124 11:0.215892 12:-0.32947 13:-0.768499 14:-0.825443 15:-0.992288 16:0.0989402 17:-0.371166 18:-0.20906 19:-0.154165 20:-0.637336 
100 1:-0.159581 2:0.489844 3:0.471335 4:-0.207183 5:0.520698 6:-0.276964 7:-0.220418 8:-0.632664 9:-0.659523 10:0.365504 11:0.263316 12:-0.184728 13:-0.577476 14:-0.761695 15:-0.983643 16:0.0190137 17:-0.537397 18:-0.0564978 19:-0.120578 20:-0.795792 
100 1:-0.00470963 2:0.525467 3:0.67132 4:-0.183115 5:0.521306 6:-0.267866 7:-0.15353 8:-0.576062 9:-0.6447 10:0.388751 11:-0.201737 12:-0.483513 13:-0.711059 14:-0.803386 15:-0.987119 16:0.0954508 17:-0.332874 18:-0.00371775 19:-0.320743 20:-0.744602 
100 1:0.194093 2:0.510462 3:0.681833 4:-0.324109 5:0.514663 6:-0.296931 7:-0.42513 8:-0.500753 9:-0.705132 10:0.49917 11:-0.18504 12:-0.495801 13:-0.789112 14:-0.872613 15:-0.9912 16:0.0754091 17:-0.553503 18:0.307543 19:-0.109994 20:-0.766013 
100 1:-0.772867 2:0.502501 3:0.562973 4:0.00791496 5:0.771708 6:-0.600725 7:-0.2244 8:-0.632955 9:-0.528662 10:0.355542 11:0.379169 12:-0.042092 13:-0.630515 14:-0.707915 15:-0.990585 16:-0.00516506 17:-0.389391 18:-0.780817 19:-0.0743969 20:-0.73683 
100 1:-0.993685 2:0.430132 3:0.296814 4:-0.0643174 5:0.766452 6:-0.631523 7:-0.226755 8:-0.649063 9:-0.490068 10:0.252906 11:0.539632 12:0.0807739 13:-0.495697 14:-0.736521 15:-0.987887 16:-0.0271934 17:-0.395005 18:-0.81689 19:-0.0861729 20:-0.600838 
100 1:-0.99255 2:0.430234 3:0.415395 4:-0.0428986 5:0.763141 6:-0.602794 7:-0.248302 8:-0.649892 9:-0.492277 10:0.245901 11:0.509187 12:-0.0664258 13:-0.510898 14:-0.701701 15:-0.987566 16:-0.108936 17:-0.436489 18:-0.830686 19:-0.115032 20:-0.601524 
100 1:-0.975493 2:0.417781 3:0.501016 4:-0.124748 5:0.769084 6:-0.570186 7:-0.329869 8:-0.692637 9:-0.495636 10:0.255915 11:-0.507554 12:-0.426285 13:-0.860366 14:-0.700029 15:-0.995935 16:-0.0833159 17:-0.350971 18:-0.806244 19:-0.157377 20:-0.601868 
100 1:-0.988446 2:0.367357 3:0.397218 4:-0.10583 5:0.765097 6:-0.612681 7:0.00568261 8:-0.627843 9:-0.515931 10:0.187889 11:0.813636 12:0.187798 13:-0.342367 14:-0.69958 15:-0.982642 16:0.0189519 17:-0.373539 18:-0.603216 19:-0.121823 20:-0.466871 
100 1:-0.761668 2:0.432377 3:0.471385 4:-0.154894 5:0.767925 6:-0.575854 7:-0.457268 8:-0.678175 9:-0.56072 10:0.259755 11:0.104462 12:-0.00457487 13:-0.679114 14:-0.803672 15:-0.994409 16:-0.0848005 17:-0.399171 18:-0.833209 19:-0.215038 20:-0.587581 
100 1:-0.925432 2:0.4335 3:0.489521 4:-0.123407 5:0.764427 6:-0.564896 7:-0.457096 8:-0.731539 9:-0.50555 10:0.271949 11:0.525236 12:-0.530093 13:-0.541203 14:-0.872472 15:-0.990544 16:-0.112989 17:-0.397974 18:-0.834194 19:-0.132582 20:-0.578703 
100 1:-0.991294 2:0.407063 3:0.352605 4:-0.10582 5:0.762178 6:-0.591127 7:-0.433492 8:-0.684297 9:-0.484504 10:0.253995 11:0.698895 12:0.155388 13:-0.403455 14:-0.664371 15:-0.983668 16:-0.185693 17:-0.339316 18:-0.803497 19:-0.0642364 20:-0.644456 
100 1:-0.829356 2:0.443503 3:0.53124 4:0.0467175 5:0.770881 6:-0.599928 7:-0.222442 8:-0.649863 9:-0.620763 10:0.314446 11:0.324759 12:-0.146298 13:-0.641392 14:-0.711208 15:-0.990527 16:-0.0790223 17:-0.579943 18:-0.796539 19:-0.103623 20:-0.656575 
100 1:-0.733679 2:0.507196 3:0.552977 4:-0.0397989 5:0.773175 6:-0.600785 7:-0.292525 8:-0.639257 9:-0.576315 10:0.387661 11:0.33359 12:-0.0736752 13:-0.51258 14:-0.755737 15:-0.989682 16:-0.0194831 17:-0.326387 18:-0.771724 19:-0.0717752 20:-0.612983 
100 1:-0.99072 2:0.414515 3:0.402209 4:-0.0985648 5:0.772398 6:-0.605667 7:-0.236467 8:-0.652059 9:-0.490683 10:0.246264 11:0.447228 12:-0.0349659 13:-0.482092 14:-0.759834 15:-0.988177 16:-0.109165 17:-0.378763 18:-0.82861 19:-0.0617683 20:-0.578951 
100 1:-0.990108 2:0.34878 3:0.393707 4:-0.114842 5:0.768677 6:-0.608899 7:-0.0660678 8:-0.623783 9:-0.487743 10:0.108136 11:0.692239 12:0.116085 13:-0.357529 14:-0.681156 15:-0.983024 16:0.0166159 17:-0.331941 18:-0.639348 19:-0.120167 20:-0.447998 
100 1:-1 2:0.386853 3:0.353527 4:-0.0191722 5:0.69605 6:-0.67389 7:-0.199116 8:-0.630063 9:-0.521549 10:0.255137 11:0.545316 12:0.0925685 13:-0.488873 14:-0.686815 15:-0.982116 16:-0.0367667 17:-0.305175 18:-0.575325 19:0.307268 20:-0.794434 
100 1:-0.843339 2:0.470348 3:0.50729 4:-0.0202091 5:0.698407 6:-0.681239 7:-0.185396 8:-0.555169 9:-0.697564 10:0.281133 11:0.547019 12:0.0684723 13:-0.526034 14:-0.712367 15:-0.983588 16:-0.20421 17:-0.257487 18:-0.655369 19:0.202753 20:-0.641121 
100 1:-0.984339 2:0.492804 3:0.43237 4:0.130944 5:0.699233 6:-0.655581 7:-0.215985 8:-0.528549 9:-0.504044 10:0.338574 11:0.509047 12:-0.12867 13:-0.629879 14:-0.725466 15:-0.98357 16:-0.245487 17:-0.310954 18:-0.932633 19:0.161501 20:-0.559848 
100 1:-0.949593 2:0.406145 3:0.38593 4:-0.112048 5:0.697628 6:-0.685454 7:-0.189967 8:-0.568734 9:-0.476485 10:0.249377 11:0.515222 12:0.100412 13:-0.496843 14:-0.719423 15:-0.984302 16:-0.20775 17:-0.3708 18:-0.837718 19:0.199666 20:-0.62595 
100 1:-0.986668 2:0.398898 3:0.469947 4:-0.0497878 5:0.697782 6:-0.677521 7:-0.225822 8:-0.55398 9:-0.54197 10:0.280459 11:0.545356 12:0.0246559 13:-0.537733 14:-0.715644 15:-0.986278 16:-0.175195 17:-0.26527 18:-0.643036 19:0.00308628 20:-0.696071 
100 1:-1 2:0.379096 3:0.353208 4:-0.0957838 5:0.695237 6:-0.677137 7:-0.175513 8:-0.607449 9:-0.614316 10:0.244967 11:0.551429 12:0.0727205 13:-0.474933 14:-0.6981 15:-0.981943 16:-0.0236348 17:-0.296066 18:-0.697533 19:0.214669 20:-0.604285 
100 1:-0.736315 2:0.436154 3:0.351633 4:-0.0908705 5:0.575561 6:-0.390289 7:-0.376084 8:-0.433892 9:-0.417159 10:0.296804 11:0.380197 12:-0.0121486 13:-0.568227 14:-0.728828 15:-0.988963 16:-0.153338 17:-0.358065 18:-0.621267 19:-0.133058 20:-0.740587 
100 1:-0.938461 2:0.368174 3:0.223896 4:-0.0874184 5:0.576876 6:-0.370677 7:-0.222726 8:-0.433923 9:-0.319111 10:0.383458 11:0.423346 12:-0.0786452 13:-0.555701 14:-0.728535 15:-0.987498 16:-0.0254323 17:-0.29197 18:-0.238712 19:-0.152421 20:-0.757343 
100 1:-0.783153 2:0.463305 3:0.585171 4:-0.166973 5:0.767147 6:-0.784485 7:-0.356483 8:-0.405139 9:-0.835523 10:0.267798 11:0.509313 12:-0.0355414 13:-0.648416 14:-0.73467 15:-0.986456 16:0.00777397 17:-0.311152 18:-0.791761 19:-0.107952 20:-0.763981 
100 1:-0.0484467 2:0.464326 3:0.61651 4:-0.2099 5:0.765066 6:-0.702462 7:-0.45275 8:-0.474117 9:-0.743625 10:0.451121 11:0.360045 12:-0.396739 13:-0.583867 14:-0.822838 15:-0.986435 16:0.0280776 17:-0.548511 18:-0.599349 19:-0.12892 20:-0.887475 
100 1:-0.711067 2:0.490558 3:0.555693 4:-0.214744 5:0.771555 6:-0.767616 7:-0.282682 8:-0.422209 9:-0.714286 10:0.291563 11:0.509898 12:-0.088471 13:-0.572027 14:-0.746179 15:-0.986427 16:0.016776 17:-0.349398 18:-0.68644 19:-0.14844 20:-0.795598 
100 1:-0.0267721 2:0.556905 3:0.562455 4:-0.206311 5:0.766318 6:-0.734863 7:-0.446869 8:-0.413269 9:-0.748784 10:0.450498 11:0.531228 12:-0.416413 13:-0.794444 14:-0.77713 15:-0.990958 16:0.0161392 17:-0.485201 18:-0.628942 19:-0.116356 20:-0.936475 
100 1:-0.340619 2:0.496887 3:0.588355 4:-0.127294 5:0.766016 6:-0.704148 7:-0.440789 8:-0.408799 9:-0.733538 10:0.266812 11:0.349676 12:-0.0298177 13:-0.78709 14:-0.771605 15:-0.989331 16:0.0156189 17:-0.313322 18:-0.619505 19:-0.136736 20:-0.879882 
100 1:-0.756669 2:0.471573 3:0.553645 4:-0.185033 5:0.762254 6:-0.726362 7:-0.245715 8:-0.440885 9:-0.714286 10:0.301993 11:0.465808 12:-0.0073979 13:-0.620899 14:-0.720385 15:-0.985869 16:0.0155679 17:-0.399827 18:-0.679751 19:-0.175991 20:-0.743925 
100 1:-0.743654 2:0.501072 3:0.641493 4:-0.141438 5:0.766181 6:-0.738849 7:-0.45234 8:-0.469082 9:-0.746535 10:0.308842 11:-0.214135 12:-0.123334 13:-0.617392 14:-0.720143 15:-0.9896 16:0.035988 17:-0.481706 18:-0.606635 19:-0.1342 20:-0.847256 
100 1:-0.795913 2:0.457793 3:0.573699 4:-0.150413 5:0.749428 6:-0.735605 7:-0.339098 8:-0.429663 9:-0.760964 10:0.269251 11:0.36344 12:-0.254167 13:-0.693658 14:-0.786074 15:-0.987081 16:0.0507609 17:-0.363998 18:0.170106 19:-0.0936478 20:-0.778294 
100 1:-0.663165 2:0.446259 3:0.524875 4:-0.207237 5:0.766499 6:-0.720009 7:-0.339422 8:-0.441062 9:-0.714286 10:0.316521 11:0.470377 12:0.00559353 13:-0.596114 14:-0.732971 15:-0.987537 16:0.0189737 17:-0.182869 18:-0.662894 19:-0.237177 20:-0.736892 
100 1:-0.657957 2:0.468102 3:0.534086 4:-0.195153 5:0.76698 6:-0.789921 7:-0.396711 8:-0.39125 9:-0.7669 10:0.43187 11:0.33834 12:0.0273875 13:-0.634289 14:-0.740422 15:-0.987481 16:0.0134939 17:-0.379085 18:-0.819741 19:-0.0774085 20:-0.804139 
100 1:-0.68993 2:0.498418 3:0.557883 4:-0.190147 5:0.768716 6:-0.748644 7:-0.318418 8:-0.410015 9:-0.714286 10:0.328144 11:0.437172 12:-0.00759889 13:-0.615317 14:-0.756046 15:-0.987262 16:0.0153242 17:-0.158228 18:-0.652876 19:-0.175193 20:-0.742265 
100 1:-0.271305 2:0.515974 3:0.654571 4:-0.203372 5:0.762145 6:-0.739202 7:-0.300828 8:-0.402502 9:-0.702389 10:0.46373 11:0.29929 12:-0.370811 13:-0.607354 14:-0.829223 15:-0.987948 16:-0.113986 17:-0.427656 18:-0.681602 19:-0.0972648 20:-0.803285 
100 1:0.197904 2:0.434929 3:0.66344 4:-0.120052 5:0.764736 6:-0.775029 7:-0.319152 8:-0.371721 9:-0.666679 10:0.310554 11:-0.0431265 12:-0.348944 13:-0.656622 14:-0.784201 15:-0.988096 16:-0.081231 17:-0.186533 18:-0.670554 19:0.0174776 20:-0.753992 
100 1:-0.920325 2:0.482597 3:0.528932 4:0.223384 5:0.848213 6:-0.741308 7:-0.370428 8:-0.856768 9:-0.718561 10:0.405978 11:0.202336 12:-0.0920204 13:-0.677643 14:-0.788688 15:-0.987266 16:-0.149517 17:-0.521091 18:-0.829327 19:-0.267731 20:-0.862686 
100 1:-0.98 2:0.496683 3:0.443611 4:0.220981 5:0.836409 6:-0.641153 7:-0.507254 8:-0.877019 9:-0.779767 10:0.443182 11:0.453446 12:0.0536034 13:-0.554976 14:-0.660705 15:-0.980531 16:-0.168922 17:-0.127818 18:-0.849349 19:0.114026 20:-0.936853 
100 1:-0.98 2:0.49801 3:0.457967 4:0.109945 5:0.832816 6:-0.696932 7:-0.538141 8:-0.878886 9:-0.734891 10:0.459942 11:0.465473 12:0.0883614 13:-0.556264 14:-0.693315 15:-0.980251 16:-0.16607 17:-0.156805 18:-0.823683 19:0.109167 20:-0.971423 
100 1:-0.935455 2:0.498724 3:0.478991 4:0.0932684 5:0.824592 6:-0.746222 7:-0.393569 8:-0.787895 9:-0.762963 10:0.384703 11:0.245335 12:-0.168347 13:-0.619793 14:-0.655387 15:-0.982003 16:0.0626302 17:-0.238962 18:-0.79424 19:0.0638656 20:-0.891018 
100 1:-0.838675 2:0.543023 3:0.478193 4:0.313963 5:0.855447 6:-0.739518 7:-0.388263 8:-0.893491 9:-0.653061 10:0.492372 11:0.0783474 12:-0.0836609 13:-0.677663 14:-0.706881 15:-0.982095 16:-0.085721 17:-0.144851 18:-0.414895 19:0.0336422 20:-0.940557 
100 1:-0.958533 2:0.514647 3:0.422247 4:0.332367 5:0.855445 6:-0.73887 7:-0.396096 8:-0.893491 9:-0.653061 10:0.490089 11:-0.0042713 12:0.075306 13:-0.713789 14:-0.800908 15:-0.982822 16:-0.0298533 17:-0.174396 18:-0.595736 19:-0.0235265 20:-0.978503 
100 1:-0.98 2:0.491681 3:0.476469 4:0.0907836 5:0.834924 6:-0.731816 7:-0.53654 8:-0.879816 9:-0.719787 10:0.46565 11:0.460587 12:0.122804 13:-0.55571 14:-0.682379 15:-0.98055 16:-0.208671 17:-0.0930932 18:-0.854127 19:0.116249 20:-0.967779 
100 1:-0.96137 2:0.467184 3:0.400859 4:0.200251 5:0.845513 6:-0.713314 7:-0.40967 8:-0.758471 9:-0.655653 10:0.307285 11:0.479838 12:0.0810617 13:-0.508532 14:-0.671346 15:-0.982906 16:-0.153131 17:-0.138018 18:-0.823892 19:0.0785147 20:-0.888759 
100 1:-0.970805 2:0.480657 3:0.396848 4:0.114977 5:0.85409 6:-0.728663 7:-0.41364 8:-0.750186 9:-0.67753 10:0.339352 11:0.478079 12:0.0796136 13:-0.51424 14:-0.657992 15:-0.980583 16:-0.16596 17:-0.198893 18:-0.85032 19:0.098874 20:-0.843201 
26.18565508863644 1:-1 2:0.314688 3:0.213709 4:-0.0737177 5:0.503569 6:-0.480327 7:0.115458 8:-0.502615 9:-0.494208 10:-0.0141656 11:-0.596153 12:-0.682829 13:-0.268636 14:-0.909113 15:-0.989202 16:0.0505499 17:-0.249306 18:-0.725394 19:0.0213972 20:-0.258152 
100 1:-1 2:0.298663 3:0.2609 4:-0.0853399 5:0.507546 6:-0.463943 7:0.134768 8:-0.504806 9:-0.369176 10:0.025633 11:-0.9156 12:-0.717441 13:-0.17618 14:-0.85457 15:-0.993162 16:0.0141089 17:-0.210666 18:-0.753315 19:0.0583644 20:-0.585502 
100 1:-1 2:0.30346 3:0.291123 4:-0.0601826 5:0.504612 6:-0.46963 7:0.11989 8:-0.496458 9:-0.49055 10:-0.0114674 11:-0.798319 12:-0.67711 13:-0.436237 14:-0.865597 15:-0.981603 16:0.0348237 17:-0.230557 18:-0.745133 19:0.066711 20:-0.564219 
100 1:-0.967514 2:0.415331 3:0.350812 4:0.0204682 5:0.773729 6:-0.531404 7:0.108611 8:-0.453185 9:-0.443621 10:0.220423 11:-0.0670176 12:-0.0616887 13:-0.660556 14:-0.784251 15:-0.988637 16:0.0710864 17:-0.429082 18:-0.47405 19:-0.1621 20:-0.410614 
100 1:-1 2:0.380423 3:0.327014 4:-0.0751303 5:0.703335 6:-0.718704 7:-0.249611 8:-0.651684 9:-0.612864 10:0.191366 11:0.650842 12:0.0972736 13:-0.442634 14:-0.691769 15:-0.982924 16:-0.0821661 17:-0.207234 18:-0.623597 19:-0.0782291 20:-0.845424 
100 1:-0.988569 2:0.378687 3:0.341748 4:-0.129827 5:0.694385 6:-0.683828 7:-0.193692 8:-0.577276 9:-0.689456 10:0.230594 11:0.549314 12:0.0574405 13:-0.470316 14:-0.721108 15:-0.984612 16:-0.050237 17:-0.33454 18:-0.839345 19:-0.171327 20:-0.764293 
100 1:-1 2:0.384403 3:0.344326 4:0.00979608 5:0.694683 6:-0.67639 7:-0.216885 8:-0.641222 9:-0.532577 10:0.24616 11:0.550693 12:0.0730768 13:-0.463288 14:-0.697733 15:-0.982794 16:-0.102877 17:-0.316586 18:-0.61413 19:0.349336 20:-0.819494 
100 1:-0.995512 2:0.477697 3:0.475452 4:-0.0796307 5:0.699558 6:-0.690656 7:-0.273083 8:-0.62542 9:-0.712516 10:0.215494 11:0.552745 12:0.038232 13:-0.508884 14:-0.710776 15:-0.986993 16:-0.06517 17:-0.224657 18:-0.603873 19:-0.118308 20:-0.807259 
100 1:-0.968033 2:0.392569 3:0.355964 4:-0.123279 5:0.697506 6:-0.68599 7:-0.193665 8:-0.581735 9:-0.693848 10:0.211343 11:0.491117 12:0.0365601 13:-0.466327 14:-0.716289 15:-0.984723 16:-0.0184388 17:-0.234683 18:-0.606352 19:-0.132981 20:-0.782614 
100 1:-1 2:0.388895 3:0.345205 4:-0.0840333 5:0.695567 6:-0.676926 7:-0.167171 8:-0.608859 9:-0.550306 10:0.179846 11:0.557678 12:0.0849354 13:-0.446091 14:-0.696578 15:-0.981954 16:-0.106232 17:-0.207564 18:-0.452714 19:0.048383 20:-0.816017 
100 1:-0.979135 2:0.406859 3:0.390231 4:-0.103493 5:0.695448 6:-0.68629 7:-0.318636 8:-0.641071 9:-0.629253 10:0.284402 11:0.582814 12:0.0483684 13:-0.45773 14:-0.737165 15:-0.983744 16:-0.0467584 17:-0.192405 18:-0.425675 19:-0.0870063 20:-0.806118 
100 1:-1 2:0.377769 3:0.369622 4:-0.0202865 5:0.696076 6:-0.676803 7:-0.216151 8:-0.628646 9:-0.525759 10:0.189238 11:0.551867 12:0.0999504 13:-0.456239 14:-0.689865 15:-0.982361 16:-0.0791242 17:-0.246439 18:-0.600767 19:0.399695 20:-0.569933 
100 1:-1 2:0.37685 3:0.329158 4:-0.0986618 5:0.701651 6:-0.714245 7:-0.250491 8:-0.645975 9:-0.609225 10:0.18104 11:0.597705 12:0.0882015 13:-0.441138 14:-0.680179 15:-0.982809 16:-0.0454303 17:-0.328942 18:-0.46021 19:-0.0620112 20:-0.855631 
100 1:-1 2:0.378279 3:0.327906 4:-0.0889268 5:0.707838 6:-0.717568 7:-0.255664 8:-0.648409 9:-0.613059 10:0.197125 11:0.600476 12:0.106661 13:-0.44064 14:-0.678707 15:-0.983271 16:-0.00846531 17:-0.208943 18:-0.437978 19:-0.137442 20:-0.827754 
100 1:-0.406435 2:0.54976 3:0.640676 4:0.212116 5:0.642589 6:-0.450124 7:-0.186005 8:-0.0787466 9:-0.276774 10:0.50825 11:0.121617 12:-0.14627 13:-0.67313 14:-0.722606 15:-0.991521 16:-0.252942 17:-0.57181 18:-0.285759 19:0.0353537 20:-0.812472 
100 1:-0.0795325 2:0.548229 3:0.455432 4:0.156514 5:0.640936 6:-0.443258 7:-0.215886 8:-0.0484762 9:-0.348497 10:0.506642 11:0.0620467 12:-0.0768683 13:-0.625833 14:-0.767982 15:-0.987767 16:-0.287542 17:-0.51349 18:-0.653981 19:0.0395675 20:-0.847701 
100 1:-0.94 2:0.4187 3:0.498359 4:0.288535 5:0.651838 6:-0.400763 7:-0.295429 8:0.00126829 9:-0.142925 10:0.471773 11:0.0311507 12:-0.113947 13:-0.629227 14:-0.656141 15:-0.987134 16:-0.360268 17:-0.357245 18:-0.60344 19:0.0606983 20:-0.668723 
100 1:-0.655477 2:0.451465 3:0.673668 4:-0.263526 5:0.556466 6:-0.443517 7:-0.436205 8:-0.402339 9:-0.584933 10:0.212329 11:0.563121 12:-0.387863 13:-0.756461 14:-0.855943 15:-0.98853 16:0.0873803 17:-0.303333 18:-0.201968 19:-0.190989 20:-0.750521 
100 1:0.340026 2:0.612637 3:0.640447 4:-0.329481 5:0.54671 6:-0.37179 7:-0.443488 8:-0.485395 9:-0.591237 10:0.345372 11:0.493021 12:-0.0703314 13:-0.688891 14:-0.637127 15:-0.991901 16:-0.068201 17:-0.760299 18:0.312918 19:-0.0485386 20:-0.753486 
100 1:0.23606 2:0.622129 3:0.741549 4:-0.182185 5:0.549233 6:-0.352306 7:-0.259283 8:-0.551022 9:-0.452392 10:0.535751 11:-0.291027 12:-0.51299 13:-0.820093 14:-0.888936 15:-0.994048 16:0.131892 17:-0.703412 18:0.263557 19:-0.312258 20:-0.629267 
100 1:0.228198 2:0.518934 3:0.718636 4:-0.0372891 5:0.550548 6:-0.352522 7:-0.391862 8:-0.449094 9:-0.591386 10:0.478778 11:0.0229546 12:-0.335961 13:-0.809252 14:-0.880645 15:-0.992011 16:0.0822898 17:-0.677956 18:0.138557 19:-0.179222 20:-0.742733 
100 1:0.0276871 2:0.525263 3:0.541986 4:-0.113416 5:0.56736 6:-0.356002 7:-0.404768 8:-0.448725 9:-0.46248 10:0.472136 11:0.0100692 12:-0.493983 13:-0.8416 14:-0.876325 15:-0.989947 16:0.081744 17:-0.672328 18:0.102081 19:-0.161399 20:-0.743966 
100 1:-0.143045 2:0.489742 3:0.54878 4:-0.00339826 5:0.555179 6:-0.356142 7:-0.386689 8:-0.451341 9:-0.488446 10:0.463263 11:0.0340564 12:-0.486404 13:-0.788674 14:-0.798055 15:-0.990747 16:0.110242 17:-0.716561 18:0.104515 19:-0.184196 20:-0.748294 
100 1:0.179613 2:0.621823 3:0.498155 4:-0.249962 5:0.548371 6:-0.408922 7:-0.445479 8:-0.493006 9:-0.584626 10:0.449201 11:0.467858 12:0.0100108 13:-0.766048 14:-0.870077 15:-0.991551 16:0.144318 17:-0.761586 18:0.0931677 19:-0.206022 20:-0.757998 
100 1:-0.0122099 2:0.482699 3:0.561368 4:-0.302334 5:0.551157 6:-0.355325 7:-0.377414 8:-0.464381 9:-0.528594 10:0.44972 11:-0.209955 12:-0.223227 13:-0.730281 14:-0.805226 15:-0.994051 16:0.00860722 17:-0.719462 18:0.21763 19:-0.173895 20:-0.736663 
100 1:-0.839137 2:0.520465 3:0.76883 4:-0.244607 5:0.555102 6:-0.433764 7:-0.423768 8:-0.409467 9:-0.581778 10:0.268576 11:0.611357 12:-0.186021 13:-0.720204 14:-0.756184 15:-0.991626 16:0.163683 17:-0.718318 18:0.000910774 19:-0.173949 20:-0.746559 
100 1:-0.486841 2:0.551393 3:0.622879 4:0.0216188 5:0.563613 6:-0.355644 7:-0.378611 8:-0.466071 9:-0.455062 10:0.481891 11:-0.0305674 12:-0.254948 13:-0.697609 14:-0.876895 15:-0.994901 16:-0.203664 17:-0.673531 18:0.28455 19:-0.183687 20:-0.737426 
100 1:-0.767692 2:0.57732 3:0.600532 4:-0.234783 5:0.543447 6:-0.415212 7:-0.443501 8:-0.487499 9:-0.583958 10:0.41511 11:-0.195986 12:-0.0809566 13:-0.59904 14:-0.689372 15:-0.991208 16:0.151846 17:-0.757568 18:-0.347916 19:-0.00957003 20:-0.775617 
100 1:-0.322213 2:0.564765 3:0.556577 4:-0.242143 5:0.550212 6:-0.356233 7:-0.438619 8:-0.454742 9:-0.601642 10:0.24616 11:-0.149077 12:-0.268729 13:-0.696678 14:-0.864629 15:-0.992254 16:0.134868 17:-0.382747 18:-0.156937 19:-0.117635 20:-0.716497 
100 1:-0.71736 2:0.467388 3:0.526381 4:-0.252936 5:0.534151 6:-0.729658 7:-0.166119 8:-0.553782 9:-0.69588 10:0.155303 11:0.189428 12:-0.261306 13:-0.599465 14:-0.798505 15:-0.983218 16:-0.163126 17:-0.502738 18:-0.733487 19:-0.297504 20:-0.665064 
100 1:-0.687005 2:0.459733 3:0.523792 4:-0.169584 5:0.52163 6:-0.701454 7:-0.364388 8:-0.504366 9:-0.719466 10:0.337692 11:0.166728 12:-0.204718 13:-0.636225 14:-0.770468 15:-0.984531 16:-0.031789 17:-0.266267 18:-0.831134 19:-0.24933 20:-0.662998 
100 1:-0.757212 2:0.464836 3:0.532943 4:-0.290352 5:0.554266 6:-0.741946 7:-0.323446 8:-0.501203 9:-0.667061 10:0.350145 11:0.256012 12:-0.248553 13:-0.630036 14:-0.792081 15:-0.985526 16:-0.0525402 17:-0.542525 18:-0.636945 19:-0.314777 20:-0.699187 
100 1:-0.323631 2:0.511075 3:0.621646 4:-0.181663 5:0.530017 6:-0.558592 7:-0.0465326 8:-0.435528 9:-0.718956 10:0.368618 11:-0.0219153 12:-0.429117 13:-0.743523 14:-0.831948 15:-0.983611 16:-0.0830612 17:-0.506267 18:-0.613399 19:-0.314571 20:-0.834989 
100 1:-0.729393 2:0.462693 3:0.552402 4:-0.161885 5:0.546377 6:-0.645392 7:-0.189497 8:-0.448721 9:-0.70162 10:0.163501 11:0.155477 12:-0.239133 13:-0.617652 14:-0.792837 15:-0.984936 16:0.204228 17:-0.156283 18:-0.751194 19:-0.322785 20:-0.588101 
100 1:-0.311788 2:0.457895 3:0.63848 4:-0.17934 5:0.531206 6:-0.592101 7:-0.313608 8:-0.371491 9:-0.733392 10:0.371108 11:-0.0700551 12:-0.276408 13:-0.791773 14:-0.853406 15:-0.982792 16:0.0200435 17:-0.294099 18:-0.631211 19:-0.465886 20:-0.7462 
100 1:-0.660183 2:0.455548 3:0.544521 4:-0.183652 5:0.498406 6:-0.729028 7:-0.0429735 8:-0.503593 9:-0.751111 10:0.322592 11:0.22352 12:-0.249704 13:-0.685826 14:-0.772564 15:-0.983715 16:-0.074685 17:-0.37061 18:-0.685619 19:-0.419344 20:-0.699746 
100 1:-0.349303 2:0.457487 3:0.582962 4:-0.177415 5:0.531163 6:-0.759818 7:-0.420824 8:-0.517789 9:-0.719919 10:0.391604 11:-0.258942 12:-0.364649 13:-0.790143 14:-0.846237 15:-0.991145 16:0.0778907 17:-0.371236 18:-0.293747 19:-0.195538 20:-0.697695 
100 1:-0.383559 2:0.503113 3:0.590308 4:-0.184226 5:0.535548 6:-0.759639 7:-0.294424 8:-0.519294 9:-0.719888 10:0.38517 11:-0.27782 12:-0.365973 13:-0.759036 14:-0.786708 15:-0.992495 16:-0.0498767 17:-0.496654 18:-0.363966 19:-0.187598 20:-0.696236 
100 1:-0.280112 2:0.511075 3:0.624181 4:-0.228849 5:0.531274 6:-0.55693 7:-0.195941 8:-0.369707 9:-0.735679 10:0.368721 11:-0.192843 12:-0.316949 13:-0.753333 14:-0.818271 15:-0.984888 16:0.0716577 17:-0.20093 18:-0.646306 19:-0.451149 20:-0.777865 
100 1:-0.873192 2:0.493314 3:0.518827 4:-0.182192 5:0.714485 6:-0.643627 7:-0.177266 8:-0.475549 9:-0.734735 10:0.301785 11:0.176223 12:-0.24229 13:-0.648601 14:-0.817351 15:-0.991284 16:0.14617 17:-0.498795 18:-0.886765 19:-0.00774341 20:-0.644481 
100 1:-0.931096 2:0.442074 3:0.258743 4:0.00132245 5:0.719844 6:-0.624454 7:-0.00277846 8:-0.485358 9:-0.653058 10:0.114155 11:0.369129 12:-0.136088 13:-0.320406 14:-0.782339 15:-0.988035 16:0.0809508 17:-0.531851 18:-0.810231 19:-0.0141483 20:-0.744603 
100 1:-0.872033 2:0.492191 3:0.479003 4:-0.183732 5:0.703707 6:-0.646452 7:-0.176161 8:-0.463995 9:-0.733402 10:0.266034 11:0.179804 12:-0.275586 13:-0.648263 14:-0.816436 15:-0.991389 16:0.15725 17:-0.493306 18:-0.889468 19:-0.0602955 20:-0.655297 
100 1:-0.92002 2:0.456875 3:0.332786 4:-0.177906 5:0.738146 6:-0.607906 7:-0.303348 8:-0.464749 9:-0.732701 10:0.170506 11:0.162119 12:-0.133297 13:-0.428328 14:-0.755951 15:-0.986571 16:0.0323858 17:-0.366388 18:-0.883227 19:-0.209083 20:-0.753386 
100 1:-0.9182 2:0.470858 3:0.376103 4:-0.185865 5:0.716157 6:-0.667098 7:-0.200671 8:-0.503485 9:-0.735325 10:0.236249 11:0.401223 12:-0.082592 13:-0.560838 14:-0.835052 15:-0.98662 16:-0.107498 17:-0.557775 18:-0.875956 19:-0.109448 20:-0.734333 
100 1:-0.888324 2:0.470858 3:0.40288 4:-0.152574 5:0.71367 6:-0.675729 7:-0.197046 8:-0.516318 9:-0.733198 10:0.233759 11:0.153467 12:-0.314231 13:-0.635374 14:-0.748624 15:-0.98783 16:0.102666 17:-0.567645 18:-0.88357 19:-0.107775 20:-0.739302 
100 1:-0.885561 2:0.412677 3:0.387167 4:-0.174658 5:0.729625 6:-0.599943 7:-0.229229 8:-0.466006 9:-0.676652 10:0.103778 11:0.568042 12:0.0799425 13:-0.505357 14:-0.72299 15:-0.986791 16:0.119109 17:-0.459982 18:-0.888527 19:0.00199287 20:-0.747881 
100 1:-0.897269 2:0.422578 3:0.428222 4:-0.0481471 5:0.726533 6:-0.633225 7:-0.0452359 8:-0.525869 9:-0.707398 10:0.261779 11:-0.00931594 12:-0.337871 13:-0.679243 14:-0.784096 15:-0.988129 16:-0.105457 17:-0.265372 18:-0.786117 19:0.0514672 20:-0.749638 
100 1:-0.983654 2:0.470246 3:0.367706 4:-0.109332 5:0.735417 6:-0.636857 7:-0.168176 8:-0.497532 9:-0.646203 10:0.164851 11:0.556185 12:-0.0308181 13:-0.501536 14:-0.807617 15:-0.986043 16:0.158487 17:-0.513882 18:-0.874358 19:-0.00902865 20:-0.741079 
100 1:-0.919871 2:0.415637 3:0.387494 4:-0.191674 5:0.704696 6:-0.692752 7:-0.202086 8:-0.525044 9:-0.733937 10:0.238066 11:0.0913334 12:-0.00240963 13:-0.564716 14:-0.745919 15:-0.988578 16:0.126263 17:-0.554438 18:-0.881958 19:-0.0617917 20:-0.736951 
100 1:-0.896875 2:0.462795 3:0.386874 4:-0.151918 5:0.716487 6:-0.676665 7:-0.195782 8:-0.518114 9:-0.734112 10:0.232513 11:0.335238 12:-0.14839 13:-0.563217 14:-0.777949 15:-0.990071 16:-0.0099426 17:-0.539618 18:-0.846871 19:-0.039252 20:-0.742209 
100 1:-0.919772 2:0.466571 3:0.391166 4:-0.17231 5:0.703594 6:-0.673947 7:-0.202371 8:-0.490493 9:-0.735695 10:0.23049 11:0.22656 12:-0.125207 13:-0.622475 14:-0.793214 15:-0.988822 16:0.139558 17:-0.533774 18:-0.876523 19:-0.0486153 20:-0.734539 
100 1:-0.950221 2:0.514749 3:0.466653 4:0.00442438 5:0.360686 6:-0.110076 7:0.00384353 8:-0.536987 9:-0.535727 10:0.528954 11:0.133818 12:-0.0266247 13:-0.259566 14:-0.791046 15:-0.984869 16:0.0372397 17:-0.456188 18:-0.64989 19:-0.15123 20:-0.711484 
100 1:-0.978861 2:0.519955 3:0.444682 4:-0.00997249 5:0.395372 6:-0.132305 7:-0.366551 8:-0.78537 9:-0.38303 10:0.374948 11:0.63122 12:0.245976 13:-0.474761 14:-0.667713 15:-0.983587 16:-0.103147 17:-0.274838 18:-0.344586 19:-0.353049 20:-0.901534 
100 1:-0.975295 2:0.454731 3:0.433263 4:-0.0945151 5:0.397868 6:-0.118837 7:-0.37486 8:-0.770233 9:-0.341494 10:0.372924 11:0.597519 12:0.313807 13:-0.451416 14:-0.678374 15:-0.98451 16:-0.0803177 17:-0.280534 18:-0.329805 19:-0.295479 20:-0.8418 
100 1:-1 2:0.405328 3:0.373542 4:-0.148758 5:0.375171 6:-0.154509 7:-0.0266335 8:-0.287431 9:-0.15846 10:0.431455 11:0.903041 12:0.194568 13:-0.322509 14:-0.621576 15:-0.968137 16:-0.243293 17:-0.440991 18:-0.672689 19:-0.162143 20:-0.792823 
100 1:-0.99975 2:0.346739 3:0.465055 4:-0.0157912 5:0.543524 6:-0.550435 7:-0.723127 8:-0.353378 9:-0.59172 10:0.131797 11:0.799978 12:-0.193663 13:-0.411469 14:-0.810372 15:-0.992299 16:-0.17005 17:-0.768917 18:-0.82107 19:-0.0769801 20:-0.980408 
100 1:-0.3988 2:0.50934 3:0.303481 4:-0.211523 5:0.540547 6:-0.549105 7:-0.367325 8:-0.340094 9:-0.698317 10:0.30988 11:0.403138 12:-0.304735 13:-0.401292 14:-0.803931 15:-0.993641 16:-0.0522491 17:-0.610041 18:-0.780235 19:-0.0618429 20:-0.895081 
100 1:-0.50568 2:0.491987 3:0.277318 4:-0.180751 5:0.544778 6:-0.551847 7:-0.633396 8:-0.328638 9:-0.697072 10:0.3489 11:0.409367 12:0.100065 13:-0.711902 14:-0.840647 15:-0.989707 16:0.0965315 17:-0.720322 18:-0.727798 19:0.0321054 20:-0.924872 
100 1:-0.292683 2:0.440951 3:0.551247 4:-0.20165 5:0.548939 6:-0.544048 7:-0.532617 8:-0.342529 9:-0.715344 10:0.203819 11:-0.0294252 12:0.0533978 13:-0.526259 14:-0.793056 15:-0.989629 16:-0.0335429 17:-0.642861 18:-0.738055 19:-0.205182 20:-0.927302 
100 1:-0.588029 2:0.467898 3:0.57756 4:-0.116275 5:0.542977 6:-0.54427 7:-0.530064 8:-0.312361 9:-0.717837 10:0.314238 11:0.763172 12:-0.412224 13:-0.53028 14:-0.821729 15:-0.99127 16:-0.101094 17:-0.636202 18:-0.730082 19:-0.207243 20:-0.897369 
100 1:-0.928993 2:0.338063 3:0.431101 4:-0.194208 5:0.543394 6:-0.545921 7:-0.620145 8:-0.342541 9:-0.695301 10:0.311177 11:0.115763 12:0.0463357 13:-0.715944 14:-0.734352 15:-0.989287 16:0.0612148 17:-0.665213 18:-0.727634 19:0.057433 20:-0.916923 
100 1:-1 2:0.288149 3:0.350219 4:-0.0721077 5:0.931292 6:-0.739262 7:0.113216 8:-0.508191 9:-0.687048 10:0.215857 11:0.921199 12:0.17101 13:-0.320213 14:-0.668867 15:-0.974569 16:0.172921 17:-0.105456 18:-0.758272 19:-0.15016 20:-0.35146 
100 1:-0.967985 2:0.480147 3:0.360067 4:0.0504233 5:0.682069 6:-0.495807 7:-0.253197 8:-0.903577 9:-0.44085 10:0.23132 11:0.742931 12:-0.361762 13:-0.388278 14:-0.705448 15:-0.985252 16:-0.0152514 17:-0.44932 18:-0.213688 19:0.0407142 20:-0.515978 
26.16324222866159 1:-0.965054 2:0.320098 3:0.192483 4:0.0392956 5:0.681574 6:-0.470017 7:-0.211831 8:-0.911507 9:-0.498277 10:0.363273 11:-0.0654195 12:-0.419561 13:-0.465575 14:-0.746722 15:-0.990246 16:0.0278229 17:-0.464241 18:-0.107501 19:0.105164 20:-0.755297 
100 1:-0.961668 2:0.318159 3:0.226222 4:0.040098 5:0.680907 6:-0.465918 7:-0.219657 8:-0.982504 9:-0.479523 10:0.336654 11:0.383116 12:-0.640616 13:-0.41852 14:-0.685411 15:-0.993617 16:-0.0817986 17:-0.466812 18:-0.213226 19:0.0985052 20:-0.727981 
100 1:-0.991009 2:0.464836 3:0.279316 4:0.0348294 5:0.681083 6:-0.480962 7:-0.260242 8:-0.989037 9:-0.49188 10:0.198111 11:0.236186 12:-0.596288 13:-0.730129 14:-0.831239 15:-0.990627 16:0.117588 17:-0.445953 18:-0.209657 19:0.0877246 20:-0.705015 
100 1:-0.91335 2:0.440951 3:0.367728 4:-0.0654114 5:0.621982 6:-0.360933 7:-0.176379 8:-0.457098 9:-0.3908 10:0.374585 11:0.252121 12:-0.0487658 13:-0.540382 14:-0.759051 15:-0.977733 16:-0.0891632 17:-0.420241 18:-0.511288 19:-0.175074 20:-0.76121 
100 1:-0.931148 2:0.428907 3:0.401752 4:0.0276837 5:0.618176 6:-0.327887 7:-0.468269 8:-0.457914 9:-0.459623 10:0.324772 11:0.452145 12:-0.132936 13:-0.476675 14:-0.6541 15:-0.978844 16:-0.146214 17:-0.466668 18:-0.847318 19:-0.150354 20:-0.761164 
100 1:-0.974405 2:0.435031 3:0.350339 4:0.0642648 5:0.616435 6:-0.380033 7:-0.441133 8:-0.392117 9:-0.398562 10:0.325239 11:0.554319 12:0.00292581 13:-0.498155 14:-0.693367 15:-0.983278 16:-0.179864 17:-0.342622 18:-0.701893 19:-0.159221 20:-0.772883 
100 1:-0.922287 2:0.447178 3:0.415061 4:-0.0706505 5:0.614724 6:-0.376631 7:-0.167157 8:-0.432131 9:-0.407771 10:0.328144 11:0.509724 12:0.206559 13:-0.5177 14:-0.700074 15:-0.986327 16:-0.146374 17:-0.401012 18:-0.448653 19:-0.167959 20:-0.797116 
