svm_type c_svc
kernel_type rbf
gamma 0.06
nr_class 2
total_sv 2291
rho 4.84716
label 1 0
probA -2.26492
probB -0.0325067
nr_sv 1144 1147
SV
1 1:-0.88 2:0.609513 3:0.656087 4:-0.10052 5:0.826294 6:-0.226489 7:-0.0528564 8:-0.587302 9:-0.782477 10:0.395171 11:0.453236 12:-0.0175287 13:-0.557289 14:-0.70754 15:-0.997153 16:-0.0521768 17:-0.49799 18:-0.976911 19:-0.0721783 20:-0.784307 
1 1:-1 2:0.534136 3:0.547801 4:-0.0836667 5:0.865249 6:-0.370061 7:-0.158097 8:-0.548611 9:-0.794562 10:0.389834 11:0.690855 12:0.312395 13:-0.357744 14:-0.55026 15:-0.997066 16:-0.204284 17:-0.245168 18:-0.721135 19:0.125181 20:-0.87694 
1 1:-0.98 2:0.526918 3:0.58355 4:-0.0908848 5:0.811019 6:-0.569282 7:-0.0285688 8:-0.458333 9:-0.852568 10:0.433249 11:0.812564 12:0.512306 13:-0.394155 14:-0.409818 15:-0.994052 16:-0.277103 17:-0.161742 18:-0.778292 19:0.0110428 20:-0.754836 
1 1:-0.98 2:0.561187 3:0.611742 4:-0.283657 5:0.899172 6:-0.173066 7:-0.367984 8:-0.501916 9:-0.821752 10:0.412437 11:0.321513 12:0.0162357 13:-0.59067 14:-0.659372 15:-0.996766 16:-0.258819 17:-0.202114 18:-0.774886 19:-0.323165 20:-0.713652 
1 1:-0.98 2:0.671289 3:0.599465 4:0.00151697 5:0.961034 6:-0.638286 7:-0.198571 8:-0.793651 9:-0.915408 10:0.561987 11:0.442791 12:0.107377 13:-0.510994 14:-0.628467 15:-0.996843 16:-0.0944746 17:-0.24978 18:-0.393618 19:-0.0400652 20:-0.733053 
1 1:-0.9 2:0.614984 3:0.674172 4:-0.33245 5:0.606813 6:0.703951 7:-0.310596 8:-0.614815 9:-0.540785 10:0.427589 11:-0.155436 12:-0.394381 13:-0.744046 14:-0.813746 15:-0.998724 16:0.00617819 17:-0.448619 18:-0.642872 19:-0.312119 20:-0.934825 
1 1:-1 2:0.480415 3:0.451567 4:-0.115473 5:0.84909 6:-0.552365 7:-0.214127 8:-0.501916 9:-0.87432 10:0.240212 11:0.955079 12:0.373023 13:-0.179206 14:-0.57784 15:-0.997332 16:-0.00452058 17:-0.40642 18:-0.819081 19:0.304629 20:-0.897889 
1 1:-0.98 2:0.63664 3:0.591837 4:-0.139961 5:0.903113 6:-0.475793 7:0.0662039 8:-0.786008 9:-0.888822 10:0.473797 11:0.694479 12:0.208782 13:-0.390324 14:-0.624013 15:-0.996456 16:-0.0834551 17:-0.443939 18:-0.717436 19:-0.214663 20:-0.882233 
1 1:-0.9 2:0.657536 3:0.708432 4:-0.357321 5:0.85767 6:-0.504285 7:-0.271428 8:-0.537778 9:-0.903323 10:0.467744 11:0.442497 12:-0.0245796 13:-0.593416 14:-0.709623 15:-0.997175 16:0.0473301 17:-0.0884856 18:-0.682982 19:-0.484884 20:-0.74798 
1 1:-1 2:0.481251 3:0.381614 4:0.0657632 5:0.843481 6:-0.441291 7:-0.097958 8:-0.34767 9:-0.803625 10:0.351041 11:0.87189 12:0.506815 13:-0.130286 14:-0.45052 15:-0.98492 16:-0.28458 17:0.176185 18:-0.952731 19:0.48129 20:-0.822619 
1 1:-0.96 2:0.559287 3:0.57581 4:-0.14978 5:0.875895 6:-0.249861 7:-0.0759551 8:-0.518519 9:-0.812689 10:0.444174 11:-0.104595 12:-0.257576 13:-0.693078 14:-0.72885 15:-0.997529 16:-0.220265 17:-0.27565 18:-0.25157 19:-0.351152 20:-0.895534 
1 1:-1 2:0.563998 3:0.626315 4:-0.0975862 5:0.835934 6:-0.128548 7:-0.271428 8:-0.422222 9:-0.722054 10:0.467959 11:0.611959 12:0.328506 13:-0.50841 14:-0.498146 15:-0.995636 16:-0.266149 17:0.095051 18:-0.816233 19:-0.05973 20:-0.825353 
1 1:-0.98 2:0.552069 3:0.617501 4:-0.351904 5:0.947475 6:-0.598961 7:-0.325115 8:-0.72043 9:-0.897281 10:0.345166 11:0.403382 12:-0.00291638 13:-0.579812 14:-0.692045 15:-0.997311 16:-0.0234137 17:-0.326104 18:-0.593061 19:-0.03091 20:-0.8108 
1 1:-1 2:0.60769 3:0.540897 4:-0.0365907 5:0.890274 6:-0.7658 7:-0.222859 8:-0.687688 9:-0.892965 10:0.481105 11:0.553431 12:0.197731 13:-0.450781 14:-0.59461 15:-0.997333 16:-0.170984 17:-0.287429 18:-0.64942 19:0.0848353 20:-0.653713 
1 1:-0.98 2:0.591657 3:0.518415 4:-0.141112 5:0.85222 6:-0.417919 7:-0.103297 8:-0.62724 9:-0.803625 10:0.435075 11:0.717334 12:0.271228 13:-0.3779 14:-0.589458 15:-0.996282 16:-0.102215 17:-0.185759 18:-0.255323 19:0.0813857 20:-0.85239 
1 1:-0.96 2:0.660195 3:0.65799 4:-0.523005 5:0.770629 6:-0.284363 7:-0.498614 8:-0.759259 9:-0.867069 10:0.322957 11:0.623828 12:-0.11736 13:-0.523701 14:-0.755298 15:-0.99766 16:0.316734 17:-0.380543 18:-0.399007 19:-0.231538 20:-0.872521 
1 1:-0.98 2:0.618935 3:0.597561 4:-0.371191 5:0.909786 6:-0.675237 7:-0.249787 8:-0.53405 9:-0.852568 10:0.434717 11:0.771621 12:0.236508 13:-0.443113 14:-0.622288 15:-0.996455 16:0.222683 17:0.0671629 18:-0.773941 19:-0.122268 20:-0.612246 
1 1:-0.96 2:0.561263 3:0.690326 4:-0.427536 5:0.856987 6:-0.282137 7:-0.402198 8:-0.777778 9:-0.848943 10:0.375578 11:0.105879 12:-0.187236 13:-0.686805 14:-0.742597 15:-0.997241 16:-0.0875162 17:-0.0410117 18:-0.657418 19:0.00731977 20:-0.839513 
1 1:-1 2:0.501159 3:0.492295 4:-0.0543942 5:0.808922 6:-0.474903 7:0.205915 8:-0.601533 9:-0.888822 10:0.225132 11:0.663231 12:0.111598 13:-0.246968 14:-0.671064 15:-0.99723 16:-0.00855649 17:-0.191283 18:-0.440474 19:0.0710347 20:-0.628897 
1 1:-0.9 2:0.608905 3:0.599303 4:-0.209292 5:0.9061 6:-0.623595 7:-0.24362 8:-0.671717 9:-0.765559 10:0.448687 11:0.34147 12:-0.013673 13:-0.608338 14:-0.685765 15:-0.997198 16:-0.135183 17:-0.147922 18:-0.633171 19:-0.0472608 20:-0.587849 
1 1:-0.98 2:0.631017 3:0.637124 4:-0.425002 5:0.840001 6:-0.560378 7:-0.457808 8:-0.777778 9:-0.881571 10:0.457606 11:0.456623 12:0.0311057 13:-0.547854 14:-0.682315 15:-0.997828 16:0.0156518 17:-0.554225 18:-0.630696 19:-0.0542081 20:-0.86468 
1 1:-0.98 2:0.540671 3:0.55172 4:-0.322698 5:0.898696 6:-0.669449 7:-0.525583 8:-0.786008 9:-0.92145 10:0.295268 11:0.62781 12:0.102949 13:-0.46428 14:-0.670771 15:-0.997276 16:-0.051157 17:-0.4739 18:-0.723504 19:-0.0322185 20:-0.874617 
1 1:-0.78 2:0.586718 3:0.708608 4:-0.508002 5:0.702942 6:-0.410128 7:-0.874656 8:-0.62724 9:-0.803625 10:0.411685 11:-0.264105 12:-0.446333 13:-0.801547 14:-0.82332 15:-0.999015 16:-0.11873 17:-0.192172 18:-0.704248 19:0.020198 20:-0.999967 
1 1:-0.92 2:0.568329 3:0.625627 4:-0.0692305 5:0.877944 6:-0.502504 7:-0.198571 8:-0.601533 9:-0.87432 10:0.449224 11:0.784228 12:0.41135 13:-0.463596 14:-0.501289 15:-0.996306 16:-0.274721 17:-0.125399 18:-0.728721 19:0.11056 20:-0.907218 
1 1:-0.9 2:0.63702 3:0.671279 4:-0.304411 5:0.897424 6:-0.570766 7:-0.202406 8:-0.484127 9:-0.915408 10:0.391948 11:0.238233 12:-0.213594 13:-0.613163 14:-0.773931 15:-0.995541 16:0.237793 17:-0.298442 18:-0.876983 19:0.140697 20:-0.820212 
1 1:-0.96 2:0.584666 3:0.653481 4:-0.259435 5:0.777038 6:-0.00537932 7:-0.438207 8:-0.701149 9:-0.734139 10:0.444066 11:0.340663 12:0.0302952 13:-0.612794 14:-0.654747 15:-0.99737 16:-0.12963 17:-0.266695 18:-0.0540961 19:-0.367284 20:-0.94011 
1 1:-0.86 2:0.640971 3:0.697202 4:-0.31893 5:0.890036 6:-0.303283 7:-0.524196 8:-0.737374 9:-0.785498 10:0.495254 11:-0.459513 12:-0.577675 13:-0.845593 14:-0.862456 15:-0.998899 16:-0.0584505 17:-0.462481 18:-0.643471 19:0.0985796 20:-0.819813 
1 1:-1 2:0.529577 3:0.446243 4:-0.162066 5:0.838953 6:-0.405676 7:-0.300571 8:-0.422222 9:-0.867069 10:0.295626 11:0.829798 12:0.262167 13:-0.293394 14:-0.617851 15:-0.997109 16:-0.123068 17:-0.270656 18:0.0783695 19:0.30931 20:-0.996169 
1 1:-1 2:0.597052 3:0.608722 4:-0.154131 5:0.844408 6:-0.115192 7:-0.113042 8:-0.387205 9:-0.685801 10:0.47935 11:0.511939 12:0.190061 13:-0.524893 14:-0.585701 15:-0.994544 16:-0.175856 17:0.251795 18:-0.928604 19:-0.366067 20:-0.711522 
1 1:-1 2:0.5969 3:0.445288 4:-0.197356 5:0.752311 6:-0.726369 7:-0.0462352 8:-0.679012 9:-0.898144 10:0.412329 11:0.483333 12:0.0554956 13:-0.441133 14:-0.673228 15:-0.995999 16:-0.0270388 17:-0.127214 18:-0.475633 19:-0.295413 20:-0.547084 
1 1:-0.299999 2:0.779796 3:0.833666 4:-0.61524 5:0.897901 6:-0.693934 7:-0.236736 8:-0.587302 9:-0.957704 10:0.520973 11:-0.133337 12:-0.546619 13:-0.821655 14:-0.874481 15:-0.998759 16:0.39808 17:-0.58507 18:-0.614141 19:-0.369533 20:-0.817912 
1 1:-0.94 2:0.621747 3:0.645791 4:-0.524405 5:0.838921 6:-0.545242 7:-0.406348 8:-0.548611 9:-0.830816 10:0.440878 11:0.360042 12:-0.039979 13:-0.627056 14:-0.705283 15:-0.998042 16:-0.0486562 17:-0.4619 18:-0.197141 19:-0.218511 20:-0.862489 
1 1:-1 2:0.610881 3:0.541157 4:0.128259 5:0.803838 6:-0.5399 7:-0.208468 8:-0.34767 9:-0.859819 10:0.540029 11:0.486551 12:0.257459 13:-0.491222 14:-0.501858 15:-0.986757 16:-0.265432 17:0.629827 18:-0.496221 19:-0.112357 20:-0.823608 
1 1:-0.9 2:0.618935 3:0.681673 4:-0.187988 5:0.898537 6:-0.670191 7:-0.65306 8:-0.701149 9:-0.909366 10:0.482 11:0.438762 12:0.0875875 13:-0.614355 14:-0.641987 15:-0.998281 16:-0.191816 17:-0.46452 18:-0.801488 19:-0.021567 20:-0.915716 
1 1:-1 2:0.591277 3:0.573745 4:-0.18562 5:0.90325 6:-0.711742 7:-0.23975 8:-0.566667 9:-0.8429 10:0.449762 11:0.667378 12:0.263765 13:-0.476981 14:-0.58066 15:-0.99695 16:-0.163874 17:-0.330721 18:-0.856116 19:-0.159692 20:-0.752541 
1 1:-0.92 2:0.561339 3:0.609234 4:-0.48558 5:0.825553 6:0.0866258 7:-0.598026 8:-0.333333 9:-0.770393 10:0.283412 11:0.672721 12:0.0722255 13:-0.497404 14:-0.689919 15:-0.99648 16:0.0469445 17:-0.165933 18:-0.846827 19:-0.0425298 20:-0.991836 
1 1:-0.82 2:0.561567 3:0.57529 4:-0.15103 5:0.863263 6:-0.36227 7:0.321146 8:-0.572016 9:-0.839879 10:0.435326 11:0.279892 12:0.0192996 13:-0.574621 14:-0.641822 15:-0.997447 16:-0.00872586 17:-0.105557 18:-0.341637 19:-0.368991 20:-0.544837 
1 1:-0.98 2:0.540671 3:0.603054 4:-0.1661 5:0.705484 6:0.679466 7:-0.179074 8:0.155556 9:-0.63142 10:0.390658 11:0.723346 12:0.322308 13:-0.372629 14:-0.553717 15:-0.996969 16:-0.0615206 17:-0.247514 18:0.068229 19:-0.0204088 20:-0.543018 
1 1:-1 2:0.624406 3:0.617438 4:-0.0514936 5:0.394375 6:-0.244296 7:-0.0645486 8:-0.302682 9:-0.821752 10:0.514024 11:0.710656 12:0.336967 13:-0.379625 14:-0.537014 15:-0.995362 16:-0.0811813 17:-0.323591 18:-0.632186 19:-0.53978 20:-0.759187 
1 1:-0.86 2:0.693781 3:0.617747 4:-0.250884 5:0.771318 6:-0.213133 7:-0.0285688 8:-0.830065 9:-0.879154 10:0.454956 11:0.853601 12:0.117538 13:-0.252947 14:-0.684328 15:-0.996919 16:0.0557082 17:-0.442931 18:-0.760141 19:-0.31954 20:-0.815873 
1 1:-1 2:0.651837 3:0.694526 4:-0.187588 5:0.911693 6:-0.570173 7:-0.417142 8:-0.653333 9:-0.903323 10:0.548626 11:0.0579946 12:-0.156386 13:-0.692569 14:-0.706258 15:-0.997023 16:-0.269183 17:-0.125648 18:-0.967662 19:0.132289 20:-0.838646 
1 1:-0.98 2:0.578967 3:0.632046 4:-0.36899 5:0.886037 6:-0.650158 7:-0.304849 8:-0.598765 9:-0.867069 10:0.393416 11:0.463406 12:0.0524644 13:-0.580044 14:-0.671121 15:-0.997435 16:0.00382511 17:-0.410351 18:-0.817617 19:-0.55995 20:-0.812941 
1 1:-0.98 2:0.584286 3:0.598755 4:-0.0643129 5:0.85222 6:-0.456873 7:-0.103297 8:-0.56229 9:-0.785498 10:0.470251 11:0.721928 12:0.364309 13:-0.460578 14:-0.517393 15:-0.994961 16:-0.245544 17:-0.309078 18:-0.787075 19:-0.0599428 20:-0.877444 
1 1:-1 2:0.494548 3:0.576793 4:-0.268687 5:0.916905 6:-0.517641 7:-0.588572 8:-0.614815 9:-0.867069 10:0.330981 11:0.427129 12:0.105952 13:-0.573389 14:-0.624345 15:-0.998086 16:-0.149785 17:-0.599247 18:-0.787994 19:0.0646363 20:-0.802862 
1 1:-1 2:0.484518 3:0.44762 4:0.0839501 5:0.832629 6:-0.49182 7:0.104364 8:-0.277778 9:-0.823565 10:0.376581 11:0.872924 12:0.551351 13:-0.218309 14:-0.402513 15:-0.995434 16:-0.29355 17:-0.377454 18:-0.265956 19:0.394868 20:-0.517637 
1 1:-1 2:0.53558 3:0.562536 4:0.0400747 5:0.911645 6:-0.333333 7:-0.23975 8:-0.339683 9:-0.767372 10:0.442884 11:0.761977 12:0.469303 13:-0.392551 14:-0.428333 15:-0.995302 16:-0.303034 17:-0.0278951 18:-0.635912 19:0.0478723 20:-0.905056 
1 1:-1 2:0.556552 3:0.527679 4:-0.122008 5:0.898378 6:-0.245409 7:-0.453571 8:-0.212121 9:-0.785498 10:0.393452 11:0.615306 12:0.210207 13:-0.431536 14:-0.604393 15:-0.997613 16:-0.117937 17:-0.560041 18:-0.925104 19:0.137097 20:-0.772017 
1 1:-0.8 2:0.661031 3:0.704141 4:-0.31808 5:0.957454 6:-0.965053 7:-0.203904 8:-0.44086 9:-0.845317 10:0.49357 11:-0.386514 12:-0.552072 13:-0.830706 14:-0.861704 15:-0.998976 16:0.0321774 17:-0.425677 18:-0.671178 19:-0.126225 20:-0.445556 
1 1:-1 2:0.581931 3:0.513689 4:0.124908 5:0.870635 6:-0.465999 7:0.165715 8:-0.745098 9:-0.838066 10:0.495648 11:0.756989 12:0.454461 13:-0.354107 14:-0.442703 15:-0.99376 16:-0.225245 17:-0.0349593 18:-0.830392 19:-0.091889 20:-0.769014 
1 1:-0.96 2:0.580639 3:0.576449 4:-0.0534607 5:0.976575 6:-0.817951 7:-0.660474 8:-0.687688 9:-0.892965 10:0.458896 11:0.82118 12:0.425274 13:-0.499483 14:-0.504228 15:-0.997563 16:-0.210532 17:-0.104213 18:-0.537421 19:0.319867 20:-0.888564 
1 1:-0.98 2:0.595228 3:0.682347 4:-0.344002 5:0.921226 6:-0.419699 7:-0.271428 8:-0.299663 9:-0.845317 10:0.446538 11:0.631947 12:0.222228 13:-0.554817 14:-0.600518 15:-0.996213 16:-0.0334999 17:0.0554486 18:-0.810178 19:-0.232527 20:-0.99608 
1 1:-0.94 2:0.626686 3:0.644218 4:0.0463259 5:0.929298 6:-0.566611 7:-0.359498 8:-0.912458 9:-0.852568 10:0.505033 11:0.723107 12:0.320078 13:-0.507594 14:-0.555394 15:-0.994084 16:-0.291827 17:0.0369347 18:-0.937427 19:-0.0341885 20:-0.940885 
1 1:-0.86 2:0.660575 3:0.738246 4:-0.419984 5:0.90672 6:-0.368948 7:-0.451426 8:-0.555556 9:-0.830816 10:0.508364 11:0.0619904 12:-0.228558 13:-0.725967 14:-0.758614 15:-0.998401 16:0.0634954 17:-0.384939 18:-0.892114 19:-0.508969 20:-0.775137 
1 1:-1 2:0.603435 3:0.635038 4:-0.305111 5:0.802566 6:-0.232053 7:-0.318739 8:-0.759259 9:-0.867069 10:0.383995 11:0.8776 12:0.257557 13:-0.39388 14:-0.626959 15:-0.996122 16:0.0455464 17:-0.545995 18:-0.578769 19:0.00329416 20:-0.938632 
1 1:-1 2:0.643099 3:0.608392 4:0.078249 5:0.650984 6:0.508069 7:0.182612 8:-0.444444 9:-0.613293 10:0.570477 11:0.608572 12:0.332788 13:-0.377453 14:-0.491318 15:-0.995568 16:-0.103991 17:-0.118289 18:-0.328556 19:-0.117136 20:-0.650742 
1 1:-0.119999 2:0.690285 3:0.820378 4:-0.462209 5:0.879549 6:-0.287702 7:-0.153918 8:-0.679012 9:-0.92145 10:0.466633 11:0.127383 12:-0.29477 13:-0.758146 14:-0.798612 15:-0.997355 16:0.0482778 17:-0.541082 18:-0.110295 19:-0.127003 20:-0.883872 
1 1:-0.66 2:0.710345 3:0.726173 4:-0.66435 5:0.239218 6:-0.222037 7:-0.6736 8:-0.649832 9:-0.785498 10:0.431744 11:-0.0934304 12:-0.492236 13:-0.764094 14:-0.85887 15:-0.998914 16:0.275085 17:-0.643715 18:-0.509116 19:-0.0162746 20:-0.874417 
1 1:-0.56 2:0.70495 3:0.734538 4:-0.333933 5:0.909606 6:-0.689482 7:-0.0992228 8:-0.752381 9:-0.873112 10:0.550346 11:0.305882 12:-0.0958892 13:-0.672178 14:-0.726785 15:-0.996409 16:0.0508687 17:-0.378676 18:-0.233964 19:-0.289205 20:-0.57613 
1 1:-0.96 2:0.576232 3:0.606896 4:-0.0601454 5:0.933493 6:-0.730185 7:0.156465 8:-0.679012 9:-0.851532 10:0.448902 11:0.662408 12:0.297103 13:-0.452264 14:-0.552423 15:-0.996767 16:-0.147057 17:-0.368711 18:-0.583586 19:-0.0280238 20:-0.311049 
1 1:-1 2:0.594164 3:0.567129 4:-0.13286 5:0.647489 6:-0.4335 7:-0.422913 8:-0.745098 9:-0.776435 10:0.429631 11:0.567345 12:0.148379 13:-0.499819 14:-0.633996 15:-0.996764 16:-0.120949 17:-0.411725 18:-0.385393 19:-0.217822 20:-0.881977 
1 1:-0.92 2:0.634968 3:0.586373 4:-0.343852 5:0.885402 6:-0.690224 7:-0.432617 8:-0.759259 9:-0.873112 10:0.426908 11:-0.337875 12:-0.542206 13:-0.78946 14:-0.863542 15:-0.998912 16:0.135201 17:-0.259457 18:-0.422003 19:0.0909144 20:-0.883954 
1 1:-0.96 2:0.596976 3:0.623906 4:-0.107071 5:0.905263 6:-0.705806 7:-0.551648 8:-0.777778 9:-0.927492 10:0.426156 11:0.391245 12:0.0126002 13:-0.564819 14:-0.680336 15:-0.998087 16:0.00786462 17:-0.765107 18:-0.765637 19:0.267299 20:-0.935068 
1 1:-1 2:0.537024 3:0.491783 4:0.0741482 5:0.807095 6:-0.277685 7:-0.623964 8:0.0643275 9:-0.740181 10:0.495146 11:-0.13983 12:-0.186899 13:-0.698981 14:-0.600331 15:-0.997004 16:-0.341865 17:0.0699396 18:-0.9928 19:-0.0141773 20:-0.919175 
1 1:-0.8 2:0.634968 3:0.641549 4:-0.0623791 5:0.927402 6:-0.686515 7:-0.363263 8:-0.436314 9:-0.836858 10:0.50249 11:0.324633 12:0.00252284 13:-0.636498 14:-0.670446 15:-0.99788 16:-0.00202696 17:-0.596997 18:-0.68402 19:0.00175612 20:-0.782299 
1 1:-0.9 2:0.652673 3:0.657555 4:-0.588484 5:0.856987 6:-0.238731 7:-0.857841 8:-0.87963 9:-0.867069 10:0.411649 11:0.913915 12:0.195772 13:-0.480778 14:-0.657892 15:-0.998154 16:0.0951809 17:-0.993198 18:-0.717356 19:-0.106739 20:-0.999957 
1 1:-1 2:0.528665 3:0.607064 4:-0.0493932 5:0.834662 6:-0.589761 7:0.0894541 8:-0.718157 9:-0.787311 10:0.439589 11:0.148247 12:-0.0131155 13:-0.650191 14:-0.604925 15:-0.996998 16:-0.302166 17:-0.42507 18:-0.951333 19:-0.0278673 20:-0.839889 
1 1:-0.7 2:0.593101 3:0.74121 4:-0.40113 5:0.752145 6:0.1445 7:-1 8:-0.518519 9:-0.722054 10:0.420747 11:-0.210748 12:-0.40897 13:-0.800017 14:-0.811679 15:-0.999468 16:-0.043759 17:-0.997369 18:-0.880057 19:0.0112557 20:-0.942497 
1 1:-0.98 2:0.595304 3:0.571097 4:-0.0689638 5:0.667191 6:-0.356706 7:-0.21812 8:-0.501916 9:-0.821752 10:0.467063 11:0.510813 12:0.170928 13:-0.519191 14:-0.601301 15:-0.996507 16:-0.3526 17:-0.0325972 18:-0.537741 19:0.0761997 20:-0.82082 
1 1:-0.82 2:0.671289 3:0.668336 4:-0.204524 5:0.855636 6:-0.73044 7:0.000865544 8:-0.405229 9:-0.838066 10:0.550202 11:0.294704 12:-0.0226588 13:-0.624213 14:-0.67995 15:-0.997427 16:-0.0465517 17:-0.122027 18:-0.398062 19:-0.200881 20:-0.661893 
1 1:0.0999991 2:0.681699 3:0.827752 4:-0.675052 5:0.794495 6:-0.453534 7:-0.600002 8:-0.800766 9:-0.87432 10:0.437332 11:0.553485 12:-0.0573555 13:-0.66466 14:-0.733311 15:-0.997978 16:0.0669475 17:-0.547375 18:-0.638201 19:-0.194689 20:-0.838584 
1 1:-1 2:0.56415 3:0.581288 4:-0.394829 5:0.843115 6:-0.448191 7:-0.390034 8:-0.572016 9:-0.903323 10:0.26303 11:0.681858 12:0.0450294 13:-0.451611 14:-0.70181 15:-0.997405 16:-0.0232335 17:-0.366341 18:-0.716105 19:-0.245624 20:-0.739106 
1 1:-1 2:0.59386 3:0.66106 4:-0.184904 5:0.804473 6:-0.177518 7:-0.278941 8:-0.729167 9:-0.785498 10:0.43701 11:0.656519 12:0.225714 13:-0.511874 14:-0.60469 15:-0.996849 16:-0.225141 17:-0.555175 18:-0.831816 19:0.0915697 20:-0.82622 
1 1:-0.84 2:0.551461 3:0.686196 4:-0.361972 5:0.803647 6:-0.613801 7:-0.546665 8:-0.909722 9:-0.859819 10:0.388186 11:-0.351475 12:-0.48704 13:-0.819889 14:-0.828716 15:-0.99825 16:-0.226391 17:0.138696 18:-0.506122 19:-0.249777 20:-0.999616 
1 1:0.72 2:0.737168 3:0.8669 4:-0.669467 5:0.94309 6:-0.569282 7:-0.69323 8:-0.444444 9:-0.896072 10:0.504209 11:-0.22922 12:-0.547172 13:-0.840528 14:-0.873189 15:-0.998862 16:0.20645 17:-0.606004 18:-0.469166 19:-0.0454181 20:-0.93466 
1 1:-1 2:0.459595 3:0.481978 4:-0.0862172 5:0.837046 6:-0.397885 7:-0.180357 8:-0.449735 9:-0.89426 10:0.216929 11:0.846713 12:0.308876 13:-0.129089 14:-0.594665 15:-0.997412 16:-0.00457824 17:-0.378069 18:-0.674638 19:-0.0466473 20:-0.876592 
1 1:-1 2:0.588541 3:0.541915 4:-0.00465093 5:0.871525 6:-0.32443 7:0.242157 8:-0.606061 9:-0.818731 10:0.471863 11:0.769701 12:0.392723 13:-0.116101 14:-0.511965 15:-0.995822 16:-0.180847 17:0.041144 18:-0.822527 19:0.270498 20:-0.807862 
1 1:-0.96 2:0.58687 3:0.690354 4:-0.367423 5:0.892976 6:-0.78798 7:-0.316203 8:-0.442495 9:-0.830816 10:0.361787 11:0.713532 12:0.154601 13:-0.545264 14:-0.656444 15:-0.997828 16:0.110539 17:-0.529072 18:-0.777148 19:-0.0926444 20:-0.580654 
1 1:-1 2:0.568785 3:0.569433 4:-0.14773 5:0.924277 6:-0.565721 7:-0.323471 8:-0.62963 9:-0.801813 10:0.420067 11:0.530658 12:0.165334 13:-0.538164 14:-0.612223 15:-0.996823 16:-0.154393 17:-0.0619298 18:-0.517513 19:-0.309379 20:-0.789189 
1 1:-0.92 2:0.558527 3:0.678527 4:-0.305961 5:0.862055 6:-0.672565 7:-0.905227 8:-0.462532 9:-0.77281 10:0.409249 11:-0.19165 12:-0.36005 13:-0.7841 14:-0.78297 15:-0.999164 16:-0.198266 17:-0.714159 18:-0.87999 19:0.220308 20:-0.909497 
1 1:-1 2:0.561643 3:0.565689 4:-0.0206375 5:0.862818 6:-0.58887 7:0.0329111 8:-0.701149 9:-0.87432 10:0.449619 11:0.807179 12:0.448516 13:-0.334524 14:-0.476571 15:-0.991012 16:-0.193762 17:0.0388881 18:-0.946742 19:0.268071 20:-0.492467 
1 1:-0.98 2:0.630105 3:0.670197 4:-0.0761986 5:0.747272 6:-0.0573178 7:-0.546665 8:-0.0653595 9:-0.673716 10:0.555755 11:-0.152486 12:-0.267466 13:-0.763825 14:-0.713393 15:-0.998652 16:-0.100042 17:-0.683762 18:-0.677579 19:-0.305113 20:-0.887391 
1 1:-0.96 2:0.642795 3:0.599275 4:-0.245616 5:0.929679 6:-0.350028 7:-0.121721 8:-0.874396 9:-0.903323 10:0.342659 11:0.915351 12:0.112385 13:-0.326669 14:-0.688778 15:-0.997164 16:0.159683 17:-0.346845 18:-0.631308 19:-0.0819408 20:-0.879152 
1 1:-0.6 2:0.780327 3:0.762589 4:-0.0730646 5:0.65912 6:-0.577295 7:-0.271428 8:-0.302682 9:-0.87432 10:0.67998 11:-0.886881 12:-0.885191 13:-0.95356 14:-0.960863 15:-0.999845 16:0.1511 17:-0.551402 18:-0.657844 19:-0.395957 20:-0.770321 
1 1:-0.88 2:0.673417 3:0.74128 4:-0.415216 5:0.827671 6:-0.327769 7:-0.360279 8:-0.518519 9:-0.867069 10:0.445177 11:0.010946 12:-0.359535 13:-0.729738 14:-0.816317 15:-0.99858 16:0.151298 17:-0.583131 18:-0.831138 19:-0.0712371 20:-0.812953 
1 1:0.139999 2:0.733293 3:0.817393 4:-0.567463 5:0.889321 6:-0.453534 7:-0.408697 8:-0.695906 9:-0.912387 10:0.50163 11:0.0535573 12:-0.37997 13:-0.767887 14:-0.826181 15:-0.99825 16:0.245987 17:-0.889333 18:-0.538872 19:-0.176444 20:-0.948643 
1 1:-0.92 2:0.568709 3:0.704745 4:-0.455041 5:0.766498 6:-0.346689 7:-0.786762 8:-0.555556 9:-0.848943 10:0.345703 11:0.38646 12:-0.0457556 13:-0.643031 14:-0.712609 15:-0.998457 16:-0.0291216 17:-0.644869 18:-0.874042 19:-0.163588 20:-0.876205 
1 1:-1 2:0.619391 3:0.498258 4:-0.306078 5:0.691502 6:-0.278798 7:-0.142855 8:-0.819444 9:-0.939577 10:0.158756 11:0.508033 12:-0.26339 13:-0.13361 14:-0.795211 15:-0.99821 16:0.559491 17:-0.668586 18:-0.949084 19:-0.541719 20:-0.767064 
1 1:-0.78 2:0.776528 3:0.792797 4:-0.373758 5:0.936776 6:-0.10332 7:-0.514287 8:-0.037037 9:-0.903323 10:0.647061 11:-0.454942 12:-0.613824 13:-0.862332 14:-0.883705 15:-0.998373 16:-0.191347 17:-0.0670246 18:-0.977776 19:-0.179196 20:-0.893738 
1 1:-1 2:0.640743 3:0.475755 4:-0.180336 5:0.940285 6:-0.773511 7:-0.0617392 8:-0.898635 9:-0.808157 10:0.405524 11:0.968018 12:0.251673 13:-0.302444 14:-0.639065 15:-0.996693 16:0.100737 17:-0.404903 18:-0.222626 19:-0.207148 20:-0.277945 
1 1:0.499999 2:0.680635 3:0.848387 4:-0.344852 5:0.925866 6:-0.8636 7:-0.678426 8:-0.631206 9:-0.895267 10:0.526561 11:-0.0896509 12:-0.346197 13:-0.799061 14:-0.798265 15:-0.999062 16:0.0564073 17:-0.623346 18:-0.722839 19:-0.239009 20:-0.935383 
1 1:-0.98 2:0.55336 3:0.573106 4:-0.194989 5:0.918822 6:-0.715452 7:-0.17968 8:-0.578704 9:-0.794562 10:0.415195 11:0.259472 12:-0.00991101 13:-0.620755 14:-0.658915 15:-0.994761 16:-0.234297 17:-0.0846991 18:-0.735508 19:-0.121759 20:-0.586198 
1 1:-0.66 2:0.628662 3:0.701493 4:-0.472845 5:0.852776 6:-0.804595 7:-0.277449 8:-0.923977 9:-0.887786 10:0.427804 11:0.455648 12:-0.0106372 13:-0.62869 14:-0.704436 15:-0.996637 16:0.0464688 17:-0.361292 18:-0.965959 19:-0.317555 20:-0.730259 
1 1:-1 2:0.56643 3:0.442057 4:-0.0574782 5:0.869513 6:-0.558152 7:-0.242285 8:-0.669841 9:-0.873112 10:0.420747 11:0.555857 12:0.19052 13:-0.437094 14:-0.601052 15:-0.996376 16:-0.13025 17:-0.00890636 18:-0.862105 19:0.140532 20:-0.596846 
1 1:-1.01e-06 2:0.645986 3:0.823742 4:-0.510852 5:0.864163 6:-0.653868 7:-0.626971 8:-0.494444 9:-0.8429 10:0.467099 11:-0.436303 12:-0.589088 13:-0.866992 14:-0.873678 15:-0.999291 16:0.0378925 17:-0.517107 18:-0.938199 19:-0.114098 20:-0.974979 
1 1:-0.98 2:0.675088 3:0.624201 4:-0.376792 5:0.860774 6:-0.744389 7:-0.386467 8:-0.824916 9:-0.885196 10:0.43984 11:0.212109 12:-0.245517 13:-0.623382 14:-0.784868 15:-0.998437 16:0.218053 17:-0.523987 18:-0.145108 19:0.0766088 20:-0.727714 
1 1:-0.78 2:0.62395 3:0.675507 4:-0.0497933 5:0.920781 6:-0.715452 7:-0.30612 8:-0.34767 9:-0.897281 10:0.533259 11:0.614458 12:0.307232 13:-0.544773 14:-0.521993 15:-0.997464 16:-0.163759 17:-0.301132 18:-0.843767 19:-0.133138 20:-0.753715 
1 1:-0.94 2:0.631929 3:0.660491 4:-0.192455 5:0.889003 6:-0.620033 7:-0.588572 8:-0.896825 9:-0.881571 10:0.467278 11:0.539504 12:0.101928 13:-0.574267 14:-0.656812 15:-0.99845 16:0.0404834 17:-0.675108 18:-0.557663 19:-0.251906 20:-0.916998 
1 1:-1 2:0.623495 3:0.532961 4:-0.0555111 5:0.923387 6:-0.545242 7:-0.352381 8:-0.830065 9:-0.838066 10:0.484687 11:0.647421 12:0.231828 13:-0.464354 14:-0.598031 15:-0.99694 16:-0.199095 17:-0.382723 18:-0.701972 19:-0.0369954 20:-0.845253 
1 1:-1 2:0.65404 3:0.615464 4:-0.204991 5:0.798499 6:-0.571953 7:-0.435945 8:-0.800766 9:-0.87432 10:0.460687 11:0.321607 12:-0.106238 13:-0.57586 14:-0.734192 15:-0.998024 16:0.0459103 17:-0.247296 18:-0.671724 19:-0.235461 20:-0.890817 
1 1:-0.62 2:0.675164 3:0.69638 4:-0.56738 5:0.917286 6:-0.58798 7:-0.375509 8:-0.638889 9:-0.910574 10:0.430096 11:0.438557 12:-0.121094 13:-0.597536 14:-0.750853 15:-0.997414 16:0.183575 17:-0.420278 18:-0.769177 19:-0.209206 20:-0.703265 
1 1:-0.987601 2:0.603055 3:0.601423 4:-0.205327 5:0.827114 6:-0.267855 7:-0.362511 8:-0.599017 9:-0.816127 10:0.35842 11:0.500153 12:0.159445 13:-0.549249 14:-0.706345 15:-0.997888 16:-0.158901 17:-0.498132 18:-0.84885 19:0.208926 20:-0.974487 
1 1:-0.9442 2:0.544394 3:0.628205 4:-0.175506 5:0.826704 6:-0.24438 7:-0.293623 8:-0.601421 9:-0.810094 10:0.359208 11:0.495024 12:0.0784284 13:-0.555878 14:-0.603529 15:-0.997351 16:-0.138805 17:-0.498309 18:-0.765064 19:0.284106 20:-0.964678 
1 1:-0.932146 2:0.607614 3:0.622129 4:-0.168415 5:0.827472 6:-0.250205 7:-0.281815 8:-0.502734 9:-0.806364 10:0.376831 11:0.512385 12:-0.0166667 13:-0.459993 14:-0.689617 15:-0.995833 16:-0.0602126 17:-0.125373 18:-0.621154 19:0.023009 20:-0.778369 
1 1:-0.924177 2:0.584514 3:0.586529 4:0.0347104 5:0.825984 6:-0.228412 7:0.0143237 8:-0.601735 9:-0.779269 10:0.406598 11:0.55955 12:0.154132 13:-0.483682 14:-0.558188 15:-0.99709 16:-0.128679 17:-0.405793 18:-0.892167 19:-0.000153387 20:-0.70963 
1 1:-0.915711 2:0.542723 3:0.631391 4:-0.308246 5:0.831627 6:-0.265519 7:-0.240997 8:-0.610927 9:-0.785806 10:0.36279 11:0.573841 12:0.0372711 13:-0.498897 14:-0.659473 15:-0.997349 16:-0.126373 17:-0.399278 18:-0.917425 19:-0.016836 20:-0.929478 
1 1:-0.999764 2:0.573572 3:0.590067 4:-0.206256 5:0.828243 6:-0.293281 7:-0.278551 8:-0.622893 9:-0.783016 10:0.34445 11:0.635646 12:0.0653902 13:-0.556238 14:-0.677682 15:-0.997186 16:-0.0881108 17:-0.461247 18:-0.72912 19:0.0380033 20:-0.866243 
1 1:-0.88 2:0.622811 3:0.688472 4:-0.359134 5:0.827652 6:-0.280412 7:-0.266858 8:-0.584559 9:-0.796362 10:0.406204 11:0.399866 12:-0.073467 13:-0.635353 14:-0.772677 15:-0.997858 16:0.0120735 17:-0.502416 18:-0.842609 19:-0.0716336 20:-0.808469 
1 1:-0.886676 2:0.606778 3:0.58889 4:-0.123153 5:0.827174 6:-0.263033 7:-0.468935 8:-0.597248 9:-0.784019 10:0.346814 11:0.454741 12:0.209124 13:-0.552613 14:-0.638271 15:-0.997638 16:-0.114514 17:-0.498265 18:-0.888654 19:0.0957789 20:-0.97821 
1 1:-0.944741 2:0.488241 3:0.597429 4:-0.166276 5:0.826888 6:-0.242591 7:-0.352836 8:-0.599505 9:-0.804332 10:0.349894 11:0.541671 12:0.171008 13:-0.535642 14:-0.668749 15:-0.997559 16:-0.130214 17:-0.498244 18:-0.864048 19:0.34231 20:-0.890969 
1 1:-0.941794 2:0.597736 3:0.6307 4:-0.286924 5:0.830813 6:-0.320042 7:-0.114534 8:-0.615795 9:-0.793102 10:0.336784 11:0.607145 12:0.0356501 13:-0.50966 14:-0.689886 15:-0.997355 16:-0.0917431 17:-0.396838 18:-0.806172 19:-0.0479641 20:-0.824195 
1 1:-0.982121 2:0.575244 3:0.634439 4:-0.209385 5:0.826895 6:-0.233646 7:-0.462244 8:-0.502201 9:-0.790275 10:0.342909 11:0.575268 12:-0.00797144 13:-0.464358 14:-0.696931 15:-0.996209 16:-0.0922404 17:0.38408 18:-0.694334 19:-0.0536112 20:-0.76685 
1 1:-0.970912 2:0.609209 3:0.619373 4:-0.0532441 5:0.824224 6:-0.237141 7:0.04852 8:-0.629025 9:-0.778755 10:0.396712 11:0.686766 12:0.124055 13:-0.554321 14:-0.541467 15:-0.996986 16:-0.11562 17:-0.436121 18:-0.905515 19:0.00181038 20:-0.620202 
1 1:-1 2:0.530489 3:0.520121 4:-0.0252199 5:0.868374 6:-0.391186 7:-0.142139 8:-0.538922 9:-0.795624 10:0.32833 11:0.815906 12:0.331701 13:-0.349987 14:-0.526413 15:-0.99705 16:-0.179049 17:-0.210442 18:-0.833799 19:0.360973 20:-0.792837 
1 1:-1 2:0.524942 3:0.528977 4:-0.0498601 5:0.867676 6:-0.391918 7:-0.149553 8:-0.539914 9:-0.795878 10:0.329083 11:0.731843 12:0.367715 13:-0.326165 14:-0.537149 15:-0.997034 16:-0.157622 17:-0.241826 18:-0.755962 19:0.538183 20:-0.78062 
1 1:-1 2:0.529805 3:0.53359 4:-0.0871481 5:0.863204 6:-0.53016 7:-0.0962269 8:-0.548079 9:-0.808031 10:0.374825 11:0.853726 12:0.360917 13:-0.336499 14:-0.464727 15:-0.99589 16:-0.340957 17:-0.191205 18:-0.752994 19:0.101681 20:-0.947012 
1 1:-1 2:0.507617 3:0.520909 4:-0.0852686 5:0.865972 6:-0.366764 7:0.0818245 8:-0.580652 9:-0.812396 10:0.379661 11:0.543188 12:0.203521 13:-0.326924 14:-0.551844 15:-0.996807 16:-0.245313 17:-0.105441 18:-0.698951 19:0.105464 20:-0.829715 
1 1:-0.9927 2:0.549789 3:0.57704 4:-0.0343889 5:0.808513 6:-0.563562 7:-0.096664 8:-0.36488 9:-0.857238 10:0.461332 11:0.590856 12:0.454307 13:-0.401635 14:-0.470395 15:-0.988631 16:-0.270112 17:0.191279 18:-0.534188 19:-0.0573968 20:-0.775001 
1 1:-0.997778 2:0.59348 3:0.578948 4:-0.0223935 5:0.810642 6:-0.551148 7:-0.0851409 8:-0.350439 9:-0.85615 10:0.488376 11:0.797031 12:0.409059 13:-0.447136 14:-0.473847 15:-0.989251 16:-0.267201 17:0.402776 18:-0.536823 19:-0.0471773 20:-0.791238 
1 1:-0.993593 2:0.652521 3:0.437316 4:-0.135993 5:0.80168 6:-0.523109 7:0.000679029 8:-0.808344 9:-0.813718 10:0.450621 11:0.56856 12:0.368431 13:-0.553608 14:-0.540571 15:-0.997873 16:-0.170739 17:-0.241498 18:-0.673467 19:-0.240167 20:-0.882559 
1 1:-0.99637 2:0.575396 3:0.481128 4:-0.151524 5:0.851721 6:-0.388748 7:-0.0884807 8:-0.653123 9:-0.825596 10:0.434431 11:0.776709 12:0.354597 13:-0.347409 14:-0.569772 15:-0.996322 16:-0.0872388 17:-0.166102 18:-0.337592 19:-0.0236664 20:-0.833849 
1 1:-0.990072 2:0.558907 3:0.536591 4:-0.325714 5:0.859056 6:-0.331019 7:-0.37446 8:-0.772539 9:-0.854378 10:0.341584 11:0.370087 12:-0.158935 13:-0.412035 14:-0.633722 15:-0.99721 16:-0.0748355 17:-0.185363 18:-0.788845 19:0.137911 20:-0.911115 
1 1:-0.971092 2:0.572585 3:0.605773 4:-0.281114 5:0.898708 6:-0.558157 7:-0.341657 8:-0.506124 9:-0.910316 10:0.352867 11:0.364724 12:0.0705108 13:-0.416827 14:-0.621113 15:-0.996795 16:-0.0648971 17:-0.296256 18:-0.904889 19:0.149013 20:-0.871461 
1 1:-1 2:0.531477 3:0.510026 4:-0.203697 5:0.901324 6:-0.657094 7:-0.371149 8:-0.564538 9:-0.851411 10:0.436508 11:0.72766 12:0.29454 13:-0.322108 14:-0.586737 15:-0.997032 16:-0.103952 17:-0.267426 18:-0.950508 19:-0.126354 20:-0.83086 
1 1:-1 2:0.527374 3:0.495936 4:-0.223894 5:0.902349 6:-0.695788 7:-0.337542 8:-0.561779 9:-0.893408 10:0.372103 11:0.766965 12:0.308042 13:-0.451143 14:-0.584352 15:-0.996992 16:-0.158091 17:-0.294974 18:-0.935817 19:0.0223684 20:-0.846216 
1 1:-1 2:0.529577 3:0.552961 4:-0.212946 5:0.90236 6:-0.566455 7:-0.330588 8:-0.564891 9:-0.894531 10:0.420317 11:0.736729 12:0.266604 13:-0.468365 14:-0.583902 15:-0.997021 16:-0.103408 17:-0.299047 18:-0.901429 19:-0.00645163 20:-0.854615 
1 1:-1 2:0.554272 3:0.537815 4:-0.231414 5:0.901151 6:-0.679423 7:-0.342111 8:-0.561336 9:-0.859267 10:0.428484 11:0.757526 12:0.287143 13:-0.377378 14:-0.590121 15:-0.996963 16:-0.162555 17:-0.323613 18:-0.864993 19:-0.0979118 20:-0.831156 
1 1:-0.98 2:0.523878 3:0.574149 4:-0.261774 5:0.898823 6:-0.274915 7:-0.0377371 8:-0.498537 9:-0.789653 10:0.396318 11:0.346453 12:0.0742119 13:-0.478403 14:-0.511292 15:-0.995742 16:-0.261053 17:-0.0479818 18:-0.767313 19:-0.226554 20:-0.699403 
1 1:-0.98 2:0.541811 3:0.566697 4:-0.11331 5:0.888026 6:-0.207429 7:-0.0142946 8:-0.491422 9:-0.78671 10:0.387757 11:0.510691 12:0.0259944 13:-0.4678 14:-0.556602 15:-0.996718 16:-0.286011 17:-0.14406 18:-0.72739 19:0.12055 20:-0.678837 
1 1:-0.974431 2:0.559819 3:0.588389 4:-0.156041 5:0.897464 6:-0.249687 7:-0.187479 8:-0.517742 9:-0.815474 10:0.418204 11:0.0934326 12:-0.00698292 13:-0.626954 14:-0.719352 15:-0.99718 16:-0.2217 17:-0.247035 18:-0.662275 19:-0.349334 20:-0.808409 
1 1:-0.975075 2:0.560199 3:0.577644 4:-0.229476 5:0.890637 6:-0.192674 7:-0.0835089 8:-0.517495 9:-0.815789 10:0.428843 11:0.233845 12:-0.00811667 13:-0.658712 14:-0.70278 15:-0.99728 16:-0.251893 17:-0.262596 18:-0.50704 19:-0.330784 20:-0.81714 
1 1:-0.972395 2:0.560883 3:0.590014 4:-0.231502 5:0.890824 6:-0.247648 7:-0.252648 8:-0.509244 9:-0.821727 10:0.423935 11:-0.064374 12:0.0138979 13:-0.683481 14:-0.71703 15:-0.99723 16:-0.239454 17:-0.212828 18:-0.390251 19:-0.341619 20:-0.864066 
1 1:-0.991146 2:0.509669 3:0.604445 4:-0.244735 5:0.89896 6:-0.220645 7:-0.0183979 8:-0.461332 9:-0.810584 10:0.383924 11:0.666018 12:0.228094 13:-0.409449 14:-0.619657 15:-0.994144 16:-0.254376 17:-0.107823 18:-0.771745 19:-0.342145 20:-0.717158 
1 1:-0.944715 2:0.590897 3:0.693133 4:-0.314806 5:0.901646 6:-0.23848 7:-0.390005 8:-0.545608 9:-0.827367 10:0.473762 11:0.260462 12:-0.0405178 13:-0.594755 14:-0.7155 15:-0.997898 16:-0.142884 17:-0.37373 18:-0.873536 19:-0.467212 20:-0.734296 
1 1:-0.98 2:0.517496 3:0.598845 4:-0.13225 5:0.894826 6:-0.173674 7:-0.146743 8:-0.495574 9:-0.784315 10:0.393631 11:0.593291 12:0.10457 13:-0.590067 14:-0.57788 15:-0.996317 16:-0.271568 17:-0.122476 18:-0.664338 19:0.0504579 20:-0.704973 
1 1:-0.952065 2:0.610349 3:0.653541 4:-0.305 5:0.906527 6:-0.295988 7:-0.448483 8:-0.526947 9:-0.828457 10:0.428699 11:0.13711 12:-0.153786 13:-0.618008 14:-0.743871 15:-0.997289 16:-0.0518525 17:-0.225099 18:-0.79176 19:-0.426432 20:-0.714474 
1 1:-0.994217 2:0.473956 3:0.579233 4:-0.00980229 5:0.945896 6:-0.638453 7:-0.0282307 8:-0.766821 9:-0.855293 10:0.482609 11:0.901999 12:0.129504 13:-0.50995 14:-0.538476 15:-0.995921 16:-0.114917 17:-0.0884836 18:-0.74976 19:0.022625 20:-0.741669 
1 1:-0.976522 2:0.652977 3:0.580384 4:-0.00545592 5:0.961745 6:-0.758539 7:-0.513384 8:-0.724229 9:-0.914365 10:0.476842 11:0.674012 12:0.218654 13:-0.508005 14:-0.5909 15:-0.996997 16:-0.0992997 17:-0.117798 18:-0.424984 19:0.067176 20:-0.811142 
1 1:-0.964684 2:0.657764 3:0.580842 4:-0.0132378 5:0.966888 6:-0.733928 7:-0.347887 8:-0.789023 9:-0.908293 10:0.559766 11:0.649471 12:0.11394 13:-0.503059 14:-0.510252 15:-0.997301 16:-0.158696 17:-0.226219 18:-0.447354 19:0.296544 20:-0.746281 
1 1:-0.976768 2:0.669921 3:0.580546 4:-0.0449712 5:0.969985 6:-0.782525 7:-0.45219 8:-0.745687 9:-0.904257 10:0.517749 11:0.655874 12:0.3489 13:-0.500129 14:-0.601485 15:-0.996984 16:-0.167636 17:-0.190876 18:-0.528385 19:0.279359 20:-0.842295 
1 1:-0.972134 2:0.667414 3:0.598851 4:-0.0451582 5:0.96469 6:-0.786859 7:-0.330617 8:-0.733789 9:-0.897036 10:0.558011 11:0.705492 12:0.125311 13:-0.502445 14:-0.509503 15:-0.997012 16:-0.208071 17:-0.166053 18:-0.423893 19:0.163901 20:-0.843441 
1 1:-0.988644 2:0.641047 3:0.366231 4:0.0490695 5:0.960545 6:-0.539015 7:-0.206061 8:-0.806216 9:-0.915062 10:0.311423 11:0.903905 12:0.297173 13:-0.274683 14:-0.573506 15:-0.996574 16:-0.107656 17:0.0929954 18:-0.527268 19:-0.0201062 20:-0.828274 
1 1:-0.98 2:0.579575 3:0.611429 4:-0.197231 5:0.953609 6:-0.61623 7:-0.222503 8:-0.766297 9:-0.911994 10:0.435147 11:0.411931 12:0.0262193 13:-0.558906 14:-0.6388 15:-0.997112 16:-0.0828497 17:-0.315269 18:-0.427499 19:-0.038692 20:-0.792817 
0.3694863080212199 1:-0.996031 2:0.43186 3:0.342108 4:0.0424943 5:0.960453 6:-0.646778 7:0.0210033 8:-0.749379 9:-0.884085 10:0.387685 11:0.557193 12:0.298199 13:-0.358797 14:-0.598929 15:-0.996478 16:-0.146462 17:-0.187286 18:-0.560444 19:0.130791 20:-0.623484 
1 1:-0.98 2:0.646366 3:0.61445 4:-0.0341327 5:0.954197 6:-0.609065 7:-0.25002 8:-0.763619 9:-0.910797 10:0.511839 11:0.436577 12:0.00396581 13:-0.562108 14:-0.642443 15:-0.996854 16:-0.0833974 17:-0.299117 18:-0.565714 19:-0.0351297 20:-0.782499 
1 1:-0.971696 2:0.630029 3:0.589778 4:-0.0177982 5:0.971925 6:-0.780042 7:-0.57417 8:-0.691353 9:-0.911065 10:0.465953 11:0.523091 12:0.289438 13:-0.50317 14:-0.552216 15:-0.996901 16:-0.11038 17:-0.166358 18:-0.522357 19:0.18597 20:-0.745814 
1 1:-0.990825 2:0.581931 3:0.574126 4:-0.00858888 5:0.94761 6:-0.682583 7:-0.0611563 8:-0.668631 9:-0.911142 10:0.498191 11:0.603967 12:0.235107 13:-0.498485 14:-0.623052 15:-0.995701 16:-0.20725 17:-0.0744134 18:-0.599063 19:0.0669318 20:-0.741963 
1 1:-0.965228 2:0.611337 3:0.593434 4:-0.00239531 5:0.975574 6:-0.796483 7:-0.573238 8:-0.767483 9:-0.903358 10:0.510943 11:0.602489 12:0.207733 13:-0.510792 14:-0.532099 15:-0.997406 16:-0.149828 17:-0.115644 18:-0.396532 19:0.27589 20:-0.877588 
1 1:-0.968704 2:0.611869 3:0.581772 4:-0.343945 5:0.602603 6:0.566054 7:-0.295931 8:-0.610748 9:-0.558365 10:0.364796 11:-0.0213681 12:-0.31381 13:-0.344957 14:-0.646774 15:-0.996714 16:-0.0164626 17:0.0949528 18:-0.594845 19:-0.0452177 20:-0.905937 
0.8476595391119121 1:-0.915227 2:0.5545 3:0.591648 4:-0.353578 5:0.594044 6:0.657501 7:-0.244471 8:-0.612371 9:-0.586895 10:0.364223 11:0.5638 12:-0.350615 13:-0.557407 14:-0.64228 15:-0.996186 16:-0.0393628 17:0.233484 18:-0.557809 19:-0.0918013 20:-0.927705 
1 1:-0.969237 2:0.512101 3:0.515336 4:-0.0885392 5:0.594539 6:0.493643 7:-0.22139 8:-0.633861 9:-0.527244 10:0.401046 11:-0.0515795 12:-0.139768 13:-0.686173 14:-0.69642 15:-0.99765 16:-0.0271289 17:-0.392352 18:-0.829501 19:-0.248759 20:-0.819789 
1 1:-0.992284 2:0.480947 3:0.522573 4:-0.102417 5:0.850927 6:-0.472506 7:-0.189315 8:-0.545386 9:-0.792671 10:0.411398 11:0.724106 12:0.370952 13:-0.221818 14:-0.520766 15:-0.994963 16:-0.184119 17:-0.37746 18:-0.787448 19:0.271074 20:-0.891182 
1 1:-0.977241 2:0.57684 3:0.57232 4:-0.465523 5:0.84407 6:-0.550225 7:-0.241731 8:-0.543214 9:-0.845919 10:0.251782 11:0.867129 12:0.241362 13:-0.28014 14:-0.687901 15:-0.997841 16:-0.0276226 17:-0.430512 18:-0.437653 19:0.236504 20:-0.888618 
1 1:-0.993467 2:0.506326 3:0.483975 4:-0.0967577 5:0.852064 6:-0.518086 7:-0.198746 8:-0.537199 9:-0.792209 10:0.364115 11:0.756902 12:0.366628 13:-0.276143 14:-0.561045 15:-0.996888 16:-0.0383898 17:-0.314373 18:-0.792239 19:-0.0331555 20:-0.882021 
1 1:-0.999028 2:0.564226 3:0.465596 4:-0.0794629 5:0.850529 6:-0.468241 7:-0.200506 8:-0.539199 9:-0.828483 10:0.345381 11:0.741799 12:0.36608 13:-0.314511 14:-0.568574 15:-0.996095 16:-0.184699 17:-0.40033 18:-0.806944 19:0.292957 20:-0.89635 
1 1:-1 2:0.531933 3:0.563968 4:-0.206516 5:0.846223 6:-0.525159 7:-0.38892 8:-0.565454 9:-0.901628 10:0.254863 11:0.735708 12:0.128417 13:-0.339731 14:-0.599402 15:-0.997387 16:-0.00849163 17:-0.372908 18:-0.777361 19:-0.0397626 20:-0.828282 
0.2362307193003797 1:-1 2:0.490673 3:0.573028 4:-0.217013 5:0.844794 6:-0.450495 7:-0.283482 8:-0.561968 9:-0.901709 10:0.253609 11:0.803792 12:0.347363 13:-0.317573 14:-0.668629 15:-0.997384 16:-0.0210498 17:-0.377831 18:-0.809326 19:0.15773 20:-0.877321 
1 1:-0.994437 2:0.568861 3:0.508879 4:-0.0728744 5:0.903531 6:-0.499599 7:0.0462701 8:-0.800923 9:-0.877078 10:0.400258 11:0.784353 12:0.326136 13:-0.318181 14:-0.578065 15:-0.996082 16:-0.171272 17:-0.22757 18:-0.714628 19:-0.213204 20:-0.725127 
1 1:-0.98 2:0.582083 3:0.589731 4:-0.188894 5:0.90408 6:-0.502067 7:-0.174021 8:-0.741737 9:-0.882432 10:0.457069 11:0.942425 12:0.270825 13:-0.390778 14:-0.610566 15:-0.996374 16:-0.0564001 17:-0.343053 18:-0.807676 19:-0.184833 20:-0.892893 
1 1:-0.98 2:0.587402 3:0.589753 4:-0.331183 5:0.907386 6:-0.476169 7:0.00964921 8:-0.72268 9:-0.88706 10:0.403446 11:0.820308 12:0.266253 13:-0.390934 14:-0.614655 15:-0.995993 16:-0.0743743 17:-0.383497 18:-0.758796 19:-0.15638 20:-0.898731 
1 1:-0.987086 2:0.633525 3:0.589516 4:-0.0771356 5:0.903335 6:-0.502718 7:0.0650906 8:-0.804356 9:-0.88287 10:0.388939 11:0.818125 12:0.281526 13:-0.308073 14:-0.569836 15:-0.996357 16:-0.114622 17:-0.37284 18:-0.705352 19:-0.191826 20:-0.827461 
1 1:-0.984404 2:0.611565 3:0.469232 4:-0.136922 5:0.904692 6:-0.486716 7:0.00470657 8:-0.790404 9:-0.880509 10:0.377476 11:0.754636 12:0.224098 13:-0.337802 14:-0.589798 15:-0.996175 16:-0.138426 17:-0.443552 18:-0.86124 19:0.0242841 20:-0.840791 
1 1:-0.98 2:0.620455 3:0.586354 4:-0.207102 5:0.907803 6:-0.509241 7:-0.00933446 8:-0.750033 9:-0.879715 10:0.328474 11:0.831856 12:0.303653 13:-0.390779 14:-0.617963 15:-0.995891 16:-0.0751995 17:-0.416121 18:-0.746673 19:-0.164832 20:-0.882879 
1 1:-0.930813 2:0.597432 3:0.609231 4:-0.239585 5:0.895558 6:-0.508075 7:-0.134748 8:-0.778404 9:-0.891999 10:0.406204 11:0.829744 12:0.286974 13:-0.390804 14:-0.623075 15:-0.996458 16:0.00861775 17:-0.416638 18:-0.687507 19:-0.191755 20:-0.882658 
1 1:-0.98 2:0.632841 3:0.587314 4:-0.347814 5:0.904406 6:-0.488524 7:-0.100872 8:-0.713792 9:-0.885368 10:0.349572 11:0.83529 12:0.277108 13:-0.390867 14:-0.613665 15:-0.99638 16:-0.0602991 17:-0.300612 18:-0.79868 19:-0.15632 20:-0.912025 
1 1:-0.932433 2:0.603207 3:0.448685 4:-0.366921 5:0.857564 6:-0.505668 7:-0.23968 8:-0.551744 9:-0.902879 10:0.151377 11:0.542548 12:-0.0225182 13:-0.49387 14:-0.706042 15:-0.996937 16:0.0368944 17:-0.254684 18:-0.842582 19:0.0204296 20:-0.833869 
1 1:-0.999556 2:0.583602 3:0.621873 4:-0.36945 5:0.85626 6:-0.456856 7:-0.295937 8:-0.55167 9:-0.903323 10:0.456532 11:0.527492 12:-0.00311315 13:-0.57183 14:-0.70255 15:-0.997378 16:0.00787904 17:-0.334666 18:-0.687533 19:-0.32537 20:-0.739342 
1 1:-0.905102 2:0.596824 3:0.68276 4:-0.329522 5:0.857297 6:-0.461334 7:-0.148783 8:-0.541193 9:-0.86536 10:0.469176 11:0.704457 12:0.237314 13:-0.482891 14:-0.617233 15:-0.995779 16:0.0413303 17:-0.24736 18:-0.705073 19:-0.133969 20:-0.752179 
1 1:-0.94948 2:0.638236 3:0.544521 4:-0.346726 5:0.850229 6:-0.525064 7:-0.22867 8:-0.518745 9:-0.876413 10:0.317477 11:0.748197 12:0.291912 13:-0.345155 14:-0.633162 15:-0.997282 16:0.0430599 17:-0.132616 18:-0.757905 19:-0.389653 20:-0.812405 
1 1:-0.943741 2:0.517648 3:0.579167 4:-0.173473 5:0.861814 6:-0.51445 7:-0.280165 8:-0.562682 9:-0.902503 10:0.315435 11:0.66113 12:0.299225 13:-0.337692 14:-0.631728 15:-0.997235 16:0.0429626 17:-0.255496 18:-0.70313 19:-0.407817 20:-0.837863 
1 1:-0.911219 2:0.594316 3:0.676106 4:-0.347086 5:0.860072 6:-0.535842 7:-0.277181 8:-0.579778 9:-0.887674 10:0.383422 11:0.632384 12:0.0745211 13:-0.402613 14:-0.593055 15:-0.997257 16:-0.0663097 17:-0.100959 18:-0.813305 19:-0.313759 20:-0.769692 
1 1:-0.910841 2:0.626002 3:0.501906 4:-0.361655 5:0.857444 6:-0.504314 7:-0.254461 8:-0.555764 9:-0.893155 10:0.45123 11:0.515509 12:0.0462615 13:-0.538016 14:-0.703365 15:-0.996928 16:0.0438887 17:-0.233686 18:-0.890437 19:-0.303496 20:-0.763278 
1 1:-0.971756 2:0.63816 3:0.454318 4:-0.366918 5:0.857265 6:-0.505306 7:-0.227679 8:-0.571303 9:-0.876248 10:0.38378 11:0.544459 12:-0.00407825 13:-0.471231 14:-0.707153 15:-0.996823 16:0.0469914 17:-0.116147 18:-0.691938 19:-0.435844 20:-0.858433 
1 1:-0.974114 2:0.573496 3:0.600067 4:-0.394564 5:0.846735 6:-0.497568 7:-0.299644 8:-0.544577 9:-0.903323 10:0.463947 11:0.587817 12:0.0197588 13:-0.521708 14:-0.702305 15:-0.997235 16:0.00827182 17:-0.113341 18:-0.683927 19:-0.323822 20:-0.743859 
1 1:-0.909041 2:0.649405 3:0.604495 4:-0.110436 5:0.857012 6:-0.483773 7:-0.229153 8:-0.558383 9:-0.878019 10:0.468424 11:0.56423 12:0.0183955 13:-0.496901 14:-0.651467 15:-0.997131 16:-0.183654 17:-0.287918 18:-0.694001 19:-0.365238 20:-0.815336 
1 1:-0.915695 2:0.558451 3:0.607908 4:-0.27093 5:0.86573 6:-0.52895 7:-0.287591 8:-0.554052 9:-0.900947 10:0.391267 11:0.650374 12:0.240827 13:-0.588691 14:-0.636561 15:-0.997254 16:-0.0926368 17:-0.474818 18:-0.811961 19:-0.1426 20:-0.78617 
1 1:-0.980143 2:0.656244 3:0.675043 4:-0.376725 5:0.84778 6:-0.461028 7:-0.358099 8:-0.560184 9:-0.903323 10:0.287459 11:0.513828 12:0.0377021 13:-0.513465 14:-0.706248 15:-0.997356 16:0.0444617 17:-0.245428 18:-0.695944 19:-0.258383 20:-0.747914 
1 1:-0.953821 2:0.630941 3:0.647647 4:-0.382879 5:0.857669 6:-0.464373 7:-0.305828 8:-0.559917 9:-0.903323 10:0.447971 11:0.537941 12:-0.000953387 13:-0.468714 14:-0.708937 15:-0.997321 16:-0.0147869 17:-0.216761 18:-0.707295 19:-0.320066 20:-0.747532 
1 1:-0.946278 2:0.623343 3:0.700623 4:-0.387052 5:0.84894 6:-0.491812 7:-0.300921 8:-0.538879 9:-0.903323 10:0.409464 11:0.449117 12:0.00024596 13:-0.527569 14:-0.704137 15:-0.997382 16:0.0116519 17:-0.236176 18:-0.712193 19:-0.359773 20:-0.743062 
1 1:-1 2:0.476996 3:0.419171 4:0.123743 5:0.806324 6:-0.480702 7:-0.208077 8:-0.387786 9:-0.778663 10:0.408568 11:0.75248 12:0.431449 13:-0.404198 14:-0.411886 15:-0.988673 16:-0.275384 17:0.565937 18:-0.80049 19:0.224601 20:-0.82433 
1 1:-1 2:0.596368 3:0.493746 4:0.125246 5:0.803871 6:-0.524269 7:-0.20715 8:-0.376647 9:-0.817049 10:0.412867 11:0.526504 12:0.310179 13:-0.490173 14:-0.426929 15:-0.987752 16:-0.270372 17:0.244379 18:-0.901176 19:0.162785 20:-0.824687 
1 1:-1 2:0.497436 3:0.432625 4:0.119788 5:0.80483 6:-0.408399 7:-0.207728 8:-0.356357 9:-0.856776 10:0.460114 11:0.632567 12:0.394794 13:-0.448112 14:-0.491065 15:-0.989098 16:-0.29809 17:0.155145 18:-0.785212 19:-0.0733991 20:-0.824633 
1 1:-0.957962 2:0.607918 3:0.596011 4:-0.140955 5:0.903096 6:-0.451743 7:-0.0946532 8:-0.755127 9:-0.797668 10:0.420676 11:0.708645 12:0.206304 13:-0.418973 14:-0.651087 15:-0.99647 16:-0.0575136 17:-0.432221 18:-0.732074 19:-0.192517 20:-0.840495 
1 1:-0.963256 2:0.622279 3:0.616842 4:-0.2745 5:0.903093 6:-0.452687 7:-0.153603 8:-0.753519 9:-0.882155 10:0.466705 11:0.728677 12:0.184777 13:-0.444711 14:-0.627478 15:-0.996491 16:-0.0514164 17:-0.417862 18:-0.721748 19:-0.181218 20:-0.851229 
1 1:-0.974047 2:0.622051 3:0.613041 4:-0.223935 5:0.903112 6:-0.437213 7:-0.167901 8:-0.739182 9:-0.857488 10:0.461153 11:0.761165 12:0.203624 13:-0.443067 14:-0.634704 15:-0.996482 16:-0.0730158 17:-0.396403 18:-0.721255 19:-0.149761 20:-0.76376 
1 1:-0.9626 2:0.624558 3:0.592992 4:-0.21598 5:0.903022 6:-0.415647 7:-0.307705 8:-0.739143 9:-0.808807 10:0.426084 11:0.744609 12:0.19506 13:-0.400663 14:-0.624841 15:-0.996457 16:-0.0793868 17:-0.401994 18:-0.737917 19:-0.171784 20:-0.754555 
1 1:-0.968993 2:0.450021 3:0.603049 4:-0.281488 5:0.87875 6:-0.260557 7:-0.255213 8:-0.740327 9:-0.765323 10:0.358097 11:-0.315368 12:-0.575361 13:-0.365595 14:-0.841408 15:-0.99856 16:-0.0641584 17:-0.283777 18:-0.688505 19:0.102121 20:-0.822992 
1 1:-0.908694 2:0.56795 3:0.654727 4:-0.296795 5:0.88272 6:-0.279341 7:-0.329825 8:-0.766373 9:-0.784476 10:0.464878 11:0.202494 12:-0.568207 13:-0.337074 14:-0.768707 15:-0.997581 16:-0.0891666 17:-0.393894 18:-0.761591 19:0.108407 20:-0.820831 
1 1:-0.934534 2:0.474792 3:0.690667 4:-0.302324 5:0.882008 6:-0.30252 7:-0.342356 8:-0.755094 9:-0.773258 10:0.471362 11:0.19972 12:-0.378982 13:-0.529638 14:-0.803237 15:-0.996761 16:-0.115735 17:-0.196225 18:-0.664431 19:0.122178 20:-0.833424 
1 1:-0.98 2:0.593177 3:0.590333 4:-0.255915 5:0.908436 6:-0.521778 7:-0.260062 8:-0.705114 9:-0.883331 10:0.367805 11:0.883335 12:0.227246 13:-0.390492 14:-0.613067 15:-0.996158 16:-0.0778481 17:-0.374154 18:-0.794089 19:-0.198398 20:-0.904007 
1 1:-0.98 2:0.633221 3:0.591439 4:-0.149852 5:0.903838 6:-0.525272 7:-0.248586 8:-0.703038 9:-0.881353 10:0.473654 11:0.856912 12:0.287026 13:-0.391117 14:-0.614355 15:-0.996142 16:-0.0648286 17:-0.371814 18:-0.771173 19:-0.157334 20:-0.893022 
1 1:-0.98 2:0.601231 3:0.590094 4:-0.275123 5:0.90371 6:-0.507255 7:0.0259342 8:-0.773299 9:-0.877523 10:0.359745 11:0.840026 12:0.28443 13:-0.390904 14:-0.613672 15:-0.995699 16:-0.0727131 17:-0.341839 18:-0.734603 19:-0.192433 20:-0.895916 
1 1:-0.988813 2:0.622811 3:0.623257 4:-0.344651 5:0.909911 6:-0.565055 7:-0.324066 8:-0.66109 9:-0.893051 10:0.348103 11:0.538516 12:0.213772 13:-0.649161 14:-0.668794 15:-0.996572 16:-0.255399 17:-0.182241 18:-0.88534 19:0.126252 20:-0.897522 
1 1:-0.997273 2:0.52593 3:0.578156 4:-0.350665 5:0.909934 6:-0.525671 7:-0.410265 8:-0.666466 9:-0.868928 10:0.329011 11:0.485421 12:0.115172 13:-0.552524 14:-0.621336 15:-0.997419 16:-0.11954 17:-0.450877 18:-0.810457 19:0.0196825 20:-0.862387 
1 1:-0.996972 2:0.572661 3:0.687236 4:-0.349294 5:0.908694 6:-0.529602 7:-0.415907 8:-0.6786 9:-0.890077 10:0.442813 11:0.13595 12:0.244379 13:-0.44759 14:-0.635661 15:-0.995973 16:-0.249338 17:-0.187569 18:-0.949311 19:-0.13933 20:-0.886965 
1 1:-1 2:0.562251 3:0.647357 4:-0.167498 5:0.799239 6:-0.175539 7:-0.237844 8:-0.747568 9:-0.792 10:0.432855 11:0.665895 12:0.228595 13:-0.374484 14:-0.592977 15:-0.996838 16:-0.0250821 17:-0.54196 18:-0.774127 19:0.151242 20:-0.94083 
1 1:-1 2:0.58497 3:0.624235 4:-0.161339 5:0.79457 6:-0.172635 7:-0.273299 8:-0.751532 9:-0.840087 10:0.367339 11:0.875288 12:0.284711 13:-0.369629 14:-0.610496 15:-0.996301 16:0.0345557 17:-0.505469 18:-0.713696 19:0.0925735 20:-0.948605 
1 1:-0.964193 2:0.577372 3:0.604206 4:-0.18687 5:0.859959 6:-0.531333 7:-0.276668 8:-0.567666 9:-0.886467 10:0.407744 11:0.466211 12:0.169888 13:-0.436811 14:-0.562576 15:-0.997235 16:0.0389484 17:-0.162648 18:-0.754724 19:-0.261979 20:-0.774247 
1 1:-0.969357 2:0.59766 3:0.692386 4:-0.344659 5:0.863807 6:-0.537454 7:-0.277781 8:-0.539097 9:-0.897013 10:0.38421 11:0.470242 12:0.0355939 13:-0.479658 14:-0.684125 15:-0.997205 16:-0.11544 17:-0.4039 18:-0.749162 19:-0.419333 20:-0.815723 
1 1:-0.964309 2:0.631777 3:0.607371 4:-0.149368 5:0.864104 6:-0.579781 7:-0.27911 8:-0.565247 9:-0.887237 10:0.440198 11:0.737955 12:0.366248 13:-0.533284 14:-0.678606 15:-0.997285 16:-0.0587459 17:-0.323134 18:-0.783323 19:-0.16607 20:-0.835396 
1 1:-1 2:0.496676 3:0.567242 4:-0.12302 5:0.865848 6:-0.564233 7:-0.0699575 8:-0.546303 9:-0.875627 10:0.336856 11:0.949417 12:0.46488 13:-0.3311 14:-0.489026 15:-0.996416 16:-0.200061 17:-0.157813 18:-0.824257 19:-0.0519062 20:-0.940535 
1 1:-0.994766 2:0.625698 3:0.646739 4:-0.186192 5:0.861875 6:-0.529828 7:-0.272442 8:-0.555174 9:-0.897766 10:0.447863 11:0.530855 12:0.199909 13:-0.510128 14:-0.610124 15:-0.997287 16:0.0070142 17:-0.44101 18:-0.826719 19:-0.324684 20:-0.795146 
1 1:-0.987908 2:0.546446 3:0.554843 4:-0.117617 5:0.871061 6:-0.346677 7:-0.0831126 8:-0.539694 9:-0.806376 10:0.400401 11:0.112413 12:0.233716 13:-0.519186 14:-0.631189 15:-0.997205 16:-0.215192 17:-0.255438 18:-0.629631 19:-0.208916 20:-0.884553 
1 1:-0.991835 2:0.52745 3:0.502912 4:-0.142257 5:0.879173 6:-0.327979 7:-0.119547 8:-0.518519 9:-0.812689 10:0.313787 11:-0.0132695 12:0.268717 13:-0.346988 14:-0.713082 15:-0.99748 16:-0.15114 17:-0.181827 18:-0.295007 19:0.131682 20:-0.908745 
1 1:-0.960172 2:0.53292 3:0.563056 4:-0.0886141 5:0.877035 6:-0.261302 7:-0.0592679 8:-0.505014 9:-0.777083 10:0.420138 11:0.236413 12:0.0929892 13:-0.637436 14:-0.710039 15:-0.996117 16:-0.248171 17:-0.0778313 18:-0.580326 19:0.0930389 20:-0.82993 
1 1:-0.976275 2:0.529957 3:0.56414 4:-0.111934 5:0.879982 6:-0.257323 7:-0.0507873 8:-0.518444 9:-0.804563 10:0.434574 11:-0.0581618 12:-0.0665005 13:-0.652786 14:-0.583449 15:-0.996329 16:-0.233346 17:-0.237807 18:-0.403266 19:-0.00522245 20:-0.883024 
1 1:-0.965515 2:0.531021 3:0.571067 4:-0.0993982 5:0.880926 6:-0.312051 7:-0.0167251 8:-0.502012 9:-0.795691 10:0.440592 11:-0.0313575 12:0.248876 13:-0.644427 14:-0.503177 15:-0.996073 16:-0.257403 17:-0.0481941 18:-0.359363 19:-0.180382 20:-0.700429 
1 1:-0.965828 2:0.490901 3:0.573076 4:-0.145962 5:0.880195 6:-0.253638 7:-0.167539 8:-0.518519 9:-0.812689 10:0.338969 11:0.450422 12:-0.225934 13:-0.586295 14:-0.563296 15:-0.997438 16:-0.191982 17:-0.147265 18:-0.34901 19:0.118829 20:-0.911003 
1 1:-0.979582 2:0.546522 3:0.563634 4:-0.109953 5:0.88163 6:-0.290564 7:-0.0479837 8:-0.517604 9:-0.783663 10:0.433643 11:0.657386 12:0.0184189 13:-0.41005 14:-0.572162 15:-0.995961 16:-0.227346 17:-0.137839 18:-0.282378 19:0.162685 20:-0.800212 
1 1:-0.965343 2:0.585274 3:0.573998 4:-0.0286489 5:0.875801 6:-0.262001 7:0.177973 8:-0.561515 9:-0.816376 10:0.457427 11:0.0239078 12:0.311402 13:-0.403359 14:-0.619218 15:-0.997392 16:-0.183214 17:-0.205554 18:-0.54876 19:-0.158492 20:-0.844429 
1 1:-0.963436 2:0.538543 3:0.570692 4:-0.097674 5:0.87178 6:-0.354867 7:-0.155084 8:-0.526506 9:-0.800323 10:0.421034 11:-0.0730479 12:-0.186196 13:-0.619208 14:-0.680437 15:-0.997177 16:-0.213019 17:-0.246616 18:-0.492188 19:-0.249228 20:-0.89216 
1 1:-0.966729 2:0.563087 3:0.560274 4:-0.0305226 5:0.872586 6:-0.262896 7:0.133448 8:-0.529177 9:-0.814364 10:0.446753 11:0.418482 12:-0.158461 13:-0.614236 14:-0.646479 15:-0.99639 16:-0.195862 17:-0.134008 18:-0.584478 19:0.0412485 20:-0.887056 
1 1:-0.994057 2:0.548193 3:0.571915 4:-0.088274 5:0.866965 6:-0.287183 7:-0.100896 8:-0.526797 9:-0.797145 10:0.410216 11:-0.0226948 12:0.0331202 13:-0.651805 14:-0.583205 15:-0.997309 16:-0.205167 17:-0.26382 18:-0.449949 19:-0.28852 20:-0.886562 
1 1:-0.986209 2:0.512708 3:0.508348 4:-0.141739 5:0.881264 6:-0.362096 7:-0.166007 8:-0.518519 9:-0.812689 10:0.436902 11:0.169344 12:-0.192816 13:-0.304147 14:-0.728546 15:-0.997377 16:-0.148152 17:-0.222306 18:-0.382639 19:-0.197573 20:-0.899476 
1 1:-0.993795 2:0.486798 3:0.552965 4:-0.139312 5:0.875735 6:-0.336618 7:0.116102 8:-0.550324 9:-0.825533 10:0.227317 11:0.317538 12:-0.0254744 13:-0.512638 14:-0.666875 15:-0.99727 16:-0.222708 17:-0.215929 18:-0.285066 19:-0.350887 20:-0.766682 
1 1:-1 2:0.57418 3:0.611425 4:-0.112071 5:0.837386 6:-0.117163 7:-0.176871 8:-0.404107 9:-0.695507 10:0.478132 11:0.558852 12:0.24994 13:-0.516037 14:-0.564343 15:-0.994993 16:-0.223076 17:0.116398 18:-0.881494 19:-0.207674 20:-0.729596 
1 1:-1 2:0.579803 3:0.616268 4:-0.126162 5:0.841284 6:-0.120805 7:-0.239709 8:-0.409887 9:-0.692901 10:0.47172 11:0.607439 12:0.198672 13:-0.523863 14:-0.550185 15:-0.99457 16:-0.263489 17:0.115691 18:-0.854626 19:-0.154179 20:-0.759263 
1 1:-1 2:0.58535 3:0.6154 4:-0.152338 5:0.837042 6:-0.126928 7:-0.140011 8:-0.417912 9:-0.719956 10:0.468747 11:0.550194 12:0.267021 13:-0.513132 14:-0.519798 15:-0.995496 16:-0.225112 17:0.163693 18:-0.888574 19:-0.301198 20:-0.728898 
1 1:-0.991516 2:0.524486 3:0.516743 4:-0.276219 5:0.931738 6:-0.626848 7:-0.300979 8:-0.675491 9:-0.86208 10:0.323172 11:0.622635 12:0.087803 13:-0.531212 14:-0.688385 15:-0.997365 16:-0.0279181 17:-0.290849 18:-0.732939 19:0.0400193 20:-0.760496 
1 1:-0.987759 2:0.562783 3:0.573584 4:-0.236091 5:0.941274 6:-0.590651 7:-0.324625 8:-0.644266 9:-0.866235 10:0.381309 11:0.521882 12:0.018119 13:-0.567682 14:-0.646666 15:-0.996834 16:-0.102269 17:-0.136671 18:-0.583666 19:-0.113534 20:-0.804325 
1 1:-0.98 2:0.645682 3:0.610095 4:-0.295339 5:0.951329 6:-0.635165 7:-0.276843 8:-0.760256 9:-0.90905 10:0.465559 11:0.415191 12:0.0368682 13:-0.537082 14:-0.637765 15:-0.997259 16:-0.0871595 17:-0.281276 18:-0.573153 19:-0.0322122 20:-0.798547 
1 1:-0.998584 2:0.486646 3:0.614831 4:0.0768795 5:0.953239 6:-0.573366 7:-0.271725 8:-0.772526 9:-0.88772 10:0.310922 11:0.622127 12:0.163282 13:-0.301696 14:-0.567907 15:-0.995698 16:-0.029864 17:-0.0890526 18:-0.668051 19:0.00803349 20:-0.829545 
1 1:-0.98727 2:0.564226 3:0.579629 4:-0.327933 5:0.94375 6:-0.573512 7:-0.324841 8:-0.717304 9:-0.839836 10:0.372963 11:0.518326 12:0.0178754 13:-0.573929 14:-0.682019 15:-0.996961 16:-0.0248191 17:-0.166452 18:-0.563625 19:-0.175563 20:-0.805891 
1 1:-0.988189 2:0.511417 3:0.589971 4:-0.253617 5:0.927347 6:-0.61269 7:-0.313359 8:-0.69231 9:-0.88074 10:0.302253 11:0.442689 12:0.00434998 13:-0.467185 14:-0.683831 15:-0.997323 16:-0.0682412 17:-0.271201 18:-0.813491 19:0.190109 20:-0.764673 
1 1:-0.987195 2:0.561795 3:0.606235 4:-0.223202 5:0.925262 6:-0.576346 7:-0.324043 8:-0.658363 9:-0.840554 10:0.383995 11:0.42572 12:0.0338745 13:-0.539406 14:-0.691446 15:-0.997137 16:-0.126553 17:-0.0884195 18:-0.54007 19:-0.27141 20:-0.799622 
1 1:-0.980351 2:0.474184 3:0.551329 4:-0.0551897 5:0.947089 6:-0.664611 7:-0.232837 8:-0.660634 9:-0.887158 10:0.344521 11:0.750099 12:0.272732 13:-0.550529 14:-0.499484 15:-0.995691 16:-0.142751 17:-0.0180021 18:-0.622378 19:-0.013042 20:-0.778397 
1 1:-0.993288 2:0.540291 3:0.314278 4:-0.105428 5:0.951685 6:-0.578918 7:-0.323314 8:-0.723001 9:-0.897248 10:0.29362 11:0.51505 12:0.0265519 13:-0.472255 14:-0.639675 15:-0.996409 16:-0.0820245 17:0.118119 18:-0.657484 19:-0.0293803 20:-0.829356 
1 1:-0.985527 2:0.555412 3:0.593852 4:-0.176571 5:0.932659 6:-0.593814 7:-0.324334 8:-0.67896 9:-0.806113 10:0.403697 11:0.496427 12:0.136836 13:-0.568441 14:-0.682029 15:-0.997253 16:-0.038952 17:-0.169293 18:-0.57471 19:-0.0637159 20:-0.790962 
1 1:-0.998851 2:0.588465 3:0.630223 4:-0.260767 5:0.888974 6:-0.6525 7:-0.25741 8:-0.687578 9:-0.890957 10:0.480961 11:0.484288 12:0.176981 13:-0.578094 14:-0.668718 15:-0.997393 16:-0.148725 17:-0.319586 18:-0.75893 19:-0.348138 20:-0.712419 
1 1:-0.989565 2:0.596292 3:0.568303 4:-0.357906 5:0.887746 6:-0.681059 7:-0.247764 8:-0.674565 9:-0.871065 10:0.442454 11:0.532362 12:0.0803586 13:-0.566792 14:-0.610257 15:-0.997348 16:-0.096298 17:-0.345942 18:-0.756854 19:-0.135275 20:-0.725848 
1 1:-0.995025 2:0.594012 3:0.609149 4:-0.219796 5:0.887562 6:-0.662299 7:-0.252712 8:-0.607775 9:-0.884624 10:0.418992 11:0.488683 12:0.111003 13:-0.503405 14:-0.601355 15:-0.997426 16:-0.147435 17:-0.335868 18:-0.808714 19:-0.476783 20:-0.781158 
1 1:-1 2:0.56719 3:0.549868 4:-0.0457623 5:0.891774 6:-0.763269 7:-0.174825 8:-0.739115 9:-0.890651 10:0.398037 11:0.724019 12:0.213969 13:-0.405354 14:-0.600246 15:-0.99726 16:-0.0822623 17:-0.299854 18:-0.695039 19:0.0156673 20:-0.68701 
1 1:-1 2:0.499487 3:0.532054 4:-0.00939588 5:0.898621 6:-0.729409 7:-0.211166 8:-0.7024 9:-0.880275 10:0.304653 11:0.647921 12:0.234025 13:-0.316816 14:-0.524961 15:-0.996676 16:-0.252873 17:-0.12601 18:-0.903519 19:-0.0169445 20:-0.707217 
1 1:-1 2:0.568481 3:0.540324 4:-0.0438891 5:0.890129 6:-0.646903 7:-0.21538 8:-0.68099 9:-0.89228 10:0.431601 11:0.698954 12:0.430437 13:-0.181521 14:-0.513514 15:-0.996767 16:-0.195499 17:-0.0064922 18:-0.654038 19:0.177579 20:-0.717032 
1 1:-1 2:0.527754 3:0.549842 4:-0.0794921 5:0.892046 6:-0.595495 7:-0.203455 8:-0.71059 9:-0.890354 10:0.461869 11:0.836461 12:0.280514 13:-0.427824 14:-0.597775 15:-0.99721 16:-0.120622 17:-0.291955 18:-0.684739 19:0.0547653 20:-0.670946 
1 1:-0.99713 2:0.60579 3:0.567785 4:-0.114802 5:0.887194 6:-0.715521 7:-0.300839 8:-0.666613 9:-0.884869 10:0.427087 11:0.546477 12:0.169326 13:-0.542279 14:-0.638696 15:-0.997334 16:-0.0733365 17:-0.306169 18:-0.81445 19:-0.0550658 20:-0.667071 
1 1:-1 2:0.56453 3:0.456382 4:-0.0592217 5:0.888326 6:-0.640373 7:-0.173298 8:-0.645375 9:-0.890696 10:0.266468 11:0.664981 12:0.202083 13:-0.236886 14:-0.585388 15:-0.997262 16:-0.228625 17:-0.143082 18:-0.663845 19:0.233359 20:-0.70398 
1 1:-1 2:0.598799 3:0.558055 4:-0.0701877 5:0.80248 6:-0.529102 7:-0.313592 8:-0.330681 9:-0.827139 10:0.42064 11:0.864068 12:0.302022 13:-0.410344 14:-0.536352 15:-0.991967 16:-0.221336 17:0.170723 18:-0.719738 19:0.0613932 20:-0.834454 
1 1:-1 2:0.549105 3:0.56943 4:-0.147466 5:0.803701 6:-0.451736 7:-0.284875 8:-0.330496 9:-0.853741 10:0.517212 11:0.500969 12:0.365016 13:-0.37064 14:-0.514192 15:-0.993215 16:-0.259742 17:0.548687 18:-0.538632 19:0.0779485 20:-0.849616 
1 1:-1 2:0.552525 3:0.554021 4:-0.097515 5:0.80062 6:-0.524832 7:-0.332302 8:-0.345897 9:-0.844838 10:0.503887 11:0.855126 12:0.360589 13:-0.40819 14:-0.515235 15:-0.993701 16:-0.248192 17:0.162181 18:-0.622897 19:0.0147136 20:-0.830442 
1 1:-1 2:0.55336 3:0.575219 4:0.0460245 5:0.803393 6:-0.523936 7:-0.325173 8:-0.338884 9:-0.830332 10:0.49092 11:0.76389 12:0.330858 13:-0.395892 14:-0.503245 15:-0.995016 16:-0.254581 17:0.256381 18:-0.511325 19:-0.00477377 20:-0.836056 
1 1:-0.98 2:0.585654 3:0.593617 4:-0.1004 5:0.85222 6:-0.42917 7:-0.103297 8:-0.60421 9:-0.788138 10:0.455242 11:0.7205 12:0.332643 13:-0.43583 14:-0.539927 15:-0.995667 16:-0.182728 17:-0.286145 18:-0.777574 19:0.0295347 20:-0.861175 
1 1:-0.98 2:0.590061 3:0.570216 4:-0.105959 5:0.85222 6:-0.432424 7:-0.103297 8:-0.601782 9:-0.796863 10:0.45098 11:0.72168 12:0.330989 13:-0.450571 14:-0.551269 15:-0.995735 16:-0.17578 17:-0.210238 18:-0.355211 19:0.0283515 20:-0.853872 
1 1:-0.98 2:0.587554 3:0.565665 4:-0.109332 5:0.85222 6:-0.435057 7:-0.103297 8:-0.6088 9:-0.794884 10:0.451624 11:0.719936 12:0.290554 13:-0.410125 14:-0.523981 15:-0.995354 16:-0.218525 17:-0.215988 18:-0.378447 19:0.00558348 20:-0.861148 
1 1:-0.966652 2:0.551385 3:0.631147 4:-0.14639 5:0.770516 6:-0.290004 7:-0.199503 8:-0.742748 9:-0.824827 10:0.318659 11:0.628399 12:0.0314571 13:-0.511294 14:-0.697623 15:-0.996877 16:0.0878982 17:-0.268686 18:-0.589016 19:-0.206303 20:-0.791044 
1 1:-0.977073 2:0.572433 3:0.646891 4:-0.182847 5:0.778865 6:-0.330236 7:-0.284601 8:-0.757432 9:-0.865592 10:0.384031 11:0.609482 12:-0.0191638 13:-0.530076 14:-0.689299 15:-0.997126 16:-0.120261 17:-0.28437 18:-0.542838 19:-0.0910897 20:-0.827307 
1 1:-0.920664 2:0.662779 3:0.631516 4:-0.386831 5:0.771061 6:-0.282173 7:-0.484066 8:-0.801622 9:-0.874592 10:0.380055 11:0.717671 12:0.0778006 13:-0.473446 14:-0.71449 15:-0.997135 16:0.201495 17:-0.409794 18:-0.436482 19:-0.257277 20:-0.855981 
1 1:-0.978032 2:0.55754 3:0.545705 4:-0.405048 5:0.76164 6:-0.223673 7:-0.476437 8:-0.736886 9:-0.84976 10:0.311352 11:0.655732 12:-0.0832211 13:-0.166099 14:-0.740863 15:-0.997069 16:0.0934872 17:-0.293992 18:-0.545885 19:0.142982 20:-0.868293 
1 1:-0.876618 2:0.66597 3:0.642587 4:-0.415507 5:0.77105 6:-0.219887 7:-0.397325 8:-0.759298 9:-0.867122 10:0.437654 11:0.843761 12:0.0441065 13:-0.282639 14:-0.692126 15:-0.99734 16:0.196861 17:-0.410734 18:-0.673547 19:-0.263285 20:-0.837223 
1 1:-0.963697 2:0.587706 3:0.577545 4:-0.413261 5:0.764436 6:-0.247717 7:-0.350901 8:-0.7371 9:-0.857913 10:0.274564 11:0.774165 12:0.0862476 13:-0.23784 14:-0.716574 15:-0.997273 16:0.286422 17:-0.119595 18:-0.418996 19:0.047937 20:-0.841637 
1 1:-0.978988 2:0.643707 3:0.657058 4:-0.0765731 5:0.77876 6:-0.31062 7:-0.402041 8:-0.742656 9:-0.8148 10:0.352044 11:0.530667 12:-0.0834132 13:-0.527509 14:-0.680628 15:-0.997453 16:0.0602702 17:-0.141816 18:-0.786716 19:-0.159076 20:-0.8714 
1 1:-0.980079 2:0.561871 3:0.530513 4:-0.133458 5:0.90347 6:-0.476422 7:0.0445332 8:-0.800925 9:-0.869506 10:0.457786 11:0.747476 12:0.230614 13:-0.37235 14:-0.620986 15:-0.996337 16:-0.207927 17:-0.0609862 18:-0.707761 19:-0.204556 20:-0.769972 
1 1:-0.98 2:0.555336 3:0.584967 4:-0.345922 5:0.910226 6:-0.682839 7:-0.186109 8:-0.545042 9:-0.818204 10:0.416592 11:0.517657 12:0.0520849 13:-0.493296 14:-0.646167 15:-0.995545 16:0.102644 17:0.0416749 18:-0.75012 19:-0.121953 20:-0.590145 
1 1:-0.98 2:0.610805 3:0.583705 4:-0.312647 5:0.912959 6:-0.698408 7:-0.180362 8:-0.574808 9:-0.813347 10:0.42544 11:0.527746 12:0.18399 13:-0.500556 14:-0.631694 15:-0.995685 16:0.070324 17:-0.0605795 18:-0.754777 19:-0.121999 20:-0.602781 
1 1:-0.98 2:0.581247 3:0.573489 4:-0.262055 5:0.911175 6:-0.679511 7:-0.208777 8:-0.563026 9:-0.822851 10:0.433678 11:0.574378 12:0.224519 13:-0.50847 14:-0.657965 15:-0.995422 16:-0.194817 17:0.0472685 18:-0.747179 19:-0.122038 20:-0.586978 
1 1:-0.989744 2:0.540899 3:0.47634 4:-0.188901 5:0.907042 6:-0.699328 7:-0.214273 8:-0.539368 9:-0.856794 10:0.411434 11:0.83785 12:0.266047 13:-0.216638 14:-0.534728 15:-0.996318 16:-0.137399 17:-0.068431 18:-0.860801 19:-0.050917 20:-0.562587 
1 1:-0.992431 2:0.59804 3:0.495305 4:-0.028109 5:0.907098 6:-0.681853 7:-0.211534 8:-0.543198 9:-0.885525 10:0.420783 11:0.885661 12:0.554377 13:-0.200251 14:-0.595539 15:-0.996216 16:-0.287622 17:-0.0238441 18:-0.85267 19:-0.011696 20:-0.603744 
1 1:-0.98 2:0.606702 3:0.576101 4:-0.257973 5:0.911789 6:-0.675565 7:-0.244162 8:-0.556004 9:-0.827777 10:0.415947 11:0.682003 12:0.164941 13:-0.533859 14:-0.645452 15:-0.995746 16:-0.225512 17:-0.0308462 18:-0.767447 19:-0.121997 20:-0.586439 
1 1:-0.989074 2:0.541963 3:0.548995 4:-0.329983 5:0.904298 6:-0.677733 7:-0.219542 8:-0.537243 9:-0.88592 10:0.432962 11:0.784161 12:0.544843 13:-0.18156 14:-0.523562 15:-0.996316 16:0.139969 17:0.0492319 18:-0.778465 19:0.0934834 20:-0.572979 
1 1:-0.996144 2:0.519167 3:0.595498 4:-0.337629 5:0.903232 6:-0.645328 7:-0.0796679 8:-0.502121 9:-0.833554 10:0.347423 11:0.894127 12:0.277637 13:-0.325119 14:-0.589373 15:-0.996132 16:0.18174 17:0.0412482 18:-0.773808 19:0.097004 20:-0.601403 
1 1:-0.982319 2:0.616276 3:0.585821 4:-0.369039 5:0.90963 6:-0.701764 7:-0.241248 8:-0.534616 9:-0.852934 10:0.422108 11:0.775144 12:0.242008 13:-0.382528 14:-0.449198 15:-0.996121 16:0.180389 17:-0.0959064 18:-0.797136 19:0.119897 20:-0.567346 
1 1:-0.98 2:0.612781 3:0.581506 4:-0.20419 5:0.914619 6:-0.701912 7:-0.186896 8:-0.551715 9:-0.838423 10:0.419673 11:0.356037 12:0.0610519 13:-0.487435 14:-0.635458 15:-0.995899 16:0.111991 17:-0.0604593 18:-0.736785 19:-0.12199 20:-0.598424 
1 1:-0.98 2:0.589909 3:0.584626 4:-0.206124 5:0.916941 6:-0.697257 7:-0.204498 8:-0.543905 9:-0.816205 10:0.417989 11:0.608714 12:0.117159 13:-0.61896 14:-0.638581 15:-0.99625 16:-0.054656 17:-0.0112384 18:-0.752129 19:-0.121807 20:-0.590193 
1 1:-0.967211 2:0.559743 3:0.57862 4:-0.30666 5:0.859841 6:-0.289105 7:-0.335513 8:-0.77603 9:-0.857711 10:0.360963 11:0.293723 12:0.115964 13:-0.599319 14:-0.721071 15:-0.997136 16:-0.0233524 17:-0.270442 18:-0.799957 19:0.0448859 20:-0.891019 
1 1:-0.968854 2:0.557236 3:0.534785 4:-0.26654 5:0.857881 6:-0.364061 7:-0.383675 8:-0.772093 9:-0.85515 10:0.345703 11:0.344701 12:0.0123706 13:-0.594645 14:-0.665438 15:-0.997165 16:-0.0857902 17:-0.086955 18:-0.824524 19:0.0994936 20:-0.87668 
1 1:-0.998832 2:0.49546 3:0.576127 4:-0.412875 5:0.850753 6:-0.283737 7:-0.386694 8:-0.835271 9:-0.860201 10:0.272236 11:0.161831 12:-0.086018 13:-0.392146 14:-0.733479 15:-0.996882 16:0.133951 17:-0.132275 18:-0.784733 19:-0.0426049 20:-0.866787 
1 1:-0.943004 2:0.612401 3:0.668811 4:-0.52322 5:0.856987 6:-0.255491 7:-0.658818 8:-0.879182 9:-0.854065 10:0.38636 11:0.1728 12:0.119403 13:-0.677745 14:-0.709463 15:-0.997273 16:0.0617945 17:-0.812997 18:-0.683235 19:-0.0763479 20:-0.984084 
1 1:-0.986145 2:0.545458 3:0.616163 4:-0.282356 5:0.859681 6:-0.353137 7:-0.37235 8:-0.77681 9:-0.85418 10:0.345847 11:0.467642 12:0.0705764 13:-0.580795 14:-0.679225 15:-0.997224 16:-0.057964 17:-0.0815797 18:-0.749587 19:0.0563179 20:-0.906405 
1 1:-0.959766 2:0.566734 3:0.682655 4:-0.54365 5:0.856987 6:-0.259172 7:-0.48895 8:-0.785897 9:-0.851025 10:0.383315 11:0.682688 12:-0.097468 13:-0.651841 14:-0.716289 15:-0.997552 16:0.016722 17:-0.731709 18:-0.692989 19:-0.0172659 20:-0.965803 
1 1:-0.973764 2:0.544926 3:0.688505 4:-0.25496 5:0.856961 6:-0.267061 7:-0.444706 8:-0.777778 9:-0.848943 10:0.349715 11:0.675294 12:-0.0230101 13:-0.443976 14:-0.684035 15:-0.99749 16:-0.0787201 17:-0.317372 18:-0.724236 19:0.167409 20:-0.834997 
1 1:-0.980073 2:0.528057 3:0.481005 4:-0.155426 5:0.856428 6:-0.411945 7:-0.117326 8:-0.65715 9:-0.805223 10:0.431171 11:0.803672 12:0.283053 13:-0.307494 14:-0.586686 15:-0.996324 16:-0.11118 17:-0.212147 18:-0.542452 19:-0.165769 20:-0.95692 
1 1:-0.999721 2:0.484594 3:0.580259 4:-0.0789331 5:0.856715 6:-0.287726 7:-0.0216561 8:-0.343567 9:-0.780656 10:0.359673 11:0.717555 12:0.410596 13:-0.412111 14:-0.505206 15:-0.996229 16:-0.174317 17:-0.181386 18:-0.871553 19:0.0423149 20:-0.628473 
1 1:-0.99212 2:0.488393 3:0.556693 4:-0.108736 5:0.853565 6:-0.302361 7:-0.115904 8:-0.286566 9:-0.794451 10:0.388151 11:0.702684 12:0.380153 13:-0.437429 14:-0.480802 15:-0.99638 16:-0.219307 17:-0.181829 18:-0.834691 19:-0.0700914 20:-0.631576 
1 1:-1 2:0.461115 3:0.494663 4:-0.0768717 5:0.800975 6:-0.478824 7:0.186628 8:-0.547078 9:-0.869042 10:0.23097 11:0.715856 12:0.204308 13:-0.27891 14:-0.641146 15:-0.996893 16:-0.0836569 17:-0.20938 18:-0.558195 19:0.160352 20:-0.671298 
1 1:-0.953197 2:0.571445 3:0.416496 4:-0.203426 5:0.90512 6:-0.653716 7:-0.241463 8:-0.678378 9:-0.760865 10:0.429272 11:0.619467 12:0.171682 13:-0.316028 14:-0.642503 15:-0.994403 16:0.167593 17:-0.100538 18:-0.878726 19:-0.0546067 20:-0.686555 
1 1:-0.954354 2:0.494548 3:0.45602 4:-0.40095 5:0.904398 6:-0.672135 7:-0.324859 8:-0.678171 9:-0.807105 10:0.442526 11:0.355074 12:0.00218084 13:-0.506792 14:-0.658659 15:-0.997483 16:-0.025828 17:-0.204255 18:-0.690927 19:-0.0296036 20:-0.632745 
1 1:-0.91276 2:0.592189 3:0.498979 4:-0.205884 5:0.898487 6:-0.638824 7:-0.18453 8:-0.677984 9:-0.759132 10:0.286349 11:0.693061 12:0.0751958 13:-0.379649 14:-0.649786 15:-0.994109 16:0.00806282 17:-0.0851379 18:-0.832468 19:-0.110848 20:-0.697599 
1 1:-0.911253 2:0.463622 3:0.557402 4:-0.190068 5:0.902035 6:-0.646305 7:-0.164631 8:-0.678322 9:-0.765059 10:0.289752 11:0.646645 12:0.0436239 13:-0.405119 14:-0.623527 15:-0.996708 16:0.169604 17:-0.0928251 18:-0.936256 19:-0.0528161 20:-0.598864 
1 1:-0.959051 2:0.606854 3:0.584266 4:-0.202103 5:0.903528 6:-0.681528 7:-0.240968 8:-0.589783 9:-0.79786 10:0.44901 11:0.528823 12:0.0732094 13:-0.56074 14:-0.644995 15:-0.996986 16:-0.156999 17:-0.323373 18:-0.68213 19:-0.0949296 20:-0.609929 
1 1:-0.98003 2:0.587478 3:0.467259 4:-0.383337 5:0.902995 6:-0.648577 7:-0.284985 8:-0.67688 9:-0.819317 10:0.410431 11:0.411425 12:0.100162 13:-0.566335 14:-0.682715 15:-0.997627 16:-0.0981826 17:-0.220477 18:-0.725673 19:-0.00290182 20:-0.732347 
1 1:-0.80747 2:0.666654 3:0.692376 4:-0.279878 5:0.907096 6:-0.638574 7:-0.151464 8:-0.72733 9:-0.777566 10:0.462442 11:0.339347 12:-0.0676671 13:-0.664425 14:-0.715833 15:-0.996916 16:-0.0508363 17:-0.24618 18:-0.554429 19:-0.257734 20:-0.576149 
1 1:-0.905205 2:0.604118 3:0.512634 4:-0.364717 5:0.902699 6:-0.651837 7:-0.258605 8:-0.677129 9:-0.819878 10:0.336927 11:0.384226 12:0.0678779 13:-0.499968 14:-0.644392 15:-0.997633 16:-0.0695672 17:-0.232835 18:-0.719405 19:-0.0186286 20:-0.716399 
1 1:-0.931627 2:0.561871 3:0.584456 4:-0.198571 5:0.90523 6:-0.648002 7:-0.196881 8:-0.672633 9:-0.762057 10:0.376724 11:0.615228 12:0.0761093 13:-0.467483 14:-0.635313 15:-0.996918 16:0.0713366 17:-0.116179 18:-0.679495 19:-0.0948503 20:-0.626655 
1 1:-0.892197 2:0.616656 3:0.623568 4:-0.233875 5:0.907671 6:-0.673097 7:-0.193803 8:-0.672178 9:-0.807961 10:0.452341 11:0.324278 12:-0.0636333 13:-0.647909 14:-0.694376 15:-0.996821 16:0.0234137 17:-0.36829 18:-0.604626 19:-0.270681 20:-0.585679 
1 1:-0.98389 2:0.586034 3:0.612704 4:-0.145892 5:0.83966 6:-0.574288 7:-0.353873 8:-0.720894 9:-0.853883 10:0.442168 11:0.311421 12:0.0176131 13:-0.640286 14:-0.657502 15:-0.997275 16:-0.123973 17:-0.548241 18:-0.791427 19:-0.049187 20:-0.855528 
1 1:-0.994338 2:0.622507 3:0.598569 4:-0.518816 5:0.839794 6:-0.411273 7:-0.426456 8:-0.777778 9:-0.8666 10:0.343447 11:0.869009 12:0.0335887 13:-0.525754 14:-0.67516 15:-0.9975 16:0.114294 17:-0.515492 18:-0.851019 19:-0.188863 20:-0.889338 
1 1:-0.951805 2:0.615288 3:0.63159 4:-0.518484 5:0.840838 6:-0.492654 7:-0.36444 8:-0.836262 9:-0.867899 10:0.325895 11:0.536541 12:0.1448 13:-0.487215 14:-0.681542 15:-0.997625 16:0.0806264 17:-0.612293 18:-0.621061 19:-0.106349 20:-0.868219 
1 1:-0.993211 2:0.549409 3:0.610808 4:-0.180585 5:0.839604 6:-0.571883 7:-0.209494 8:-0.741492 9:-0.806211 10:0.453487 11:0.334174 12:0.0131202 13:-0.626694 14:-0.665468 15:-0.997167 16:-0.293647 17:-0.425485 18:-0.912115 19:-0.039003 20:-0.862683 
1 1:-0.984905 2:0.533528 3:0.565708 4:-0.28787 5:0.841023 6:-0.534302 7:-0.199433 8:-0.726224 9:-0.873195 10:0.376688 11:0.544439 12:0.218686 13:-0.435005 14:-0.651335 15:-0.997326 16:-0.0348007 17:-0.492933 18:-0.656659 19:-0.152461 20:-0.717561 
1 1:-0.992019 2:0.599711 3:0.629673 4:-0.272898 5:0.836869 6:-0.568469 7:-0.390249 8:-0.746459 9:-0.866426 10:0.444568 11:0.24389 12:0.00268213 13:-0.565251 14:-0.645151 15:-0.997495 16:-0.160973 17:-0.42581 18:-0.673746 19:-0.0419413 20:-0.85404 
1 1:-0.874911 2:0.59652 3:0.619732 4:-0.526521 5:0.840671 6:-0.430144 7:-0.447626 8:-0.851612 9:-0.870465 10:0.445356 11:0.649651 12:0.0922537 13:-0.537846 14:-0.672363 15:-0.997369 16:0.196594 17:-0.580142 18:-0.556319 19:-0.218807 20:-0.871849 
1 1:-0.986325 2:0.602447 3:0.578459 4:-0.305232 5:0.840486 6:-0.542628 7:-0.108024 8:-0.700227 9:-0.830246 10:0.368342 11:0.627879 12:0.216878 13:-0.385992 14:-0.672946 15:-0.997469 16:-0.0121131 17:-0.479063 18:-0.71367 19:-0.150875 20:-0.711193 
1 1:-0.924614 2:0.603966 3:0.621784 4:-0.462581 5:0.840101 6:-0.545269 7:-0.39859 8:-0.80378 9:-0.867161 10:0.320557 11:0.739525 12:0.10265 13:-0.473626 14:-0.675234 15:-0.997515 16:0.109101 17:-0.602889 18:-0.462951 19:-0.166879 20:-0.86516 
1 1:-0.928096 2:0.516584 3:0.562245 4:-0.131326 5:0.808196 6:-0.612747 7:-0.409472 8:-0.896931 9:-0.860778 10:0.367339 11:0.383133 12:-0.0690397 13:-0.0711719 14:-0.770201 15:-0.997641 16:-0.221314 17:0.0449766 18:-0.740685 19:-0.18169 20:-0.951663 
1 1:-1 2:0.542799 3:0.381318 4:-0.259228 5:0.687514 6:-0.463422 7:-0.159379 8:-0.727186 9:-0.886205 10:0.19798 11:0.565833 12:-0.260031 13:-0.142351 14:-0.780206 15:-0.997765 16:0.256362 17:-0.396699 18:-0.892939 19:-0.485162 20:-0.767083 
1 1:-1 2:0.529045 3:0.458063 4:-0.253262 5:0.679951 6:-0.39393 7:-0.15625 8:-0.783595 9:-0.887774 10:0.194828 11:0.749497 12:-0.0151722 13:-0.155124 14:-0.782139 15:-0.997962 16:0.376383 17:-0.216651 18:-0.7883 19:0.0109405 20:-0.767132 
1 1:-0.922157 2:0.584438 3:0.620174 4:-0.249086 5:0.898605 6:-0.669607 7:-0.534413 8:-0.758284 9:-0.914168 10:0.3807 11:0.593808 12:0.0978194 13:-0.488813 14:-0.642424 15:-0.998109 16:-0.0921611 17:-0.46799 18:-0.736 19:-0.0259223 20:-0.897738 
1 1:-0.992669 2:0.530185 3:0.556771 4:-0.260964 5:0.896425 6:-0.597245 7:-0.183014 8:-0.786008 9:-0.912614 10:0.291471 11:0.769917 12:0.208412 13:-0.412862 14:-0.644108 15:-0.997026 16:-0.0323251 17:-0.397008 18:-0.710463 19:-0.0258075 20:-0.868534 
1 1:-0.970466 2:0.565898 3:0.5694 4:-0.205944 5:0.900581 6:-0.693337 7:-0.547802 8:-0.784328 9:-0.923539 10:0.310814 11:0.534335 12:0.0616094 13:-0.538883 14:-0.678538 15:-0.997654 16:-0.0369016 17:-0.628515 18:-0.73632 19:0.0143004 20:-0.879532 
1 1:-0.964753 2:0.543482 3:0.619985 4:-0.260628 5:0.900242 6:-0.697387 7:-0.540493 8:-0.785869 9:-0.922567 10:0.324139 11:0.54876 12:0.073631 13:-0.554142 14:-0.675921 15:-0.997729 16:-0.0132266 17:-0.509047 18:-0.726073 19:0.0774018 20:-0.886383 
1 1:-0.968538 2:0.568937 3:0.589658 4:-0.211589 5:0.900534 6:-0.704399 7:-0.550827 8:-0.778574 9:-0.92711 10:0.36322 11:0.432517 12:0.0481215 13:-0.482576 14:-0.674931 15:-0.997628 16:-0.0488219 17:-0.608771 18:-0.729027 19:0.209763 20:-0.931556 
1 1:-0.998889 2:0.528057 3:0.561096 4:-0.25499 5:0.898687 6:-0.644107 7:-0.184483 8:-0.786008 9:-0.900258 10:0.287674 11:0.652191 12:0.179384 13:-0.405907 14:-0.638288 15:-0.997154 16:-0.0324657 17:-0.340504 18:-0.70993 19:-0.0225103 20:-0.822004 
1 1:-0.963739 2:0.54789 3:0.579916 4:-0.317813 5:0.902373 6:-0.673281 7:-0.530619 8:-0.784217 9:-0.922791 10:0.295662 11:0.398566 12:0.0839941 13:-0.508029 14:-0.672254 15:-0.997386 16:-0.0356944 17:-0.707738 18:-0.727297 19:0.182281 20:-0.878377 
1 1:-0.975851 2:0.581627 3:0.577411 4:-0.303251 5:0.899927 6:-0.678777 7:-0.538598 8:-0.782001 9:-0.927049 10:0.419314 11:0.471085 12:0.0765404 13:-0.489866 14:-0.677529 15:-0.997801 16:-0.0270965 17:-0.496614 18:-0.751757 19:0.171375 20:-0.903235 
1 1:-1 2:0.438243 3:0.392736 4:0.301241 5:0.893079 6:-0.558893 7:0.126728 8:-0.781876 9:-0.850114 10:0.359351 11:0.544559 12:0.238813 13:-0.280527 14:-0.422975 15:-0.99306 16:-0.355054 17:0.044642 18:-0.744863 19:0.0892595 20:-0.682385 
1 1:-1 2:0.467953 3:0.397843 4:0.290875 5:0.894451 6:-0.53755 7:0.0809094 8:-0.787748 9:-0.837894 10:0.438299 11:0.468838 12:0.228928 13:-0.313367 14:-0.46102 15:-0.994504 16:-0.439905 17:-0.161117 18:-0.832402 19:0.0932768 20:-0.69693 
1 1:-1 2:0.495764 3:0.403836 4:0.305727 5:0.893601 6:-0.557771 7:0.092957 8:-0.805803 9:-0.852436 10:0.435362 11:0.554212 12:0.273819 13:-0.379734 14:-0.481567 15:-0.994734 16:-0.405463 17:0.253041 18:-0.808754 19:0.0948524 20:-0.675407 
1 1:-0.860598 2:0.598723 3:0.567625 4:-0.411138 5:0.696076 6:-0.341999 7:-0.634682 8:-0.73465 9:-0.921122 10:0.254934 11:-0.202001 12:-0.314259 13:-0.404009 14:-0.798282 15:-0.998931 16:0.190432 17:-0.350452 18:-0.891222 19:-0.265107 20:-0.951935 
1 1:-0.80706 2:0.616048 3:0.641731 4:-0.485019 5:0.695908 6:-0.396817 7:-0.284775 8:-0.721911 9:-0.9141 10:0.381739 11:0.00315515 12:-0.278106 13:-0.147409 14:-0.810603 15:-0.998269 16:0.00645205 17:-0.550679 18:-0.782538 19:-0.298061 20:-0.874284 
1 1:-0.907979 2:0.502526 3:0.676734 4:-0.0911667 5:0.702777 6:-0.399159 7:-0.450698 8:-0.611088 9:-0.781183 10:0.394491 11:0.12038 12:-0.364824 13:-0.496922 14:-0.563456 15:-0.995978 16:-0.135533 17:-0.148407 18:-0.737038 19:0.0169174 20:-0.996071 
1 1:-0.964292 2:0.568557 3:0.562536 4:-0.478891 5:0.68556 6:-0.405277 7:-0.476011 8:-0.529336 9:-0.86703 10:0.373034 11:0.171382 12:-0.175782 13:-0.737153 14:-0.687635 15:-0.997863 16:-0.0120555 17:-0.466311 18:-0.727297 19:0.0264858 20:-0.892194 
1 1:-0.98561 2:0.600699 3:0.674945 4:-0.47669 5:0.694056 6:-0.32832 7:-0.265512 8:-0.789937 9:-0.871117 10:0.179461 11:0.17408 12:-0.417876 13:-0.183238 14:-0.807534 15:-0.99892 16:0.0347971 17:-0.534677 18:-0.928431 19:-0.000132518 20:-0.83614 
1 1:-0.86426 2:0.529273 3:0.562993 4:-0.261252 5:0.702809 6:-0.382296 7:-0.171585 8:-0.601828 9:-0.793292 10:0.39707 11:-0.194794 12:0.227705 13:-0.319053 14:-0.680164 15:-0.996624 16:-0.229588 17:-0.13832 18:-0.844605 19:-0.164603 20:-0.988242 
1 1:-0.849639 2:0.501387 3:0.7011 4:-0.412285 5:0.688675 6:-0.40811 7:-0.468306 8:-0.607935 9:-0.832637 10:0.391267 11:0.768675 12:-0.0569807 13:-0.485272 14:-0.763916 15:-0.998524 16:-0.0972168 17:-0.326711 18:-0.985029 19:0.0585008 20:-0.850559 
1 1:-0.82734 2:0.613161 3:0.57717 4:-0.403752 5:0.702304 6:-0.314167 7:-0.432676 8:-0.721672 9:-0.820484 10:0.332629 11:-0.201294 12:-0.399811 13:-0.179224 14:-0.812694 15:-0.998899 16:0.506675 17:-0.373193 18:-0.718407 19:-0.185924 20:-0.859066 
1 1:-0.880715 2:0.538543 3:0.697139 4:-0.300114 5:0.712237 6:-0.29046 7:-0.449538 8:-0.623023 9:-0.79226 10:0.383315 11:0.283243 12:0.0812581 13:-0.549635 14:-0.700378 15:-0.99843 16:-0.150419 17:-0.246863 18:-0.951267 19:-0.231229 20:-0.902253 
1 1:-0.88104 2:0.571597 3:0.689185 4:-0.421223 5:0.687212 6:-0.25393 7:-0.526656 8:-0.641672 9:-0.800185 10:0.292367 11:0.706622 12:-0.382524 13:-0.55681 14:-0.710913 15:-0.997347 16:-0.101278 17:-0.244286 18:-0.700575 19:0.00514732 20:-0.945653 
1 1:-0.975695 2:0.570761 3:0.630181 4:-0.253959 5:0.885316 6:-0.582943 7:-0.216167 8:-0.598911 9:-0.872759 10:0.426622 11:0.665369 12:0.0950272 13:-0.477465 14:-0.628123 15:-0.997352 16:-0.250513 17:-0.364892 18:-0.813505 19:-0.359921 20:-0.883267 
1 1:-0.935314 2:0.547966 3:0.63765 4:-0.297172 5:0.881908 6:-0.552511 7:-0.201794 8:-0.606557 9:-0.874936 10:0.419458 11:0.871424 12:0.426825 13:-0.461953 14:-0.505736 15:-0.996268 16:-0.203617 17:-0.060289 18:-0.72747 19:-0.0698076 20:-0.921958 
1 1:-0.931867 2:0.560427 3:0.590918 4:-0.153438 5:0.878688 6:-0.593477 7:-0.218341 8:-0.601533 9:-0.87432 10:0.317584 11:0.785416 12:0.373046 13:-0.370496 14:-0.545876 15:-0.996337 16:-0.184638 17:-0.264577 18:-0.839575 19:0.170348 20:-0.906431 
1 1:-0.938988 2:0.551385 3:0.625908 4:-0.106594 5:0.883091 6:-0.574473 7:-0.237156 8:-0.603326 9:-0.887848 10:0.419637 11:0.860957 12:0.445162 13:-0.461348 14:-0.501686 15:-0.996223 16:-0.248596 17:-0.0172908 18:-0.721428 19:0.104392 20:-0.919981 
1 1:-0.962317 2:0.57342 3:0.5714 4:-0.0605718 5:0.873303 6:-0.475238 7:0.212688 8:-0.602436 9:-0.867848 10:0.449224 11:0.778343 12:0.402243 13:-0.136874 14:-0.510289 15:-0.996183 16:-0.272318 17:-0.0642338 18:-0.799039 19:0.23491 20:-0.808267 
1 1:-0.953277 2:0.518559 3:0.561031 4:-0.105225 5:0.881925 6:-0.540722 7:-0.214296 8:-0.601533 9:-0.87432 10:0.398825 11:0.804367 12:0.363334 13:-0.32404 14:-0.519617 15:-0.996311 16:-0.197171 17:-0.194048 18:-0.852363 19:0.189309 20:-0.90624 
1 1:-0.930518 2:0.553056 3:0.629319 4:-0.0879097 5:0.881407 6:-0.512425 7:-0.277344 8:-0.705791 9:-0.875561 10:0.42458 11:0.809284 12:0.462411 13:-0.461345 14:-0.50384 15:-0.996163 16:-0.195913 17:-0.0105472 18:-0.709118 19:0.00231332 20:-0.936464 
1 1:-0.977919 2:0.574788 3:0.630253 4:-0.260019 5:0.882281 6:-0.540287 7:-0.240811 8:-0.6006 9:-0.867749 10:0.396891 11:0.599648 12:0.362589 13:-0.515631 14:-0.662962 15:-0.996631 16:-0.216154 17:-0.164873 18:-0.757971 19:-0.482305 20:-0.816201 
1 1:-0.928419 2:0.585654 3:0.606113 4:-0.0657183 5:0.873194 6:-0.46001 7:-0.0158916 8:-0.603006 9:-0.859636 10:0.460293 11:0.781708 12:0.402468 13:-0.23516 14:-0.511574 15:-0.995995 16:-0.260902 17:-0.0298846 18:-0.737571 19:0.230269 20:-0.889973 
1 1:-0.924543 2:0.569849 3:0.598494 4:-0.0517408 5:0.871928 6:-0.492627 7:-0.187141 8:-0.605019 9:-0.8736 10:0.461511 11:0.780181 12:0.407893 13:-0.137949 14:-0.506488 15:-0.996011 16:-0.252981 17:-0.0903769 18:-0.79365 19:0.208204 20:-0.821099 
1 1:-0.921357 2:0.577524 3:0.605418 4:-0.0133748 5:0.875344 6:-0.377033 7:-0.195423 8:-0.60378 9:-0.874206 10:0.454741 11:0.77864 12:0.400697 13:-0.29244 14:-0.510815 15:-0.996263 16:-0.236211 17:0.00630387 18:-0.747924 19:0.154646 20:-0.822537 
1 1:-0.902315 2:0.574712 3:0.621445 4:-0.265058 5:0.897682 6:-0.559547 7:-0.279658 8:-0.547575 9:-0.908059 10:0.315757 11:0.45679 12:-0.115074 13:-0.42463 14:-0.676636 15:-0.99671 16:-0.0783922 17:-0.291099 18:-0.91817 19:0.146017 20:-0.866136 
1 1:-0.962935 2:0.616428 3:0.653782 4:-0.261628 5:0.898375 6:-0.678212 7:-0.225522 8:-0.518422 9:-0.909316 10:0.443278 11:0.445521 12:0.201216 13:-0.490361 14:-0.709225 15:-0.996605 16:0.177348 17:-0.309661 18:-0.862105 19:0.0758679 20:-0.797707 
1 1:-0.987345 2:0.544622 3:0.406114 4:-0.289158 5:0.899768 6:-0.569875 7:-0.250649 8:-0.536438 9:-0.89659 10:0.351435 11:0.328383 12:-0.16078 13:-0.305987 14:-0.600049 15:-0.996919 16:0.110881 17:-0.276424 18:-0.883397 19:0.149112 20:-0.859239 
1 1:-0.91398 2:0.588997 3:0.641023 4:-0.336733 5:0.887598 6:-0.600373 7:-0.206463 8:-0.499017 9:-0.876375 10:0.392521 11:0.378377 12:-0.0150972 13:-0.600913 14:-0.701305 15:-0.996919 16:0.0820317 17:-0.373028 18:-0.835303 19:-0.000410074 20:-0.814277 
1 1:-0.792794 2:0.683523 3:0.745687 4:-0.310185 5:0.897443 6:-0.627969 7:-0.204131 8:-0.500593 9:-0.919817 10:0.439302 11:0.0945118 12:-0.279436 13:-0.71257 14:-0.812787 15:-0.997819 16:0.261608 17:-0.40894 18:-0.856276 19:-0.0417201 20:-0.819947 
1 1:-0.943408 2:0.627826 3:0.64959 4:-0.341206 5:0.88981 6:-0.609048 7:-0.222381 8:-0.52835 9:-0.902601 10:0.392843 11:0.244425 12:-0.110736 13:-0.598376 14:-0.77286 15:-0.997142 16:0.0295504 17:-0.35311 18:-0.86293 19:-0.163282 20:-0.817556 
1 1:-0.94971 2:0.607082 3:0.598719 4:-0.213337 5:0.897645 6:-0.655665 7:-0.202919 8:-0.524955 9:-0.872769 10:0.395888 11:0.644784 12:-0.141628 13:-0.57894 14:-0.718817 15:-0.995953 16:-0.0400726 17:-0.300249 18:-0.867108 19:0.115888 20:-0.807493 
1 1:-0.772665 2:0.754949 3:0.776729 4:-0.382934 5:0.897831 6:-0.648423 7:-0.22505 8:-0.542034 9:-0.921293 10:0.465594 11:0.0652525 12:-0.390802 13:-0.662009 14:-0.786212 15:-0.997359 16:0.350542 17:-0.463865 18:-0.629884 19:-0.127066 20:-0.818276 
1 1:-0.995396 2:0.600243 3:0.668576 4:-0.194137 5:0.900475 6:-0.686475 7:-0.238368 8:-0.512959 9:-0.879696 10:0.440054 11:0.538162 12:-0.202402 13:-0.510815 14:-0.751999 15:-0.996104 16:0.0433122 17:-0.314433 18:-0.858844 19:0.0655211 20:-0.765584 
1 1:-0.93777 2:0.623267 3:0.411355 4:-0.283659 5:0.9001 6:-0.561182 7:-0.407537 8:-0.5491 9:-0.908928 10:0.362969 11:0.764414 12:0.0140291 13:-0.599787 14:-0.703388 15:-0.995655 16:0.122398 17:-0.295096 18:-0.952132 19:0.148444 20:-0.874795 
1 1:-0.94267 2:0.607082 3:0.626653 4:-0.230125 5:0.898924 6:-0.629524 7:-0.227457 8:-0.559915 9:-0.863914 10:0.425296 11:0.379708 12:-0.0823965 13:-0.478304 14:-0.748612 15:-0.995855 16:-0.0132338 17:-0.305171 18:-0.858924 19:0.0887044 20:-0.752875 
1 1:-0.92284 2:0.60465 3:0.637541 4:-0.34967 5:0.896605 6:-0.639719 7:-0.24204 8:-0.536014 9:-0.872646 10:0.393345 11:0.397444 12:-0.0650388 13:-0.595342 14:-0.7713 15:-0.997018 16:0.0899774 17:-0.380443 18:-0.867641 19:-0.377785 20:-0.816024 
1 1:-0.945183 2:0.580715 3:0.648756 4:-0.330624 5:0.888154 6:-0.631173 7:-0.237016 8:-0.568969 9:-0.90465 10:0.392986 11:0.449621 12:-0.112291 13:-0.598312 14:-0.694893 15:-0.996203 16:0.198684 17:-0.333054 18:-0.835622 19:0.0865278 20:-0.81841 
1 1:-0.986282 2:0.549789 3:0.605309 4:-0.190199 5:0.775175 6:0.158407 7:-0.192439 8:-0.696982 9:-0.775227 10:0.394706 11:0.566001 12:0.0733265 13:-0.240908 14:-0.636977 15:-0.996353 16:-0.0285883 17:-0.0402064 18:-0.63011 19:-0.342723 20:-0.933481 
1 1:-0.984232 2:0.557236 3:0.602896 4:-0.143773 5:0.790014 6:-0.0957875 7:-0.411634 8:-0.720275 9:-0.785535 10:0.364831 11:0.406187 12:0.121867 13:-0.36461 14:-0.574821 15:-0.997198 16:-0.0509768 17:-0.276131 18:-0.426807 19:0.178134 20:-0.951055 
1 1:-0.970579 2:0.564606 3:0.617059 4:-0.206533 5:0.78527 6:-0.163203 7:-0.338865 8:-0.7338 9:-0.801167 10:0.394956 11:0.628044 12:0.158302 13:-0.270786 14:-0.628822 15:-0.996865 16:-0.0704321 17:-0.289444 18:-0.286929 19:-0.0188499 20:-0.944522 
1 1:-0.988326 2:0.570685 3:0.595487 4:-0.25662 5:0.774907 6:0.0735498 7:-0.229357 8:-0.682118 9:-0.752591 10:0.338969 11:0.519748 12:0.0905858 13:-0.493657 14:-0.634378 15:-0.996457 16:0.00415663 17:-0.192693 18:-0.0886564 19:-0.346705 20:-0.926393 
1 1:-0.974277 2:0.638692 3:0.652768 4:-0.226949 5:0.890005 6:-0.345658 7:-0.394866 8:-0.759722 9:-0.787812 10:0.48329 11:-0.00988688 12:0.341142 13:-0.428796 14:-0.606285 15:-0.99467 16:-0.0788606 17:-0.277057 18:-0.840014 19:-0.132727 20:-0.846019 
1 1:-0.885523 2:0.60845 3:0.675926 4:-0.26723 5:0.884898 6:-0.319664 7:-0.500404 8:-0.767638 9:-0.79535 10:0.463374 11:-0.260934 12:0.348235 13:-0.658709 14:-0.762246 15:-0.997986 16:-0.0790552 17:-0.22902 18:-0.858765 19:0.0439823 20:-0.868707 
1 1:-0.938818 2:0.607842 3:0.686013 4:-0.326367 5:0.892078 6:-0.373308 7:-0.482516 8:-0.737374 9:-0.793672 10:0.466382 11:-0.321787 12:-0.0700658 13:-0.790272 14:-0.81695 15:-0.996734 16:-0.056692 17:-0.454405 18:-0.73246 19:-0.0502388 20:-0.776025 
1 1:-0.918105 2:0.571217 3:0.61209 4:-0.154296 5:0.885564 6:-0.303895 7:-0.400554 8:-0.689002 9:-0.781454 10:0.440126 11:-0.455606 12:-0.0682948 13:-0.695359 14:-0.786545 15:-0.99812 16:-0.0898009 17:-0.249089 18:-0.80918 19:0.102881 20:-0.78539 
1 1:-0.974259 2:0.614832 3:0.639824 4:-0.254894 5:0.882509 6:-0.343911 7:-0.117082 8:-0.747227 9:-0.819253 10:0.468209 11:-0.28141 12:-0.490938 13:-0.690049 14:-0.610448 15:-0.997066 16:-0.0923954 17:-0.230859 18:-0.817923 19:0.0188603 20:-0.877971 
1 1:-0.902347 2:0.561263 3:0.581755 4:-0.24564 5:0.887498 6:-0.354034 7:-0.493707 8:-0.708603 9:-0.783142 10:0.47197 11:0.0274955 12:-0.13052 13:-0.523225 14:-0.7134 15:-0.996763 16:-0.208702 17:-0.401421 18:-0.805919 19:0.100777 20:-0.793569 
1 1:-0.871342 2:0.611185 3:0.672714 4:-0.340559 5:0.899462 6:-0.368161 7:-0.430962 8:-0.737374 9:-0.793597 10:0.484937 11:-0.374966 12:0.0917758 13:-0.825258 14:-0.71082 15:-0.997446 16:-0.0495895 17:-0.42594 18:-0.696449 19:0.0975486 20:-0.779571 
1 1:-0.27562 2:0.663235 3:0.778788 4:-0.376623 5:0.882834 6:-0.289077 7:-0.26627 8:-0.701745 9:-0.848801 10:0.494179 11:-0.172543 12:-0.492278 13:-0.770086 14:-0.801275 15:-0.997443 16:-0.0396006 17:-0.506453 18:-0.469472 19:0.0928886 20:-0.859089 
1 1:-0.888615 2:0.613085 3:0.651617 4:-0.356026 5:0.891535 6:-0.331853 7:-0.47776 8:-0.737374 9:-0.790994 10:0.406706 11:0.192573 12:-0.170975 13:-0.768889 14:-0.659384 15:-0.998372 16:-0.0558956 17:-0.441477 18:-0.653891 19:-0.0533796 20:-0.741211 
1 1:-0.91574 2:0.610349 3:0.667536 4:-0.34155 5:0.89932 6:-0.308027 7:-0.436604 8:-0.737374 9:-0.786957 10:0.397786 11:0.511538 12:-0.257304 13:-0.726066 14:-0.719603 15:-0.996968 16:-0.0581586 17:-0.378624 18:-0.705685 19:0.0513887 20:-0.786451 
1 1:-0.295477 2:0.687854 3:0.788439 4:-0.323803 5:0.886434 6:-0.294509 7:-0.330588 8:-0.734784 9:-0.841589 10:0.468353 11:-0.291393 12:-0.375384 13:-0.831393 14:-0.80773 15:-0.998329 16:-0.00109726 17:-0.483168 18:-0.153758 19:-0.0872832 20:-0.879789 
1 1:-0.910623 2:0.629649 3:0.661208 4:-0.339166 5:0.900817 6:-0.339968 7:-0.339902 8:-0.737374 9:-0.794524 10:0.370455 11:0.205388 12:-0.108857 13:-0.504938 14:-0.718818 15:-0.998448 16:-0.0499102 17:-0.327239 18:-0.67022 19:-0.0145112 20:-0.761379 
1 1:-1 2:0.521143 3:0.471914 4:-0.0640125 5:0.865187 6:-0.590955 7:-0.178987 8:-0.679556 9:-0.867759 10:0.410395 11:0.634986 12:0.307953 13:-0.431909 14:-0.579936 15:-0.996816 16:-0.13999 17:-0.394375 18:-0.456364 19:0.0995541 20:-0.631212 
1 1:-1 2:0.462027 3:0.468747 4:-0.151761 5:0.837423 6:-0.403943 7:-0.234696 8:-0.44291 9:-0.89021 10:0.230039 11:0.837241 12:0.276906 13:-0.175752 14:-0.615403 15:-0.997294 16:-0.0791129 17:-0.316385 18:-0.0747232 19:0.267321 20:-0.885567 
1 1:-1 2:0.504122 3:0.448218 4:-0.127443 5:0.846117 6:-0.502112 7:-0.246756 8:-0.463702 9:-0.870907 10:0.249525 11:0.953226 12:0.348155 13:-0.244666 14:-0.603489 15:-0.997228 16:-0.034898 17:-0.293405 18:-0.359842 19:0.308863 20:-0.939744 
1 1:-1 2:0.49736 3:0.45641 4:-0.144406 5:0.838369 6:-0.404753 7:-0.187701 8:-0.440785 9:-0.887956 10:0.22832 11:0.834628 12:0.287438 13:-0.264358 14:-0.60433 15:-0.997139 16:-0.109746 17:-0.371402 18:-0.63345 19:0.308853 20:-0.886343 
1 1:-1 2:0.516812 3:0.448588 4:-0.125004 5:0.839672 6:-0.410118 7:-0.276726 8:-0.444786 9:-0.870364 10:0.242863 11:0.937586 12:0.31633 13:-0.229677 14:-0.600088 15:-0.997278 16:-0.0240948 17:-0.271844 18:-0.0658203 19:0.307561 20:-0.974081 
1 1:-1 2:0.515596 3:0.450927 4:-0.141897 5:0.846355 6:-0.542154 7:-0.24239 8:-0.4544 9:-0.872993 10:0.248737 11:0.951373 12:0.27143 13:-0.261028 14:-0.612507 15:-0.997201 16:-0.0402348 17:-0.361434 18:-0.417758 19:0.305234 20:-0.909296 
1 1:-0.986795 2:0.538923 3:0.583189 4:-0.155619 5:0.850006 6:-0.114501 7:-0.108735 8:-0.380249 9:-0.709356 10:0.455027 11:0.874476 12:0.242856 13:-0.460188 14:-0.584896 15:-0.994612 16:-0.223872 17:0.101712 18:-0.844805 19:0.0543458 20:-0.710992 
1 1:-1 2:0.574104 3:0.612814 4:-0.138501 5:0.837099 6:-0.125332 7:-0.144715 8:-0.409123 9:-0.698675 10:0.472902 11:0.568583 12:0.237557 13:-0.518891 14:-0.571713 15:-0.994549 16:-0.252286 17:0.125788 18:-0.870835 19:-0.340452 20:-0.771343 
1 1:-1 2:0.567874 3:0.609282 4:-0.149514 5:0.842106 6:-0.123322 7:-0.142074 8:-0.411027 9:-0.692868 10:0.476305 11:0.539868 12:0.207443 13:-0.511815 14:-0.499897 15:-0.994716 16:-0.254527 17:0.141727 18:-0.900298 19:-0.253659 20:-0.771939 
1 1:-1 2:0.57532 3:0.443158 4:-0.0964878 5:0.843368 6:-0.147196 7:0.018736 8:-0.400071 9:-0.727772 10:0.471111 11:0.694501 12:0.488961 13:-0.265161 14:-0.463883 15:-0.994509 16:-0.209552 17:0.166857 18:-0.925716 19:0.0321517 20:-0.702464 
1 1:-1 2:0.570533 3:0.615306 4:-0.104818 5:0.842707 6:-0.117894 7:-0.241166 8:-0.404371 9:-0.721877 10:0.473045 11:0.573392 12:0.246285 13:-0.515452 14:-0.581257 15:-0.995459 16:-0.208222 17:0.168408 18:-0.826453 19:-0.341663 20:-0.731215 
1 1:-1 2:0.565062 3:0.625817 4:-0.101862 5:0.843395 6:-0.116912 7:-0.186074 8:-0.393763 9:-0.68805 10:0.47172 11:0.558076 12:0.294943 13:-0.514973 14:-0.581364 15:-0.994901 16:-0.239685 17:0.0952713 18:-0.85766 19:-0.142525 20:-0.730925 
1 1:-1 2:0.586262 3:0.621848 4:-0.110273 5:0.840347 6:-0.127491 7:-0.12203 8:-0.391565 9:-0.688219 10:0.476269 11:0.604732 12:0.191504 13:-0.512645 14:-0.514012 15:-0.995443 16:-0.248895 17:0.122326 18:-0.85066 19:-0.264834 20:-0.821927 
1 1:-1 2:0.586946 3:0.62123 4:-0.118894 5:0.844212 6:-0.126825 7:-0.161163 8:-0.407115 9:-0.690425 10:0.476126 11:0.567318 12:0.198115 13:-0.514108 14:-0.52779 15:-0.995587 16:-0.254596 17:0.182476 18:-0.842955 19:-0.178935 20:-0.784272 
1 1:-0.895358 2:0.633069 3:0.605658 4:-0.255385 5:0.766653 6:-0.122654 7:-0.0445449 8:-0.853661 9:-0.875262 10:0.35756 11:0.89508 12:0.133364 13:-0.256134 14:-0.683697 15:-0.99664 16:0.205693 17:-0.416387 18:-0.525977 19:-0.231193 20:-0.816034 
1 1:-1 2:0.584438 3:0.399047 4:-0.198263 5:0.760448 6:-0.657648 7:-0.0905848 8:-0.680316 9:-0.807974 10:0.184046 11:0.339209 12:-0.023057 13:-0.465836 14:-0.724679 15:-0.99654 16:-0.0588829 17:0.0182705 18:-0.145813 19:-0.238919 20:-0.554389 
1 1:-1 2:0.594088 3:0.394372 4:-0.202401 5:0.762723 6:-0.672656 7:-0.209255 8:-0.723595 9:-0.84958 10:0.23097 11:0.376011 12:0.0485384 13:-0.488569 14:-0.718852 15:-0.99633 16:-0.151183 17:-0.00961759 18:-0.222413 19:-0.184374 20:-0.788001 
1 1:-0.991296 2:0.535884 3:0.656342 4:0.0107912 5:0.921748 6:-0.385421 7:-0.249594 8:-0.28874 9:-0.802252 10:0.3351 11:0.757896 12:0.612667 13:-0.340792 14:-0.358737 15:-0.994152 16:-0.555246 17:0.0552904 18:-0.798587 19:-0.0853257 20:-0.919343 
1 1:-0.835758 2:0.508301 3:0.626752 4:-0.0283402 5:0.921403 6:-0.588617 7:-0.25607 8:-0.237469 9:-0.80907 10:0.474012 11:0.863865 12:0.416447 13:-0.470611 14:-0.277419 15:-0.994529 16:-0.407215 17:-0.118447 18:-0.804282 19:-0.0916782 20:-0.761891 
1 1:-0.965173 2:0.58383 3:0.381404 4:-0.0487953 5:0.921089 6:-0.403723 7:-0.26553 8:-0.259126 9:-0.79719 10:0.290217 11:0.680721 12:0.439699 13:-0.331882 14:-0.399441 15:-0.994324 16:-0.189005 17:-0.00818312 18:-0.805294 19:-0.132458 20:-0.758569 
1 1:-0.844854 2:0.564454 3:0.525663 4:-0.000740315 5:0.921619 6:-0.388337 7:-0.263245 8:-0.239625 9:-0.823337 10:0.469141 11:0.845054 12:0.463705 13:-0.283522 14:-0.503969 15:-0.995907 16:-0.333476 17:-0.260526 18:-0.816113 19:-0.0845598 20:-0.769467 
1 1:-1 2:0.413852 3:0.476385 4:0.00588968 5:0.919334 6:-0.359519 7:-0.301952 8:-0.222844 9:-0.783923 10:0.388366 11:0.760793 12:0.306192 13:-0.226562 14:-0.46814 15:-0.994944 16:-0.283009 17:-0.536476 18:-0.875785 19:0.149097 20:-0.77258 
1 1:-0.932484 2:0.540063 3:0.595659 4:-0.396647 5:0.901628 6:-0.498308 7:-0.229194 8:-0.769694 9:-0.893908 10:0.369452 11:0.815837 12:0.243474 13:-0.411386 14:-0.621751 15:-0.99646 16:-0.00601603 17:-0.4053 18:-0.694267 19:-0.185883 20:-0.89226 
1 1:-0.961396 2:0.603359 3:0.639486 4:-0.311369 5:0.891928 6:-0.484522 7:-0.0225712 8:-0.781276 9:-0.893253 10:0.389189 11:0.777922 12:0.236667 13:-0.405057 14:-0.622639 15:-0.99646 16:-0.0267649 17:-0.426362 18:-0.696183 19:-0.109246 20:-0.884821 
1 1:-0.925957 2:0.6355 3:0.592563 4:-0.357709 5:0.901564 6:-0.495378 7:-0.229789 8:-0.778704 9:-0.89734 10:0.313143 11:0.914871 12:0.216133 13:-0.413761 14:-0.62067 15:-0.996456 16:0.00385033 17:-0.423477 18:-0.702877 19:-0.148721 20:-0.891784 
1 1:-0.40248 2:0.77782 3:0.806453 4:-0.575889 5:0.898369 6:-0.679088 7:-0.251774 8:-0.602347 9:-0.941801 10:0.50951 11:-0.0887701 12:-0.223756 13:-0.757632 14:-0.737791 15:-0.998688 16:0.0115114 17:-0.535459 18:-0.666108 19:-0.0836332 20:-0.861552 
1 1:-0.413669 2:0.699252 3:0.776862 4:-0.446224 5:0.897819 6:-0.640185 7:-0.233268 8:-0.548745 9:-0.936141 10:0.443816 11:-0.0180457 12:-0.413355 13:-0.617056 14:-0.797243 15:-0.995944 16:0.346099 17:-0.475423 18:-0.764505 19:0.0143234 20:-0.819465 
1 1:-0.865914 2:0.760799 3:0.828238 4:-0.575221 5:0.897598 6:-0.661112 7:-0.212 8:-0.565292 9:-0.95757 10:0.412652 11:-0.033924 12:-0.338078 13:-0.681791 14:-0.828886 15:-0.998213 16:0.260062 17:-0.346437 18:-0.707774 19:0.0729817 20:-0.819581 
1 1:-0.304276 2:0.763915 3:0.69616 4:-0.353171 5:0.897665 6:-0.612443 7:-0.233536 8:-0.532919 9:-0.946105 10:0.40255 11:0.0931093 12:-0.426993 13:-0.725656 14:-0.775504 15:-0.998319 16:0.254794 17:-0.576962 18:-0.829501 19:0.0614371 20:-0.818887 
1 1:-0.57301 2:0.646594 3:0.63371 4:-0.580046 5:0.891975 6:-0.686701 7:-0.24844 8:-0.592462 9:-0.955804 10:0.411971 11:0.199033 12:-0.228108 13:-0.732905 14:-0.712747 15:-0.99851 16:0.298076 17:-0.517101 18:-0.805174 19:-0.425397 20:-0.814985 
1 1:-0.626203 2:0.640515 3:0.71821 4:-0.420614 5:0.898153 6:-0.676212 7:-0.255714 8:-0.623697 9:-0.940186 10:0.485403 11:-0.00137801 12:-0.137271 13:-0.766985 14:-0.707616 15:-0.998638 16:-0.189394 17:-0.508875 18:-0.794182 19:-0.215235 20:-0.887317 
1 1:-0.548057 2:0.650317 3:0.708965 4:-0.394789 5:0.897713 6:-0.660219 7:-0.207611 8:-0.485834 9:-0.923651 10:0.482036 11:0.171749 12:-0.461489 13:-0.635049 14:-0.834795 15:-0.99701 16:0.293744 17:-0.575596 18:-0.721974 19:-0.0176937 20:-0.818178 
1 1:-0.699513 2:0.741423 3:0.727851 4:-0.343376 5:0.898276 6:-0.691436 7:-0.647651 8:-0.617368 9:-0.927819 10:0.496472 11:-0.0426737 12:-0.281202 13:-0.783574 14:-0.668818 15:-0.998488 16:0.268001 17:-0.512419 18:-0.715027 19:-0.279273 20:-0.828714 
1 1:-0.466896 2:0.620759 3:0.779352 4:-0.331531 5:0.902059 6:-0.711208 7:-0.237325 8:-0.572057 9:-0.880622 10:0.499516 11:-0.066548 12:-0.160752 13:-0.569353 14:-0.667371 15:-0.998713 16:0.342334 17:-0.449136 18:-0.682011 19:-0.229914 20:-0.812134 
1 1:-0.669978 2:0.707154 3:0.673723 4:-0.597874 5:0.897844 6:-0.575255 7:-0.216762 8:-0.546695 9:-0.923263 10:0.424473 11:0.0976982 12:-0.392315 13:-0.688525 14:-0.86935 15:-0.996066 16:0.390956 17:-0.302511 18:-0.637416 19:-0.0876109 20:-0.817968 
1 1:-0.608653 2:0.622735 3:0.611367 4:-0.388288 5:0.900175 6:-0.705917 7:-0.237949 8:-0.581331 9:-0.914556 10:0.499122 11:0.397451 12:0.044425 13:-0.763137 14:-0.5838 15:-0.997993 16:0.338298 17:-0.535629 18:-0.704301 19:-0.297396 20:-0.776066 
1 1:-0.559436 2:0.765131 3:0.831317 4:-0.420533 5:0.907809 6:-0.610227 7:-0.374559 8:-0.630612 9:-0.939627 10:0.527206 11:-0.130895 12:-0.507973 13:-0.755665 14:-0.795383 15:-0.998416 16:-0.00425753 17:-0.24076 18:-0.936815 19:0.0570087 20:-0.823208 
1 1:-0.381296 2:0.708066 3:0.813676 4:-0.369381 5:0.898564 6:-0.699442 7:-0.23975 8:-0.580934 9:-0.930378 10:0.495469 11:0.647765 12:-0.100073 13:-0.697611 14:-0.658517 15:-0.998408 16:-0.121393 17:-0.480334 18:-0.820797 19:-0.347435 20:-0.763229 
1 1:-0.864383 2:0.753429 3:0.814967 4:-0.500471 5:0.898331 6:-0.67226 7:-0.317462 8:-0.617528 9:-0.933614 10:0.508328 11:0.428456 12:-0.415412 13:-0.627646 14:-0.839908 15:-0.998662 16:-0.0518417 17:-0.479402 18:-0.741683 19:-0.294057 20:-0.909184 
1 1:-0.922794 2:0.590441 3:0.611218 4:-0.218949 5:0.899129 6:-0.672804 7:-0.565118 8:-0.695897 9:-0.878539 10:0.331948 11:0.454342 12:0.0900611 13:-0.540774 14:-0.640239 15:-0.998201 16:-0.154087 17:-0.415616 18:-0.748643 19:-0.0101433 20:-0.840763 
1 1:-0.938774 2:0.506174 3:0.583216 4:-0.279768 5:0.898717 6:-0.682642 7:-0.377088 8:-0.680787 9:-0.846393 10:0.303722 11:0.441353 12:0.0877468 13:-0.604157 14:-0.638326 15:-0.998109 16:-0.0949538 17:-0.437708 18:-0.754059 19:0.00323573 20:-0.902508 
1 1:-0.963773 2:0.593708 3:0.572774 4:-0.463305 5:0.900194 6:-0.70915 7:-0.565736 8:-0.697529 9:-0.889781 10:0.331017 11:0.459818 12:0.0961656 13:-0.509978 14:-0.641381 15:-0.998025 16:-0.103386 17:-0.380145 18:-0.775511 19:-0.0210119 20:-0.797069 
1 1:-0.952451 2:0.572433 3:0.633026 4:-0.411065 5:0.83981 6:-0.521338 7:-0.397879 8:-0.564973 9:-0.890925 10:0.304474 11:0.446939 12:0.00330055 13:-0.569116 14:-0.704136 15:-0.997448 16:-0.0381952 17:-0.398631 18:-0.362091 19:-0.244917 20:-0.801894 
1 1:-0.956651 2:0.564834 3:0.545743 4:-0.517728 5:0.836934 6:-0.510197 7:0.000935486 8:-0.548228 9:-0.823701 10:0.254325 11:0.450669 12:-0.0114336 13:-0.331832 14:-0.485098 15:-0.997797 16:-0.0551965 17:-0.428771 18:-0.484177 19:-0.0615059 20:-0.8172 
1 1:-0.963404 2:0.589377 3:0.61217 4:-0.246304 5:0.850217 6:-0.5302 7:-0.267459 8:-0.558003 9:-0.811394 10:0.44095 11:0.573058 12:-0.0209487 13:-0.602315 14:-0.623957 15:-0.997399 16:-0.15635 17:-0.328265 18:-0.390171 19:-0.162457 20:-0.862627 
1 1:-0.985834 2:0.606778 3:0.595612 4:-0.468133 5:0.841174 6:-0.490706 7:-0.400333 8:-0.553543 9:-0.832844 10:0.278218 11:0.436468 12:0.0305951 13:-0.619367 14:-0.70357 15:-0.997408 16:-0.0445122 17:-0.372992 18:-0.527188 19:-0.219505 20:-0.799077 
1 1:-0.964333 2:0.605638 3:0.581558 4:-0.401983 5:0.842936 6:-0.468311 7:-0.404908 8:-0.569719 9:-0.85331 10:0.338862 11:0.462819 12:-0.0329469 13:-0.596069 14:-0.702016 15:-0.99781 16:-0.0372259 17:-0.380862 18:-0.397956 19:-0.230538 20:-0.830283 
1 1:-0.981967 2:0.53748 3:0.50736 4:-0.388544 5:0.839692 6:-0.546458 7:-0.340969 8:-0.50947 9:-0.872682 10:0.382921 11:0.556696 12:0.353936 13:-0.620309 14:-0.625211 15:-0.997677 16:-0.00611693 17:-0.460389 18:-0.231622 19:0.0828987 20:-0.887728 
1 1:-0.978099 2:0.555868 3:0.593446 4:-0.476305 5:0.836339 6:-0.440905 7:-0.184646 8:-0.546213 9:-0.813279 10:0.424687 11:0.797747 12:0.168614 13:-0.427453 14:-0.630455 15:-0.997477 16:-0.140444 17:-0.434492 18:-0.270827 19:-0.12836 20:-0.77454 
1 1:-1 2:0.568329 3:0.553526 4:-0.00775939 5:0.799796 6:-0.516472 7:-0.317462 8:-0.303665 9:-0.859812 10:0.509833 11:0.820127 12:0.345728 13:-0.438352 14:-0.516894 15:-0.99683 16:-0.234575 17:0.43663 18:-0.650271 19:0.0556668 20:-0.854147 
1 1:-0.985931 2:0.559743 3:0.551327 4:0.0128162 5:0.810895 6:-0.542436 7:-0.116493 8:-0.393634 9:-0.856666 10:0.43504 11:0.608868 12:0.335403 13:-0.433509 14:-0.474208 15:-0.991597 16:-0.267327 17:0.0628955 18:-0.763308 19:-0.0776105 20:-0.807662 
