svm_type c_svc
kernel_type rbf
gamma 0.0019531
nr_class 2
total_sv 130
rho -4216.1
label 1 0
probA -0.881831
probB 0.52913
nr_sv 66 64
SV
10000000 1:0.515594 2:0.910788 3:0.7709 4:0.0309893 5:-0.167138 6:-0.776594 7:0.505925 8:0.0173664 9:-0.205734 10:0.71347 11:-0.547528 12:-0.95 13:-0.561405 14:0.285717 15:-0.544647 16:-0.8625 17:-0.624176 18:-0.892857 19:0.616338 20:-0.178468 21:-0.125961 
3620031.504338415 1:-0.0628713 2:0.891479 3:0.560836 4:0.429082 5:-0.348161 6:-0.0257168 7:0.339883 8:0.402734 9:0.0315334 10:0.869971 11:0.214102 12:-0.798077 13:0.00937368 14:-0.0958891 15:-0.650689 16:-0.287037 17:-0.404558 18:-0.814815 19:0.42506 20:0.425799 21:-0.400512 
10000000 1:-0.146287 2:0.904731 3:0.841083 4:0.570918 5:-0.165595 6:-0.659645 7:0.3311 8:0.556724 9:-0.086583 10:0.889696 11:0.458366 12:-0.942308 13:-0.179768 14:-0.454545 15:-0.17208 16:-0.65625 17:-0.786859 18:-0.739583 19:0.749598 20:0.417313 21:-0.272844 
10000000 1:-0.0881188 2:0.927034 3:0.793083 4:0.629917 5:-0.180766 6:-0.450583 7:0.468522 8:0.644227 9:-0.421684 10:0.85035 11:-0.313562 12:-0.942308 13:-0.235995 14:-0.322581 15:-0.588711 16:-0.541667 17:-0.621083 18:-0.814815 19:0.697314 20:0.423084 21:-0.404355 
77270.47762491206 1:0.0990099 2:0.880038 3:-0.156095 4:0.2059 5:-0.573412 6:1 7:0.0748817 8:0.155143 9:0.282028 10:0.830262 11:-0.289922 12:-0.596154 13:0.0212105 14:-0.104475 15:-0.809707 16:0.489583 17:0.217949 18:-0.791667 19:-0.140028 20:0.136227 21:-0.64731 
10000000 1:0.517079 2:0.954048 3:0.843183 4:0.380513 5:-0.135253 6:-0.776594 7:0.466894 8:0.35585 9:0.000868232 10:0.757332 11:0.0251181 12:-0.953846 13:-0.612189 14:-0.0526291 15:-0.328943 16:-0.857407 17:-0.675214 18:-0.814815 19:0.739098 20:0.0406072 21:-0.0853971 
10000000 1:0.0507426 2:0.960848 3:0.878323 4:0.714839 5:-0.355104 6:-0.659645 7:0.266137 8:0.676635 9:0.239096 10:0.774721 11:-0.040109 12:-0.923077 13:-0.401916 14:-0.249999 15:0.0141971 16:-0.754464 17:-0.712912 18:-0.6875 19:0.810315 20:0.624636 21:-0.318958 
10000000 1:0.0101485 2:0.923135 3:0.83117 4:0.532479 5:-0.238622 6:-0.659645 7:0.421957 8:0.52247 9:-0.14481 10:0.818064 11:0.0855152 12:-0.947115 13:-0.422337 14:-0.195123 15:-0.533542 16:-0.730978 17:-0.650502 18:-0.836956 19:0.733438 20:0.243958 21:-0.242101 
260676.1303291215 1:0.279703 2:0.9252 3:0.833218 4:0.332539 5:-0.509643 6:-0.776594 7:0.16661 8:0.322636 9:-0.188148 10:0.694368 11:-0.672375 12:-0.938462 13:-0.373432 14:3e-06 15:0.062494 16:-0.822581 17:-0.73598 18:-0.774194 19:0.722179 20:0.316292 21:-0.448762 
22337.47207836791 1:0.118564 2:0.92722 3:0.963421 4:0.471097 5:-0.265878 6:-0.860247 7:0.120727 8:0.44115 9:0.0870264 10:0.100234 11:-0.362167 12:-0.937063 13:-0.333174 14:-0.049773 15:-0.653851 16:-0.898551 17:-0.865207 18:-0.960474 19:0.92894 20:0.288238 21:0.789496 
10000000 1:0.0440594 2:0.942374 3:0.961072 4:0.614422 5:-0.136025 6:-0.927717 7:0.329396 8:0.589838 9:0.0515582 10:0.435297 11:-0.078337 12:-0.961538 13:-0.436089 14:-0.285711 15:-0.468747 16:-0.877778 17:-0.855651 18:-0.91358 19:0.927509 20:0.311736 21:0.528181 
6951781.904218452 1:-0.187624 2:0.89749 3:0.773622 4:0.575387 5:-0.0925688 6:-0.450583 7:0.610184 8:0.569039 9:-0.181867 10:0.749961 11:0.0506773 12:-0.852564 13:0.0204105 14:-0.326529 15:-0.739798 16:-0.455729 17:-0.665064 18:-0.895833 19:0.667567 20:0.47078 21:0.102904 
5178103.002664141 1:0.0234738 2:0.916451 3:0.748637 4:0.477092 5:-0.221844 6:-0.450583 7:0.284738 8:0.490092 9:-0.401844 10:0.853756 11:-0.140075 12:-0.936842 13:-0.267679 14:-0.196767 15:-0.483753 16:-0.552144 17:-0.572184 18:-0.799757 19:0.631362 20:0.381422 21:-0.650438 
10000000 1:-0.0143398 2:0.925618 3:0.7835 4:0.549526 5:-0.342132 6:-0.450583 7:0.398822 8:0.463098 9:-0.184342 10:0.851202 11:-0.155699 12:-0.919395 13:-0.236816 14:-0.275031 15:-0.570887 16:-0.547527 17:-0.568514 18:-0.808288 19:0.650861 20:0.389851 21:-0.49342 
3166428.891968233 1:0.581497 2:0.911299 3:0.501705 4:-0.178454 5:-0.0770712 6:-0.450583 7:0.166724 8:-0.190867 9:-0.215377 10:0.775094 11:-0.0915803 12:-0.866819 13:-0.7764 14:0.476547 15:-0.0484435 16:-0.85418 17:-0.318199 18:-0.677213 19:0.255031 20:-0.333623 21:-0.103981 
1658914.25308012 1:0.429105 2:0.912506 3:0.699076 4:0.01191 5:-0.151209 6:-0.553369 7:0.597887 8:-0.0959798 9:0.00127464 10:0.768958 11:0.0487617 12:-0.849579 13:-0.725279 14:0.125535 15:-0.0547038 16:-0.856532 17:-0.317956 18:-0.748071 19:0.490422 20:-0.381725 21:-0.509365 
1478345.022996963 1:0.54925 2:0.911183 3:0.596281 4:0.0606257 5:-0.0395552 6:-0.600573 7:0.489337 8:0.0268324 9:-0.411154 10:0.769344 11:-0.095835 12:-0.89735 13:-0.610342 14:0.256875 15:-0.0502413 16:-0.811527 17:-0.573044 18:-0.657358 19:0.251416 20:-0.268849 21:-0.251777 
354833.4565699052 1:0.536793 2:0.912227 3:0.575774 4:0.0084118 5:-0.0768938 6:-0.560351 7:0.454091 8:-0.145098 9:0.00796187 10:0.76689 11:-0.0452149 12:-0.892705 13:-0.736232 14:0.347235 15:-0.281258 16:-0.936122 17:-0.298132 18:-0.659887 19:0.50613 20:-0.270939 21:-0.0224237 
10000000 1:0.426652 2:0.909837 3:0.78032 4:0.157348 5:-0.209002 6:-0.776594 7:0.496465 8:0.129715 9:-0.0444276 10:0.713819 11:0.0366346 12:-0.922622 13:-0.470274 14:0.197343 15:-0.449099 16:-0.843739 17:-0.665073 18:-0.864766 19:0.655763 20:-0.0352238 21:-0.0559281 
10000000 1:0.52019 2:0.910858 3:0.709555 4:-0.036472 5:-0.321525 6:-0.728363 7:0.502668 8:-0.0649175 9:-0.210168 10:0.712472 11:-0.428791 12:-0.937848 13:-0.580942 14:0.295797 15:-0.0426806 16:-0.8625 17:-0.589237 18:-0.848455 19:0.531415 20:-0.100826 21:-0.127707 
10000000 1:0.563047 2:0.910835 3:0.680641 4:0.00934446 5:-0.358388 6:-0.732291 7:0.459632 8:-0.0249198 9:-0.231264 10:0.71238 11:-0.511947 12:-0.928853 13:-0.602253 14:0.345105 15:-0.412137 16:-0.8625 17:-0.589465 18:-0.825589 19:0.596074 20:-0.151039 21:-0.143499 
10000000 1:0.297737 2:0.866971 3:0.76916 4:0.00151967 5:-0.263919 6:-0.776594 7:0.411775 8:-0.0134776 9:-0.0387749 10:0.71446 11:-0.481748 12:-0.935167 13:-0.335353 14:0.0861811 15:-0.498747 16:-0.795773 17:-0.666522 18:-0.88931 19:0.606573 20:-0.130671 21:-0.152452 
6536253.773711638 1:0.440451 2:0.853836 3:0.715039 4:-0.184321 5:-0.443476 6:-0.776594 7:0.414014 8:-0.0117438 9:-0.291486 10:0.714036 11:-0.546135 12:-0.948089 13:-0.545374 14:0.182241 15:-0.66122 16:-0.804839 17:-0.664855 18:-0.937711 19:0.606303 20:-0.21672 21:-0.531672 
4019039.02613898 1:-0.321359 2:0.904661 3:0.832494 4:0.582062 5:-0.264765 6:-0.487182 7:0.272101 8:0.654736 9:-0.21449 10:0.892517 11:0.514708 12:-0.926942 13:-0.185263 14:-0.471861 15:-0.429222 16:-0.618495 17:-0.721131 18:-0.758458 19:0.747319 20:0.416775 21:-0.469467 
10000000 1:0.0382302 2:0.91348 3:0.761182 4:0.538197 5:-0.288871 6:-0.450583 7:0.459772 8:0.538222 9:-0.332237 10:0.851168 11:0.0918972 12:-0.938018 13:-0.2764 14:-0.180333 15:-0.497396 16:-0.568963 17:-0.565924 18:-0.799621 19:0.590156 20:0.274939 21:-0.479633 
8341035.565287514 1:0.286587 2:0.911485 3:0.828347 4:0.41669 5:-0.378979 6:-0.776594 7:0.408719 8:0.181343 9:0.164983 10:0.713501 11:0.0788354 12:-0.920887 13:-0.219837 14:-0.0663931 15:-0.398851 16:-0.795508 17:-0.712967 18:-0.859745 19:0.753294 20:0.164907 21:-0.265671 
6451019.141171752 1:0.50702 2:0.910579 3:0.80177 4:0.111827 5:-0.225508 6:-0.776594 7:0.504171 8:0.128897 9:0.00478451 10:0.714417 11:-0.469937 12:-0.948555 13:-0.381205 14:0.156825 15:-0.46816 16:-0.836626 17:-0.682907 18:-0.886127 19:0.642414 20:-0.0446695 21:0.0188712 
10000000 1:0.378334 2:0.910556 3:0.783768 4:0.121344 5:-0.172487 6:-0.776594 7:0.471844 8:0.141321 9:-0.155894 10:0.714235 11:-0.509267 12:-0.920122 13:-0.398526 14:0.234909 15:-0.488458 16:-0.845825 17:-0.687628 18:-0.867222 19:0.621277 20:-0.0764274 21:0.0764044 
5167490.77246336 1:0.124001 2:0.872379 3:0.308931 4:0.107807 5:-0.469123 6:-0.308259 7:0.32192 8:-0.027775 9:-0.204404 10:0.892697 11:-0.0972419 12:-0.939323 13:-0.209616 14:-0.276753 15:-0.186641 16:-0.524396 17:-0.543717 18:-0.6077 19:0.22101 20:-0.0547556 21:-0.568097 
2414954.359428583 1:-0.00116324 2:0.904429 3:0.774608 4:0.391579 5:-0.591805 6:-0.456389 7:0.235599 8:0.409181 9:-0.202963 10:0.883653 11:0.421616 12:-0.893888 13:-0.167011 14:-0.419601 15:-0.460854 16:-0.641055 17:-0.727628 18:-0.761517 19:0.737887 20:0.38037 21:-0.504105 
2840211.219625433 1:-0.0686241 2:0.897165 3:0.793557 4:0.583769 5:-0.219074 6:-0.499525 7:0.29192 8:0.475695 9:-0.456228 10:0.849693 11:0.0394604 12:-0.930551 13:-0.219921 14:-0.198069 15:-0.915442 16:-0.568451 17:-0.653892 18:-0.831239 19:0.686231 20:0.359516 21:-0.461742 
10000000 1:-0.135184 2:0.894775 3:0.757003 4:0.543048 5:-0.570059 6:-0.450583 7:0.444812 8:0.556551 9:-0.379861 10:0.854342 11:0.243261 12:-0.894337 13:-0.223763 14:-0.434037 15:0.0581845 16:-0.541667 17:-0.628078 18:-0.645481 19:0.632285 20:0.38081 21:-0.422335 
7922152.728661418 1:0.39109 2:0.917565 3:0.568276 4:0.306987 5:-0.595927 6:-0.353281 7:0.5926 8:0.254837 9:-0.163209 10:0.688448 11:0.0195095 12:-0.744206 13:-0.431532 14:-0.013953 15:-0.206862 16:-0.653408 17:-0.504878 18:-0.627377 19:0.478416 20:0.128368 21:-0.193755 
1763403.204978985 1:0.398779 2:0.921139 3:0.33771 4:0.132411 5:-0.169249 6:-0.0257168 7:0.635759 8:0.0740592 9:-0.0204127 10:0.695053 11:-0.233761 12:-0.712044 13:-0.448574 14:0.123903 15:-0.512173 16:-0.62238 17:-0.191639 18:-0.859617 19:0.273776 20:-0.165956 21:-0.597922 
1486974.395491636 1:0.161425 2:0.853789 3:0.875906 4:0.0285161 5:-0.31569 6:-0.907345 7:0.174866 8:0.0938762 9:-0.433987 10:0.461663 11:-0.565 12:-0.909475 13:-0.330163 14:-0.0940351 15:-0.419825 16:-0.857178 17:-0.837854 18:-0.926202 19:0.658781 20:-0.0140164 21:-0.159742 
10000000 1:0.47781 2:0.953932 3:0.800563 4:0.126967 5:-0.180165 6:-0.776594 7:0.456549 8:0.115409 9:-0.483384 10:0.758562 11:-0.137519 12:-0.956832 13:-0.610426 14:0.301827 15:-0.390997 16:-0.870768 17:-0.640344 18:-0.886953 19:0.676014 20:-0.0651191 21:-0.19756 
3439291.899022026 1:0.570084 2:0.909164 3:0.806829 4:0.0329648 5:-0.499195 6:-0.776594 7:0.170511 8:0.117 9:-0.361683 10:0.694368 11:-0.660057 12:-0.939056 13:-0.427116 14:0.320271 15:-0.196318 16:-0.852206 17:-0.5919 18:-0.795572 19:0.576726 20:0.226828 21:-0.44718 
10000000 1:0.48028 2:0.91905 3:0.838585 4:0.325042 5:-0.487513 6:-0.776594 7:0.447085 8:0.116064 9:-0.0722849 10:0.75898 11:-0.258865 12:-0.954005 13:-0.605363 14:0.0842911 15:-0.637097 16:-0.868931 17:-0.634973 18:-0.893152 19:0.71466 20:-0.0723113 21:-0.48998 
9957710.33549851 1:0.495222 2:0.936967 3:0.722454 4:-0.00166865 5:-0.500895 6:-0.73963 7:0.462307 8:0.214555 9:-0.216596 10:0.758683 11:-0.0271549 12:-0.9179 13:-0.554679 14:-0.042693 15:-0.0206868 16:-0.82083 17:-0.577674 18:-0.658084 19:0.703157 20:-0.0961645 21:-0.224252 
7049238.212441308 1:0.447704 2:0.883333 3:0.838126 4:0.0695739 5:-0.28098 6:-0.472029 7:0.41913 8:0.344881 9:-0.121165 10:0.761835 11:-0.136644 12:-0.90102 13:-0.539911 14:-0.001323 15:-0.293396 16:-0.829393 17:-0.655239 18:-0.736709 19:0.353799 20:-0.0315391 21:-0.364653 
2474262.866394632 1:-0.118271 2:0.853743 3:0.482007 4:0.338897 5:-0.501106 6:-0.0257168 7:0.523247 8:0.452225 9:-0.634419 10:0.810185 11:-0.00278264 12:-0.771049 13:0.0699053 14:-0.284133 15:-0.387937 16:-0.31185 17:-0.52099 18:-0.740704 19:0.327547 20:0.292557 21:-0.574706 
10000000 1:0.660083 2:0.940611 3:0.85546 4:0.103412 5:-0.211707 6:-0.781493 7:0.259009 8:0.089557 9:-0.344134 10:0.571274 11:-0.39738 12:-0.926229 13:-0.700847 14:0.396351 15:-0.585715 16:-0.915941 17:-0.654547 18:-0.872377 19:0.697954 20:-0.147399 21:0.022305 
10000000 1:-0.0148173 2:0.909094 3:0.82669 4:0.517872 5:-0.675624 6:-0.659645 7:0.301045 8:0.486406 9:-0.214047 10:0.822815 11:0.092908 12:-0.936986 13:-0.267184 14:-0.125079 15:-0.546228 16:-0.703472 17:-0.64905 18:-0.900928 19:0.672914 20:0.244398 21:-0.693217 
2104074.871733694 1:0.0528026 2:0.871427 3:0.808781 4:0.126672 5:-0.653739 6:-0.465057 7:0.411975 8:-0.046219 9:-0.258087 10:0.816156 11:0.0898032 12:-0.937648 13:-0.348368 14:-0.0796411 15:-0.537444 16:-0.689211 17:-0.512823 18:-0.822956 19:0.568931 20:-0.0152997 21:-0.349345 
10000000 1:0.0396603 2:0.874584 3:0.791393 4:0.200167 5:-0.26639 6:-0.659645 7:0.398051 8:0.426264 9:-0.145697 10:0.818081 11:0.0787983 12:-0.919165 13:-0.284768 14:-0.191277 15:-0.408286 16:-0.715615 17:-0.694374 18:-0.80441 19:0.584093 20:0.176783 21:-0.529048 
10000000 1:0.21585 2:0.925711 3:0.747024 4:0.204485 5:-0.0525045 6:-0.659645 7:0.696927 8:0.1791 9:-0.237877 10:0.634158 11:-0.40606 12:-0.890227 13:-0.461258 14:0.0876271 15:-0.49505 16:-0.764272 17:-0.658038 18:-0.864193 19:0.589302 20:0.0735664 21:-0.334121 
1354777.403311608 1:0.66645 2:0.883449 3:0.498355 4:-0.0288528 5:-0.583785 6:-0.526111 7:0.519975 8:-0.504981 9:-0.17784 10:0.635187 11:-0.550901 12:-0.872737 13:-0.607158 14:0.633022 15:-0.555446 16:-0.82416 17:-0.514345 18:-0.853288 19:0.185514 20:-0.0800179 21:-0.634491 
8565392.016962873 1:0.598355 2:0.910858 3:0.762386 4:0.0240703 5:-0.179378 6:-0.722633 7:0.47323 8:-0.00355694 9:-0.219663 10:0.710797 11:-0.416252 12:-0.899192 13:-0.572047 14:0.338913 15:-0.262516 16:-0.8625 17:-0.620616 18:-0.883039 19:0.551654 20:-0.110594 21:-0.147536 
1535492.171527653 1:0.600897 2:0.891433 3:0.693106 4:0.0490316 5:0.024361 6:-0.563873 7:0.247132 8:-0.0914514 9:0.167938 10:0.634446 11:-0.537518 12:-0.894155 13:-0.582142 14:0.619936 15:-0.457501 16:-0.849009 17:-0.496127 18:-0.856915 19:0.558921 20:-0.393969 21:-0.309064 
485989.9086748734 1:0.0782968 2:0.851956 3:0.513551 4:0.496192 5:-0.455058 6:-0.346851 7:0.278574 8:0.435161 9:-0.303198 10:0.890932 11:-0.560572 12:-0.942023 13:-0.205411 14:-0.372921 15:-0.187928 16:-0.565532 17:-0.693826 18:-0.588228 19:0.556304 20:0.191323 21:-0.704805 
6947428.424118199 1:0.411452 2:0.936549 3:0.825979 4:0.106573 5:-0.693263 6:-0.887066 7:0.300736 8:0.101181 9:-0.0995511 10:0.571053 11:-0.122258 12:-0.930718 13:-0.625058 14:0.58267 15:-0.77254 16:-0.929893 17:-0.653369 18:-0.906232 19:0.672996 20:-0.125098 21:-0.458447 
10000000 1:-0.011582 2:0.925757 3:0.924537 4:0.750828 5:0.483052 6:-0.806794 7:0.222138 8:0.713453 9:0.0898712 10:0.733935 11:0.326572 12:-0.935182 13:-0.217942 14:-0.435723 15:-0.456341 16:-0.734192 17:-0.80655 18:-0.879215 19:0.89635 20:0.592052 21:0.711778 
10000000 1:-0.0508894 2:0.951031 3:0.925771 4:0.750477 5:0.0510388 6:-0.79324 7:0.527511 8:0.720873 9:0.420982 10:0.734178 11:0.300844 12:-0.940758 13:-0.224489 14:-0.373083 15:-0.459426 16:-0.772076 17:-0.825613 18:-0.867854 19:0.893086 20:0.613588 21:0.200843 
962151.302607306 1:0.0934653 2:0.886072 3:0.77991 4:0.0171424 5:-0.2235 6:-0.803128 7:0.944371 8:0.45699 9:0.136497 10:0.736941 11:0.104302 12:-0.934407 13:-0.284332 14:-0.216495 15:-0.375404 16:-0.78659 17:-0.803611 18:-0.855954 19:0.815361 20:0.400582 21:-0.113884 
10000000 1:-0.154717 2:0.960105 3:0.920497 4:0.750733 5:0.154096 6:-0.794058 7:0.752076 8:0.706373 9:0.0109176 10:0.733689 11:0.331186 12:-0.933236 13:-0.255832 14:-0.316023 15:-0.450846 16:-0.702656 17:-0.805547 18:-0.867494 19:0.887043 20:0.59517 21:0.214297 
3397094.000717109 1:0.0778247 2:0.906077 3:0.843749 4:0.683418 5:0.116328 6:-0.806424 7:0.60519 8:0.350958 9:-0.161251 10:0.731608 11:0.291488 12:-0.932024 13:-0.299263 14:-0.159543 15:-0.305649 16:-0.789493 17:-0.725147 18:-0.786489 19:0.889484 20:0.590248 21:0.562073 
3367711.371933168 1:0.780419 2:0.943999 3:0.799811 4:-0.0113677 5:0.0428773 6:-0.843554 7:0.375266 8:0.0515021 9:-0.0246615 10:0.568443 11:-0.556387 12:-0.928177 13:-0.760226 14:0.606982 15:-0.778941 16:-0.93556 17:-0.553454 18:-0.947962 19:0.6709 20:-0.153468 21:0.238921 
1934194.393268978 1:-0.0487022 2:0.848335 3:0.759387 4:0.186695 5:-0.671684 6:-0.450583 7:0.437918 8:0.556669 9:-0.613951 10:0.749909 11:-0.311023 12:-0.854772 13:0.230158 14:-0.280287 15:-0.708395 16:-0.45516 17:-0.666133 18:-0.893475 19:0.450646 20:0.0461202 21:-0.333568 
10000000 1:-0.176644 2:0.894612 3:0.691295 4:0.540331 5:-0.365912 6:-0.450583 7:0.465674 8:0.471806 9:-0.526573 10:0.751938 11:-0.0044543 12:-0.852564 13:0.0207316 14:-0.274875 15:-0.637926 16:-0.466912 17:-0.665064 18:-0.873163 19:0.665747 20:0.338555 21:-0.479599 
10000000 1:-0.0650477 2:0.879875 3:0.749718 4:0.448013 5:-0.682764 6:-0.450583 7:0.347433 8:0.418996 9:-0.191731 10:0.750558 11:0.02341 12:-0.852564 13:-0.00625789 14:-0.413421 15:-0.418499 16:-0.464877 17:-0.689703 18:-0.725989 19:0.619206 20:0.315028 21:-0.425126 
10000000 1:-0.088512 2:0.926779 3:0.779048 4:0.612095 5:-0.469625 6:-0.450583 7:0.396625 8:0.5716 9:-0.190438 10:0.855265 11:0.230525 12:-0.89585 13:-0.159637 14:-0.404025 15:0.066676 16:-0.541667 17:-0.751906 18:-0.565654 19:0.656371 20:0.41078 21:-0.488428 
174813.3742226626 1:0.819442 2:0.889924 3:0.502358 4:-0.32767 5:-0.381034 6:-0.167357 7:0.0933507 8:-0.482042 9:-0.721353 10:0.730003 11:-0.432591 12:-0.886841 13:-0.790389 14:0.591622 15:-0.454046 16:-0.954735 17:0.151302 18:-0.663539 19:-0.261652 20:-0.688163 21:-0.671412 
1116717.498025743 1:0.843532 2:0.889646 3:0.490635 4:-0.407825 5:-0.541335 6:-0.186539 7:0.277261 8:-0.409691 9:-0.836144 10:0.72992 11:-0.495355 12:-0.906566 13:-0.872668 14:0.491091 15:-0.421355 16:-0.905509 17:-0.221922 18:-0.662481 19:0.369708 20:-0.670528 21:-0.468944 
3651990.005248361 1:0.00205238 2:0.889762 3:0.707369 4:0.292333 5:-0.268668 6:-0.569003 7:0.234057 8:0.282092 9:-0.071583 10:0.8169 11:0.0286216 12:-0.945401 13:-0.377179 14:-0.201009 15:-0.519275 16:-0.636293 17:-0.650578 18:-0.79136 19:0.523288 20:0.255219 21:-0.28002 
579584.7172345443 1:0.0784674 2:0.937129 3:0.841015 4:0.562321 5:-0.40711 6:-0.659645 7:0.294125 8:0.534697 9:-0.0928269 10:0.885836 11:0.385731 12:-0.947311 13:-0.331421 14:-0.430281 15:-0.396084 16:-0.689715 17:-0.629023 18:-0.814912 19:0.741684 20:0.380142 21:-0.654171 
839386.9115387154 1:-0.0873227 2:0.878831 3:0.957485 4:0.273835 5:-0.178362 6:-0.69161 7:0.294927 8:0.120155 9:-0.534221 10:0.43475 11:-0.209022 12:-0.939109 13:-0.158116 14:-0.286551 15:-0.55959 16:-0.678127 17:-0.824808 18:-0.895458 19:0.737542 20:0.209758 21:0.167919 
-10000000 1:-0.138614 2:0.896631 3:0.757216 4:0.525924 5:-0.258421 6:-0.450583 7:0.428279 8:0.48737 9:0.202446 10:0.827459 11:0.331575 12:-0.884615 13:-0.239768 14:-0.333333 15:-0.43334 16:-0.558642 17:-0.639126 18:-0.753086 19:0.642489 20:0.314905 21:-0.207515 
-564068.4393077822 1:0.536139 2:0.923367 3:0.788569 4:0.116508 5:-0.0267421 6:-0.776594 7:0.425894 8:0.106297 9:-0.229823 10:0.590449 11:-0.242559 12:-0.884615 13:-0.525453 14:0.327867 15:-0.268444 16:-0.865556 17:-0.649231 18:-0.844444 19:0.646343 20:0.0754607 21:0.271563 
-10000000 1:0.37698 2:0.931002 3:0.7709 4:0.299166 5:-0.0776549 6:-0.659645 7:0.425554 8:0.299236 9:-0.31635 10:0.788113 11:-0.173108 12:-0.927885 13:-0.473684 14:0.200001 15:-0.521876 16:-0.796296 17:-0.566952 18:-0.861111 19:0.635166 20:0.167798 21:-0.13877 
-10000000 1:0.524505 2:0.908932 3:0.578249 4:0.00804529 5:-0.25045 6:-0.450583 7:0.425554 8:0.0101495 9:-0.401954 10:0.872774 11:-0.561908 12:-0.935897 13:-0.2915 14:0.153849 15:-0.50961 16:-0.662281 17:-0.487179 18:-0.824561 19:0.368929 20:-0.059473 21:-0.452178 
-614538.0692859746 1:0.121782 2:0.897838 3:0.768652 4:0.290524 5:-0.523014 6:-0.659645 7:0.425554 8:0.299121 9:-0.422866 10:0.76299 11:-0.0872034 12:-0.9375 13:-0.645179 14:-0.0561811 15:-0.283706 16:-0.835 17:-0.590769 18:-0.75 19:0.631501 20:-0.107585 21:-0.606746 
-156164.0542995084 1:0.468069 2:0.901366 3:0.811352 4:-0.00238379 5:-0.43713 6:-0.848278 7:0.425781 8:0.00212628 9:-0.432878 10:0.692396 11:-0.651217 12:-0.958333 13:-0.380805 14:0.411765 15:-0.849996 16:-0.852151 17:-0.685691 18:-0.973118 19:0.673561 20:-0.0739966 21:-0.392827 
-8897625.532595061 1:0.388861 2:0.930329 3:0.887601 4:0.285161 5:-0.358961 6:-0.895277 7:0.425554 8:0.271353 9:-0.150352 10:0.576538 11:-0.368541 12:-0.958791 13:-0.469263 14:0.159663 15:-0.892862 16:-0.869048 17:-0.733211 18:-0.980159 19:0.800921 20:-0.00194072 21:-0.172075 
-10000000 1:0.409653 2:0.91478 3:0.795898 4:0.151967 5:-0.103111 6:-0.776594 7:0.426046 8:0.114809 9:0.106091 10:0.74394 11:-0.318299 12:-0.95 13:-0.628484 14:0.200001 15:-0.249995 16:-0.882143 17:-0.645055 18:-0.821429 19:0.658794 20:-0.0475268 21:0.00469684 
-10000000 1:0.333416 2:0.902944 3:0.834336 4:0.131108 5:-0.170481 6:-0.848278 7:0.425592 8:0.100335 9:0.0245506 10:0.618427 11:-0.116656 12:-0.923077 13:-0.482311 14:0.180327 15:-0.372956 16:-0.869048 17:-0.721612 18:-0.880952 19:0.713707 20:-0.00679007 21:0.267293 
-10000000 1:0.487871 2:0.929308 3:0.806275 4:0.202026 5:-0.377989 6:-0.776594 7:0.425629 8:0.180113 9:-0.0673711 10:0.615209 11:-0.150478 12:-0.903846 13:-0.521532 14:0.190083 15:-0.473145 16:-0.84875 17:-0.649231 18:-0.875 19:0.676416 20:0.0201258 21:-0.169086 
-10000000 1:0.0881188 2:0.930724 3:0.826712 4:0.515197 5:-0.421188 6:-0.659645 7:0.425629 8:0.509009 9:-0.194724 10:0.754321 11:0.0306489 12:-0.932692 13:-0.451753 14:-0.249999 15:-0.468747 16:-0.735577 17:-0.662722 18:-0.807692 19:0.726164 20:0.174066 21:-0.296755 
-10000000 1:0.659901 2:0.922671 3:0.81385 4:0.0122169 5:-0.367447 6:-0.848278 7:0.425554 8:0.0147112 9:-0.406536 10:0.605191 11:-0.6162 12:-0.942308 13:-0.693411 14:0.456309 15:-0.381065 16:-0.923611 17:-0.661681 18:-0.884259 19:0.677922 20:-0.124152 21:-0.273271 
-2877519.462719877 1:0.210891 2:0.963169 3:0.857412 4:0.634088 5:-0.600669 6:-0.659645 7:0.431119 8:0.591581 9:0.272237 10:0.874643 11:-0.0618266 12:-0.966346 13:-0.498747 14:-0.238095 15:0.0119021 16:-0.782895 17:-0.692308 18:-0.671053 19:0.776219 20:0.467966 21:-0.699402 
-3125488.364439861 1:0.665347 2:0.947759 3:0.812174 4:0.230632 5:0.429931 6:-0.776594 7:0.435359 8:0.179758 9:0.291005 10:0.709629 11:-0.276722 12:-0.95 13:-0.720047 14:0.0851071 15:-0.186169 16:-0.901786 17:-0.645055 18:-0.785714 19:0.686438 20:-0.099903 21:0.384287 
-10000000 1:-0.0336634 2:0.865718 3:0.762269 4:0.265793 5:-0.207765 6:-0.659645 7:0.425743 8:0.282483 9:-0.526426 10:0.852063 11:-0.146435 12:-0.951923 13:-0.282295 14:-0.181815 15:-0.227275 16:-0.71875 17:-0.701049 18:-0.772727 19:0.621095 20:0.110396 21:-0.354825 
-10000000 1:0.512129 2:0.904754 3:0.761397 4:-0.0148987 5:-0.283363 6:-0.776594 7:0.425629 8:-0.0581431 9:0.144514 10:0.731534 11:-0.527186 12:-0.942308 13:-0.480184 14:0.407409 15:-0.527779 16:-0.853333 17:-0.629744 18:-0.9 19:0.600197 20:-0.0644042 21:-0.346285 
-9022971.635678753 1:0.254703 2:0.896863 3:0.630886 4:0.160906 5:-0.326562 6:-0.450583 7:0.425629 8:0.159759 9:-0.330907 10:0.811731 11:-0.0679508 12:-0.884615 13:-0.392711 14:-0.153843 15:0.144234 16:-0.694444 17:-0.603039 18:-0.567901 19:0.449385 20:0.0365339 21:-0.359095 
-1417538.603505387 1:-0.575743 2:0.832136 3:0.945392 4:0.775924 5:-0.366932 6:-0.848278 7:0.426917 8:0.745743 9:0.152458 10:0.671944 11:0.106942 12:-0.919872 13:0.391911 14:-0.752068 15:-0.367767 16:-0.658915 17:-0.943351 18:-0.883721 19:0.907715 20:0.783592 21:-0.0362938 
-10000000 1:0.357673 2:0.910185 3:0.73551 4:0.162098 5:-0.256621 6:-0.659645 7:0.425667 8:0.13388 9:0.00079434 10:0.844018 11:-0.177207 12:-0.956731 13:-0.450116 14:0.0746251 15:-0.6194 16:-0.770833 17:-0.582418 18:-0.880952 19:0.577466 20:-0.111542 21:-0.432109 
-10000000 1:0.0611386 2:0.878367 3:0.656373 4:0.234803 5:-0.69838 6:-0.450583 7:0.427371 8:0.24665 9:-0.472632 10:0.820244 11:-0.066374 12:-0.897436 13:-0.238226 14:-0.210525 15:-0.328943 16:-0.596667 17:-0.610256 18:-0.733333 19:0.488344 20:0.0537339 21:-0.708369 
-15370.40878132275 1:-0.157673 2:0.951147 3:0.899006 4:0.794994 5:-0.45153 6:-0.659645 7:0.425592 8:0.797056 9:-0.236178 10:0.861251 11:0.280596 12:-0.947115 13:-0.325237 14:-0.615382 15:0.307689 16:-0.701087 17:-0.841137 18:-0.565217 19:0.844035 20:0.669042 21:-0.435952 
-7041406.290285486 1:0.500743 2:0.871474 3:0.623431 4:-0.271752 5:-0.789663 6:-0.659645 7:0.425705 8:-0.270223 9:-0.452571 10:0.834155 11:-0.37366 12:-0.951923 13:-0.588816 14:0.312501 15:-0.402345 16:-0.84375 17:-0.534965 18:-0.829545 19:0.394723 20:-0.489551 21:-0.83006 
-6863837.667865217 1:0.519802 2:0.934832 3:0.85008 4:0.222586 5:-0.432759 6:-0.848278 7:0.430589 8:0.227891 9:-0.396745 10:0.698053 11:-0.240114 12:-0.967949 13:-0.785179 14:0.285717 15:-0.609698 16:-0.934524 17:-0.634615 18:-0.910714 19:0.741213 20:-0.178468 21:-0.407771 
-10000000 1:-0.122772 2:0.911972 3:0.844664 4:0.584625 5:0.114168 6:-0.659645 7:0.43021 8:0.598489 9:-0.423827 10:0.866597 11:0.00781359 12:-0.956731 13:-0.0573474 14:-0.373131 15:-0.6194 16:-0.607143 17:-0.75641 18:-0.880952 19:0.755434 20:0.441319 21:-0.194278 
-10000000 1:0.47698 2:0.905822 3:0.769585 4:0.0247318 5:-0.285935 6:-0.776594 7:0.425592 8:0.00224752 9:-0.100401 10:0.59211 11:-0.33953 12:-0.911538 13:-0.550158 14:0.179487 15:-0.45513 16:-0.855263 17:-0.646154 18:-0.868421 19:0.614104 20:-0.229925 21:0.0179334 
-1704107.673852101 1:0.698515 2:0.87767 3:0.428816 4:-0.425805 5:-0.556698 6:-0.450583 7:0.431232 8:-0.404507 9:-0.726452 10:0.788425 11:-0.912251 12:-0.929487 13:-0.568595 14:0.475413 15:-1 16:-0.770833 17:-0.269231 18:-1 19:0.140511 20:-0.777304 21:-0.677199 
-7281572.842269313 1:-0.186139 2:0.943813 3:0.895376 4:0.780691 5:0.0545127 6:-0.659645 7:0.425554 8:0.7787 9:-0.189773 10:0.772904 11:0.523227 12:-0.884615 13:-0.197147 14:-0.491523 15:-0.13559 16:-0.65625 17:-0.797009 18:-0.722222 19:0.838117 20:0.676673 21:0.259607 
-3964727.655982421 1:0.406188 2:0.938708 3:0.894979 4:0.335221 5:-0.129082 6:-0.895277 7:0.426311 8:0.317389 9:-0.0918294 10:0.521983 11:-0.573466 12:-0.958791 13:-0.652021 14:0.190083 15:-0.578511 16:-0.912698 17:-0.721612 18:-0.920635 19:0.814075 20:0.0421923 21:0.260034 
-2340153.506774656 1:-0.331683 2:0.939566 3:0.960733 4:0.865018 5:0.172024 6:-0.848278 7:0.426084 8:0.832753 9:0.196461 10:0.807163 11:0.352182 12:-0.974359 13:-0.0775895 14:-0.690724 15:-0.474229 16:-0.700321 17:-0.906312 18:-0.871795 19:0.934519 20:0.695815 21:0.158412 
-10000000 1:-0.103218 2:0.910695 3:0.880873 4:0.561681 5:-0.239907 6:-0.776594 7:0.426387 8:0.540296 9:9.23651e-05 10:0.722346 11:0.0501732 12:-0.946154 13:-0.398495 14:-0.200001 15:-0.63572 16:-0.772414 17:-0.717772 18:-0.896552 19:0.803117 20:0.268236 21:-0.234415 
-9504245.417319372 1:-0.0641089 2:0.92961 3:0.790613 4:0.624553 5:0.0557984 6:-0.450583 7:0.425629 8:0.612271 9:-0.0972235 10:0.847028 11:-0.302472 12:-0.923077 13:-0.164579 14:-0.142857 15:-0.595239 16:-0.563492 17:-0.582418 18:-0.84127 19:0.693543 20:0.551891 21:-0.252775 
-8995193.231438421 1:-0.405693 2:0.889599 3:0.834296 4:0.75149 5:-0.358704 6:-0.450583 7:0.425629 8:0.752045 9:-0.228604 10:0.850714 11:0.371341 12:-0.891026 13:0.0526316 14:-0.576472 15:-0.550002 16:-0.400641 17:-0.775148 18:-0.807692 19:0.76031 20:0.639409 21:-0.416738 
-2331148.828528958 1:-0.00940594 2:0.87774 3:0.680465 4:0.303933 5:-0.652353 6:-0.450583 7:0.426008 8:0.319808 9:-0.507214 10:0.829276 11:-0.0608609 12:-0.910256 13:-0.288763 14:-0.351351 15:-0.138509 16:-0.601449 17:-0.661093 18:-0.637681 19:0.52517 20:0.0622362 21:-0.724594 
-5354778.914761494 1:0.552723 2:0.901784 3:0.748828 4:-0.0756853 5:-0.157367 6:-0.776594 7:0.4265 8:-0.0868169 9:-0.260008 10:0.591643 11:-0.43201 12:-0.896154 13:-0.627389 14:0.274335 15:0.128322 16:-0.895238 17:-0.665934 18:-0.761905 19:0.578853 20:-0.126092 21:0.211785 
-3026758.00165119 1:0.507921 2:0.930538 3:0.744582 4:0.196663 5:-0.459758 6:-0.659645 7:0.425592 8:0.159586 9:0.114219 10:0.774046 11:-0.0967201 12:-0.932692 13:-0.7552 14:0.255813 15:-0.406973 16:-0.894231 17:-0.494083 18:-0.807692 19:0.592258 20:-0.123002 21:-0.392827 
-10000000 1:-0.0148515 2:0.93757 3:0.89464 4:0.629619 5:-0.0557984 6:-0.776594 7:0.425819 8:0.597276 9:0.149059 10:0.690683 11:-0.0508198 12:-0.930769 13:-0.269005 14:-0.333333 15:-0.291662 16:-0.75 17:-0.787413 18:-0.818182 19:0.826501 20:0.475178 21:0.187447 
-2375163.377227889 1:-0.381188 2:0.875234 3:0.689552 4:0.678188 5:-0.772178 6:-0.0257168 7:0.42597 8:0.718828 9:-0.732622 10:0.88871 11:0.189007 12:-0.846154 13:0.0212105 14:-0.462687 15:-0.429107 16:-0.1875 17:-0.601399 18:-0.659091 19:0.599946 20:0.604796 21:-0.818531 
-10000000 1:0.380198 2:0.893034 3:0.767768 4:0.0157926 5:-0.410903 6:-0.776594 7:0.425554 8:0.0109194 9:-0.31502 10:0.550947 11:-0.509445 12:-0.892308 13:-0.375558 14:0.271185 15:-0.567801 16:-0.82093 17:-0.660107 18:-0.906977 19:0.611023 20:-0.0548351 21:-0.110162 
-1508238.239236142 1:0.357673 2:0.933996 3:0.833865 4:0.335518 5:-0.21008 6:-0.71821 7:0.430475 8:0.250145 9:0.73421 10:0.864417 11:-0.0100504 12:-0.980769 13:-0.685784 14:-0.014925 15:-0.0485073 16:-0.89 17:-0.678462 18:-0.75 19:0.723277 20:0.0476234 21:-0.409052 
-10000000 1:0.286634 2:0.906495 3:0.744714 4:0.197855 5:-0.632553 6:-0.659645 7:0.425629 8:0.186441 9:-0.198271 10:0.670594 11:0.0287462 12:-0.846154 13:-0.280253 14:0.025641 15:-0.128207 16:-0.75 17:-0.667832 18:-0.772727 19:0.592472 20:0.190944 21:-0.482067 
-10000000 1:0.0977723 2:0.944254 3:0.913045 4:0.5882 5:-0.128568 6:-0.848278 7:0.425554 8:0.562744 9:0.0545508 10:0.697067 11:0.18752 12:-0.939103 13:-0.248121 14:-0.243699 15:-0.464284 16:-0.789414 17:-0.802495 18:-0.887387 19:0.851208 20:0.437544 21:0.203245 
-10000000 1:0.579703 2:0.923553 3:0.826145 4:0.0834327 5:-0.0172281 6:-0.848278 7:0.426614 8:0.074335 9:-0.248148 10:0.721671 11:-0.0169516 12:-0.948718 13:-0.638805 14:0.352941 15:-0.499997 16:-0.905637 17:-0.670437 18:-0.901961 19:0.699398 20:-0.113768 21:0.119983 
-10000000 1:-0.127723 2:0.893382 3:0.747513 4:0.500298 5:-0.544099 6:-0.450583 7:0.425932 8:0.503711 9:-0.313912 10:0.73605 11:-0.0503082 12:-0.865385 13:-0.0233316 14:-0.443295 15:-0.605669 16:-0.45 17:-0.707692 18:-0.833333 19:0.62766 20:0.315673 21:-0.449616 
-740667.8061856173 1:0.591089 2:0.930051 3:0.727079 4:0.129619 5:-0.377732 6:-0.659645 7:0.425667 8:0.129761 9:-0.353666 10:0.828601 11:-0.380839 12:-0.956731 13:-0.676116 14:0.384615 15:-0.607696 16:-0.869048 17:-0.478022 18:-0.880952 19:0.563716 20:-0.105723 21:-0.466695 
-8017109.184717372 1:-0.0905941 2:0.928148 3:0.858246 4:0.637366 5:-0.274621 6:-0.659645 7:0.426614 8:0.618612 9:-0.0171614 10:0.778926 11:0.272225 12:-0.889423 13:0.0422105 14:-0.346533 15:-0.49505 16:-0.607143 17:-0.77033 18:-0.857143 19:0.777581 20:0.601939 21:-0.0251921 
-3199215.452118928 1:-0.107426 2:0.955394 3:0.94672 4:0.783075 5:0.121882 6:-0.848278 7:0.425819 8:0.756676 9:0.108381 10:0.779393 11:0.524872 12:-0.948718 13:-0.228674 14:-0.482757 15:-0.230603 16:-0.770833 17:-0.856712 18:-0.828431 19:0.910031 20:0.647537 21:0.486336 
-10000000 1:0.0658416 2:0.930329 3:0.830478 4:0.529797 5:-0.409617 6:-0.659645 7:0.425554 8:0.512031 9:-0.0508193 10:0.855749 11:-0.0147046 12:-0.951923 13:-0.3135 14:-0.391305 15:0.1087 16:-0.71875 17:-0.767483 18:-0.659091 19:0.732302 20:0.388148 21:-0.56661 
-3918058.580092964 1:-0.0173267 2:0.970178 3:0.901855 4:0.805423 5:-0.428645 6:-0.659645 7:0.427484 8:0.798053 9:-0.119834 10:0.876668 11:0.614028 12:-0.942308 13:-0.526905 14:-0.258423 15:-0.283706 16:-0.770833 17:-0.665064 18:-0.739583 19:0.848679 20:0.609796 21:-0.50427 
-1348168.459589168 1:0.0787129 2:0.892175 3:0.492834 4:0.297378 5:-0.579583 6:-0.0257168 7:0.432974 8:0.303152 9:-0.386474 10:0.840488 11:-0.242722 12:-0.855769 13:-0.441784 14:3e-06 15:-0.42045 16:-0.541667 17:-0.234432 18:-0.642857 19:0.332662 20:0.0863241 21:-0.635781 
-2537723.090613204 1:-0.0893564 2:0.962426 3:0.931074 4:0.806615 5:0.0858833 6:-0.776594 7:0.432368 8:0.788163 9:0.0141688 10:0.712276 11:0.257686 12:-0.934615 13:-0.292347 14:-0.394959 15:-0.571435 16:-0.725 17:-0.780769 18:-0.875 19:0.888373 20:0.609032 21:0.415884 
-543650.5944690687 1:-0.234653 2:0.82334 3:-0.0524228 4:0.306913 5:-0.776549 6:1 7:0.425554 8:0.314 9:-0.399405 10:0.865611 11:-0.217566 12:-0.634615 13:0.0353737 14:-0.311475 15:-0.372956 16:0.5 17:-0.0699301 18:-0.318182 19:-0.034388 20:0.260382 21:-0.827925 
-3520089.447054486 1:-0.196535 2:0.909605 3:0.668872 4:0.637068 5:-0.24325 6:-0.0257168 7:0.426387 8:0.645088 9:-0.341104 10:0.868103 11:0.0201485 12:-0.875 13:-0.1359 14:-0.373131 15:-0.809707 16:-0.203947 17:-0.461538 18:-0.868421 19:0.571843 20:0.40879 21:-0.444065 
-10000000 1:0.0334158 2:0.91782 3:0.742291 4:0.484207 5:-0.608383 6:-0.450583 7:0.425554 8:0.470933 9:-0.113849 10:0.743421 11:-0.079362 12:-0.858974 13:-0.160137 14:-0.234039 15:-0.45745 16:-0.556452 17:-0.622829 18:-0.784946 19:0.619677 20:0.367541 21:-0.552946 
-559609.9919913763 1:-0.276733 2:0.935899 3:0.854825 4:0.811383 5:-0.173824 6:-0.450583 7:0.425894 8:0.800387 9:-0.0727652 10:0.770724 11:0.527335 12:-0.839744 13:-0.203889 14:-0.54622 15:-0.249995 16:-0.514706 17:-0.742081 18:-0.656863 19:0.791689 20:0.666948 21:0.114005 
-4739090.779305313 1:0.163119 2:0.941887 3:0.757604 4:0.528605 5:-0.673438 6:-0.450583 7:0.425554 8:0.529217 9:-0.273124 10:0.813392 11:0.201148 12:-0.871795 13:-0.401916 14:-0.181815 15:0.0141971 16:-0.683908 17:-0.596817 18:-0.597701 19:0.643079 20:0.422054 21:-0.652007 
-8364601.859422427 1:0.0049505 2:0.88324 3:0.685272 4:0.31913 5:-0.424788 6:-0.450583 7:0.425554 8:0.302252 9:-0.10513 10:0.871632 11:0.226594 12:-0.910256 13:-0.351116 14:-0.178083 15:-0.301365 16:-0.641304 17:-0.576366 18:-0.710145 19:0.532519 20:0.101025 21:-0.614859 
-10000000 1:0.228218 2:0.929865 3:0.848036 4:0.403754 5:0.00539985 6:-0.776594 7:0.428961 8:0.389331 9:-0.115918 10:0.707293 11:-0.117147 12:-0.95 13:-0.426784 14:-0.108909 15:-0.747525 16:-0.783929 17:-0.686813 18:-0.928571 19:0.747345 20:0.0393301 21:0.000426985 
-1148160.099667948 1:0.665099 2:0.897304 3:0.226897 4:-0.217223 5:-0.548984 6:-0.0257168 7:0.429604 8:-0.212315 9:-0.484935 10:0.693693 11:-0.783663 12:-0.759615 13:-0.675116 14:0.629632 15:-0.370368 16:-0.778226 17:0.0372208 18:-0.677419 19:-0.0286708 20:-0.231688 21:-0.557643 
-10000000 1:0.360149 2:0.916637 3:0.646797 4:0.207092 5:-0.246079 6:-0.450583 7:0.426159 8:0.189603 9:-0.121977 10:0.819569 11:0.239685 12:-0.865385 13:-0.342105 14:-0.045453 15:-0.275572 16:-0.663889 17:-0.545299 18:-0.722222 19:0.473709 20:0.0700284 21:-0.210077 
-10000000 1:0.338614 2:0.930631 3:0.687566 4:0.325387 5:-0.107997 6:-0.450583 7:0.426046 8:0.312533 9:-0.152938 10:0.843862 11:0.304683 12:-0.884615 13:-0.373432 14:-0.0714271 15:-0.392859 16:-0.660494 17:-0.530864 18:-0.753086 19:0.536021 20:0.136113 21:-0.190009 
-938296.5146987038 1:-0.175248 2:0.812502 3:0.432182 4:0.179976 5:-0.801491 6:-0.0257168 7:0.425857 8:0.183032 9:-0.377755 10:0.859227 11:-0.597022 12:-0.855769 13:0.169589 14:-0.222219 15:-0.527779 16:-0.214286 17:-0.512821 18:-0.761905 19:0.250255 20:0.214355 21:-0.832195 
-6050243.205907438 1:0.536881 2:0.925293 3:0.727624 4:0.131704 5:-0.231422 6:-0.659645 7:0.425554 8:0.122517 9:-0.239244 10:0.567869 11:-0.597179 12:-0.865385 13:-0.620674 14:0.405405 15:-0.310813 16:-0.8625 17:-0.525 18:-0.8125 19:0.564607 20:0.0598445 21:-0.0409906 
-162201.9930577233 1:-1 2:-1 3:0.945008 4:0.873361 5:0.30162 6:-0.776594 7:0.426159 8:0.858986 9:-0.0193413 10:0.74477 11:0.205579 12:-0.903846 13:0.869158 14:-1 15:-0.761677 16:-0.4775 17:-1 18:-0.95 19:0.912039 20:0.92449 21:0.370196 
-4879054.71061085 1:0.191337 2:0.939381 3:0.820938 4:0.492849 5:0.145282 6:-0.519286 7:0.426273 8:0.485015 9:-0.179355 10:0.611887 11:-0.185339 12:-0.884615 13:-0.429826 14:-0.249999 15:-0.149997 16:-0.751736 17:-0.695513 18:-0.722222 19:0.71675 20:0.269641 21:0.587105 
