svm_type c_svc
kernel_type rbf
gamma 0.06
nr_class 2
total_sv 3544
rho 3.87105
label 1 0
probA -2.25477
probB -0.050414
nr_sv 1769 1775
SV
1 1:-0.9 2:0.804231 3:0.703347 4:-0.263187 5:0.853879 6:-0.42687 7:-0.269005 8:-0.45 9:-0.865358 10:0.792936 11:0.0823965 12:-0.172896 13:-0.684985 14:-0.639646 15:-0.989015 16:0.0343607 17:-0.484066 18:-0.956663 
1 1:-1 2:0.75629 3:0.506132 4:-0.0639253 5:0.87185 6:-0.725425 7:-0.334542 8:-0.413333 9:-0.904628 10:0.752157 11:0.615681 12:0.274624 13:-0.388192 14:-0.424197 15:-0.961008 16:-0.227329 17:-0.0226875 18:-0.844949 
1 1:-0.98 2:0.768844 3:0.599465 4:-0.482202 5:0.872071 6:-0.477847 7:-0.445984 8:-0.0571429 9:-0.881066 10:0.685752 11:0.835632 12:0.21063 13:-0.416006 14:-0.52354 15:-0.987076 16:0.234072 17:-0.448886 18:-0.812929 
1 1:-0.98 2:0.724095 3:0.573477 4:-0.574412 5:0.855225 6:-0.268461 7:-0.467021 8:-0.161905 9:-0.894811 10:0.557505 11:0.719182 12:0.00586584 13:-0.407645 14:-0.617105 15:-0.988689 16:0.275159 17:-0.569992 18:-0.926047 
1 1:-1 2:0.756453 3:0.608543 4:0.168302 5:0.67538 6:0.0995712 7:-0.0253421 8:-0.3125 9:-0.682094 10:0.814716 11:0.742771 12:0.597932 13:-0.458489 14:-0.0515422 15:-0.959023 16:-0.472182 17:-0.0698157 18:-0.969026 
1 1:-0.98 2:0.776148 3:0.566104 4:-0.131818 5:0.783204 6:-0.264888 7:-0.165595 8:-0.266667 9:-0.806452 10:0.802195 11:-0.442446 12:-0.507067 13:-0.807599 14:-0.745358 15:-0.990718 16:-0.19671 17:-0.257778 18:-0.58014 
1 1:-1 2:0.785996 3:0.558936 4:-0.169347 5:0.786619 6:-0.220819 7:-0.210526 8:-0.674074 9:-0.835905 10:0.77685 11:0.578492 12:0.215875 13:-0.413069 14:-0.465281 15:-0.978689 16:-0.0751668 17:-0.291103 18:-0.609734 
1 1:-1 2:0.696445 3:0.475517 4:0.0347159 5:0.814454 6:-0.548356 7:-0.0925579 8:-0.2 9:-0.841795 10:0.733485 11:0.794066 12:0.571026 13:-0.281603 14:-0.161623 15:-0.953723 16:-0.312457 17:0.427667 18:-0.981769 
1 1:-1 2:0.756453 3:0.609919 4:-0.4306 5:0.725774 6:-0.285136 7:-0.276316 8:-0.808696 9:-0.875175 10:0.654451 11:0.854884 12:0.189383 13:-0.364753 14:-0.537078 15:-0.983461 16:0.170592 17:-0.289729 18:-0.693631 
1 1:-1 2:0.76722 3:0.515998 4:-0.258972 5:0.801106 6:-0.399476 7:-0.263158 8:-0.853333 9:-0.806452 10:0.693381 11:0.855911 12:0.249101 13:-0.245601 14:-0.503735 15:-0.983807 16:0.19127 17:-0.496929 18:-0.773198 
1 1:-1 2:0.630594 3:0.436864 4:0.111038 5:0.735397 6:0.188502 7:0.399068 8:-0.45 9:-0.682094 10:0.700511 11:0.844182 12:0.734947 13:-0.0638415 14:0.112549 15:-0.898147 16:-0.491126 17:0.197973 18:-0.992826 
1 1:-0.98 2:0.682322 3:0.491509 4:-0.0337264 5:0.642819 6:-0.117993 7:0.0814684 8:-0.0222222 9:-0.747546 10:0.705076 11:0.915063 12:0.628493 13:-0.161542 14:-0.17722 15:-0.957482 16:-0.172085 17:0.152834 18:-0.913759 
1 1:-0.64 2:0.795303 3:0.752659 4:-0.335752 5:0.801933 6:-0.261315 7:-0.886816 8:-0.0666667 9:-0.776999 10:0.810195 11:-0.512405 12:-0.582894 13:-0.87574 14:-0.795663 15:-0.996447 16:-0.0851555 17:-0.17224 18:-0.834087 
1 1:-1 2:0.755641 3:0.611712 4:-0.351621 5:0.930971 6:-0.622995 7:-0.390584 8:-0.574194 9:-0.898083 10:0.723465 11:0.494004 12:0.107998 13:-0.558343 14:-0.530051 15:-0.983934 16:0.0195657 17:-0.309476 18:-0.771712 
1 1:-1 2:0.695633 3:0.412081 4:0.0310144 5:0.821656 6:-0.493092 7:0.0741158 8:-0.611765 9:-0.833941 10:0.684926 11:0.815127 12:0.438878 13:-0.16684 14:-0.345691 15:-0.980539 16:-0.0642081 17:-0.375546 18:-0.918619 
1 1:-0.399999 2:0.883718 3:0.769391 4:-0.670542 5:0.841359 6:-0.653962 7:-0.436089 8:0.0476191 9:-0.963534 10:0.770677 11:-0.104401 12:-0.526578 13:-0.774941 14:-0.821745 15:-0.992934 16:0.482649 17:-0.574832 18:-0.783538 
1 1:-0.9 2:0.792003 3:0.666953 4:-0.425726 5:0.844946 6:-0.522153 7:-0.561405 8:-0.528571 9:-0.917719 10:0.778285 11:-0.569371 12:-0.661028 13:-0.866878 14:-0.848836 15:-0.995058 16:-0.135915 17:-0.297177 18:-0.692541 
1 1:-1 2:0.755316 3:0.625945 4:-0.526016 5:0.642888 6:-0.379228 7:-0.502132 8:-0.371429 9:-0.894811 10:0.64506 11:0.901228 12:0.201468 13:-0.383089 14:-0.534664 15:-0.986606 16:0.132387 17:-0.514888 18:-0.788771 
1 1:-0.98 2:0.79671 3:0.525479 4:-0.163629 5:0.886837 6:-0.718676 7:-0.0909105 8:-0.633333 9:-0.924264 10:0.775481 11:0.286416 12:-0.0407631 13:-0.541341 14:-0.591259 15:-0.980117 16:0.0155829 17:-0.10568 18:-0.705837 
1 1:-1 2:0.767491 3:0.633202 4:-0.538844 5:0.740157 6:-0.275607 7:-0.229784 8:-0.580952 9:-0.894811 10:0.599739 11:0.660913 12:-0.0705113 13:-0.362523 14:-0.647747 15:-0.987394 16:0.377659 17:-0.418343 18:-0.736087 
1 1:-1 2:0.772036 3:0.578728 4:-0.169438 5:0.840117 6:-0.471177 7:-0.436089 8:-0.393103 9:-0.873212 10:0.771112 11:0.593894 12:0.259394 13:-0.482053 14:-0.430068 15:-0.983163 16:-0.0833106 17:-0.0413893 18:-0.90851 
1 1:-0.76 2:0.80737 3:0.683918 4:-0.149611 5:0.808246 6:0.00905193 7:-0.134821 8:-0.12 9:-0.773726 10:0.808695 11:0.555049 12:0.218339 13:-0.539199 14:-0.454169 15:-0.985984 16:-0.00662747 17:-0.290206 18:-0.779253 
1 1:-1 2:0.803041 3:0.552227 4:-0.0677551 5:0.849568 6:-0.609497 7:-0.298247 8:-0.497143 9:-0.871903 10:0.79161 11:0.481583 12:0.12607 13:-0.504607 14:-0.511524 15:-0.985679 16:-0.142566 17:-0.269847 18:-0.803329 
1 1:-1 2:0.776257 3:0.539343 4:-0.0857682 5:0.760128 6:-0.248213 7:-0.0627263 8:-0.661538 9:-0.845722 10:0.790284 11:0.59039 12:0.302081 13:-0.367241 14:-0.382712 15:-0.968229 16:-0.0812439 17:0.126131 18:-0.750958 
1 1:-0.92 2:0.80856 3:0.658156 4:-0.204145 5:0.861709 6:-0.569795 7:-0.351116 8:-0.323077 9:-0.930809 10:0.82678 11:0.0130592 12:-0.160008 13:-0.700756 14:-0.59752 15:-0.98917 16:-0.119492 17:-0.255169 18:-0.814102 
1 1:-1 2:0.742546 3:0.611514 4:-0.245394 5:0.841566 6:-0.626965 7:-0.349495 8:-0.432258 9:-0.898083 10:0.741289 11:0.154059 12:-0.0720156 13:-0.63345 14:-0.572196 15:-0.985796 16:-0.193475 17:0.348906 18:-0.788331 
1 1:-1 2:0.777285 3:0.561647 4:-0.250323 5:0.796242 6:-0.494045 7:-0.199084 8:-0.290323 9:-0.857504 10:0.765656 11:0.416655 12:0.0912739 13:-0.510231 14:-0.520246 15:-0.970742 16:-0.147919 17:0.282682 18:-0.959948 
1 1:-1 2:0.7472 3:0.563283 4:-0.312077 5:0.87047 6:-0.619819 7:-0.571605 8:-0.674074 9:-0.924264 10:0.692229 11:0.574493 12:0.116681 13:-0.485428 14:-0.542351 15:-0.985175 16:-0.0109151 17:-0.46092 18:-0.844889 
1 1:-0.94 2:0.803907 3:0.628773 4:-0.464666 5:0.803941 6:-0.448309 7:-0.467021 8:-0.633333 9:-0.912482 10:0.748723 11:0.603215 12:0.0945501 13:-0.519007 14:-0.561751 15:-0.986103 16:0.226308 17:-0.408489 18:-0.937447 
1 1:-0.64 2:0.804664 3:0.727417 4:-0.618904 5:0.919036 6:-0.601556 7:-0.539474 8:-0.816667 9:-0.943899 10:0.74355 11:0.177396 12:-0.208293 13:-0.697875 14:-0.68525 15:-0.98858 16:0.0891621 17:-0.216357 18:-0.753303 
1 1:-1 2:0.74114 3:0.561243 4:-0.216129 5:0.702801 6:-0.212482 7:-0.298247 8:-0.56 9:-0.806452 10:0.717031 11:0.50091 12:0.140543 13:-0.441988 14:-0.505322 15:-0.98438 16:-0.159158 17:-0.368384 18:-0.922083 
1 1:-1 2:0.746551 3:0.516251 4:-0.186297 5:0.830017 6:-0.428299 7:-0.229784 8:-0.674074 9:-0.88892 10:0.717118 11:0.912129 12:0.42912 13:-0.216186 14:-0.389573 15:-0.981794 16:0.00450145 17:-0.357085 18:-0.970668 
1 1:-1 2:0.740923 3:0.46179 4:-0.114043 5:0.859488 6:-0.481658 7:-0.207695 8:-0.716129 9:-0.857504 10:0.716705 11:0.846691 12:0.399513 13:-0.288001 14:-0.39434 15:-0.977641 16:0.015472 17:-0.509709 18:-0.860455 
1 1:-1 2:0.657324 3:0.401531 4:-0.0462054 5:0.860295 6:-0.442354 7:-0.0187316 8:-0.790476 9:-0.894811 10:0.655863 11:0.501424 12:0.229697 13:-0.248746 14:-0.417168 15:-0.935496 16:-0.178384 17:0.411687 18:-0.982135 
1 1:-1 2:0.689303 3:0.454664 4:-0.204786 5:0.838627 6:-0.430205 7:0.132579 8:-0.830769 9:-0.896774 10:0.646908 11:0.846242 12:0.379427 13:-0.234665 14:-0.410992 15:-0.968131 16:-0.269442 17:-0.0277356 18:-0.813049 
1 1:-1 2:0.791245 3:0.557423 4:-0.265148 5:0.856604 6:-0.502303 7:-0.285253 8:-0.12 9:-0.937354 10:0.74005 11:0.499926 12:0.0428732 13:-0.422495 14:-0.577975 15:-0.976724 16:-0.0439021 17:-0.306902 18:-0.793661 
1 1:-1 2:0.678913 3:0.389215 4:-0.0284856 5:0.79845 6:0.0884548 7:-0.0712053 8:-0.0833333 9:-0.786816 10:0.675427 11:0.986725 12:0.602748 13:0.163338 14:-0.253889 15:-0.964394 16:-0.140701 17:-0.0715155 18:-0.973923 
1 1:-1 2:0.75932 3:0.553267 4:-0.172297 5:0.774615 6:-0.142211 7:-0.298247 8:-0.45 9:-0.865358 10:0.717878 11:0.848897 12:0.338543 13:-0.215091 14:-0.443326 15:-0.980593 16:-0.0796247 17:-0.235601 18:-0.651846 
1 1:-0.98 2:0.821059 3:0.62841 4:-0.391496 5:0.73926 6:0.175798 7:-0.388005 8:-0.816667 9:-0.786816 10:0.729595 11:0.853206 12:0.148665 13:-0.370002 14:-0.557605 15:-0.981247 16:0.27384 17:-0.39214 18:-0.709876 
1 1:-0.98 2:0.774417 3:0.605373 4:-0.372731 5:0.793593 6:-0.455931 7:-0.284621 8:-0.175 9:-0.849649 10:0.721509 11:0.0912502 12:-0.2342 13:-0.630675 14:-0.688067 15:-0.989901 16:0.140258 17:-0.228022 18:-0.964315 
1 1:-1 2:0.753206 3:0.520324 4:0.00317932 5:0.819525 6:-0.341115 7:-0.0333 8:-0.497143 9:-0.757363 10:0.765612 11:0.694088 12:0.389008 13:-0.391116 14:-0.339582 15:-0.982895 16:-0.147966 17:-0.257801 18:-0.934065 
1 1:-1 2:0.702018 3:0.567288 4:0.0807656 5:0.801933 6:-0.261315 7:-0.175647 8:-0.00645161 9:-0.796634 10:0.731507 11:0.912879 12:0.644142 13:-0.187611 14:-0.152845 15:-0.912072 16:-0.301629 17:0.205216 18:-0.973483 
1 1:-1 2:0.698122 3:0.434838 4:0.070174 5:0.930971 6:-0.622995 7:-0.0775895 8:-0.371429 9:-0.871903 10:0.709162 11:0.820759 12:0.50784 13:-0.162528 14:-0.271581 15:-0.981698 16:-0.13709 17:-0.381126 18:-0.989735 
1 1:-1 2:0.717169 3:0.49242 4:0.0344044 5:0.822484 6:-0.427346 7:-0.00276842 8:0.1 9:-0.818233 10:0.754918 11:0.866173 12:0.630583 13:-0.218526 14:-0.132753 15:-0.974215 16:-0.277225 17:-0.362094 18:-0.58821 
1 1:-1 2:0.758725 3:0.556574 4:-0.0982106 5:0.831094 6:-0.45212 7:-0.451753 8:0.164706 9:-0.833941 10:0.767895 11:0.725922 12:0.401699 13:-0.428854 14:-0.342353 15:-0.985722 16:-0.0842845 17:-0.549186 18:-0.957984 
1 1:-1 2:0.636816 3:0.383773 4:-0.0373363 5:0.867297 6:-0.661108 7:0.0410632 8:-0.706667 9:-0.904628 10:0.584002 11:0.92162 12:0.438091 13:-0.0812481 14:-0.385002 15:-0.952356 16:0.0721064 17:-0.145033 18:-0.955924 
1 1:-1 2:0.666847 3:0.481356 4:-0.0702656 5:0.755575 6:-0.41496 7:0.0396368 8:-0.12 9:-0.806452 10:0.68899 11:0.781885 12:0.520076 13:-0.221988 14:-0.22877 15:-0.971296 16:-0.212162 17:0.051471 18:-0.831675 
1 1:-1 2:0.77512 3:0.529231 4:-0.0394803 5:0.670275 6:0.113864 7:0.0678895 8:-0.45 9:-0.786816 10:0.778111 11:0.790323 12:0.423663 13:-0.217908 14:-0.35015 15:-0.972222 16:-0.0689629 17:-0.096534 18:-0.623328 
1 1:-1 2:0.699854 3:0.467021 4:-0.0221269 5:0.772339 6:-0.216055 7:0.0835895 8:-0.633333 9:-0.865358 10:0.69925 11:0.805409 12:0.458969 13:-0.102856 14:-0.319838 15:-0.960378 16:-0.258764 17:0.162085 18:-0.809197 
1 1:-0.84 2:0.80342 3:0.69303 4:-0.335935 5:0.502295 6:-0.593616 7:-0.463937 8:-0.266667 9:-0.865358 10:0.792023 11:0.127343 12:-0.139236 13:-0.700181 14:-0.625221 15:-0.990921 16:-0.00816755 17:-0.448623 18:-0.549606 
1 1:-0.96 2:0.789243 3:0.684404 4:-0.375956 5:0.910482 6:-0.653962 7:-0.372284 8:-0.388889 9:-0.865358 10:0.770612 11:0.289795 12:-0.0279208 13:-0.645527 14:-0.581797 15:-0.987237 16:0.0494923 17:-0.395802 18:-0.897685 
1 1:-1 2:0.718035 3:0.5301 4:-0.176585 5:0.835895 6:-0.46546 7:-0.0789474 8:-0.528571 9:-0.881066 10:0.715444 11:0.787005 12:0.431119 13:-0.293481 14:-0.340832 15:-0.98037 16:-0.164305 17:-0.310932 18:-0.898589 
1 1:-0.96 2:0.815324 3:0.640185 4:-0.502781 5:0.821408 6:-0.360648 7:-0.429295 8:-1 9:-0.912482 10:0.73955 11:0.525698 12:-0.0165071 13:-0.549919 14:-0.616363 15:-0.984006 16:0.133717 17:-0.45488 18:-0.525112 
1 1:-0.94 2:0.806883 3:0.630601 4:-0.227436 5:0.800588 6:-0.382801 7:-0.318884 8:-0.371429 9:-0.826087 10:0.790849 11:0.56761 12:0.174602 13:-0.4969 14:-0.497225 15:-0.983305 16:-0.0489261 17:-0.0940315 18:-0.715378 
1 1:-1 2:0.774796 3:0.510302 4:-0.0769174 5:0.86222 6:-0.40162 7:-0.0643263 8:-0.8625 9:-0.849649 10:0.787849 11:0.647191 12:0.344994 13:-0.371592 14:-0.364506 15:-0.966542 16:-0.202181 17:-0.0111482 18:-0.904852 
1 1:-0.96 2:0.778367 3:0.63527 4:-0.0199097 5:0.807935 6:-0.317294 7:-0.181284 8:-0.333333 9:-0.776999 10:0.805652 11:0.604498 12:0.357049 13:-0.499817 14:-0.323214 15:-0.97174 16:-0.200677 17:-0.204937 18:-0.918275 
1 1:-0.92 2:0.830691 3:0.702683 4:-0.429336 5:0.673448 6:-0.0894077 7:-0.624058 8:-0.8 9:-0.812997 10:0.799544 11:0.512327 12:0.0740045 13:-0.579522 14:-0.559416 15:-0.987935 16:0.11199 17:-0.460679 18:-0.815774 
1 1:-1 2:0.675667 3:0.432681 4:-0.0779986 5:0.755679 6:-0.426394 7:-0.0320632 8:-0.56 9:-0.865358 10:0.658276 11:0.274907 12:0.0106009 13:-0.447129 14:-0.541675 15:-0.985522 16:-0.122018 17:-0.183028 18:-0.824949 
1 1:-1 2:0.761701 3:0.56546 4:-0.394647 5:0.831176 6:-0.499762 7:-0.440089 8:-0.393103 9:-0.873212 10:0.70138 11:0.757694 12:0.221171 13:-0.428975 14:-0.506211 15:-0.986049 16:0.0842212 17:-0.241142 18:-0.948085 
1 1:-0.92 2:0.796061 3:0.655411 4:-0.414676 5:0.723642 6:-0.556932 7:-0.521532 8:-0.371429 9:-0.881066 10:0.761178 11:0.0877927 12:-0.214129 13:-0.694272 14:-0.673486 15:-0.989815 16:0.0118059 17:-0.563098 18:-0.807644 
1 1:-0.92 2:0.77788 3:0.683863 4:-0.396938 5:0.842104 6:-0.558838 7:-0.179768 8:-0.0833333 9:-0.912482 10:0.727725 11:-0.594447 12:-0.711458 13:-0.854297 14:-0.880893 15:-0.995411 16:0.0928004 17:-0.323951 18:-0.938208 
1 1:-1.01e-06 2:0.829879 3:0.816793 4:-0.586121 5:0.798519 6:-0.286327 7:-0.235995 8:-0.511111 9:-0.924264 10:0.761678 11:0.090875 12:-0.295771 13:-0.764256 14:-0.724946 15:-0.985531 16:0.0983313 17:-0.529759 18:-0.500887 
1 1:-0.96 2:0.761864 3:0.627273 4:-0.278433 5:0.928004 6:-0.698428 7:-0.301353 8:-0.189474 9:-0.852267 10:0.746332 11:0.368591 12:0.0523332 13:-0.59086 14:-0.53829 15:-0.984561 16:-0.0530277 17:-0.391249 18:-0.792101 
1 1:-1 2:0.693631 3:0.515696 4:-0.0718415 5:0.854107 6:-0.678895 7:-0.233521 8:-0.266667 9:-0.818233 10:0.686621 11:0.658833 12:0.328179 13:-0.364923 14:-0.388807 15:-0.977843 16:-0.105513 17:-0.135247 18:-0.932266 
1 1:-0.96 2:0.825821 3:0.661798 4:-0.403077 5:0.692902 6:0.105923 7:-0.580811 8:-0.12 9:-0.642824 10:0.786632 11:-0.799894 12:-0.857357 13:-0.929295 14:-0.940602 15:-0.997991 16:0.193832 17:-0.241185 18:-0.675751 
1 1:-0.64 2:0.829122 3:0.767344 4:-0.485757 5:0.848643 6:-0.582658 7:-0.421053 8:-0.432258 9:-0.857504 10:0.791392 11:0.378541 12:-0.0361845 13:-0.672812 14:-0.60856 15:-0.98532 16:0.0801354 17:-0.303135 18:-0.799857 
1 1:-0.94 2:0.771495 3:0.616635 4:-0.602888 5:0.901317 6:-0.775676 7:-0.396932 8:-0.56 9:-0.932679 10:0.720922 11:0.407218 12:-0.00691584 13:-0.592027 14:-0.594274 15:-0.981357 16:0.00848427 17:0.0814904 18:-0.893512 
1 1:-1 2:0.694281 3:0.546942 4:0.063962 5:0.828424 6:-0.280372 7:-0.00426842 8:-0.528571 9:-0.826087 10:0.729877 11:0.840617 12:0.606479 13:-0.160207 14:-0.147836 15:-0.973966 16:-0.293454 17:-0.0571227 18:-0.749951 
1 1:-1 2:0.721173 3:0.601614 4:-0.441375 5:0.791413 6:0.064634 7:-0.258711 8:0.4 9:-0.812997 10:0.651255 11:0.766292 12:0.233463 13:-0.349804 14:-0.499667 15:-0.98252 16:-0.0223014 17:-0.228947 18:-0.400737 
1 1:-1 2:0.718955 3:0.507009 4:-0.315082 5:0.873313 6:-0.545498 7:-0.146516 8:-0.617391 9:-0.920337 10:0.650103 11:0.895271 12:0.327609 13:-0.140014 14:-0.460499 15:-0.971715 16:0.0583526 17:-0.517719 18:-0.962128 
1 1:-0.92 2:0.847411 3:0.67827 4:-0.0599305 5:0.821242 6:-0.440686 7:-0.466058 8:-0.472 9:-0.904628 10:0.876883 11:0.052486 12:-0.110643 13:-0.694918 14:-0.561439 15:-0.983237 16:-0.176523 17:-0.117931 18:-0.982098 
1 1:-0.98 2:0.664466 3:0.595932 4:-0.362231 5:0.885766 6:-0.619819 7:-0.171542 8:-0.388889 9:-0.899018 10:0.624584 11:0.214145 12:-0.0742216 13:-0.610866 14:-0.597361 15:-0.988527 16:0.0131203 17:-0.215599 18:-0.859186 
1 1:-0.98 2:0.786051 3:0.651235 4:-0.278726 5:0.788999 6:-0.127918 7:-0.330142 8:-0.189474 9:-0.72791 10:0.78774 11:0.55981 12:0.234179 13:-0.537701 14:-0.440636 15:-0.983703 16:-0.130202 17:-0.146629 18:-0.891788 
1 1:-0.98 2:0.791083 3:0.657937 4:-0.227949 5:0.882612 6:-0.677783 7:-0.595142 8:-0.661538 9:-0.930809 10:0.777176 11:0.459079 12:0.109215 13:-0.551721 14:-0.518747 15:-0.988819 16:0.0539304 17:-0.759311 18:-0.868525 
1 1:-0.96 2:0.753909 3:0.620845 4:-0.182064 5:0.854604 6:-0.513101 7:-0.239063 8:-0.56 9:-0.865358 10:0.772047 11:0.481304 12:0.234962 13:-0.560777 14:-0.399181 15:-0.981986 16:-0.255451 17:-0.198417 18:-0.982605 
1 1:-1 2:0.634976 3:0.472915 4:-0.0468101 5:0.816731 6:-0.343497 7:0.370616 8:-0.874286 9:-0.757363 10:0.645082 11:0.948507 12:0.630149 13:-0.0362553 14:-0.198801 15:-0.967671 16:-0.211723 17:0.0245023 18:-0.953878 
1 1:0.7 2:0.892863 3:0.90649 4:-0.668398 5:0.815144 6:-0.670637 7:-0.612189 8:-0.185185 9:-0.924264 10:0.84043 11:-0.325203 12:-0.57981 13:-0.873271 14:-0.83775 15:-0.994506 16:0.27211 17:-0.596283 18:-0.702209 
1 1:-1 2:0.673665 3:0.53861 4:0.144334 5:0.867601 6:-0.405431 7:0.395053 8:-0.333333 9:-0.841795 10:0.73379 11:0.70994 12:0.579774 13:-0.298317 14:-0.0439247 15:-0.964724 16:-0.357559 17:0.132915 18:-0.868525 
1 1:-1 2:0.722039 3:0.482445 4:0.0961399 5:0.723083 6:-0.331586 7:-0.195047 8:-0.00645161 9:-0.796634 10:0.741224 11:0.91278 12:0.601365 13:-0.220307 14:-0.212287 15:-0.909667 16:-0.241859 17:0.198006 18:-0.972221 
1 1:-1 2:0.667605 3:0.566877 4:-0.150637 5:0.664894 6:-0.0385898 7:0.141405 8:-0.842857 9:-0.734455 10:0.635735 11:0.751382 12:0.34609 13:-0.216229 14:-0.409165 15:-0.980994 16:-0.0252747 17:-0.426749 18:-0.974923 
1 1:-1 2:0.713219 3:0.506625 4:-0.051208 5:0.807335 6:-0.554073 7:0.101589 8:-0.706667 9:-0.865358 10:0.708119 11:0.766094 12:0.409251 13:-0.290124 14:-0.353988 15:-0.972048 16:-0.171705 17:-0.0893386 18:-0.974057 
1 1:-0.98 2:0.778529 3:0.529943 4:-0.121666 5:0.86709 6:-0.627759 7:-0.3135 8:-0.34 9:-0.839177 10:0.782132 11:0.669697 12:0.329391 13:-0.469553 14:-0.392554 15:-0.982793 16:-0.134755 17:-0.314208 18:-0.919283 
1 1:-1 2:0.734268 3:0.543505 4:-0.0858965 5:0.876196 6:-0.676989 7:-0.0342842 8:-0.189474 9:-0.852267 10:0.732116 11:0.287212 12:0.0332314 13:-0.560053 14:-0.524162 15:-0.983007 16:-0.204078 17:0.0153833 18:-0.865927 
1 1:-0.8 2:0.782101 3:0.700848 4:-0.341286 5:0.767786 6:-0.217246 7:-0.571605 8:-0.241379 9:-0.816269 10:0.771829 11:0.29447 12:-0.000560334 13:-0.653187 14:-0.559731 15:-0.989335 16:-0.0709702 17:-0.418289 18:-0.604194 
1 1:-1 2:0.699529 3:0.583349 4:-0.115967 5:0.782687 6:-0.287518 7:-0.0746105 8:-0.2 9:-0.776999 10:0.713357 11:0.623764 12:0.355691 13:-0.42844 14:-0.337881 15:-0.975275 16:-0.274818 17:0.00646763 18:-0.780253 
1 1:-0.96 2:0.772956 3:0.691599 4:-0.444014 5:0.553896 6:-0.636494 7:-0.565426 8:-0.371429 9:-0.871903 10:0.736724 11:0.546155 12:0.125288 13:-0.589545 14:-0.530037 15:-0.986961 16:0.0595443 17:-0.188657 18:-0.875035 
1 1:-1 2:0.725989 3:0.438623 4:0.0651897 5:0.810895 6:-0.434016 7:-0.322563 8:0.21 9:-0.786816 10:0.784936 11:0.572712 12:0.450635 13:-0.425272 14:-0.13025 15:-0.978613 16:-0.432393 17:-0.105743 18:-0.890436 
1 1:-1 2:0.76603 3:0.52843 4:-0.280137 5:0.350251 6:-0.500715 7:-0.0672895 8:-0.472 9:-0.85554 10:0.720422 11:0.969586 12:0.407893 13:-0.225228 14:-0.420017 15:-0.975823 16:-0.0349981 17:-0.245984 18:-0.805457 
1 1:-0.96 2:0.787566 3:0.620304 4:-0.0963781 5:0.677449 6:-0.242258 7:-0.0333 8:-0.352941 9:-0.767181 10:0.791284 11:0.6794 12:0.333076 13:-0.457978 14:-0.393124 15:-0.981132 16:-0.215915 17:-0.153699 18:-0.818245 
1 1:-1 2:0.669066 3:0.455608 4:-0.128739 5:0.865642 6:-0.750834 7:0.0204105 8:-0.733333 9:-0.884993 10:0.636279 11:0.953899 12:0.496618 13:-0.131689 14:-0.345227 15:-0.982127 16:-0.00274363 17:-0.255025 18:-0.844807 
1 1:-1 2:0.813538 3:0.625329 4:-0.022072 5:0.863848 6:-0.608703 7:-0.0775895 8:-0.371429 9:-0.871903 10:0.837692 11:0.12892 12:-0.0530551 13:-0.651239 14:-0.537499 15:-0.986795 16:-0.124323 17:-0.0703597 18:-0.888727 
1 1:-1 2:0.773172 3:0.580843 4:0.012928 5:0.853693 6:-0.459743 7:-0.294626 8:-0.497143 9:-0.826087 10:0.792696 11:0.627682 12:0.351304 13:-0.494465 14:-0.345793 15:-0.982533 16:-0.202067 17:-0.544199 18:-0.905651 
1 1:-0.159999 2:0.908717 3:0.786396 4:-0.264103 5:0.876127 6:-0.598857 7:-0.401916 8:0.1 9:-0.881066 10:0.903532 11:-0.805757 12:-0.853021 13:-0.946737 14:-0.936456 15:-0.99881 16:0.211299 17:-0.540334 18:-0.808055 
1 1:-0.92 2:0.820789 3:0.685177 4:-0.501571 5:0.903528 6:-0.371129 7:-0.422337 8:-0.426087 9:-0.920337 10:0.731833 11:-0.187825 12:-0.500883 13:-0.760693 14:-0.808115 15:-0.993676 16:0.211517 17:-0.572845 18:-0.90527 
1 1:-1 2:0.684216 3:0.468246 4:-0.185747 5:0.789827 6:-0.224393 7:0.0526316 8:-0.696552 9:-0.816269 10:0.662015 11:0.864041 12:0.449974 13:-0.216661 14:-0.355072 15:-0.979328 16:-0.0418235 17:-0.230325 18:-0.956715 
1 1:-1 2:0.734538 3:0.496671 4:-0.10248 5:0.824719 6:-0.430205 7:0.0936421 8:-1 9:-0.88892 10:0.73542 11:0.735806 12:0.393526 13:-0.245412 14:-0.356254 15:-0.97767 16:-0.152899 17:0.0299034 18:-0.901612 
1 1:-1 2:0.760078 3:0.52322 4:-0.564168 5:0.636472 6:0.0138161 7:-0.415205 8:-1 9:-0.891538 10:0.488164 11:0.96131 12:-0.0658267 13:-0.10252 14:-0.640953 15:-0.986827 16:0.486264 17:-0.641812 18:-0.995976 
1 1:-1 2:0.743304 3:0.569376 4:-0.137077 5:0.888614 6:-0.608703 7:0.0233895 8:-1 9:-0.950444 10:0.69675 11:0.869265 12:0.350335 13:-0.222451 14:-0.439362 15:-0.980539 16:-0.0776214 17:-0.24068 18:-0.831698 
1 1:-0.88 2:0.778908 3:0.660182 4:-0.402032 5:0.921658 6:-0.827855 7:-0.382537 8:-0.2 9:-0.860994 10:0.721661 11:0.677302 12:0.160256 13:-0.554106 14:-0.532019 15:-0.988127 16:0.166736 17:-0.517452 18:-0.874983 
1 1:-0.84 2:0.825226 3:0.705948 4:-0.192747 5:0.929439 6:-0.898523 7:-0.229784 8:-0.12 9:-0.845722 10:0.796566 11:-0.0586438 12:-0.321768 13:-0.75594 14:-0.718684 15:-0.991545 16:0.0806422 17:-0.411507 18:-0.815535 
1 1:-1 2:0.621665 3:0.495446 4:-0.25397 5:0.845291 6:-0.561061 7:0.0902263 8:-0.9 9:-0.812997 10:0.532312 11:0.290413 12:-0.0827225 13:-0.481046 14:-0.623354 15:-0.986468 16:-0.0678227 17:-0.296052 18:-0.60238 
1 1:-0.98 2:0.783183 3:0.636365 4:-0.240153 5:0.83722 6:-0.473082 7:-0.429295 8:-0.371429 9:-0.881066 10:0.773242 11:0.641649 12:0.262923 13:-0.507082 14:-0.445251 15:-0.980264 16:-0.104456 17:-0.120093 18:-0.906943 
1 1:-0.98 2:0.80434 3:0.642506 4:-0.208103 5:0.947527 6:-0.873273 7:-0.466574 8:-0.472 9:-0.904628 10:0.799152 11:0.477793 12:0.140669 13:-0.596043 14:-0.497387 15:-0.985473 16:-0.0653443 17:-0.375027 18:-0.939761 
1 1:-0.92 2:0.842216 3:0.674511 4:-0.469009 5:0.829024 6:-0.367318 7:-0.294626 8:-0.371429 9:-0.881066 10:0.776111 11:0.571512 12:0.0112218 13:-0.523392 14:-0.605827 15:-0.971677 16:0.17815 17:-0.191102 18:-0.947271 
1 1:-1 2:0.765381 3:0.557697 4:-0.236818 5:0.899996 6:-0.561855 7:-0.0468316 8:-0.685714 9:-0.826087 10:0.742224 11:0.70335 12:0.280768 13:-0.444033 14:-0.449958 15:-0.983603 16:-0.0258962 17:-0.357524 18:-0.930459 
1 1:-1 2:0.805368 3:0.636194 4:-0.432616 5:0.751126 6:-0.24464 7:-0.448621 8:-0.45 9:-0.786816 10:0.75231 11:0.178068 12:-0.192477 13:-0.648704 14:-0.675699 15:-0.988222 16:-0.0279985 17:-0.174527 18:-0.719372 
1 1:-0.98 2:0.785618 3:0.579515 4:-0.13409 5:0.829024 6:-0.440686 7:-0.106258 8:-0.524324 9:-0.810379 10:0.791827 11:0.755875 12:0.402588 13:-0.438999 14:-0.356195 15:-0.977808 16:-0.105489 17:-0.0451133 18:-0.607076 
1 1:-0.84 2:0.825605 3:0.693796 4:-0.0580981 5:0.882612 6:-0.677783 7:-0.373432 8:-0.00645161 9:-0.898083 10:0.859841 11:0.265407 12:0.0854535 13:-0.655953 14:-0.448662 15:-0.988781 16:-0.134628 17:-0.283889 18:-0.912355 
1 1:-1 2:0.74628 3:0.555643 4:-0.379017 5:0.817352 6:-0.52263 7:-0.449205 8:-0.348148 9:-0.88892 10:0.691012 11:0.678373 12:0.189974 13:-0.437695 14:-0.51247 15:-0.985462 16:0.0197636 17:-0.350706 18:-0.840738 
1 1:-0.96 2:0.820031 3:0.62956 4:-0.261043 5:0.859902 6:-0.393997 7:-0.490663 8:-0.696552 9:-0.873212 10:0.782306 11:0.214929 12:-0.144243 13:-0.602762 14:-0.650695 15:-0.98984 16:0.0957302 17:-0.228724 18:-0.815841 
1 1:-0.98 2:0.805476 3:0.672142 4:-0.175467 5:0.808867 6:-0.388757 7:-0.350226 8:-0.393103 9:-0.816269 10:0.825432 11:0.700738 12:0.398282 13:-0.492547 14:-0.332471 15:-0.983286 16:-0.212443 17:-0.303514 18:-0.648241 
1 1:-0.54 2:0.846599 3:0.801615 4:-0.389168 5:0.854273 6:-0.431158 7:-0.578947 8:-0.482353 9:-0.833941 10:0.851886 11:-0.394291 12:-0.517073 13:-0.860323 14:-0.781189 15:-0.992216 16:-0.056282 17:-0.225351 18:-0.685531 
1 1:-0.9 2:0.788107 3:0.710439 4:-0.293624 5:0.860054 6:-0.678577 7:-0.315789 8:0.0352941 9:-0.878448 10:0.782806 11:0.805699 12:0.39971 13:-0.531285 14:-0.379915 15:-0.966344 16:-0.102433 17:-0.174562 18:-0.840865 
1 1:-0.98 2:0.721281 3:0.505283 4:-0.200645 5:0.822484 6:-0.427346 7:-0.186111 8:-0.466667 9:-0.841795 10:0.704184 11:0.438609 12:0.120013 13:-0.504451 14:-0.501964 15:-0.984976 16:-0.0530435 17:-0.184389 18:-0.971922 
1 1:-0.9 2:0.792273 3:0.689976 4:-0.10303 5:0.800299 6:-0.531205 7:-0.603847 8:-0.12 9:-0.826087 10:0.831692 11:-0.0124436 12:-0.124682 13:-0.728623 14:-0.532397 15:-0.989077 16:-0.364178 17:-0.335712 18:-0.750428 
1 1:-1 2:0.716466 3:0.552727 4:-0.140595 5:0.800071 6:-0.303001 7:-0.0581737 8:-0.175 9:-0.786816 10:0.69312 11:0.843259 12:0.413375 13:-0.350337 14:-0.381058 15:-0.962562 16:-0.109167 17:-0.0052749 18:-0.636669 
1 1:-1 2:0.728316 3:0.5166 4:-0.171894 5:0.861392 6:-0.515007 7:-0.102868 8:-0.393103 9:-0.873212 10:0.695272 11:0.871922 12:0.400321 13:-0.247486 14:-0.401397 15:-0.973416 16:-0.176558 17:-0.198712 18:-0.96312 
1 1:-0.94 2:0.806558 3:0.641698 4:-0.0125065 5:0.827286 6:-0.457837 7:0.127821 8:-0.706667 9:-0.865358 10:0.825649 11:0.708217 12:0.400346 13:-0.442093 14:-0.334292 15:-0.973088 16:-0.164519 17:-0.366782 18:-0.946457 
1 1:-1 2:0.74628 3:0.542677 4:-0.338794 5:0.771511 6:-0.126727 7:-0.376732 8:-0.633333 9:-0.865358 10:0.694207 11:0.741479 12:0.242539 13:-0.421774 14:-0.488729 15:-0.984879 16:0.0805471 17:-0.536659 18:-0.995394 
1 1:-0.9 2:0.823494 3:0.711637 4:-0.117598 5:0.862303 6:-0.517866 7:-0.293968 8:-0.0896552 9:-0.873212 10:0.840756 11:-0.191275 12:-0.329487 13:-0.765505 14:-0.680256 15:-0.991938 16:-0.155761 17:-0.303379 18:-0.987174 
1 1:-1 2:0.746605 3:0.54028 4:0.00524999 5:0.790965 6:-0.38161 7:-0.0430632 8:-0.544828 9:-0.816269 10:0.783219 11:0.730415 12:0.504781 13:-0.330901 14:-0.209013 15:-0.975974 16:-0.327054 17:-0.0118996 18:-0.982165 
1 1:-0.94 2:0.820789 3:0.66748 4:-0.419386 5:0.621847 6:0.328252 7:-0.359884 8:-0.617391 9:-0.799907 10:0.781785 11:0.624364 12:0.138413 13:-0.513416 14:-0.537108 15:-0.982969 16:0.0996773 17:-0.301386 18:-0.827734 
1 1:-1 2:0.777122 3:0.579276 4:-0.10358 5:0.517679 6:0.530729 7:-0.282295 8:-0.234783 9:-0.649369 10:0.781306 11:0.663018 12:0.327175 13:-0.312905 14:-0.3918 15:-0.980667 16:-0.0769681 17:-0.498081 18:-0.893221 
1 1:-1 2:0.690763 3:0.416141 4:0.0951687 5:0.916608 6:-0.841353 7:-0.0430632 8:-0.395 9:-0.786816 10:0.705249 11:0.469305 12:0.2337 13:-0.513427 14:-0.393129 15:-0.980572 16:-0.292575 17:-0.0736094 18:-0.826935 
1 1:-0.8 2:0.830312 3:0.720469 4:-0.298517 5:0.951425 6:-0.94021 7:-0.333174 8:-0.617391 9:-0.875175 10:0.796174 11:-0.421625 12:-0.589487 13:-0.85203 14:-0.831163 15:-0.995798 16:0.151482 17:-0.571722 18:-0.709368 
1 1:-0.499999 2:0.865646 3:0.77104 4:-0.576904 5:0.844215 6:-0.81515 7:-0.436089 8:-0.315556 9:-0.924264 10:0.775111 11:-0.00769666 12:-0.422427 13:-0.763408 14:-0.780601 15:-0.989438 16:0.19787 17:-0.413574 18:-0.514899 
1 1:-0.6 2:0.869975 3:0.749749 4:-0.188294 5:0.905412 6:-0.76334 7:-0.766084 8:-0.804444 9:-0.880084 10:0.872275 11:-0.241299 12:-0.415324 13:-0.814985 14:-0.743539 15:-0.995205 16:0.0693074 17:-0.912015 18:-0.699484 
1 1:-1 2:0.67637 3:0.443498 4:-0.348286 5:0.855087 6:-0.627759 7:-0.194416 8:-0.56 9:-0.904628 10:0.585284 11:0.861377 12:0.281677 13:-0.252699 14:-0.484533 15:-0.98038 16:0.0832116 17:-0.246781 18:-0.971079 
1 1:-0.96 2:0.818354 3:0.658882 4:-0.316236 5:0.852603 6:-0.699222 7:-0.152542 8:-0.352941 9:-0.878448 10:0.74205 11:-0.0525265 12:-0.395212 13:-0.674397 14:-0.764696 15:-0.983435 16:0.0449948 17:0.0587239 18:-0.724702 
1 1:0.98 2:0.928197 3:0.902848 4:-0.422079 5:0.882395 6:-0.729395 7:-0.267737 8:-0.371429 9:-0.904628 10:0.913727 11:-0.699531 12:-0.794155 13:-0.945394 14:-0.916629 15:-0.997463 16:0.249659 17:-0.556662 18:-0.502775 
1 1:-1 2:0.759483 3:0.630881 4:-0.141603 5:0.863365 6:-0.680165 7:-0.468858 8:-0.643243 9:-0.858813 10:0.74818 11:0.440718 12:0.118594 13:-0.580196 14:-0.504072 15:-0.986548 16:-0.1219 17:-0.223017 18:-0.751996 
1 1:-0.6 2:0.799145 3:0.693968 4:-0.312865 5:0.859226 6:-0.513419 7:-0.758568 8:-0.755556 9:-0.865358 10:0.782632 11:-0.534307 12:-0.639569 13:-0.874044 14:-0.841623 15:-0.997313 16:-0.0142368 17:-0.583229 18:-0.621574 
1 1:-0.96 2:0.816622 3:0.586546 4:-0.111093 5:0.837978 6:-0.622995 7:-0.521532 8:-0.6 9:-0.884993 10:0.807934 11:0.647245 12:0.250141 13:-0.492327 14:-0.458354 15:-0.982759 16:-0.173451 17:-0.367493 18:-0.83281 
1 1:-0.96 2:0.760998 3:0.669513 4:-0.240501 5:0.784446 6:-0.454264 7:0.0204105 8:-0.725 9:-0.786816 10:0.730312 11:-0.562214 12:-0.666121 13:-0.852797 14:-0.855147 15:-0.992566 16:-0.182489 17:-0.192129 18:-0.325253 
1 1:-0.98 2:0.765218 3:0.582493 4:-0.558561 5:0.885371 6:-0.703986 7:-0.517142 8:-0.432258 9:-0.898083 10:0.660341 11:0.64268 12:0.0391325 13:-0.510764 14:-0.597347 15:-0.985782 16:0.308162 17:-0.385256 18:-0.882822 
1 1:-1 2:0.73562 3:0.493755 4:-0.300624 5:0.850361 6:-0.314912 7:-0.144737 8:0.184615 9:-0.845722 10:0.69675 11:0.624 12:0.197843 13:-0.293298 14:-0.49429 15:-0.971548 16:-0.112315 17:0.142098 18:-0.968309 
1 1:-1 2:0.780585 3:0.586238 4:-0.138653 5:0.820973 6:-0.0945688 7:-0.248121 8:-0.432258 9:-0.796634 10:0.774851 11:0.512001 12:0.17809 13:-0.472573 14:-0.475543 15:-0.986049 16:-0.0645723 17:-0.212613 18:-0.712937 
1 1:-1 2:0.692657 3:0.488627 4:0.126485 5:0.727533 6:-0.300619 7:-0.000668421 8:-0.393103 9:-0.816269 10:0.712314 11:0.608751 12:0.362218 13:-0.306511 14:-0.319265 15:-0.948318 16:-0.448463 17:0.127303 18:-0.835542 
1 1:-1 2:0.816135 3:0.582035 4:-0.063962 5:0.455592 6:0.778466 7:-0.0131579 8:-0.674074 9:-0.570828 10:0.812738 11:0.637073 12:0.260298 13:-0.410742 14:-0.445994 15:-0.984275 16:-0.00268424 17:-0.485113 18:-0.824635 
1 1:-0.98 2:0.774417 3:0.683432 4:-0.240483 5:0.760646 6:-0.393521 7:-0.561405 8:-0.472 9:-0.85554 10:0.776568 11:0.712696 12:0.360356 13:-0.515881 14:-0.380143 15:-0.985624 16:-0.0665716 17:-0.743884 18:-0.822082 
1 1:-0.94 2:0.783886 3:0.666624 4:-0.511833 5:0.824719 6:-0.492139 7:-0.185463 8:-0.648 9:-0.904628 10:0.71151 11:-0.981617 12:-0.991025 13:-0.973411 14:-0.996147 15:-0.99898 16:0.0114773 17:-0.163863 18:-0.182707 
1 1:-0.98 2:0.753747 3:0.553541 4:-0.134622 5:0.856425 6:-0.564555 7:-0.307479 8:-0.661538 9:-0.896774 10:0.745289 11:0.753177 12:0.369018 13:-0.322109 14:-0.388585 15:-0.976135 16:-0.101958 17:-0.0577898 18:-0.722821 
1 1:-0.98 2:0.842162 3:0.650324 4:-0.42688 5:0.583629 6:-0.0735271 7:-0.362042 8:-0.755556 9:-0.865358 10:0.748766 11:0.645767 12:-0.00864227 13:-0.446917 14:-0.620753 15:-0.984526 16:0.46772 17:-0.324156 18:-0.99343 
1 1:-1 2:0.763054 3:0.478043 4:0.00437041 5:0.723083 6:-0.331586 7:-0.210526 8:-0.241379 9:-0.816269 10:0.783632 11:0.696436 12:0.414466 13:-0.364203 14:-0.310133 15:-0.980424 16:-0.217752 17:-0.213772 18:-0.781955 
1 1:-0.199999 2:0.872626 3:0.775956 4:-0.460909 5:0.7825 6:-0.455931 7:-0.398495 8:-0.580952 9:-0.936045 10:0.834583 11:0.047811 12:-0.29565 13:-0.749834 14:-0.719916 15:-0.989205 16:0.231186 17:-0.893685 18:-0.810145 
1 1:-0.84 2:0.917375 3:0.755219 4:-0.404653 5:0.822733 6:-0.560743 7:-0.438595 8:-0.56 9:-0.943899 10:0.850821 11:-0.0588056 12:-0.456395 13:-0.752965 14:-0.793791 15:-0.99309 16:0.523356 17:-0.624215 18:-0.72577 
0.7163869106039787 1:-1 2:0.534224 3:0.494549 4:0.139514 5:0.699594 6:0.666508 7:0.270416 8:-0.426087 9:-0.649369 10:0.591371 11:0.961487 12:0.799552 13:0.143105 14:0.0763506 15:-0.965165 16:-0.369016 17:0.152615 18:-0.99991 
1 1:-1 2:0.748011 3:0.473458 4:-0.0759876 5:0.867214 6:-0.386082 7:-0.0726947 8:-0.937807 9:-0.836662 10:0.725269 11:0.87651 12:0.454123 13:-0.128882 14:-0.351501 15:-0.972837 16:-0.159123 17:-0.200242 18:-0.903568 
1 1:-1 2:0.63357 3:0.546399 4:-0.0391303 5:0.849491 6:-0.603384 7:0.189421 8:-0.567244 9:-0.871357 10:0.625454 11:0.769129 12:0.443871 13:-0.250585 14:-0.384901 15:-0.948348 16:-0.143096 17:-0.0870763 18:-0.833079 
1 1:-1 2:0.695092 3:0.468058 4:-0.0618508 5:0.848745 6:-0.585486 7:0.188747 8:-0.511895 9:-0.866454 10:0.551679 11:0.780292 12:0.245078 13:-0.486242 14:-0.286943 15:-0.975369 16:-0.312726 17:0.0576585 18:-0.828689 
1 1:-1 2:0.631513 3:0.371046 4:-0.0327807 5:0.85551 6:-0.603812 7:0.1549 8:-0.694608 9:-0.892501 10:0.572068 11:0.921488 12:0.555347 13:-0.0622494 14:-0.277194 15:-0.952233 16:0.00947404 17:0.200663 18:-0.957812 
1 1:-1 2:0.795195 3:0.491034 4:-0.0230303 5:0.849375 6:-0.585032 7:0.0475211 8:-0.507935 9:-0.868709 10:0.556961 11:0.767683 12:0.221443 13:-0.260592 14:-0.440114 15:-0.983681 16:-0.309943 17:-0.0658043 18:-0.865412 
1 1:-1 2:0.626102 3:0.529476 4:-0.0322071 5:0.849034 6:-0.604356 7:-0.117874 8:-0.573977 9:-0.870885 10:0.664797 11:0.690586 12:0.16704 13:-0.218558 14:-0.46656 15:-0.976091 16:-0.308922 17:-0.00560541 18:-0.848518 
1 1:-1 2:0.628375 3:0.355052 4:-0.0164047 5:0.849702 6:-0.588913 7:0.0765105 8:-0.649048 9:-0.877893 10:0.568677 11:0.89767 12:0.554676 13:-0.0425745 14:-0.377256 15:-0.951206 16:-0.128068 17:-0.0851856 18:-0.959037 
1 1:-1 2:0.678968 3:0.50328 4:-0.0908916 5:0.850872 6:-0.557052 7:-0.0415789 8:-0.479543 9:-0.865427 10:0.665493 11:0.87491 12:0.481918 13:-0.209063 14:-0.336884 15:-0.96318 16:-0.302263 17:0.0104276 18:-0.96206 
1 1:-1 2:0.664033 3:0.36511 4:-0.187419 5:0.84264 6:-0.544728 7:0.149389 8:-0.69285 9:-0.857504 10:0.611955 11:0.783736 12:0.379049 13:-0.140314 14:-0.342964 15:-0.953868 16:-0.309579 17:-0.114893 18:-0.940627 
1 1:-1 2:0.658352 3:0.423574 4:-0.0726275 5:0.848005 6:-0.483133 7:0.0137947 8:-0.563321 9:-0.843428 10:0.66821 11:0.859955 12:0.451195 13:-0.0451087 14:-0.359615 15:-0.961536 16:-0.24159 17:0.112126 18:-0.950063 
1 1:-0.943084 2:0.773335 3:0.588966 4:-0.318837 5:0.803763 6:-0.443984 7:-0.365474 8:-0.634991 9:-0.811054 10:0.708814 11:0.777179 12:0.203719 13:-0.415478 14:-0.546279 15:-0.983841 16:0.0880971 17:-0.380407 18:-0.862418 
1 1:-0.98832 2:0.777501 3:0.596072 4:-0.351555 5:0.803928 6:-0.445716 7:-0.365721 8:-0.640727 9:-0.846786 10:0.737116 11:0.842389 12:0.131174 13:-0.392243 14:-0.453709 15:-0.980753 16:0.0327058 17:-0.392772 18:-0.860948 
1 1:-0.999982 2:0.769493 3:0.597038 4:-0.376872 5:0.803759 6:-0.443056 7:-0.371011 8:-0.644132 9:-0.829598 10:0.736029 11:0.92987 12:0.123536 13:-0.499325 14:-0.519085 15:-0.978534 16:0.0983233 17:-0.296707 18:-0.935356 
1 1:-0.947082 2:0.752665 3:0.626548 4:-0.343565 5:0.803724 6:-0.445496 7:-0.321932 8:-0.697221 9:-0.833441 10:0.742963 11:0.615688 12:0.2736 13:-0.420627 14:-0.501348 15:-0.986051 16:-0.0184809 17:-0.347719 18:-0.926121 
1 1:-0.917178 2:0.779341 3:0.703258 4:-0.247565 5:0.853872 6:-0.436792 7:-0.293316 8:-0.493124 9:-0.857032 10:0.792892 11:0.523894 12:0.0930559 13:-0.56954 14:-0.374605 15:-0.987191 16:-0.133484 17:-0.516678 18:-0.934542 
1 1:-0.947943 2:0.774958 3:0.613944 4:-0.322851 5:0.852413 6:-0.426591 7:-0.396932 8:-0.51944 9:-0.872241 10:0.74668 11:0.627974 12:0.0673916 13:-0.585199 14:-0.578626 15:-0.986831 16:-0.187786 17:-0.359692 18:-0.964606 
1 1:-0.905092 2:0.771008 3:0.689456 4:-0.326051 5:0.853863 6:-0.431634 7:-0.606605 8:-0.45 9:-0.859267 10:0.785784 11:0.390764 12:-0.128362 13:-0.64326 14:-0.56887 15:-0.982031 16:-0.106483 17:0.0731167 18:-0.965203 
1 1:-0.650742 2:0.808019 3:0.758647 4:-0.316791 5:0.854143 6:-0.42792 7:-0.332968 8:-0.451091 9:-0.848297 10:0.831866 11:0.00704966 12:-0.178954 13:-0.710941 14:-0.719656 15:-0.990455 16:0.00097393 17:-0.395683 18:-0.743523 
1 1:-0.616261 2:0.821384 3:0.787463 4:-0.385846 5:0.854248 6:-0.430862 7:-0.323984 8:-0.476685 9:-0.84374 10:0.806152 11:-0.11742 12:-0.259874 13:-0.696441 14:-0.697051 15:-0.989421 16:0.0076014 17:-0.275603 18:-0.884509 
1 1:-0.689407 2:0.808831 3:0.794759 4:-0.274393 5:0.854131 6:-0.430172 7:-0.5646 8:-0.467673 9:-0.836224 10:0.842887 11:-0.178295 12:-0.203901 13:-0.760133 14:-0.68157 15:-0.992154 16:-0.0339925 17:-0.228104 18:-0.760335 
1 1:-0.941028 2:0.799145 3:0.692526 4:-0.295194 5:0.852149 6:-0.426478 7:-0.414074 8:-0.484161 9:-0.870978 10:0.773155 11:0.574511 12:0.00118125 13:-0.679833 14:-0.625357 15:-0.985554 16:-0.251998 17:-0.401973 18:-0.958178 
1 1:-0.592188 2:0.825226 3:0.752562 4:-0.388374 5:0.854208 6:-0.428315 7:-0.442574 8:-0.466173 9:-0.859412 10:0.7975 11:-0.154171 12:-0.404163 13:-0.80143 14:-0.754858 15:-0.991695 16:0.0258091 17:-0.325464 18:-0.866577 
1 1:-0.933623 2:0.762405 3:0.690682 4:-0.390673 5:0.851805 6:-0.434448 7:-0.524705 8:-0.45 9:-0.864128 10:0.780089 11:0.390688 12:-0.0590471 13:-0.680157 14:-0.582683 15:-0.985029 16:-0.096712 17:-0.402277 18:-0.966928 
1 1:-0.90104 2:0.754018 3:0.692635 4:-0.408905 5:0.851786 6:-0.456904 7:-0.4134 8:-0.45 9:-0.859769 10:0.775003 11:0.221242 12:0.0552813 13:-0.662772 14:-0.56299 15:-0.981755 16:0.0183621 17:0.0707497 18:-0.960119 
1 1:-0.553061 2:0.80737 3:0.798147 4:-0.353923 5:0.85427 6:-0.429299 7:-0.578284 8:-0.462298 9:-0.856179 10:0.838757 11:-0.0818551 12:-0.47585 13:-0.836629 14:-0.777171 15:-0.990027 16:0.00809628 17:-0.363065 18:-0.920694 
1 1:-0.924527 2:0.760619 3:0.669182 4:-0.228615 5:0.853829 6:-0.44219 7:-0.289379 8:-0.451802 9:-0.876533 10:0.77559 11:0.436886 12:0.174526 13:-0.645981 14:-0.439531 15:-0.986346 16:-0.108106 17:-0.306054 18:-0.910317 
1 1:-0.706373 2:0.824901 3:0.725455 4:-0.280278 5:0.853883 6:-0.428868 7:-0.437132 8:-0.465326 9:-0.836609 10:0.848343 11:0.057698 12:-0.377156 13:-0.836802 14:-0.689321 15:-0.990178 16:-0.0548409 17:-0.249394 18:-0.695049 
1 1:-1 2:0.721822 3:0.488862 4:-0.238747 5:0.87185 6:-0.725425 7:-0.384047 8:-0.456366 9:-0.904628 10:0.635757 11:0.684693 12:0.325044 13:-0.224291 14:-0.373758 15:-0.968328 16:-0.150714 17:-0.252293 18:-0.922844 
1 1:-0.98764 2:0.76511 3:0.571584 4:-0.0771952 5:0.8762 6:-0.720589 7:-0.492084 8:-0.422571 9:-0.89997 10:0.713922 11:0.639735 12:0.0644284 13:-0.395747 14:-0.551524 15:-0.976228 16:-0.139145 17:-0.030973 18:-0.882695 
1 1:-0.986525 2:0.761431 3:0.552003 4:-0.326591 5:0.87913 6:-0.713891 7:-0.4738 8:-0.422613 9:-0.904258 10:0.748853 11:0.616187 12:0.246325 13:-0.452713 14:-0.474845 15:-0.980887 16:-0.125882 17:-0.129146 18:-0.882642 
1 1:-1 2:0.787133 3:0.609064 4:-0.0233483 5:0.868603 6:-0.724972 7:-0.158374 8:-0.398054 9:-0.903451 10:0.780459 11:0.164254 12:0.21794 13:-0.388195 14:-0.438819 15:-0.969117 16:-0.135946 17:-0.0678141 18:-0.866256 
1 1:-0.998962 2:0.763433 3:0.523465 4:-0.531792 5:0.877466 6:-0.709142 7:-0.379042 8:-0.415382 9:-0.904262 10:0.70701 11:0.622583 12:0.0406369 13:-0.501066 14:-0.547375 15:-0.974086 16:0.141477 17:-0.14318 18:-0.859051 
1 1:-0.983412 2:0.76392 3:0.518574 4:-0.0965495 5:0.871778 6:-0.680804 7:-0.334174 8:-0.372384 9:-0.857827 10:0.7567 11:0.661949 12:0.32356 13:-0.419655 14:-0.423129 15:-0.981259 16:-0.157634 17:-0.157404 18:-0.85926 
1 1:-1 2:0.789081 3:0.619415 4:-0.0555224 5:0.86679 6:-0.653483 7:-0.274537 8:-0.403812 9:-0.872136 10:0.810303 11:0.559688 12:0.0124132 13:-0.430661 14:-0.49403 15:-0.978836 16:-0.193297 17:-0.0596231 18:-0.875102 
1 1:-0.946005 2:0.770142 3:0.543789 4:-0.0649267 5:0.865077 6:-0.64783 7:-0.335368 8:-0.383734 9:-0.911734 10:0.820346 11:0.391029 12:0.244912 13:-0.659488 14:-0.469205 15:-0.966127 16:-0.20093 17:-0.127138 18:-0.833273 
1 1:-0.998923 2:0.800173 3:0.657045 4:-0.16786 5:0.865969 6:-0.721039 7:-0.349805 8:-0.404025 9:-0.912908 10:0.771329 11:0.40873 12:0.0843732 13:-0.581207 14:-0.582121 15:-0.982957 16:-0.157428 17:-0.25227 18:-0.815475 
1 1:-0.992544 2:0.764028 3:0.572632 4:-0.0934283 5:0.877486 6:-0.719557 7:-0.422221 8:-0.426651 9:-0.898412 10:0.709597 11:0.628529 12:0.21169 13:-0.45234 14:-0.560289 15:-0.976248 16:0.305675 17:-0.339826 18:-0.849212 
1 1:-0.999107 2:0.771603 3:0.51899 4:-0.0921199 5:0.869333 6:-0.646541 7:-0.323716 8:-0.354363 9:-0.866723 10:0.774633 11:0.658199 12:0.274645 13:-0.39586 14:-0.422317 15:-0.977171 16:-0.221086 17:-0.313379 18:-0.911444 
1 1:-1 2:0.76722 3:0.622203 4:-0.0318938 5:0.868622 6:-0.690778 7:-0.1783 8:-0.385901 9:-0.882918 10:0.794261 11:0.275784 12:0.0541808 13:-0.627914 14:-0.515593 15:-0.981393 16:-0.222238 17:-0.0457702 18:-0.868077 
1 1:-0.981941 2:0.757102 3:0.581474 4:-0.0972471 5:0.876106 6:-0.710117 7:-0.451637 8:-0.416328 9:-0.898939 10:0.704815 11:0.625485 12:0.164753 13:-0.471763 14:-0.531478 15:-0.964587 16:0.17655 17:-0.286724 18:-0.84901 
1 1:-0.27526 2:0.785509 3:0.768134 4:-0.275181 5:0.872719 6:-0.588137 7:-0.424989 8:0.0486618 9:-0.881066 10:0.700641 11:0.350955 12:-0.776881 13:-0.617235 14:-0.540462 15:-0.99579 16:0.231142 17:-0.50015 18:-0.80957 
1 1:-0.884266 2:0.803312 3:0.636486 4:-0.0622464 5:0.881148 6:-0.668437 7:-0.387084 8:-0.0162747 9:-0.897893 10:0.715227 11:0.44214 12:0.121577 13:-0.601539 14:-0.465917 15:-0.987241 16:-0.0114457 17:-0.28788 18:-0.860395 
1 1:-0.933918 2:0.770251 3:0.654159 4:-0.461047 5:0.868127 6:-0.512212 7:-0.351058 8:-0.0618665 9:-0.877167 10:0.698511 11:0.236788 12:0.115565 13:-0.67763 14:-0.528843 15:-0.991088 16:0.0410951 17:-0.355116 18:-0.856438 
1 1:-0.969738 2:0.782479 3:0.655298 4:-0.274031 5:0.871665 6:-0.490054 7:-0.320679 8:-0.071887 9:-0.881036 10:0.821259 11:0.104857 12:-0.0691634 13:-0.446781 14:-0.645939 15:-0.988321 16:-0.11414 17:-0.356304 18:-0.845106 
1 1:-0.943911 2:0.822142 3:0.64592 4:-0.145829 5:0.863942 6:-0.503984 7:-0.394026 8:-0.0829659 9:-0.873361 10:0.696316 11:0.357021 12:0.0901634 13:-0.475435 14:-0.613318 15:-0.989927 16:0.229277 17:-0.416959 18:-0.979201 
1 1:-0.873096 2:0.82436 3:0.661603 4:-0.465008 5:0.874186 6:-0.542547 7:-0.391711 8:-0.0221883 9:-0.8904 10:0.752462 11:0.72906 12:0.131795 13:-0.459606 14:-0.471626 15:-0.988161 16:0.118376 17:-0.415461 18:-0.858103 
1 1:-0.371798 2:0.771008 3:0.682429 4:-0.332635 5:0.87551 6:-0.497446 7:-0.436426 8:0.0541328 9:-0.881066 10:0.782371 11:0.321521 12:-0.479515 13:-0.760507 14:-0.644503 15:-0.991473 16:0.229222 17:-0.490461 18:-0.811414 
1 1:-0.877293 2:0.781992 3:0.645208 4:-0.197876 5:0.882177 6:-0.501708 7:-0.439353 8:-0.0222826 9:-0.882679 10:0.812325 11:0.315968 12:0.104823 13:-0.420105 14:-0.478538 15:-0.987393 16:0.225698 17:-0.308445 18:-0.84374 
1 1:-0.923808 2:0.812889 3:0.614699 4:-0.336662 5:0.86331 6:-0.510186 7:-0.404879 8:-0.0821839 9:-0.875981 10:0.782545 11:0.138457 12:-0.147312 13:-0.619508 14:-0.549075 15:-0.988218 16:-0.0721579 17:-0.304075 18:-0.880925 
1 1:-0.543139 2:0.776581 3:0.732197 4:-0.27107 5:0.874633 6:-0.598063 7:-0.423084 8:-0.0280048 9:-0.881066 10:0.871166 11:-0.375831 12:-0.0620659 13:-0.520973 14:-0.548281 15:-0.995266 16:0.212166 17:-0.538075 18:-0.812534 
1 1:-0.703062 2:0.780044 3:0.625816 4:-0.301595 5:0.874551 6:-0.484898 7:-0.420979 8:-0.0528988 9:-0.881066 10:0.892533 11:0.349086 12:-0.0346196 13:-0.622661 14:-0.694266 15:-0.991189 16:0.223339 17:-0.494232 18:-0.811354 
1 1:-0.913736 2:0.78302 3:0.710556 4:-0.249659 5:0.867873 6:-0.480377 7:-0.427379 8:-0.083081 9:-0.879156 10:0.834018 11:0.125681 12:-0.273484 13:-0.487159 14:-0.624055 15:-0.991047 16:0.0439971 17:-0.354742 18:-0.827614 
1 1:-0.993067 2:0.695417 3:0.565358 4:-0.168351 5:0.879385 6:-0.504738 7:-0.345611 8:-0.0676961 9:-0.890654 10:0.684034 11:0.894392 12:0.337725 13:-0.362644 14:-0.521513 15:-0.982422 16:-0.106174 17:-0.439079 18:-0.910989 
1 1:-0.913512 2:0.76208 3:0.703055 4:-0.173646 5:0.859922 6:-0.456206 7:-0.320368 8:-0.161695 9:-0.891143 10:0.651668 11:0.333026 12:-0.0135995 13:-0.691121 14:-0.630962 15:-0.990065 16:0.171827 17:-0.381801 18:-0.93664 
1 1:-0.98 2:0.733781 3:0.589033 4:-0.528611 5:0.869971 6:-0.419088 7:-0.462232 8:-0.152354 9:-0.884041 10:0.629084 11:0.797847 12:0.142769 13:-0.413956 14:-0.600217 15:-0.988604 16:0.270745 17:-0.560103 18:-0.877566 
1 1:-0.972172 2:0.794221 3:0.690439 4:-0.399705 5:0.856225 6:-0.367521 7:-0.364174 8:-0.152789 9:-0.876537 10:0.681839 11:0.710378 12:-0.166596 13:-0.527999 14:-0.659957 15:-0.990537 16:-0.0539937 17:-0.512338 18:-0.963016 
1 1:-0.990785 2:0.725827 3:0.570005 4:-0.3974 5:0.855927 6:-0.354677 7:-0.342189 8:-0.134827 9:-0.930391 10:0.622041 11:0.57075 12:0.0130543 13:-0.415026 14:-0.608246 15:-0.988 16:0.20251 17:-0.330629 18:-0.867861 
1 1:-0.939327 2:0.773064 3:0.683812 4:-0.364408 5:0.858602 6:-0.305641 7:-0.358279 8:-0.117003 9:-0.875311 10:0.712618 11:0.00479188 12:-0.205612 13:-0.44656 14:-0.676596 15:-0.991327 16:0.0272463 17:-0.353336 18:-0.927749 
1 1:-0.996033 2:0.755479 3:0.561998 4:-0.330996 5:0.856286 6:-0.309463 7:-0.461742 8:-0.139655 9:-0.935528 10:0.71314 11:0.645414 12:0.0250283 13:-0.412599 14:-0.587548 15:-0.985412 16:0.255221 17:-0.488769 18:-0.801276 
1 1:-0.98 2:0.758671 3:0.587103 4:-0.535981 5:0.858362 6:-0.404359 7:-0.457568 8:-0.117803 9:-0.886205 10:0.593914 11:0.803443 12:0.142572 13:-0.414541 14:-0.542789 15:-0.988157 16:0.260843 17:-0.56838 18:-0.873243 
1 1:-0.991007 2:0.741194 3:0.563166 4:-0.31811 5:0.855502 6:-0.371091 7:-0.360095 8:-0.136583 9:-0.900087 10:0.719096 11:0.552569 12:0.00859684 13:-0.413114 14:-0.578643 15:-0.978422 16:0.162258 17:-0.368283 18:-0.86854 
1 1:-0.98 2:0.750555 3:0.577327 4:-0.554306 5:0.855782 6:-0.349622 7:-0.455174 8:-0.0588589 9:-0.88807 10:0.638387 11:0.795488 12:0.205638 13:-0.415475 14:-0.537965 15:-0.988546 16:0.242944 17:-0.556504 18:-0.900448 
1 1:-0.994415 2:0.790596 3:0.563839 4:-0.439439 5:0.855796 6:-0.316806 7:-0.374832 8:-0.131515 9:-0.928193 10:0.627519 11:0.692915 12:0.0296624 13:-0.41264 14:-0.616939 15:-0.976998 16:0.255997 17:-0.388728 18:-0.81493 
1 1:-0.920549 2:0.818354 3:0.646637 4:-0.348117 5:0.862013 6:-0.424739 7:-0.409632 8:-0.122231 9:-0.875824 10:0.607956 11:0.169394 12:-0.241953 13:-0.434405 14:-0.617566 15:-0.990383 16:0.0568086 17:-0.500955 18:-0.940089 
1 1:-0.98 2:0.736324 3:0.598431 4:-0.555506 5:0.860612 6:-0.463886 7:-0.457458 8:-0.0710001 9:-0.893096 10:0.587393 11:0.741735 12:0.0754079 13:-0.412819 14:-0.550556 15:-0.987538 16:0.262965 17:-0.456366 18:-0.878999 
1 1:-1 2:0.770846 3:0.599856 4:0.113211 5:0.673853 6:0.0999212 7:0.0468947 8:-0.380692 9:-0.688668 10:0.797457 11:0.754778 12:0.509526 13:-0.384658 14:-0.205486 15:-0.96356 16:-0.142542 17:-0.0841592 18:-0.883023 
1 1:-1 2:0.76024 3:0.558754 4:0.140171 5:0.674094 6:0.102278 7:0.0611789 8:-0.380032 9:-0.779902 10:0.778654 11:0.788362 12:0.585847 13:-0.446855 14:-0.163503 15:-0.961317 16:-0.235877 17:-0.0787252 18:-0.710122 
1 1:-0.985539 2:0.591526 3:0.622637 4:-0.0619173 5:0.247658 6:-0.254376 7:0.0740211 8:-0.175472 9:-0.715467 10:0.609303 11:0.858605 12:0.449302 13:-0.194309 14:-0.208432 15:-0.975918 16:-0.3536 17:-0.148404 18:-0.866076 
1 1:-0.994665 2:0.737081 3:0.575091 4:-0.127718 5:0.782749 6:-0.280487 7:-0.0753421 8:-0.260719 9:-0.777955 10:0.749288 11:0.538477 12:-0.168534 13:-0.626281 14:-0.680315 15:-0.990562 16:-0.207989 17:-0.240084 18:-0.709383 
1 1:-0.997653 2:0.765868 3:0.56117 4:-0.09605 5:0.786073 6:-0.332845 7:-0.150026 8:-0.29647 9:-0.840981 10:0.751875 11:0.741252 12:-0.428201 13:-0.310558 14:-0.673757 15:-0.977983 16:-0.246143 17:-0.204473 18:-0.805516 
1 1:-0.98 2:0.733131 3:0.515898 4:-0.122277 5:0.786715 6:-0.277954 7:-0.165595 8:-0.263192 9:-0.807692 10:0.721443 11:-0.226636 12:-0.380482 13:-0.381803 14:-0.648946 15:-0.975068 16:-0.196841 17:-0.0253296 18:-0.642589 
1 1:-0.988021 2:0.704561 3:0.4706 4:-0.102004 5:0.789158 6:-0.34049 7:-0.1246 8:-0.272139 9:-0.824697 10:0.76833 11:-0.104002 12:0.3314 13:-0.522208 14:-0.453225 15:-0.981722 16:-0.252564 17:-0.238157 18:-0.786434 
1 1:-0.983161 2:0.71771 3:0.568566 4:-0.119501 5:0.783155 6:-0.274428 7:-0.125216 8:-0.204774 9:-0.795928 10:0.782263 11:-0.0800489 12:0.159312 13:-0.772751 14:-0.678367 15:-0.978831 16:-0.250035 17:-0.11827 18:-0.777304 
1 1:-0.98 2:0.762946 3:0.571539 4:-0.175513 5:0.784635 6:-0.222057 7:-0.287053 8:-0.281125 9:-0.758368 10:0.768677 11:0.0939258 12:-0.253508 13:-0.700712 14:-0.440516 15:-0.992313 16:-0.198337 17:-0.650054 18:-0.700693 
1 1:-0.913693 2:0.777934 3:0.690831 4:-0.218498 5:0.771298 6:-0.242281 7:-0.3491 8:-0.254508 9:-0.813397 10:0.777524 11:-0.139809 12:-0.275659 13:-0.693818 14:-0.688962 15:-0.990047 16:-0.0997248 17:-0.277367 18:-0.5878 
1 1:-0.98 2:0.738434 3:0.544311 4:-0.1137 5:0.784904 6:-0.266295 7:-0.165595 8:-0.25947 9:-0.814958 10:0.745832 11:0.652871 12:-0.206647 13:-0.549169 14:-0.365863 15:-0.986005 16:-0.19791 17:-0.110112 18:-0.587964 
1 1:-0.903761 2:0.776419 3:0.631296 4:-0.146908 5:0.771473 6:-0.259679 7:-0.313258 8:-0.243511 9:-0.814597 10:0.77585 11:-0.110478 12:-0.0734644 13:-0.696852 14:-0.682919 15:-0.990193 16:-0.182936 17:-0.28603 18:-0.585 
1 1:-0.98 2:0.724798 3:0.509178 4:-0.128209 5:0.784737 6:-0.291592 7:-0.165595 8:-0.25066 9:-0.814067 10:0.784002 11:-0.189411 12:-0.101214 13:-0.365924 14:-0.330196 15:-0.981954 16:-0.196817 17:-0.13831 18:-0.790563 
1 1:-0.98 2:0.774688 3:0.606278 4:-0.181478 5:0.790331 6:-0.264628 7:-0.369084 8:-0.282929 9:-0.74434 10:0.79011 11:0.386547 12:-0.471014 13:-0.597243 14:-0.624405 15:-0.990812 16:-0.278152 17:-0.790024 18:-0.806897 
1 1:-0.98 2:0.705535 3:0.488142 4:-0.127217 5:0.787838 6:-0.283877 7:-0.165595 8:-0.259428 9:-0.814877 10:0.775981 11:0.767209 12:-0.132118 13:-0.671337 14:-0.683267 15:-0.961083 16:-0.19728 17:-0.224546 18:-0.68568 
1 1:-0.983672 2:0.735242 3:0.50894 4:-0.118745 5:0.786415 6:-0.289521 7:-0.165447 8:-0.288116 9:-0.831563 10:0.773612 11:-0.051884 12:-0.233634 13:-0.61105 14:-0.280568 15:-0.982416 16:-0.20445 17:-0.213984 18:-0.677505 
1 1:-1 2:0.646015 3:0.393648 4:-0.0034507 5:0.63378 6:0.175219 7:0.00327895 8:0.333628 9:-0.707299 10:0.672775 11:0.842596 12:0.683128 13:-0.0402266 14:-0.202385 15:-0.935412 16:-0.444013 17:0.26826 18:-0.778036 
1 1:-1 2:0.665494 3:0.537672 4:0.0400447 5:0.875656 6:-0.342021 7:0.393389 8:-0.291391 9:-0.815816 10:0.697946 11:0.747095 12:0.531348 13:-0.303033 14:-0.166447 15:-0.979817 16:-0.306234 17:0.124806 18:-0.801201 
1 1:-1 2:0.672691 3:0.512657 4:0.0357877 5:0.873663 6:-0.399467 7:0.276774 8:-0.289306 9:-0.819945 10:0.696881 11:0.722579 12:0.579381 13:-0.314075 14:-0.222132 15:-0.976559 16:-0.312762 17:-0.123187 18:-0.826524 
1 1:-1 2:0.670418 3:0.495154 4:0.0894478 5:0.869694 6:-0.363094 7:0.359047 8:-0.291799 9:-0.810608 10:0.727377 11:0.742097 12:0.558552 13:-0.312097 14:-0.209946 15:-0.980521 16:-0.281458 17:0.116505 18:-0.862187 
1 1:-1 2:0.672691 3:0.483114 4:0.044336 5:0.870217 6:-0.359475 7:0.172084 8:-0.303824 9:-0.824245 10:0.720552 11:0.742649 12:0.553969 13:-0.299447 14:-0.21413 15:-0.979801 16:-0.324018 17:0.0755514 18:-0.808114 
1 1:-1 2:0.762026 3:0.585775 4:-0.235261 5:0.782904 6:-0.227623 7:-0.224911 8:-0.683756 9:-0.828563 10:0.737202 11:0.629163 12:0.160336 13:-0.418851 14:-0.474689 15:-0.982513 16:0.045941 17:-0.134804 18:-0.527187 
1 1:-1 2:0.721931 3:0.53781 4:-0.184752 5:0.787579 6:-0.224277 7:0.0123421 8:-0.68175 9:-0.82886 10:0.748136 11:0.677266 12:0.229439 13:-0.273694 14:-0.401953 15:-0.978841 16:-0.0661362 17:-0.278855 18:-0.880335 
1 1:-1 2:0.752719 3:0.497539 4:-0.178326 5:0.785493 6:-0.283461 7:-0.104047 8:-0.684761 9:-0.807925 10:0.744745 11:0.624591 12:0.285937 13:-0.317825 14:-0.453076 15:-0.977846 16:-0.0878675 17:-0.154842 18:-0.767196 
1 1:-1 2:0.771928 3:0.501893 4:-0.171768 5:0.788093 6:-0.223685 7:0.0496211 8:-0.693927 9:-0.818389 10:0.67534 11:0.832136 12:0.387873 13:-0.301528 14:-0.401728 15:-0.979176 16:-0.0661876 17:-0.232211 18:-0.63752 
1 1:-1 2:0.748282 3:0.599675 4:-0.298529 5:0.78515 6:-0.22458 7:-0.231921 8:-0.674354 9:-0.833257 10:0.762287 11:0.589576 12:0.203745 13:-0.423075 14:-0.475801 15:-0.979774 16:0.0348556 17:-0.270469 18:-0.605359 
1 1:-1 2:0.742384 3:0.544159 4:-0.0917594 5:0.782573 6:-0.216607 7:-0.1422 8:-0.659234 9:-0.835984 10:0.764569 11:0.600263 12:0.358417 13:-0.196465 14:-0.438988 15:-0.972936 16:-0.177655 17:-0.0395643 18:-0.659118 
1 1:-1 2:0.712786 3:0.475463 4:-0.00557929 5:0.813009 6:-0.369991 7:-0.0919684 8:-0.280868 9:-0.821842 10:0.75507 11:0.734629 12:0.546801 13:-0.28353 14:-0.183716 15:-0.955274 16:-0.322161 17:0.303352 18:-0.979582 
1 1:-1 2:0.715167 3:0.475453 4:0.0183557 5:0.813902 6:-0.514633 7:-0.0914105 8:-0.216572 9:-0.822251 10:0.749962 11:0.778677 12:0.557785 13:-0.318076 14:-0.163055 15:-0.955952 16:-0.333195 17:0.060861 18:-0.95717 
1 1:-1 2:0.715437 3:0.475508 4:0.0256533 5:0.814325 6:-0.423884 7:-0.0849 8:-0.212856 9:-0.829501 10:0.75257 11:0.721462 12:0.539122 13:-0.28953 14:-0.184841 15:-0.966098 16:-0.31393 17:0.0878195 18:-0.88695 
1 1:-1 2:0.767707 3:0.546172 4:-0.0818022 5:0.67106 6:0.00694717 7:0.107937 8:-0.799068 9:-0.721732 10:0.657537 11:0.622756 12:0.194138 13:-0.250654 14:-0.441864 15:-0.982626 16:-0.0249302 17:-0.409673 18:-0.750257 
1 1:-1 2:0.714085 3:0.539557 4:-0.107423 5:0.672815 6:-0.00077475 7:0.0665526 8:-0.761056 9:-0.712312 10:0.72553 11:0.736231 12:0.313091 13:-0.356085 14:-0.49928 15:-0.982035 16:-0.0160698 17:-0.383856 18:-0.883949 
1 1:-1 2:0.732698 3:0.562822 4:-0.0806903 5:0.672574 6:0.0102857 7:0.0270632 8:-0.750919 9:-0.684304 10:0.658385 11:0.736927 12:0.211892 13:-0.347113 14:-0.465911 15:-0.982754 16:-0.0243364 17:-0.404478 18:-0.913564 
1 1:-1 2:0.693198 3:0.504113 4:-0.291028 5:0.876982 6:-0.542744 7:-0.235868 8:-0.603837 9:-0.916026 10:0.646843 11:0.800082 12:0.327008 13:-0.35893 14:-0.456494 15:-0.973024 16:0.0199576 17:-0.198657 18:-0.927167 
1 1:-0.997396 2:0.781938 3:0.512015 4:-0.255223 5:0.886671 6:-0.69181 7:-0.230737 8:-0.628689 9:-0.914264 10:0.675818 11:0.694088 12:0.288623 13:-0.396179 14:-0.570964 15:-0.978642 16:-0.114833 17:-0.0913381 18:-0.872736 
1 1:-1 2:0.682539 3:0.505956 4:-0.291419 5:0.874839 6:-0.537698 7:-0.213584 8:-0.616326 9:-0.892356 10:0.644973 11:0.766249 12:0.326508 13:-0.164411 14:-0.459098 15:-0.974051 16:0.056575 17:-0.297132 18:-0.961052 
1 1:-0.989128 2:0.784427 3:0.509231 4:-0.210033 5:0.883429 6:-0.617954 7:-0.138916 8:-0.610788 9:-0.916224 10:0.732442 11:0.493797 12:0.0950953 13:-0.387858 14:-0.501691 15:-0.976063 16:0.00973534 17:-0.0459467 18:-0.830115 
1 1:-1 2:0.7077 3:0.505397 4:-0.285258 5:0.877382 6:-0.543231 7:-0.239689 8:-0.603311 9:-0.891606 10:0.645256 11:0.789308 12:0.322212 13:-0.205252 14:-0.453991 15:-0.972837 16:-0.173565 17:-0.150385 18:-0.946226 
1 1:-1 2:0.696283 3:0.3698 4:0.0740674 5:0.924773 6:-0.833987 7:-0.104368 8:-0.347717 9:-0.868195 10:0.66458 11:0.884359 12:0.568608 13:-0.195939 14:-0.183177 15:-0.980647 16:-0.266481 17:-0.301515 18:-0.924233 
1 1:-0.99782 2:0.759266 3:0.619216 4:-0.382175 5:0.728584 6:-0.243455 7:-0.278105 8:-0.745149 9:-0.833202 10:0.714401 11:0.615387 12:0.160271 13:-0.469605 14:-0.534224 15:-0.983057 16:0.0840549 17:-0.263553 18:-0.721365 
1 1:-1 2:0.731237 3:0.431992 4:-0.193699 5:0.831231 6:-0.42844 7:-0.0324526 8:-0.713996 9:-0.86952 10:0.673057 11:0.876004 12:0.399584 13:-0.273399 14:-0.392069 15:-0.981748 16:-0.0289328 17:-0.350938 18:-0.93502 
1 1:-1 2:0.74628 3:0.47214 4:-0.214732 5:0.830917 6:-0.431244 7:-0.109 8:-0.688069 9:-0.865206 10:0.692881 11:0.757995 12:0.40809 13:-0.225951 14:-0.391472 15:-0.978843 16:-0.247556 17:-0.300291 18:-0.965875 
1 1:-1 2:0.694713 3:0.490904 4:-0.138081 5:0.800622 6:-0.389328 7:-0.229263 8:-0.764123 9:-0.825636 10:0.652233 11:0.892283 12:0.266896 13:-0.19616 14:-0.405737 15:-0.983709 16:0.0708118 17:-0.336309 18:-0.961709 
1 1:-1 2:0.743953 3:0.455057 4:-0.221173 5:0.803369 6:-0.430383 7:-0.0870368 8:-0.774695 9:-0.841339 10:0.708575 11:0.92563 12:0.358251 13:-0.237334 14:-0.358348 15:-0.970513 16:0.188135 17:0.0129178 18:-0.839843 
1 1:-1 2:0.72047 3:0.468662 4:0.0488704 5:0.802186 6:-0.523538 7:-0.104111 8:-0.818499 9:-0.83721 10:0.703684 11:0.914962 12:0.35819 13:-0.22624 14:-0.187712 15:-0.976443 16:0.0487282 17:-0.356226 18:-0.822933 
1 1:-0.985856 2:0.64872 3:0.490136 4:-0.0886554 5:0.643663 6:-0.00935207 7:-0.0666158 8:-0.0358622 9:-0.805327 10:0.537985 11:0.949388 12:0.531939 13:-0.00126515 14:-0.293863 15:-0.963517 16:0.131334 17:0.013702 18:-0.960224 
1 1:-0.992055 2:0.71679 3:0.553774 4:-0.041076 5:0.640597 6:0.121728 7:0.0610053 8:-0.12733 9:-0.748952 10:0.750962 11:0.791514 12:0.628256 13:-0.389252 14:-0.211891 15:-0.952897 16:-0.368268 17:0.145079 18:-0.857685 
1 1:-0.998428 2:0.688707 3:0.527271 4:-0.123407 5:0.649638 6:0.0135939 7:0.0368684 8:-0.0307969 9:-0.701709 10:0.708445 11:0.909967 12:0.528214 13:-0.188337 14:-0.199511 15:-0.960775 16:-0.21702 17:0.119812 18:-0.915192 
1 1:-0.998224 2:0.641902 3:0.489406 4:-0.0609956 5:0.648223 6:-0.019009 7:-0.131447 8:-0.189825 9:-0.812913 10:0.641952 11:0.954606 12:0.514841 13:-0.0265554 14:-0.379511 15:-0.96339 16:-0.0911178 17:0.127116 18:-0.968287 
1 1:-0.996023 2:0.693361 3:0.479525 4:-0.0999991 5:0.642819 6:-0.117993 7:-0.0328895 8:-0.155491 9:-0.756789 10:0.681209 11:0.878642 12:0.520283 13:-0.163002 14:-0.256493 15:-0.966324 16:-0.194624 17:-0.134763 18:-0.930347 
1 1:-1 2:0.734105 3:0.50287 4:-0.0491046 5:0.675102 6:0.120432 7:-0.0701842 8:-0.320646 9:-0.786816 10:0.710771 11:0.894174 12:0.438934 13:-0.250327 14:-0.352118 15:-0.973042 16:-0.0973415 17:0.0126345 18:-0.917118 
1 1:-1 2:0.68584 3:0.477661 4:-0.0953001 5:0.754521 6:-0.429927 7:0.00497368 8:-0.122712 9:-0.815957 10:0.687925 11:0.759307 12:0.434597 13:-0.250399 14:-0.236668 15:-0.967543 16:-0.0725696 17:-0.0528136 18:-0.834258 
1 1:-1 2:0.747037 3:0.550225 4:0.0747496 5:0.774419 6:-0.0934267 7:-0.213832 8:-0.45 9:-0.765661 10:0.747136 11:0.712799 12:0.400084 13:-0.230552 14:-0.350301 15:-0.974154 16:-0.321432 17:-0.0927875 18:-0.856207 
1 1:-1 2:0.740111 3:0.481373 4:-0.00241555 5:0.819381 6:-0.35521 7:-0.0638105 8:-0.387092 9:-0.775442 10:0.7642 11:0.668742 12:0.399836 13:-0.346008 14:-0.291427 15:-0.974131 16:-0.330475 17:0.0441094 18:-0.915565 
1 1:-1 2:0.73324 3:0.51786 4:-0.00565643 5:0.815035 6:-0.342334 7:-0.0518474 8:-0.473696 9:-0.762984 10:0.764656 11:0.667936 12:0.436152 13:-0.386501 14:-0.199597 15:-0.977006 16:-0.288822 17:-0.183379 18:-0.902083 
1 1:-0.856667 2:0.794762 3:0.741038 4:-0.330146 5:0.800517 6:-0.428918 7:-0.878011 8:-0.0995943 9:-0.781127 10:0.823976 11:-0.332275 12:-0.255846 13:-0.847809 14:-0.567926 15:-0.992187 16:-0.14723 17:-0.180105 18:-0.803381 
1 1:-0.786805 2:0.731237 3:0.746094 4:-0.157924 5:0.800969 6:-0.252404 7:-0.820605 8:-0.0929215 9:-0.771837 10:0.720487 11:-0.242975 12:-0.154632 13:-0.643132 14:-0.493749 15:-0.978423 16:-0.264248 17:-0.0528814 18:-0.933818 
1 1:-0.865001 2:0.802987 3:0.701163 4:-0.276871 5:0.803648 6:-0.209334 7:-0.811895 8:-0.242324 9:-0.810701 10:0.798283 11:-0.409044 12:-0.471847 13:-0.770327 14:-0.492067 15:-0.990445 16:-0.0695291 17:-0.37087 18:-0.873624 
1 1:-0.735527 2:0.794167 3:0.691919 4:-0.166792 5:0.80072 6:-0.306972 7:-0.827179 8:-0.0669866 9:-0.784034 10:0.823715 11:-0.160237 12:-0.465214 13:-0.814055 14:-0.588158 15:-0.992868 16:-0.14291 17:-0.256345 18:-0.795639 
1 1:-0.69684 2:0.793842 3:0.702314 4:-0.17939 5:0.800359 6:-0.390632 7:-0.686732 8:-0.111329 9:-0.7862 10:0.82115 11:-0.305714 12:-0.137999 13:-0.794525 14:-0.622031 15:-0.992252 16:-0.153829 17:-0.263846 18:-0.829227 
1 1:-0.957927 2:0.767329 3:0.731986 4:-0.275826 5:0.79867 6:-0.220145 7:-0.910958 8:-0.13677 9:-0.754179 10:0.79487 11:0.0926587 12:-0.314186 13:-0.849855 14:-0.712668 15:-0.99556 16:-0.120074 17:-0.249827 18:-0.916103 
1 1:-0.658976 2:0.792652 3:0.721569 4:-0.239073 5:0.801182 6:-0.404795 7:-0.609889 8:-0.0756871 9:-0.800905 10:0.825932 11:-0.462824 12:-0.580633 13:-0.775188 14:-0.586154 15:-0.990544 16:-0.196496 17:-0.313703 18:-0.770204 
1 1:-0.876606 2:0.794762 3:0.727966 4:-0.160469 5:0.801753 6:-0.316525 7:-0.741258 8:-0.108293 9:-0.822732 10:0.83091 11:-0.0475167 12:-0.184148 13:-0.846734 14:-0.746092 15:-0.994708 16:-0.274312 17:-0.201851 18:-0.83131 
1 1:-0.983355 2:0.78275 3:0.619908 4:-0.268786 5:0.941833 6:-0.813899 7:-0.439821 8:-0.565306 9:-0.903884 10:0.747288 11:0.491072 12:0.117998 13:-0.595093 14:-0.498561 15:-0.985368 16:-0.0344241 17:-0.317168 18:-0.781253 
1 1:-0.99633 2:0.798009 3:0.63568 4:-0.208919 5:0.946238 6:-0.800404 7:-0.459126 8:-0.499198 9:-0.901538 10:0.726812 11:0.492301 12:0.132754 13:-0.593316 14:-0.527157 15:-0.984735 16:-0.0279827 17:-0.329695 18:-0.783486 
1 1:-0.696131 2:0.771603 3:0.724126 4:-0.611003 5:0.925878 6:-0.605964 7:-0.525663 8:-0.674022 9:-0.921026 10:0.739181 11:0.424896 12:-0.202629 13:-0.59803 14:-0.661059 15:-0.988083 16:0.02476 17:-0.279116 18:-0.754169 
1 1:-0.812736 2:0.756669 3:0.707749 4:-0.380199 5:0.921786 6:-0.614153 7:-0.398353 8:-0.779464 9:-0.913639 10:0.737768 11:0.348255 12:0.0263206 13:-0.655864 14:-0.594583 15:-0.984467 16:0.0383633 17:-0.238502 18:-0.761731 
1 1:-0.731025 2:0.763379 3:0.726995 4:-0.584281 5:0.928818 6:-0.602619 7:-0.435747 8:-0.575761 9:-0.911236 10:0.739854 11:0.39621 12:-0.162154 13:-0.559249 14:-0.591973 15:-0.988286 16:0.066924 17:-0.234022 18:-0.768965 
1 1:-0.82326 2:0.785239 3:0.714215 4:-0.39418 5:0.920774 6:-0.606747 7:-0.496279 8:-0.644401 9:-0.919204 10:0.740463 11:0.391854 12:0.0238773 13:-0.671037 14:-0.661575 15:-0.987856 16:0.0885722 17:-0.246643 18:-0.770525 
1 1:-0.973207 2:0.785347 3:0.641145 4:-0.368548 5:0.917253 6:-0.625624 7:-0.3845 8:-0.401285 9:-0.888255 10:0.745984 11:0.437683 12:0.0583757 13:-0.575043 14:-0.552726 15:-0.987211 16:0.0468199 17:-0.331885 18:-0.775244 
1 1:-0.658648 2:0.781722 3:0.652564 4:-0.520679 5:0.926667 6:-0.616629 7:-0.455016 8:-0.737542 9:-0.935233 10:0.729747 11:0.380886 12:0.0412123 13:-0.578535 14:-0.642694 15:-0.985706 16:0.0556763 17:-0.247953 18:-0.753676 
1 1:-0.981493 2:0.785726 3:0.623481 4:-0.319418 5:0.936392 6:-0.873151 7:-0.453895 8:-0.534709 9:-0.901051 10:0.734225 11:0.487532 12:0.115212 13:-0.595557 14:-0.526468 15:-0.984408 16:-0.064604 17:-0.328428 18:-0.810518 
1 1:-0.960093 2:0.790596 3:0.686414 4:-0.410924 5:0.926423 6:-0.617485 7:-0.455432 8:-0.667754 9:-0.928889 10:0.732616 11:0.346539 12:-0.208177 13:-0.601215 14:-0.552503 15:-0.986463 16:0.0311222 17:-0.221986 18:-0.759969 
1 1:-0.987347 2:0.705319 3:0.418894 4:0.0188569 5:0.822423 6:-0.464222 7:0.0379 8:-0.500959 9:-0.840181 10:0.69249 11:0.497053 12:0.276704 13:-0.265024 14:-0.48077 15:-0.983313 16:-0.0624186 17:-0.30459 18:-0.938477 
1 1:-0.98045 2:0.712516 3:0.459175 4:0.0116629 5:0.821779 6:-0.450242 7:-0.148247 8:-0.550743 9:-0.835877 10:0.70075 11:0.741427 12:0.294196 13:-0.431903 14:-0.494598 15:-0.981964 16:-0.0530554 17:-0.351885 18:-0.940418 
1 1:-0.988395 2:0.6998 3:0.489296 4:-0.156652 5:0.821814 6:-0.467919 7:0.0253684 8:-0.487863 9:-0.838834 10:0.685578 11:0.439051 12:0.365888 13:-0.380073 14:-0.387299 15:-0.982988 16:-0.0531227 17:-0.187383 18:-0.928936 
1 1:-1 2:0.708024 3:0.516173 4:-0.0515445 5:0.827715 6:-0.474238 7:-0.221516 8:-0.659648 9:-0.875622 10:0.700859 11:0.902866 12:0.435577 13:-0.213228 14:-0.346813 15:-0.981412 16:-0.0291783 17:-0.359608 18:-0.950563 
1 1:-1 2:0.703533 3:0.49543 4:-0.153453 5:0.826864 6:-0.441647 7:-0.150363 8:-0.612996 9:-0.858834 10:0.694251 11:0.870666 12:0.429978 13:-0.200325 14:-0.360397 15:-0.981254 16:-0.0501138 17:-0.362005 18:-0.938387 
1 1:-1 2:0.72139 3:0.447615 4:-0.00881706 5:0.828794 6:-0.469546 7:-0.186337 8:-0.633913 9:-0.838354 10:0.700554 11:0.848709 12:0.435284 13:-0.195252 14:-0.381452 15:-0.981305 16:-0.0609221 17:-0.367979 18:-0.968511 
1 1:-1 2:0.701856 3:0.440691 4:-0.139472 5:0.826746 6:-0.473307 7:0.00485789 8:-0.640616 9:-0.867954 10:0.686599 11:0.827097 12:0.437354 13:-0.169401 14:-0.371217 15:-0.980934 16:-0.0560168 17:-0.358914 18:-0.948167 
1 1:-0.975314 2:0.74444 3:0.55791 4:-0.00342175 5:0.823692 6:-0.467805 7:0.122374 8:-0.705922 9:-0.849845 10:0.764156 11:0.778967 12:0.413815 13:-0.370225 14:-0.344193 15:-0.977642 16:-0.0809272 17:-0.374204 18:-0.931004 
1 1:-0.410431 2:0.848168 3:0.748697 4:-0.281592 5:0.851462 6:-0.629139 7:-0.311158 8:-0.020137 9:-0.926372 10:0.819302 11:-0.105785 12:-0.434961 13:-0.766432 14:-0.681242 15:-0.992276 16:0.385098 17:-0.437077 18:-0.983188 
1 1:-0.756453 2:0.778096 3:0.746927 4:-0.400205 5:0.841645 6:-0.616518 7:-0.225721 8:-0.0126396 9:-0.949353 10:0.72829 11:-0.308958 12:-0.639311 13:-0.852838 14:-0.834708 15:-0.993432 16:0.389528 17:-0.364097 18:-0.83982 
1 1:-0.808254 2:0.846924 3:0.757387 4:-0.537824 5:0.848742 6:-0.667546 7:-0.325974 8:0.0401016 9:-0.952137 10:0.776155 11:0.441293 12:0.120987 13:-0.58989 14:-0.438928 15:-0.984335 16:-0.0851119 17:-0.194278 18:-0.800335 
1 1:-0.82489 2:0.78881 3:0.726118 4:-0.400778 5:0.851347 6:-0.669897 7:-0.317268 8:0.0389203 9:-0.923239 10:0.782002 11:0.403244 12:-0.0664425 13:-0.732603 14:-0.786529 15:-0.979622 16:0.0611398 17:-0.513305 18:-0.840291 
1 1:-0.760289 2:0.806071 3:0.656324 4:-0.315101 5:0.847785 6:-0.587451 7:-0.312726 8:-0.115526 9:-0.948895 10:0.748701 11:0.122414 12:-0.13813 13:-0.440988 14:-0.729732 15:-0.984481 16:0.0659184 17:-0.48655 18:-0.788749 
1 1:-0.636289 2:0.851848 3:0.72935 4:-0.663405 5:0.845237 6:-0.582049 7:-0.389179 8:-0.0589317 9:-0.941028 10:0.798348 11:-0.139039 12:-0.488662 13:-0.773427 14:-0.727419 15:-0.992277 16:0.414292 17:-0.374826 18:-0.81991 
1 1:-0.888393 2:0.829501 3:0.729733 4:-0.37595 5:0.848545 6:-0.65165 7:-0.394211 8:0.0255093 9:-0.934513 10:0.792044 11:-0.139281 12:-0.35244 13:-0.766258 14:-0.740465 15:-0.992579 16:-0.0320922 17:-0.338537 18:-0.901866 
1 1:-0.638961 2:0.877117 3:0.705974 4:-0.59873 5:0.841466 6:-0.625276 7:-0.310605 8:-0.0810311 9:-0.946415 10:0.744723 11:-0.36408 12:-0.70275 13:-0.848426 14:-0.874583 15:-0.993418 16:0.235826 17:-0.387554 18:-0.875326 
1 1:-0.821361 2:0.86965 3:0.755239 4:-0.32727 5:0.850488 6:-0.669526 7:-0.416805 8:0.0403914 9:-0.905619 10:0.772916 11:0.688988 12:0.209232 13:-0.714087 14:-0.715764 15:-0.980961 16:0.412796 17:-0.23861 18:-0.834938 
1 1:-0.813708 2:0.856285 3:0.761317 4:-0.530108 5:0.84679 6:-0.675849 7:-0.381289 8:0.0381449 9:-0.918715 10:0.780676 11:0.0233753 12:0.152189 13:-0.764312 14:-0.39598 15:-0.967109 16:0.214724 17:-0.222561 18:-0.828786 
1 1:-0.5281 2:0.845625 3:0.767495 4:-0.175581 5:0.850881 6:-0.533401 7:-0.414679 8:-0.0751318 9:-0.939995 10:0.786893 11:-0.112597 12:-0.412684 13:-0.76992 14:-0.819597 15:-0.992103 16:0.405883 17:-0.449555 18:-0.871071 
1 1:-0.64787 2:0.807857 3:0.728585 4:-0.596985 5:0.852848 6:-0.655264 7:-0.334237 8:0.0363127 9:-0.930493 10:0.77822 11:0.366315 12:-0.262252 13:-0.744677 14:-0.450615 15:-0.990846 16:0.100568 17:-0.503763 18:-0.827562 
1 1:-0.674643 2:0.819166 3:0.621817 4:-0.492656 5:0.834378 6:-0.505974 7:-0.442284 8:0.120196 9:-0.885462 10:0.768003 11:0.429818 12:0.0652663 13:-0.750335 14:-0.574118 15:-0.992125 16:0.0709702 17:-0.563521 18:-0.922299 
1 1:-0.5431 2:0.831936 3:0.734776 4:-0.30385 5:0.84249 6:-0.59232 7:-0.412826 8:-0.0670229 9:-0.917143 10:0.829736 11:-0.16859 12:-0.508869 13:-0.771438 14:-0.708604 15:-0.992551 16:0.477273 17:-0.44943 18:-0.961247 
1 1:-0.904797 2:0.776635 3:0.676425 4:-0.423993 5:0.839296 6:-0.522082 7:-0.6921 8:-0.523599 9:-0.89376 10:0.767308 11:0.495577 12:-0.154016 13:-0.667578 14:-0.510116 15:-0.994373 16:-0.0793 17:-0.449898 18:-0.768891 
1 1:-0.986872 2:0.763757 3:0.662357 4:-0.326645 5:0.842309 6:-0.561453 7:-0.398989 8:-0.479221 9:-0.900774 10:0.763808 11:-0.30682 12:-0.138317 13:-0.7731 14:-0.629618 15:-0.990331 16:-0.173926 17:0.273002 18:-0.739469 
1 1:-0.834152 2:0.828905 3:0.729548 4:-0.458341 5:0.84834 6:-0.524619 7:-0.540479 8:-0.504728 9:-0.900956 10:0.789762 11:-0.491245 12:-0.344464 13:-0.788121 14:-0.676807 15:-0.990117 16:-0.053768 17:-0.300556 18:-0.741836 
1 1:-0.917119 2:0.787025 3:0.620312 4:-0.263656 5:0.841831 6:-0.615273 7:-0.431042 8:-0.465118 9:-0.906784 10:0.743593 11:-0.533085 12:-0.365262 13:-0.812202 14:-0.701597 15:-0.994866 16:-0.174955 17:0.200182 18:-0.756266 
1 1:-0.932047 2:0.754883 3:0.651224 4:-0.400545 5:0.844394 6:-0.542404 7:-0.398326 8:-0.495989 9:-0.900259 10:0.749679 11:-0.0766476 12:-0.271454 13:-0.645187 14:-0.647117 15:-0.986784 16:-0.174638 17:-0.0714374 18:-0.75334 
1 1:-0.904068 2:0.777285 3:0.671667 4:-0.424076 5:0.840665 6:-0.455852 7:-0.683732 8:-0.517036 9:-0.894112 10:0.737137 11:-0.336728 12:-0.520803 13:-0.825551 14:-0.714992 15:-0.993718 16:-0.111828 17:-0.316273 18:-0.735818 
1 1:-0.9 2:0.804123 3:0.697636 4:-0.294732 5:0.849494 6:-0.518785 7:-0.404242 8:-0.501267 9:-0.896619 10:0.78598 11:-0.278567 12:-0.656823 13:-0.776033 14:-0.761399 15:-0.993473 16:0.00341271 17:-0.317119 18:-0.956431 
1 1:-0.915455 2:0.784157 3:0.677916 4:-0.425174 5:0.844043 6:-0.470187 7:-0.742926 8:-0.519051 9:-0.8964 10:0.744419 11:0.437672 12:-0.0921573 13:-0.59171 14:-0.582858 15:-0.992115 16:-0.00425995 17:-0.592489 18:-0.726024 
1 1:-0.9 2:0.793085 3:0.693686 4:-0.354442 5:0.85082 6:-0.469275 7:-0.288489 8:-0.495557 9:-0.899926 10:0.786306 11:-0.398101 12:-0.244997 13:-0.735798 14:-0.761128 15:-0.991551 16:-0.061603 17:-0.356629 18:-0.893012 
1 1:-0.978479 2:0.791299 3:0.613637 4:-0.344308 5:0.845392 6:-0.453505 7:-0.424042 8:-0.532644 9:-0.885169 10:0.750353 11:0.214581 12:-0.21218 13:-0.815584 14:-0.634403 15:-0.988333 16:-0.141639 17:-0.172813 18:-0.704217 
1 1:-0.9 2:0.800985 3:0.670996 4:-0.396078 5:0.846168 6:-0.498414 7:-0.308205 8:-0.469879 9:-0.872542 10:0.780002 11:-0.123072 12:-0.652416 13:-0.810857 14:-0.662576 15:-0.993102 16:0.010444 17:-0.428568 18:-0.870533 
1 1:-0.881979 2:0.826579 3:0.765026 4:-0.455546 5:0.846072 6:-0.535621 7:-0.560063 8:-0.486703 9:-0.894984 10:0.78448 11:-0.182464 12:-0.461377 13:-0.680821 14:-0.674653 15:-0.99233 16:0.0285567 17:-0.299158 18:-0.731809 
1 1:-0.930783 2:0.768735 3:0.645683 4:-0.418071 5:0.842821 6:-0.576563 7:-0.436553 8:-0.460511 9:-0.906935 10:0.753896 11:0.123351 12:-0.412532 13:-0.784368 14:-0.658012 15:-0.986244 16:-0.150274 17:0.0329355 18:-0.781858 
1 1:-1 2:0.667388 3:0.560864 4:-0.514497 5:0.64716 6:-0.532663 7:-0.178211 8:-0.417626 9:-0.884884 10:0.645647 11:0.936396 12:0.323308 13:-0.205755 14:-0.367666 15:-0.986347 16:0.0392581 17:-0.478012 18:-0.828868 
1 1:-1 2:0.712516 3:0.605472 4:-0.517754 5:0.64287 6:-0.324665 7:-0.175374 8:-0.333764 9:-0.861377 10:0.664123 11:0.88056 12:0.30832 13:-0.34441 14:-0.440856 15:-0.983988 16:-0.187707 17:-0.423927 18:-0.955961 
1 1:-1 2:0.756723 3:0.581646 4:-0.320424 5:0.633736 6:-0.228486 7:-0.146268 8:-0.363425 9:-0.86747 10:0.670471 11:0.879437 12:0.233786 13:-0.318929 14:-0.488343 15:-0.984443 16:-0.073215 17:-0.39307 18:-0.68618 
1 1:-1 2:0.757156 3:0.58389 4:-0.412267 5:0.629354 6:-0.226991 7:-0.0963737 8:-0.370228 9:-0.856278 10:0.691968 11:0.868973 12:0.248395 13:-0.375745 14:-0.461437 15:-0.984135 16:0.0381654 17:-0.459811 18:-0.725844 
1 1:-1 2:0.75694 3:0.612716 4:-0.218369 5:0.631774 6:-0.325901 7:-0.281084 8:-0.351765 9:-0.854968 10:0.646212 11:0.89457 12:0.240308 13:-0.363664 14:-0.464986 15:-0.983224 16:-0.00593464 17:-0.341524 18:-0.697879 
1 1:-1 2:0.721931 3:0.483074 4:-0.384183 5:0.642852 6:-0.342831 7:-0.214137 8:-0.345565 9:-0.858127 10:0.651886 11:0.890555 12:0.256936 13:-0.337263 14:-0.45054 15:-0.978886 16:0.0627234 17:-0.45239 18:-0.810765 
1 1:-0.969567 2:0.757751 3:0.557364 4:-0.168207 5:0.914921 6:-0.462576 7:-0.289647 8:-0.185677 9:-0.802115 10:0.717226 11:0.426536 12:0.197132 13:-0.536817 14:-0.537423 15:-0.978847 16:-0.428272 17:-0.300928 18:-0.840111 
1 1:-0.9093 2:0.722201 3:0.497381 4:-0.0565092 5:0.904054 6:-0.532469 7:-0.362905 8:-0.00432298 9:-0.828641 10:0.859081 11:0.281998 12:0.286533 13:-0.484626 14:-0.295827 15:-0.983388 16:-0.490049 17:-0.0860314 18:-0.913691 
1 1:-0.995974 2:0.747795 3:0.414388 4:-0.0418742 5:0.914768 6:-0.638466 7:-0.278926 8:-0.00060225 9:-0.78028 10:0.706206 11:0.39632 12:0.214795 13:-0.454936 14:-0.358958 15:-0.980495 16:-0.462894 17:-0.292737 18:-0.846144 
1 1:-0.961808 2:0.674585 3:0.568948 4:-0.0741435 5:0.912487 6:-0.557876 7:-0.296416 8:0.00357551 9:-0.783548 10:0.718052 11:0.371176 12:0.0895879 13:-0.447583 14:-0.450503 15:-0.981916 16:-0.308423 17:0.0814309 18:-0.882583 
1 1:-0.990405 2:0.788323 3:0.547514 4:-0.226529 5:0.893171 6:-0.649062 7:-0.0792158 8:-0.646651 9:-0.910742 10:0.765265 11:0.529875 12:0.093798 13:-0.488884 14:-0.456271 15:-0.980809 16:-0.0173526 17:-0.326191 18:-0.831093 
1 1:-0.985492 2:0.73351 3:0.505727 4:-0.232064 5:0.882382 6:-0.556592 7:-0.201984 8:-0.626785 9:-0.891331 10:0.717335 11:0.363594 12:0.156899 13:-0.452256 14:-0.530935 15:-0.979398 16:-0.129798 17:-0.00593798 18:-0.770488 
1 1:-0.988423 2:0.784103 3:0.523737 4:-0.164676 5:0.885868 6:-0.696633 7:-0.110889 8:-0.625742 9:-0.922208 10:0.681556 11:0.862484 12:0.00384662 13:-0.494769 14:-0.562297 15:-0.977317 16:0.0497733 17:-0.143065 18:-0.78533 
1 1:-0.995758 2:0.777555 3:0.521928 4:-0.200132 5:0.886271 6:-0.721373 7:-0.121042 8:-0.61116 9:-0.924223 10:0.774068 11:0.334081 12:0.0839997 13:-0.441138 14:-0.571438 15:-0.980963 16:-0.00507156 17:-0.305253 18:-0.857857 
1 1:-0.981945 2:0.796277 3:0.521242 4:-0.170712 5:0.881464 6:-0.667262 7:-0.136121 8:-0.61965 9:-0.923754 10:0.773699 11:0.678742 12:0.123142 13:-0.422477 14:-0.521725 15:-0.972164 16:0.0185799 17:-0.149511 18:-0.79661 
1 1:-0.990597 2:0.788702 3:0.54693 4:-0.196122 5:0.889545 6:-0.671671 7:-0.0897316 8:-0.664324 9:-0.88356 10:0.774677 11:0.66216 12:-0.0350487 13:-0.54024 14:-0.463923 15:-0.982616 16:0.00948987 17:-0.141018 18:-0.824389 
1 1:-0.983305 2:0.695309 3:0.519129 4:-0.23367 5:0.884484 6:-0.705714 7:-0.191768 8:-0.621432 9:-0.898771 10:0.759178 11:0.315705 12:-0.0352758 13:-0.441519 14:-0.472245 15:-0.976637 16:-0.150298 17:0.00116912 18:-0.836341 
1 1:-0.991369 2:0.775499 3:0.551946 4:-0.197418 5:0.889116 6:-0.623321 7:-0.0593684 8:-0.649215 9:-0.862134 10:0.745549 11:0.556988 12:0.0594611 13:-0.527258 14:-0.555684 15:-0.982374 16:0.004739 17:-0.262627 18:-0.81776 
1 1:-0.997081 2:0.795412 3:0.548601 4:-0.176041 5:0.892263 6:-0.590248 7:-0.0620211 8:-0.685407 9:-0.846226 10:0.761417 11:0.475427 12:0.110855 13:-0.449755 14:-0.551436 15:-0.981415 16:-0.0144545 17:-0.158784 18:-0.924584 
1 1:-0.990387 2:0.765597 3:0.552109 4:-0.2041 5:0.887052 6:-0.648899 7:-0.0655526 8:-0.661312 9:-0.893435 10:0.767482 11:0.624809 12:0.218086 13:-0.505838 14:-0.53734 15:-0.98118 16:-0.000526555 17:-0.123242 18:-0.75219 
1 1:-0.994063 2:0.761431 3:0.52355 4:-0.193299 5:0.8827 6:-0.621112 7:-0.143479 8:-0.621703 9:-0.921366 10:0.750005 11:0.542705 12:0.179564 13:-0.262183 14:-0.468338 15:-0.978041 16:0.0393531 17:-0.289904 18:-0.920537 
1 1:-0.992225 2:0.624425 3:0.441057 4:-0.248005 5:0.891493 6:-0.699136 7:-0.143616 8:-0.639057 9:-0.915429 10:0.641365 11:0.680541 12:0.289405 13:-0.211528 14:-0.553431 15:-0.980025 16:-0.147111 17:-0.0617581 18:-0.71322 
1 1:-0.992665 2:0.766788 3:0.525391 4:-0.252762 5:0.880927 6:-0.558938 7:-0.119358 8:-0.628059 9:-0.923695 10:0.767938 11:0.759267 12:0.253216 13:-0.167103 14:-0.536776 15:-0.977155 16:0.0193836 17:-0.247126 18:-0.788734 
1 1:-1 2:0.661869 3:0.465321 4:-0.0667066 5:0.790499 6:-0.243001 7:0.0328211 8:-0.693572 9:-0.821391 10:0.657233 11:0.886381 12:0.495936 13:-0.166592 14:-0.334888 15:-0.979202 16:-0.0447493 17:-0.230425 18:-0.964479 
1 1:-1 2:0.752827 3:0.584507 4:-0.195229 5:0.77525 6:-0.304277 7:-0.2476 8:-0.499947 9:-0.856198 10:0.730812 11:0.803683 12:0.41176 13:-0.228009 14:-0.435306 15:-0.979863 16:-0.1215 17:-0.136606 18:-0.865487 
1 1:-1 2:0.74352 3:0.600495 4:-0.0312443 5:0.781115 6:-0.322085 7:-0.0933842 8:-0.533362 9:-0.817611 10:0.7612 11:0.747401 12:0.463472 13:-0.45365 14:-0.294827 15:-0.976163 16:-0.230041 17:-0.032295 18:-0.943173 
1 1:-1 2:0.738542 3:0.633021 4:-0.53611 5:0.742705 6:-0.248166 7:-0.234826 8:-0.44561 9:-0.877583 10:0.633344 11:0.727458 12:0.391558 13:-0.362558 14:-0.284814 15:-0.978636 16:0.268381 17:-0.109843 18:-0.784396 
1 1:-1 2:0.706996 3:0.524864 4:-0.327736 5:0.739221 6:-0.316444 7:-0.240079 8:-0.567393 9:-0.837255 10:0.620759 11:0.738767 12:0.219707 13:-0.361938 14:-0.580571 15:-0.986806 16:0.113783 17:-0.459635 18:-0.851466 
1 1:-1 2:0.727396 3:0.608023 4:-0.28769 5:0.740541 6:-0.250709 7:-0.318405 8:-0.564308 9:-0.813819 10:0.656124 11:0.796077 12:0.0171432 13:-0.362851 14:-0.550882 15:-0.980368 16:-0.0625492 17:-0.148051 18:-0.813251 
1 1:-1 2:0.653753 3:0.575723 4:-0.19812 5:0.735911 6:-0.221559 7:-0.147005 8:-0.565381 9:-0.857457 10:0.603521 11:0.698233 12:-0.0703548 13:-0.311834 14:-0.61897 15:-0.982669 16:0.269331 17:-0.226923 18:-0.841888 
1 1:-1 2:0.640387 3:0.495056 4:-0.417023 5:0.749813 6:-0.292198 7:-0.0250316 8:-0.6138 9:-0.890577 10:0.557026 11:0.765146 12:-0.000903602 13:-0.344863 14:-0.55659 15:-0.976242 16:0.101962 17:-0.239173 18:-0.789346 
1 1:-1 2:0.756182 3:0.568016 4:-0.350006 5:0.740979 6:-0.278611 7:-0.311342 8:-0.623358 9:-0.889133 10:0.680709 11:0.669243 12:0.221953 13:-0.374556 14:-0.503316 15:-0.980207 16:0.175517 17:-0.220128 18:-0.713056 
1 1:-1 2:0.710243 3:0.448829 4:-0.320867 5:0.733627 6:-0.264365 7:-0.116642 8:-0.567385 9:-0.875616 10:0.606434 11:0.722916 12:-0.0349174 13:-0.317852 14:-0.383416 15:-0.980315 16:0.0792248 17:-0.311722 18:-0.826188 
1 1:-1 2:0.733997 3:0.530452 4:-0.169583 5:0.836515 6:-0.469789 7:-0.165016 8:-0.496385 9:-0.87699 10:0.768395 11:0.603049 12:0.41386 13:-0.478105 14:-0.341362 15:-0.981115 16:-0.129826 17:-0.12354 18:-0.9081 
1 1:-0.982412 2:0.761647 3:0.66047 4:-0.356127 5:0.838876 6:-0.463502 7:-0.584242 8:-0.415676 9:-0.87557 10:0.737855 11:0.58897 12:0.254483 13:-0.496378 14:-0.46512 15:-0.983962 16:-0.00259715 17:-0.331157 18:-0.925233 
1 1:-0.989163 2:0.775986 3:0.6259 4:-0.192935 5:0.839531 6:-0.47274 7:-0.430947 8:-0.392904 9:-0.874098 10:0.772481 11:0.631724 12:0.261383 13:-0.482278 14:-0.436299 15:-0.983015 16:-0.0922778 17:-0.0604114 18:-0.907144 
1 1:-1 2:0.721498 3:0.573542 4:-0.173738 5:0.839819 6:-0.465652 7:-0.131184 8:-0.445676 9:-0.873568 10:0.746158 11:0.615612 12:0.411245 13:-0.347156 14:-0.351189 15:-0.982633 16:-0.136263 17:-0.309377 18:-0.90162 
1 1:-1 2:0.728207 3:0.539333 4:-0.173264 5:0.838666 6:-0.468317 7:-0.183968 8:-0.43829 9:-0.876039 10:0.763591 11:0.766265 12:0.412855 13:-0.455756 14:-0.409894 15:-0.980642 16:-0.125756 17:-0.059114 18:-0.906801 
1 1:-0.924949 2:0.769493 3:0.632467 4:-0.239781 5:0.839257 6:-0.467945 7:-0.560111 8:-0.466762 9:-0.875288 10:0.742854 11:0.593508 12:0.236481 13:-0.54491 14:-0.492602 15:-0.985437 16:-0.0693667 17:-0.448284 18:-0.920149 
1 1:-1 2:0.72074 3:0.550272 4:-0.169958 5:0.837947 6:-0.468836 7:-0.135132 8:-0.480833 9:-0.874667 10:0.766917 11:0.637888 12:0.323419 13:-0.379101 14:-0.361308 15:-0.98103 16:-0.125886 17:-0.242172 18:-0.904113 
1 1:-1 2:0.767816 3:0.577165 4:-0.281915 5:0.833885 6:-0.498162 7:-0.439342 8:-0.393103 9:-0.873212 10:0.704032 11:0.599322 12:0.256815 13:-0.471855 14:-0.471318 15:-0.983853 16:-0.0145733 17:-0.153713 18:-0.920679 
1 1:-1 2:0.765218 3:0.577859 4:-0.239297 5:0.838299 6:-0.491878 7:-0.436374 8:-0.393103 9:-0.873212 10:0.705336 11:0.653091 12:0.24419 13:-0.458958 14:-0.459972 15:-0.985012 16:0.00156383 17:-0.163448 18:-0.92103 
1 1:-0.98202 2:0.776473 3:0.580338 4:-0.209851 5:0.83867 6:-0.472243 7:-0.435358 8:-0.387722 9:-0.877977 10:0.773003 11:0.60763 12:0.260091 13:-0.499935 14:-0.443993 15:-0.980983 16:-0.10408 17:-0.0581532 18:-0.907667 
1 1:-0.996485 2:0.778962 3:0.599894 4:-0.227848 5:0.837317 6:-0.471503 7:-0.432347 8:-0.376487 9:-0.880004 10:0.772699 11:0.626543 12:0.261202 13:-0.498444 14:-0.437974 15:-0.981814 16:-0.0970485 17:-0.0580218 18:-0.907107 
1 1:-0.923147 2:0.764353 3:0.62893 4:-0.229999 5:0.838802 6:-0.458691 7:-0.500879 8:-0.448537 9:-0.888277 10:0.734138 11:0.593027 12:0.216178 13:-0.541238 14:-0.464702 15:-0.989769 16:-0.0272502 17:-0.0516948 18:-0.915864 
1 1:-0.842458 2:0.750176 3:0.659496 4:-0.153748 5:0.813945 6:0.0456948 7:-0.179621 8:-0.242505 9:-0.836725 10:0.718574 11:0.715212 12:0.32297 13:-0.364376 14:-0.299817 15:-0.975754 16:-0.158101 17:-0.196684 18:-0.935065 
1 1:-0.788393 2:0.729019 3:0.543879 4:-0.113815 5:0.80743 6:0.0782119 7:-0.123363 8:-0.0988008 9:-0.785322 10:0.77672 11:0.737365 12:0.491423 13:-0.067827 14:-0.395966 15:-0.967653 16:-0.0928242 17:-0.0879673 18:-0.909451 
1 1:-0.97713 2:0.737244 3:0.486921 4:-0.0927209 5:0.808223 6:0.145568 7:-0.163784 8:-0.102419 9:-0.79404 10:0.731225 11:0.888167 12:0.315357 13:-0.270405 14:-0.293545 15:-0.974838 16:-0.0239721 17:-0.263015 18:-0.888592 
1 1:-0.928882 2:0.806666 3:0.685815 4:-0.250765 5:0.806648 6:-0.0945404 7:-0.2402 8:-0.146199 9:-0.836508 10:0.807977 11:0.695757 12:0.290733 13:-0.539859 14:-0.451205 15:-0.986792 16:-0.0543104 17:-0.365859 18:-0.818245 
1 1:-0.797174 2:0.807262 3:0.690091 4:-0.207609 5:0.807995 6:-0.133936 7:-0.328811 8:-0.15778 9:-0.816329 10:0.808629 11:0.672391 12:0.245088 13:-0.541903 14:-0.446075 15:-0.987709 16:-0.0137459 17:-0.467758 18:-0.869496 
1 1:-0.921864 2:0.724636 3:0.655981 4:-0.0678816 5:0.808221 6:0.0450588 7:-0.151321 8:-0.0630432 9:-0.798158 10:0.780393 11:0.576059 12:0.465971 13:-0.50447 14:-0.230843 15:-0.98303 16:-0.0156106 17:-0.174745 18:-0.943158 
1 1:-0.781769 2:0.783616 3:0.598739 4:-0.0838199 5:0.808146 6:0.157501 7:-0.159232 8:-0.110032 9:-0.778361 10:0.704945 11:0.969429 12:0.486496 13:-0.108516 14:-0.225698 15:-0.972171 16:-0.218988 17:-0.287475 18:-0.808555 
0.5657626046258554 1:-0.861414 2:0.793518 3:0.612822 4:-0.158594 5:0.808651 6:0.0253343 7:-0.208463 8:-0.223594 9:-0.821039 10:0.667471 11:0.683844 12:0.341844 13:-0.530649 14:-0.402319 15:-0.97828 16:-0.267645 17:-0.259037 18:-0.954699 
1 1:-0.917018 2:0.778962 3:0.576485 4:-0.0728965 5:0.807407 6:0.0563172 7:-0.0732842 8:-0.101817 9:-0.776291 10:0.681839 11:0.811856 12:0.503564 13:-0.156944 14:-0.321219 15:-0.98028 16:-0.0491914 17:-0.179867 18:-0.950653 
1 1:-0.780933 2:0.806504 3:0.690268 4:-0.164554 5:0.806805 6:-0.157091 7:-0.3472 8:-0.184875 9:-0.819341 10:0.797674 11:0.684989 12:0.293317 13:-0.541626 14:-0.451476 15:-0.987776 16:-0.0154166 17:-0.462964 18:-0.783157 
1 1:-0.781167 2:0.729019 3:0.612998 4:-0.182285 5:0.81071 6:0.0305115 7:-0.168337 8:-0.169405 9:-0.849705 10:0.683795 11:0.775444 12:0.377181 13:-0.478617 14:-0.355287 15:-0.980196 16:-0.0391274 17:-0.137709 18:-0.834983 
1 1:-1 2:0.801201 3:0.419726 4:-0.0649792 5:0.84792 6:-0.628433 7:-0.243195 8:-0.499866 9:-0.869448 10:0.760265 11:0.423835 12:0.127044 13:-0.507447 14:-0.503099 15:-0.984487 16:-0.211038 17:-0.23913 18:-0.627345 
1 1:-1 2:0.807153 3:0.57805 4:-0.0484599 5:0.861638 6:-0.608985 7:-0.205453 8:-0.385903 9:-0.871903 10:0.804195 11:0.294169 12:0.105156 13:-0.579949 14:-0.512476 15:-0.985933 16:-0.129085 17:-0.108617 18:-0.842045 
1 1:-1 2:0.754721 3:0.60285 4:-0.124679 5:0.843725 6:-0.612787 7:-0.307358 8:-0.4689 9:-0.892907 10:0.753853 11:0.445267 12:0.020591 13:-0.511038 14:-0.530686 15:-0.985782 16:-0.172682 17:0.180058 18:-0.792676 
1 1:-1 2:0.768898 3:0.581434 4:-0.15239 5:0.84792 6:-0.60959 7:-0.312374 8:-0.473105 9:-0.886726 10:0.752027 11:0.45876 12:-0.00207475 13:-0.629543 14:-0.514173 15:-0.985762 16:-0.192248 17:-0.124533 18:-0.801239 
1 1:-1 2:0.800498 3:0.558303 4:0.0084436 5:0.851001 6:-0.474731 7:-0.295684 8:-0.497143 9:-0.836734 10:0.791805 11:0.496855 12:0.185375 13:-0.496565 14:-0.386454 15:-0.984541 16:-0.168351 17:-0.30405 18:-0.83817 
1 1:-1 2:0.746821 3:0.599174 4:-0.171212 5:0.846625 6:-0.622527 7:-0.335726 8:-0.487993 9:-0.89479 10:0.75181 11:0.162369 12:0.0590774 13:-0.606168 14:-0.52653 15:-0.985726 16:-0.164254 17:0.198183 18:-0.79057 
1 1:-1 2:0.784211 3:0.560367 4:-0.209628 5:0.845792 6:-0.618301 7:-0.298268 8:-0.450685 9:-0.891621 10:0.756179 11:0.294619 12:-0.0461392 13:-0.541592 14:-0.570754 15:-0.985747 16:-0.192244 17:-0.113173 18:-0.802246 
1 1:-1 2:0.809101 3:0.561261 4:-0.0522985 5:0.852259 6:-0.608743 7:-0.253132 8:-0.489726 9:-0.871903 10:0.793957 11:0.461548 12:0.110638 13:-0.572221 14:-0.530949 15:-0.985847 16:-0.14061 17:-0.0830691 18:-0.829943 
1 1:-1 2:0.766138 3:0.524727 4:-0.103592 5:0.845359 6:-0.516986 7:-0.242979 8:-0.522409 9:-0.841556 10:0.776372 11:0.506333 12:0.229969 13:-0.346788 14:-0.407924 15:-0.98437 16:-0.0606687 17:-0.0491266 18:-0.706165 
1 1:-1 2:0.780153 3:0.578796 4:-0.00498795 5:0.851078 6:-0.49522 7:-0.294847 8:-0.497143 9:-0.864034 10:0.792544 11:0.523535 12:0.170872 13:-0.498762 14:-0.429677 15:-0.983988 16:-0.201164 17:-0.277408 18:-0.887114 
1 1:-1 2:0.801959 3:0.531349 4:-0.113473 5:0.846937 6:-0.488175 7:-0.270189 8:-0.510769 9:-0.866923 10:0.769873 11:0.496994 12:0.207829 13:-0.371164 14:-0.387541 15:-0.977937 16:-0.104907 17:-0.181226 18:-0.676572 
1 1:-1 2:0.791407 3:0.565831 4:-0.021087 5:0.85088 6:-0.491619 7:-0.296342 8:-0.497143 9:-0.832275 10:0.792023 11:0.518774 12:0.162835 13:-0.496489 14:-0.428227 15:-0.983399 16:-0.173059 17:-0.427127 18:-0.844606 
1 1:-1 2:0.807586 3:0.59878 4:-0.0264794 5:0.851375 6:-0.608738 7:-0.234068 8:-0.473744 9:-0.871903 10:0.810977 11:0.393801 12:0.0454275 13:-0.617908 14:-0.528562 15:-0.985706 16:-0.136049 17:-0.104988 18:-0.864449 
1 1:-1 2:0.78064 3:0.565052 4:0.00804266 5:0.85157 6:-0.475858 7:-0.296884 8:-0.497143 9:-0.826983 10:0.792044 11:0.609375 12:0.302257 13:-0.494968 14:-0.391003 15:-0.984166 16:-0.175897 17:-0.435004 18:-0.823725 
0.824855115769476 1:-1 2:0.667929 3:0.371144 4:-0.0122051 5:0.850788 6:-0.695619 7:0.123121 8:-0.53517 9:-0.882661 10:0.604108 11:0.883885 12:0.526815 13:-0.18919 14:-0.282164 15:-0.899677 16:-0.322648 17:0.277346 18:-0.97346 
1 1:-1 2:0.639251 3:0.524731 4:-0.0810914 5:0.752685 6:-0.179064 7:0.0262053 8:-0.666714 9:-0.844375 10:0.723834 11:0.626799 12:0.427687 13:-0.282398 14:-0.374805 15:-0.963211 16:-0.117109 17:0.131651 18:-0.67605 
1 1:-0.936271 2:0.747092 3:0.651669 4:-0.237274 5:0.853871 6:-0.440938 7:-0.308195 8:-0.489869 9:-0.869133 10:0.784393 11:0.114783 12:0.218995 13:-0.67894 14:-0.494895 15:-0.984573 16:-0.161478 17:-0.456114 18:-0.953408 
1 1:-0.963693 2:0.746659 3:0.626188 4:-0.168989 5:0.854114 6:-0.461877 7:-0.293353 8:-0.524499 9:-0.866781 10:0.758939 11:0.644341 12:0.246451 13:-0.491719 14:-0.314785 15:-0.978987 16:-0.211394 17:-0.214645 18:-0.966069 
1 1:-0.994005 2:0.757805 3:0.632436 4:-0.143747 5:0.853693 6:-0.459743 7:-0.345574 8:-0.494289 9:-0.85404 10:0.774155 11:0.76748 12:0.426606 13:-0.493078 14:-0.344939 15:-0.980863 16:-0.202506 17:-0.508686 18:-0.900321 
1 1:-0.99755 2:0.752665 3:0.604782 4:-0.114031 5:0.853693 6:-0.459743 7:-0.3127 8:-0.495514 9:-0.886687 10:0.789414 11:0.732845 12:0.417394 13:-0.494376 14:-0.337923 15:-0.97998 16:-0.202811 17:-0.399066 18:-0.898014 
1 1:-0.912372 2:0.75932 3:0.683311 4:-0.21079 5:0.853727 6:-0.4331 7:-0.347358 8:-0.4514 9:-0.880918 10:0.75707 11:0.375703 12:0.176172 13:-0.656666 14:-0.401287 15:-0.980231 16:-0.150777 17:-0.462032 18:-0.901575 
1 1:-0.988609 2:0.767058 3:0.607833 4:-0.0829065 5:0.853693 6:-0.459743 7:-0.349574 8:-0.494484 9:-0.887893 10:0.785306 11:0.676273 12:0.406308 13:-0.490052 14:-0.335138 15:-0.980192 16:-0.204513 17:-0.439412 18:-0.893303 
1 1:-0.991039 2:0.759916 3:0.615286 4:-0.0188796 5:0.853693 6:-0.459743 7:-0.297989 8:-0.493978 9:-0.84231 10:0.757983 11:0.786987 12:0.370108 13:-0.491224 14:-0.33586 15:-0.981666 16:-0.204866 17:-0.395057 18:-0.89932 
1 1:-0.99858 2:0.771982 3:0.621466 4:-0.00820923 5:0.853693 6:-0.459743 7:-0.346047 8:-0.492883 9:-0.831215 10:0.782393 11:0.66994 12:0.447682 13:-0.484088 14:-0.330492 15:-0.982404 16:-0.204252 17:-0.31754 18:-0.897454 
1 1:-0.965135 2:0.746821 3:0.626558 4:-0.178665 5:0.854102 6:-0.488672 7:-0.283011 8:-0.554582 9:-0.86555 10:0.759135 11:0.53271 12:0.320385 13:-0.542652 14:-0.385603 15:-0.977213 16:-0.220251 17:-0.294689 18:-0.967129 
0.7787311851802311 1:-0.987013 2:0.761106 3:0.587467 4:-0.124443 5:0.853693 6:-0.459743 7:-0.320811 8:-0.495108 9:-0.882769 10:0.760352 11:0.718836 12:0.450468 13:-0.490125 14:-0.34579 15:-0.976661 16:-0.203587 17:-0.382902 18:-0.896618 
1 1:-0.985686 2:0.772469 3:0.574789 4:-0.124536 5:0.738009 6:-0.209753 7:-0.334158 8:-0.804406 9:-0.791885 10:0.759396 11:0.618245 12:0.179938 13:-0.387506 14:-0.492134 15:-0.983573 16:-0.0187145 17:-0.327835 18:-0.79661 
1 1:-0.989347 2:0.779287 3:0.618047 4:-0.0787589 5:0.737627 6:-0.349626 7:-0.333521 8:-0.734183 9:-0.802405 10:0.761613 11:0.691859 12:0.292192 13:-0.463571 14:-0.459107 15:-0.983379 16:-0.0229111 17:-0.327866 18:-0.802164 
1 1:-1 2:0.771062 3:0.498473 4:-0.0909685 5:0.742091 6:-0.374407 7:-0.295205 8:-0.822401 9:-0.851474 10:0.772155 11:0.927958 12:0.391108 13:-0.0936902 14:-0.374758 15:-0.981909 16:-0.102544 17:-0.38867 18:-0.846494 
1 1:-0.992928 2:0.624371 3:0.293247 4:-0.0632101 5:0.903858 6:-0.711069 7:-0.0817368 8:-0.626053 9:-0.885551 10:0.7194 11:0.347491 12:-0.0247052 13:-0.42284 14:-0.356255 15:-0.97708 16:-0.137094 17:-0.100638 18:-0.776901 
1 1:-0.999608 2:0.742763 3:0.464161 4:-0.0649071 5:0.892992 6:-0.718285 7:-0.0687579 8:-0.623805 9:-0.907205 10:0.717379 11:0.560686 12:0.538057 13:-0.283705 14:-0.398747 15:-0.978175 16:-0.206916 17:0.00194511 18:-0.712757 
1 1:-1 2:0.704291 3:0.480523 4:0.0258934 5:0.904535 6:-0.58909 7:-0.0520632 8:-0.609919 9:-0.865193 10:0.661493 11:0.840792 12:0.284125 13:-0.383215 14:-0.178801 15:-0.977936 16:-0.149791 17:-0.0399954 18:-0.933348 
1 1:-0.994724 2:0.625561 3:0.513873 4:-0.143928 5:0.903995 6:-0.716215 7:-0.0842158 8:-0.602689 9:-0.910782 10:0.698772 11:0.543446 12:0.603647 13:-0.191345 14:-0.404608 15:-0.975861 16:-0.315846 17:-0.0675431 18:-0.916401 
1 1:-0.988916 2:0.644446 3:0.315975 4:-0.0214698 5:0.892935 6:-0.716062 7:-0.0656368 8:-0.624797 9:-0.910552 10:0.675535 11:0.717468 12:0.166773 13:-0.339687 14:-0.526537 15:-0.97701 16:-0.107722 17:-0.00309268 18:-0.874169 
1 1:-0.998414 2:0.774958 3:0.56107 4:-0.32743 5:0.903528 6:-0.371129 7:-0.409489 8:-0.375714 9:-0.889766 10:0.68123 11:0.617811 12:0.101905 13:-0.672546 14:-0.704156 15:-0.98988 16:-0.165655 17:-0.341191 18:-0.841933 
1 1:-0.961402 2:0.70402 3:0.631313 4:-0.318109 5:0.907623 6:-0.374194 7:-0.373279 8:-0.387921 9:-0.878042 10:0.730595 11:0.397261 12:0.143123 13:-0.403004 14:-0.50714 15:-0.985979 16:-0.094 17:-0.372461 18:-0.89726 
1 1:-0.98366 2:0.778259 3:0.58934 4:-0.46429 5:0.903528 6:-0.371129 7:-0.385026 8:-0.37159 9:-0.896053 10:0.689447 11:0.221965 12:0.129876 13:-0.584688 14:-0.761979 15:-0.989442 16:-0.0576796 17:-0.500766 18:-0.801843 
1 1:-0.940822 2:0.729235 3:0.650008 4:-0.421494 5:0.903528 6:-0.371129 7:-0.415089 8:-0.40652 9:-0.896455 10:0.69249 11:0.327169 12:0.00478051 13:-0.751334 14:-0.747789 15:-0.990104 16:0.00834175 17:-0.347436 18:-0.8901 
1 1:-0.984016 2:0.696066 3:0.597767 4:-0.351823 5:0.908706 6:-0.642735 7:-0.372863 8:-0.376241 9:-0.866267 10:0.699076 11:0.326023 12:0.00268557 13:-0.591629 14:-0.490369 15:-0.985831 16:-0.0917117 17:-0.320681 18:-0.881216 
1 1:-0.94766 2:0.709594 3:0.631997 4:-0.480014 5:0.903528 6:-0.371129 7:-0.380884 8:-0.401279 9:-0.892846 10:0.713444 11:0.771906 12:-0.30099 13:-0.464696 14:-0.441066 15:-0.987702 16:-0.0731358 17:-0.315076 18:-0.900485 
1 1:-1 2:0.773984 3:0.538792 4:-0.213091 5:0.757982 6:-0.252226 7:-0.114468 8:-0.68035 9:-0.838859 10:0.737811 11:0.737747 12:0.29626 13:-0.379026 14:-0.41457 15:-0.977626 16:-0.0798979 17:-0.0713984 18:-0.69175 
1 1:-1 2:0.743466 3:0.530386 4:-0.108772 5:0.761891 6:-0.281191 7:-0.0623947 8:-0.659662 9:-0.787311 10:0.697881 11:0.608304 12:0.349795 13:-0.215953 14:-0.393452 15:-0.970239 16:-0.0894788 17:-0.0250278 18:-0.772004 
1 1:-1 2:0.753152 3:0.503652 4:-0.0693684 5:0.762975 6:-0.279992 7:-0.0398737 8:-0.703625 9:-0.844828 10:0.754092 11:0.904834 12:0.306821 13:-0.311789 14:-0.298176 15:-0.97053 16:-0.133899 17:-0.0194193 18:-0.980097 
1 1:-1 2:0.679887 3:0.5421 4:-0.0484964 5:0.808349 6:-0.390322 7:0.0836579 8:-0.390825 9:-0.782004 10:0.690838 11:0.686629 12:0.502241 13:-0.368329 14:-0.137098 15:-0.969788 16:-0.441004 17:-0.0810983 18:-0.954147 
1 1:-1 2:0.67702 3:0.542782 4:-0.201692 5:0.806421 6:-0.391619 7:0.186168 8:-0.366873 9:-0.778276 10:0.749462 11:0.729936 12:0.49217 13:-0.347914 14:-0.181303 15:-0.969299 16:-0.437583 17:-0.0760729 18:-0.963061 
1 1:-1 2:0.727125 3:0.58546 4:0.0815988 5:0.665933 6:0.174157 7:0.0324632 8:-0.336921 9:-0.736838 10:0.773546 11:0.852746 12:0.563141 13:-0.257455 14:-0.071078 15:-0.953117 16:-0.374017 17:0.10428 18:-0.945248 
1 1:-1 2:0.660841 3:0.523275 4:-0.139053 5:0.667373 6:0.135994 7:0.0913053 8:-0.41592 9:-0.77566 10:0.732377 11:0.871316 12:0.442568 13:-0.212367 14:-0.323251 15:-0.971227 16:-0.107702 17:-0.027559 18:-0.823127 
1 1:-0.954102 2:0.721119 3:0.633876 4:-0.0898266 5:0.858368 6:-0.580743 7:-0.311479 8:-0.291582 9:-0.890607 10:0.747701 11:0.154782 12:-0.0177035 13:-0.696695 14:-0.565238 15:-0.988307 16:-0.11311 17:-0.219018 18:-0.845203 
1 1:-0.879222 2:0.813322 3:0.704045 4:-0.412268 5:0.858531 6:-0.579656 7:-0.414447 8:-0.348961 9:-0.906477 10:0.797261 11:0.372241 12:-0.120033 13:-0.691613 14:-0.602631 15:-0.98788 16:0.00796168 17:-0.293094 18:-0.801485 
1 1:-0.873625 2:0.817759 3:0.709703 4:-0.214598 5:0.860123 6:-0.573105 7:-0.368632 8:-0.374345 9:-0.869282 10:0.798305 11:0.334135 12:-0.0662558 13:-0.679326 14:-0.607569 15:-0.988299 16:0.0102381 17:-0.274491 18:-0.809966 
1 1:-0.940372 2:0.806558 3:0.638656 4:-0.122123 5:0.864192 6:-0.58553 7:-0.329784 8:-0.339567 9:-0.924154 10:0.813325 11:0.381805 12:-0.0756653 13:-0.488611 14:-0.533555 15:-0.988292 16:-0.133876 17:-0.302084 18:-0.852631 
1 1:-0.928662 2:0.695092 3:0.634958 4:-0.188098 5:0.859991 6:-0.651679 7:-0.319732 8:-0.289189 9:-0.841562 10:0.816498 11:0.119231 12:0.0381835 13:-0.618452 14:-0.411227 15:-0.986751 16:-0.117161 17:-0.212292 18:-0.835789 
1 1:-0.932207 2:0.799037 3:0.556618 4:-0.138305 5:0.864571 6:-0.593781 7:-0.339447 8:-0.330264 9:-0.871253 10:0.817281 11:0.176091 12:-0.0636106 13:-0.477505 14:-0.590252 15:-0.987593 16:-0.124845 17:-0.287674 18:-0.847189 
1 1:-0.947143 2:0.737081 3:0.517982 4:-0.116833 5:0.856526 6:-0.62144 7:-0.337347 8:-0.31635 9:-0.899957 10:0.759613 11:0.499524 12:-0.148246 13:-0.408627 14:-0.505404 15:-0.979949 16:-0.116753 17:-0.156914 18:-0.865569 
1 1:-0.970552 2:0.786321 3:0.577005 4:-0.13033 5:0.864738 6:-0.602112 7:-0.331258 8:-0.323743 9:-0.902421 10:0.788501 11:0.369557 12:-0.125 13:-0.492914 14:-0.50396 15:-0.986063 16:-0.133713 17:-0.29542 18:-0.835557 
1 1:-0.935841 2:0.790271 3:0.619707 4:-0.14313 5:0.863218 6:-0.575626 7:-0.331553 8:-0.32506 9:-0.846673 10:0.813716 11:0.0320043 12:0.23318 13:-0.609336 14:-0.446124 15:-0.988279 16:-0.125364 17:-0.313703 18:-0.822762 
1 1:-0.994902 2:0.719009 3:0.542008 4:-0.144883 5:0.857404 6:-0.619526 7:-0.269074 8:-0.300259 9:-0.826593 10:0.72553 11:0.0182846 12:0.0941665 13:-0.637873 14:-0.469029 15:-0.982152 16:-0.117786 17:-0.234847 18:-0.898059 
1 1:-0.895237 2:0.825821 3:0.707738 4:-0.380864 5:0.8614 6:-0.572813 7:-0.420589 8:-0.37953 9:-0.919348 10:0.796131 11:0.0786246 12:-0.103995 13:-0.689824 14:-0.604804 15:-0.98761 16:0.0138369 17:-0.255719 18:-0.801239 
1 1:-0.97877 2:0.737893 3:0.636993 4:-0.202884 5:0.859505 6:-0.599069 7:-0.315753 8:-0.289981 9:-0.890339 10:0.810868 11:0.46138 12:0.0849437 13:-0.477979 14:-0.543031 15:-0.979193 16:-0.118142 17:-0.242108 18:-0.833527 
1 1:-0.91171 2:0.806071 3:0.693362 4:-0.260971 5:0.854342 6:-0.551222 7:-0.275895 8:-0.446215 9:-0.890764 10:0.826628 11:0.057871 12:-0.162966 13:-0.694586 14:-0.623084 15:-0.98905 16:-0.0506721 17:-0.428067 18:-0.82371 
1 1:-0.976148 2:0.779179 3:0.651807 4:-0.121206 5:0.861286 6:-0.637415 7:-0.3105 8:-0.318998 9:-0.891493 10:0.813151 11:0.642112 12:-0.111618 13:-0.433685 14:-0.463157 15:-0.980781 16:-0.108272 17:-0.195301 18:-0.904419 
1 1:-1 2:0.768573 3:0.553013 4:-0.0722265 5:0.846145 6:-0.61046 7:-0.332126 8:-0.483226 9:-0.884728 10:0.748419 11:0.47188 12:0.0477546 13:-0.573359 14:-0.553933 15:-0.985784 16:-0.153798 17:0.155686 18:-0.792243 
1 1:-0.994049 2:0.744332 3:0.630787 4:-0.242898 5:0.841508 6:-0.544688 7:-0.372926 8:-0.398611 9:-0.894312 10:0.744332 11:0.616569 12:0.260924 13:-0.551703 14:-0.455901 15:-0.98531 16:-0.151351 17:-0.0773806 18:-0.858223 
1 1:-1 2:0.720794 3:0.586104 4:-0.0879072 5:0.841772 6:-0.663572 7:-0.243942 8:-0.43956 9:-0.879281 10:0.726399 11:0.23535 12:-0.0100204 13:-0.578771 14:-0.427965 15:-0.983656 16:-0.194992 17:0.276925 18:-0.706136 
1 1:-0.995229 2:0.768898 3:0.614628 4:-0.244924 5:0.841381 6:-0.487792 7:-0.414884 8:-0.399155 9:-0.896112 10:0.743006 11:0.374447 12:0.217516 13:-0.600092 14:-0.470545 15:-0.981409 16:-0.178384 17:0.329779 18:-0.833392 
1 1:-0.988993 2:0.772631 3:0.652178 4:-0.320937 5:0.844528 6:-0.569155 7:-0.548574 8:-0.456323 9:-0.90475 10:0.753462 11:0.120565 12:-0.517895 13:-0.652816 14:-0.594547 15:-0.994048 16:-0.159519 17:-0.163286 18:-0.788293 
1 1:-1 2:0.73535 3:0.53985 4:-0.115929 5:0.841668 6:-0.660149 7:-0.281274 8:-0.484732 9:-0.895332 10:0.720248 11:0.255708 12:0.108427 13:-0.545241 14:-0.518625 15:-0.985229 16:-0.225758 17:0.265612 18:-0.663358 
1 1:-0.982683 2:0.760565 3:0.63502 4:-0.244561 5:0.841134 6:-0.618409 7:-0.384147 8:-0.413656 9:-0.884853 10:0.768264 11:0.368606 12:0.0616671 13:-0.543689 14:-0.557976 15:-0.984449 16:-0.149185 17:0.161828 18:-0.895923 
1 1:-1 2:0.691575 3:0.492288 4:-0.0426717 5:0.84309 6:-0.630982 7:-0.212068 8:-0.435559 9:-0.890173 10:0.719161 11:0.239511 12:0.0402583 13:-0.552887 14:-0.452234 15:-0.981487 16:-0.19635 17:0.265663 18:-0.712339 
1 1:-1 2:0.721931 3:0.514744 4:-0.10559 5:0.842674 6:-0.636691 7:-0.300989 8:-0.506591 9:-0.885715 10:0.733029 11:0.161612 12:-0.0570128 13:-0.545474 14:-0.403096 15:-0.980498 16:-0.204604 17:0.278863 18:-0.77175 
1 1:-0.980537 2:0.773443 3:0.625447 4:-0.241304 5:0.838669 6:-0.621028 7:-0.372179 8:-0.431789 9:-0.891676 10:0.74518 11:0.333057 12:0.11497 13:-0.549893 14:-0.462516 15:-0.981397 16:-0.175972 17:0.150938 18:-0.900657 
1 1:-1 2:0.741194 3:0.489272 4:-0.0746087 5:0.8421 6:-0.639478 7:-0.335179 8:-0.467987 9:-0.870402 10:0.736963 11:0.268031 12:0.0147807 13:-0.535225 14:-0.559776 15:-0.984396 16:-0.225702 17:0.20032 18:-0.706807 
1 1:-0.908977 2:0.748661 3:0.649067 4:-0.381065 5:0.8433 6:-0.529449 7:-0.551816 8:-0.472061 9:-0.910435 10:0.777068 11:-0.38225 12:-0.53045 13:-0.758698 14:-0.746717 15:-0.991532 16:-0.180692 17:0.207985 18:-0.785852 
1 1:-1 2:0.689735 3:0.420861 4:-0.103489 5:0.757339 6:-0.469495 7:-0.226511 8:-0.157379 9:-0.847963 10:0.695207 11:0.809527 12:0.37714 13:-0.292752 14:-0.386733 15:-0.979608 16:-0.143366 17:-0.309419 18:-0.898253 
1 1:-1 2:0.679455 3:0.463215 4:-0.0608002 5:0.756177 6:-0.454637 7:0.0278947 8:-0.172919 9:-0.828736 10:0.694946 11:0.786616 12:0.524478 13:-0.273235 14:-0.229236 15:-0.97188 16:-0.192335 17:-0.0931385 18:-0.86736 
1 1:-1 2:0.787349 3:0.528896 4:0.00989821 5:0.450766 6:0.749195 7:0.0323789 8:-0.488247 9:-0.555049 10:0.768786 11:0.696984 12:0.413284 13:-0.170527 14:-0.124635 15:-0.979581 16:-0.0609023 17:-0.294549 18:-0.883531 
1 1:-1 2:0.729452 3:0.518637 4:-0.20469 5:0.794441 6:-0.404872 7:-0.128826 8:-0.302311 9:-0.85742 10:0.741376 11:0.842744 12:0.37709 13:-0.314297 14:-0.282803 15:-0.972386 16:-0.219455 17:-0.13086 18:-0.957051 
1 1:-1 2:0.7314 3:0.477894 4:-0.126065 5:0.796242 6:-0.494045 7:-0.335053 8:-0.273291 9:-0.873519 10:0.720922 11:0.640245 12:0.129084 13:-0.24458 14:-0.447646 15:-0.974641 16:-0.105564 17:-0.0532016 18:-0.835654 
1 1:-0.984367 2:0.777177 3:0.574643 4:-0.268007 5:0.794135 6:-0.476613 7:-0.266963 8:-0.287398 9:-0.85651 10:0.751027 11:0.196811 12:0.0449378 13:-0.590947 14:-0.530925 15:-0.972508 16:-0.107928 17:0.127387 18:-0.960769 
1 1:-0.962921 2:0.804718 3:0.57306 4:-0.247524 5:0.798638 6:-0.451111 7:-0.279942 8:-0.297055 9:-0.832696 10:0.789153 11:0.477472 12:0.102021 13:-0.500296 14:-0.511213 15:-0.975399 16:-0.0990914 17:0.0551683 18:-0.937588 
1 1:-0.999909 2:0.775012 3:0.586578 4:-0.256517 5:0.796182 6:-0.474363 7:-0.271358 8:-0.193525 9:-0.856521 10:0.758526 11:0.263461 12:-0.0921018 13:-0.57899 14:-0.613385 15:-0.988697 16:0.000269216 17:0.0460925 18:-0.961918 
1 1:-0.952926 2:0.778151 3:0.603786 4:-0.242811 5:0.800565 6:-0.403767 7:-0.250263 8:-0.333916 9:-0.85259 10:0.775503 11:0.461288 12:0.158499 13:-0.505491 14:-0.516312 15:-0.981947 16:-0.120142 17:-0.0672126 18:-0.885584 
