svm_type c_svc
kernel_type rbf
gamma 0.047619
nr_class 2
total_sv 3312
rho 1.12903
label 1 -1
probA -2.27045
probB -0.0163037
nr_sv 1654 1658
SV
1 1:-0.205891 2:0.41135 3:0.768458 4:0.257956 5:-0.697445 6:-0.486993 7:-0.528137 8:0.517892 9:-0.740968 10:-0.0751573 11:-0.0975265 12:-0.489947 13:-0.158041 14:-0.181437 15:-0.147279 16:-0.662281 17:-0.713448 18:-0.561403 19:0.654382 20:0.140016 21:-0.544058 
1 1:-0.489097 2:0.381545 3:0.815535 4:0.403924 5:-0.744691 6:-0.486993 7:-0.701548 8:0.618146 9:-0.758121 10:0.00544125 11:0.00896402 12:-0.557672 13:0.142654 14:-0.476791 15:-0.634542 16:-0.487745 17:-0.788929 18:-0.789916 19:0.726009 20:0.223929 21:-0.663703 
1 1:-0.319739 2:0.448709 3:0.8037 4:0.367073 5:-0.651562 6:-0.486993 7:-0.377513 8:0.583026 9:-0.681761 10:0.469818 11:-0.04474 12:-0.743915 13:-0.161428 14:-0.178935 15:-0.433797 16:-0.641304 17:-0.688754 18:-0.689441 19:0.707998 20:0.219976 21:-0.681487 
1 1:-0.279807 2:0.538124 3:0.881535 4:0.441254 5:-0.621806 6:-0.701302 7:-0.305165 8:0.626661 9:-0.636898 10:0.584424 11:0.189859 12:-0.815873 13:0.118091 14:-0.270458 15:-0.433797 16:-0.67 17:-0.831247 18:-0.785714 19:0.81002 20:0.401613 21:-0.625707 
1 1:-0.0444633 2:0.453812 3:0.869763 4:0.213687 5:-0.535037 6:-0.821186 7:-0.224762 8:0.496502 9:-0.802228 10:0.179221 11:-0.571733 12:-0.869206 13:-0.184404 14:-0.0284964 15:-0.265748 16:-0.809615 17:-0.831247 18:-0.78022 19:0.779193 20:0.116773 21:-0.570736 
1 1:0.190881 2:0.422578 3:0.834507 4:0.0318258 5:-0.264736 6:-0.821186 7:0.0926347 8:0.366299 9:-0.742242 10:0.00765176 11:-0.553117 12:-0.848889 13:-0.448721 14:0.206753 15:-0.521433 16:-0.8625 17:-0.762731 18:-0.846939 19:0.719593 20:-0.214438 21:-0.173808 
1 1:0.305296 2:0.498928 3:0.794757 4:0.0830342 5:-0.776263 6:-0.701302 7:-0.476375 8:0.410404 9:-0.813589 10:0.420507 11:-0.174008 12:-0.803175 13:-0.338462 14:0.299575 15:-0.425717 16:-0.814904 17:-0.702121 18:-0.793956 19:0.669198 20:0.00212306 21:-0.777688 
1 1:-0.416029 2:0.330713 3:0.887967 4:0.307729 5:-0.857581 6:-0.821186 7:-0.685064 8:0.56313 9:-0.828842 10:0.222581 11:-0.517666 12:-0.899683 13:0.28632 14:-0.373417 15:-1 16:-0.665217 17:-0.883379 18:-1 19:0.809964 20:0.119173 21:-0.858529 
1 1:-0.334466 2:0.423599 3:0.92058 4:0.349366 5:-0.686315 6:-0.865949 7:-0.544173 8:0.576411 9:-0.720583 10:-0.0285666 11:-0.0359686 12:-0.845503 13:-0.218182 14:-0.358647 15:-0.147279 16:-0.824755 17:-0.906481 18:-0.754902 19:0.859173 20:0.142749 21:-0.565885 
1 1:-0.0512603 2:0.390834 3:0.854742 4:0.137114 5:-0.435094 6:-0.821186 7:-0.0608615 8:0.432961 9:-0.713081 10:-0.295018 11:-0.388016 12:-0.798095 13:-0.278322 14:-0.122365 15:-0.634542 16:-0.8 17:-0.809447 18:-0.87013 19:0.753802 20:-0.219456 21:-0.107518 
1 1:0.0257717 2:0.386853 3:0.844626 4:0.0832735 5:-0.622033 6:-0.821186 7:-0.445385 8:0.403192 9:-0.760268 10:-0.143683 11:-0.188066 12:-0.767619 13:-0.278322 14:0.0548518 15:-0.634542 16:-0.816667 17:-0.79128 18:-0.880952 19:0.736695 20:-0.168436 21:-0.491512 
1 1:0.248655 2:0.461876 3:0.703539 4:0.0569514 5:-0.368541 6:-0.486993 7:-0.148797 8:0.366821 9:-0.622706 10:-0.171569 11:-0.24383 12:-0.52381 13:-0.514471 14:0.245071 15:-0.508261 16:-0.796296 17:-0.538151 18:-0.73545 19:0.555615 20:-0.192971 21:-0.195635 
1 1:0.0504106 2:0.338063 3:0.828576 4:0.00119646 5:-0.678137 6:-0.821186 7:-0.386463 8:0.346985 9:-0.751196 10:0.116137 11:-0.314191 12:-0.859048 13:-0.461542 14:0.174367 15:-0.68837 16:-0.857407 17:-0.751312 18:-0.89418 19:0.709565 20:-0.35142 21:-0.630558 
1 1:0.0257717 2:0.510667 3:0.626878 4:0.249581 5:-0.281772 6:-0.0514622 7:-0.109864 8:0.510012 9:-0.724877 10:0.0268662 11:0.0372718 12:-0.320635 13:-0.0979009 14:-0.240503 15:-0.878181 16:-0.355469 17:-0.471538 18:-0.888393 19:0.509354 20:-0.0867837 21:-0.168149 
1 1:-0.499858 2:0.494029 3:0.851211 4:0.512802 5:-0.276775 6:-0.486993 7:0.0912549 8:0.698281 9:-0.811194 10:0.456045 11:-0.350222 12:-0.828571 13:-0.0397055 14:-0.452021 15:-0.567744 16:-0.541667 17:-0.760194 18:-0.73545 19:0.780284 20:0.331445 21:-0.438157 
1 1:-0.077032 2:0.403287 3:0.815535 4:0.16894 5:-0.587507 6:-0.701302 7:-0.381466 8:0.45018 9:-0.683058 10:-0.204047 11:-0.267821 12:-0.67619 13:-0.218182 14:-0.00422037 15:-0.634542 16:-0.751736 17:-0.73799 18:-0.85119 19:0.702918 20:-0.0488325 21:-0.427648 
1 1:0.0773152 2:0.431254 3:0.882286 4:0.112228 5:-0.757411 6:-0.89467 7:-0.593847 8:0.428876 9:-0.805307 10:-0.34654 11:-0.45609 12:-0.837037 13:-0.398603 14:-0.00422037 15:-0.390904 16:-0.869048 17:-0.842667 18:-0.829932 19:0.792588 20:-0.168699 21:-0.69038 
1 1:0.48938 2:0.510462 3:0.86472 4:0.00358938 5:-0.887337 6:-0.865949 7:-0.740817 8:0.344235 9:-0.719522 10:-0.406223 11:-0.534946 12:-0.803175 13:-0.398603 14:0.46835 15:-0.878181 16:-0.882479 17:-0.784106 18:-0.969475 19:0.762048 20:-0.162067 21:-0.831043 
1 1:0.144152 2:0.632336 3:0.802008 4:0.362048 5:0.224986 6:-0.486993 7:0.724744 8:0.58866 9:-0.748978 10:0.310321 11:-0.0519278 12:-0.726984 13:-0.442079 14:-0.0896219 15:-0.515658 16:-0.732639 17:-0.604764 18:-0.702381 19:0.705425 20:0.0845712 21:0.248181 
1 1:-0.0835457 2:0.453404 3:0.874029 4:0.235702 5:-0.188416 6:-0.821186 7:0.191721 8:0.492354 9:-0.663216 10:0.153545 11:-0.203512 12:-0.828571 13:-0.0227304 14:-0.225739 15:-0.390904 16:-0.761667 17:-0.863222 18:-0.809524 19:0.786408 20:0.0946919 21:-0.047696 
1 1:-0.367884 2:0.475758 3:0.876969 4:0.422589 5:-0.511641 6:-0.701302 7:-0.200485 8:0.629853 9:-0.753237 10:0.421017 11:0.141905 12:-0.828571 13:-0.202966 14:-0.324488 15:-0.515658 16:-0.713542 17:-0.796276 18:-0.776786 19:0.802617 20:0.181174 21:-0.444624 
1 1:-0.180119 2:0.255588 3:0.704372 4:0.0595836 5:-0.882794 6:-0.486993 7:-0.750326 8:0.912921 9:-0.849958 10:0.265261 11:-0.062176 12:-0.67619 13:-0.307694 14:-0.0522981 15:-0.532555 16:-0.694444 17:-0.626968 18:-0.73545 19:0.55688 20:-0.26555 21:-0.843169 
1 1:0.482583 2:0.42268 3:0.63865 4:-0.143814 5:-0.845088 6:-0.486993 7:-0.581615 8:0.305952 9:-0.800742 10:-0.0110525 11:-0.32774 12:-0.557672 13:-0.577741 14:0.404255 15:-0.287242 16:-0.838235 17:-0.530314 18:-0.64986 19:0.45689 20:-0.321594 21:-0.7308 
1 1:0.31181 2:0.350005 3:0.736878 4:-0.155779 5:-0.824645 6:-0.701302 7:-0.574604 8:0.364926 9:-0.82778 10:-0.362353 11:-0.842393 12:-0.726984 13:-0.582186 14:0.31912 15:-0.435794 16:-0.871094 17:-0.658887 18:-0.776786 19:0.575266 20:-0.455945 21:-0.731609 
1 1:0.306712 2:0.528631 3:0.568579 4:0.128978 5:-0.723566 6:-0.0514622 7:-0.456498 8:0.361974 9:-0.7289 10:0.529502 11:-0.11505 12:-0.6 13:-0.483174 14:0.337288 15:-0.790625 16:-0.672619 17:-0.214603 18:-0.829932 19:0.430517 20:-0.101406 21:-0.848019 
1 1:-0.199377 2:0.376544 3:0.826408 4:0.213687 5:-0.731743 6:-0.701302 7:-0.49849 8:0.327184 9:-0.640625 10:0.275803 11:-0.379445 12:-0.803175 13:-0.184404 14:-0.0284964 15:-0.265748 16:-0.762019 17:-0.771296 18:-0.725275 19:0.720557 20:0.116773 21:-0.631366 
1 1:-0.823846 2:0.512402 3:0.964143 4:0.700646 5:-0.416014 6:-0.821186 7:-0.309901 8:0.662181 9:-0.828099 10:0.357422 11:0.133203 12:-0.848889 13:0.428319 14:-0.521094 15:-1 16:-0.626786 17:-0.916893 18:-1 19:0.93874 20:0.684562 21:-0.802749 
1 1:-0.268479 2:0.454221 3:0.672438 4:0.343384 5:-0.785349 6:-0.0514622 7:-0.687451 8:0.661284 9:-0.870213 10:0.279544 11:0.157307 12:-0.371429 13:-0.104166 14:-0.238046 15:-0.581251 16:-0.404167 17:-0.511506 18:-0.642857 19:0.570972 20:0.146214 21:-0.883589 
1 1:0.0402152 2:0.36552 3:0.837083 4:0.0452261 5:-0.795344 6:-0.821186 7:-0.592131 8:0.584891 9:-0.775757 10:0.0663153 11:-0.299025 12:-0.818413 13:-0.264959 14:0.0417261 15:-0.404451 16:-0.822581 17:-0.80804 18:-0.815668 19:0.723948 20:-0.148552 21:-0.69523 
1 1:-0.151232 2:0.287129 3:0.542776 4:0.0758555 5:-0.960931 6:-0.0514622 7:-0.89614 8:0.82652 9:-0.621468 10:0.321204 11:0.253375 12:-0.346032 13:-0.0549473 14:-0.323688 15:-0.453067 16:-0.379032 17:-0.568234 18:-0.53917 19:0.395616 20:-0.230464 21:-0.438157 
1 1:0.0682526 2:0.486271 3:0.599789 4:0.193348 5:0.156616 6:-0.0514622 7:0.452396 8:0.666766 9:-0.818673 10:-0.0756674 11:-0.0302891 12:-0.244444 13:-0.477736 14:-0.10267 15:-0.177188 16:-0.646429 17:-0.420151 18:-0.285714 19:0.472722 20:-0.0993024 21:-0.749394 
1 1:-0.0739167 2:0.535878 3:0.855519 4:0.334051 5:-0.205451 6:-0.55742 7:0.0998695 8:0.0464473 9:-0.692035 10:0.253188 11:-0.226568 12:-0.803175 13:-0.25577 14:-0.21097 15:-0.162502 16:-0.762019 17:-0.794354 18:-0.656593 19:0.767805 20:0.17622 21:-0.605497 
1 1:0.0886434 2:0.416556 3:0.844779 4:0.0849486 5:-0.558206 6:-0.821186 7:-0.257841 8:0.383305 9:-0.844814 10:0.151335 11:-0.440073 12:-0.869206 13:-0.497569 14:0.294877 15:-0.660766 16:-0.873077 17:-0.739014 18:-0.89011 19:0.736959 20:-0.159236 21:-0.851253 
1 1:-0.348626 2:0.190569 3:0.722988 4:0.117253 5:-0.848722 6:-0.486993 7:-0.753608 8:0.583005 9:-0.663594 10:0.315763 11:-0.0200228 12:-0.67619 13:-0.133703 14:-0.257384 15:-0.361907 16:-0.626543 17:-0.715785 18:-0.647266 19:0.585205 20:-0.146969 21:-0.197251 
1 1:-0.106769 2:0.455956 3:0.835805 4:0.252213 5:-0.802158 6:-0.701302 7:-0.751632 8:0.627202 9:-0.849415 10:-0.120728 11:-0.0545459 12:-0.688889 13:-0.258621 14:-0.121345 15:-0.65345 16:-0.744643 17:-0.745602 18:-0.846939 19:0.735811 20:-0.0330603 21:-0.843977 
1 1:-0.13339 2:0.59212 3:0.82491 4:0.4324 5:-0.63975 6:-0.486993 7:-0.530822 8:0.448824 9:-0.719994 10:0.580514 11:0.545683 12:-0.693122 13:-0.20034 14:-0.185979 15:-0.852748 16:-0.612179 17:-0.640632 18:-0.908425 19:0.74027 20:0.184713 21:-0.734842 
1 1:-0.253186 2:0.353884 3:0.871557 4:0.22302 5:-0.818739 6:-0.821186 7:-0.637442 8:0.434051 9:-0.844885 10:0.0756674 11:-0.130846 12:-0.848889 13:-0.181605 14:-0.381792 15:-0.447425 16:-0.764286 17:-0.865505 18:-0.795918 19:0.782226 20:-0.139521 21:-0.879547 
1 1:-0.209572 2:0.494641 3:0.897304 4:0.355827 5:-0.86962 6:-0.821186 7:-0.739288 8:0.447588 9:-0.860386 10:-0.0860398 11:-0.396161 12:-0.83873 13:-0.173078 14:-0.305728 15:-0.441663 16:-0.772414 17:-0.856055 18:-0.802956 19:0.825749 20:0.12629 21:-0.902183 
1 1:-0.0645709 2:0.515056 3:0.887033 4:0.302943 5:-0.465531 6:-0.821186 7:-0.201156 8:0.355924 9:-0.906759 10:0.144193 11:-0.00913751 12:-0.869206 13:-0.59498 14:-0.19108 15:-0.316333 16:-0.873077 17:-0.794354 18:-0.725275 19:0.808388 20:-0.125266 21:-0.875505 
1 1:0.241575 2:0.635092 3:0.916566 4:0.32448 5:-0.11732 6:-0.865949 7:0.0965504 8:0.166263 9:-0.740508 10:0.26033 11:0.0918554 12:-0.887831 13:-0.718496 14:0.127751 15:-0.14468 16:-0.936782 17:-0.809196 18:-0.753695 19:0.852193 20:0.103448 21:-0.570736 
1 1:-0.180119 2:0.476472 3:0.851777 4:0.318497 5:-0.694265 6:-0.701302 7:-0.407645 8:0.500928 9:-0.932889 10:0.0113926 11:-0.248655 12:-0.739683 13:-0.24199 14:-0.238046 15:-0.162502 16:-0.756048 17:-0.800305 18:-0.654378 19:0.761728 20:0.147044 21:-0.941795 
1 1:-0.366185 2:0.471573 3:0.931549 4:0.417325 5:-0.672686 6:-0.89467 7:-0.499907 8:0.357207 9:-0.848212 10:0.170549 11:0.0482053 12:-0.845503 13:-0.131315 14:-0.39803 15:0.218178 16:-0.824755 17:-0.929991 18:-0.684874 19:0.878246 20:0.347321 21:-0.601455 
1 1:0.17757 2:0.469021 3:0.849263 4:0.107921 5:-0.758773 6:-0.821186 7:-0.495506 8:0.558267 9:-0.776712 10:-0.0625744 11:-0.294032 12:-0.798095 13:-0.398603 14:0.192685 15:-0.593941 16:-0.85 17:-0.765846 18:-0.87013 19:0.744536 20:-0.109052 21:-0.320938 
1 1:0.131408 2:0.402368 3:0.784075 4:0.0387653 5:-0.665872 6:-0.701302 7:-0.479731 8:0.689623 9:-0.758982 10:0.118857 11:-0.00903149 12:-0.739683 13:-0.536924 14:-0.0160335 15:-0.196001 16:-0.844758 17:-0.722948 18:-0.654378 19:0.65186 20:-0.315937 21:-0.457559 
1 1:-0.0917587 2:0.506073 3:0.887645 4:0.306054 5:-0.62703 6:-0.821186 7:-0.387917 8:0.643225 9:-0.774365 10:0.145724 11:-0.0452874 12:-0.828571 13:-0.24199 14:-0.170358 15:-0.441663 16:-0.798333 17:-0.831247 18:-0.809524 19:0.809418 20:0.0910122 21:-0.785772 
1 1:0.463608 2:0.485353 3:0.823365 4:-0.0256042 5:-0.709029 6:-0.821186 7:-0.442439 8:-0.0539453 9:-0.71032 10:0.0926713 11:-0.609952 12:-0.869206 13:-0.570431 14:0.502107 15:-0.825975 16:-0.894231 17:-0.702121 18:-0.945055 19:0.700759 20:-0.273886 21:-0.497171 
1 1:-0.0778816 2:0.398898 3:0.890601 4:0.163915 5:-0.493242 6:-0.829205 7:-0.164535 8:0.637435 9:-0.807195 10:0.196735 11:0.0505523 12:-0.879365 13:-0.249803 14:-0.113839 15:-0.585566 16:-0.831944 17:-0.857893 18:-0.880952 19:0.807052 20:-0.133476 21:-0.641067 
1 1:-0.00679694 2:0.404512 3:0.726142 4:0.127064 5:-0.540261 6:-0.486993 7:-0.341413 8:0.732171 9:-0.793605 10:0.0811087 11:-0.102694 12:-0.625397 13:-0.189954 14:-0.0584711 15:-0.863267 16:-0.633333 17:-0.618086 18:-0.920635 19:0.590003 20:-0.203397 21:-0.718674 
1 1:0.369017 2:0.407574 3:0.750393 4:-0.100024 5:-0.531857 6:-0.701302 7:-0.239381 8:0.57263 9:-0.765918 10:-0.122258 11:-0.404293 12:-0.726984 13:-0.52747 14:0.339361 15:-0.726533 16:-0.849609 17:-0.640152 18:-0.888393 19:0.597204 20:-0.431794 21:-0.562652 
1 1:-0.0594732 2:0.604267 3:0.818719 4:0.413735 5:-0.421238 6:-0.486993 7:-0.0825657 8:0.591819 9:-0.680274 10:0.0778779 11:-0.190241 12:-0.625397 13:-0.225862 14:-0.0796282 15:-0.57234 16:-0.663889 17:-0.644732 18:-0.761905 19:0.730853 20:0.271337 21:-0.524656 
1 1:0.0181252 2:0.532714 3:0.843202 4:0.283082 5:-0.59682 6:-0.701302 7:-0.386202 8:0.322507 9:-0.894644 10:-0.0586635 11:-0.267035 12:-0.803175 13:-0.536924 14:-0.21097 15:-0.464001 16:-0.814904 17:-0.725179 18:-0.725275 19:0.747815 20:-0.18896 21:-0.932094 
1 1:0.0945908 2:0.497295 3:0.747873 4:0.194305 5:-0.601363 6:-0.486993 7:-0.275331 8:-0.0336793 9:-0.875262 10:0.461656 11:-0.174804 12:-0.794709 13:-0.40758 14:-0.118836 15:-0.400003 16:-0.725 17:-0.631409 18:-0.642857 19:0.623065 20:-0.137155 21:-0.927243 
1 1:0.00594732 2:0.581811 3:0.938798 4:0.354391 5:-0.355139 6:-0.942849 7:-0.0908447 8:0.411202 9:-0.875616 10:0.122258 11:-0.0226886 12:-0.90839 13:-0.331781 14:-0.0698554 15:-0.458587 16:-0.873272 17:-0.883187 18:-0.868334 19:0.88707 20:0.164851 21:-0.874697 
1 1:-0.0325687 2:0.461162 3:0.754961 4:0.21632 5:-0.681317 6:-0.486993 7:-0.464628 8:0.567644 9:-0.821056 10:0.0377487 11:-0.208754 12:-0.574603 13:-0.310896 14:-0.10267 15:-0.022914 16:-0.722222 17:-0.683488 18:-0.49495 19:0.63385 20:0.0782992 21:-0.771221 
1 1:-0.121212 2:0.425743 3:0.757377 4:0.223738 5:-0.654514 6:-0.486993 7:-0.439381 8:0.694392 9:-0.609706 10:0.197245 11:0.032713 12:-0.625397 13:-0.310896 14:-0.170358 15:-0.302089 16:-0.694444 17:-0.671377 18:-0.603175 19:0.637524 20:-0.0304316 21:-0.0905416 
1 1:-0.122345 2:0.457997 3:0.906748 4:0.263699 5:-0.902783 6:-0.89467 7:-0.749506 8:0.475989 9:-0.850182 10:0.1748 11:0.0362538 12:-0.870899 13:-0.392464 14:-0.19108 15:-0.0428531 16:-0.866935 17:-0.877662 18:-0.731183 19:0.835128 20:0.0437639 21:-0.341956 
1 1:-0.632682 2:0.306216 3:0.825663 4:0.435272 5:-0.786258 6:-0.486993 7:-0.702182 8:0.433553 9:-0.816915 10:0.120048 11:-0.0643503 12:-0.642328 13:0.022995 14:-0.649745 15:-0.171131 16:-0.525862 17:-0.850542 18:-0.507389 19:0.741413 20:0.236694 21:-0.509297 
1 1:0.140753 2:0.307237 3:0.651586 4:-0.103853 5:-0.975923 6:-0.486993 7:-0.741339 8:0.579611 9:-0.760551 10:0.26203 11:-0.347023 12:-0.67619 13:-0.382567 14:0.287203 15:-0.464001 16:-0.762346 17:-0.567757 18:-0.73545 19:0.47657 20:-0.277817 21:0.069523 
1 1:-0.107052 2:0.580178 3:0.872872 4:0.405599 5:-0.470074 6:-0.701302 7:-0.210703 8:0.638262 9:-0.752458 10:0.282265 11:0.178703 12:-0.726984 13:-0.181605 14:-0.314799 15:-0.0329907 16:-0.742188 17:-0.827501 18:-0.609375 19:0.795966 20:0.292728 21:-0.273242 
1 1:0.635231 2:0.420435 3:0.781809 4:-0.24001 5:-0.430551 6:-0.821186 7:-0.151893 8:0.367747 9:-0.830328 10:-0.26271 11:-0.587842 12:-0.808254 13:-0.933178 14:0.586495 15:-0.458587 16:-0.982813 17:-0.666381 18:-0.821429 19:0.630511 20:-0.649151 21:-0.744543 
1 1:0.697819 2:0.458712 3:0.788596 4:-0.205073 5:-0.420784 6:-0.821186 7:-0.197688 8:0.53857 9:-0.769599 10:-0.183132 11:-0.447934 12:-0.808254 13:-0.867692 14:0.633754 15:-0.732 16:-0.965625 17:-0.651393 18:-0.910714 19:0.641983 20:-0.6181 21:-0.534357 
1 1:0.484565 2:0.560784 3:0.797125 4:0.0928452 5:0.292902 6:-0.701302 7:0.449226 8:0.174763 9:-0.87545 10:-0.0438701 11:-0.288041 12:-0.726984 13:-0.932497 14:0.273057 15:0.230614 16:-0.978516 17:-0.658887 18:-0.497768 19:0.673036 20:-0.159236 21:-0.803557 
1 1:0.211555 2:0.475248 3:0.879977 4:0.0981096 5:-0.391482 6:-0.89467 7:-0.0468395 8:0.490211 9:-0.68655 10:0.17259 11:-0.0438032 12:-0.870899 13:-0.366611 14:0.196876 15:-0.714889 16:-0.866935 17:-0.813198 18:-0.923195 19:0.788576 20:-0.137867 21:-0.571544 
1 1:-0.574342 2:0.362968 3:0.881836 4:0.44245 5:-0.855764 6:-0.701302 7:-0.817155 8:0.57306 9:-0.747598 10:0.34637 11:0.274753 12:-0.688889 13:0.295793 14:-0.582752 15:-0.0329907 16:-0.626786 17:-0.916893 18:-0.642857 19:0.810514 20:0.424325 21:-0.25869 
1 1:0.232795 2:0.557824 3:0.825812 4:0.211295 5:-0.680182 6:-0.701302 7:-0.43692 8:0.62316 9:-0.749792 10:-0.0263561 11:-0.305804 12:-0.765079 13:-0.517627 14:-0.0349878 15:-0.302089 16:-0.834052 17:-0.719614 18:-0.692118 19:0.719593 20:-0.0945164 21:-0.12207 
1 1:-0.543189 2:0.316525 3:0.808347 4:0.38167 5:-0.837138 6:-0.486993 7:-0.731904 8:0.633102 9:-0.721716 10:0.535113 11:0.245823 12:-0.726984 13:0.102565 14:-0.519203 15:-0.48461 16:-0.503472 17:-0.804602 18:-0.702381 19:0.715068 20:0.185775 21:0.23363 
1 1:0.414613 2:0.5468 3:0.848419 4:0.103613 5:0.116865 6:-0.821186 7:0.3416 8:0.522197 9:-0.87341 10:-0.234144 11:-0.522073 12:-0.798095 13:-0.603077 14:0.373839 15:-0.598001 16:-0.9 17:-0.722245 18:-0.87013 19:0.743111 20:-0.129126 21:-0.827809 
1 1:-0.194846 2:0.446667 3:0.647575 4:0.292175 5:-0.810789 6:-0.0514622 7:-0.724967 8:0.648688 9:-0.829078 10:0.298759 11:0.203416 12:-0.447619 13:-0.386199 14:-0.247813 15:-0.447425 16:-0.541667 17:-0.449334 18:-0.4709 19:0.537346 20:-0.0774557 21:-0.751819 
1 1:0.341546 2:0.436154 3:0.765555 4:-0.0373295 5:-0.731516 6:-0.701302 7:-0.470744 8:0.360364 9:-0.779343 10:-0.0719265 11:-0.398079 12:-0.688889 13:-0.791093 14:0.45592 15:0.128425 16:-0.941071 17:-0.659957 18:-0.591837 19:0.621809 20:-0.159236 21:-0.362975 
1 1:0.565845 2:0.428805 3:0.62599 4:-0.183058 5:-0.115048 6:-0.486993 7:0.274249 8:0.509795 9:-0.801049 10:0.191294 11:-0.0347995 12:-0.574603 13:-0.857736 14:0.491223 15:0.00860278 16:-0.944444 17:-0.489705 18:-0.49495 19:0.437629 20:-0.403462 21:-0.610348 
1 1:0.213254 2:0.389405 3:0.674989 4:-0.0313472 5:-0.727428 6:-0.486993 7:-0.449636 8:0.434712 9:-0.606014 10:0.364564 11:-0.231064 12:-0.710053 13:-0.448721 14:0.25832 15:-0.441663 16:-0.78 17:-0.559467 18:-0.714286 19:0.512177 20:-0.238726 21:-0.39612 
1 1:-0.0645709 2:0.401449 3:0.813094 4:0.15889 5:-0.858717 6:-0.55742 7:-0.741563 8:0.396055 9:-0.659984 10:-0.0154736 11:-0.245928 12:-0.688889 13:-0.122451 14:0.00783319 15:-0.453067 16:-0.744643 17:-0.762731 18:-0.795918 19:0.698953 20:0.0489529 21:0.406629 
1 1:-0.212404 2:0.452588 3:0.78497 4:0.309165 5:-0.53163 6:-0.486993 7:-0.315197 8:0.446021 9:-0.698064 10:0.176501 11:-0.165599 12:-0.659259 13:-0.0979009 14:-0.225739 15:-0.543181 16:-0.607143 17:-0.699925 18:-0.744898 19:0.679504 20:0.116773 21:-0.428456 
1 1:0.364486 2:0.447382 3:0.674576 4:-0.0325437 5:-0.604089 6:-0.486993 7:-0.324035 8:0.328932 9:-0.603749 10:0.267982 11:-0.251922 12:-0.693122 13:-0.66075 14:0.313857 15:-0.312822 16:-0.858974 17:-0.517655 18:-0.6337 19:0.511546 20:-0.303609 21:-0.624899 
1 1:0.182101 2:0.403899 3:0.688194 4:0.00957167 5:-0.758092 6:-0.486993 7:-0.550737 8:0.487722 9:-0.828004 10:0.200136 11:-0.172235 12:-0.642328 13:-0.461542 14:0.0988099 15:-0.220925 16:-0.778736 17:-0.602467 18:-0.589491 19:0.532266 20:-0.227762 21:-0.859337 
1 1:-0.0512603 2:0.607737 3:0.908666 4:0.414453 5:0.0634867 6:-0.821186 7:0.310125 8:0.644718 9:-0.901828 10:-0.150825 11:-0.0125219 12:-0.828571 13:-0.726639 14:-0.00422037 15:-0.667774 16:-0.908333 17:-0.719338 18:-0.857143 19:0.844959 20:-0.0157115 21:-0.79709 
1 1:-0.161144 2:0.355415 3:0.738151 4:0.164154 5:-0.750369 6:-0.486993 7:-0.503002 8:-0.00233882 9:-0.290264 10:0.351471 11:-0.173702 12:-0.726984 13:-0.117952 14:-0.232627 15:-0.464001 16:-0.618056 17:-0.704683 18:-0.702381 19:0.608272 20:-0.0856333 21:0.00646726 
1 1:-0.0283206 2:0.432786 3:0.74231 4:0.177076 5:-0.456445 6:-0.486993 7:-0.0202499 8:0.400314 9:-0.823698 10:0.533923 11:-0.38248 12:-0.828571 13:-0.291209 14:-0.141351 15:-0.28215 16:-0.694444 17:-0.671377 18:-0.603175 19:0.614603 20:-0.0610995 21:-0.469685 
1 1:0.0121779 2:0.522609 3:0.908172 4:0.272553 5:-0.529358 6:-0.89467 7:-0.270558 8:0.412714 9:-0.770224 10:0.13212 11:-0.418318 12:-0.904762 13:-0.346632 14:0.017658 15:-0.338269 16:-0.864198 17:-0.849011 18:-0.823633 19:0.837598 20:0.118817 21:-0.746968 
1 1:-0.308978 2:0.619679 3:0.860504 4:0.542953 5:-0.730835 6:-0.486993 7:-0.378855 8:0.124757 9:-0.736674 10:0.754974 11:0.161286 12:-0.794709 13:-0.278322 14:-0.240503 15:0.461817 16:-0.725 17:-0.751312 18:-0.285714 19:0.794423 20:0.558386 21:-0.885206 
1 1:0.644577 2:0.280086 3:0.521694 4:-0.505863 5:-0.864168 6:-0.486993 7:-0.63554 8:0.496981 9:-0.684981 10:-0.0465907 11:-0.455872 12:-0.574603 13:-0.781911 14:0.670883 15:-0.410991 16:-0.916667 17:-0.44126 18:-0.7114 19:0.278951 20:-0.778164 21:0.210186 
1 1:-0.0645709 2:0.480147 3:0.878516 4:0.258674 5:-0.716752 6:-0.821186 7:-0.532612 8:0.460264 9:-0.806841 10:-0.017514 11:-0.248954 12:-0.828571 13:-0.32496 14:-0.0584711 15:-0.5898 16:-0.816667 17:-0.799273 18:-0.857143 19:0.793985 20:-0.00467117 21:-0.822959 
1 1:0.379779 2:0.527917 3:0.796492 4:0.090213 5:-0.429869 6:-0.701302 7:-0.148797 8:0.539798 9:-0.741593 10:0.0811087 11:-0.373387 12:-0.777778 13:-0.538465 14:0.249924 15:-0.532555 16:-0.852679 17:-0.66424 18:-0.808674 19:0.672011 20:-0.167122 21:-0.49232 
1 1:0.51062 2:0.159845 3:0.624691 4:-0.619048 5:-0.783986 6:-0.701302 7:-0.481633 8:0.408871 9:-0.49404 10:0.00272063 11:-0.62016 12:-0.765079 13:-0.757976 14:0.557683 15:-0.346349 16:-0.928879 17:-0.616249 18:-0.753695 19:0.393207 20:-0.977744 21:0.666128 
1 1:0.301897 2:0.449015 3:0.865176 4:0.00646088 5:-0.549574 6:-0.89467 7:-0.240164 8:0.495335 9:-0.774388 10:-0.234654 11:-0.673459 12:-0.845503 13:-0.507366 14:0.404255 15:-0.429791 16:-0.905637 17:-0.800684 18:-0.859944 19:0.762843 20:-0.130011 21:-0.571544 
1 1:0.403002 2:0.385016 3:0.736303 4:-0.158172 5:-0.480295 6:-0.55742 7:-0.20496 8:0.38089 9:-0.70375 10:-0.0707363 11:-0.659027 12:-0.765079 13:-0.533034 14:0.419707 15:-0.684712 16:-0.857759 17:-0.636922 18:-0.876847 19:0.574335 20:-0.437148 21:-0.632983 
1 1:0.512036 2:0.382668 3:0.718571 4:-0.231395 5:-0.768313 6:-0.55742 7:-0.51184 8:0.52835 9:-0.819015 10:-0.232443 11:-0.781477 12:-0.726984 13:-0.632476 14:0.619316 15:-0.702226 16:-0.892578 17:-0.602682 18:-0.888393 19:0.545558 20:-0.462845 21:-0.819725 
1 1:0.367035 2:0.471165 3:0.829236 4:0.00454654 5:-0.545031 6:-0.641914 7:-0.263397 8:0.375792 9:-0.798607 10:0.00221051 11:-0.45345 12:-0.848889 13:-0.624128 14:0.364976 15:-0.695459 16:-0.901786 17:-0.711344 18:-0.897959 19:0.710684 20:-0.324841 21:-0.767179 
1 1:0.291985 2:0.351842 3:0.74075 4:-0.139746 5:-0.424645 6:-0.701302 7:-0.0852508 8:0.235105 9:-0.470529 10:0.283965 11:-0.490759 12:-0.828571 13:-0.328877 14:0.321102 15:-0.805794 16:-0.799479 17:-0.671377 18:-0.925595 19:0.58155 20:-0.380043 21:0.401778 
1 1:0.595299 2:0.363887 3:0.697455 4:-0.318497 5:-0.351505 6:-0.701302 7:-0.0897632 8:0.620651 9:-0.729608 10:-0.0663153 11:-0.681095 12:-0.765079 13:-0.684982 14:0.284103 15:-0.0428531 16:-0.905172 17:-0.678268 18:-0.630542 19:0.511288 20:-0.631306 21:-0.573969 
1 1:-0.0413481 2:0.452383 3:0.825526 4:0.210098 5:-0.241567 6:-0.55742 7:0.0706321 8:0.650631 9:-0.888793 10:-0.135521 11:-0.335286 12:-0.726984 13:-0.481149 14:0.21585 15:-0.737253 16:-0.828125 17:-0.658887 18:-0.888393 19:0.719132 20:-0.0453824 21:-0.901374 
1 1:0.348626 2:0.597122 3:0.870544 4:0.217755 5:0.301079 6:-0.821186 7:0.480701 8:0.639523 9:-0.855573 10:0.294338 11:-0.079916 12:-0.869206 13:-0.760887 14:0.380103 15:-0.515658 16:-0.936538 17:-0.702121 18:-0.835165 19:0.780514 20:-0.0360942 21:-0.83266 
1 1:-0.455395 2:0.421966 3:0.820982 4:0.420675 5:-0.597501 6:-0.486993 7:-0.353272 8:0.479748 9:-0.87144 10:0.530182 11:0.103248 12:-0.760847 13:-0.0811971 14:-0.283168 15:-0.627775 16:-0.583333 17:-0.707711 18:-0.78355 19:0.734292 20:0.237213 21:-0.721908 
1 1:-0.592467 2:0.129836 3:0.632281 4:0.260589 5:-0.691085 6:-0.0514622 7:-0.576245 8:0.499937 9:-0.835849 10:0.398572 11:0.0147711 12:-0.650794 13:-0.413825 14:-0.445387 15:-0.491136 16:-0.493421 17:-0.503092 18:-0.43609 19:0.516664 20:-0.350989 21:-0.742926 
1 1:-0.405268 2:0.194141 3:0.738422 4:0.165829 5:-0.942987 6:-0.486993 7:-0.841842 8:0.571157 9:-0.732923 10:0.250468 11:-0.0434386 12:-0.67619 13:-0.248255 14:-0.373417 15:-0.0863628 16:-0.660494 17:-0.745391 18:-0.4709 19:0.608681 20:-0.14288 21:-0.550525 
1 1:-0.57774 2:0.587935 3:0.985731 4:0.634362 5:0.384895 6:-0.976102 7:0.823905 8:0.611568 9:-0.857991 10:-0.229723 11:-0.226692 12:-0.904762 13:0.0445347 14:-0.387666 15:-0.529822 16:-0.828125 17:-0.954481 18:-0.900794 19:0.968758 20:0.58292 21:-0.805982 
1 1:0.398471 2:0.54435 3:0.904643 4:0.107681 5:-0.212947 6:-0.942849 7:-0.072273 8:0.722815 9:-0.761848 10:-0.284645 11:-0.278156 12:-0.886621 13:-0.884952 14:0.283434 15:-0.30087 16:-0.976891 17:-0.809081 18:-0.819928 19:0.826445 20:-0.285875 21:-0.494745 
1 1:-0.283206 2:0.488007 3:0.868761 4:0.38861 5:-0.180239 6:-0.701302 7:0.223382 8:0.802164 9:-0.69699 10:-0.17276 11:-0.226483 12:-0.777778 13:-0.338462 14:-0.358647 15:-0.634542 16:-0.729911 17:-0.771296 18:-0.808674 19:0.789291 20:-0.0291178 21:-0.339531 
1 1:0.0220901 2:0.408492 3:0.722138 4:0.114621 5:-0.466212 6:-0.486993 7:-0.12396 8:0.45394 9:-0.679802 10:0.0860398 11:-0.244047 12:-0.625397 13:-0.345733 14:-0.257384 15:0.178019 16:-0.725 17:-0.724667 18:-0.365079 19:0.583912 20:-0.115075 21:0.132579 
1 1:0.466723 2:0.439522 3:0.807886 4:-0.105528 5:-0.46803 6:-0.821186 7:-0.150998 8:0.631898 9:-0.866343 10:0.0882503 11:-0.497034 12:-0.83873 13:-0.673313 14:0.579204 15:-0.503705 16:-0.924138 17:-0.70721 18:-0.852217 19:0.674588 20:-0.288674 21:-0.751819 
1 1:0.0679694 2:0.471879 3:0.861997 4:0.173726 5:-0.282226 6:-0.821186 7:0.0606004 8:0.782732 9:-0.853402 10:-0.197415 11:-0.540012 12:-0.767619 13:-0.249803 14:0.0871267 15:-0.171131 16:-0.831944 17:-0.817925 18:-0.761905 19:0.766065 20:0.113706 21:-0.522231 
1 1:-0.227981 2:0.635399 3:0.930121 4:0.525245 5:-0.338558 6:-0.821186 7:-0.0654857 8:0.401705 9:-0.531907 10:0.454515 11:0.310902 12:-0.879365 13:-0.331027 14:-0.45555 15:-0.0966272 16:-0.802 17:-0.879209 18:-0.657143 19:0.881224 20:0.317707 21:-0.0784155 
1 1:0.00594732 2:0.612841 3:0.928037 4:0.395549 5:-0.379671 6:-0.89467 7:-0.245385 8:0.685388 9:-0.829137 10:0.177521 11:0.0584399 12:-0.870899 13:-0.465425 14:-0.13549 15:-0.0525279 16:-0.88172 17:-0.864769 18:-0.731183 19:0.872136 20:0.225395 21:-0.524656 
1 1:-0.405268 2:0.422374 3:0.869287 4:0.390763 5:-0.584554 6:-0.701302 7:-0.33526 8:0.421761 9:-0.787884 10:0.149634 11:-0.209971 12:-0.790476 13:-0.0227304 14:-0.373417 15:-0.543181 16:-0.668981 17:-0.826807 18:-0.801587 19:0.790147 20:0.196508 21:-0.721099 
1 1:-0.463325 2:0.573849 3:0.912251 4:0.567839 5:-0.295173 6:-0.701302 7:-0.0906582 8:0.225843 9:-0.78563 10:0.170549 11:-0.246465 12:-0.815873 13:-0.0660678 14:-0.268307 15:-0.842349 16:-0.67 17:-0.783286 18:-0.928571 19:0.859874 20:0.42811 21:-0.71059 
1 1:0.280657 2:0.491783 3:0.795256 4:0.0851878 5:-0.0650767 6:-0.701302 7:0.469812 8:0.402994 9:-0.820041 10:0.140282 11:-0.349675 12:-0.84127 13:-0.601483 14:0.145237 15:-0.838557 16:-0.850543 17:-0.627934 18:-0.92236 19:0.670007 20:-0.428044 21:-0.483428 
1 1:0.16964 2:0.472594 3:0.723118 4:0.117732 5:-0.829869 6:-0.486993 7:-0.544098 8:0.468704 9:-0.835589 10:0.120048 11:-0.332815 12:-0.625397 13:-0.377374 14:0.190371 15:-0.369411 16:-0.755556 17:-0.591441 18:-0.68254 19:0.585403 20:-0.0193913 21:0.316896 
1 1:-0.158879 2:0.454017 3:0.842467 4:0.279971 5:-0.693129 6:-0.701302 7:-0.403282 8:-0.0123554 9:-0.838279 10:0.490053 11:-0.113206 12:-0.879365 13:-0.40758 14:-0.118836 15:-0.400003 16:-0.79375 17:-0.74132 18:-0.732143 19:0.74662 20:-0.00467117 21:-0.386419 
1 1:-0.112716 2:0.411248 3:0.749978 4:0.200766 5:-0.70176 6:-0.486993 7:-0.382734 8:-0.183938 9:-0.771262 10:0.598708 11:0.0136143 12:-0.81164 13:-0.474971 14:-0.154243 15:-0.149209 16:-0.758772 17:-0.650341 18:-0.498747 19:0.626268 20:-0.112751 21:-0.312854 
1 1:0.0719343 2:0.542819 3:0.839907 4:0.269442 5:-0.424191 6:-0.701302 7:-0.165542 8:0.376001 9:-0.498416 10:0.383778 11:-0.164476 12:-0.828571 13:-0.184404 14:-0.0284964 15:-0.632881 16:-0.742188 17:-0.746316 18:-0.85119 19:0.742467 20:0.0983717 21:0.171382 
1 1:-0.743415 2:0.560069 3:0.962409 4:0.691792 5:-0.311073 6:-0.821186 7:0.151371 8:0.801844 9:-0.689417 10:0.472539 11:0.40472 12:-0.859048 13:0.351528 14:-0.906171 15:-0.423654 16:-0.612963 17:-1 18:-0.78836 19:0.935809 20:0.613588 21:-0.101051 
1 1:-0.696686 2:0.519036 3:0.952079 4:0.63843 5:-0.349915 6:-0.821186 7:-0.109342 8:0.778987 9:-0.784238 10:0.47968 11:0.282102 12:-0.879365 13:0.089592 14:-0.650531 15:-0.369411 16:-0.692 17:-0.936762 18:-0.771429 19:0.918345 20:0.538514 21:-0.299111 
1 1:-0.354574 2:0.537716 3:0.92122 4:0.478823 5:-0.669733 6:-0.821186 7:-0.401939 8:0.659224 9:-0.690726 10:0.406223 11:-0.11979 12:-0.899683 13:-0.00316215 14:-0.206519 15:-0.816434 16:-0.736957 17:-0.841674 18:-0.937888 19:0.866177 20:0.35438 21:-0.691188 
1 1:0.506939 2:0.567317 3:0.879232 4:0.0933238 5:-0.114367 6:-0.89467 7:0.0670147 8:0.404259 9:-0.717622 10:-0.537324 11:-0.221534 12:-0.743915 13:-0.756786 14:0.629933 15:-0.70441 16:-0.950181 17:-0.740886 18:-0.92236 19:0.787283 20:-0.108835 21:0.383994 
1 1:0.248938 2:0.374196 3:0.468784 4:-0.0770519 5:-0.588643 6:-0.0514622 7:-0.196905 8:0.307024 9:-0.842844 10:0.492263 11:-0.137891 12:-0.574603 13:-0.498832 14:0.29114 15:-0.593941 16:-0.6875 17:-0.253532 18:-0.675325 19:0.295551 20:-0.364988 21:-0.603072 
1 1:-0.0184084 2:0.574666 3:0.861007 4:0.356545 5:-0.66678 6:-0.701302 7:-0.353272 8:0.586063 9:-0.75628 10:0.56623 11:0.128549 12:-0.866667 13:-0.243955 14:-0.164555 15:-0.617149 16:-0.738095 17:-0.757022 18:-0.829932 19:0.776709 20:0.119401 21:-0.700081 
1 1:-0.562164 2:0.387363 3:0.832176 4:0.455372 5:-0.784668 6:-0.486993 7:-0.599478 8:0.65715 9:-0.791859 10:0.583914 11:-0.0205131 12:-0.777778 13:-0.0549473 14:-0.463666 15:0.0634891 16:-0.607143 17:-0.804602 18:-0.433107 19:0.751323 20:0.371752 21:-0.810833 
1 1:0.243557 2:0.543534 3:0.893896 4:0.184255 5:-0.446905 6:-0.89467 7:-0.21928 8:0.466406 9:-0.726753 10:-0.39041 11:-0.373375 12:-0.803175 13:-0.378042 14:0.313857 15:-0.88547 16:-0.870726 17:-0.794354 18:-0.969475 19:0.812776 20:-0.00353843 21:-0.196443 
1 1:-0.371566 2:0.488211 3:0.934914 4:0.437186 5:-0.602953 6:-0.89467 7:-0.487115 8:0.644838 9:-0.79121 10:0.0729468 11:0.113823 12:-0.862434 13:-0.106031 14:-0.424639 15:-0.517118 16:-0.785156 17:-0.908685 18:-0.85119 19:0.884098 20:0.203025 21:-0.468068 
1 1:-0.0832625 2:0.610391 3:0.87961 4:0.432161 5:-0.633617 6:-0.701302 7:-0.303226 8:0.642952 9:-0.802228 10:0.320184 11:-0.291088 12:-0.879365 13:-0.365652 14:-0.0284964 15:-1 16:-0.759375 17:-0.681369 18:-1 19:0.806902 20:0.138853 21:-0.660469 
1 1:-0.591334 2:0.429621 3:0.897961 4:0.508973 5:-0.53004 6:-0.701302 7:-0.408092 8:0.698626 9:-0.832758 10:0.332256 11:0.185492 12:-0.777778 13:0.138129 14:-0.626691 15:-0.423654 16:-0.607143 17:-0.899764 18:-0.744898 19:0.836676 20:0.357294 21:-0.488278 
1 1:0.31011 2:0.404001 3:0.472431 4:-0.0693946 5:-0.89506 6:-0.0514622 7:-0.517546 8:0.299194 9:-0.748188 10:0.640877 11:-0.254299 12:-0.650794 13:-0.745559 14:0.188896 15:0.546156 16:-0.855263 17:-0.376878 18:0.12782 19:0.300485 20:-0.211532 21:-0.9038 
1 1:-0.235061 2:0.437583 3:0.945905 4:0.305336 5:-0.758092 6:-0.976102 7:-0.706806 8:0.557655 9:-0.799657 10:-0.508757 11:-0.301068 12:-0.873016 13:-0.230771 14:-0.127855 15:-0.480617 16:-0.874238 17:-0.917519 18:-0.891115 19:0.896943 20:0.11004 21:-0.609539 
1 1:-0.0804305 2:0.626825 3:0.830915 4:0.451543 5:-0.19205 6:-0.486993 7:0.281559 8:0.63887 9:-0.676771 10:0.544975 11:0.109107 12:-0.760847 13:-0.254606 14:0.00410341 15:-0.811261 16:-0.666667 17:-0.598708 18:-0.891775 19:0.749404 20:0.297432 21:-0.246564 
1 1:-0.144718 2:0.492498 3:0.851897 4:0.318019 5:-0.446905 6:-0.701302 7:-0.179937 8:0.564936 9:-0.790833 10:0.371705 11:-0.0112557 12:-0.84127 13:-0.421155 14:-0.21097 15:-0.330001 16:-0.790761 17:-0.758263 18:-0.689441 19:0.761925 20:0.00876934 21:-0.443816 
1 1:0.00764656 2:0.449015 3:0.817606 4:0.177315 5:-0.807382 6:-0.701302 7:-0.585829 8:0.480742 9:-0.865518 10:0.194525 11:-0.254693 12:-0.777778 13:-0.282668 14:0.223524 15:-0.838557 16:-0.779018 17:-0.685651 18:-0.936225 19:0.706277 20:0.00242667 21:-0.801132 
1 1:-0.774002 2:0.464224 3:0.816929 4:0.641541 5:-0.700625 6:-0.0514622 7:-0.421406 8:0.786569 9:-0.824512 10:0.82673 11:0.518718 12:-0.752381 13:0.173693 14:-0.766434 15:-1 16:0.00833334 17:-0.751312 18:-1 19:0.766375 20:0.385421 21:-0.746968 
1 1:-0.0538091 2:0.419414 3:0.862285 4:0.175162 5:-0.692902 6:-0.821186 7:-0.531792 8:0.473968 9:-0.82686 10:-0.0253358 11:-0.198243 12:-0.787937 13:-0.148515 14:-0.34929 15:0.0613853 16:-0.789706 17:-0.887672 18:-0.663866 19:0.766549 20:-0.00337282 21:-0.621665 
1 1:-0.746531 2:0.175462 3:0.877016 4:0.422828 5:-0.702896 6:-0.701302 7:-0.728436 8:0.636838 9:-0.802629 10:-0.0224452 11:0.127549 12:-0.714286 13:-0.117952 14:-0.535863 15:-0.441663 16:-0.666667 17:-0.853048 18:-0.729437 19:0.802692 20:0.125137 21:-0.60388 
1 1:-0.115831 2:0.447178 3:0.834375 4:0.24671 5:-0.729699 6:-0.701302 7:-0.530599 8:0.510961 9:-0.746324 10:0.0153035 11:-0.431826 12:-0.765079 13:-0.0979009 14:-0.0780557 15:-0.695459 16:-0.715517 17:-0.760959 18:-0.876847 19:0.733492 20:0.0691854 21:-0.715441 
1 1:-0.0348343 2:0.383893 3:0.5631 4:0.117732 5:-0.684497 6:-0.0514622 7:-0.36446 8:0.431007 9:-0.794313 10:0.273593 11:-0.241467 12:-0.498413 13:-0.40631 14:-0.0193669 15:-0.312822 16:-0.615 17:-0.399596 18:-0.428571 19:0.423104 20:-0.150404 21:-0.664511 
1 1:-0.148683 2:0.407268 3:0.870577 4:0.217995 5:-0.813515 6:-0.821186 7:-0.610852 8:0.488755 9:-0.724642 10:0.171569 11:-0.129054 12:-0.83873 13:-0.191456 14:-0.10267 15:-0.553339 16:-0.791379 17:-0.822978 18:-0.852217 19:0.780566 20:0.000659108 21:-0.751819 
1 1:-0.0858114 2:0.395121 3:0.860168 4:0.164154 5:-0.771493 6:-0.821186 7:-0.463621 8:0.458256 9:-0.765269 10:0.288896 11:-0.294961 12:-0.869206 13:-0.206155 14:-0.0593548 15:-0.285339 16:-0.809615 17:-0.831247 18:-0.78022 19:0.76297 20:0.0191075 21:-0.751011 
1 1:-0.0909091 2:0.555374 3:0.899472 4:0.367073 5:-0.762635 6:-0.821186 7:-0.682678 8:0.61201 9:-0.895352 10:-0.0719265 11:-0.0758656 12:-0.767619 13:0.0727625 14:-0.249021 15:-0.758559 16:-0.725 17:-0.857893 18:-0.920635 19:0.829413 20:0.221042 21:-0.661277 
1 1:-0.470688 2:0.383383 3:0.870032 4:0.393874 5:-0.60159 6:-0.701302 7:-0.43636 8:0.609435 9:-0.744401 10:0.374426 11:-0.0535846 12:-0.739683 13:0.187374 14:-0.435894 15:0.374355 16:-0.689516 17:-0.897001 18:-0.53917 19:0.791351 20:0.446202 21:-0.588521 
1 1:0.420561 2:0.399204 3:0.638003 4:-0.145729 5:-0.644066 6:-0.486993 7:-0.311095 8:0.247192 9:-0.742749 10:0.21765 11:-0.74261 12:-0.710053 13:-0.498832 14:0.684951 15:-0.796964 16:-0.816667 17:-0.463545 18:-0.904762 19:0.455902 20:-0.251975 21:-0.704123 
1 1:-0.676579 2:0.370624 3:0.75561 4:0.514956 5:-0.889381 6:-0.0514622 7:-0.802051 8:0.716358 9:-0.932464 10:0.451114 11:0.0666063 12:-0.549206 13:0.288708 14:-0.763711 15:-0.477924 16:-0.103261 17:-0.810395 18:-0.534161 19:0.68345 20:0.35918 21:-0.896524 
1 1:-0.276692 2:0.500766 3:0.871263 4:0.398899 5:-0.691766 6:-0.701302 7:-0.472571 8:0.618766 9:-0.787884 10:-0.0416596 11:-0.525904 12:-0.752381 13:-0.0979009 14:-0.0780557 15:-0.543181 16:-0.725 17:-0.771296 18:-0.821429 19:0.793355 20:0.315499 21:-0.625707 
1 1:-0.708864 2:0.309993 3:0.943486 4:0.491266 5:-0.535718 6:-0.89467 7:-0.3978 8:0.672073 9:-0.724382 10:-0.245026 11:0.253832 12:-0.743915 13:0.27897 14:-0.752457 15:-0.374663 16:-0.711051 17:-0.984167 18:-0.818841 19:0.899004 20:0.34718 21:-0.0485044 
1 1:-0.691589 2:0.360519 3:0.852113 4:0.517109 5:-0.557978 6:-0.486993 7:-0.321798 8:0.697122 9:-0.781325 10:0.425948 11:-0.107156 12:-0.760847 13:0.28632 14:-0.734412 15:-0.441663 16:-0.416667 17:-0.889382 18:-0.675325 19:0.781653 20:0.382744 21:-0.586904 
1 1:0.0696686 2:0.460549 3:0.858786 4:0.157215 5:-0.790574 6:-0.821186 7:-0.569979 8:0.468704 9:-0.877232 10:0.100833 11:-0.365669 12:-0.859048 13:-0.377374 14:0.0374765 15:-0.527061 16:-0.837037 17:-0.786839 18:-0.84127 19:0.760632 20:-0.106079 21:-0.792239 
1 1:0.000566412 2:0.454221 3:0.944114 4:0.188323 5:-0.779898 6:-1 7:-0.741227 8:0.485455 9:-0.845971 10:-0.641558 11:-0.143578 12:-0.851146 13:-0.334024 14:0.0790369 15:-0.46041 16:-0.908333 17:-0.916512 18:-0.904762 19:0.891482 20:0.0107853 21:-0.624899 
1 1:-0.180119 2:0.674288 3:0.772674 4:0.550371 5:-0.91573 6:-0.0514622 7:-0.761141 8:0.740598 9:-0.936982 10:0.853086 11:0.394312 12:-0.752381 13:-0.142449 14:-0.463666 15:-0.503705 16:-0.358333 17:-0.591441 18:-0.52381 19:0.706526 20:0.34862 21:-0.945837 
1 1:-0.699802 2:0.677146 3:0.975097 4:0.757358 5:-0.333106 6:-0.821186 7:-0.143875 8:0.847195 9:-0.699963 10:0.52032 11:0.238752 12:-0.930159 13:-0.162613 14:-0.692144 15:-0.321519 16:-0.725 17:-0.92717 18:-0.714286 19:0.957253 20:0.635669 21:-0.443007 
1 1:-0.638912 2:0.669797 3:0.920178 4:0.727686 5:0.0350937 6:-0.486993 7:0.21969 8:0.808437 9:-0.560467 10:0.657881 11:0.340226 12:-0.777778 13:0.211269 14:-0.636535 15:-0.622536 16:-0.43254 17:-0.842667 18:-0.773243 19:0.885212 20:0.681933 21:-0.236055 
1 1:0.0263381 2:0.547412 3:0.91236 4:0.298636 5:-0.478478 6:-0.89467 7:-0.154242 8:0.542731 9:-0.723981 10:0.0153035 11:-0.242734 12:-0.887831 13:-0.173078 14:-0.170358 15:-0.720838 16:-0.810345 17:-0.864324 18:-0.917898 19:0.844884 20:0.0387284 21:-0.35004 
1 1:0.220617 2:0.340002 3:0.747884 4:-0.110313 5:-0.849631 6:-0.701302 7:-0.475965 8:0.280853 9:-0.815429 10:0.562999 11:-0.428392 12:-0.942857 13:-0.500724 14:0.0403615 15:-0.747169 16:-0.816667 17:-0.671377 18:-0.880952 19:0.593126 20:-0.711253 21:-0.898141 
1 1:0.00311526 2:0.489129 3:0.831096 4:0.23307 5:-0.581601 6:-0.701302 7:-0.358083 8:0.517051 9:-0.857791 10:0.154055 11:-0.274667 12:-0.777778 13:-0.221721 14:0.0374765 15:-0.684712 16:-0.754464 17:-0.728473 18:-0.872449 19:0.728172 20:0.0497423 21:-0.569927 
1 1:-0.223166 2:0.518934 3:0.869287 4:0.390763 5:-0.597047 6:-0.701302 7:-0.189036 8:0.599612 9:-0.68734 10:0.339908 11:-0.473389 12:-0.853968 13:-0.298367 14:0.0942354 15:-0.593941 16:-0.78125 17:-0.716795 18:-0.837662 19:0.790147 20:0.282378 21:-0.645109 
1 1:-0.271594 2:0.564152 3:0.730914 4:0.465662 5:-0.760136 6:-0.0514622 7:-0.455305 8:0.665658 9:-0.803585 10:0.677606 11:0.169149 12:-0.726984 13:-0.253104 14:-0.347217 15:-0.783872 16:-0.398438 17:-0.471538 18:-0.776786 19:0.65005 20:0.126433 21:-0.79709 
1 1:-0.271594 2:0.469021 3:0.680424 4:0.36133 5:-0.786258 6:-0.0514622 7:-0.474734 8:0.596012 9:-0.805484 10:0.623873 11:0.0431928 12:-0.67619 13:-0.146405 14:-0.347217 15:-0.567744 16:-0.388889 17:-0.538151 18:-0.603175 19:0.581772 20:0.0885579 21:-0.825788 
1 1:0.814217 2:0.492294 3:0.618916 4:-0.204834 5:-0.673367 6:-0.486993 7:-0.324259 8:0.167287 9:-0.446841 10:0.52032 11:-0.849604 12:-0.879365 13:-1 14:0.611635 15:-0.429791 16:-1 17:-0.37828 18:-0.68254 19:0.426867 20:-0.62293 21:-0.818513 
1 1:0.72529 2:0.429928 3:0.372286 4:-0.276143 5:-0.524815 6:-0.0514622 7:-0.0432221 8:0.164981 9:-0.780876 10:0.427648 11:-0.45374 12:-0.549206 13:-1 14:0.944801 15:-0.340989 16:-1 17:-0.028418 18:-0.534161 19:0.165053 20:-0.418444 21:-0.568715 
1 1:0.242141 2:0.419516 3:0.683858 4:-0.00382867 5:-0.745372 6:-0.486993 7:-0.412493 8:0.352197 9:-0.814532 10:0.508247 11:-0.409005 12:-0.81164 13:-0.419706 14:0.182321 15:-0.529822 16:-0.758772 17:-0.566198 18:-0.749373 19:0.525671 20:-0.263829 21:-0.800728 
1 1:0.386293 2:0.418598 3:0.461195 4:-0.0926059 5:-0.882567 6:-0.0514622 7:-0.558978 8:0.310146 9:-0.94301 10:0.658902 11:-0.28557 12:-0.67619 13:-0.603077 14:0.373839 15:-0.196001 16:-0.770833 17:-0.2717 18:-0.404762 19:0.285292 20:-0.263505 21:-0.923201 
1 1:0.669499 2:0.429621 3:0.715673 4:-0.24336 5:-0.779216 6:-0.701302 7:-0.471676 8:0.198342 9:-0.864562 10:0.207788 11:-0.309047 12:-0.777778 13:-0.834616 14:0.601264 15:-0.330001 16:-0.950893 17:-0.600006 18:-0.744898 19:0.540855 20:-0.506218 21:-0.755053 
1 1:0.457094 2:0.423803 3:0.64418 4:-0.126585 5:-0.558206 6:-0.486993 7:-0.195599 8:0.240078 9:-0.596187 10:0.231253 11:-0.266417 12:-0.710053 13:-0.669231 14:0.276371 15:-0.497501 16:-0.853333 17:-0.495519 18:-0.714286 19:0.4653 20:-0.547856 21:-0.504042 
1 1:0.0676862 2:0.407778 3:0.712775 4:0.0856664 5:-0.494151 6:-0.486993 7:-0.15592 8:0.391371 9:-0.661069 10:0.345349 11:-0.0591371 12:-0.710053 13:-0.421155 14:-0.0485229 15:-0.330001 16:-0.743333 17:-0.623415 18:-0.619048 19:0.569664 20:-0.23431 21:-0.466451 
1 1:0.0676862 2:0.416556 3:0.0635361 4:0.097631 5:-0.934128 6:1 7:-0.768562 8:0.432505 9:-0.904376 10:0.38922 11:0.0205623 12:0.238095 13:-0.421155 14:0.195147 15:-0.497501 16:-0.287037 17:0.438837 18:-0.206349 19:0.0787224 20:-0.106079 21:-0.936136 
1 1:0.209289 2:0.388078 3:0.822334 4:-0.0308686 5:-0.810562 6:-0.821186 7:-0.57039 8:0.344819 9:-0.894054 10:0.111206 11:-0.484509 12:-0.859048 13:-0.421155 14:0.276371 15:-0.665001 16:-0.857407 17:-0.751312 18:-0.89418 19:0.699014 20:-0.281906 21:-0.803961 
1 1:0.421694 2:0.37338 3:0.623892 4:-0.189519 5:-0.789665 6:-0.486993 7:-0.508521 8:0.241483 9:-0.916173 10:0.146404 11:-0.420565 12:-0.67619 13:-0.669231 14:0.520041 15:-0.665001 16:-0.864198 17:-0.449334 18:-0.823633 19:0.434435 20:-0.498624 21:-0.78941 
1 1:0.634098 2:0.35664 3:0.333086 4:-0.357023 5:-0.793526 6:-0.0514622 7:-0.47052 8:0.120489 9:-0.852765 10:0.0722666 11:-0.55525 12:-0.371429 13:-0.917308 14:0.682488 15:0.00499819 16:-0.954167 17:-0.151797 18:-0.285714 19:0.112038 20:-0.527247 21:-0.771625 
1 1:-0.384303 2:0.400633 3:0.650786 4:0.429325 5:-0.658097 6:-0.18658 7:-0.446793 8:0.589665 9:-0.642383 10:0.585565 11:0.192156 12:-0.797758 13:0.112607 14:-0.341752 15:-0.435727 16:-0.632235 17:-0.787442 18:-0.692386 19:0.554415 20:0.27536 21:-0.761836 
1 1:-0.421057 2:0.501276 3:0.783966 4:0.300644 5:-0.675702 6:-0.334223 7:-0.526688 8:0.4612 9:-0.7331 10:0.581055 11:0.257882 12:-0.612191 13:-0.144453 14:-0.369901 15:-0.726614 16:-0.504227 17:-0.638329 18:-0.567458 19:0.603728 20:0.163897 21:-0.759112 
1 1:-0.227889 2:0.52067 3:0.743753 4:0.356691 5:-0.649449 6:-0.107687 7:-0.524519 8:0.499274 9:-0.724087 10:0.584174 11:0.260892 12:-0.684034 13:-0.0930585 14:-0.322499 15:-0.656626 16:-0.515808 17:-0.62169 18:-0.559372 19:0.672914 20:0.167344 21:-0.74262 
1 1:-0.232597 2:0.451669 3:0.753051 4:0.0957956 5:-0.525813 6:-0.579953 7:-0.337215 8:0.570954 9:-0.753921 10:0.412878 11:0.134775 12:-0.740194 13:-0.182207 14:-0.289373 15:-0.500502 16:-0.706572 17:-0.757887 18:-0.745711 19:0.647684 20:0.0676872 21:-0.639501 
1 1:-0.0839331 2:0.402062 3:0.548673 4:0.0894377 5:-0.721542 6:-0.0514622 7:-0.675109 8:0.641745 9:-0.738963 10:0.301307 11:-0.000286053 12:-0.366393 13:-0.359413 14:-0.192555 15:-0.282297 16:-0.556236 17:-0.481326 18:-0.324666 19:0.534905 20:-0.0967796 21:-0.720779 
1 1:-0.176435 2:0.445953 3:0.550289 4:0.273096 5:-0.777769 6:-0.0514622 7:-0.664103 8:0.529297 9:-0.775709 10:0.29931 11:0.116555 12:-0.352161 13:-0.292287 14:-0.169806 15:0.114128 16:-0.593255 17:-0.44996 18:-0.22025 19:0.367286 20:-0.0970888 21:-0.721409 
1 1:-0.131162 2:0.479126 3:0.862971 4:0.317306 5:-0.741031 6:-0.523248 7:-0.567083 8:0.53319 9:-0.890692 10:-0.0722482 11:-0.088029 12:-0.705195 13:-0.029412 14:-0.206577 15:-0.18303 16:-0.719737 17:-0.775466 18:-0.774541 19:0.71574 20:0.158569 21:-0.624866 
1 1:-0.103776 2:0.414208 3:0.763928 4:0.235937 5:-0.674081 6:-0.486993 7:-0.408448 8:0.464009 9:-0.711701 10:-0.0749833 11:-0.0962066 12:-0.476359 13:-0.217963 14:-0.11766 15:-0.0415801 16:-0.674834 17:-0.712726 18:-0.520619 19:0.620713 20:0.140216 21:-0.525593 
1 1:-0.16638 2:0.4384 3:0.815855 4:0.332039 5:-0.707035 6:-0.487379 7:-0.63299 8:0.578984 9:-0.788473 10:-0.0735253 11:-0.0770283 12:-0.600837 13:-0.119599 14:-0.196746 15:-0.585324 16:-0.696804 17:-0.782368 18:-0.735686 19:0.75884 20:0.171911 21:-0.575699 
1 1:-0.220452 2:0.30346 3:0.839497 4:0.22301 5:-0.726517 6:-0.701302 7:-0.551267 8:0.432153 9:-0.54033 10:0.289561 11:-0.13488 12:-0.79308 13:-0.0832677 14:-0.175634 15:-0.464698 16:-0.699098 17:-0.79524 18:-0.788067 19:0.739828 20:0.0923293 21:-0.627938 
1 1:-0.539184 2:0.530469 3:0.902911 4:0.406004 5:-0.841506 6:-0.701302 7:-0.701302 8:0.430834 9:-0.819369 10:0.168383 11:-0.0239134 12:-0.714644 13:0.129212 14:-0.35094 15:-0.684323 16:-0.626766 17:-0.851974 18:-0.896286 19:0.851506 20:0.292579 21:-0.808055 
1 1:-0.538017 2:0.539961 3:0.851004 4:0.43403 5:-0.84412 6:-0.701302 7:-0.755967 8:0.373089 9:-0.839412 10:0.169128 11:-0.0549015 12:-0.777106 13:0.203668 14:-0.284305 15:-0.803972 16:-0.636762 17:-0.799253 18:-0.871624 19:0.825876 20:0.29479 21:-0.728767 
1 1:-0.295492 2:0.538022 3:0.894513 4:0.508837 5:-0.472104 6:-0.637768 7:-0.309897 8:0.474491 9:-0.607323 10:0.456422 11:0.2111 12:-0.774772 13:-0.176895 14:-0.395672 15:-0.245635 16:-0.749859 17:-0.816091 18:-0.665062 19:0.739263 20:0.225089 21:-0.6167 
1 1:-0.231342 2:0.448913 3:0.81621 4:0.315635 5:-0.65563 6:-0.638168 7:-0.399328 8:0.355326 9:-0.703879 10:0.477855 11:-0.0854297 12:-0.761006 13:-0.36968 14:-0.152554 15:-0.433476 16:-0.719704 17:-0.706433 18:-0.718417 19:0.729969 20:0.0483821 21:-0.617682 
1 1:-0.430555 2:0.471165 3:0.818707 4:0.44565 5:-0.642047 6:-0.486993 7:-0.109206 8:0.641678 9:-0.729478 10:0.460359 11:-0.242136 12:-0.814715 13:-0.118395 14:-0.363806 15:-0.459807 16:-0.591777 17:-0.704927 18:-0.692089 19:0.724461 20:0.321392 21:-0.574533 
1 1:-0.310191 2:0.509952 3:0.833684 4:0.379734 5:-0.210869 6:-0.651848 7:-0.226097 8:0.571889 9:-0.741381 10:0.454032 11:0.0918704 12:-0.772397 13:-0.248765 14:-0.185511 15:-0.348989 16:-0.676776 17:-0.693912 18:-0.693436 19:0.783177 20:0.185784 21:-0.682419 
1 1:-0.277718 2:0.593141 3:0.869985 4:0.432996 5:-0.593263 6:-0.703896 7:-0.237293 8:0.506695 9:-0.58793 10:0.465474 11:0.212591 12:-0.834345 13:-0.301324 14:-0.398648 15:-0.322564 16:-0.697297 17:-0.691287 18:-0.674364 19:0.768633 20:0.244284 21:-0.171586 
1 1:-0.278767 2:0.452179 3:0.835828 4:0.349545 5:-0.669806 6:-0.613062 7:-0.393084 8:0.50919 9:-0.820313 10:0.485194 11:-0.0497919 12:-0.793802 13:-0.403379 14:-0.127368 15:-0.421845 16:-0.758183 17:-0.711588 18:-0.696125 19:0.724028 20:0.217345 21:-0.513873 
1 1:-0.336901 2:0.380933 3:0.801229 4:0.277382 5:-0.766966 6:-0.486993 7:-0.488847 8:0.48019 9:-0.821469 10:0.491218 11:-0.284731 12:-0.743915 13:-0.120539 14:-0.300101 15:-0.423466 16:-0.614247 17:-0.752302 18:-0.689441 19:0.63806 20:0.119827 21:-0.698637 
1 1:-0.266592 2:0.480351 3:0.816956 4:0.376054 5:-0.245506 6:-0.655155 7:-0.046367 8:0.537097 9:-0.753956 10:0.464269 11:-0.0440646 12:-0.826631 13:-0.171563 14:-0.192509 15:-0.339555 16:-0.753812 17:-0.713936 18:-0.697973 19:0.742128 20:0.206867 21:-0.697815 
1 1:-0.202951 2:0.496581 3:0.824965 4:0.376796 5:-0.159373 6:-0.525166 7:0.143948 8:0.299695 9:-0.690148 10:0.469698 11:0.0388094 12:-0.786811 13:-0.205103 14:-0.183464 15:-0.385665 16:-0.713108 17:-0.713257 18:-0.700827 19:0.724503 20:0.181948 21:-0.704257 
1 1:-0.271705 2:0.452485 3:0.815064 4:0.373599 5:-0.305329 6:-0.594149 7:-0.238306 8:0.395063 9:-0.757295 10:0.45491 11:0.108946 12:-0.795422 13:-0.23771 14:-0.189845 15:-0.346966 16:-0.676137 17:-0.735754 18:-0.701727 19:0.786121 20:0.197345 21:-0.719692 
1 1:-0.216851 2:0.509135 3:0.815083 4:0.378459 5:-0.57367 6:-0.672313 7:0.293209 8:0.522549 9:-0.702098 10:0.46958 11:0.0374307 12:-0.76353 13:-0.20083 14:-0.192503 15:-0.38068 16:-0.758506 17:-0.747427 18:-0.691282 19:0.765721 20:0.18083 21:-0.709879 
1 1:-0.336927 2:0.410942 3:0.863076 4:0.45146 5:-0.714878 6:-0.54492 7:-0.468069 8:0.647147 9:-0.741015 10:0.584138 11:0.114448 12:-0.79659 13:0.111806 14:-0.372786 15:-0.153658 16:-0.643768 17:-0.819347 18:-0.691836 19:0.783073 20:0.378532 21:-0.685992 
1 1:-0.199711 2:0.579259 3:0.869804 4:0.438842 5:-0.632077 6:-0.626 7:-0.523865 8:0.486373 9:-0.692897 10:0.581964 11:0.474484 12:-0.721229 13:-0.159272 14:-0.202717 15:-0.724684 16:-0.647196 17:-0.65359 18:-0.822698 19:0.799437 20:0.259396 21:-0.625964 
1 1:-0.350311 2:0.326222 3:0.868696 4:0.433137 5:-0.831857 6:-0.667478 7:-0.662666 8:0.455606 9:-0.87663 10:0.592377 11:0.255144 12:-0.742603 13:0.0182386 14:-0.317626 15:-0.447894 16:-0.627259 17:-0.817546 18:-0.764556 19:0.783816 20:0.351449 21:-0.665493 
1 1:-0.286243 2:0.536797 3:0.793575 4:0.436899 5:-0.379237 6:-0.59616 7:-0.213847 8:0.464112 9:-0.380449 10:0.584008 11:0.120034 12:-0.762819 13:0.118918 14:-0.288593 15:-0.209736 16:-0.636514 17:-0.809979 18:-0.610466 19:0.729579 20:0.330206 21:-0.550607 
1 1:-0.301444 2:0.407472 3:0.866999 4:0.453257 5:-0.673567 6:-0.508153 7:-0.480221 8:0.627081 9:-0.710226 10:0.583996 11:0.159134 12:-0.782378 13:0.103206 14:-0.398739 15:-0.0871802 16:-0.62459 17:-0.810574 18:-0.687405 19:0.75805 20:0.393202 21:-0.742942 
1 1:-0.262011 2:0.548944 3:0.865928 4:0.437909 5:-0.62996 6:-0.671414 7:-0.481602 8:0.57173 9:-0.699349 10:0.582173 11:0.323053 12:-0.755295 13:-0.198818 14:-0.205739 15:-0.727002 16:-0.614596 17:-0.734837 18:-0.865227 19:0.758351 20:0.371984 21:-0.688656 
1 1:-0.143206 2:0.46994 3:0.848806 4:0.263692 5:-0.653045 6:-0.579493 7:-0.335138 8:0.459805 9:-0.771073 10:0.590756 11:0.0212269 12:-0.814604 13:-0.0566541 14:-0.268242 15:-0.341177 16:-0.677322 17:-0.763539 18:-0.569278 19:0.798134 20:0.398923 21:-0.552147 
1 1:-0.367345 2:0.398081 3:0.858698 4:0.449818 5:-0.672581 6:-0.576097 7:-0.541473 8:0.63865 9:-0.766425 10:0.584053 11:0.145164 12:-0.796027 13:0.0745024 14:-0.379252 15:-0.0652177 16:-0.658031 17:-0.819534 18:-0.448017 19:0.784 20:0.397409 21:-0.795936 
1 1:-0.200494 2:0.514851 3:0.876591 4:0.280715 5:-0.679273 6:-0.66505 7:-0.366886 8:0.491025 9:-0.663523 10:0.596218 11:0.181101 12:-0.813125 13:-0.175651 14:-0.188598 15:-0.253126 16:-0.747782 17:-0.655295 18:-0.617104 19:0.737641 20:0.274502 21:-0.454367 
1 1:-0.333804 2:0.40543 3:0.833913 4:0.455152 5:-0.647864 6:-0.645758 7:-0.513303 8:0.637717 9:-0.71997 10:0.584215 11:0.071066 12:-0.783594 13:-0.0105515 14:-0.331427 15:-0.0350945 16:-0.65998 17:-0.807338 18:-0.715051 19:0.767476 20:0.386665 21:-0.795812 
1 1:-0.157204 2:0.444218 3:0.865109 4:0.271725 5:-0.653381 6:-0.590753 7:-0.387337 8:0.54497 9:-0.77151 10:0.143963 11:-0.0310031 12:-0.78226 13:-0.0762422 14:-0.0615251 15:-0.44311 16:-0.666922 17:-0.759629 18:-0.736415 19:0.766399 20:0.13254 21:-0.680211 
1 1:-0.161108 2:0.442482 3:0.883677 4:0.274798 5:-0.638655 6:-0.744087 7:-0.387099 8:0.608953 9:-0.720808 10:0.144545 11:-0.0350753 12:-0.614921 13:-0.202384 14:-0.106191 15:-0.443968 16:-0.725717 17:-0.776796 18:-0.749153 19:0.731921 20:0.132411 21:-0.622228 
1 1:-0.109367 2:0.411555 3:0.804095 4:0.29877 5:-0.635078 6:-0.776761 7:-0.38677 8:0.62093 9:-0.757165 10:0.144369 11:-0.0351371 12:-0.572265 13:-0.079841 14:-0.0718177 15:-0.443606 16:-0.652291 17:-0.682898 18:-0.744645 19:0.787424 20:0.0940461 21:-0.598021 
1 1:-0.0945711 2:0.432888 3:0.803552 4:0.277085 5:-0.758276 6:-0.108561 7:0.261442 8:0.555498 9:-0.857225 10:0.538519 11:0.0951046 12:-0.74735 13:-0.248268 14:-0.00475319 15:-0.753615 16:-0.596636 17:-0.560518 18:-0.869139 19:0.51903 20:0.0440554 21:-0.281329 
1 1:-0.153999 2:0.389609 3:0.729377 4:0.179627 5:-0.544291 6:-0.0905125 7:-0.385327 8:0.442425 9:-0.86107 10:0.535992 11:-0.243455 12:-0.816492 13:-0.273076 14:-0.102988 15:-0.570424 16:-0.671328 17:-0.496581 18:-0.665512 19:0.600511 20:0.0130055 21:-0.649061 
1 1:-0.0628463 2:0.360416 3:0.639775 4:0.178741 5:-0.758203 6:-0.413087 7:-0.44449 8:0.438908 9:-0.877822 10:0.534766 11:-0.35053 12:-0.693769 13:-0.275557 14:-0.140591 15:-0.575623 16:-0.637158 17:-0.593264 18:-0.619112 19:0.516706 20:-0.00501784 21:-0.878768 
1 1:-0.11794 2:0.393182 3:0.71952 4:0.177978 5:-0.905104 6:-0.234044 7:-0.117309 8:0.438565 9:-0.834705 10:0.534329 11:-0.154438 12:-0.753959 13:-0.217434 14:-0.0685168 15:-0.332494 16:-0.482124 17:-0.562676 18:-0.63553 19:0.532651 20:-0.0266889 21:-0.523463 
1 1:-0.0979906 2:0.596305 3:0.675103 4:0.295863 5:-0.534244 6:-0.299794 7:-0.188157 8:0.634903 9:-0.819923 10:0.541453 11:0.0328696 12:-0.700851 13:-0.13242 14:-0.0304068 15:-0.652137 16:-0.491896 17:-0.451202 18:-0.856443 19:0.619466 20:0.265952 21:-0.71824 
1 1:-0.097259 2:0.456977 3:0.903539 4:0.248021 5:-0.847886 6:-0.887442 7:-0.480386 8:0.476296 9:-0.849757 10:0.1756 11:-0.205983 12:-0.86958 13:-0.289912 14:-0.109434 15:-0.250566 16:-0.858814 17:-0.867206 18:-0.731308 19:0.797048 20:0.0813839 21:-0.353744 
1 1:-0.0284857 2:0.508727 3:0.893833 4:0.235473 5:-0.273801 6:-0.873124 7:0.424066 8:0.465317 9:-0.867252 10:0.177491 11:-0.484462 12:-0.876496 13:-0.326495 14:0.0401796 15:-0.474279 16:-0.86449 17:-0.8249 18:-0.80727 19:0.813068 20:0.072418 21:-0.670581 
1 1:-0.0943189 2:0.457385 3:0.885984 4:0.232922 5:-0.875055 6:-0.836773 7:-0.540128 8:0.484736 9:-0.833077 10:0.175796 11:-0.129826 12:-0.869231 13:-0.29058 14:-0.126263 15:-0.212993 16:-0.860004 17:-0.855656 18:-0.768099 19:0.82192 20:0.0899887 21:-0.48839 
1 1:-0.0570627 2:0.454731 3:0.888688 4:0.230849 5:-0.84815 6:-0.845841 7:-0.349646 8:0.49285 9:-0.849474 10:0.178872 11:-0.0013801 12:-0.870526 13:-0.307218 14:-0.0559759 15:-0.0501963 16:-0.848083 17:-0.847657 18:-0.751284 19:0.807306 20:0.104495 21:-0.478521 
1 1:-0.0137857 2:0.571399 3:0.89432 4:0.331649 5:-0.474785 6:-0.869979 7:-0.243338 8:0.575292 9:-0.811501 10:0.179193 11:-0.424264 12:-0.869335 13:-0.334546 14:-0.0391789 15:-0.0657269 16:-0.861776 17:-0.843088 18:-0.750305 19:0.851342 20:0.161042 21:-0.527613 
1 1:-0.0824395 2:0.451567 3:0.870542 4:0.21787 5:-0.638031 6:-0.821186 7:-0.470057 8:0.491314 9:-0.744354 10:0.178726 11:-0.376027 12:-0.84518 13:-0.185317 14:-0.0426878 15:-0.295054 16:-0.798174 17:-0.829741 18:-0.794882 19:0.780176 20:0.00501452 21:-0.621866 
1 1:0.0614749 2:0.485965 3:0.882908 4:0.222505 5:0.0886474 6:-0.882812 7:-0.201018 8:0.49525 9:-0.861601 10:0.1748 11:-0.455072 12:-0.879415 13:-0.249717 14:0.0765352 15:-0.317486 16:-0.828131 17:-0.825291 18:-0.814708 19:0.808426 20:0.0738003 21:-0.717022 
1 1:0.000939507 2:0.48719 3:0.898626 4:0.227681 5:-0.431652 6:-0.840782 7:-0.0860406 8:0.444172 9:-0.891989 10:0.177353 11:-0.240697 12:-0.883082 13:-0.402294 14:-0.0178919 15:-0.393021 16:-0.820617 17:-0.826175 18:-0.821144 19:0.802057 20:0.0156298 21:-0.723888 
1 1:-0.00209184 2:0.569766 3:0.926318 4:0.273235 5:-0.454412 6:-0.859438 7:-0.23641 8:0.575515 9:-0.812645 10:0.178302 11:-0.326157 12:-0.869979 13:-0.436138 14:-0.120363 15:-0.12541 16:-0.858075 17:-0.846317 18:-0.747383 19:0.783609 20:0.145453 21:-0.563098 
1 1:0.192574 2:0.306114 3:0.799847 4:0.00903805 5:-0.715993 6:-0.799617 7:-0.354972 8:0.359247 9:-0.771663 10:0.0102297 11:-0.527892 12:-0.764571 13:-0.35166 14:0.224914 15:-0.673858 16:-0.860695 17:-0.755638 18:-0.925986 19:0.594382 20:-0.246679 21:-0.295014 
1 1:0.25103 2:0.467694 3:0.833391 4:0.0255994 5:-0.294306 6:-0.764747 7:-0.0595394 8:0.369232 9:-0.743457 10:0.00561027 11:-0.532422 12:-0.848889 13:-0.561672 14:0.217182 15:-0.563174 16:-0.87819 17:-0.742302 18:-0.889815 19:0.718911 20:-0.2978 21:-0.619814 
1 1:0.0777847 2:0.46208 3:0.887916 4:0.206901 5:-0.410533 6:-0.849195 7:0.0773067 8:0.381258 9:-0.739977 10:0.00934923 11:-0.50312 12:-0.887285 13:-0.218942 14:-0.0280936 15:-0.708993 16:-0.835908 17:-0.812383 18:-0.865601 19:0.823755 20:0.0129183 21:-0.188001 
1 1:0.21734 2:0.368072 3:0.821086 4:0.00127064 5:-0.759759 6:-0.821186 7:-0.0737169 8:0.351664 9:-0.799374 10:0.00748808 11:-0.522762 12:-0.809733 13:-0.377348 14:0.367809 15:-0.750948 16:-0.852698 17:-0.757114 18:-0.85659 19:0.682796 20:-0.235417 21:-0.202629 
1 1:-0.0120069 2:0.39114 3:0.589401 4:0.190782 5:-0.65506 6:-0.397533 7:-0.294653 8:0.243767 9:-0.860964 10:0.460105 11:-0.174205 12:-0.763839 13:-0.397432 14:-0.0291852 15:-0.235076 16:-0.651458 17:-0.596882 18:-0.617221 19:0.603587 20:-0.133607 21:-0.690185 
1 1:-0.119647 2:0.349189 3:0.80256 4:0.139706 5:-0.75796 6:-0.730818 7:-0.629817 8:0.40529 9:-0.791836 10:0.0982265 11:-0.202743 12:-0.78804 13:-0.243691 14:-0.158317 15:-0.43357 16:-0.777719 17:-0.763004 18:-0.807797 19:0.758581 20:-0.0540679 21:-0.664824 
1 1:-0.423886 2:0.407472 3:0.815918 4:0.376738 5:-0.572793 6:-0.486993 7:0.0123047 8:0.680938 9:-0.837383 10:0.453936 11:-0.191518 12:-0.780762 13:0.00925491 14:-0.319452 15:-0.616694 16:-0.541667 17:-0.714131 18:-0.781293 19:0.677528 20:0.156407 21:-0.644089 
1 1:-0.431715 2:0.335817 3:0.79674 4:0.298988 5:-0.443836 6:-0.486993 7:-0.276985 8:0.561644 9:-0.8568 10:0.453746 11:-0.115321 12:-0.776085 13:-0.0248209 14:-0.394925 15:-0.743672 16:-0.541667 17:-0.7492 18:-0.736421 19:0.753045 20:0.0965169 21:-0.623305 
1 1:-0.0857321 2:0.581198 3:0.745153 4:0.111651 5:-0.871852 6:-0.627532 7:-0.539012 8:0.509991 9:-0.87801 10:0.319465 11:-0.332095 12:-0.744615 13:-0.0917486 14:-0.0163259 15:-0.852051 16:-0.671125 17:-0.679567 18:-0.981983 19:0.565854 20:0.0860142 21:-0.912317 
1 1:-0.0834664 2:0.197612 3:0.848591 4:0.0380115 5:-0.732538 6:-0.554361 7:-0.436731 8:0.555114 9:-0.873091 10:0.320055 11:-0.293185 12:-0.727072 13:-0.345118 14:-0.0203026 15:-0.942675 16:-0.669656 17:-0.679871 18:-0.991509 19:0.723497 20:-0.0913566 21:-0.742739 
1 1:-0.142082 2:0.463509 3:0.768391 4:0.129572 5:-0.730871 6:-0.657092 7:-0.386695 8:0.563297 9:-0.887613 10:0.319659 11:-0.338339 12:-0.825948 13:-0.242639 14:0.003811 15:-0.878476 16:-0.610528 17:-0.676126 18:-0.944745 19:0.620652 20:-0.0853606 21:-0.814352 
1 1:0.402717 2:0.25273 3:0.687786 4:0.10173 5:-0.328236 6:-0.749506 7:-0.27762 8:0.398891 9:-0.922873 10:-0.272691 11:-0.630903 12:-0.860401 13:-0.617836 14:0.427557 15:-0.580018 16:-0.880506 17:-0.61061 18:-0.806718 19:0.680581 20:-0.542581 21:-0.640327 
1 1:-0.29755 2:0.421558 3:0.808672 4:0.359359 5:-0.664695 6:-0.486993 7:-0.361699 8:0.533723 9:-0.840579 10:0.53006 11:0.2442 12:-0.711443 13:-0.0600676 14:-0.272836 15:-0.65349 16:-0.587655 17:-0.694866 18:-0.788102 19:0.729894 20:0.182559 21:-0.777591 
1 1:-0.383562 2:0.555578 3:0.833116 4:0.345128 5:-0.481597 6:-0.662052 7:-0.013265 8:0.477718 9:-0.643563 10:0.330973 11:0.0271698 12:-0.816278 13:-0.139584 14:-0.308659 15:-0.53813 16:-0.668908 17:-0.744655 18:-0.76304 19:0.809413 20:0.224969 21:-0.774771 
1 1:-0.119162 2:0.3005 3:0.868984 4:0.150129 5:-0.70803 6:-0.740186 7:-0.522443 8:0.447957 9:-0.810427 10:0.195172 11:-0.139241 12:-0.837343 13:-0.248288 14:-0.130039 15:-0.503209 16:-0.786372 17:-0.844644 18:-0.703775 19:0.740515 20:-0.135947 21:-0.75519 
1 1:0.00968052 2:0.324079 3:0.79664 4:0.0934314 5:-0.782201 6:-0.701302 7:-0.524135 8:0.413363 9:-0.833254 10:0.188134 11:-0.218227 12:-0.774175 13:-0.2476 14:-0.0994077 15:-0.314698 16:-0.785287 17:-0.747927 18:-0.715022 19:0.672815 20:-0.129567 21:-0.585455 
1 1:-0.09406 2:0.329489 3:0.831319 4:0.111438 5:-0.809324 6:-0.794133 7:-0.488929 8:0.532986 9:-0.810238 10:0.196544 11:0.048489 12:-0.86498 13:-0.234846 14:-0.133652 15:-0.548488 16:-0.800689 17:-0.801797 18:-0.780566 19:0.742448 20:-0.139314 21:-0.688806 
1 1:-0.146482 2:0.36011 3:0.814135 4:0.212192 5:-0.826862 6:-0.738164 7:-0.228818 8:0.442375 9:-0.81294 10:0.183305 11:-0.238026 12:-0.782287 13:-0.197244 14:-0.188591 15:-0.259089 16:-0.788086 17:-0.79963 18:-0.6936 19:0.722321 20:-0.000174437 21:-0.625439 
1 1:-0.00406899 2:0.314076 3:0.846367 4:0.240349 5:-0.877901 6:-0.821186 7:-0.634558 8:0.312496 9:-0.906087 10:0.151061 11:-0.0786092 12:-0.859827 13:-0.57647 14:-0.0916688 15:-0.62937 16:-0.858026 17:-0.791182 18:-0.75303 19:0.746587 20:-0.364554 21:-0.876268 
1 1:0.0662727 2:0.485149 3:0.792575 4:-0.0750443 5:-0.888616 6:-0.814438 7:-0.640715 8:0.325796 9:-0.865459 10:0.158482 11:-0.252591 12:-0.790187 13:-0.272706 14:0.0477301 15:-0.687767 16:-0.770252 17:-0.757388 18:-0.891615 19:0.717547 20:-0.0685208 21:-0.607102 
1 1:0.0778189 2:0.445442 3:0.823396 4:0.137172 5:-0.831319 6:-0.821053 7:-0.390033 8:0.310174 9:-0.870862 10:0.155898 11:-0.266844 12:-0.82832 13:-0.30604 14:0.156232 15:-0.687191 16:-0.830049 17:-0.762032 18:-0.894614 19:0.637505 20:-0.41549 21:-0.667032 
1 1:-0.0937214 2:0.511585 3:0.88317 4:0.200979 5:-0.590219 6:-0.821186 7:-0.518891 8:0.482635 9:-0.815806 10:-0.0712945 11:-0.125804 12:-0.796949 13:0.0413659 14:0.00277134 15:-0.740684 16:-0.771058 17:-0.84925 18:-0.890311 19:0.825904 20:-0.0445246 21:-0.294986 
1 1:-0.101316 2:0.409411 3:0.856613 4:0.32167 5:-0.575493 6:-0.821186 7:-0.283382 8:0.441788 9:-0.803514 10:-0.0713981 11:-0.252672 12:-0.772599 13:0.0654525 14:-0.114385 15:-0.659239 16:-0.794987 17:-0.810936 18:-0.899283 19:0.808285 20:0.120268 21:-0.345313 
1 1:0.0649304 2:0.364397 3:0.847478 4:0.0994712 5:-0.543823 6:-0.821186 7:-0.225418 8:0.541514 9:-0.78215 10:-0.0676989 11:-0.295995 12:-0.798095 13:-0.229812 14:0.0776918 15:-0.587375 16:-0.819864 17:-0.783188 18:-0.87013 19:0.740477 20:-0.101674 21:-0.232002 
1 1:-0.0999523 2:0.518322 3:0.89346 4:0.115169 5:-0.443609 6:-0.821186 7:-0.408593 8:0.57716 9:-0.840792 10:-0.0711441 11:-0.224896 12:-0.785764 13:-0.158451 14:-0.0913309 15:-0.725153 16:-0.739676 17:-0.811383 18:-0.883325 19:0.749132 20:-0.0317553 21:-0.214624 
1 1:-0.172949 2:0.257222 3:0.856106 4:0.264468 5:-0.756804 6:-0.701302 7:-0.616353 8:0.495425 9:-0.878872 10:0.31481 11:-0.192677 12:-0.808537 13:-0.278805 14:-0.0707261 15:-0.772669 16:-0.765524 17:-0.714921 18:-0.951167 19:0.742782 20:-0.0420736 21:-0.857834 
1 1:-0.148001 2:0.430846 3:0.878824 4:0.162271 5:-0.808838 6:-0.701302 7:-0.55896 8:0.600643 9:-0.820584 10:0.312637 11:-0.286768 12:-0.788643 13:-0.275292 14:-0.0372101 15:-0.717917 16:-0.793647 17:-0.723036 18:-0.912177 19:0.748365 20:0.00372391 21:-0.702863 
1 1:-0.159043 2:0.532408 3:0.877053 4:0.11207 5:-0.864825 6:-0.701302 7:-0.390321 8:0.465393 9:-0.846902 10:0.319956 11:-0.0967208 12:-0.845966 13:-0.291923 14:-0.0611028 15:-0.0189342 16:-0.79031 17:-0.767938 18:-0.880326 19:0.719565 20:-0.0106826 21:-0.710013 
1 1:-0.159525 2:0.562315 3:0.790892 4:0.326059 5:-0.842008 6:-0.701302 7:-0.339148 8:0.555008 9:-0.818449 10:0.318002 11:-0.170468 12:-0.8596 13:-0.295959 14:-0.0300754 15:-0.742399 16:-0.773296 17:-0.737012 18:-0.86229 19:0.685383 20:-0.0322544 21:-0.673124 
1 1:-0.0109396 2:0.33153 3:0.803469 4:0.191862 5:-0.577374 6:-0.547462 7:-0.32335 8:0.46294 9:-0.838845 10:0.160187 11:-0.276837 12:-0.755394 13:-0.227662 14:-0.0586985 15:-0.407212 16:-0.749854 17:-0.701379 18:-0.796249 19:0.695157 20:-0.121056 21:-0.439543 
1 1:-2.86604e-05 2:0.430336 3:0.867321 4:0.204408 5:-0.693193 6:-0.806452 7:-0.315018 8:0.46512 9:-0.807018 10:0.168366 11:-0.55876 12:-0.786341 13:-0.133717 14:-0.00192662 15:-0.2306 16:-0.764626 17:-0.823481 18:-0.74588 19:0.693662 20:0.0499178 21:-0.628553 
1 1:0.0206274 2:0.371951 3:0.803561 4:0.198677 5:-0.805733 6:-0.731174 7:-0.595105 8:0.476491 9:-0.76764 10:0.16776 11:-0.188729 12:-0.754348 13:-0.180904 14:-0.0595563 15:-0.519879 16:-0.789832 17:-0.795792 18:-0.808147 19:0.749466 20:-0.00133919 21:-0.752873 
1 1:0.00375319 2:0.421762 3:0.826433 4:0.107456 5:-0.756298 6:-0.800565 7:-0.32941 8:0.426543 9:-0.812763 10:0.171824 11:-0.518526 12:-0.831033 13:-0.169135 14:0.00241396 15:-0.201938 16:-0.77757 17:-0.810529 18:-0.72009 19:0.684941 20:0.0121742 21:-0.608657 
1 1:0.00743982 2:0.385322 3:0.83872 4:0.119447 5:-0.732447 6:-0.750058 7:-0.478049 8:0.493289 9:-0.810168 10:0.174124 11:-0.553279 12:-0.771013 13:-0.124892 14:-0.00516256 15:-0.24455 16:-0.783461 17:-0.818834 18:-0.740073 19:0.685905 20:0.0449121 21:-0.610452 
1 1:-0.124933 2:0.49066 3:0.808616 4:0.283812 5:-0.792838 6:-0.797301 7:-0.720342 8:0.571418 9:-0.874625 10:-0.0646044 11:-0.0888352 12:-0.758941 13:0.0882028 14:-0.101916 15:-0.821874 16:-0.684162 17:-0.809331 18:-0.929771 19:0.769019 20:0.117824 21:-0.736846 
1 1:-0.0753551 2:0.52955 3:0.780611 4:0.120127 5:-0.672261 6:-0.701302 7:-0.547194 8:0.323873 9:-0.893877 10:-0.0607169 11:-0.265309 12:-0.711516 13:-0.390393 14:-0.137888 15:-0.606711 16:-0.712112 17:-0.726524 18:-0.931513 19:0.707885 20:-0.21344 21:-0.89066 
1 1:-0.0907297 2:0.492804 3:0.814675 4:-0.000181862 5:-0.739914 6:-0.701302 7:-0.630298 8:0.34531 9:-0.892969 10:-0.060298 11:-0.242205 12:-0.743254 13:-0.423338 14:-0.144555 15:-0.783389 16:-0.743065 17:-0.725221 18:-0.988766 19:0.714616 20:-0.219462 21:-0.897788 
1 1:-0.106397 2:0.482597 3:0.862742 4:0.15716 5:-0.550667 6:-0.701302 7:-0.249603 8:0.371049 9:-0.73612 10:0.282061 11:-0.153587 12:-0.775521 13:-0.182439 14:-0.144899 15:-0.121109 16:-0.761492 17:-0.803527 18:-0.677064 19:0.686997 20:-0.216243 21:-0.42526 
1 1:-0.0599472 2:0.356231 3:0.846919 4:0.15603 5:-0.747841 6:-0.754609 7:-0.395635 8:0.455349 9:-0.734964 10:0.283853 11:-0.358539 12:-0.854314 13:-0.195233 14:0.00149776 15:-0.409302 16:-0.780808 17:-0.823252 18:-0.781142 19:0.732391 20:-0.113619 21:-0.738113 
1 1:-0.00758728 2:0.410738 3:0.856616 4:0.109509 5:-0.585465 6:-0.759006 7:-0.31227 8:0.47883 9:-0.803538 10:0.186412 11:-0.32734 12:-0.860303 13:-0.225101 14:0.035813 15:-0.275343 16:-0.793346 17:-0.811377 18:-0.762264 19:0.725279 20:-0.000849002 21:-0.567621 
1 1:-0.0303522 2:0.424722 3:0.851825 4:0.0847523 5:-0.565894 6:-0.749648 7:-0.301309 8:0.436117 9:-0.807277 10:0.183563 11:-0.452641 12:-0.826484 13:-0.249406 14:0.019146 15:-0.360674 16:-0.809143 17:-0.824625 18:-0.753854 19:0.735317 20:-0.0348466 21:-0.568838 
1 1:-0.0563706 2:0.397162 3:0.834929 4:0.159672 5:-0.537181 6:-0.787431 7:-0.164741 8:0.544874 9:-0.829125 10:0.191454 11:-0.128739 12:-0.802377 13:-0.266639 14:-0.0987514 15:-0.378831 16:-0.815204 17:-0.81585 18:-0.800377 19:0.67916 20:-0.13006 21:-0.564598 
1 1:-0.0245895 2:0.385016 3:0.861534 4:0.139677 5:-0.634053 6:-0.723647 7:-0.312339 8:0.428969 9:-0.824158 10:0.196117 11:-0.10675 12:-0.872106 13:-0.270509 14:-0.0303808 15:-0.385625 16:-0.814091 17:-0.816439 18:-0.78134 19:0.752321 20:-0.106769 21:-0.564314 
1 1:-0.0474909 2:0.397264 3:0.881097 4:0.0837306 5:-0.57717 6:-0.759487 7:-0.207158 8:0.636711 9:-0.830883 10:0.194985 11:-0.136051 12:-0.796993 13:-0.264906 14:-0.0318493 15:-0.364694 16:-0.822952 17:-0.787092 18:-0.852854 19:0.753572 20:-0.121458 21:-0.612608 
1 1:-0.0139533 2:0.385934 3:0.81438 4:0.148256 5:-0.623737 6:-0.734955 7:-0.215214 8:0.575971 9:-0.834469 10:0.193898 11:0.0455568 12:-0.827437 13:-0.267976 14:-0.0939755 15:-0.436531 16:-0.798377 17:-0.852717 18:-0.784776 19:0.700576 20:-0.109922 21:-0.605586 
1 1:0.00932552 2:0.401245 3:0.821028 4:0.200517 5:-0.613177 6:-0.750109 7:-0.30735 8:0.474514 9:-0.817493 10:0.181212 11:-0.475718 12:-0.816995 13:-0.197601 14:0.0285094 15:-0.322363 16:-0.788026 17:-0.769829 18:-0.769667 19:0.778087 20:-0.0806431 21:-0.568076 
1 1:0.0191943 2:0.392875 3:0.863447 4:0.137758 5:-0.629554 6:-0.76369 7:-0.254536 8:0.475127 9:-0.830246 10:0.186002 11:-0.311366 12:-0.834333 13:-0.219293 14:0.00269987 15:-0.271082 16:-0.803404 17:-0.74688 18:-0.760464 19:0.763605 20:-0.0915896 21:-0.56794 
1 1:-0.0387981 2:0.437685 3:0.714551 4:0.350464 5:-0.866635 6:-0.805335 7:-0.726961 8:0.399235 9:-0.823333 10:-0.0861937 11:-0.25106 12:-0.801283 13:-0.178648 14:-0.0806289 15:-0.578182 16:-0.76738 17:-0.693632 18:-0.802723 19:0.703281 20:-0.0229153 21:-0.861023 
1 1:-0.394437 2:0.430234 3:0.900991 4:0.370105 5:-0.634869 6:-0.821186 7:-0.679138 8:0.498753 9:-0.828099 10:0.220161 11:-0.184598 12:-0.836651 13:0.153735 14:-0.349511 15:-0.739893 16:-0.764448 17:-0.88054 18:-0.867964 19:0.823854 20:0.135599 21:-0.840595 
1 1:-0.415863 2:0.387261 3:0.901112 4:0.343946 5:-0.785608 6:-0.821186 7:-0.213947 8:0.546211 9:-0.828287 10:0.212318 11:-0.206107 12:-0.825697 13:-0.0109551 14:-0.355684 15:-0.91483 16:-0.694958 17:-0.870341 18:-0.947336 19:0.819079 20:0.254425 21:-0.832662 
1 1:-0.396987 2:0.359396 3:0.865364 4:0.386068 5:-0.621095 6:-0.701302 7:-0.362569 8:0.526225 9:-0.808339 10:0.156529 11:-0.0347019 12:-0.775139 13:0.0274869 14:-0.371467 15:-0.567931 16:-0.658974 17:-0.827375 18:-0.80682 19:0.786145 20:0.177384 21:-0.626594 
1 1:0.4058 2:0.406145 3:0.623435 4:-0.141182 5:-0.837881 6:-0.146771 7:-0.667897 8:0.196761 9:-0.822165 10:-0.155059 11:-0.457955 12:-0.371502 13:-0.529925 14:0.419603 15:-0.503812 16:-0.779924 17:-0.29213 18:-0.502813 19:0.393151 20:-0.499534 21:-0.777832 
1 1:-0.320187 2:0.436256 3:0.874748 4:0.350419 5:-0.688956 6:-0.718539 7:-0.489379 8:0.608019 9:-0.767027 10:-0.0388096 11:-0.517419 12:-0.786973 13:-0.215866 14:-0.159474 15:-0.370818 16:-0.736678 17:-0.869115 18:-0.801314 19:0.851092 20:0.21945 21:-0.619978 
1 1:-0.311216 2:0.428499 3:0.915812 4:0.37381 5:-0.69014 6:-0.857658 7:-0.49009 8:0.598372 9:-0.761742 10:-0.0405742 11:-0.416025 12:-0.762956 13:-0.177616 14:-0.21867 15:-0.451995 16:-0.823603 17:-0.880465 18:-0.774539 19:0.803614 20:0.23165 21:-0.574789 
1 1:-0.272335 2:0.396142 3:0.826894 4:0.273034 5:-0.703344 6:-0.78307 7:-0.582238 8:0.524208 9:-0.732486 10:-0.0285666 11:-0.0359686 12:-0.840535 13:-0.177887 14:-0.193438 15:-0.394388 16:-0.808186 17:-0.827586 18:-0.769666 19:0.781502 20:0.0378551 21:-0.615766 
1 1:-0.196596 2:0.421966 3:0.886265 4:0.30351 5:-0.686937 6:-0.827144 7:-0.538108 8:0.531225 9:-0.777219 10:-0.0263166 11:-0.0994306 12:-0.809211 13:-0.209654 14:-0.357432 15:-0.0540287 16:-0.793859 17:-0.903646 18:-0.751736 19:0.792861 20:0.0562914 21:-0.60252 
1 1:-0.316945 2:0.235991 3:0.860982 4:0.318557 5:-0.76962 6:-0.774024 7:-0.659197 8:0.477944 9:-0.771427 10:-0.0274265 11:-0.0359061 12:-0.819315 13:-0.209013 14:-0.304708 15:-0.220724 16:-0.795482 17:-0.813713 18:-0.752801 19:0.710999 20:-0.0807535 21:-0.63492 
1 1:-0.25956 2:0.421047 3:0.874365 4:0.336585 5:-0.687398 6:-0.847777 7:-0.541139 8:0.484973 9:-0.74328 10:-0.0280274 11:-0.0939888 12:-0.834937 13:-0.170822 14:-0.357692 15:0.0122342 16:-0.815308 17:-0.905917 18:-0.671413 19:0.7817 20:0.0277455 21:-0.616944 
1 1:-0.309929 2:0.473716 3:0.910087 4:0.361663 5:-0.687389 6:-0.706965 7:-0.541634 8:0.586886 9:-0.744177 10:-0.0357751 11:-0.190085 12:-0.831579 13:-0.158908 14:-0.215811 15:-0.167044 16:-0.762638 17:-0.884294 18:-0.789539 19:0.818966 20:0.289442 21:-0.596575 
1 1:-0.00643404 2:0.380321 3:0.782301 4:0.0377004 5:-0.698226 6:-0.738305 7:-0.139439 8:0.433152 9:-0.77217 10:-0.297987 11:-0.267335 12:-0.616265 13:-0.297229 14:-0.089505 15:-0.247471 16:-0.812609 17:-0.764653 18:-0.776765 19:0.672933 20:-0.262241 21:-0.168104 
1 1:-0.131149 2:0.371849 3:0.816504 4:0.107985 5:-0.738369 6:-0.797204 7:-0.12836 8:0.432075 9:-0.727284 10:-0.310433 11:-0.417372 12:-0.781051 13:-0.188452 14:-0.0867044 15:-0.73393 16:-0.737032 17:-0.779021 18:-0.898729 19:0.692895 20:-0.166227 21:-0.143479 
1 1:-0.00729858 2:0.373992 3:0.818536 4:-0.0203613 5:-0.46832 6:-0.821186 7:-0.169348 8:0.454924 9:-0.766072 10:-0.29458 11:-0.484961 12:-0.786571 13:-0.46051 14:0.251997 15:-0.399333 16:-0.83839 17:-0.807649 18:-0.847509 19:0.677241 20:-0.238001 21:-0.217655 
1 1:-0.000761314 2:0.383587 3:0.781026 4:0.107667 5:-0.449052 6:-0.718165 7:-0.358539 8:0.582939 9:-0.716903 10:-0.298316 11:-0.379041 12:-0.66312 13:-0.357912 14:-0.0638773 15:-0.44772 16:-0.812714 17:-0.751791 18:-0.857146 19:0.719913 20:-0.274383 21:-0.114713 
1 1:0.0906427 2:0.319179 3:0.908889 4:0.181878 5:-0.674519 6:-0.992489 7:-0.484345 8:0.325478 9:-0.788662 10:-0.829801 11:-0.633868 12:-0.829917 13:-0.332548 14:0.163386 15:-0.362054 16:-0.895736 17:-0.874901 18:-0.881025 19:0.868011 20:-0.139395 21:-0.262963 
1 1:-0.0338994 2:0.583036 3:0.845252 4:0.304592 5:0.0331743 6:-0.821186 7:-0.437858 8:0.413555 9:-0.77847 10:-0.143802 11:-0.0439196 12:-0.806068 13:-0.323121 14:0.0466125 15:-0.646616 16:-0.837843 17:-0.739141 18:-0.862253 19:0.775383 20:-0.0649316 21:-0.590335 
1 1:0.00292393 2:0.579055 3:0.874546 4:0.126652 5:-0.342446 6:-0.821186 7:0.0179698 8:0.59214 9:-0.771781 10:-0.143736 11:-0.0184773 12:-0.775246 13:-0.620258 14:0.0379248 15:-0.639541 16:-0.866856 17:-0.79026 18:-0.865752 19:0.810415 20:-0.154122 21:-0.50518 
1 1:0.0208555 2:0.444524 3:0.841973 4:0.174594 5:-0.364413 6:-0.743955 7:-0.10886 8:0.565887 9:-0.880842 10:-0.137231 11:-0.309805 12:-0.766468 13:-0.351184 14:0.0675551 15:-0.694641 16:-0.825735 17:-0.748537 18:-0.882604 19:0.728106 20:-0.0540204 21:-0.634742 
1 1:-0.00514432 2:0.449321 3:0.82647 4:0.106528 5:-0.3728 6:-0.653791 7:-0.317944 8:0.425631 9:-0.868184 10:-0.138547 11:-0.193723 12:-0.740999 13:-0.39636 14:0.0779582 15:-0.641537 16:-0.820047 17:-0.760129 18:-0.886361 19:0.729061 20:-0.0514016 21:-0.588652 
1 1:-0.0145756 2:0.529448 3:0.853056 4:0.206126 5:-0.556979 6:-0.821186 7:-0.293614 8:0.625596 9:-0.79633 10:-0.148007 11:-0.133341 12:-0.820894 13:-0.426632 14:0.0431751 15:-0.652539 16:-0.835582 17:-0.722368 18:-0.857285 19:0.800651 20:-0.06153 21:-0.512431 
1 1:-0.0131619 2:0.432377 3:0.843858 4:0.169861 5:-0.391007 6:-0.606728 7:0.0436498 8:0.462772 9:-0.769221 10:-0.138471 11:-0.228599 12:-0.754002 13:-0.426698 14:0.155218 15:-0.652659 16:-0.820272 17:-0.724594 18:-0.881887 19:0.719847 20:-0.130225 21:-0.614248 
1 1:-0.118815 2:0.383689 3:0.862287 4:0.168514 5:-0.611273 6:-0.821186 7:-0.429654 8:0.418982 9:-0.692613 10:-0.142826 11:-0.183315 12:-0.747965 13:-0.143143 14:-0.0696345 15:-0.730741 16:-0.795158 17:-0.838544 18:-0.912072 19:0.76416 20:-0.0800734 21:-0.421785 
1 1:0.0926557 2:0.279269 3:0.714495 4:-0.0162599 5:-0.615562 6:-0.577275 7:-0.68937 8:0.477864 9:-0.678068 10:-0.172925 11:-0.326528 12:-0.575719 13:-0.417225 14:0.0142921 15:-0.774063 16:-0.784743 17:-0.734215 18:-0.749337 19:0.544862 20:-0.202992 21:-0.247307 
1 1:0.226711 2:0.424518 3:0.706604 4:0.0428715 5:-0.493063 6:-0.561909 7:-0.234058 8:0.357952 9:-0.723922 10:-0.174329 11:-0.320793 12:-0.664102 13:-0.492065 14:0.243777 15:-0.57715 16:-0.790531 17:-0.648891 18:-0.809898 19:0.535968 20:-0.199257 21:-0.364815 
1 1:0.10608 2:0.36797 3:0.803578 4:0.0317779 5:-0.66609 6:-0.777203 7:-0.419167 8:0.597563 9:-0.756493 10:0.116838 11:-0.292727 12:-0.832176 13:-0.491536 14:0.109382 15:-0.376124 16:-0.855202 17:-0.736309 18:-0.720022 19:0.696855 20:-0.33154 21:-0.493242 
1 1:-0.10416 2:0.338165 3:0.843705 4:0.0771333 5:-0.711219 6:-0.821186 7:-0.406588 8:0.349255 9:-0.742785 10:0.114138 11:-0.269859 12:-0.8359 13:-0.406211 14:0.0886407 15:-0.68498 16:-0.809674 17:-0.781337 18:-0.821467 19:0.731879 20:-0.10315 21:-0.632421 
1 1:0.0923254 2:0.368888 3:0.824293 4:-0.0124958 5:-0.796593 6:-0.821186 7:-0.402445 8:0.345296 9:-0.836203 10:0.114 11:-0.377048 12:-0.859048 13:-0.441365 14:0.257085 15:-0.685235 16:-0.857407 17:-0.751312 18:-0.89418 19:0.7021 20:-0.347849 21:-0.718419 
1 1:0.199563 2:0.37685 3:0.823597 4:-0.029263 5:-0.717947 6:-0.821186 7:-0.543321 8:0.345026 9:-0.837076 10:0.113751 11:-0.3829 12:-0.859048 13:-0.423146 14:0.257345 15:-0.672759 16:-0.857407 17:-0.751312 18:-0.89418 19:0.701333 20:-0.302552 21:-0.802964 
1 1:0.0599111 2:0.375013 3:0.810749 4:0.0146829 5:-0.66815 6:-0.75419 7:-0.413346 8:0.476851 9:-0.756717 10:0.118078 11:-0.285065 12:-0.781388 13:-0.534787 14:0.0846251 15:-0.270519 16:-0.845915 17:-0.726902 18:-0.772215 19:0.673111 20:-0.349866 21:-0.54544 
1 1:0.0857616 2:0.402368 3:0.78516 4:0.0214262 5:-0.668681 6:-0.719516 7:-0.39075 8:0.511792 9:-0.75838 10:0.117775 11:-0.268045 12:-0.762843 13:-0.468283 14:0.143522 15:-0.319094 16:-0.856575 17:-0.730029 18:-0.788673 19:0.685825 20:-0.348548 21:-0.547517 
1 1:0.176513 2:0.343166 3:0.828031 4:-0.0145585 5:-0.746583 6:-0.821186 7:-0.523191 8:0.345901 9:-0.824017 10:0.11523 11:-0.332824 12:-0.859048 13:-0.431561 14:0.213491 15:-0.679285 16:-0.857407 17:-0.751312 18:-0.89418 19:0.703361 20:-0.292961 21:-0.661201 
1 1:0.0140523 2:0.340308 3:0.844044 4:0.101965 5:-0.687255 6:-0.821186 7:-0.399328 8:0.358226 9:-0.747551 10:0.113357 11:-0.266825 12:-0.822887 13:-0.399006 14:-0.0169757 15:-0.438675 16:-0.830487 17:-0.75283 18:-0.815756 19:0.752339 20:-0.235074 21:-0.646011 
1 1:0.119617 2:0.395733 3:0.821733 4:0.0360493 5:-0.677199 6:-0.771075 7:-0.409585 8:0.500401 9:-0.753331 10:0.117762 11:-0.0562017 12:-0.814822 13:-0.536884 14:0.0434805 15:-0.53746 16:-0.856528 17:-0.725787 18:-0.817977 19:0.658469 20:-0.332445 21:-0.521062 
1 1:-0.00694667 2:0.463713 3:0.495818 4:0.223879 5:-0.327995 6:-0.0514622 7:-0.251546 8:0.461674 9:-0.72634 10:0.0251187 11:-0.321383 12:-0.303197 13:-0.0985426 14:0.168539 15:-0.805566 16:-0.357387 17:-0.445222 18:-0.826414 19:0.453264 20:-0.100434 21:-0.248294 
1 1:-0.21391 2:0.457895 3:0.715492 4:0.312644 5:-0.738135 6:-0.685376 7:-0.342709 8:0.49826 9:-0.715688 10:0.340938 11:-0.0865851 12:-0.823375 13:-0.161382 14:0.0298805 15:-0.534525 16:-0.660436 17:-0.695334 18:-0.764802 19:0.544919 20:0.195426 21:-0.661827 
1 1:0.101239 2:0.353067 3:0.740012 4:0.330589 5:-0.327584 6:-0.502217 7:-0.515116 8:0.155659 9:-0.776382 10:0.252016 11:-0.329492 12:-0.793063 13:-0.276027 14:0.0340131 15:-0.266378 16:-0.754163 17:-0.67285 18:-0.656805 19:0.756149 20:-0.056722 21:-0.844841 
1 1:-0.223731 2:0.502705 3:0.854596 4:0.446102 5:-0.17486 6:-0.616314 7:0.384983 8:0.343768 9:-0.81097 10:0.454294 11:-0.0164948 12:-0.828571 13:-0.0545372 14:-0.298587 15:-0.53222 16:-0.703604 17:-0.763976 18:-0.715711 19:0.783266 20:0.189395 21:-0.48157 
1 1:-0.447945 2:0.353067 3:0.843387 4:0.407471 5:-0.734149 6:-0.486993 7:-0.642661 8:0.553045 9:-0.819534 10:0.450975 11:-0.31454 12:-0.768394 13:-0.0373703 14:-0.4287 15:-0.609096 16:-0.541667 17:-0.711045 18:-0.835036 19:0.75391 20:0.114332 21:-0.814498 
1 1:-0.498503 2:0.402368 3:0.825148 4:0.467674 5:-0.733813 6:-0.486993 7:-0.566619 8:0.650187 9:-0.827072 10:0.447277 11:-0.305992 12:-0.797358 13:-0.0193831 14:-0.381851 15:-0.586195 16:-0.541667 17:-0.752559 18:-0.847402 19:0.670717 20:0.325462 21:-0.770367 
1 1:-0.384073 2:0.431765 3:0.818042 4:0.368983 5:-0.290966 6:-0.486993 7:-0.533175 8:0.260493 9:-0.802335 10:0.455984 11:-0.216928 12:-0.711757 13:-0.0532339 14:-0.44785 15:-0.549265 16:-0.544848 17:-0.777948 18:-0.440214 19:0.708535 20:0.196141 21:-0.758534 
1 1:-0.616438 2:0.343575 3:0.822218 4:0.453367 5:-0.507189 6:-0.486993 7:-0.138606 8:0.661204 9:-0.811902 10:0.45071 11:0.00698599 12:-0.779032 13:-0.0207723 14:-0.456797 15:-0.612727 16:-0.506847 17:-0.764366 18:-0.787772 19:0.753925 20:0.162288 21:-0.520253 
1 1:-0.608851 2:0.366132 3:0.823078 4:0.438638 5:-0.357449 6:-0.486993 7:0.0240612 8:0.623502 9:-0.811347 10:0.453933 11:-0.0345071 12:-0.746063 13:-0.0368807 14:-0.45206 15:-0.652552 16:-0.521336 17:-0.769083 18:-0.765712 19:0.761516 20:0.163263 21:-0.490055 
1 1:-0.315989 2:0.515566 3:0.857142 4:0.511563 5:-0.251241 6:-0.687839 7:0.218903 8:0.511468 9:-0.803255 10:0.455062 11:-0.205408 12:-0.828571 13:-0.210865 14:-0.410545 15:-0.389015 16:-0.688742 17:-0.768363 18:-0.712217 19:0.786309 20:0.187601 21:-0.492988 
1 1:-0.463094 2:0.521894 3:0.856734 4:0.4472 5:-0.0995162 6:-0.696203 7:0.0959168 8:0.367546 9:-0.796413 10:0.454702 11:0.0388312 12:-0.828571 13:-0.186878 14:-0.328789 15:-0.446407 16:-0.59672 17:-0.766501 18:-0.710749 19:0.784851 20:0.307126 21:-0.611306 
1 1:-0.481798 2:0.456364 3:0.841978 4:0.391855 5:-0.493181 6:-0.486993 7:-0.212956 8:0.622421 9:-0.759076 10:0.468809 11:-0.212784 12:-0.780856 13:-0.0863571 14:-0.360941 15:-0.455479 16:-0.60786 17:-0.757264 18:-0.710588 19:0.751342 20:0.260761 21:-0.658444 
1 1:-0.484333 2:0.372461 3:0.825863 4:0.426475 5:-0.547523 6:-0.486993 7:-0.656926 8:0.564567 9:-0.838149 10:0.455275 11:-0.231325 12:-0.77458 13:0.00233523 14:-0.375164 15:-0.715385 16:-0.541667 17:-0.742179 18:-0.806273 19:0.692053 20:0.0312839 21:-0.756185 
1 1:-0.171548 2:0.378177 3:0.80594 4:0.299282 5:-0.654614 6:-0.668654 7:-0.281913 8:0.522748 9:-0.687423 10:0.335517 11:-0.368161 12:-0.706443 13:-0.233906 14:0.095561 15:-0.726252 16:-0.618103 17:-0.702877 18:-0.851054 19:0.675501 20:0.216755 21:-0.652947 
1 1:0.0678563 2:0.436358 3:0.858577 4:0.171137 5:-0.455005 6:-0.818401 7:-0.105635 8:0.53152 9:-0.716891 10:-0.202472 11:-0.401491 12:-0.76422 13:-0.220669 14:0.0745793 15:-0.362295 16:-0.808517 17:-0.770309 18:-0.762896 19:0.764033 20:0.0363161 21:-0.504875 
1 1:0.014408 2:0.43105 3:0.836962 4:0.16999 5:-0.382603 6:-0.720009 7:0.00741152 8:0.572511 9:-0.791777 10:-0.203289 11:-0.509638 12:-0.701291 13:-0.235335 14:-0.00297278 15:-0.419593 16:-0.754228 17:-0.787668 18:-0.801769 19:0.726484 20:-0.00427924 21:-0.429462 
1 1:0.147233 2:0.318465 3:0.757799 4:-0.0487964 5:-0.600304 6:-0.701302 7:-0.433255 8:0.366288 9:-0.803125 10:-0.250201 11:-0.620943 12:-0.717563 13:-0.312014 14:0.204433 15:-0.40019 16:-0.804591 17:-0.723408 18:-0.71606 19:0.599631 20:-0.322439 21:-0.0671033 
1 1:0.21355 2:0.266918 3:0.714087 4:-0.109399 5:-0.636909 6:-0.701302 7:-0.346421 8:0.35555 9:-0.68379 10:-0.251599 11:-0.594897 12:-0.717419 13:-0.315752 14:0.127693 15:-0.282713 16:-0.801065 17:-0.748033 18:-0.658437 19:0.557534 20:-0.328882 21:0.0600234 
1 1:-0.0461287 2:0.379198 3:0.771538 4:0.346463 5:-0.658051 6:-0.269503 7:-0.371092 8:0.462455 9:-0.712927 10:0.471233 11:-0.0704581 12:-0.553568 13:-0.221046 14:-0.170644 15:-0.262814 16:-0.6003 17:-0.629317 18:-0.485925 19:0.464566 20:-0.0518499 21:-0.671455 
1 1:0.06147 2:0.482188 3:0.722717 4:0.187191 5:-0.610053 6:-0.385088 7:-0.294104 8:0.187215 9:-0.826907 10:0.470027 11:-0.152159 12:-0.66749 13:-0.403247 14:-0.0871397 15:-0.294183 16:-0.709936 17:-0.485874 18:-0.581516 19:0.538545 20:-0.120869 21:-0.708441 
1 1:-0.00309652 2:0.480147 3:0.737752 4:0.0371094 5:-0.640709 6:-0.127166 7:-0.321224 8:0.349568 9:-0.856859 10:0.469998 11:-0.128784 12:-0.695231 13:-0.281385 14:-0.00447379 15:-0.23186 16:-0.604489 17:-0.545125 18:-0.556007 19:0.586075 20:-0.134949 21:-0.782684 
1 1:0.0533262 2:0.411759 3:0.848625 4:0.0230127 5:-0.913797 6:-0.757705 7:-0.718397 8:0.423774 9:-0.816526 10:-0.350923 11:-0.461563 12:-0.804383 13:-0.344972 14:0.0123297 15:-0.390904 16:-0.865968 17:-0.829417 18:-0.80197 19:0.757584 20:-0.212039 21:-0.692986 
1 1:-0.216525 2:0.425947 3:0.751817 4:0.19811 5:-0.761719 6:-0.497334 7:-0.598757 8:0.503304 9:-0.841311 10:0.0184689 11:-0.207616 12:-0.592957 13:-0.190351 14:-0.106984 15:-0.423412 16:-0.694375 17:-0.691975 18:-0.731362 19:0.661051 20:0.0209722 21:-0.712528 
1 1:-0.194643 2:0.445851 3:0.773998 4:0.211039 5:-0.771491 6:-0.608461 7:-0.652602 8:0.510421 9:-0.76094 10:0.0165403 11:0.00295382 12:-0.574862 13:-0.179971 14:-0.112299 15:-0.606081 16:-0.677201 17:-0.699139 18:-0.854279 19:0.639377 20:-0.00126522 21:-0.714842 
0.4745210500599274 1:0.494114 2:0.375013 3:0.779305 4:-0.273479 5:-0.871164 6:-0.622864 7:-0.394806 8:0.213656 9:-0.864491 10:-0.323458 11:-0.530943 12:-0.702441 13:-0.825751 14:0.579627 15:-0.514438 16:-0.900531 17:-0.684291 18:-0.70114 19:0.533362 20:-0.506869 21:-0.780749 
1 1:0.136377 2:0.380423 3:0.844127 4:0.00757358 5:-0.769667 6:-0.856303 7:-0.586324 8:0.404124 9:-0.809212 10:-0.351402 11:-0.499208 12:-0.793062 13:-0.496457 14:0.179793 15:-0.400512 16:-0.870458 17:-0.737375 18:-0.781179 19:0.609024 20:-0.353279 21:-0.712334 
1 1:0.167455 2:0.369603 3:0.807471 4:-0.10179 5:-0.78892 6:-0.774317 7:-0.582392 8:0.404407 9:-0.825928 10:-0.346591 11:-0.711073 12:-0.813017 13:-0.447438 14:0.201697 15:-0.43302 16:-0.870783 17:-0.773325 18:-0.806283 19:0.785387 20:-0.375563 21:-0.708596 
1 1:0.31085 2:0.429417 3:0.804642 4:-0.0839124 5:-0.794387 6:-0.777184 7:-0.585132 8:0.387123 9:-0.807443 10:-0.351255 11:-0.569709 12:-0.802598 13:-0.442119 14:0.131722 15:-0.433127 16:-0.869147 17:-0.833912 18:-0.783952 19:0.744461 20:-0.252214 21:-0.696115 
1 1:0.241756 2:0.419006 3:0.846075 4:0.0299067 5:-0.770751 6:-0.836041 7:-0.581737 8:0.384902 9:-0.810439 10:-0.349832 11:-0.566165 12:-0.791094 13:-0.514855 14:0.144594 15:-0.398086 16:-0.870381 17:-0.722194 18:-0.813933 19:0.719292 20:-0.276299 21:-0.69978 
1 1:0.292967 2:0.537001 3:0.884572 4:0.0251687 5:-0.489181 6:-0.873208 7:-0.519073 8:0.370315 9:-0.723379 10:-0.395392 11:-0.494493 12:-0.803175 13:-0.383917 14:0.369186 15:-0.882174 16:-0.881919 17:-0.791178 18:-0.969475 19:0.762565 20:-0.00658556 21:-0.512399 
1 1:0.339797 2:0.542921 3:0.880021 4:0.135217 5:-0.781486 6:-0.894414 7:-0.242548 8:0.407449 9:-0.724724 10:-0.390856 11:-0.467764 12:-0.803175 13:-0.387099 14:0.383748 15:-0.879025 16:-0.874458 17:-0.786334 18:-0.969475 19:0.77424 20:-0.0481403 21:-0.442364 
1 1:0.45705 2:0.519343 3:0.866876 4:0.0861474 5:-0.493747 6:-0.87502 7:-0.267115 8:0.40913 9:-0.719876 10:-0.395609 11:-0.388431 12:-0.803175 13:-0.39857 14:0.455329 15:-0.880968 16:-0.879971 17:-0.791056 18:-0.969475 19:0.769353 20:-0.137531 21:-0.721084 
1 1:0.361526 2:0.540778 3:0.881073 4:0.109332 5:-0.486599 6:-0.893433 7:-0.710109 8:0.417647 9:-0.725302 10:-0.406175 11:-0.400315 12:-0.803175 13:-0.379465 14:0.405438 15:-0.88078 16:-0.871191 17:-0.786113 18:-0.969475 19:0.802372 20:-0.115671 21:-0.642919 
1 1:0.383334 2:0.457793 3:0.816061 4:-0.0060469 5:-0.856911 6:-0.822878 7:-0.704045 8:0.361072 9:-0.819192 10:-0.371441 11:-0.673128 12:-0.802019 13:-0.553396 14:0.365535 15:-0.732644 16:-0.872382 17:-0.746387 18:-0.844509 19:0.576955 20:-0.273066 21:-0.758742 
1 1:0.298238 2:0.533224 3:0.874045 4:0.126667 5:-0.82961 6:-0.870084 7:-0.362832 8:0.384778 9:-0.724783 10:-0.399528 11:-0.474406 12:-0.803175 13:-0.388845 14:0.416393 15:-0.88267 16:-0.881665 17:-0.793546 18:-0.969475 19:0.774061 20:-0.0311238 21:-0.627307 
1 1:-0.00924463 2:0.343881 3:0.844245 4:0.0382053 5:-0.794733 6:-0.852638 7:-0.716909 8:0.383008 9:-0.720418 10:-0.39649 11:-0.527994 12:-0.7659 13:-0.366148 14:0.242959 15:-0.833492 16:-0.859865 17:-0.798133 18:-0.90528 19:0.753261 20:-0.102362 21:-0.603289 
1 1:-0.302063 2:0.336225 3:0.792851 4:0.317949 5:-0.78547 6:-0.486993 7:-0.657689 8:0.541449 9:-0.784286 10:-0.0724266 11:-0.0901259 12:-0.509546 13:-0.101017 14:-0.311713 15:-0.357766 16:-0.648585 17:-0.738517 18:-0.572373 19:0.707669 20:0.176836 21:-0.563191 
1 1:-0.0339475 2:0.394713 3:0.849609 4:0.1605 5:-0.697865 6:-0.821186 7:-0.547806 8:0.449655 9:-0.784946 10:-0.021909 11:-0.197612 12:-0.782815 13:-0.183643 14:-0.295273 15:-0.61727 16:-0.793259 17:-0.84321 18:-0.830456 19:0.762118 20:-0.116629 21:-0.622811 
1 1:-0.0333718 2:0.395019 3:0.851691 4:0.106937 5:-0.696922 6:-0.821186 7:-0.585562 8:0.424506 9:-0.776877 10:-0.0236106 11:-0.0787997 12:-0.786739 13:-0.163889 14:-0.282167 15:-0.491685 16:-0.791891 17:-0.822365 18:-0.863801 19:0.748332 20:-0.112987 21:-0.626139 
1 1:-0.0525624 2:0.425641 3:0.860182 4:0.20269 5:-0.715689 6:-0.821186 7:-0.565848 8:0.439136 9:-0.8004 10:-0.0198329 11:-0.136959 12:-0.790567 13:-0.228039 14:-0.058861 15:-0.598095 16:-0.798371 17:-0.809916 18:-0.858205 19:0.792706 20:-0.011981 21:-0.821095 
1 1:-0.0397755 2:0.406859 3:0.85176 4:0.135441 5:-0.708788 6:-0.821186 7:-0.546379 8:0.450623 9:-0.809613 10:-0.0211479 11:-0.0333021 12:-0.781064 13:-0.150275 14:-0.209969 15:-0.469428 16:-0.792071 17:-0.840944 18:-0.713674 19:0.746799 20:-0.0292359 21:-0.624196 
1 1:-0.0265477 2:0.449015 3:0.859598 4:0.206193 5:-0.716547 6:-0.821186 7:-0.543114 8:0.459691 9:-0.756858 10:-0.0190534 11:-0.226264 12:-0.791646 13:-0.280102 14:-0.0601021 15:-0.614121 16:-0.812802 17:-0.807826 18:-0.867336 19:0.746112 20:-0.153547 21:-0.69287 
1 1:-0.0365247 2:0.405328 3:0.862909 4:0.195695 5:-0.716507 6:-0.821186 7:-0.597068 8:0.450018 9:-0.761105 10:-0.0199673 11:-0.0810328 12:-0.822886 13:-0.260851 14:-0.0616031 15:-0.628258 16:-0.814951 17:-0.810496 18:-0.869333 19:0.750195 20:-0.110108 21:-0.822217 
1 1:-0.0579713 2:0.3793 3:0.83734 4:0.122939 5:-0.740934 6:-0.710844 7:-0.611297 8:0.460789 9:-0.780275 10:-0.0230069 11:-0.0308427 12:-0.748038 13:-0.205454 14:-0.0632925 15:-0.601297 16:-0.759408 17:-0.777867 18:-0.820003 19:0.717862 20:-0.0560154 21:-0.646652 
1 1:0.36491 2:0.408492 3:0.738148 4:-0.0902178 5:-0.690567 6:-0.578522 7:-0.607464 8:0.55928 9:-0.78891 10:-0.125077 11:-0.371845 12:-0.536594 13:-0.510423 14:0.344858 15:-0.712035 16:-0.845522 17:-0.527199 18:-0.879536 19:0.534947 20:-0.354748 21:-0.683411 
1 1:-0.0760896 2:0.414413 3:0.743001 4:0.198074 5:-0.627207 6:-0.486993 7:-0.493442 8:0.514487 9:-0.68727 10:-0.0742999 11:-0.0948669 12:-0.473171 13:-0.216131 14:-0.178656 15:0.160478 16:-0.704475 17:-0.712367 18:-0.525716 19:0.641 20:0.140125 21:-0.414227 
1 1:0.127252 2:0.459835 3:0.845753 4:0.123455 5:-0.682689 6:-0.806528 7:-0.446715 8:0.481034 9:-0.720654 10:-0.0656458 11:-0.27875 12:-0.54496 13:-0.27815 14:-0.0586855 15:-0.591555 16:-0.766559 17:-0.732766 18:-0.643199 19:0.667495 20:0.129769 21:-0.344215 
1 1:-0.0688545 2:0.549658 3:0.848419 4:0.352721 5:-0.70802 6:-0.720137 7:-0.436883 8:0.578544 9:-0.810958 10:-0.0718832 11:-0.07699 12:-0.542051 13:-0.0865622 14:-0.102124 15:0.0302169 16:-0.719123 17:-0.741088 18:-0.668192 19:0.617679 20:0.214027 21:-0.625956 
1 1:0.0192768 2:0.41625 3:0.83025 4:0.136506 5:-0.731378 6:-0.603429 7:-0.409792 8:0.515805 9:-0.686821 10:-0.0661979 11:-0.124228 12:-0.610005 13:-0.324616 14:0.127459 15:-0.234553 16:-0.819212 17:-0.712642 18:-0.773695 19:0.611277 20:-0.000628195 21:-0.364329 
1 1:0.00365828 2:0.418598 3:0.787553 4:0.135619 5:-0.637529 6:-0.547016 7:-0.419517 8:0.451347 9:-0.759642 10:-0.069007 11:-0.159591 12:-0.42763 13:-0.306993 14:0.0103414 15:-0.148418 16:-0.837816 17:-0.744041 18:-0.569308 19:0.737678 20:0.101308 21:-0.326726 
1 1:-0.0737067 2:0.499132 3:0.835161 4:0.225374 5:-0.698673 6:-0.604014 7:-0.679837 8:0.471549 9:-0.781867 10:-0.0708043 11:-0.0882243 12:-0.598831 13:-0.0427618 14:-0.161722 15:-0.0660351 16:-0.724984 17:-0.768969 18:-0.877838 19:0.773689 20:0.163528 21:-0.543947 
1 1:0.101702 2:0.432479 3:0.793953 4:0.108445 5:-0.615455 6:-0.706988 7:-0.438618 8:0.541434 9:-0.730965 10:-0.0665154 11:-0.207398 12:-0.530977 13:-0.360306 14:-0.0171901 15:0.207231 16:-0.779422 17:-0.739001 18:-0.671517 19:0.633893 20:0.0160714 21:-0.368815 
1 1:0.104972 2:0.356742 3:0.659901 4:0.0295884 5:-0.792386 6:-0.121429 7:-0.541445 8:0.374463 9:-0.688426 10:0.0823045 11:-0.396104 12:-0.580747 13:-0.250451 14:-0.0156761 15:-0.138542 16:-0.622438 17:-0.5557 18:-0.393412 19:0.440738 20:-0.248491 21:-0.600055 
1 1:-0.0240261 2:0.522813 3:0.696425 4:0.0920914 5:-0.475814 6:-0.375289 7:0.077796 8:0.354244 9:-0.74341 10:0.309922 11:-0.0440276 12:-0.622264 13:-0.390731 14:-0.029861 15:-0.113645 16:-0.633099 17:-0.578515 18:-0.553581 19:0.385404 20:0.0632998 21:-0.0162924 
1 1:0.0934148 2:0.389813 3:0.591474 4:0.319466 5:0.0994503 6:-0.461026 7:-0.088763 8:0.36191 9:-0.736839 10:0.307953 11:-0.0469333 12:-0.564772 13:-0.412317 14:-0.0336817 15:0.115655 16:-0.723429 17:-0.545816 18:-0.212263 19:0.623187 20:-0.0318801 21:-0.39204 
1 1:0.173012 2:0.482086 3:0.751703 4:0.0817349 5:-0.0713526 6:-0.486993 7:-0.139511 8:0.586096 9:-0.792496 10:0.314348 11:-0.105606 12:-0.677744 13:-0.466688 14:0.377803 15:-0.0528495 16:-0.829054 17:-0.599087 18:-0.696403 19:0.598869 20:0.0185964 21:-0.217385 
1 1:0.234813 2:0.621211 3:0.707483 4:-0.00612587 5:-0.411818 6:-0.486993 7:0.141542 8:0.563328 9:-0.812869 10:0.311185 11:-0.382416 12:-0.714446 13:-0.451804 14:0.160501 15:-0.380037 16:-0.758944 17:-0.602687 18:-0.575769 19:0.459891 20:-0.177829 21:-0.297933 
1 1:-0.0628159 2:0.259059 3:0.703208 4:0.269062 5:-0.0721476 6:-0.0930749 7:-0.232295 8:0.534946 9:-0.747787 10:0.309594 11:-0.0432849 12:-0.63098 13:-0.344403 14:-0.0565412 15:-0.264569 16:-0.639742 17:-0.557719 18:-0.552429 19:0.643276 20:0.0753316 21:-0.506657 
1 1:0.146691 2:0.600592 3:0.77352 4:-0.0667145 5:-0.201104 6:-0.579516 7:-0.0783558 8:0.468353 9:-0.6356 10:0.28811 11:-0.0825766 12:-0.791725 13:-0.353585 14:0.0912919 15:-0.583408 16:-0.750971 17:-0.631906 18:-0.919233 19:0.598013 20:-0.185044 21:0.350068 
1 1:-0.0913354 2:0.595693 3:0.754514 4:0.209847 5:-0.773093 6:-0.486993 7:0.39681 8:0.460253 9:-0.887094 10:0.310898 11:-0.102755 12:-0.699654 13:-0.119328 14:-0.0550987 15:-0.726225 16:-0.635724 17:-0.625922 18:-0.746042 19:0.528381 20:0.041961 21:-0.332129 
1 1:0.194212 2:0.384403 3:0.611577 4:-0.241895 5:-0.676731 6:-0.486993 7:0.626348 8:0.567428 9:-0.81235 10:0.311244 11:-0.228926 12:-0.693278 13:-0.499256 14:-0.00795015 15:0.13944 16:-0.788845 17:-0.589433 18:-0.591117 19:0.666089 20:-0.130784 21:0.089627 
1 1:-0.00836468 2:0.389099 3:0.875432 4:0.0681383 5:-0.782957 6:-0.880222 7:-0.677643 8:0.392642 9:-0.810628 10:-0.349919 11:-0.466373 12:-0.794299 13:-0.375819 14:-0.00422037 15:-0.48197 16:-0.797174 17:-0.80808 18:-0.829358 19:0.649612 20:-0.291384 21:-0.701535 
1 1:0.0304411 2:0.291722 3:0.753466 4:0.200945 5:-0.653647 6:-0.486993 7:-0.43756 8:0.653556 9:-0.685429 10:0.206453 11:-0.0780326 12:-0.626113 13:-0.311472 14:0.00485066 15:-0.304206 16:-0.706292 17:-0.609496 18:-0.618927 19:0.557247 20:-0.252806 21:-0.574562 
1 1:-0.0454393 2:0.312749 3:0.67811 4:0.161273 5:-0.651523 6:-0.486993 7:-0.429974 8:0.346502 9:-0.68097 10:0.21038 11:-0.150203 12:-0.631451 13:-0.326078 14:0.0631821 15:-0.318236 16:-0.733058 17:-0.636884 18:-0.613296 19:0.589434 20:-0.297878 21:-0.114432 
1 1:-0.0748656 2:0.314586 3:0.667043 4:0.159562 5:-0.653242 6:-0.486993 7:-0.387552 8:0.493006 9:-0.66823 10:0.210122 11:-0.0897787 12:-0.626869 13:-0.333594 14:-0.136608 15:-0.324038 16:-0.737652 17:-0.665556 18:-0.620036 19:0.624443 20:-0.0500227 21:-0.380475 
1 1:-0.0702453 2:0.418393 3:0.809414 4:0.154791 5:-0.526651 6:-0.641249 7:-0.000775685 8:0.392804 9:-0.674281 10:0.154343 11:-0.230788 12:-0.792322 13:-0.285109 14:-0.129356 15:0.0647889 16:-0.748101 17:-0.705179 18:-0.791338 19:0.748939 20:-0.164444 21:-0.238337 
1 1:-0.0385445 2:0.482903 3:0.847978 4:0.235224 5:-0.359428 6:-0.769101 7:0.169977 8:0.503793 9:-0.688721 10:0.153957 11:-0.270534 12:-0.813336 13:-0.16936 14:-0.178955 15:-0.59717 16:-0.758198 17:-0.820036 18:-0.823227 19:0.748125 20:0.0598486 21:-0.397171 
1 1:-0.0682088 2:0.355823 3:0.84099 4:0.0167432 5:-0.529983 6:-0.821186 7:-0.504701 8:0.284284 9:-0.73796 10:0.155377 11:-0.228663 12:-0.828571 13:-0.288986 14:-0.110058 15:-0.672505 16:-0.793464 17:-0.815498 18:-0.873471 19:0.648192 20:-0.369641 21:-0.410684 
1 1:-0.0653643 2:0.468919 3:0.86737 4:0.235346 5:-0.291419 6:-0.724919 7:0.142229 8:0.510041 9:-0.67532 10:0.153725 11:-0.257986 12:-0.811285 13:-0.0799468 14:-0.0301989 15:-0.419366 16:-0.757376 17:-0.743324 18:-0.830084 19:0.78241 20:0.071006 21:-0.520794 
1 1:-0.022316 2:0.476574 3:0.85653 4:0.235497 5:-0.452061 6:-0.739697 7:-0.068565 8:0.503371 9:-0.718956 10:0.153843 11:-0.225628 12:-0.783441 13:-0.0711285 14:-0.208578 15:-0.681831 16:-0.7588 17:-0.799402 18:-0.857977 19:0.785914 20:0.0894455 21:-0.382136 
1 1:-0.0865162 2:0.464428 3:0.884929 4:0.238181 5:-0.529149 6:-0.821186 7:-0.0626418 8:0.584206 9:-0.672536 10:0.153145 11:-0.140061 12:-0.828571 13:-0.0379392 14:-0.180228 15:-0.430019 16:-0.779018 17:-0.851724 18:-0.809524 19:0.79859 20:0.0946621 21:-0.176223 
1 1:-0.0448766 2:0.392263 3:0.84204 4:0.234073 5:-0.411489 6:-0.622731 7:-0.114616 8:0.376367 9:-0.730151 10:0.161335 11:-0.244684 12:-0.734643 13:-0.107189 14:-0.163776 15:-0.364305 16:-0.754444 17:-0.698469 18:-0.489742 19:0.767005 20:-0.1695 21:-0.313989 
1 1:-0.0936184 2:0.425436 3:0.85605 4:0.227559 5:-0.67396 6:-0.676802 7:-0.153982 8:0.488964 9:-0.678422 10:0.147963 11:-0.0473005 12:-0.764812 13:-0.0443693 14:-0.0683414 15:-0.434709 16:-0.646825 17:-0.773347 18:-0.75259 19:0.645383 20:0.105594 21:-0.359582 
1 1:-0.0454481 2:0.478718 3:0.842815 4:0.233857 5:-0.21645 6:-0.744843 7:-0.258635 8:0.502962 9:-0.777361 10:0.153718 11:-0.231443 12:-0.823272 13:-0.181949 14:0.0336622 15:-0.49395 16:-0.759323 17:-0.735608 18:-0.823399 19:0.75019 20:0.0623393 21:-0.561947 
1 1:-0.123675 2:0.437175 3:0.80969 4:0.235286 5:-0.426212 6:-0.711814 7:-0.170947 8:0.48958 9:-0.694631 10:0.15038 11:-0.122677 12:-0.704649 13:-0.0414453 14:-0.146004 15:-0.411567 16:-0.753159 17:-0.772744 18:-0.737037 19:0.728102 20:0.0981696 21:-0.279594 
1 1:-0.362442 2:0.250587 3:0.852138 4:0.398995 5:-0.685694 6:-0.701302 7:-0.330015 8:0.420044 9:-0.736674 10:0.424685 11:0.00628118 12:-0.817029 13:-0.192408 14:-0.298568 15:-0.0277648 16:-0.715882 17:-0.803578 18:-0.672897 19:0.713393 20:-0.0675702 21:-0.555372 
1 1:-0.434378 2:0.401449 3:0.772906 4:0.354678 5:-0.657104 6:-0.68416 7:-0.600237 8:0.393843 9:-0.840049 10:0.425426 11:0.00687034 12:-0.756527 13:-0.0443098 14:-0.319335 15:-0.641953 16:-0.617249 17:-0.761921 18:-0.786925 19:0.694377 20:-0.0174526 21:-0.447044 
1 1:-0.349997 2:0.435337 3:0.807487 4:0.397858 5:-0.553081 6:-0.701302 7:-0.364182 8:0.364088 9:-0.612585 10:0.422035 11:-0.154984 12:-0.828571 13:-0.0130455 14:-0.304961 15:-0.480711 16:-0.704938 17:-0.803597 18:-0.776786 19:0.688991 20:0.0944501 21:-0.478935 
1 1:-0.479382 2:0.457181 3:0.814872 4:0.295078 5:-0.673088 6:-0.701302 7:-0.305655 8:0.52525 9:-0.753791 10:0.419159 11:-0.0718771 12:-0.828587 13:-0.101553 14:-0.320654 15:-0.734091 16:-0.693699 17:-0.804172 18:-0.880538 19:0.782226 20:0.149343 21:-0.47079 
1 1:-0.358442 2:0.205165 3:0.834052 4:0.367413 5:-0.637819 6:-0.701302 7:-0.24152 8:0.604777 9:-0.663464 10:0.421693 11:-0.287904 12:-0.828571 13:-0.048021 14:-0.215473 15:-0.512522 16:-0.711766 17:-0.801683 18:-0.776786 19:0.653808 20:0.130157 21:-0.457363 
1 1:-0.141163 2:0.435848 3:0.589846 4:0.121163 5:-0.804332 6:-0.0514622 7:-0.685964 8:0.421747 9:-0.820749 10:0.298556 11:-0.0529069 12:-0.447619 13:-0.3835 14:-0.148902 15:-0.457864 16:-0.507806 17:-0.482481 18:-0.599546 19:0.508428 20:-0.0746647 21:-0.763821 
1 1:-0.108982 2:0.349699 3:0.659363 4:0.309191 5:-0.779587 6:-0.0514622 7:-0.582455 8:0.63346 9:-0.811442 10:0.28043 11:-0.0548415 12:-0.434575 13:-0.0808068 14:-0.188305 15:-0.532904 16:-0.406494 17:-0.506994 18:-0.608 19:0.484881 20:0.0487674 21:-0.808141 
1 1:-0.401031 2:0.424007 3:0.884178 4:0.28509 5:-0.692895 6:-0.711031 7:-0.402208 8:0.591291 9:-0.705802 10:0.407843 11:-0.119388 12:-0.886889 13:0.0447266 14:-0.282349 15:-0.816434 16:-0.644562 17:-0.840259 18:-0.926334 19:0.746135 20:-0.0148603 21:-0.709109 
1 1:-0.438384 2:0.429723 3:0.8495 4:0.34804 5:-0.680336 6:-0.754676 7:-0.47555 8:0.486246 9:-0.806947 10:0.407863 11:-0.117582 12:-0.854428 13:0.0184834 14:-0.244895 15:-0.816434 16:-0.652363 17:-0.834881 18:-0.927741 19:0.699386 20:0.280808 21:-0.720823 
1 1:-0.498358 2:0.36848 3:0.850715 4:0.393338 5:-0.707898 6:-0.701302 7:-0.398313 8:0.589299 9:-0.782127 10:0.410624 11:-0.0099817 12:-0.829354 13:-0.113427 14:-0.324481 15:-0.620767 16:-0.693752 17:-0.799982 18:-0.87831 19:0.781775 20:-0.026711 21:-0.704337 
1 1:-0.188905 2:0.36205 3:0.767211 4:0.0617971 5:-0.813847 6:-0.566923 7:-0.533751 8:0.591633 9:-0.679047 10:0.267789 11:-0.346581 12:-0.782434 13:-0.185971 14:-0.0437404 15:-0.438621 16:-0.758083 17:-0.769826 18:-0.733157 19:0.698643 20:-0.00981818 21:-0.725906 
1 1:-0.149845 2:0.275186 3:0.74868 4:0.0668174 5:-0.830626 6:-0.486993 7:-0.731598 8:0.808154 9:-0.836793 10:0.264092 11:-0.156606 12:-0.651558 13:-0.24547 14:-0.0249421 15:-0.400498 16:-0.684589 17:-0.644785 18:-0.714312 19:0.615562 20:0.0257306 21:-0.843991 
1 1:0.0799585 2:0.313055 3:0.755814 4:-0.0414238 5:-0.581579 6:-0.780168 7:-0.19737 8:0.674824 9:-0.70894 10:-0.204208 11:-0.584136 12:-0.724116 13:-0.376719 14:0.158896 15:-0.372881 16:-0.833404 17:-0.802114 18:-0.773505 19:0.589998 20:-0.0707443 21:-0.0983598 
1 1:0.0290939 2:0.324691 3:0.809221 4:-0.0189375 5:-0.770203 6:-0.701302 7:-0.397372 8:0.280114 9:-0.672996 10:-0.20415 11:-0.556533 12:-0.700674 13:-0.41493 14:0.154471 15:-0.460343 16:-0.808899 17:-0.69186 18:-0.80723 19:0.545601 20:-0.287878 21:-0.216046 
1 1:0.0908568 2:0.378483 3:0.815528 4:0.0631347 5:-0.533765 6:-0.818793 7:-0.155753 8:0.50365 9:-0.55668 10:-0.19888 11:-0.594051 12:-0.713901 13:-0.39515 14:0.114268 15:-0.219237 16:-0.832638 17:-0.809034 18:-0.771655 19:0.641781 20:-0.326763 21:-0.195051 
